981 64
1240127 5.7289586 -3.1878386 -4.582071 -8.323162 8.6372175 -1.7432792 7.4756694 5.4078116 -0.9682177 -1.8785994 -4.4193726 5.893409 -4.091401 -5.3624506 0.56415486 -0.7278181 -0.9744596 1.3272772 -1.8127525 -0.49357504 -6.2274632 10.020125 9.9275255 -2.154087 -3.1553497 3.0886467 -7.4516187 17.090528 9.683534 -9.233985 6.7607284 3.9646153 -0.7035093 -6.196883 -5.6753526 -3.2368119 -7.5794983 -2.4024026 2.7823079 -4.6989822 1.6043179 7.165492 0.7853892 0.9696236 -0.50913465 1.6013848 7.4175534 3.8838148 8.297563 2.021487 9.297897 -5.0580454 -5.4233737 -11.822482 -3.7873287 -13.678811 4.1718144 -9.272742 4.771199 -6.0220094 -3.78343 3.4152715 -1.316615 8.151196
906871 4.1152105 6.2313137 5.3559713 4.133112 7.7023544 2.9236083 2.9345598 1.9401642 2.43997 -1.2722083 13.517745 2.4251392 -6.815177 4.284541 4.0690746 5.33912 5.590518 3.0146844 -6.9642463 1.4953898 -2.836914 4.7383766 8.273225 -0.5506088 -3.3219705 -1.9747763 3.2201536 10.3217945 3.050068 -13.611611 15.6079855 -3.4792655 -9.243403 4.6798735 -7.9166822 1.5445275 10.841706 -2.5783944 -5.1806097 -7.6915994 -1.7902918 2.5364554 -3.8912199 1.0021337 -3.4063656 3.210179 5.43356 6.9178514 5.582687 7.633547 5.5889916 6.7396245 -9.432577 -5.8994813 2.234913 5.2014446 -2.0259182 8.2220545 2.3968983 -8.261276 -9.538646 11.221308 5.436581 -0.65109646
907794 -4.8669863 1.9777822 -0.8757648 -2.058387 7.978774 -13.231466 14.715835 3.781361 -5.399599 8.122547 6.9642377 1.1553786 -2.105648 0.42130238 -6.328509 3.1797893 7.6504817 3.2122493 2.1511285 2.634434 -1.1906885 3.3588922 10.5733385 -1.3321408 -8.774797 2.4426556 4.413836 6.5361195 2.8828485 -13.779038 12.317418 -1.6896628 -4.3162766 -1.4317695 -2.9590607 0.7411136 -3.362044 3.5178766 0.73319054 3.0022893 1.0321 3.1598895 3.734924 -0.2452215 5.0382075 5.700737 8.484081 -1.0725541 5.1690774 0.8772786 5.7729187 -12.821924 -2.3538446 -10.672772 -0.67791826 -10.98962 5.0894933 4.1789947 7.3256645 -6.556339 -4.533928 -7.6678634 -0.3069882 0.9327732
1240208 4.780193 -0.667402 -3.4129589 1.8500835 8.6671295 -1.6976473 -1.349232 -3.9237912 -6.9287324 1.3624101 12.69641 7.581452 -0.22777389 1.1388117 3.2083704 4.8969374 5.1040087 2.6821578 -5.341265 -0.52209103 1.7755644 7.9851365 3.0250006 -1.8031944 4.384051 1.188295 5.096582 8.055009 5.1026254 -11.093258 4.8712826 5.1069026 -4.0534787 -2.3218596 -6.0204787 0.8806763 10.023652 3.9342072 -5.9512043 -9.45614 3.4743557 8.731893 -4.2714577 -1.7265741 -1.6631863 -1.5473549 4.5837235 0.25555673 3.648745 -1.4152936 12.249565 14.585857 -7.4520936 -1.5185413 -3.808793 -0.42226535 2.6449625 4.613658 -0.29129848 -12.30436 -13.541924 4.2743206 -1.8082889 5.8385334
910781 6.676592 -1.8335224 -0.81411076 -2.3716753 3.9445488 -2.6705174 9.241325 6.1799283 5.923093 2.762296 -4.383781 7.689137 -4.1622257 -0.4378968 1.3156419 -0.74561346 -1.1104983 0.30139133 -3.0416005 3.6804895 -8.188346 2.4720855 8.544523 3.6999364 4.648675 8.49254 -6.2620764 18.192038 9.897297 -8.321245 10.010055 0.49243897 -0.2850325 -2.272388 -3.4455166 -3.3779416 -11.540133 -8.125632 2.1022882 0.92015654 -5.276744 7.6569486 -1.4362606 -0.2934488 2.94952 0.31019294 6.9160542 -0.7511242 3.2560055 9.290578 4.2517424 -9.2267 -5.9567738 -5.426239 0.2568533 -13.66638 -0.12078126 -6.3124495 11.41869 -9.4241295 -0.70461464 2.1506162 -1.3784207 5.7876787
905958 0.9789396 3.2041008 -1.7299377 3.3292701 7.5494375 -7.0926557 10.000821 1.1830302 -2.160495 7.5514216 8.415403 -1.7446604 3.813608 3.5307758 3.571363 3.097519 2.5443683 0.66503304 -2.277059 -0.5535386 -2.291547 0.9335752 3.7651396 0.10012496 -1.7773489 0.9318081 10.47414 11.664165 9.067871 -17.418818 3.787535 5.1490455 4.6855183 5.323885 -4.479161 4.645567 -0.10148618 -4.5688634 3.952266 3.402535 6.4489985 4.0099955 -2.9820385 -5.8319573 -1.9809216 -7.362896 8.489787 1.2112964 4.712922 -5.780871 6.9191794 -1.2843937 -6.556413 -7.5757384 1.6504853 -4.4663815 4.050716 8.679301 10.135774 -9.215051 -3.570455 10.686866 4.699768 -0.26771533
1659823 -4.2762856 1.0676273 -4.899467 -7.1409802 4.191626 -16.777746 7.6910696 0.24223644 -7.314105 6.9455843 6.4033833 3.747541 -0.7222243 -2.5427406 -2.0079632 -2.5942025 7.183846 -0.021481866 2.506847 1.6027145 -0.25187746 8.947166 9.491612 -3.9344146 -6.696075 -0.14957005 0.17583854 8.9556 7.9132943 -9.946668 7.5389695 -0.8898898 0.14552274 -5.5447125 0.60883343 -3.2124534 -3.3158944 0.78171563 6.7605844 1.26062 0.4093314 2.259901 2.9989326 -1.467192 5.822605 2.2951343 11.49662 1.177697 9.010958 -4.9713798 7.9516363 -2.4072762 -2.549333 -11.250761 0.9009858 -13.684627 2.2924342 -3.4903069 8.131481 -8.217332 -4.256701 -3.0244226 -1.8748899 2.0421083
907042 2.3751876 5.313498 7.4301176 4.7352777 1.7117459 3.485391 0.25368053 -0.926732 8.470536 3.6536295 6.6290607 3.0774333 -7.0164037 6.1450396 2.2056038 5.571522 7.0444183 6.2558603 -3.1016324 -1.588853 -8.478597 -6.06018 11.326065 3.0975738 -3.306268 -4.3357124 6.9295306 11.998154 6.2676115 -16.183296 13.466437 -2.2056997 -5.065625 3.6101396 -7.2596707 0.44544578 2.192688 -5.0220675 -7.30189 0.7300378 -6.560551 -2.3470948 -2.0087106 5.5768948 -2.1251712 0.6112846 2.6056147 6.5276055 5.802064 8.503268 2.623551 4.0843697 -1.1037185 -6.618358 -0.6754207 7.8554945 -6.6842237 3.6587818 9.657917 0.016343625 -7.074642 8.777907 7.5113587 -7.4905233
907051 4.8808312 -5.955207 -1.0301881 -7.3257785 3.5407858 -2.9491293 8.835891 6.810376 8.21438 1.2574052 -9.323247 0.9556117 -6.385641 1.8239092 -2.7123249 0.4772951 -3.145626 -0.07559915 -0.25306973 -3.348303 -7.6156564 3.730416 5.9024844 1.0634024 -2.1454844 6.489048 -8.676696 17.404343 10.332287 -8.634769 3.185479 8.581632 1.02456 -4.6336474 -4.8984685 -5.678063 -7.036028 -7.101939 0.3907568 -4.50926 0.31363794 9.583518 2.2505522 -2.8869698 -4.8068366 0.5485074 7.9872055 3.2864823 1.0477355 7.282757 3.064659 -3.939725 -3.9761019 -9.508757 -0.7105748 -12.384839 2.8916323 -7.083403 5.739948 -3.149752 2.3241813 3.5677404 -0.23557536 8.196633
908129 8.744187 -2.88921 -2.9965472 -3.8777833 4.4974957 2.0783548 5.0646396 3.9201753 6.965899 -1.5199933 -1.9093649 2.8304832 -3.9603856 -1.3156406 1.7908362 -3.4890294 -4.6933937 -0.14959967 -3.992256 4.333404 -8.15285 5.5545187 2.7255087 0.7036086 2.834362 8.562796 -5.4597573 17.852148 10.965334 -7.5305357 6.2715063 0.55859625 0.9852862 -1.1762387 1.2545348 -2.9333599 -7.8240275 -11.037106 3.6294188 -2.6389115 -2.4150062 9.313659 -3.3430035 -2.3105187 4.582206 1.2962533 2.197029 3.3199546 9.3190365 9.39738 3.1692579 -4.2949934 -6.701626 -6.862839 -2.5326126 -11.0681505 0.20317505 -4.1408706 10.05791 -11.541645 -0.6938896 5.542144 1.7545687 6.3580523
906800 2.400926 11.25693 6.6902385 10.358658 9.339717 -5.354317 13.918219 2.444132 1.4917954 2.6045914 8.116305 -2.494865 5.4285035 -0.053768974 8.935121 2.5811498 1.5652012 -3.648243 -2.7468688 4.8872876 -4.741617 -1.7179914 5.0847588 2.9594994 -6.947146 1.0368823 11.255201 5.3469706 5.828374 -12.766435 8.834893 -3.1803327 2.129595 7.5653844 -2.6587756 8.909172 -1.6372141 -6.032633 3.3186839 6.5444393 5.3975525 0.3942807 -4.4312434 -9.735533 -1.205759 -7.0989604 7.212135 -0.1640781 -2.9062102 -4.560448 3.7073047 -8.520679 -9.133484 -5.0946355 0.9077873 -2.7012415 4.3260374 11.543776 11.5873785 -9.643439 -4.4387183 13.452253 9.259313 3.0670333
687815 6.3443108 -2.7341783 -7.0756593 0.9253146 3.166657 -3.8140922 -0.19357808 -0.6888755 -3.7932484 -0.61130524 8.1603 6.229231 -4.77227 1.6907674 0.25221938 2.6199496 5.0348268 3.359011 -6.8530936 -1.9034641 3.256474 11.881158 0.29880825 -1.9790215 2.349205 -0.6591302 6.2362094 7.1399765 4.482242 -14.128837 3.8735948 6.4159327 -2.2388391 -4.7996087 -2.6801314 6.7351427 8.294031 3.3188725 -6.5951743 -7.700462 3.2030358 9.767842 -0.35301286 -1.7124746 -2.3827078 1.3272717 3.4649496 0.9966011 0.8663769 -0.5147173 9.277147 12.940206 -9.802285 -2.5986192 -5.389135 -2.1699584 2.80125 3.714287 4.498544 -9.496357 -10.4479475 2.7918015 0.67476743 10.942241
909735 7.2715025 -0.48093846 0.051685594 -1.5689785 6.3353834 -4.9120874 11.24767 3.0163596 6.8732824 -0.56627417 -3.3309324 4.055496 -4.360974 2.676743 6.15054 0.9037145 -2.0575216 -0.38229907 -3.444046 1.644946 -7.4891405 2.726954 7.1536813 3.7479315 1.7870206 5.419841 -1.2162904 15.999142 9.843308 -8.87617 7.1350026 1.870442 1.625115 2.839278 -5.92908 1.548058 -10.971965 -5.414004 0.92834926 -1.6426241 1.5714643 4.866466 1.0127691 -2.2179801 0.8873597 -3.9234295 6.108839 1.8839567 1.9703058 8.2899 7.931289 -12.554723 -5.806068 -7.398054 -2.0283089 -14.229375 4.6574955 -3.173165 15.372939 -9.541036 -1.1574099 6.9532127 2.5620108 5.538363
909737 5.127214 -2.6762574 -3.8385305 0.65976936 3.0253105 -2.7751546 -2.9052255 -6.560437 -8.244639 4.5826397 11.515318 7.8795266 -2.5526843 0.040061757 7.5383954 0.49102148 5.9527397 0.54580075 -8.085235 3.8493683 2.7194078 9.246892 3.9938254 2.4088502 2.9735124 1.3311862 5.6314993 5.8754745 4.1723747 -9.649479 4.699387 7.866746 0.41914555 -2.3747168 -10.539575 3.2458797 4.031573 4.458347 -3.1485531 -4.9382725 0.28720674 8.209199 2.200693 -2.9559999 -2.5535793 -4.2142634 5.074082 -1.3586977 -0.6734787 0.42917284 14.317118 14.462775 -9.138955 -1.7093601 -3.6153717 -3.435342 5.973099 -0.43166175 4.482899 -12.454067 -10.958829 5.67947 2.4886432 6.4925313
907272 0.24997833 6.8428807 4.5893707 4.1075635 7.4189873 -5.8744473 12.78511 0.012439005 1.8145498 5.13781 9.263518 -3.4116452 1.6621828 -4.4140677 1.1484346 0.9437126 -4.7325397 -1.6852944 -0.9047606 1.9774061 -3.1825485 3.7287934 5.7003756 2.188644 -5.559092 5.646294 7.9811735 8.616036 6.417172 -15.426601 3.2217636 1.0461651 0.63306487 9.484246 -0.83468604 4.6133547 2.6215868 -6.9346075 4.6674757 6.4706044 8.866557 2.5305033 -4.8184056 -7.030879 -5.4253597 -3.9882967 9.939575 1.5959893 1.5887704 -7.4576864 2.99726 -4.40222 -1.531409 -10.5887165 1.4008222 -8.212982 5.1780663 7.4064 8.751334 -6.320397 -8.669073 9.746721 6.2026954 -2.98801
1298362 0.11578332 3.3565552 -6.9749537 6.0926647 -8.50911 -5.039375 1.244653 -2.9277227 -0.15584245 0.5478927 3.737692 12.432943 -0.25450984 -3.2276752 -4.9291906 0.69937646 13.590573 1.535079 -1.7386416 0.013860234 -0.04803928 5.9426403 -3.1580539 0.5413599 9.594188 4.3919578 10.564225 3.0577278 1.8869268 -9.98505 0.82216305 6.7807293 -0.602059 -2.4694226 -7.614986 6.456476 7.919548 5.349521 -2.7863533 -5.984634 -2.3597972 4.4173894 -1.8409771 2.6625597 -2.7688692 -5.0477734 6.7952666 -8.3588705 2.7049775 5.0713615 10.958557 6.986537 0.24035728 -6.8927503 -7.1177473 4.9860387 -1.1937057 -0.24934189 8.983659 -12.10929 -5.9743786 -0.118111946 11.763921 9.582898
910944 3.0474343 9.623279 3.3763201 9.048707 8.507868 -4.3660526 16.504635 -1.594736 3.4699395 4.7266326 10.371874 -3.8440015 3.5995831 -3.5504515 4.8311667 4.1358624 -1.9336597 0.59137034 -0.6163275 2.7555468 -2.8797631 0.70909303 6.070008 4.2059164 -5.4841948 3.3819187 9.648148 6.137185 6.9955897 -12.155033 2.7732356 -3.320901 1.6373276 10.803964 -0.123607025 8.109074 -1.1810739 -6.3006945 0.96238655 6.57771 7.100514 1.4981014 -3.4343343 -9.021786 -2.8674562 -4.318858 4.007483 -3.1439064 -2.9912832 -4.763144 3.6615555 -6.565001 -6.509424 -7.3969994 -0.12209155 -2.1101031 5.6939573 10.231506 14.594294 -8.956544 -7.056785 11.035691 10.0996065 1.2972943
1240123 -3.9185927 0.96223027 -4.8095045 -4.511231 6.690213 -17.092411 8.002097 -0.43706006 -6.3970523 7.8688912 8.148501 6.241755 -0.92525774 -2.3274307 -2.2059596 2.406754 10.640656 0.84145236 3.769894 1.9854597 -1.1143168 1.9594946 8.624229 -2.053455 -1.9669122 0.87791145 9.0549345 9.416575 -0.42707214 -10.29278 0.4618128 -3.5195434 -6.43097 -2.3250997 -6.936317 -2.463982 -1.803965 -1.8933244 2.3800035 -0.6398761 5.6630406 1.8629435 6.3726006 -0.8063045 7.9054465 2.7765925 10.989625 2.4957063 8.641259 1.1714078 3.1607761 -14.1031475 -2.69376 -9.146868 -3.4071543 -9.752089 5.316956 3.272522 7.7150636 -8.401343 -3.4257786 -1.5581573 -0.16838464 6.903647
1323913 3.5230002 6.3098426 4.658022 10.923852 7.031039 -7.389617 14.56355 2.1229172 3.5412989 9.648255 11.221066 -3.7725117 0.7345924 3.39615 8.438387 1.9618304 -0.5722594 -4.9605107 -3.9885116 2.11253 -0.49125433 3.9347432 -1.013343 0.3442183 -4.591964 2.2081068 11.98995 -1.2622242 3.9867353 -12.912403 5.590681 -1.6891327 1.1769166 12.411495 -0.031003242 10.685773 0.19623873 -5.4077454 0.66342485 3.4108586 5.1473866 3.6342413 -4.1067953 -6.7245994 -4.3443995 -6.0795817 6.36756 2.6525333 0.41371453 -1.2476729 5.4074464 -6.687187 -4.6970716 -4.26287 -4.186567 -5.468318 8.038379 8.733382 11.27538 -8.065132 -6.442988 5.8655534 11.638869 0.9309125
1331036 3.0940454 5.345982 5.9272304 7.6081834 7.162791 -3.3704395 13.880108 1.5858526 0.6284785 6.547002 7.093778 1.0499798 1.2053639 -0.72046137 5.270541 1.4119457 -2.5815938 -0.89968663 -4.58372 1.2145929 -6.3167024 0.77798843 4.7372966 6.2438927 -1.9443573 3.3275955 13.153263 8.136814 6.2698784 -13.449666 3.3505907 0.84222615 5.399906 11.521616 -2.7947648 7.8556633 0.09946849 -4.678853 -1.9243693 6.14658 5.7532606 0.8710653 -2.2694921 -8.513445 -3.0973022 -9.967943 1.9756305 0.18845938 -0.67855215 -4.1057997 5.3515615 -6.4841223 -2.9489777 -5.4217863 -1.1747503 -6.460401 5.087655 7.3574853 17.089642 -10.638489 -6.115347 13.771658 8.912415 -0.13177371
1295740 3.1639438 10.65304 1.4336464 9.963373 7.0085015 -6.0329533 14.743243 -0.08986547 2.841833 2.8205345 12.188593 -3.5693347 1.44705 -0.92268276 6.4274673 -0.07450054 -0.6320727 0.81641704 -1.8703191 5.0893784 -2.7525737 3.1705558 4.233624 1.9642757 -6.622332 5.651092 8.227487 3.691433 6.773106 -14.088519 4.939366 -2.7886775 3.252047 11.185432 -0.10444668 6.136128 -0.007242036 -7.521664 2.4977944 8.3162365 2.8304904 2.6875594 -2.0186791 -8.678064 -5.1453357 -4.9276104 1.4857494 -1.5129784 -1.1502569 -5.744231 3.9735343 -6.2514663 -9.041609 -5.67176 0.49668238 -3.787001 8.09563 12.303757 10.788551 -6.804045 -6.4364634 10.632282 8.672974 2.5862446
908122 7.980534 1.082804 -0.99852043 0.805411 7.5353518 -7.263494 1.7860714 -2.9714212 -13.082112 1.1799563 8.233088 3.6886911 2.0582073 -0.6224244 -0.9795601 -1.9305786 0.09279033 1.0069826 -5.4475713 0.49482763 7.003945 13.284099 1.458784 2.2500587 3.0376577 1.3747349 10.686251 7.893306 3.7520406 -8.494101 -0.83385104 3.6351948 -4.508542 0.5785771 -4.5744505 3.5828621 6.2320557 -2.8424983 1.1188161 -6.6084795 11.089487 4.3794813 -5.0897717 -6.9946184 -6.7959943 -1.8938607 8.102181 1.9571655 3.332392 3.7824686 6.953327 5.6885443 -9.705817 -1.7710916 0.6873278 3.4874835 7.923247 -1.0389752 9.054779 -10.182809 -12.185218 4.732622 -2.6745176 7.2263727
908156 4.6646166 10.169949 5.694095 9.342483 8.4524975 -6.3749914 15.555621 1.4455676 1.9925833 3.7276087 7.9752355 -0.20947678 4.8903456 0.52688956 9.0733795 4.173705 1.3192892 -2.8220565 -2.1440892 2.8230374 -4.0279965 0.1076188 4.415891 4.1325502 -6.940217 0.67590785 12.38328 3.017033 6.722698 -12.085973 6.907414 -3.740418 2.7552767 9.300252 -4.11825 9.265529 -3.4726171 -5.664474 2.0331938 4.3102064 4.9950604 0.68838775 -2.0067732 -7.8226533 -1.7700994 -7.2696447 5.5851984 -0.2664247 -4.2273264 -3.2821505 4.777941 -6.4073243 -8.933747 -2.750297 -1.1965567 -3.4774837 5.6245537 11.0529785 15.439331 -9.679269 -5.3689237 14.223698 10.1990795 3.3692238
906856 2.6851792 7.2667365 6.196178 8.097855 8.7136135 -6.0295253 12.700135 -3.181289 2.1603074 4.375871 8.816686 -1.3384633 6.948119 1.3417822 12.214116 2.0814478 6.723047 -3.8424647 1.7340066 7.2520547 -5.3852925 0.91215545 3.8047507 -0.27378368 -4.859814 1.8903835 12.377534 2.1756895 5.9022017 -12.130078 6.5787516 -2.4722955 5.829765 10.01626 -1.9790617 6.544655 1.4121568 -7.527786 2.4306402 6.651627 2.9188523 3.6617742 -3.0399003 -9.524385 -0.18412758 -4.673234 6.7322965 1.0723709 -1.0253478 -4.639059 6.7392716 -3.9672575 -6.7347283 -4.8911214 -3.216155 -3.0248044 4.118379 10.217005 10.53516 -8.898859 -6.289366 12.091218 7.784474 1.6680249
909750 3.8861392 2.1822565 0.7975567 1.65156 0.7415489 0.429442 -4.3707356 -5.4361653 -2.6321788 2.1014132 13.899293 7.774946 -2.913143 4.0235777 2.4284742 7.2378483 8.288872 6.788919 -8.618025 -3.289169 0.7379534 3.737833 4.766451 4.5714116 0.92155266 -0.57946056 7.7365026 9.079121 9.888357 -11.49544 8.385942 1.7445939 -4.3224697 -3.781164 -6.9534755 -1.1736337 5.018533 0.8181716 -9.418327 -7.528231 -1.1336426 5.3016043 -4.7110043 5.8449225 -0.25085723 -3.6264095 4.303675 1.6297578 3.8479872 6.223378 6.7173333 14.365895 -7.566661 -0.6494414 -2.8761225 2.7053874 3.258963 1.4613067 0.27320296 -7.7035365 -16.352541 6.4263835 1.686462 1.3269018
909256 5.723373 4.2482085 1.1566986 3.8548925 6.792729 -10.301418 9.782327 -0.5880468 -5.403692 0.13300584 6.102009 0.16393307 1.1818316 0.30641052 5.4833016 -2.9086418 3.2678902 1.7001413 -7.8444905 3.8500955 -1.6606575 9.982422 6.784365 7.971824 -1.5680603 -0.8373667 12.18162 8.677497 6.5914774 -10.899221 7.95617 -2.1013236 -2.889737 3.1932478 -5.3360224 7.3839884 6.5302596 -3.2856846 0.78038585 -0.5830283 7.4611588 -4.2040973 -3.323095 -9.174844 -10.766824 -3.4459715 7.059478 3.0800052 -5.303184 3.477808 5.192411 3.7300572 -8.151827 -2.993912 4.7860084 -0.1062404 7.1392746 1.1934067 13.531197 -6.1290307 -13.845145 4.910958 2.7059069 5.76808
906763 1.415706 6.8625317 3.7008948 7.4227796 6.192872 -5.1953254 12.418764 -2.3343902 3.214611 5.631057 9.708085 -5.3550477 3.4596646 -0.6099991 0.8987787 2.8407328 -0.6763553 2.1625857 0.1833399 2.5670538 -1.5349741 2.0730798 3.3891613 -0.3024475 -4.666615 2.4240766 8.076004 8.448316 7.8969316 -14.469519 0.7260076 3.866319 3.377581 9.721056 -1.1997249 6.2594085 0.06439263 -7.3081913 3.5046146 7.781846 4.041824 7.0794797 -5.155411 -7.5747 -6.5289154 -1.8776102 4.6706753 -2.4600894 -1.197225 -5.328945 5.674033 -3.5909436 -7.1831684 -9.894162 -0.64212567 -4.2236104 5.1439047 11.677541 8.296938 -7.169232 -5.2467003 14.085689 6.2287645 2.6917908
908139 5.411681 -5.2031617 -6.1737747 -3.8749552 -0.3599033 4.231345 11.190599 -5.364968 3.0196278 -2.9440587 13.55969 0.43725866 8.204063 2.6595724 2.6684613 -1.9095696 17.133707 1.6826977 1.5555528 5.6798577 -2.832181 8.981009 7.7789636 0.030582614 4.2326016 6.801737 4.9632206 6.220801 5.635477 -14.040903 3.604598 10.015132 -1.0425262 6.0502357 -3.547658 -5.990971 1.6546302 1.3407704 -3.987044 -10.696686 1.5578539 -2.9999347 -0.49797222 -3.5449867 4.7430344 -2.8009644 3.2944715 1.7598249 -4.5376015 0.26705208 8.630525 6.0231924 0.0564435 -6.362266 1.3176823 7.091991 9.571687 -4.877098 4.5138774 -6.7513833 -1.802618 -2.8590386 4.3679485 -3.41669
907062 1.7255733 4.2535963 -3.39497 6.9414954 -3.0788283 -8.253865 5.3635225 -2.903601 4.885646 1.6896054 0.70073795 10.92338 -0.8494248 -3.5098565 -7.644215 1.2832856 10.855152 2.7442553 3.1397116 -0.16509551 -2.472052 3.5317755 -4.532109 1.3809505 10.336633 2.91315 5.874663 2.559185 4.649268 -11.113446 0.40727994 2.0430737 -0.51099145 4.6420975 -7.15533 7.8322945 8.586774 1.1015323 -4.7242613 -2.0427573 -4.1991143 3.1555378 -1.3853172 2.0870624 -6.4199314 -2.711204 5.381781 -5.340443 3.53943 6.3093586 11.815126 3.73934 0.479841 -9.884645 -2.7855744 4.1428175 -2.2140756 3.3506026 16.091745 -12.639898 -3.770952 3.53501 9.154513 6.2254815
909702 0.1001959 5.362661 4.9246945 5.5699887 6.377092 -4.1896915 12.392761 -0.22559285 0.47313455 5.7967606 10.473738 -3.517991 -0.21194193 -3.7302113 4.2050147 0.16560389 -2.2226262 -0.07286234 -3.070736 4.2843943 -2.4801004 3.673204 3.9866328 3.9724948 -3.349408 5.195663 10.818074 8.632226 5.030281 -13.878406 2.0436444 -0.69840574 2.500014 11.621208 -1.6017237 8.564524 2.9476895 -8.198599 2.8191695 7.23114 9.401748 3.0533934 -4.412467 -8.281646 -5.4226074 -7.109541 7.3016243 2.2047865 -0.3640309 -2.7600675 1.6583378 -7.6133175 -1.2028635 -8.848271 0.65167814 -7.731691 7.5080795 5.903036 10.091389 -6.8952518 -6.6671915 10.159839 8.255162 -0.3670107
907055 9.179472 -0.5686062 -3.3462374 0.4448783 5.398816 0.28557587 17.656096 -1.7071706 4.2898965 -1.1325985 6.254823 -0.5720695 7.4204698 2.2424233 6.4209647 -1.0838506 8.976836 0.9790738 -0.496822 6.1202493 -7.8795724 2.9253905 6.8041778 2.7470632 2.8657658 3.5700843 11.057816 6.9083934 10.651749 -16.531086 6.7166176 2.408194 0.21915594 10.356094 -4.9778934 5.0029817 -2.037329 -6.797528 -2.4377558 -3.5706995 3.0408416 -7.4003663 -1.1498678 -4.4213357 1.2442033 -4.1729183 4.333195 4.593418 -4.011171 2.9356852 5.1455855 1.4709661 1.2083061 -4.39963 1.4178711 0.22565815 10.446032 -3.2477639 18.400152 -7.8103495 -2.432689 3.5619617 8.261456 -2.6478333
1240174 3.3004093 -4.461065 -1.3865736 -4.7224784 4.7019844 -5.0744405 8.030176 4.6259055 4.247053 2.5467947 -5.2499356 4.7302456 -2.7359068 -1.5778785 2.4072354 0.09565313 0.0635423 -3.9697614 1.1131197 2.1673872 -8.70979 5.840161 8.860167 3.429925 -0.197309 7.053224 -7.996898 15.581893 8.921201 -6.5246296 6.5408864 1.8547181 0.7948936 -4.655379 -4.02321 -3.8448212 -7.368652 -6.659563 3.6793451 -2.9048648 -2.1925516 7.670961 0.17727731 -2.4387012 3.3831213 2.4386938 8.538111 -2.133392 3.9684565 6.630646 3.5173626 -8.489658 -4.0003915 -7.992678 -2.1136415 -13.784638 3.1691284 -6.76884 8.074664 -8.257757 -1.1509403 2.8151011 -1.4524088 5.9824486
1297446 1.4054097 4.228876 3.3036277 6.6323705 8.627553 -6.0376954 13.065112 1.1240284 -0.7052094 4.8774323 9.364274 -0.5880487 -0.25784174 -3.0249145 3.7328827 -3.2847576 -2.110613 -0.03613852 -2.6206136 4.4579635 -5.803206 5.372637 4.9936976 4.8827186 -2.509977 5.4253244 6.030018 8.065455 4.6589484 -13.607996 1.5386133 2.5515924 4.933763 10.783766 -2.7950578 5.30227 3.8735018 -3.0898566 0.15417239 12.147069 4.105554 1.6648616 -0.71648383 -5.5411468 -4.9775414 -9.250822 3.0961778 -1.6403126 4.7501526 -4.3713083 7.5093203 -11.46398 -1.9042022 -10.046053 2.6207216 -5.4566836 7.379959 4.798653 6.1155767 -8.172498 -6.9108806 7.5405445 3.009826 -2.0311778
910706 3.901674 6.532 5.1287584 7.3668475 7.1472263 -5.6362023 14.193169 1.8673384 -2.9286418 3.0834005 13.126409 -3.7325246 1.8469415 -1.5619304 9.100262 0.32796982 1.7977476 -2.0903225 -6.95065 3.7214925 -4.546748 0.9136507 4.065481 3.6041644 -6.187454 2.4575784 9.333949 5.1212316 3.0000165 -14.793106 8.656248 -4.130328 1.9576273 9.483338 -5.933198 8.34016 -2.4243987 -5.107804 3.3477151 7.0010915 3.737882 1.5518827 -2.0806656 -7.5616403 -0.9721309 -6.572784 5.51523 -0.082348906 -4.119856 -3.9403389 7.012942 -5.929846 -11.036777 -5.7530384 4.6442585 -5.842007 6.5798087 5.8702826 8.0057335 -10.497273 -6.7100353 13.32508 8.392627 2.4629714
1331037 0.94086486 9.151707 6.5171576 7.004982 6.327438 -1.9649487 11.91261 1.5746285 -1.1013261 2.451601 10.620335 -3.416272 5.794032 -4.5763435 5.2853785 1.8173721 1.1526433 -1.8962758 -5.0708055 7.1445246 -3.8779454 1.768119 6.035997 7.094105 -8.0223255 4.160958 11.773387 4.9069014 5.434159 -12.349815 6.5708737 -2.8786159 1.7670146 7.947101 -4.7942753 5.9782333 -1.6063998 -6.657714 1.9650782 6.446288 5.072739 0.92383486 -2.6590273 -7.652387 -2.719942 -5.745851 5.5368214 -0.84770876 -3.7950284 -2.3934324 3.0409827 -7.07587 -7.8830957 -8.057176 1.1911814 -4.784091 7.270132 10.930094 10.30757 -10.578516 -5.577218 15.321146 10.763753 2.0968733
753548 1.314266 8.293877 6.3409243 5.8000846 6.7853084 -9.005588 13.682006 1.006125 1.4041691 3.8433077 8.900113 -1.7336174 3.2093081 -1.4534162 7.1822424 1.2796053 2.8799877 -3.9244452 -0.7282911 0.681341 -3.4926312 4.803939 6.1203322 0.8643112 -8.718328 5.1426487 9.017335 5.5101027 5.962626 -11.557234 6.215023 -2.0006778 0.81387943 5.493513 -3.483185 1.8403231 -4.1622095 -6.4109926 7.7301984 2.7045636 4.4047256 4.6606407 -2.5064495 -6.840204 -3.04785 -5.4173627 10.265755 4.05987 1.1255047 -5.46758 2.8427064 -6.4802365 -7.2670527 -6.871897 -0.17653379 -8.444999 4.9554057 6.039772 7.655304 -8.921516 -4.3523383 12.25531 7.172651 4.2504654
905984 1.6912845 9.629045 0.9407148 5.44039 2.1467395 3.7892423 0.48808596 2.7898262 3.918489 4.7316422 6.0474734 0.9441464 -10.989999 3.00939 2.083566 4.8423977 7.9962735 5.6421614 -4.0474133 0.8209548 -8.584342 -0.92525566 8.239059 3.1310253 -3.445195 -5.215157 6.642061 9.108504 10.135785 -13.2209835 16.227253 -9.070306 -2.5373514 3.2633126 -3.2637103 0.22195841 3.1543133 -3.5302064 -0.41501716 5.3829618 -6.2136297 -4.470156 -3.2479796 4.2999215 -2.6001408 2.0803068 2.2676125 4.3741603 9.049791 6.075745 0.273944 -0.7653118 -5.169422 -9.55714 6.484613 4.3161697 -4.0051804 4.390519 8.579289 -6.3538465 -5.9766064 12.701507 8.7880535 -6.724495
909715 2.6951857 9.8568535 6.4488554 11.064002 5.7557592 -6.5551424 14.514567 4.4599514 -0.68292016 3.4287348 13.223237 -0.6651219 -1.139036 -3.2928581 8.104952 -1.831989 -0.7931929 -3.3685284 -4.681464 7.144481 1.6977453 6.608206 4.759735 3.8028698 -8.59319 5.594858 8.32878 -0.08655695 1.3391777 -11.836174 8.955875 -5.1776266 1.4841075 10.597824 -2.0347693 9.392883 -0.7550759 -5.697493 2.4530766 3.5573542 1.1187798 1.2120802 -1.7215991 -5.718489 -4.6554365 -9.864652 6.1381364 3.3043027 -1.4891288 0.80726856 7.253456 -9.317875 -6.925635 -3.5637991 -0.5138609 -3.996521 9.624086 4.9098263 8.0381565 -6.7141376 -7.8944106 4.9867353 11.786508 2.4199438
908443 4.6531487 1.8510473 -3.0114784 3.6607544 8.470802 -3.8290021 3.471508 -1.099758 -2.6841927 -1.011737 8.735437 4.7118454 -0.5972595 -4.302107 3.3826957 -3.4496517 -1.667345 1.7102467 -7.58955 4.9513006 -0.84588516 11.928676 3.4386368 1.9477668 -2.8616502 5.488933 10.395647 5.303927 2.7301447 -12.791549 2.5145586 4.83769 -0.04606248 0.0924907 3.8081574 7.3404784 5.2499776 0.68846315 -7.1777287 -2.8181112 4.270346 10.015191 -3.1941817 -6.4658027 -0.8188495 -1.2500166 3.5338907 -2.0602798 0.051526356 -0.88102585 6.536906 7.4944534 -9.18203 -7.773433 -7.8754897 -6.603705 2.0069609 5.429183 4.685629 -11.130869 -9.24805 4.1401944 6.2142158 8.869785
1240204 1.2292583 6.5568314 -8.785105 5.6612873 -1.7032493 -2.5266862 6.942324 1.1568148 1.6366117 -1.1621208 -2.3474538 9.581709 0.4311027 -3.044742 -5.702812 5.5237436 8.960219 -0.8765438 0.27445844 2.6569495 -1.1061852 9.522579 -1.1149651 2.6166508 7.9909816 -0.0068731476 7.876635 5.2957673 8.919066 -9.45333 5.870827 1.7218965 2.7136698 -0.85228527 0.031950966 5.917153 8.889703 5.0651917 -1.9960537 -0.27576497 -2.0009575 0.54705316 -1.2335883 -0.3004672 -3.0556893 -2.9921885 8.918539 -6.176516 3.8955557 2.2247896 10.021363 4.0681353 -2.648002 -10.350287 -0.8659809 5.0707326 -4.038616 4.405884 14.77091 -14.79556 -3.7996128 4.3808527 8.967362 7.1073155
949154 7.8138804 1.0643543 -4.2217493 -3.261365 3.1811857 2.2113755 -3.3923583 -2.6203399 -3.0060382 -1.0182714 7.9724107 7.5780363 -5.954804 -0.10227037 1.4535946 1.1875603 5.0698667 2.464508 -4.2680693 5.240184 6.6796103 2.387661 -2.9624138 0.7665219 17.727802 8.370815 0.20867224 13.43164 -0.18666406 -5.150527 2.910208 -1.432679 -4.683072 -0.1796907 -8.137571 0.96733814 1.4499947 -2.0760117 0.20005599 -4.437328 0.12793185 8.671863 -3.8563318 -2.7228415 2.478418 0.30464834 7.3321314 -3.0249152 11.172128 12.113459 5.121031 0.7379903 -6.1933107 -1.6643479 -0.22098127 -4.9369097 -0.1844948 0.857637 10.200212 -18.9387 -6.780161 3.4859636 0.06555502 10.043681
1330947 1.1612324 11.047113 5.7407956 10.962112 9.196913 -7.615973 14.492338 1.579732 2.5023606 6.7635503 10.328542 -1.3454247 3.7631762 -1.3959708 7.8272696 3.1674898 1.1713555 -3.3334348 -0.83451694 2.957498 -0.37068266 3.800976 2.3661437 1.8404261 -9.283336 1.8290064 8.814352 0.41735968 5.469924 -13.112628 6.991252 -4.6595893 1.6833622 9.2513485 -0.6104722 8.740983 -3.0638847 -6.6421013 4.8950405 5.093427 2.0562208 3.8895159 -3.7708292 -7.4907646 -5.5609016 -6.247116 6.4292455 3.4949944 -2.7533937 -2.883611 4.1378627 -6.475164 -9.861001 -7.853717 -0.39521286 -2.9220448 5.9336953 10.767226 8.101613 -7.9464207 -4.0030017 10.365214 9.796891 4.8867006
909698 -1.9555044 4.1051364 -2.5034192 0.17684916 3.657702 -14.160261 15.331769 4.1275945 -1.075123 5.901439 2.786697 -0.96802276 -2.1912932 3.1561947 1.9262277 3.930849 9.554798 -0.051883694 3.6999779 3.315947 -2.0560975 4.5000753 9.362952 -1.2051607 -6.8337374 1.5624678 11.334896 8.560525 4.884948 -10.798558 10.875243 -3.915708 0.3024051 -0.25023726 -5.965686 0.19266456 -1.4484992 0.3669371 0.031824756 0.39303687 1.7050241 -0.5310951 6.165295 -2.18685 1.5655746 -2.3338509 5.801262 1.5937148 4.253681 0.04708859 7.2201343 -9.870909 -1.917888 -4.8597956 -4.756448 -11.140974 8.771659 7.4776974 10.243856 -7.20239 -3.7058115 -1.2153051 -0.1220015 3.7246125
753595 2.4740129 5.8255396 0.122253776 5.7947397 3.8864567 -6.1986628 7.6469336 -3.600571 -0.6463712 3.6191084 14.798269 0.2848338 -2.4014456 -0.20886643 -1.125727 0.70328015 2.8876486 3.597478 -4.12842 5.676565 5.44685 1.6898265 5.736114 1.5976837 -0.40923518 4.0983663 5.599409 6.91159 5.7848926 -15.46409 4.3140416 5.3586416 1.5610553 3.0331929 -2.5390248 5.231424 2.4839513 1.2892421 -7.000502 2.6714997 -1.446182 7.403627 -2.425979 -4.957034 -4.288941 2.0672703 2.370711 -4.29768 -1.6193209 -1.0273246 10.277293 2.1929212 -10.170032 -4.171762 -4.74743 -4.1487155 7.635804 11.129025 10.636521 -9.142043 -10.3866825 6.489962 3.6569536 6.941028
908442 -2.3904688 -1.00325 -6.6970835 -2.427388 1.1149787 -14.902624 4.3395586 -5.1757874 -5.02722 12.361646 10.538693 1.7412359 4.391821 1.7640665 -4.489565 5.0289855 10.393967 5.7323875 0.38194618 -3.6953387 5.4980154 -0.21084511 1.2009902 -0.92770267 -1.5249139 2.742356 8.811313 3.0630133 4.2203684 -13.161507 3.4818351 1.0708059 -4.2743435 -2.8269103 -5.8325186 -2.2814953 0.22882037 5.9240913 -7.321041 -6.6231756 2.6408234 3.9309387 0.7733797 0.6394832 1.6446784 3.9386983 4.6710134 0.09247441 0.8697376 2.3695817 7.524707 9.771976 -4.7719736 -6.298377 -4.6144733 -2.3075264 7.3994913 6.559078 8.051967 -13.87011 -9.646871 -7.8815193 0.5591545 4.1960497
1331034 1.3762347 7.6852717 3.3734431 7.869882 7.654868 -4.7274036 12.830477 0.48940405 -2.008223 4.531494 9.14925 -1.244834 4.78481 -1.0100574 6.0254006 0.1736193 1.8160522 -2.9824126 -2.2525241 6.338849 -5.81787 0.9348488 3.9717214 5.6089215 -6.927209 4.4269657 13.438471 3.8345568 3.0682974 -14.022795 4.387164 -1.9290922 4.599856 10.323521 -3.3233926 5.6981454 -3.222147 -8.003727 1.5491719 4.730356 2.9276927 0.7736574 0.67347986 -8.508863 -2.4945588 -3.8732035 3.9081352 -2.738622 -3.3426776 -4.6703157 4.2416058 -5.4139757 -8.689924 -6.808889 0.374036 -4.3596883 6.646161 7.9504576 12.261004 -9.77337 -5.7572007 14.006604 12.251911 2.744948
908450 -2.0570836 6.6009336 3.8173175 4.78727 3.1774373 4.227178 -6.331783 1.8596042 1.687051 3.4198778 6.4864845 0.45971033 -7.864149 0.8223912 -2.8854373 7.049985 4.0888042 6.9840727 -3.4008498 4.602073 -6.295557 -3.7682042 10.02123 4.166395 -6.5404162 1.4078642 3.4370902 10.250632 6.163862 -8.54117 13.423209 -2.9522238 -8.485856 2.4184573 -4.478264 -6.5659504 -0.8667027 -3.1331398 -2.1249363 -1.2896733 -6.796619 -0.5128804 -3.6574373 8.75607 -2.7142377 3.8824372 2.4457035 2.1658983 10.8196125 12.744476 2.9735801 -1.9928199 -0.12785025 -8.435174 0.24031956 6.6312876 -6.5970325 4.9947205 -0.05439445 -1.3060124 -7.4536858 8.511981 4.7258224 -7.3455005
905952 2.653716 4.483593 5.502173 6.5553846 5.9064093 -5.721065 14.377297 -1.9812133 -0.124048315 5.9406285 5.240055 -3.7016652 3.415663 1.9994063 4.6326714 2.9912648 -0.57040536 -0.4611964 -4.045497 2.310302 -4.9932323 -1.0136082 5.645849 3.169351 -3.8167799 2.837892 13.788537 7.455838 7.710152 -13.497689 2.7478483 0.4717906 3.8046863 9.437221 -3.9044063 7.1568093 -0.6196242 -6.9771285 0.012944869 6.9615536 5.0151834 2.6651168 -4.390416 -7.562847 -3.7060635 -8.702623 7.1780195 -0.69332504 -0.14584085 -3.7255855 4.416567 -3.581529 -2.4737213 -7.2113023 -0.025779806 -4.9735007 3.8647437 4.3902197 11.696539 -7.5740056 -3.8039727 13.1711035 9.46105 -1.9080967
724839 3.6416507 0.5527953 -3.483016 1.4675097 4.6756096 1.950975 -1.6956898 -3.6546702 -1.7823676 2.8917124 3.1735878 6.1028914 -1.795424 2.4097328 0.49272305 4.0115037 2.7382748 -0.5619635 -3.5600593 11.914929 1.592287 -1.7754521 -2.4447582 4.1762853 16.198107 10.864562 4.1059713 14.149154 5.475021 -3.4255066 5.978586 5.3362775 0.90450895 0.459429 -3.642906 5.27763 -5.3357797 -5.011887 -0.6485808 -2.81169 -0.8516285 7.4936414 -4.6580925 -2.5833323 6.5457273 -0.58984035 8.627471 -8.042417 8.915219 16.501673 5.575464 -2.5472298 -2.754073 0.9040254 -2.403165 -4.6012263 -3.2947686 1.8438089 11.6725645 -17.812029 -3.6186326 -0.23399492 1.199255 7.933256
906824 5.4504304 5.6908474 0.5997358 3.0968614 6.8709416 -3.2833943 1.3364621 -2.8119566 -0.257082 3.6041367 7.6207347 8.1661 -3.268149 -1.077339 2.3377256 -1.9887271 -0.039463796 0.62573135 -6.202658 9.822947 4.0634313 -3.5207436 -1.4066505 5.1768403 13.892505 8.917875 4.060665 14.273049 5.2767043 -8.950594 4.2478976 -2.8394947 2.2072933 5.5510674 -1.9839033 5.8723536 -6.38544 -8.221986 -1.1352401 3.7057807 -2.2715702 5.530374 -4.8224297 -6.964217 3.68064 -5.6125383 8.351483 -0.44613478 8.192944 13.405374 1.2311428 -5.6103106 -2.2826571 -3.6832569 -0.42021543 -5.0446434 -1.4046283 0.64423186 12.868025 -18.87472 -3.791281 6.27546 3.5762036 7.3358803
1240189 1.9129999 1.9722192 0.8104226 3.3365705 5.773493 -3.3041224 5.1466594 -1.9072955 -3.8771157 5.1121955 11.809536 4.8893943 2.7090464 -0.9206736 5.1636987 -5.0030665 6.760278 -3.529912 -2.3272645 5.2355776 -10.300337 9.321311 -0.3713763 3.9491196 -6.252554 5.275217 13.091161 0.46718553 7.737119 -11.413873 4.228041 -2.7602324 3.4333544 4.06467 1.9191947 1.0527833 7.008618 -9.256132 5.64572 11.759584 1.2917304 3.2739048 -4.971741 -3.72867 1.002636 -2.7383862 0.24892183 5.613567 7.840076 -2.1020377 -0.36089894 1.289343 -3.4525912 -6.0408487 -4.450791 -5.442275 3.6927762 2.4975517 5.9076767 -5.360963 -7.852876 5.2005677 5.097773 4.3927045
907048 4.1860957 0.48573193 0.10618014 4.27363 6.209927 -5.795777 5.3140273 1.3604188 -5.8270254 -2.718598 6.877888 3.3223734 -0.14943172 -0.36790058 3.8064115 -5.2583365 -0.11556793 1.0335169 -9.032383 -1.6331519 -1.0628757 15.740382 3.3372571 4.3685694 3.9961946 2.2129383 9.074995 8.540641 1.3424293 -14.785594 5.0808735 2.796135 -7.3306155 -1.124168 -0.8116112 5.0510116 9.246989 2.2896795 -3.8097272 -5.5762706 1.7715496 3.5581636 -4.769465 -5.104924 -2.08069 1.923143 2.9967103 -1.0846107 2.4617596 0.2866055 7.7169585 10.494169 -10.669289 -2.6553485 3.93077 1.3640771 1.6136189 0.33297026 6.5880136 -12.408063 -9.195378 5.9114537 -4.07758 5.8116555
908134 12.778292 -0.22299954 -1.4198953 2.4356198 7.9786644 -5.5249763 7.584992 -1.022847 -0.9694849 -1.8311715 11.425954 1.9736854 -2.032303 1.0779434 9.957452 4.4865026 -0.31378347 -4.5996504 -10.78334 4.565234 -0.7783345 9.196185 4.609173 -5.5885253 3.0800202 -2.6289113 9.374084 5.847764 2.5540671 -12.631794 6.011544 0.48789844 0.5026888 2.5230327 -3.2853014 8.666097 5.481252 1.6179837 -3.3993242 1.022386 5.4984617 5.486774 -1.9972303 -9.921256 -3.4090614 -5.4438753 7.5745053 2.362652 -3.0464606 -3.6825602 7.322503 1.3944968 -7.2298765 -2.4153152 -7.973377 -0.04348184 -0.28131187 7.554804 9.571381 -14.243247 -8.95941 11.663213 3.7097645 6.1833844
910710 1.8704191 7.584604 5.639461 7.5736384 8.192954 -3.2116182 12.50378 -2.0070589 4.7226105 3.2970116 8.750481 -2.249144 8.206683 0.8217592 7.264488 6.83515 7.0589175 -0.6616041 0.7183071 0.21996944 -7.8835363 -1.2994212 3.7595162 -0.522551 -3.7732072 0.28017414 13.535309 6.841185 8.291685 -12.962081 3.0619295 0.07666497 3.87753 6.414433 -2.9403944 5.1789026 2.4456897 -6.2916956 1.4847661 6.266841 3.773974 4.4141326 -7.351738 -10.137916 -1.9880832 -8.000197 3.6614025 -0.39620388 1.1398 -4.6618443 4.382645 -4.837992 -4.9739165 -8.861436 -3.4737957 -1.2383559 3.1623096 12.416667 6.6357565 -7.954001 -4.3700213 14.350207 7.926281 3.1277263
908148 4.2525687 10.718095 -1.470647 9.324708 8.401061 -6.5344205 12.45879 1.7222694 0.9358888 7.3860574 9.729745 -0.73602664 2.5916872 2.3116462 6.5427103 -1.4846697 -0.5074789 -5.0648904 -2.521424 2.1637928 -3.7265663 8.814474 0.3321077 2.9987416 -8.11449 2.0958452 11.3795185 0.013761431 7.5463204 -12.842884 7.8904085 -6.1544433 1.3556015 6.1920605 5.9707236 6.1540456 -4.838098 -7.2631507 3.6403432 4.2691016 0.14656368 3.2614412 -0.6599898 -5.4027905 -0.41158107 -4.2956476 2.1286821 0.82529414 4.147247 -4.9271894 1.5662504 -1.0147134 -11.944398 -6.588569 -1.3679506 -3.7633228 6.5554547 6.773925 11.291903 -10.33174 -1.4739165 6.799146 11.423824 4.277112
909252 2.0431502 5.1300206 6.198413 6.651559 8.222187 -5.67089 13.13158 -1.727543 -0.10923508 4.798732 10.322018 1.1665678 4.223945 -2.3355541 9.000366 -0.5690699 -0.31949568 -3.7515278 -3.4754627 5.4997725 -3.9702656 1.8417457 5.682466 0.85235304 -3.2593172 2.448794 10.928888 7.6506925 4.0199947 -14.514154 4.710876 -0.80289257 5.277385 9.796607 -1.81495 7.0550613 -1.5123898 -4.990344 -0.23357393 5.601957 4.5999174 3.5301602 -2.6005507 -8.679787 -3.342351 -11.050237 8.644431 4.2119956 -1.1289952 -5.813617 5.39326 -5.2891474 -2.5373487 -7.0265875 -2.965291 -5.375078 2.5486999 5.309534 10.820637 -9.280706 -3.7845383 10.772414 8.324332 0.7529331
908158 4.325698 9.65487 6.556544 7.4178915 6.628493 -7.816556 15.553761 2.695303 0.19593379 2.7037973 10.71939 -1.3139294 2.8356845 -2.3759685 9.974791 -1.9771775 0.7809589 -3.0103374 -3.164603 4.4986567 -0.5518249 2.7591875 7.0118775 4.1277757 -7.3638377 3.2708604 9.497118 2.8743553 4.631399 -13.794264 5.9300427 -3.1571755 2.9627063 9.869502 -3.3923001 6.7300143 -2.6025085 -3.6973672 1.7077309 5.8010983 5.893808 -0.55231035 -1.9600999 -7.164034 -4.1597557 -9.272264 6.8962293 3.2927852 -3.4531205 -4.6229906 4.720358 -6.346468 -5.2218704 -3.5787613 -1.3097484 -6.1843557 7.027462 6.3790264 13.750854 -7.310471 -6.915039 10.695458 9.171625 0.4021387
1322224 5.624454 0.8995551 -3.8221745 -1.0114197 6.738438 5.0697336 14.877631 -6.3918524 5.5967336 -0.11546277 11.439455 1.5491047 12.936419 2.2449389 7.3404207 2.3125548 13.275553 -3.136048 1.6084083 5.6359463 -8.032098 4.8223596 5.0951614 0.8744481 3.3600793 2.7502337 9.235999 8.014862 9.655941 -16.252146 4.073506 4.0120754 0.6609294 8.347601 -0.06865052 -1.0142345 0.00083429605 -1.5101247 0.18187127 -0.9905253 4.12142 -4.152137 -4.034717 -7.6800814 3.1332178 -4.1178036 7.004637 2.7682486 -3.1879349 -0.50216514 5.328045 3.356994 -2.8153434 -11.636749 0.4521466 5.8295226 5.5529222 1.3414763 8.51696 -7.7590103 -0.72270435 0.23343454 5.194755 -0.666344
908448 2.953675 10.18264 6.970947 11.809462 6.7931023 -6.095797 13.604026 1.9843183 2.6503108 6.5158668 8.672368 -0.27288726 4.6606145 0.4999276 8.732617 1.8330406 -1.5310296 -4.6732044 -2.8527102 0.6003568 -1.6200978 3.3498437 1.2604996 0.79129976 -8.147862 1.25653 11.053711 0.6971247 5.1099687 -13.703281 6.249547 -1.8547636 2.836455 9.788859 -0.37255165 7.9773397 -6.6009693 -7.728774 2.9653974 3.616288 0.84800214 2.5903146 -4.647449 -7.0515113 -4.8013 -9.4137945 6.2083764 3.4990273 -0.85068494 -3.2147033 5.63861 -5.77527 -7.8584766 -5.177469 -3.4199965 -3.758174 5.354489 6.941787 11.293708 -7.0583367 -4.318333 9.690236 12.18252 3.2834477
907277 1.2505989 7.0810122 5.4135127 9.306639 4.6411457 -4.5390267 13.999096 1.2288967 1.7165465 5.857255 6.9978337 -1.9743665 1.253538 -2.8120446 6.207383 4.0417585 -1.4688838 -1.4370596 -1.9631982 1.3530667 -2.7147188 1.5721279 4.3495154 5.749892 -6.3076015 4.4818563 11.0776005 6.062269 7.5594535 -13.0217085 3.4653897 -0.5591758 4.635835 10.449957 -1.7430269 9.150395 -0.06433156 -6.799241 1.9693705 8.343915 8.264541 1.563251 -3.2533183 -7.495589 -3.5830646 -8.76699 6.226767 0.17569171 -2.2030497 -5.029563 5.150104 -6.695182 -4.841003 -6.5919805 0.86245424 -4.719144 6.059583 7.7966814 13.417531 -7.494895 -6.4443483 11.276186 9.250224 0.11062796
909718 -0.72402465 1.2365385 -4.6884255 1.3170003 1.2632471 -15.156313 6.8228946 -5.089165 -6.7627153 11.425071 13.326921 3.3827555 -0.07347917 5.7755256 -0.27452993 9.505995 13.063464 3.4289908 0.027182536 -1.7502372 4.6576085 1.507368 1.779313 -1.9093966 1.9433084 0.56319624 13.429797 6.671453 4.2663665 -14.440684 5.1480093 -0.27188832 0.4664333 -1.5410218 -3.6089349 0.026115688 -0.030650731 5.0147285 -4.281936 -6.1587405 4.6378636 3.9210231 0.47569138 -1.1378679 5.0116897 -2.5698094 3.7808151 -0.52483016 4.5502367 2.994622 5.6386957 -2.6665547 -3.9975395 -2.6773353 -8.288621 -0.48737592 9.310492 5.242746 8.5639715 -11.539222 -10.374208 -6.1766624 0.83473337 3.0627973
1247871 2.57899 10.543569 4.464896 8.045901 5.8394847 -2.5076225 12.927733 1.0783062 2.317447 2.4839644 7.4084835 -0.08731789 4.8290486 -2.6622267 6.7598915 1.4971635 1.3775008 0.04659745 -0.68080896 4.366283 -3.5422351 4.2854013 5.9126673 4.7639604 -6.7419457 4.0641403 9.66549 4.4744854 7.7888083 -13.052978 4.8566494 -1.9707292 6.2469945 10.562981 -1.1614281 5.594367 0.41823533 -7.1911387 3.0346131 9.785517 5.548859 0.8929777 -4.7603517 -8.710554 -6.3902597 -8.782951 5.0219493 2.0632749 -1.7036 -2.3534863 3.5224404 -7.2046394 -5.8885 -6.84312 -2.4922872 -3.7760344 6.746656 9.477067 11.116833 -3.695347 -7.480621 8.238154 10.408865 2.9161992
1330950 2.0896046 8.463758 5.3675747 8.294275 7.3801875 -5.9690757 13.584741 3.424784 -2.6561072 4.682278 10.095696 -2.1073582 -0.95136756 -2.282712 5.95817 -2.7288387 -3.4178863 0.64181465 -3.5168197 6.570522 -1.9755975 3.7954466 6.2394724 4.2219124 -4.4574447 5.216238 10.38527 4.6314445 3.5062883 -14.39805 6.129219 -5.259377 4.6861243 13.406322 -1.1195668 9.0951605 3.6482685 -5.429294 1.7019954 8.25879 4.3487597 2.6952217 -3.7483742 -10.082733 -6.31111 -7.910979 1.0348806 2.4883673 -0.8643564 -0.6906483 4.9602327 -8.517431 -4.6354747 -4.5685143 -0.817271 -3.0942338 6.75963 10.205346 7.254664 -8.061077 -6.9222426 8.417842 5.992278 1.4941977
949090 2.32763 -3.9548337 -2.2989008 3.0799916 1.9117012 -1.7058909 2.0603926 0.3843001 -5.2900257 1.4506155 7.074858 4.6167254 -0.016945647 0.121293016 -3.2479565 0.66335094 3.032967 2.070841 -7.9541383 -3.7976818 0.2662191 10.213095 0.10672763 3.076988 4.6158857 4.6707444 5.9948263 8.663042 2.6117096 -13.558452 2.716626 9.607016 -2.651124 -3.0059695 -4.409389 5.833072 9.632482 3.9052482 -9.703802 -1.3501408 3.8098261 7.7599125 -2.4469552 -3.968254 -1.3447288 4.3381324 1.1148832 -5.9127827 0.9493589 0.95405376 10.148039 8.9212885 -7.379151 -3.815562 -2.440762 -1.8848592 4.233197 1.128973 6.2534056 -10.273691 -12.541394 1.3188794 -2.6412537 9.433169
910687 0.43972436 5.8093305 1.7786809 7.6625867 8.742848 -4.7655835 9.100034 -1.2669506 -3.2304595 6.577623 8.099837 -2.3446643 5.8754888 -0.5568574 2.207027 1.1428134 1.3879138 1.897978 -4.842597 1.8730443 -2.3070948 -2.2195761 4.556149 3.0147839 -4.652069 2.6449444 12.09209 9.137581 4.774847 -12.199841 3.5064638 2.989623 2.0792627 3.6198995 -0.80259347 8.081614 2.5786533 0.7159585 -3.3909626 4.9241586 7.1959114 6.8812504 -3.422406 -10.894722 -0.9315485 -4.722756 5.6984034 -4.6053543 -0.91304564 -4.600202 7.1574287 0.9985913 -7.622603 -8.66955 -3.365855 -4.2798376 3.2432702 8.485044 10.700209 -12.941019 -8.002512 7.612303 9.987791 7.0470076
1298167 0.87327516 0.18098119 -0.4564691 5.9384637 4.2334695 -1.6444193 4.39952 -1.8694168 -2.6667993 2.4690757 -0.854492 6.6449637 -2.6160407 7.4582934 6.138161 4.0954685 5.58808 -0.3233993 1.8886145 -0.0421929 -4.768414 9.666241 -2.552075 6.7130785 -5.4242587 9.986063 17.130262 -2.75228 4.9132857 -13.902684 4.1477237 2.6288235 3.3255467 5.395895 -1.73294 5.5982523 5.22233 -3.895524 -6.7586107 -2.6328356 3.4231708 3.159898 2.4361005 -0.5995917 1.2270631 0.7648721 2.5323627 -2.3206017 3.8261073 -1.1070274 10.148454 5.9337006 -11.044504 -0.25288847 -4.4478636 -7.267998 7.7686872 6.140641 8.925668 -4.782369 -10.016734 -1.6835845 1.3481838 4.600196
1240161 2.6201353 9.227706 -3.5691671 9.151368 -2.675843 -7.8495145 10.861781 1.6470289 4.375389 -1.0736446 -3.207405 10.133874 -0.5611148 -3.7065175 -5.921856 0.79656005 6.8465204 -0.57456124 0.7539249 -0.067899875 -4.5966554 7.1879787 -0.3932243 2.2459588 4.4418936 4.408666 12.370841 -1.5215297 3.81065 -10.544772 3.8172307 -0.48710418 -0.59139854 3.6781812 -1.8510072 10.161854 3.619877 0.35198656 -3.5405192 -2.88756 -0.02352583 1.7568808 -0.39549288 0.30953446 -2.0981832 -4.103907 8.854274 -9.636254 3.8659415 4.9136157 8.36804 -3.0799532 2.712184 -7.4313707 -7.8688984 1.621143 -1.6274415 0.9312017 16.651335 -10.855734 -3.1897478 -0.21203382 14.67492 7.4836345
1298222 9.007862 -0.35030165 -4.1351647 3.1802194 4.413182 -9.449427 8.913032 0.91407907 -2.9530725 2.8275225 9.188134 2.4872668 -2.0259151 -0.96823895 0.3397588 -3.5827606 -1.1876819 0.38145936 -6.516956 1.5545553 1.886736 1.3108509 2.3580513 5.0297265 -3.7342246 6.438381 6.3442707 3.6136005 5.757304 -19.07655 4.2063684 4.582519 -1.9303384 1.591236 -4.300337 9.1208935 4.67211 0.55527323 -6.2005296 -0.63162 2.552949 3.7867942 1.3667347 -1.7102159 -1.8987396 1.2957389 2.0007324 -2.740018 -4.505333 4.9291253 9.936129 13.498536 -4.026834 -1.1427155 -4.426257 -2.7101774 7.8522177 0.049849104 8.215723 -11.254903 -15.211884 3.193379 2.0710714 4.149755
908145 2.3474655 6.0189276 4.744893 3.9912214 4.1796885 2.412774 -2.716165 -0.08793645 5.8443966 6.054106 9.105665 3.717228 -6.420519 8.44683 4.603736 7.828284 7.117853 3.5593114 -4.6589913 -4.746388 -8.46119 -4.910746 7.628164 3.8564987 -2.3023505 -2.5486262 10.826531 13.35902 5.4312816 -15.396577 12.116276 -2.5885346 -6.21074 4.7992935 -9.237418 -4.9958234 3.4821303 -3.2076004 -8.917238 2.453407 -3.9575558 -2.111562 -2.7167714 2.609901 -3.8589542 -1.1038694 5.051644 5.519109 6.185475 5.850977 -0.4280861 6.416761 -0.7653217 -6.6393547 -2.181477 2.6008651 -1.8093096 4.291449 5.9753547 -5.762626 -10.917947 11.455173 6.1109457 -5.4648676
1330982 0.8384066 8.678299 7.8404527 9.691054 6.674731 -1.8883337 13.901723 1.6593084 -0.96756333 2.8253973 9.640577 -3.7943914 6.69483 -2.9903705 6.476879 1.0790052 -0.9994096 -3.078049 -5.1113143 6.1210113 -3.7617304 1.2677578 6.7944217 4.827911 -5.7404213 4.3766127 11.996864 7.0550203 3.7554278 -12.964293 5.9664907 -2.1679251 2.4860523 8.907372 -0.606381 4.739782 -0.7085467 -4.448792 -0.12912785 7.3590217 3.712422 0.35496607 -5.206715 -8.818205 -2.5805843 -7.0424967 6.411887 -0.072630644 -0.45414543 -3.7245665 2.4842627 -6.9530745 -4.9886985 -6.7295065 -1.5598475 -3.8375776 5.5469832 7.036817 10.864674 -9.176678 -6.3374662 11.300979 10.55656 0.8079851
753535 -0.0716923 7.4836287 -9.654633 5.503372 -5.1408763 -4.5744944 7.092622 0.69051313 3.3843129 -0.9673098 -1.7332164 11.050729 -3.3437748 -4.2411914 -6.703803 0.12261756 8.734724 0.8523422 3.338478 4.4499307 -1.3924265 9.921785 -2.8162978 3.8322299 5.209404 3.8358088 6.724627 -0.9098311 9.498269 -10.258749 2.60708 0.32208952 5.692419 3.9087234 0.11405308 8.469864 7.290962 2.346387 0.014672903 -1.2594584 -2.6548579 -1.1620523 1.8356342 1.5452358 -4.171474 -7.227098 4.761168 -3.0056672 4.550167 6.053841 9.929071 -0.5485065 1.0047654 -10.959325 -2.7206488 4.5097427 -2.1210508 3.6525743 14.848267 -10.633133 -1.4872235 0.49994546 12.715823 5.8737416
907789 2.2600536 7.4273057 3.0674365 6.349597 7.1723046 -1.9747692 13.248277 0.2470476 -1.0129234 6.378799 9.967042 -1.0831566 -0.0520035 -4.8900633 3.4859579 1.7936764 -2.9487305 2.0660114 -4.497992 2.1545312 -2.904629 4.3871794 4.977691 5.702155 -4.737008 3.5723639 8.985638 5.678413 7.789711 -10.122797 3.4635901 -1.0329087 5.015538 11.482417 -1.177861 7.061928 3.0543969 -3.656494 2.187171 8.656775 8.6025505 1.9182551 -3.5904675 -9.082949 -7.540978 -8.167163 3.749996 0.39320505 -1.9000248 -5.672964 4.50547 -6.763764 -3.7113936 -8.320574 2.260357 -5.3503838 6.10094 7.2253895 11.518146 -8.291296 -9.441805 8.693246 9.166353 0.58730614
749709 5.023062 1.1985469 -4.9326653 -0.47095168 2.7341194 -3.5946422 5.6799693 -0.25037825 -6.9835615 -4.8494163 2.4321282 3.8099942 -1.7175115 -2.1547096 1.5192558 -0.79693806 0.61225545 1.717955 -3.0266032 -3.3237352 3.435252 19.914694 2.1971414 2.4912872 5.7718453 -3.08393 6.1309648 9.123971 6.3200383 -8.995374 2.760618 -1.1276759 -2.459138 -2.396324 -1.2111578 3.6194258 11.489843 -1.8947526 1.1111603 -9.308306 6.884411 2.937502 -4.005395 -6.149573 -3.0602612 1.2169751 6.54098 1.4991862 4.1126914 -0.27392116 6.209998 8.946898 -7.6479554 -0.5931248 4.2873874 3.214099 6.789547 -2.2429476 12.032752 -8.566684 -10.093897 5.8042393 -0.2871396 8.222098
687819 2.4408717 -3.8403704 -6.990043 2.5450747 2.5463777 -6.4663997 4.899083 -5.2210736 -1.8857769 1.9637645 7.780008 6.5566287 1.5398767 0.110300265 2.9427993 -1.957857 2.7302408 -0.8963654 -4.7398453 3.1028202 -1.264836 8.030859 3.930477 4.56725 -4.6030946 3.063972 3.590326 7.1660633 8.641197 -11.379791 3.733164 7.2668204 1.968506 -1.7939819 -6.7810783 1.6322494 3.0765362 -3.4923766 -5.444461 -1.0587121 -1.8564914 4.838364 4.58264 -0.31114566 -0.8812519 2.646583 5.0839043 -0.31925744 -3.7108698 -2.2750022 11.1139555 11.075395 -7.657747 -1.500719 -1.8390844 -2.9799213 8.684572 -4.292843 10.060353 -8.120788 -13.121738 2.7454357 1.0863049 7.988379
925340 6.5883093 -1.9211395 -7.3753266 -1.4397389 1.6959214 1.2832617 7.7976522 -3.1881783 3.8783 2.4732325 7.177851 3.5667207 9.919515 0.3316895 8.633198 -5.6185937 17.466675 -0.031049052 1.7475485 7.8375735 -11.925839 5.7703753 6.6749673 2.9406695 -1.0632898 9.605343 9.951809 1.9220839 11.606566 -13.0278225 5.2882953 5.7760415 2.3775554 3.912219 0.9052662 -5.1331124 3.6761668 -4.025669 2.3970401 1.741943 5.254577 -3.4487102 -4.489368 -2.4706721 2.879162 -5.9245563 2.2530863 7.2995744 -1.520156 4.4484997 -0.83953726 -0.5934091 1.7056195 -8.382535 -0.7009237 2.3749433 8.548374 -2.0721962 1.4024136 -3.6363554 -4.0998735 -6.307192 2.177685 -3.2124593
910936 -0.16199787 4.996142 -5.4805584 8.419591 -7.5954976 -5.5545588 4.82211 0.30599317 4.7398596 2.718441 0.7819196 10.390766 4.0825806 -2.5110385 -6.5335045 3.5516677 12.17963 0.17033473 2.1151993 -1.718543 -0.8499265 4.751814 -4.1182384 -0.015059254 7.7241087 3.6694205 8.480143 -1.0425876 2.8250928 -10.303905 2.9641356 1.2829194 -1.0156724 4.7065825 -6.9988523 5.8070183 6.3015995 1.29759 -3.3092983 -4.1483827 -1.9304031 2.059095 -1.066363 2.686463 -4.603296 -2.210016 8.407037 -6.0660467 1.5472968 5.483507 11.165919 1.1674193 1.3262889 -8.767377 -4.5021906 8.917689 -2.3112965 4.6109986 16.994993 -13.432267 -3.435179 -0.79176635 12.891818 4.7361326
946358 -0.36974892 5.118969 4.964132 6.6266975 7.2408013 1.2771565 12.080898 0.11017119 -1.4146681 7.0267744 10.9630165 -2.071265 6.274558 -3.6019738 0.6960216 7.023153 -3.1697886 -0.19041874 -4.093398 -1.3056211 -1.9158263 6.0305533 2.8276987 6.537772 -3.3121681 5.2407174 11.78515 7.3196807 6.5864425 -11.285957 1.9804095 -0.31954065 0.5524776 9.377571 -0.9610002 5.611303 1.2955776 -4.0096736 -0.92601883 4.851383 8.17958 3.4073138 -5.0219765 -7.222875 -2.5367234 -4.318153 5.3080597 -2.2336433 1.0679868 -4.88294 5.6703887 -3.2764537 -6.3380685 -9.431851 -0.5178666 -3.868658 5.9980273 8.369508 12.557135 -11.510553 -8.652289 6.587478 7.246816 1.0521039
906870 2.8479772 12.971478 3.2358963 10.984219 6.8765774 -6.347201 13.594761 2.255805 2.4043436 4.4509583 14.111982 -3.770333 1.1302111 -2.7106214 7.8421254 -0.8506394 -0.73312557 -2.4839442 -0.9170616 5.913419 2.3074868 9.948367 3.5362728 1.5587826 -7.738984 0.31563297 4.2708435 0.049143255 6.443518 -13.075454 9.155957 -7.3890963 2.8704371 7.814993 3.4872165 6.862219 -3.2188892 -6.066284 5.5234957 6.2534046 -1.754276 4.2350454 -2.3376849 -6.7221546 -5.0281563 -5.762516 2.8456817 3.8416498 -0.8943063 -4.7582006 2.929285 -5.1681204 -11.1277275 -5.8458014 0.14993018 -3.5575635 7.714856 10.608876 10.619021 -7.100398 -2.2235296 9.210308 10.426455 3.9803777
907275 1.0799298 4.2932053 4.2811007 6.154828 4.1652274 -4.889782 7.1020055 0.92860055 2.2829232 11.195371 7.5532446 7.587107 6.2570367 2.381895 7.2284136 -0.3626291 0.52441514 -8.436348 -3.7580657 -1.6113966 -7.547127 7.1384025 -1.421856 5.9099817 -8.447044 4.7419553 13.472283 -0.83190817 4.654925 -11.990813 5.3968925 -2.2333713 1.7681059 9.632428 -4.4301696 2.1387 -3.0924811 -11.668438 3.1380823 3.9778438 3.1134548 3.3059955 1.0825927 -3.2798336 -4.2153797 -7.3130608 7.8058305 6.4573073 1.6251942 -5.6718535 3.2335093 -2.9906497 -7.642096 -6.5826254 -2.5555832 -7.9474897 6.2365165 7.2222133 12.6585865 -7.513279 -3.4912057 5.9676824 9.437473 3.2928567
1298533 0.39763466 -1.0344738 -4.6210966 1.2379538 5.0052814 -2.675793 3.8221009 -5.047759 -4.6551623 5.1562495 8.744125 6.1255326 -3.2862828 -1.0847769 -4.717144 3.5242963 2.7093372 3.6539466 -3.5373862 3.2264354 3.7926195 4.962065 1.033083 -0.37385896 3.1343923 4.011718 6.9868383 6.913413 8.043545 -11.017985 1.3553262 9.303289 0.9174123 -1.778448 -0.7570828 8.364503 6.7799006 1.1523192 -7.611279 -5.08162 3.259833 10.6158905 -1.483132 -2.1440003 -0.421431 2.9921527 1.7576222 -4.268938 3.931069 3.3293345 9.116155 7.1164002 -4.319132 -4.1639605 -9.721757 -3.3522394 4.6773996 7.7216034 2.4541638 -10.916708 -9.949606 -1.1309779 -0.84927106 8.863586
1240153 3.3768387 -2.9490783 3.9271696 7.076632 0.9512045 -5.9955697 6.1589475 5.7783966 2.928121 9.530666 -1.7174547 3.7024753 2.8608112 3.5229285 7.2339168 -4.12029 6.4288745 -6.743294 -1.6636437 6.88282 -12.754096 1.8933502 5.383355 2.7858725 -2.2813144 4.3809953 11.10473 -1.4679066 5.8932495 -11.8549595 13.294567 3.8526702 4.1893935 3.0748565 5.2109995 4.2770905 5.458645 -5.1647034 2.1130524 9.504199 -0.7346536 2.861187 -6.1056542 -1.344465 3.473441 4.231946 -0.14182949 1.9153821 2.28732 2.648436 8.398509 -3.3590539 -6.853938 -2.396352 -4.175913 -2.2402751 -0.42641807 4.935551 14.905784 -7.4365478 -6.798771 -2.8574903 2.5685425 -7.5123477
905971 -2.855995 0.68759793 -3.4311397 -6.3025265 5.3172827 -14.91577 13.602607 -0.9513677 -5.0201855 7.5245514 7.356731 0.38349035 -0.96500343 3.769709 -0.9126966 2.7498708 5.8899856 0.841719 3.0409274 0.059678793 -4.057326 7.0110984 7.2677 -2.7672572 -3.980413 0.46099958 5.3025355 7.871659 5.9869905 -9.861247 8.931876 -3.4833462 -1.7625632 3.1306942 -4.6703057 -3.6698933 -2.768376 2.4247386 3.5397036 0.54076636 1.0460927 0.07510492 3.425165 0.59374607 4.4737043 2.0923522 5.0176415 1.8411605 8.017545 0.16471206 7.6705427 -7.68596 1.8681328 -5.609578 -2.0925004 -7.2121997 7.7285767 1.3705163 4.871294 -9.97378 -4.9010487 -6.440724 -5.350991 0.46625966
905965 5.0930576 9.180482 4.8968506 8.605864 9.238224 -5.2137647 14.703272 0.819284 0.47150776 2.26765 8.783485 -2.1635962 1.8145573 1.4157121 9.251517 1.5064627 -0.72593576 -1.9024726 -4.690833 4.1821656 -4.245723 -0.489959 4.0529623 3.522608 -6.651913 -0.06754314 12.604476 3.0946443 4.419105 -12.423859 6.737756 -5.0755773 3.043636 12.496292 -4.040026 10.180334 -0.9245571 -3.2106423 -0.070771545 6.7165675 5.3668957 -1.2773442 -1.2240766 -9.219543 -3.209591 -9.155836 4.295288 2.0740187 -2.9885306 -3.5085778 5.1811233 -7.2787976 -6.9053683 -3.7350235 0.32741776 -3.6984236 5.4378843 8.695202 12.716142 -8.805801 -5.8388457 13.634238 10.064201 1.9860566
906863 0.28545654 6.4515834 -6.387274 7.5490127 1.0920682 -9.340907 7.980286 -2.0507927 1.9006795 -1.7302177 0.264201 11.659199 -0.41220695 -0.581916 -10.095032 0.2854804 8.702732 -0.3185119 4.902993 3.527543 -0.99083376 3.9932647 -1.4120836 -2.1333716 6.7131085 2.8163238 3.1409645 6.4403677 4.8170915 -11.700501 2.5908594 3.3908155 0.34206086 5.8508124 -3.0909798 3.7281425 9.495283 0.48422733 -2.6133096 -5.5306106 -0.60271335 1.359352 1.343048 -0.13505794 -4.750374 -1.9040599 9.2461195 -3.0296085 5.1947927 2.774862 10.52415 1.2774365 3.2991674 -7.819921 -3.2384777 10.002864 -4.965386 0.14054647 11.451587 -11.964497 -3.653137 4.606484 9.011469 5.94692
722066 1.2115865 -4.6028314 -7.0245013 0.021582672 0.5741918 -6.9663234 1.9308559 -6.9008894 -1.4561008 0.08728892 8.617529 8.269771 1.3000295 -0.28486416 3.42385 4.622657 7.2622237 0.7557921 -3.9342527 -0.6905028 3.230717 7.7215967 -1.5342727 0.5739541 -2.3845084 0.0054150335 6.063862 7.6639714 6.7741866 -11.487498 3.5801892 7.763023 1.4893806 -3.8480525 -7.52376 3.96684 6.247967 4.8708076 -1.8707414 2.5398655 4.264696 5.304886 2.5070767 -1.1397381 -1.5212806 -2.5032883 11.52228 2.6733997 -3.5613742 -3.504937 9.82023 10.950018 -2.7091186 -4.447181 -4.56082 -6.3734655 5.088822 -0.9764489 1.5272449 -4.1922493 -14.648873 -0.8886694 -0.3357593 8.63646
1331033 1.6220738 3.9208562 5.933761 5.674022 6.206082 -2.779532 13.142327 2.330237 -3.0604527 5.9456964 7.6576443 0.80637443 2.1805198 -5.0771 5.014311 0.8756052 -2.911473 -2.1666005 -6.507755 4.616343 -4.558247 4.9932094 5.586712 7.2695723 -3.8070672 3.6682322 14.470159 4.1816907 3.781403 -13.94648 3.3107262 -1.9329127 3.7550116 11.066698 -3.6767762 8.217482 -1.8407534 -4.035268 0.10881123 6.5110683 4.9681225 0.15885341 -1.3762374 -5.5709386 -3.4037714 -7.539708 4.739357 1.3449137 -2.299309 -4.59973 4.109446 -5.28009 -1.8875176 -6.5260777 -1.0948119 -8.392282 4.7548776 5.958209 14.026788 -10.940347 -5.0707893 13.051984 9.003692 -0.86936873
907282 1.1482394 7.422993 6.094425 0.4129372 4.4566917 5.751168 -4.1126356 0.62820697 3.1067398 3.3242173 6.9950204 0.5461142 -7.1107144 5.028452 -3.2791572 2.8140514 6.408116 6.448872 -3.7225857 2.575139 -7.477705 -4.304776 12.25444 2.1497228 -5.5195537 -3.3389235 0.163731 8.710113 4.6224113 -9.071642 15.679537 -1.8836691 -5.9015045 2.3395298 -8.407803 -7.7128754 5.28139 -2.8141243 -3.2945542 0.5027302 -6.7228017 -0.077588834 -3.6117744 3.32596 -4.744736 4.0228934 2.1891446 4.104436 8.448478 10.440078 -0.5862254 -0.46011508 -0.9164348 -8.680058 3.156252 12.430728 -6.4361243 2.7469938 0.565224 -0.8194187 -6.800282 7.3019605 4.1595917 -7.583836
905936 -0.61740965 1.4717724 -1.8952254 1.4368346 6.271358 -12.560971 13.573621 -0.8647126 -2.1639163 9.0099535 9.780815 2.9698253 0.6384812 -0.7240862 4.0754395 3.8450372 7.495795 1.2006948 0.61922616 4.63848 -1.7873547 2.2069004 10.096326 -2.2119062 -4.8613305 1.4102392 9.416583 8.632507 1.0713674 -13.819066 5.874697 -2.064466 -0.09285029 0.95209926 -3.6457858 1.1637269 -4.9020886 4.303044 -1.0977347 3.1559649 3.506942 0.34518394 4.9132395 -0.98249894 2.2610743 -0.1114478 8.300175 -0.58955145 3.1926885 -3.1332505 3.0640173 -11.288507 0.283287 -6.211778 -7.8546605 -10.054377 4.8787913 5.4300327 9.680489 -8.379123 -5.9316483 -5.054712 1.9533715 1.9937866
1298215 0.19720829 6.5564218 -3.0101357 8.482628 -5.022124 -6.2780423 11.30934 0.73604304 5.892594 1.5449142 -4.758676 9.562822 -0.7147213 -1.3404682 -4.797861 1.9766301 6.9115477 1.7120979 3.6161306 1.1454684 -5.49197 3.5151606 -0.087599084 2.2423189 2.6424174 4.436594 11.948526 1.6321398 6.465367 -8.727147 2.656704 0.67370844 2.8180385 6.6483116 -5.5461783 10.240914 5.8302083 -3.7926598 -1.9273553 -3.4145274 -1.2692269 0.39773896 2.4564195 0.8898522 -5.422344 -7.2972913 5.3994355 -6.390611 4.1337523 6.236707 10.432727 -1.751706 5.5273767 -6.9825954 -5.587221 3.7154963 -3.2181046 4.056341 17.950478 -9.503434 -1.2005656 2.33859 13.865279 5.4042354
907276 8.764413 -5.339935 -8.99584 -3.0197453 1.0385361 6.661431 8.49622 -5.5838304 2.9723082 0.34531218 12.200562 0.36671042 12.395473 -0.2791291 2.0070786 -3.5896106 15.411753 4.0887885 -1.331429 3.5976381 -6.001339 3.7202847 5.6551824 1.1997266 6.4272313 7.556312 4.7125435 2.096107 5.8649564 -13.689325 1.5983306 10.244053 -5.9557667 5.014407 -4.3712277 -4.076595 -2.1624963 0.40785313 -3.9826722 -6.482707 1.310182 -3.8524163 -2.5903807 -2.235462 4.780446 1.45211 0.73636746 -3.7731576 -4.0441484 3.1920657 6.100803 6.613077 -2.5070932 -7.6628127 4.037997 5.628905 11.994157 -2.8537817 6.133805 -9.146767 -1.1992055 -5.528633 5.5418577 -4.894495
909257 2.1165733 -2.7913566 2.9054232 -2.7858837 11.014266 -14.620551 14.586498 -0.5413864 0.6396348 2.5868602 -1.4861547 2.7232478 -2.452335 -1.5709192 1.3276075 2.771486 4.4230523 5.0757103 4.3683233 0.73323905 -10.245818 3.1529088 6.335222 1.8603544 -1.3116925 4.2206826 5.410281 9.496232 10.448869 -10.358299 2.18733 2.2217367 5.3094397 3.2689452 -2.0957527 3.4257867 2.243584 1.0454541 3.6963854 2.5749378 1.6304139 5.303189 -4.2381687 -4.7527447 -3.11993 -4.8756185 3.5664637 1.1198487 3.4289005 -0.66074103 7.4962726 -6.425165 4.6452017 -10.018518 0.59075177 -11.744668 -0.48916852 -2.144814 0.45912346 -10.240347 -3.7495296 7.901158 -0.9099085 0.9892507
1247873 0.34485823 -2.7627535 -1.4809213 2.6981301 -2.0634036 -8.753772 -1.0022413 -6.230453 3.4773371 4.6163087 14.518749 12.021882 1.9553927 -1.3684686 0.18746197 0.34331173 8.733625 -4.8151813 -2.951967 1.4082648 -2.0674267 4.887079 -5.116091 3.704893 -1.1361744 6.146541 6.355566 3.293331 7.178816 -12.569172 2.0765166 6.2082047 -3.1648111 -1.4175011 -3.2827048 1.923604 4.7945046 -1.5275378 1.085037 4.113912 -0.56327623 5.35421 -4.259393 5.0306077 3.6817327 1.2407452 6.2550297 4.618046 0.24975733 1.6576777 7.699337 8.342178 -6.338794 -4.250763 -5.4790807 -2.396104 1.1443602 1.4799019 5.9161143 -8.644644 -11.923895 3.406674 1.0371859 5.168396
1298531 0.8743601 5.6422133 -2.7225833 8.670115 -4.2901845 -11.4557905 9.391191 0.6936128 8.067835 2.386834 -0.22140168 9.595326 -0.89307207 -2.352245 -0.6425118 3.8744817 10.013726 -0.7658988 0.99005264 0.019342016 -2.602475 2.591269 -2.0274618 2.0212696 7.488235 4.0978484 9.538536 3.0832028 3.5827487 -14.176992 2.9209893 -1.1580682 0.02981259 7.054716 -5.7770853 6.7464476 5.9355063 0.92489904 -2.0002992 -1.4205455 -1.5665479 -1.1336664 -1.2710742 0.95129776 -6.389972 -5.0527577 8.825894 -1.8348978 -1.2045022 6.2430596 8.96099 -2.9413705 2.9395146 -9.278389 -3.9398565 5.304279 -2.4991097 4.9386873 14.761523 -12.361941 -4.5471888 6.5281887 11.668324 2.654579
907311 -1.9859552 7.949953 6.2705865 9.644942 7.520267 -0.2792881 11.643023 1.5133055 -2.484757 5.753163 8.736987 1.1062483 2.1135232 -3.090576 6.175961 -0.854291 0.6625248 -0.8243719 -1.615286 10.005623 -2.5005307 5.789022 5.8208117 3.7562008 -1.6992581 4.283893 12.05645 6.2094655 6.046093 -11.529244 8.148286 -0.80845034 6.2501264 11.470601 3.199406 7.156994 -0.49856293 -6.8477063 -0.37131232 3.4727256 2.698305 4.1102085 -2.9004314 -6.4996877 -2.0789454 -4.320654 4.3356066 0.45171335 1.8168846 -2.0717976 7.4759254 -7.4896255 -5.5436854 -3.7583 -2.4527667 -4.994875 4.198202 9.104024 13.478036 -11.098039 -5.829368 9.582332 8.362495 -0.24581073
910554 -1.8295748 0.9855203 -5.1455355 -6.4221168 5.4925814 -15.374297 8.782549 -0.3941273 -2.3818262 4.8444567 4.996124 3.1731243 -0.97143215 -0.93215513 -4.577399 0.29640248 9.484549 0.4443158 4.3335767 0.7842573 -3.1514475 5.206804 10.72347 -2.2462022 -3.743242 -2.5699587 2.8447723 12.47914 5.4484496 -10.119675 8.836899 0.5206806 -2.4733355 -6.045573 -3.4554298 -5.339429 -1.7079469 1.4250846 2.0448825 2.7215405 1.1661233 0.7093484 4.0081544 -0.8440015 5.942041 2.5737808 10.310673 1.3559232 5.2163634 -0.506009 3.8599896 -5.1165237 0.22022974 -9.871113 -0.8682938 -12.349333 4.1072564 -4.651256 2.9313562 -5.4991026 -4.740638 -3.4565368 -3.6230218 1.098119
1503366 8.73559 -0.44066057 -9.4144745 1.0813087 3.6044538 -10.726144 3.2556686 -0.30197003 -0.45983714 5.55593 6.393599 3.2062337 2.2191687 -1.6669492 3.4172208 -11.540475 5.5975885 -3.9766483 -1.2191508 9.098884 -6.1990123 3.7674372 1.5927252 3.0456173 -1.8676277 2.7597923 4.5486665 1.6710892 10.860359 -13.269338 5.3964415 -2.095614 6.2331395 2.5392804 4.6774206 2.1051037 4.994386 -9.297767 4.0608077 10.446925 1.8626572 1.7665137 -0.6582226 -4.554128 3.5726252 0.73072237 1.3444642 7.237761 1.1225784 2.2884724 0.40139723 1.6854361 -8.479093 -6.8171124 0.10367101 0.14282724 5.798318 -0.35559857 11.881036 -10.403126 -6.3399076 5.0991774 4.681902 -0.93938303
905954 2.5783253 -2.5419855 6.798756 3.2775445 3.372238 -2.1743612 -0.30336368 2.4331539 -0.49439856 8.647978 5.2366023 2.8742535 -2.100692 3.059683 0.036910083 -0.45252848 5.673094 -4.39868 3.5653856 5.9171457 -0.3994184 2.7734635 6.9872684 0.8716839 0.48040965 6.1319747 1.1837863 0.4093761 2.4661312 -9.694085 8.6587305 13.817692 2.1948688 3.5861285 -1.8588394 1.4069693 10.3061 4.661564 -4.898725 -0.8604861 -0.6219326 8.22283 -1.1016781 -1.5364065 -1.033831 3.1745884 -1.5102458 -1.3395143 3.1517677 2.8561425 20.164057 9.040505 -5.9672976 -2.538107 -5.634546 0.7520008 5.0917025 7.423597 11.877893 -12.667168 -8.516095 0.06575503 -0.4246619 -6.2291393
688027 1.9394032 -2.489376 -3.508781 -0.24757577 4.6357894 -3.896768 4.0458345 2.1362853 -5.345043 6.6570225 5.4419336 6.2120028 -0.8420369 -1.4063752 -1.7432934 -4.291091 -0.683858 -1.7751682 -2.202938 0.113949865 -16.411236 12.216064 1.6790341 8.376013 -5.319464 2.8942585 9.594824 2.0195649 10.067647 -8.974226 3.093377 -2.4963892 6.069327 0.43302032 3.2814658 0.15407607 6.0301948 -8.977205 5.8798428 10.019546 -1.913427 1.8864077 -1.362999 -1.1696588 4.0653944 -1.6612436 -6.888083 1.7836436 11.128617 -3.4405267 0.4970811 -0.42975086 -4.84687 -6.508336 -2.4096782 -4.3115497 1.285527 0.6248526 4.91951 -7.414769 -5.508747 3.0371952 4.554228 2.637033
909716 4.8760824 -0.66613793 -3.8106282 3.100738 5.5262136 -3.0671458 -0.38333812 -2.1990752 -6.273127 2.119504 15.605008 4.4727297 1.2714529 6.8295264 4.860387 4.834909 10.551497 1.6598909 -3.0776925 -0.31950295 2.53895 7.911901 1.389138 -4.869499 2.6303873 -0.35045275 4.863246 3.4847696 2.9216228 -13.642497 6.862935 2.9567678 -0.46764725 -1.5675305 -2.4754357 -0.46613395 6.644132 5.220706 -2.6115808 -5.310178 0.57708955 8.967838 -0.33213106 -2.1646101 -0.3247041 -1.4846176 5.9534054 2.398361 3.559406 -8.630233 9.141528 14.593903 -10.82685 -0.055397097 -2.6132007 3.3424847 -1.6773863 5.2943935 3.302939 -11.13378 -8.729258 4.422128 3.9200673 6.3192167
1290810 4.2587814 -5.2872243 -4.020359 -2.2228608 0.73775357 1.4986562 0.32890362 -1.4364581 -2.0013494 -1.8608724 9.477424 4.545928 -1.6059532 -0.5809491 4.270135 5.7684298 5.5274725 1.6338617 -5.5213623 -1.7395866 1.6119921 13.376771 -1.1792489 -0.2989405 6.6678395 0.7853026 5.411489 8.336796 6.4754505 -11.703481 2.7903469 6.4565663 1.0930036 -0.8388893 -4.109583 1.6910847 11.534335 2.9908812 -4.146953 -4.2517424 5.0879774 6.9823203 -3.8530052 -3.4749775 -4.0360384 -0.27941826 1.9521861 5.5725694 0.43116415 0.44144285 9.984943 9.841965 -8.540322 -4.94785 -0.16443035 3.6142793 2.9615693 5.205543 2.820067 -10.287246 -9.396407 6.8542824 -2.6603472 5.9393487
908440 4.784032 3.0023742 -0.50001556 6.328002 7.275838 -5.386263 8.992332 -0.025554474 2.7006927 1.624461 6.8613195 -1.244939 2.8788204 1.4804573 4.545376 6.6985974 1.5981094 4.5855794 -4.042423 1.1901505 -1.9895493 1.7747412 4.2296896 3.6730373 0.56894016 1.7333723 11.177159 8.557152 6.069186 -13.793563 4.128306 1.0670788 -0.49940825 7.6591268 -4.021553 4.9750113 5.862823 -0.9570678 -5.087354 0.4277001 4.3890204 1.6069243 -3.9654832 -7.111602 -7.4412394 0.30700117 1.6273273 0.7389161 -5.5664873 -2.0805826 7.1839366 1.9507111 -6.2680974 -3.8481135 -2.3524132 -0.29693455 3.7109938 12.465852 12.63245 -10.913362 -11.467596 10.6840925 5.9295516 3.5548217
910691 3.8713367 0.32143205 2.818244 -2.7090828 7.560816 3.8824325 7.4919095 6.5419335 4.047619 1.1895274 -1.2417923 1.408813 -0.48337576 -5.1024127 1.437359 -0.32002288 -6.480811 1.3821255 -5.905388 0.95377004 -7.07393 5.2571282 7.4966235 2.8604255 -2.994219 3.761855 -4.705116 17.975086 8.4761505 -10.396913 5.3401256 2.8437533 0.15762597 -0.61273307 -3.5384114 -1.0919061 -10.186509 -7.8302665 1.4629916 -1.579429 1.6519893 8.737313 -3.01342 -4.1468053 -2.0839872 -3.377269 9.020075 2.8516166 2.6366675 5.9764996 1.2142235 -8.585744 -4.646076 -12.434489 -1.5708529 -13.293825 3.9619367 -5.177965 8.710293 -4.5164094 0.075881004 6.659311 6.0037537 6.6123204
908118 5.079377 3.2547882 -0.9858457 6.776094 2.6055775 -7.025833 13.706944 1.6835858 1.5529814 -0.16599365 5.226627 2.8956 -3.7705004 4.57009 4.995691 -0.7206708 0.7970753 -1.4585493 -4.010947 -0.35994485 -12.446685 3.9516702 3.510188 6.155701 -2.8932965 3.146849 13.993634 5.9299016 8.46521 -15.200479 7.180355 -1.7403991 4.894234 5.8642764 2.5997312 6.263899 0.8612355 -4.258524 2.369572 4.2611346 -0.4741067 -1.2880675 -0.86123276 -3.2570443 5.3280005 -3.4458537 -4.5775533 -0.21151909 4.924434 -5.177339 3.527709 -2.8050408 -9.071736 -0.8845718 -1.1474091 -4.6750007 -0.50342214 6.156605 17.53377 -8.811326 -4.1713443 10.908594 6.985018 1.1074791
906833 4.9605885 3.237397 1.7516459 8.069701 1.2019484 -7.6618137 9.608218 1.621357 -0.38656446 -3.0132244 10.386218 8.110239 -5.5640283 3.0913713 5.930027 2.2468996 4.2526426 3.646218 -7.6157675 2.5241184 -0.8724572 1.4885534 4.108578 1.9143034 2.9351091 3.198432 10.37665 11.713921 6.661541 -17.862146 5.602541 5.4885144 2.747789 2.175169 -3.323008 6.026245 2.9243567 -0.44520238 -2.1211667 -2.3288436 -0.68644875 2.1268108 -2.6977363 1.0601549 -4.6142917 -7.9183564 4.843614 0.8059639 -0.54395086 -0.78577644 7.0566783 2.1259055 -3.709503 4.41304 -5.8841205 -4.1595707 0.47175995 4.9885454 8.211881 -6.287965 -11.293325 10.924283 5.2341437 4.9509797
1327774 1.6840059 10.072675 5.8794723 9.553632 4.095377 -5.097946 12.161891 2.906075 0.59497404 1.1062615 5.471796 -1.6158228 9.272973 2.3350854 4.771384 -0.5883132 2.2038953 -2.5106685 -6.8099356 2.5920732 -8.977697 -0.5165691 4.5824165 8.133449 -8.6460285 3.659849 14.429733 2.4440248 5.7097516 -14.027551 9.626337 -4.045842 -0.0073535 5.382935 -6.3547206 4.6930075 -2.098656 -9.977265 0.3274539 5.9210143 0.99485856 0.11904266 -2.336346 -5.804008 1.2270592 -4.621354 3.9547596 -4.4075694 -0.6612408 -3.992766 2.5260587 -4.2279325 -11.116919 -2.862902 0.8753042 -3.3554327 7.168961 9.954693 12.870869 -9.55391 -3.150361 13.845175 10.689389 4.360355
1303900 2.2935991 -2.64841 0.72536737 1.3994684 5.69963 -6.998054 5.5704193 3.383335 -5.7622843 6.43881 2.4905589 8.053523 2.827803 2.2570217 1.987176 -3.8923283 2.4121194 -4.602605 -4.076545 0.4498434 -15.848009 12.976894 3.770314 7.8642354 -5.5231075 5.2589498 16.09499 -0.5813274 8.801031 -6.708967 4.9196653 0.05827992 -1.5022726 1.5045705 0.8085315 0.834065 7.4086294 -11.839709 7.417641 1.1123642 3.13365 0.44875458 -7.528958 -3.0059397 -0.53844327 0.4435434 0.3673708 6.430481 4.9896445 4.512758 -2.0478585 0.3283907 -3.5530543 -2.9127707 -2.2676191 0.16019532 0.98908854 -1.5384295 4.2585707 -3.6364942 -7.245151 -1.9882349 3.0924308 3.009179
906793 3.9021041 1.5576925 9.6849165 9.324838 6.8352165 -8.383031 9.846512 1.5733211 7.8621225 5.671569 -0.45454085 -0.63431656 -0.6885497 7.133979 9.919683 8.053995 3.5014865 -4.3775687 4.644049 3.7621546 -5.7269187 -1.8838195 5.7601295 0.5238473 0.3877949 1.8237705 7.870988 2.6865094 7.5161104 -10.768346 9.56866 3.0771465 5.2487617 6.653657 1.7313634 6.155396 2.3580542 -4.0434794 -2.5265272 4.318382 1.2786156 2.4177396 -3.1756606 -2.7743392 -0.628919 -2.7911794 3.0507224 0.7562652 2.9731226 -0.71952355 13.211715 -5.6273217 -3.453286 0.108173445 -6.376369 -2.220193 1.0962461 8.416713 20.55107 -8.32376 -7.0945773 6.557619 3.7488875 -6.931308
905961 -3.9980977 4.3614707 -3.1491244 -0.7686759 3.0330675 -9.523129 13.669009 -0.23883702 -2.4773588 9.989979 11.676392 0.9237788 -3.662209 4.2147207 -1.9092575 6.795406 7.825474 2.0078182 6.0487456 4.649062 1.8887656 5.3370147 3.7465675 -1.0967746 -4.62968 2.4657645 11.878217 1.6092551 6.4033265 -12.305248 9.974217 -3.6640081 4.044901 4.361072 2.3823662 3.608908 0.87479585 1.7324308 -1.5617543 -5.064958 2.521849 -0.15635361 5.8195477 -0.56958 7.693214 0.98548526 1.2466693 1.0647683 7.1258607 2.4656193 5.2154393 -4.480282 -2.2409756 -2.3745124 -8.562333 -3.211151 6.4508743 12.2374 15.485664 -11.620069 -3.8036315 -8.939098 3.5353425 0.7971976
910701 3.2667222 3.8539474 -7.153226 5.4441066 -2.767793 -12.628194 3.8156874 2.6463733 6.7506313 1.7360859 1.2266414 12.681139 1.1138312 -6.2320924 -7.757792 -5.6574078 6.666463 -3.2839553 2.035716 4.0944405 -6.542253 5.567648 -3.423973 3.4978192 0.7996342 8.423664 5.1808662 -1.3850032 6.580023 -7.658994 -0.40777457 0.24490993 0.79355675 2.5762947 -0.3401255 6.124312 9.617107 -4.882804 3.8473616 1.1013355 -1.0823756 3.6022623 -2.2807465 -1.2036225 -0.5809022 -3.474163 4.3235955 -0.83906484 3.3297648 7.8492336 3.8859217 -6.1594496 0.64374244 -10.379657 -6.222508 4.3740735 -2.8264904 3.8785841 10.164789 -12.065489 -4.9040923 1.9599488 12.218785 5.49423
949155 8.006244 7.507239 -1.0936086 5.8771243 10.092122 -8.976298 11.014287 -0.8789118 2.5139303 -1.6904588 6.764847 -0.16191202 1.8898927 2.5590143 7.4126506 -1.1209158 0.26625115 -2.5953465 -2.3951116 8.926555 -6.052207 2.2625878 3.9984033 -1.6046476 -4.860946 -1.5172988 9.95103 3.358832 6.264073 -14.933896 8.831301 -6.5991597 2.1954434 7.931624 1.6870627 6.7925415 1.7084135 -3.6760812 0.8350454 9.655228 0.67833 -1.0717915 -1.1443506 -7.397423 -3.230028 -4.410355 1.879402 6.0300093 2.2285767 -4.9540157 5.694395 -3.1273172 -7.542238 -4.933981 -4.974944 -1.3340169 0.43334287 9.942651 15.611291 -8.947015 -4.638927 12.441415 9.374965 1.9474186
1240193 3.1198835 3.6535993 3.4254637 5.46286 6.743198 -5.8521295 14.215697 -1.0317137 0.49284792 1.4945983 11.834412 1.886518 -4.2599163 -2.2749767 7.783655 -0.49035934 -4.4773583 0.8536525 -4.9752812 3.1469169 -2.8040512 6.0492325 3.6209567 7.7647233 -4.1929216 7.4502788 10.270687 6.682335 5.2430487 -14.191735 1.1831728 -2.3273458 4.054554 13.044362 0.5671357 6.8098445 1.4460595 -6.1249104 0.884083 5.8900523 3.464814 1.3548361 -0.96494365 -6.573016 -4.3719893 -5.676639 -0.24120578 2.7247295 -1.802128 -3.2550201 4.7397027 -4.045786 -4.4925785 -5.0342646 -1.0043983 -5.9829826 3.0540833 5.2090836 9.666279 -6.7187963 -8.79064 11.96972 5.580306 1.4534469
949153 -0.73516643 5.939555 5.182395 7.806703 6.5741534 -3.7791994 13.3071995 1.0226785 0.3418299 7.876923 6.925712 -4.315261 6.473431 -2.439035 4.6260424 2.0600317 0.4259376 -2.8178544 -1.0792272 2.9365015 -2.5616257 3.472076 3.087117 4.710649 -4.226155 0.8786083 10.720602 7.488443 8.205836 -13.202368 4.0259714 0.5846351 5.002414 8.291243 1.6377537 6.305897 0.8525754 -4.8570757 1.6266693 6.1941843 6.934026 2.9216478 -3.9386322 -8.551366 -2.7467961 -7.1148443 6.2816734 3.2464733 -0.21861722 -4.2973595 3.0429919 -3.7170434 -3.6193063 -8.7734 -0.9189613 -2.5351562 4.8908086 7.51443 15.8897 -11.267576 -2.6636827 12.797794 9.576076 1.8034743
906877 2.8385243 -0.9704373 3.967197 -1.1805909 11.161582 -9.0080595 11.457896 0.19348463 -2.0629869 3.3771589 5.8646226 1.0097017 2.2786357 -0.83918977 0.022859728 -2.9665797 -0.28403765 -0.7273875 -3.3383904 5.435325 -7.0967035 3.3603716 5.534055 2.6864486 -3.4623916 1.3552246 9.389487 8.746407 4.0330224 -11.929515 2.8836985 1.2696016 1.5584735 7.5740757 -4.302905 5.543808 3.6940935 -2.9869723 0.48545238 8.178359 2.6189468 3.2835357 0.051162258 -8.717659 -4.115134 -3.5788553 4.4128184 4.1844187 2.1382966 -1.3414091 6.4037876 -4.7596397 -0.3859255 -10.307921 -1.3977051 -6.489159 0.93044966 2.1468918 8.561836 -10.037433 -4.4596987 11.069198 3.1871643 2.0137641
909260 -2.227391 5.829804 4.1642866 4.541964 4.6827717 -4.0900517 10.317513 0.17601827 -0.32384223 4.443172 11.040014 -4.702688 -0.29925513 -5.544355 2.4449272 0.600131 -1.1253436 1.3627051 -0.756662 4.079045 -1.1513835 6.195474 3.7869737 6.55422 -6.480404 8.341371 7.0048695 8.638289 5.1665406 -14.27638 1.3120735 2.879026 4.6658945 9.7043495 -0.90231186 4.9046917 1.2285458 -3.4812877 4.457997 10.106303 8.37798 3.906839 -2.7635088 -7.1771736 -5.830739 -6.7045918 4.9739523 2.23125 0.14433107 -0.90808934 2.0690231 -8.415454 -3.8932114 -11.729176 0.89823985 -6.8469815 7.827201 6.8112607 5.4986415 -6.135516 -6.085514 8.424956 6.08081 2.84218
749716 1.4747397 1.7135565 -4.017522 5.1907516 4.8682747 -7.0237646 4.227458 0.38355544 -10.036504 -0.328984 3.618719 2.0582669 0.157887 1.2999234 -0.53969556 -0.88077736 1.0368901 1.899867 -5.0017133 -2.3141367 4.5159173 15.517224 1.4643123 6.3783712 3.951856 -0.7027094 9.521869 11.555891 6.7666364 -10.277682 0.6647359 3.4673612 -1.6936868 1.5266407 -1.1196417 4.2125134 7.7150307 -3.6339686 1.0336035 -6.180313 8.597775 1.9531038 -5.8254285 -7.269736 -3.6664753 -2.1444478 7.2358184 2.2256002 1.9247676 2.739276 5.292713 4.4286284 -11.203756 -3.210039 7.9537864 6.672431 9.007113 -1.8275323 9.040552 -7.50049 -8.702216 6.2093782 -1.2960547 7.4793925
907066 3.7319303 -5.690399 -0.05289076 -1.4009608 1.1777678 -0.6029407 0.52457273 -8.251377 -5.961201 -0.829677 13.661179 7.4317813 0.5135228 -0.19594651 2.2161236 -1.6099094 4.368152 3.8912575 -9.053281 1.7118373 0.3044471 9.62357 -1.9086002 -0.7314797 0.859301 0.7340422 9.242668 1.4092499 1.6751733 -8.765326 4.592784 2.37576 -3.7777429 -0.9840261 -7.537149 5.5984225 8.980123 4.128779 -9.538382 -5.4362416 -0.7356228 7.6703444 -1.7924465 -0.018546842 2.9458156 -0.46228385 2.1707108 -2.505262 5.1835227 -1.3556207 13.388345 15.327007 -5.8289404 -2.5475435 -1.9493492 -0.7901532 0.25687915 -2.123492 0.43857712 -11.9958935 -8.890705 2.3348765 -1.2833184 5.8852386
909703 3.5065145 7.3622622 4.2660103 6.1731243 7.6127934 -5.2366295 12.884824 -2.2753384 -1.1740279 4.408099 11.796709 -5.175169 5.478969 -1.6527289 4.667874 0.8215139 -4.6071362 0.17255276 -3.06309 5.9284844 -0.44822976 2.9808846 7.8425727 3.0737197 -5.8194094 3.2205753 10.545612 7.570817 3.9795523 -12.803128 2.4550436 -4.733484 0.41099435 13.060914 -2.2651074 5.767294 0.0014449878 -3.7838063 0.7945643 9.620099 6.3529196 1.2713277 -4.038641 -9.013387 -6.250926 -6.614426 5.0445237 1.7532119 -0.80082846 -4.8009768 3.3169863 -3.6418614 -3.1540809 -7.542482 -2.167857 -2.532666 6.1697783 7.6608768 12.96271 -7.8037367 -5.517329 9.487262 7.41893 0.095678695
907061 -0.4708992 6.553386 -5.1348124 6.9273148 -3.671466 -8.203702 7.737608 2.268015 3.7870338 0.74450016 -1.8902229 12.27081 -3.8181903 -1.7955396 -3.5448787 -1.4816912 10.356009 1.6212065 2.778985 2.9374828 -5.865725 2.4642713 -2.266223 1.0657631 7.268609 5.985355 9.374669 0.3973976 3.3434324 -7.778108 3.1233552 0.40486443 4.0990005 7.9985056 -5.319526 5.673796 6.3610306 0.092533395 -1.2819247 -5.065244 -3.6324146 0.041460562 1.216859 0.29300457 -4.2975416 -8.221924 4.7198234 -4.9837947 4.424694 7.2339854 10.070453 -5.9084406 5.1755857 -8.499212 -3.908443 2.3491726 -2.7079387 2.1120527 13.727804 -14.030113 -1.6678339 3.3914287 14.961765 4.490839
1330984 3.4217277 10.180604 4.3479705 9.597518 8.242172 -7.862975 12.950978 -0.6983007 -0.14090788 1.2260936 9.57322 -1.6321795 1.7792491 -1.5737829 8.437833 -1.0679187 -1.94136 -2.3443363 -3.4330733 8.776374 -1.0549138 2.8165421 5.370192 2.9752848 -6.8902054 4.8422565 10.177109 3.7353199 4.829795 -13.207032 5.0700607 -1.524732 4.700636 11.164475 0.07315437 7.4039965 -2.2281425 -3.604295 0.5242726 7.414412 5.3784347 1.3293571 -2.6935015 -8.555575 -4.4957504 -10.301709 5.0006065 1.9958777 -1.2012839 -2.642726 5.600752 -9.2389965 -4.8933926 -5.234877 -3.6312873 -4.647468 6.0486937 7.7660947 10.323041 -7.064842 -6.719056 8.544215 8.149087 1.687162
1327771 3.6800795 1.5536394 2.9855247 5.7981095 2.1518254 -3.0064723 11.220795 -1.2820599 1.638499 8.135963 6.1442227 0.25590932 9.91953 0.17723891 6.450663 0.9884581 8.378205 -4.8207006 0.14756194 5.755094 -6.9222856 3.5592902 2.6570892 -0.7769475 -1.812904 5.162182 14.6626 0.78962284 7.4080925 -11.876844 4.076217 3.635614 10.4394865 5.6378136 2.339899 2.2644732 1.237479 -7.4136915 2.2404597 7.338335 2.1534448 7.0455847 -5.9225135 -10.023624 -0.81070024 -4.2682176 4.198545 -0.5500339 -1.014499 -4.571154 3.9162872 -3.3261518 -5.762116 -6.628331 -6.85067 -0.06297826 1.49902 8.95897 9.022946 -9.516001 -3.98558 8.682685 8.043829 1.8608378
1327775 1.8876225 7.1575923 2.4953303 8.838598 7.313477 -6.6436844 11.985998 2.3167346 -2.131885 6.2088413 9.575599 -4.6956167 -2.011678 -3.4306443 4.615177 -1.4633234 -2.8862238 0.5252938 -3.9916244 8.162707 -0.8597434 2.820344 5.638008 3.820684 -2.4330406 4.47709 6.2186365 5.904345 4.631458 -13.365128 6.08015 -4.5988655 4.245623 10.194817 -1.4072415 10.383729 5.073643 -7.5204854 0.8560797 7.620167 5.373304 4.9908295 -2.6118276 -10.018116 -6.433993 -3.9147146 4.153813 -3.7661526 -1.5158592 -0.29990506 2.9703305 -6.2398868 -3.7817667 -6.092736 0.25567618 -3.9976902 8.918271 7.9464316 6.648142 -9.339322 -8.213835 8.765427 8.350053 0.26250258
908481 2.429797 0.09327982 -1.5391848 -0.24708535 2.2825367 -3.0950692 4.526077 2.9600313 0.783022 4.2316737 5.116227 7.6156487 -0.25675428 -0.65899885 1.0633794 -5.0148563 2.291032 -2.7093458 0.53827614 0.80823416 -13.248734 13.43766 1.2979231 5.9563413 -3.832786 5.994672 10.491577 3.1363933 9.519118 -8.762686 4.8292603 -5.292993 1.5384622 2.014872 6.733528 -3.110701 7.4679604 -10.004543 6.728364 11.540237 -1.263963 1.4725953 -3.115228 -0.45765412 1.2197169 2.0122721 -4.5006633 5.721394 9.848942 -3.7465403 0.6270705 0.21392907 -4.541677 -5.590942 -3.8995802 -8.070431 -0.22279169 3.5816443 9.038442 -4.9201555 -5.257937 2.2807631 1.034627 2.2118165
1290922 0.4693203 -3.158892 2.7098603 2.0103364 -1.1566284 -6.722495 5.045386 -3.0891016 -1.4252598 -1.4652406 4.888641 3.3692613 -0.7452812 3.0429678 -2.388282 -2.3411758 3.84499 1.8792591 -3.251967 -4.725112 -0.19226335 13.170677 -2.4783027 5.745477 1.5048158 5.038653 9.873055 6.864331 2.6104398 -11.901838 2.372506 4.4915338 -5.87506 -0.71700007 -3.5586424 6.6877637 11.804281 -2.7334936 -2.9604626 -7.544393 3.2126343 6.3960776 -3.7994208 -1.9647375 -0.45852968 3.8025653 5.0323305 -1.7310998 2.7744935 4.1776743 6.7735596 12.843289 -7.24147 -2.5089943 -0.12374394 1.8290123 2.3766289 -0.90093225 9.457065 -6.4222155 -9.841962 2.2723315 -0.62924916 8.081297
753574 9.10491 -2.5475357 -6.133092 -0.54846233 0.1490878 -4.9852233 3.7586646 -0.3801323 -1.3460922 3.5987513 3.994142 0.1353277 2.1373596 -0.5386971 2.9756224 -1.887748 4.4522142 0.9730121 -0.7993359 -1.6765764 3.0560427 1.9868757 0.38416082 -0.20231383 1.8973202 3.1141078 5.0545964 6.010198 6.877081 -12.093414 0.9337732 1.2799616 0.014458975 1.7689232 -7.2795205 4.818748 13.048882 -4.551145 -6.001145 -2.5486474 8.782755 6.532495 -1.2651703 -5.1736255 2.3090796 2.5733786 4.0376725 -0.6510938 -0.95623815 4.851332 9.426886 15.506724 -3.2279296 -2.3546245 -4.3858166 0.004473907 10.95605 0.21864896 7.436172 -14.039069 -13.256848 6.111042 2.2296004 4.139272
909722 8.038279 -2.4330118 -0.9185326 -1.7041265 11.722102 2.9765918 5.1430836 2.7556233 -4.0058784 1.9342707 7.353712 1.73458 5.8303404 6.38655 1.9636968 5.039124 1.9635563 -6.1819363 -1.406621 3.8939922 -0.8196393 8.364567 3.0373757 -5.31349 3.080344 0.015593587 9.448626 5.8391905 1.4676625 -11.254812 5.9016585 4.8805447 -3.1596317 5.76565 -5.55515 2.6388164 8.972603 2.1415913 -6.271017 -7.3121743 9.917054 8.149168 -0.37056842 -5.6326036 1.5967178 2.738432 9.310864 2.1994004 5.1916747 -1.1878922 11.994685 6.821227 -4.3321533 -2.4817247 -7.910291 4.0534396 2.0056665 9.465653 5.669732 -18.304703 -5.4492655 1.5685185 -0.679551 2.7491586
908141 2.7583718 7.1800466 4.571703 8.901023 5.2438707 -7.672086 12.576778 1.6342893 -0.01609806 7.808273 10.2791 -1.2739325 0.5448083 0.3603674 10.060513 2.5040748 1.2139623 -3.896675 -4.470155 4.149061 -0.605152 6.2322664 0.86270183 0.43425533 -6.2776504 2.4487922 8.851978 -0.29751796 4.957454 -10.616259 9.7031 -5.647014 3.2483506 9.417276 0.66610545 6.458592 0.5927368 -6.0085363 5.7932096 8.376299 2.1955712 3.0449102 -6.2109747 -7.407074 -7.6807513 -5.866906 7.2159452 5.0351706 1.2750785 -0.6952063 4.655075 -8.897391 -7.2684393 -6.321044 -2.7462072 -3.5016277 5.3932185 7.4450088 7.5096664 -5.8693852 -7.5605307 2.5514913 10.613364 2.282948
724873 2.541341 -4.0841346 -2.3404422 1.7226032 3.892685 -3.045919 1.9379547 -5.026101 -8.105097 1.5615251 11.023756 7.497478 0.3049262 1.3273221 6.260475 5.9285107 5.571505 -0.96830666 -8.361602 -2.1758797 3.7416482 9.137872 -1.3793013 1.2702377 -0.25571418 2.0775044 7.7859035 3.7922428 6.1728015 -8.628825 5.932817 3.590309 -1.1325673 -4.2256403 -7.3856425 2.3230598 5.1521754 -0.73866063 -4.9287376 -6.3078485 3.2179463 8.239283 -2.6938725 0.020381344 3.6138148 -2.5255008 8.285985 1.6998334 0.22012928 -1.0334064 9.74441 11.371804 -6.0794687 1.2116387 -2.4457054 -3.3880231 5.3713818 -2.9928749 -0.74313116 -9.41113 -15.359097 2.0156364 -3.110761 8.327751
910546 1.1626097 4.0755405 3.8427806 8.302749 1.5324274 -5.8431196 15.40388 1.595723 2.9454403 1.8060853 6.3445773 -2.5671709 -1.5098237 4.144563 4.1060867 7.0735893 2.5060427 1.1998369 -1.4314648 3.5579197 0.5110631 1.0937636 2.772487 0.7274505 -6.7304134 3.8596325 9.370418 2.758362 8.005168 -13.556898 9.832569 -0.4835937 6.226867 8.393996 -3.7024872 10.8327875 4.020773 -6.7540193 -2.2316358 1.9105691 3.8476133 3.4578063 -2.8091302 -4.278928 -0.5095094 -1.7468537 2.5398803 -2.2779148 -0.8665464 0.06405534 10.3225975 -9.89787 -7.557852 -1.2846518 -3.5594482 -0.68083984 7.697758 12.82307 12.702322 -5.749899 -8.772809 7.608127 5.7114987 0.62004185
907786 1.9976387 5.4899316 -2.743512 6.2450876 3.0774045 -8.589497 14.309591 -0.02666028 5.813038 -3.228459 6.463621 -0.6264595 2.8541415 4.5314445 3.1300745 -0.3831078 0.31094304 -3.2313542 -5.2923236 8.996362 -3.034111 4.7975717 2.7017992 4.2224607 -12.47957 5.715858 8.228998 0.5608825 8.543737 -14.440964 8.523223 -2.8808768 1.4799922 4.5247507 -1.8391386 8.774221 2.1668458 -10.975252 -0.73099965 4.3094354 -1.5732843 0.55788493 2.8270743 -6.4339333 -1.1613168 1.625616 3.437655 -3.6010666 -4.969952 -1.881689 6.4348774 -6.0476007 -14.433483 -4.9420953 -0.15883878 0.852363 7.424612 12.814813 7.804882 -3.2910821 -5.422566 6.7096834 3.948026 6.3169055
924187 6.0244956 1.0534372 -0.4409623 -4.9903054 6.4609394 4.736704 4.3427863 3.749143 6.416465 -0.6760288 0.4406067 6.961161 -3.2406776 -1.2624382 -1.0650765 0.9999252 -3.8279893 1.0945545 -3.8643892 2.5515954 -5.1789684 4.6737523 2.4357338 5.728294 -0.06415029 9.954892 -5.385519 15.073141 10.433898 -2.2359438 5.3603816 1.135568 -0.78233624 2.044402 -2.4956143 -3.492978 -9.517724 -11.565191 6.0418344 -2.6512961 -0.65045136 9.104165 -5.9125943 -3.2131684 1.9885583 2.3275745 4.347448 0.1435934 6.4320974 14.1151285 0.26791123 -11.545813 -5.660061 -7.088751 -1.8032641 -11.3296795 1.9592174 -2.765725 8.902278 -8.497159 -4.308176 3.0374827 2.903324 7.683289
1330987 2.2980638 9.301712 3.3494513 9.990355 7.320875 -5.2067504 13.17139 1.9680698 -0.31645757 1.5155122 10.702139 -2.6745453 3.8523874 1.2054381 7.523085 -0.44451004 1.3435463 -5.3223405 -3.6901286 6.837761 -7.1543503 0.7771155 4.9218745 5.0552425 -7.630059 5.107825 12.168434 1.632198 3.1406162 -15.126062 6.040811 -0.15411024 3.5370252 10.390038 -2.0375788 3.7105114 -6.4177847 -7.4710264 2.5891166 6.2762637 -0.23586623 -0.86046344 0.5234616 -5.740932 -0.9907233 -5.383458 3.7662647 -2.9987526 -2.878265 -5.6073174 5.01755 -6.836858 -9.887488 -4.9003286 2.7750618 -4.9547896 6.3203387 7.391635 7.259545 -9.159843 -4.7453084 14.54425 11.022831 0.04284247
910544 2.2764077 6.962926 0.857321 5.5035343 9.485633 -2.3837712 13.704156 0.39555043 1.9252942 6.827842 2.5027688 -3.5677693 4.3762035 0.6209356 3.7733777 3.0354273 3.1577477 -1.4133382 1.1769199 3.3290281 -8.531424 0.35412404 4.7398562 1.3435981 2.3624957 -2.1217022 13.217411 10.339241 9.879228 -11.656439 4.841804 -2.280186 3.3899953 7.393197 4.2601395 4.257583 2.3965716 -2.3367867 -1.1493939 6.946728 5.001647 0.80621034 -3.6079643 -8.141911 -0.23242779 -5.391637 3.1456325 -0.43711185 4.5722537 -5.2518554 4.396534 -3.0339234 -1.3137431 -9.047315 -0.95211965 -2.3484075 1.1032394 7.7401376 16.690512 -15.232395 -1.4257281 13.170039 6.729361 -0.33539274
1298357 6.4664965 -2.7844748 -5.076693 -0.21274818 4.439371 -0.87683165 12.635008 -7.1329803 7.9048567 -1.6969997 7.0716414 -0.033724923 7.541919 -2.687748 9.178425 -3.7291112 14.562319 2.7712395 5.823683 8.235156 -5.8254085 7.180259 4.108794 2.2183096 3.2839746 7.0787354 7.3702574 3.580626 6.065813 -14.173146 1.4845663 6.4465814 1.3347173 12.738586 0.1419973 1.8463225 0.30572385 -1.3652604 -1.7948915 -4.3158283 6.517641 -3.026271 -1.5291798 -6.024693 4.5875454 -1.8962138 1.8055958 4.4866533 -7.072128 7.738632 6.3854027 -3.0410507 1.8445371 -10.136319 -0.6921985 4.157818 10.94783 -4.702464 9.963806 -8.282718 -3.0848143 -0.6478394 5.6578393 -3.9381042
684059 5.608729 7.33281 4.1636496 6.7685556 10.675346 -8.129749 12.888408 -0.76047707 1.374491 3.0785067 11.019453 1.6326405 3.5376565 0.7650667 8.11656 -0.9116394 -3.1432624 -4.4977727 -5.8511887 5.255534 -3.4406412 0.44102693 5.01198 2.3550062 -1.8804879 -1.4247866 10.040577 7.306006 2.407406 -16.01101 4.9394994 -4.240777 -0.2293263 13.746773 -0.8548308 6.9133024 -3.3910298 -3.1110032 0.008109557 5.0253305 5.8999405 0.029019373 -2.637236 -7.7397213 -3.9301312 -7.0877795 8.485388 5.790867 -3.2311435 -3.6985645 2.4967806 -5.633653 -3.7356324 -4.224396 -1.3886514 -2.0769186 1.0925727 5.6163564 15.542733 -11.007906 -4.345501 13.193391 8.936662 -0.6240147
930298 8.563425 0.97018284 -4.1209044 -1.4645944 3.3091614 -1.035511 -2.8145134 -2.5160296 6.039599 3.3372216 2.3872817 10.018737 -2.7339237 1.9046085 2.4887981 -4.836686 1.2370653 -2.3908184 -3.2357848 10.107155 -5.2735305 -3.3194711 -4.758653 3.8589964 9.9570465 14.359774 1.4906807 6.284853 8.99226 -0.068593435 4.3023944 -1.4715437 -0.061685517 2.3539946 -1.078736 0.6428335 0.28331476 -13.375316 6.819266 3.0697396 -1.8895981 6.0701437 -7.9727974 -2.525758 3.4790454 -1.3344758 4.247885 1.2918264 10.312127 15.9145355 0.18096745 -4.4940963 -2.5672178 -0.37752214 -0.36247873 -5.7894077 -6.007867 2.8059838 8.847102 -14.957849 -5.0392327 -1.4343336 0.85374266 5.635079
908457 -5.1894746 5.026474 -0.059879452 1.7307591 -1.8476057 -15.746076 9.269102 0.76866835 -0.25860956 10.792796 15.219874 0.4231707 -1.7332412 -2.0372894 -1.1726781 4.919315 8.577699 -0.42717734 -1.7674398 2.0071948 1.5315927 3.003299 3.009613 1.3516356 -6.071819 3.2244997 7.4779215 3.7080472 1.731741 -12.988988 9.198152 -5.789604 -3.180232 2.7218807 -7.0930796 2.4163885 2.482439 1.9598094 2.3490982 3.463054 3.02525 -0.26741225 1.5359018 -1.7435882 -0.02988505 4.3125114 5.9020004 -1.0360729 0.033274323 3.8258536 5.0369396 -9.254218 -4.805867 -8.661155 -2.3311782 -2.3631861 7.8942637 14.188467 9.040768 -12.779227 -8.900474 -3.2387354 3.2080114 2.577198
1240151 4.14552 -0.55890954 -8.04418 1.2938073 8.29171 -0.26543006 9.673526 -4.5655994 3.8850324 1.2811648 16.084362 1.320539 7.65528 0.40542874 4.049013 -4.830782 11.023096 0.046695653 1.8890514 7.0681643 -9.8024235 12.456241 1.8545045 3.876336 -0.6004166 4.801417 6.4519615 2.490551 10.667577 -13.368286 2.9244292 4.283018 -2.9992414 6.8614225 4.895718 -0.5300543 -1.6388624 -4.545442 6.2540107 -1.6489266 2.0614743 -2.37689 -3.5554187 0.29104573 5.5753202 -2.2347312 -0.5599519 6.681793 2.9448955 1.593781 -0.41666362 -0.27915987 -1.2258086 -7.9706173 1.4857141 -2.144609 8.267993 -2.2999241 8.940657 -5.1080337 -0.53535473 -1.6983061 6.709553 -1.116499
905977 2.3157344 -0.56466717 8.180247 4.469164 -0.3906192 -3.563852 2.5136933 3.2703886 2.3490188 5.935285 0.9647463 5.3911057 3.7663107 0.527134 8.666168 -2.4788063 12.506435 -5.428852 1.3473432 6.1717854 -9.725273 4.997873 4.6655645 1.2602999 -1.5975935 2.9447694 10.408417 -3.113541 5.124084 -10.641042 12.561778 4.838379 5.187096 2.7713804 0.89092714 2.5129523 9.055525 0.56806743 4.157212 12.714748 0.16978331 4.391897 -8.873188 -1.306646 2.3479724 -0.65326476 -1.1111768 6.037102 2.5781648 3.9144487 12.704244 -4.2080164 -5.424105 -4.693771 -6.223598 1.1886493 0.44599757 6.170948 10.573916 -7.132615 -8.575016 -0.22041345 -2.4448004 -4.741652
908445 4.3323894 0.06744918 -9.666967 1.9015712 3.8954744 1.6102417 10.237519 -4.634365 5.200748 -1.9403334 11.003595 -3.9959605 8.104119 -0.5095219 3.4947739 -2.4811 15.172393 4.2752566 3.279303 3.182347 -2.5152915 7.4161987 5.526887 1.5280868 6.8393507 2.8149767 3.2955425 7.8786945 8.446612 -18.601488 4.841777 7.7109323 -4.2764945 2.9766667 1.2899836 -1.6090161 -0.9443351 2.42135 -3.8013039 -4.7015357 -1.0530616 -5.443063 -2.418428 -2.248953 2.1161594 3.014445 1.0354384 0.9573617 -3.220595 1.7908994 4.0415263 10.240738 -1.9402062 -7.44161 4.496153 4.2582216 10.824326 -3.8033457 6.824684 -8.571553 -1.1587753 -2.428467 2.0645187 -0.772205
1331038 0.026232677 9.278632 6.0205703 8.756906 6.861736 -2.3377814 12.171311 1.365534 -5.1420712 1.6561987 12.605073 -3.2429178 -0.50507444 -2.9610996 3.7577193 -0.78252834 -0.42170727 2.528749 -4.9025626 7.3741446 -1.487453 4.3219886 7.4683332 6.716705 -7.5253196 5.9704137 9.150691 6.196503 4.7789044 -11.304967 6.2844934 -1.647532 3.6766539 11.3382 -2.6052625 7.546858 2.9649253 -5.8433313 2.7216103 5.0363464 6.908227 3.7887824 -4.3545203 -8.322413 -3.920352 -8.535333 3.151614 -1.500132 -0.68562865 -0.85913783 5.5943604 -9.629163 -7.171466 -5.3883066 2.7876146 -0.85926676 8.935274 7.474826 6.2745595 -7.5773 -8.838409 8.227638 8.324939 1.1630933
1240179 6.7035346 -1.1788307 -5.2091546 1.1055464 3.3603463 -1.054491 -2.9411697 -0.7441525 2.7312112 5.348271 7.725878 11.871067 0.5088741 0.34511447 -1.7442555 -5.7710733 0.286097 -2.862066 -3.5932248 10.087035 -7.8984413 -2.7018945 -5.107075 5.947118 5.8640075 13.1798725 2.260929 5.7277126 7.671283 0.8593668 2.6637278 -0.42093375 -0.69243467 2.925013 -2.3355017 -0.28583372 -2.0071433 -13.63934 5.9438334 3.6520662 -3.8246064 6.5091133 -6.2748747 1.7547385 9.390518 0.61715704 -0.51667154 1.6482412 11.603084 15.955173 -1.6402032 -5.9594326 0.71603185 1.8672693 -3.2044125 -5.6698337 -3.0707138 0.20825744 7.43417 -13.897389 -5.0901666 -1.3195393 4.061316 8.739381
906855 1.5722952 8.591332 1.0116258 8.923187 9.450024 -2.3456538 9.48381 -0.20135193 0.6423803 4.552722 8.179755 -2.4496448 7.460448 0.4378935 4.5932636 5.6534805 6.5860443 2.5246835 0.8917974 0.61057013 0.059187256 3.7965496 1.954013 -0.35079217 -4.7432914 3.1828165 9.603345 5.0352206 8.967878 -14.560521 4.236932 5.2545156 4.2557616 8.139375 -2.4461093 4.131964 0.29948577 -9.234117 -0.49648222 4.2864914 5.227331 7.8972783 -5.874027 -7.1780562 -5.6971483 -0.7267964 4.703273 -1.8211441 -1.1599087 0.24283479 7.2153397 -2.5387871 -6.1683474 -6.13325 -3.3661427 -3.9245758 11.579501 9.149134 5.973996 -6.5667777 -10.628024 8.148538 5.1774626 5.1313167
749717 3.531211 -3.9626029 -3.177754 -0.54656637 -0.5250271 -7.9671173 3.6871064 -2.6804416 -3.1529791 5.586338 3.3815613 10.841682 4.3814154 -1.4527415 1.4541688 -4.5639057 7.6260514 -1.1489439 -3.638606 2.5408943 -14.414046 8.862336 2.4211166 6.7831683 0.55224407 6.641493 14.489809 -0.590062 10.210631 -6.582516 3.3915153 -1.3577623 3.9365697 -0.037115697 0.43492392 -2.5454946 10.641726 -10.256745 6.3986673 5.2171464 2.1291916 1.667698 -8.071699 -3.8221235 -0.6872363 -1.1477358 1.3067988 3.5797524 1.386414 2.4645019 -3.1202834 0.11701083 -4.341337 -2.3641229 -1.1594576 3.7034652 -0.010175874 1.6076533 4.785183 -4.085132 -10.75919 -1.0943668 -0.68588126 1.5660479
910916 1.6913843 4.562358 -4.5116496 7.280413 -3.8087025 -9.173199 5.6423407 2.5582714 4.8829103 1.3281882 -3.6159196 11.476106 2.654055 -1.8042618 -4.856808 -2.8504736 10.032802 -4.195205 1.2951223 2.5705042 -9.885463 1.4634341 -3.5136435 1.7946919 2.473484 5.02581 11.006742 -1.622444 3.2594194 -11.44096 1.6003608 -0.42191154 3.0449572 4.676772 -2.7420356 6.3735766 5.79836 -4.1817713 -0.6384214 1.0444311 -3.4609175 1.0517143 0.59621555 0.22938444 1.3623487 -3.8269272 2.4952493 -3.8897424 3.6901162 4.788789 9.367899 -5.694751 2.969403 -9.834594 -7.828444 4.29933 -3.5829248 0.567702 15.670125 -13.347811 -3.4128435 6.345471 15.4632435 5.12437
753531 2.3758585 10.3571615 -2.7922032 9.120761 -3.1855638 -12.344753 10.632307 1.4906156 6.590707 -3.02668 -1.7778574 8.912145 2.4190106 -2.899528 -5.804357 -1.6983122 8.466646 -0.23828618 0.4021971 6.5476313 -3.7294664 0.90910286 0.15454501 4.195734 -2.7244365 5.6970944 10.048091 -0.94623065 7.2320657 -8.28998 6.265422 -0.868459 1.7356644 5.27387 -7.1721983 6.8575416 4.5110636 -4.4158545 -0.55713093 -1.4670987 -3.105285 -2.4246562 1.0108305 -0.20986092 -3.9434757 -7.364519 4.5751576 -4.422685 -0.23801997 7.7886972 10.824994 -9.686981 1.0164815 -7.7517624 -4.6439304 4.4012003 2.7207887 7.3890476 16.325401 -11.479554 -5.204493 7.244238 13.002349 5.7797523
908130 9.052255 -0.68404377 0.36190176 -4.2964983 4.946863 2.385893 7.83852 4.515894 6.399214 1.1214917 -3.8875856 4.748945 -1.1862918 -0.45764652 1.1451135 1.9918064 -3.3786807 1.6941913 -3.9395702 1.757546 -7.168952 1.2058125 9.815807 2.496792 1.9299028 6.019244 -5.871939 17.009743 10.98686 -6.128838 5.7617774 2.187471 0.1882724 -2.4895318 -6.2381897 -3.8922236 -13.144182 -6.512146 0.50058246 -2.715266 -3.4093282 7.3885636 -3.1243224 -2.7779722 0.5333805 -1.8632321 6.9480033 -1.0847611 2.48279 10.0046835 3.3643143 -8.276562 -5.443527 -5.465078 -2.762793 -12.702569 1.6105703 -3.5351663 12.434479 -6.3105555 0.80742437 2.5093381 1.4750843 6.9573903
1503368 6.5964427 1.1506025 -0.56817037 2.7150118 2.2805095 -4.7679744 2.6683943 -5.3873777 -3.2324033 4.7819037 12.247816 1.4159542 7.6634707 -2.5506542 5.499123 -5.32461 5.2618394 -1.9459773 -5.454315 3.2908115 3.674604 0.027337726 -2.3316832 2.1689901 0.27179587 4.202449 3.9389665 5.5683737 6.561516 -16.74363 2.4391212 3.1883729 3.0392292 5.1936994 -5.866643 4.912946 5.3905635 -2.9871745 -2.0616183 3.713027 6.7099934 6.0738363 -3.4891734 -6.1526017 0.2599572 -5.48335 7.728216 3.7538042 -3.544082 1.5041497 9.234607 10.89784 -6.497323 -8.147425 0.063968085 3.803 9.932276 -0.28638214 7.968529 -13.528391 -11.086031 7.5252647 4.097545 2.2523813
687561 0.7260093 0.45574674 -0.87241626 0.4497721 1.1496736 1.1888914 1.8646055 -6.392456 -0.17328042 1.5034277 10.678013 9.8765135 -1.5358946 0.96166563 6.5384483 3.6465547 10.248828 3.0445406 -2.1107943 2.493096 -1.4545993 6.888932 1.7995236 -0.07916676 6.256052 -0.3084824 6.6074014 5.965059 11.151051 -15.168177 10.680985 0.3408114 5.698638 -1.5178231 -0.38418606 2.4219708 5.983091 0.34857732 -4.1471524 1.5792112 -3.4598048 3.6640255 -2.600792 0.8399148 -0.20275916 -1.7194889 4.837374 2.589563 3.9032276 -4.669251 9.860901 12.381929 -8.30983 -2.9936461 -0.6265945 -1.2868114 -1.368041 7.6348667 8.105406 -9.124905 -8.025161 4.3241715 -1.9220456 1.0498078
687505 6.7469244 2.8483093 0.3791554 1.3213977 9.550768 -11.261964 6.9801574 -5.3720465 4.7449136 3.0445268 5.200702 5.6708283 -4.469987 -0.25663936 5.9681416 -3.6709232 1.9832416 -0.39955592 -0.64327395 11.288088 -3.817071 -0.0035095343 -0.68695617 4.784006 7.4847493 7.2264643 5.1135325 8.6827755 8.609688 -5.0445786 4.4439654 -2.9217637 1.6245445 7.717667 -1.2776005 7.1497054 -5.0665264 -5.367171 4.637257 2.1002 2.8373215 6.078296 -4.621423 -3.9729311 1.349009 -3.9512482 6.621583 -0.2775749 4.257851 9.530657 3.7345233 -7.367227 0.008664104 -4.280225 -1.0907184 -11.272866 -0.55745274 0.52473253 11.050375 -16.009409 -4.21192 7.1651583 2.2824037 2.6604462
906696 -0.97348446 -1.630152 3.7955558 6.7501364 4.8157015 -3.6785932 5.569309 -2.2043717 3.348925 6.414638 4.820974 2.7165236 1.6495781 6.103642 5.5796757 10.294965 8.340224 -4.5236516 -0.7354476 -0.42086604 -2.9186425 2.4131887 -2.2735524 2.7889466 5.8538246 0.15577102 12.404341 7.257019 4.080647 -16.14511 7.569048 9.65279 -1.5504702 3.9062893 -5.59915 7.891125 1.1123548 4.5356793 -6.9744034 -1.6975706 3.5745945 2.2315686 -1.3832892 0.68593025 -0.512179 3.0875957 7.162645 -2.4690256 -1.2885327 3.2825553 11.913958 4.7359405 -4.5881677 -3.0324864 -6.0280204 -3.9125295 2.2717412 9.434221 14.112024 -12.198265 -6.634603 7.4286523 -0.42302346 1.8351386
1240178 3.8339994 -3.042042 -3.6750636 2.9422092 -1.0396063 -4.5826173 6.9517503 0.73895234 4.282279 1.1868095 6.2110524 13.375819 1.50242 4.175549 5.9624114 -3.7501721 4.731367 -2.5222425 -5.719235 7.040204 -11.492586 5.769043 -0.35016698 7.2451906 -4.4214516 13.9956875 11.538524 -4.646296 11.440687 -5.9874945 7.7456603 1.2966815 3.7569175 4.049098 0.7464531 -0.95408404 5.2886734 -10.470202 4.407556 2.7594974 -3.4996612 -0.72976923 -4.6077666 1.4599137 2.6457574 0.7227098 -2.2846236 2.8119926 1.0154411 1.7428042 1.4809136 -2.2103913 -8.379221 3.0596254 -1.3903421 -4.461432 -0.6029372 9.03996 4.673221 -4.2544975 -7.898608 -3.8114405 -1.1721694 0.11431091
1290905 3.5018528 -6.290512 2.0582058 0.67862403 -0.8266377 -7.2097716 5.5225244 0.57030827 -3.788186 -1.5612284 0.2751395 0.44449496 0.58750105 4.937578 -1.2838477 -6.030963 2.7485058 -1.8643752 -3.5984292 -2.038798 -5.1271563 17.450186 2.0228949 5.62698 3.8467622 1.8533279 12.668211 7.695349 1.0909956 -10.613109 0.4707255 6.7272286 -4.8992333 -1.2689927 -2.385775 6.8401036 9.654305 -6.837783 0.3365415 -6.469198 5.9281564 4.376498 -3.211053 -8.080949 -3.1732025 4.0079436 2.5037239 -2.0379875 0.09719254 5.845147 3.1550443 7.5692706 -6.3817368 0.08950871 -0.09522863 3.8498206 3.082289 -4.1516047 11.017938 -3.8242502 -5.096384 1.8781482 -2.3786707 8.395435
