981 64
1240127 -0.40217465 -2.1808822 0.6869904 -2.1864014 -0.8079778 1.0071878 -9.903321 1.8859005 -1.4312108 -5.9562216 -3.5183816 18.22161 4.2672973 -0.16122748 -1.3310889 -3.6515043 4.2342634 -2.8657591 -0.39771613 -6.3578687 0.24523245 2.838306 -0.17760459 -0.63876694 -7.670978 5.38388 5.976246 9.949958 2.9704456 5.5803156 -1.5279148 -2.3734946 4.832212 -3.636539 2.7270777 2.839936 -0.38543394 1.2285432 -1.9300255 4.1871023 -6.8529015 -10.95397 3.2548919 -6.0718637 -9.432169 1.9168134 -5.9096255 -7.2708535 -3.678987 4.8525777 -3.299547 -4.831021 -4.3514423 -1.0892007 -0.3613982 -6.971517 -4.858555 -6.4247556 0.5066721 3.7815251 -0.2747711 0.71537995 8.030052 3.150528
906871 2.679337 -3.7249517 -0.10457185 -2.821702 -1.8618494 -1.7486448 4.378285 1.3710102 4.9125967 -9.211503 -0.30509892 8.183125 -6.7925954 4.1992717 -0.10112944 -4.0173354 -5.5158834 -5.16035 3.196446 -11.107227 -2.7947013 0.043935657 6.141026 6.420489 -0.7066011 6.574159 -0.74958926 11.592037 -2.5743794 -9.47443 2.8845224 1.7534719 4.86591 6.310126 6.5582366 -4.8874316 -0.7674311 -3.3001125 -3.2947714 -1.0214465 4.672078 3.695927 7.245134 -7.628746 -0.14635971 5.367414 -2.6792665 -5.725449 -6.381313 5.581175 -1.2416261 3.2661412 -6.7854414 1.9957602 1.4644815 -5.617889 2.0994754 -8.516191 -3.4890351 9.966981 1.9498761 1.8254794 4.577343 0.76164514
907794 5.048027 1.1914713 -5.873168 1.388533 -7.661574 4.149351 -6.057413 4.354455 -2.5130584 -3.9461148 -4.8560963 17.425583 0.30939204 3.5260775 -4.6973825 -1.9474461 2.196396 1.0228654 -4.4685817 -4.4703526 -6.046667 2.202105 1.3593488 -1.9910495 3.0380924 1.0037346 0.6054102 11.697573 0.59298533 4.7312155 -2.9646316 -3.745311 4.701109 -1.1859882 5.689668 7.4964247 7.9823785 9.083025 -0.93311894 -3.1960444 2.1703815 -0.037722845 -2.924665 -1.6688356 -7.938521 -2.7246575 -2.7651198 -10.962624 -7.3367615 -2.201935 -1.5281618 -5.1170306 1.122127 4.2421227 4.676689 -4.9357033 -1.9010565 -11.817375 -6.895942 2.0372503 2.278879 1.7523617 4.3132915 0.6713951
1240208 -7.238694 -2.0538356 3.978411 -1.0262542 0.6801293 0.4364908 -0.44386148 2.2231076 1.5854049 -6.4643416 -2.686725 11.877676 -3.9081678 4.9973884 5.1812425 -1.7803255 -2.9585333 -2.31232 -0.041370105 -0.8667123 -0.6836706 -0.040587246 4.739353 -0.19862734 -2.6667905 7.4080625 0.626761 11.619815 2.1606276 -1.983885 -0.68590146 -0.46211198 5.0514607 6.3686066 5.4648232 -3.5121677 -3.509585 -1.6214932 -3.303433 -9.69384 7.683152 -2.442725 8.9512825 -10.484287 0.24518906 13.018913 -6.2315154 -6.297821 -1.8032508 2.3899295 2.4576106 -1.9839138 -2.222634 -1.28882 -0.37446877 -5.2827783 -2.59855 -10.462567 -0.75344527 13.281657 2.518853 -7.015104 -0.3296472 -0.1305923
905958 3.4931293 0.98761225 -3.9425104 -0.7361273 -6.3774824 0.33320233 -4.301786 -2.9354281 -3.5413733 -2.0834594 -2.0102906 13.168033 0.8519211 6.9195404 -1.1888633 -1.4901232 -2.083724 -3.7732134 -3.5003996 -7.4012337 -1.9943032 5.0018334 4.189718 0.5023298 6.735502 2.7554994 1.496333 13.58797 2.6180577 -3.0845299 -0.032357235 -3.4480588 7.060321 -1.7978927 2.0106635 -0.07367132 -1.4125663 5.1740026 -7.7402215 -4.888067 4.3644605 -5.0706725 6.248923 -1.0962989 -3.0254843 2.1031423 -0.25969267 -1.7440983 -2.1205113 -2.6834848 1.4980047 1.2976435 -7.840287 -5.551672 2.4978964 -5.3245378 -2.387096 -7.911044 -10.37582 9.739639 -5.3860965 -3.9921372 3.8142197 -2.9109764
1659823 3.5321808 0.42050043 -1.8379259 2.3521006 -4.2113485 5.2450185 -9.864273 0.51763445 -3.3010657 -5.4232564 -6.208955 19.271133 2.677864 5.3230777 -5.859781 2.957919 1.222097 -3.5790873 -2.8318877 -4.3759923 -5.0613265 3.8645644 -0.5457951 -4.476776 -0.40694976 1.6925203 2.0983655 10.112794 4.671485 8.986025 -4.1563787 -4.635083 2.768657 -0.37641266 3.3604984 9.305794 2.8446953 9.348269 -4.7061815 -2.124913 1.3916781 -4.6649027 -1.4165092 -1.0698252 -5.9664464 0.997736 -5.9578977 -5.036089 -4.8446946 4.591605 4.0850005 -2.994714 1.1350324 -0.80832744 3.591919 -5.83895 -1.3073435 -10.9876995 -2.0695899 3.6061683 3.2468011 1.1687045 7.68668 0.40127924
910781 2.3110893 4.1581154 2.2038672 -0.72694826 -6.4258084 0.29545996 -5.641939 -0.22911122 0.5433543 -7.0898376 -4.2792816 18.786684 1.9450357 0.68013716 -2.8671203 -3.941361 4.5830326 -0.8116313 -0.98155683 -11.3264675 -2.7560945 0.4027527 1.7917466 2.7811484 -7.243371 0.39446267 5.609168 8.721331 5.2942767 2.0197299 1.5475507 -1.2774379 1.7798406 -4.298974 -1.6476793 1.397409 2.2675216 -0.9417547 -1.5978582 7.5358424 -4.9627748 -9.011526 2.7230957 -0.53106236 -7.2972035 -1.3312957 -4.664253 -7.1124663 0.902293 0.99312174 -8.947236 -2.7349718 -3.9893806 1.3689183 -1.624611 -0.34197083 -3.1820254 -4.9063535 -0.8529458 3.5650852 -4.037295 3.4772155 4.7747507 5.4762444
907051 -1.3360527 -1.0171102 -0.7569684 -2.3873515 -3.3457835 0.1848742 -8.849423 1.0807792 -0.22420624 -3.1345863 1.5227449 14.769119 1.557925 -1.2792469 -1.3204792 -4.0593762 9.861565 -0.087254636 -1.6716424 -6.5113177 -0.6238143 0.7518217 3.5629933 1.7090045 -6.006005 1.4854895 7.7006345 12.329496 7.2905636 3.9699879 -2.4074628 0.59020215 5.0524983 -6.365621 -0.60723305 0.4556868 -2.1387036 0.0011761818 -2.2001169 7.8704286 -6.369679 -9.357567 3.1813383 -2.3101954 -8.287331 0.6269161 -4.6263895 -3.5857768 1.4171138 3.5084803 -5.807522 -2.9235198 -5.6160784 1.3349106 1.6456028 -0.030775318 -2.800762 -2.7928438 -0.14001194 2.6801941 -4.0268154 -0.30010945 4.2943754 4.956865
906800 8.81645 2.3835685 0.0010967745 -2.0853438 -4.3492765 3.295767 0.9646485 -1.8871356 -2.0073035 -7.206687 0.53061295 9.455118 0.7707731 5.246339 0.52531713 0.70818096 -4.5514374 0.7183047 -0.5566789 -11.510224 0.5178353 6.398412 5.3206053 4.9971604 6.8683987 1.4253123 -2.862591 7.6845303 -0.6731202 -8.27748 2.9093246 -4.1093016 5.5189023 -6.3719215 0.50014204 -0.5901922 2.575609 6.539486 -5.124535 -5.7298145 3.30244 -1.3001721 2.2148368 3.0595005 -1.5634199 -2.6248875 3.7915206 -1.8359663 -0.32111093 -6.722492 -2.6166105 4.064947 -10.454217 -0.78047895 5.223641 -3.0122657 1.858834 -6.6728806 -10.497152 9.5820055 -7.3262672 0.40638104 1.9952706 -4.4080396
908129 2.4034486 2.2952123 -1.3483768 -0.5001222 -0.31954756 1.9327111 -6.7933197 -1.7696604 1.666565 -7.8884096 -0.30126292 18.70926 0.2780004 1.6714933 -2.5558016 -3.8653913 0.059855647 -3.2368722 -0.026484422 -11.473915 1.0194745 3.1410313 -0.56386054 2.894594 -6.265205 2.083698 2.9668982 6.360104 3.373473 4.1545267 -0.26775375 -1.2688925 3.2630439 -3.6299837 -2.3625312 0.16517268 0.018680736 -2.1538112 -4.5838556 7.79707 -5.497972 -11.924768 4.510707 -1.7311895 -6.5331774 -0.019530036 -9.060593 -3.272004 0.4644808 4.827013 -8.187226 0.29935282 -3.5383704 -0.58106196 -3.773636 0.0361259 -3.6318893 -3.3450317 0.47932264 6.5278816 -5.022095 0.3707485 4.606534 6.293439
687815 -4.523301 -0.20813246 4.574967 -1.0323128 1.722075 2.0485137 -1.631477 -0.16787697 -0.9563192 -2.934695 0.7494418 11.393265 -3.8481019 0.94166857 3.7553015 -1.4514228 -1.6197696 -4.067643 -2.4548473 -2.8964446 -0.72633654 2.1192064 5.0473833 -1.3564533 -2.533933 7.1999183 2.376118 10.854998 -0.24636765 0.5150934 -2.269806 -0.36728907 4.9547806 7.3879957 4.2101617 -6.689188 -3.0307577 -1.6106336 0.0054308954 -10.821113 5.05187 -4.647265 7.0757294 -9.815938 -1.3457446 12.294055 -7.664156 -6.471047 -3.4310577 2.9198213 2.5356884 0.9781509 -2.7201192 -0.31072035 3.1061125 -5.0915904 -3.9380631 -10.824273 1.3340524 12.938247 2.638529 -5.833969 -1.7812351 1.3421924
907042 5.5774593 -4.145841 0.9761664 -0.17525452 -2.560033 -1.8769965 6.4557543 -2.7596462 7.236259 -1.740042 -0.73949176 6.098503 -6.652579 3.9835398 -6.194823 -8.655534 -3.2660596 -3.4370174 -0.47597346 -10.520653 -3.6107883 -0.5179656 5.8369784 4.7958355 4.2136626 3.9932907 4.7067714 8.425338 0.4989162 -10.807656 3.8876522 0.51688325 3.127923 6.682078 7.802254 -4.158759 -0.9150644 -2.3248754 -2.168439 3.3134906 2.769267 5.964349 7.2093835 -1.6003397 -5.293418 -3.7171068 -0.12068677 -2.5440056 -0.69782376 5.299205 -6.1346855 0.30770153 -2.248684 4.2661333 0.48028487 -0.76511425 3.5643692 -8.079316 -7.622138 7.3811016 -0.5184815 0.83479726 6.6571283 1.4610957
907272 4.404902 -4.545394 -5.7046213 -4.6623917 -2.6894398 6.1545563 -0.70740664 0.5123734 -5.7647905 -7.1289806 0.014526174 13.918774 3.7502992 4.6823816 -1.6881475 2.2827177 -0.7989575 -1.2134187 -5.030476 -8.431415 -2.991327 8.695345 3.6027145 2.3925526 8.344416 2.3071773 -0.9778441 8.076864 2.1592112 -1.6036041 2.2533605 -2.558692 8.5809965 -2.4927979 -1.0233445 1.3751472 0.6410862 4.8225555 -6.6967 -4.591416 1.2055771 -2.5642166 2.7522182 -0.9704322 -5.674109 -2.1150172 2.5258949 -0.94246435 -2.2264698 -1.804716 0.34902123 5.7582016 -11.080429 -3.960776 0.7327103 -2.0367653 0.21108122 -4.32908 -9.908775 8.704043 -3.3502622 -3.6924758 3.1607897 -2.3243482
909737 -5.3654175 0.18621972 8.22139 -0.87784135 2.9381485 0.01784341 0.17633368 -1.1101657 -1.9569625 -4.9017415 0.15753233 12.146772 -4.040618 5.5447145 0.8151612 0.5533921 -2.8684142 -1.4732035 -1.3978572 -1.6965513 3.1411304 1.9229199 4.264638 -3.0059083 -2.6860461 5.361644 0.9804966 11.346377 3.6660657 1.1894873 2.4309435 -0.7214127 4.5833645 3.3849468 3.2571445 -4.624674 -3.9808903 -3.308154 -1.0271244 -11.17754 8.183474 -4.465478 4.648951 -8.048443 -0.79253626 14.255891 -2.2237067 -4.3735266 -2.0869424 0.9692303 0.71082747 -2.890925 -3.8535354 -2.2243721 1.7207252 -5.387743 -1.7731199 -13.505891 1.3105974 13.750944 0.49909204 -4.010509 1.3134149 -0.6746931
1298362 -5.1130657 2.088996 6.048659 -2.5927436 1.3544768 -0.40706775 -3.1027212 0.5373141 1.5597427 4.896643 7.2387934 13.573007 -6.5054445 1.7614856 -2.2661185 -5.9023123 -1.7948836 -5.658519 -9.867344 -5.137619 -2.16339 -0.41673696 0.26603726 2.6394951 0.6307495 5.9013457 0.8080763 5.023352 3.2758424 -1.8519821 -0.69551444 -4.9975796 -0.023155035 11.388162 10.571114 -2.0305655 -5.1084714 -0.0041054124 -0.18354636 -5.6344957 8.660563 -8.28868 7.296282 0.71739703 -1.4438964 6.5083127 0.32540697 -2.959716 -2.2849295 -2.841263 -5.700721 1.2487727 -1.3238347 2.699757 2.9228632 -7.0748305 -6.3358393 -9.390677 6.888151 10.937808 3.2962177 -4.018452 -3.348283 2.8236976
909735 1.7473954 3.8721266 2.2636647 -1.3562192 -4.2252164 0.81463474 -3.4057128 -0.91422707 0.65440935 -4.3112245 -1.3534529 15.788931 2.6381269 -0.060152784 -2.174375 -3.5744772 5.0393157 1.252434 -0.8284269 -11.15212 2.451496 0.86625725 2.445795 3.0045214 -3.669712 2.541795 4.2313123 11.058144 3.8409271 -0.168112 3.132515 -1.0789814 2.0968974 -4.764545 -2.01473 0.6790464 2.920629 3.7891388 -4.211205 6.7238817 -4.3908343 -11.553056 4.5534186 0.26560026 -7.811245 -2.8051467 -3.9297516 -6.131152 -1.0468949 -3.065977 -7.093799 -1.7574008 -8.954521 0.024373723 0.57378674 -0.9933999 -1.7508311 -5.9944506 -3.7154338 6.249619 -6.4870024 3.4774356 7.4379864 6.9037185
910944 5.9628997 -0.98827606 -1.5886477 -1.3213571 -3.2605257 4.502841 1.6376319 0.29161403 -3.7066364 -6.824057 2.7493289 11.696262 0.21916689 4.9471536 1.0999459 -0.8342902 -1.3133699 2.130635 -4.1338863 -11.022903 -1.0894856 8.171425 3.2430627 2.7146301 9.924032 -2.2737293 -2.9967787 7.9694676 -1.231369 -6.699298 3.42226 -3.6099892 3.8190937 -4.702349 1.125693 -1.3650428 2.2636478 7.5466223 -4.087768 -4.3932247 3.2742434 -2.4996295 2.727888 0.18165572 -2.0038211 -4.092202 3.3830473 -1.4399171 -0.97460306 -5.393917 -2.192798 5.770053 -10.667835 -2.0543504 1.1542517 -3.273916 2.1979444 -5.7167606 -9.725978 10.780494 -7.299484 -2.558183 0.7896987 -0.44196665
1331036 6.320024 0.27811283 1.1049434 -3.1824865 -3.3505101 3.175985 3.4896383 -0.4579535 -2.6117756 -1.292465 0.4382839 12.710471 0.58512884 5.0356617 -0.84386325 -1.87191 -3.1317923 1.8890013 -4.693636 -11.378309 -0.11628935 5.216469 2.6464133 1.9510987 8.360074 2.1122293 0.7879726 11.045136 1.4113066 -7.445085 4.5663853 -2.5916831 5.4009213 -4.739055 1.1583881 -2.0191927 0.9472364 5.1848407 -5.166335 -3.7831779 0.9497738 -3.9223616 5.6557198 1.5933336 -3.3521574 -2.964409 2.8209875 -1.2947063 0.22829653 -6.420401 -1.1763543 5.786961 -10.459498 -5.8003783 0.48623502 -1.8379589 2.3417816 -4.9779 -10.206633 9.573625 -7.993124 -0.7384317 0.46190268 0.6927461
1295740 7.179599 3.1844113 -1.4138442 -0.9798293 -0.9216044 6.472701 2.3513484 -1.0820898 -5.406826 -6.932899 2.410427 12.608149 -1.3010137 3.9861498 1.810948 1.1376635 -4.72383 0.8533075 -3.8246307 -11.393144 -3.484952 7.87108 5.13227 3.7814572 7.0474586 -2.241539 -3.1002016 7.845562 -2.9234731 -5.0011606 3.6560774 -2.025008 4.692037 -6.2954397 1.0575502 -0.86071414 3.0171063 4.695968 -4.1513925 -4.562798 1.5714728 -3.138789 -0.022948906 0.063250214 -0.5538376 -3.4004588 1.2187042 -1.873424 -2.1630278 -2.7091613 -0.93777174 7.335405 -9.17583 -1.8862872 4.1265736 -4.590215 0.7848918 -6.0985055 -11.165533 9.820856 -5.108245 -1.8078041 1.4217557 -1.4362675
1323913 7.307182 1.284726 -3.7692761 -3.7948895 -2.1639128 7.586033 2.0888417 -1.912011 0.3451193 -4.375407 6.542595 11.606768 -0.42483178 4.126777 1.4522873 4.548365 -4.548692 3.4513166 -4.050097 -11.468314 1.7587316 5.8173857 3.2962706 -1.5537531 5.6696386 3.9169118 -1.3850896 7.7367415 -0.09599237 -5.7472878 3.9485404 -2.8392012 6.392316 -3.5327852 1.4563805 -3.3621662 4.1035 5.4261 -3.8504198 -3.4265423 6.297979 -1.7632796 0.35043487 3.1906812 0.7284435 -1.5610323 0.83864313 -3.646382 -3.4826999 -3.6988792 -3.7732615 4.8020425 -9.8615055 -1.063218 5.6630983 -0.008239375 1.3027859 -6.776819 -12.389779 8.677636 -3.5768373 -0.33458087 -0.31172106 -0.98273516
908122 -2.606992 0.48594788 3.3654842 -1.3704634 -1.131475 3.9670556 -3.6631935 -0.3943628 -1.6059057 -2.4543312 1.0239545 10.526562 -2.6505156 4.466426 5.230036 -2.9846337 -2.0230005 -3.353857 -4.7902455 -6.548115 1.9171482 5.000015 -5.1294656 4.2600455 0.5710842 7.7869587 -0.95511717 11.352659 4.0422893 1.3188173 1.3684264 -6.7639318 6.4800367 3.3238056 1.155888 -0.26177013 0.7287289 2.921517 2.3659666 -9.10314 0.98058367 0.350506 10.615387 -10.820572 2.3833637 11.557537 -0.88809055 -7.8336334 -3.3972366 -0.26240668 7.466153 1.1565773 -6.9285455 -5.6319056 -0.33425322 -2.973273 -0.9334433 -5.8106055 1.824883 13.0381 2.1535695 -5.988545 2.5989597 -0.19147584
908156 9.012117 2.996003 0.53946143 -1.721823 -2.8913517 3.214099 2.8657382 -2.0951312 -1.9174513 -5.622665 1.719469 8.835896 -0.33997622 4.255712 0.0782951 0.5298936 -3.4511895 3.2003365 -0.48668125 -11.951101 1.7709286 7.5001044 4.025245 4.1409216 6.4380193 1.3347096 -0.45472056 7.7228336 -1.0202451 -9.147492 4.710845 -4.791917 3.8323288 -5.047297 0.33958516 -1.9171829 3.4224792 6.8992 -5.1921635 -4.60586 4.5860605 -3.11804 2.889989 2.9373357 -1.0100241 -2.6627305 3.6453485 -1.9876156 -0.3910602 -7.1998873 -1.96752 4.211725 -10.9242325 -0.77947575 5.7732887 -2.7097147 2.7680447 -9.014153 -9.772992 9.183337 -6.9224834 0.13797826 2.042238 -2.4685335
1240123 1.7288707 3.1412377 -2.3224123 -0.23467892 -2.8288808 1.6476772 -8.129678 3.9067016 -3.8387077 -3.3640592 -5.578801 15.94748 -0.17537995 5.6585503 -7.279043 0.7956448 2.9845562 -0.039474837 -4.1948543 -2.995234 -1.8912963 4.031538 -4.4076586 -2.1337526 4.0805473 6.8450217 0.51348734 11.821553 2.2204883 7.0456376 -1.1876968 -7.0367236 2.1714408 0.15306892 2.7220602 8.7678385 6.1956754 10.80653 -4.107017 -7.9602666 3.371789 -1.7288226 0.6705571 2.0023367 -4.7431808 -2.0410385 -3.7614126 -8.297944 -5.4702253 -5.7452593 -3.8066528 -3.8849456 0.869131 -2.0154514 5.2787423 -6.122303 -5.8519697 -7.7682686 -0.8601305 3.3601155 2.9147513 0.93720055 6.3930516 0.43175223
906856 6.35759 3.6804821 1.4264432 -1.7985674 -1.8473563 4.6219673 2.5591273 -2.1648855 -2.8496926 -5.8681498 0.21958834 12.536308 1.2817222 7.621325 -0.31406128 1.8749455 -6.6930113 1.3229809 -0.26931044 -7.3151717 0.537523 5.669386 4.0995035 2.9508014 7.0576515 2.6987906 -1.9886187 6.653959 2.6246746 -9.1782875 3.8067496 -1.067792 3.9491074 -4.014248 -0.44572124 -1.0652196 0.85239035 5.214154 -6.592283 -6.3578954 6.064114 -1.2236835 2.2635086 1.652693 1.5394542 -2.8403049 2.26104 1.5898006 -0.6498768 -5.1800585 -5.1863933 4.0060077 -9.21167 1.6910801 5.7004232 -3.510447 1.2888798 -9.036815 -11.111177 8.927217 -5.9878545 -2.531266 2.18179 -3.2529857
909750 -5.7300596 -1.9057218 4.195052 0.7999233 2.9533045 -1.2660251 1.6330231 -2.2143269 3.9946704 -4.128382 -1.7467833 8.82473 -8.526639 6.6033783 3.3330302 -8.133811 -2.4559314 -4.649122 -1.1176264 -4.956921 -1.7710171 -2.3233204 4.40499 0.60865974 -0.06922101 7.4412766 1.2124598 13.724839 -0.48138183 -3.0747757 1.724405 -0.7010547 6.338235 9.702431 5.2776375 -4.320936 -3.5062468 -1.4233893 -0.23606332 -3.0374146 6.377691 2.3709986 8.418949 -7.4545755 -1.0875403 9.462379 -2.2597861 -6.3253555 0.06889699 8.755697 -0.8069437 -1.29981 1.0459636 -0.39747304 1.837474 -1.3894022 0.40111476 -10.832056 -0.011114512 12.830022 2.0242188 -3.707765 3.2325313 -1.3381617
906763 3.4308732 -0.18788236 -3.9899018 -3.3888233 -3.4238088 2.8756907 -0.5170976 -0.3191787 -5.314289 -3.6971798 1.6305531 12.415964 1.6989517 7.7027225 1.9688836 -0.790187 -1.5541415 -0.27402717 -3.3178701 -10.978455 -2.9703407 7.691572 4.7356586 2.0335374 8.720295 -1.6291367 -1.6058018 9.816819 1.3715589 -5.1558194 0.27157634 -1.9757358 2.9343421 -2.5178301 0.28938305 -0.73970133 -1.6691566 5.346087 -6.7130394 -3.072366 2.171697 -2.7205248 -0.17814153 -3.8294854 -2.6799943 -2.3432775 0.9316093 -2.2255642 0.9132958 -3.8533213 -4.099914 4.732976 -11.850885 -2.3056424 1.4407451 -2.543377 1.4408762 -4.163658 -9.375452 10.549853 -6.064796 -4.6297293 0.029071417 -2.4663453
909256 0.35938966 0.796925 6.573676 -3.6478052 -0.80738753 5.0507827 -0.7700868 -3.2389128 -4.253472 -5.5596223 3.548415 8.7264185 -4.7987437 3.8497622 1.4462554 -1.1571466 -3.430356 -3.6864042 -1.8084726 -10.296601 -3.424733 7.742747 0.41454336 4.1480656 1.8190457 3.4666712 0.49478784 11.5730915 3.1964004 -2.4001777 6.108016 -1.8794235 5.179561 -0.48225924 -0.9255749 -3.0777338 1.6759596 8.32244 2.6092503 -6.0216646 -0.86087745 0.6256058 9.655351 -4.522401 -2.6621904 5.4817452 2.0330145 -6.362093 -5.14257 -2.6702316 6.221665 4.129424 -9.335842 -0.96500796 5.64625 -5.723879 1.0466118 -6.851686 -1.3244774 12.570597 -2.957849 -3.0279734 4.4665427 2.6314611
908139 -5.389172 -4.7300262 1.2423414 2.676971 -2.6183696 1.6197672 -4.4818244 -6.953354 2.2995296 -5.1314883 -0.2037296 8.495077 0.81533635 11.046397 0.47988042 -6.465845 0.65566766 -0.7843427 -4.5329323 -2.8008168 -0.3590206 -1.9615633 3.7201066 1.1047288 -4.456003 2.43287 4.575136 6.257675 12.2632265 -0.66309655 5.615021 -0.20391428 2.6222801 1.0368813 3.3942442 6.656908 2.749949 2.8200188 -2.349321 -4.152555 7.1795735 -1.9606909 4.5014844 -1.2984641 3.081389 5.272917 -3.554523 -2.4815586 -4.285614 6.0053816 0.7152423 4.2382708 -3.4002457 9.986654 0.88812995 -11.932293 -5.554817 -8.811997 2.0310552 11.036019 -3.772941 -6.066588 -0.06111405 2.4370658
907062 -1.5992602 2.173393 6.1216564 -0.20538671 -0.823096 0.048361696 -3.7316053 2.1084213 -0.019855976 6.7954745 9.101988 13.19977 -7.0005407 2.9980328 -4.6596212 -4.0862727 -1.8853389 -4.169412 -10.586933 -7.7623253 -4.2927117 2.810155 1.7521316 5.023369 1.6817541 5.4859886 1.3269079 6.3098373 3.31741 -8.396204 -2.8055565 -5.2272544 -2.9498127 8.186416 10.748673 -1.2099897 -3.5388274 2.6590486 -1.9783628 -1.2328875 5.845332 -4.4846926 7.131325 -0.24319534 -0.078489564 1.2928092 -0.6391408 -3.5408387 -1.7634366 -4.4579716 -6.293406 3.5973437 -5.260023 2.414267 -0.842277 -5.4364433 -5.1248255 -8.542327 2.8425512 10.249535 0.51402724 -1.1149385 -2.9812164 6.8802724
909702 4.59122 -2.7416563 -2.4444597 -4.6730175 -2.2644055 3.813108 -1.1497694 -0.34316173 -5.9797463 -4.392923 1.8241237 14.084811 1.3620158 5.760024 -2.0491924 -0.08868496 -2.258722 -0.83143747 -4.774003 -10.577624 -1.8897729 5.777893 2.4019241 1.5160834 9.21384 0.92652416 -2.4880095 10.699549 1.9851869 -2.3446844 2.6999342 -1.2723708 8.556898 -4.3641367 -2.3002877 -0.31205374 4.0085845 4.753229 -4.5661483 -3.5407538 0.3779768 -2.3482533 2.109357 1.3155178 -4.8696823 -2.3487294 3.27148 -1.2371473 -3.033123 -3.4992414 -3.1982875 7.921272 -11.039969 -5.3313646 1.7847487 -0.82385474 0.28924766 -3.5269632 -8.21138 9.624057 -4.6390114 -4.0797534 1.0515641 -0.5614243
910706 6.9655995 4.4527307 -2.891315 -1.6075934 -2.5946312 2.5927181 1.3427037 -2.5289333 -1.8287934 -6.1238666 0.8407422 10.202201 2.0073545 6.2160783 -0.48816958 -2.8018544 -5.356224 0.45322803 1.9699569 -11.966535 0.24132404 7.0317364 4.765592 0.9865946 7.068633 2.536849 -2.2781777 12.23829 -0.6832932 -4.184682 3.4999566 -3.469567 5.9242687 -5.327944 -0.88736194 0.33442935 2.274481 4.3001175 -2.8147402 -5.4725413 1.6430771 -1.297779 0.7400846 2.1945262 -0.26471022 1.2027061 2.3486347 -3.3866813 -2.746218 -2.3696833 -2.253489 2.770231 -12.69891 -3.8848362 3.5341895 -6.405979 3.8956916 -8.246392 -7.3784766 10.53067 -4.5776744 1.2694017 2.8136683 -2.670089
907055 1.1740661 -0.3813563 2.0885427 3.040753 -4.305665 4.7607884 -1.8144159 -7.7094507 0.4524333 -3.9774077 1.0110433 8.471658 0.2292404 10.329615 -1.2018486 -6.8100276 0.97084737 0.2325081 -2.2281618 -9.687065 1.5328504 3.4728866 1.7729204 3.399538 0.79786724 4.9990964 6.1961303 7.7691503 10.049914 -6.3760324 8.119299 -4.1739435 1.4605703 -3.836426 -1.7944872 3.1148102 6.172712 7.6452074 -3.1571362 -1.518195 0.6976349 -3.027269 7.4219337 -0.6876017 1.9596696 -2.617477 2.130435 -2.0033917 -3.6804302 -0.3523983 -0.88354295 4.561739 -6.070984 5.389666 1.9679551 -7.400107 -2.8174539 -9.932153 -3.8357012 11.364907 -7.991439 -0.65983623 2.536874 7.2569313
1331037 7.02967 1.474187 -1.3429257 -1.3269453 -1.9734036 1.3194137 1.4313438 -0.48037615 -4.2419796 -6.6311135 1.442491 10.698131 -1.2095419 7.1328416 -0.5638127 -0.92179084 -4.704264 1.3354238 -2.948539 -13.986049 -0.10472048 5.876473 4.292395 4.3860226 6.881181 0.1389884 -4.2263293 8.698246 0.22138864 -5.4651976 5.4695287 -2.891891 5.9693165 -5.6580057 0.2866932 0.14190046 2.8033752 6.3470597 -5.4350343 -3.902977 2.4467025 -1.6521779 0.41372138 -0.10691427 -1.9521528 -1.6657966 4.842376 -1.0613762 0.03902429 -3.404825 -3.035146 4.4363446 -10.8018265 -3.7398036 4.340316 -4.274471 3.053387 -4.3097296 -7.5024614 10.042845 -5.9785953 0.784618 2.273442 -4.464516
1297446 5.0209203 -1.0247575 0.683365 -5.3137507 -5.217379 7.150786 3.2322655 1.5359092 -6.1602163 -1.5207937 2.1085305 14.434604 3.8408673 4.7193933 -2.6166391 -2.6106434 -1.7394812 -0.84992737 -8.183936 -8.802779 -5.5587635 4.2241087 0.7196484 -0.72890484 7.211288 -1.4875385 -2.283178 11.107276 0.10169792 -3.0316527 1.9041939 -0.7583948 6.5771637 -4.789218 1.3064828 -0.1964021 -0.20602103 6.086712 -4.2850285 -2.627831 -0.8178349 -1.3865856 0.5893511 -1.8701035 -3.3627298 -1.4282337 -0.28062972 -1.835989 -4.426991 -1.1900525 -2.638657 3.1431868 -8.6302595 -6.296581 -1.3159512 -6.294238 1.4102924 -3.4349189 -11.761577 8.497722 -3.1259625 1.2963098 2.6389346 0.44891343
1240174 -0.30556443 0.14787014 1.8339002 -0.45693612 -5.4412074 3.6291156 -7.3068366 0.27822176 0.9093739 -6.109151 -2.7937195 17.31307 2.883319 2.434197 -3.2233138 -2.3845487 5.5621834 1.280071 -2.604452 -8.613043 0.23910852 2.4518943 -0.3537699 0.11235298 -8.215055 2.5521245 5.8016477 8.052671 4.889619 4.3072705 -0.60250086 0.09098355 2.6672463 -4.942667 -2.1299927 1.4691842 0.22319682 2.6885726 -2.841364 5.1096654 -4.2125225 -10.306037 2.82385 0.62794256 -9.87571 -0.2075884 -7.096678 -4.969106 -2.399003 1.3915428 -7.468632 -2.7710934 -3.2830365 0.6513674 0.6268404 -1.8358332 -2.3295038 -5.9304943 2.6054707 1.6392388 -2.182591 1.7282218 6.1204376 3.0921707
753548 6.9685836 1.1378875 -1.113691 -3.2606544 -3.5676296 4.990006 -1.9707273 0.32044497 -2.538669 -6.726673 0.8260502 13.314846 1.7181399 5.725277 -1.3431637 0.9727103 -2.999808 3.677994 0.8106325 -8.941934 -1.0043353 9.201175 3.9260507 2.7180698 2.9586325 2.769329 -2.062814 6.7361984 0.97799945 -1.4707638 2.7332928 -6.1393414 6.504274 -4.7435384 0.44353184 2.0644004 4.343413 7.679243 -7.3197966 -3.8829541 0.9918848 -2.5541258 0.54667217 1.4709556 -3.5076103 0.8019117 0.71369165 -1.0868374 -0.94825536 -2.3568864 -2.2289248 3.6679637 -9.848434 -1.9832702 6.9355965 -3.4806545 3.968252 -7.1177235 -7.9982495 8.452701 -0.42764908 -1.6922139 5.036935 -3.258504
905984 10.246891 -2.904265 -0.5642553 3.8469455 -1.9812533 -3.8466046 5.012219 -1.4234384 2.4139826 -6.024957 -4.1997113 9.485704 -8.82095 4.452066 -6.9173546 -4.847825 -7.023099 -5.762776 0.18061744 -11.202598 -5.907899 3.6654413 6.345936 6.2634425 2.8924716 3.5377603 3.4412043 6.608385 -3.0161934 -8.590256 2.190694 -0.4150319 3.0470154 1.860332 6.6686797 -4.2655344 -1.062384 0.4061691 -2.915229 4.9898515 1.9269538 3.9072397 4.567773 -0.50228333 -6.083525 -1.3725544 -0.047281165 -2.1013713 -4.075124 4.189457 -3.6542308 4.8186374 -2.4473348 4.849906 -1.7327797 -4.3727903 0.5241006 -4.962732 -7.2288837 4.996103 2.2890015 3.9646397 7.2851963 0.33412486
909715 7.958748 3.0597386 0.48101082 -5.1880283 -0.2526915 6.0148153 1.914457 -2.6508849 -3.1423116 -4.355823 5.9533734 11.485804 0.25095615 3.694646 -0.22451335 1.0769944 -5.3630977 3.6958015 -1.9988886 -15.835541 0.7820024 5.4337254 3.0157223 2.162857 3.9849296 0.097939424 -2.7981398 7.7755475 -0.27895203 -4.2593546 4.8944407 -4.169035 7.727329 -5.6473546 2.4062054 -0.6187349 6.8443913 4.1653433 0.44046983 -2.164791 3.6752205 0.2484805 -2.3186324 4.278632 0.95636773 1.53528 2.5318208 -6.0175953 -8.095323 -2.7279503 -1.2405267 3.641843 -8.731296 -4.0834317 4.475868 -2.412142 1.3275495 -6.8401065 -9.12533 9.185323 -1.1079179 1.8041264 2.258703 -3.6362085
1240204 1.0438424 0.50758 6.835343 0.9487286 -0.07799642 0.003258732 -1.4380322 0.555305 -1.582962 2.3022459 3.5481508 15.847626 -4.106665 2.0195842 -5.3921075 -4.3455873 -1.6891671 -6.9555206 -8.9473295 -5.1951647 -3.341718 3.877338 0.5554943 5.826751 1.2402545 3.9874432 2.6072483 5.919517 2.1087396 -5.3702207 -0.9519056 -6.630267 -1.9228607 7.1218457 8.8477125 -3.6786134 -3.1390438 5.367285 -1.4740056 -3.4687643 4.293382 -9.615722 8.4315195 -1.7197281 -2.7505424 3.0212514 -1.4882104 -2.110044 -3.8687663 -3.7231739 -1.0337214 5.9868503 -2.5826528 4.591157 0.15340245 -7.2401147 -6.238986 -6.930141 2.6871567 12.232004 2.5462236 1.1030291 -3.5948603 3.6783893
908443 -1.2252098 -0.9497802 4.2374544 -4.901528 0.59927815 5.540507 2.127314 1.8158158 -3.787191 -6.7918324 2.4914649 17.810131 -0.43773782 1.2872896 2.5565698 -1.8611063 -2.8997078 -2.4361823 -2.4769137 -7.7443943 1.0112324 2.328501 4.266701 -0.4202436 -2.5060291 4.5999184 -5.274792 7.668293 2.0776136 0.6446012 0.4167854 -0.5965014 6.452059 1.769829 3.1888893 -4.5559 -1.4957377 1.4199417 0.23207405 -10.668082 1.7719225 -6.151339 3.6448789 -4.566324 -1.9349964 8.734901 -4.3091545 -5.297527 -0.8271509 1.5945503 1.6691177 4.411499 -3.751648 -4.392259 2.6917505 -2.0512767 -2.5663846 -9.115965 -4.7169175 13.095586 1.4179877 -5.370648 -3.274194 1.8495066
908442 -6.860158 0.20660912 -0.24146873 4.1747646 -1.0169108 2.4807215 -5.4839554 0.2609229 1.1890017 -1.5390505 1.7926986 13.3271055 -5.7951736 6.303754 0.030043509 1.9397763 0.47988626 1.3080739 -5.198979 -0.68458414 -2.1956367 0.6164105 1.9361411 -4.9277096 0.98709947 3.9166179 -0.69572765 14.043448 2.64518 4.2845945 -2.7438016 -4.641281 2.7712984 3.8215342 8.623246 5.281317 -0.57339627 9.170658 -2.1284864 -6.7069592 13.569328 -1.2322574 3.1273882 -5.591513 -1.403042 6.4219513 -2.4741588 -7.5087266 -3.0232599 -0.6410714 -0.48859233 -3.9623866 1.6470321 3.0088122 3.572185 -3.503778 -3.7515504 -14.138262 -0.6037277 6.9633875 2.543216 -5.385626 1.9472139 2.0973651
949154 -3.308949 3.9196064 3.05706 0.57063925 -1.2604843 -2.512179 -5.2402134 0.19482024 4.044894 -6.5185595 -1.0541097 15.50306 -5.8709526 0.17741494 1.1144332 -2.1582544 -4.748695 -2.6852148 -8.371929 -5.347351 -0.63577217 -0.46757236 -3.408373 4.5849166 -3.217313 6.406326 -0.25837484 8.739744 -2.4028792 2.2345057 1.8529927 -5.566614 1.127165 5.291411 0.85398704 -0.99763024 1.1772358 -4.9136796 -5.190276 -2.7442896 5.1975365 -5.3560133 6.848228 -2.8319614 -4.5348773 10.397978 -6.015113 -5.6939926 0.68068427 -2.7117727 -3.3919718 -2.7135878 -4.971403 -1.2544298 -5.2214265 -2.5401547 -5.826949 -4.2515154 8.490981 12.297029 -0.16843805 -0.56400806 0.73973536 9.56033
1330947 9.172022 1.4416127 -2.5056722 -1.633866 -0.40306488 4.2637334 0.20825082 -0.96549124 -2.82427 -5.5196695 3.8523934 12.1573 -1.3965607 4.476277 -0.50105566 3.9863496 -4.8663044 3.1396134 0.707513 -12.695352 0.92823046 7.9874053 3.720762 2.8920162 5.425764 -0.6732093 -2.9479542 7.085074 0.3272832 -6.4384384 3.7788649 -6.332951 5.4505124 -6.8421965 1.8711715 -0.7068045 2.7267725 5.9352045 -3.5944974 -3.9201448 4.750575 -0.46092573 -1.3324205 1.8565396 0.19734396 -1.7017949 2.36788 -2.8961067 -2.2739894 -3.6416812 -3.124164 3.9298527 -9.297488 -0.45113498 5.8054004 -2.2210166 2.234207 -7.064532 -11.042142 10.507548 -2.6101518 -1.6732545 0.9159107 -4.7484617
753595 -1.5056984 1.7030818 0.18888533 -3.9268758 0.62169915 0.61335224 -1.3292209 -1.9933397 -3.0086954 -3.5597465 1.6936324 15.061402 -3.511924 5.566735 5.141564 -1.3382248 -4.1076107 -1.2006569 -6.4663773 -12.078795 -2.0625129 0.71568334 7.7973943 2.4657614 3.0948818 -1.2902795 -0.56332225 9.999256 -2.0322697 -1.5065753 -1.9717152 -2.0200841 2.736499 -1.296879 6.35331 -1.720845 -2.3846443 0.9718289 -2.2832599 -7.973958 6.447268 -0.1804635 -1.9917716 -6.225804 -0.5383284 1.6091273 -1.9322097 -9.182525 1.3694202 -0.3953881 1.7031333 -0.5418132 -5.7090974 0.35260582 3.412657 -2.5572717 -0.5985817 -11.029158 -4.1944623 14.271302 -2.9359872 -1.2698568 -2.6230328 1.1519321
909698 2.0307739 2.1089787 -0.5924277 0.6185974 -4.2539 3.1552494 -5.6090384 -2.019781 -2.2591162 -2.2110157 -2.0041516 14.651845 0.283884 5.6681275 -2.313447 1.6413915 -0.9560686 2.9166658 -2.8993528 -8.224033 -2.237875 2.4681318 3.8216543 -0.98355365 2.4622898 2.9182122 3.5603611 11.759534 2.6977143 2.3646114 0.59127027 -0.63907814 1.7946001 -1.2518463 5.360672 5.501054 6.0974927 11.652802 -4.4871464 -3.2176378 1.6399243 -2.6770117 1.0277994 2.2130306 -7.665966 -2.8820064 -3.7028291 -7.121002 -8.362978 -5.90526 1.3331734 -1.6741797 -2.6587594 4.7153573 6.099596 -7.4428325 -4.5140085 -8.89038 -5.1976166 2.9143326 -1.3102927 4.8126407 7.2032948 -1.5717613
1331034 8.00159 4.0156484 -0.13583483 1.0505831 -3.3068218 3.7659953 4.3988376 -0.8054309 -4.1065574 -4.7191157 1.6041688 11.8179245 -0.8484823 8.437693 0.6221837 -0.39037284 -3.2341197 2.4101038 -2.8427987 -12.122717 0.3785729 6.997142 2.5756044 3.2729475 6.1486955 0.940656 -2.469682 8.868477 0.41696155 -4.1436825 4.8037944 -2.4919908 4.1102724 -5.5757875 0.66446835 -1.0222608 2.4582126 5.2948527 -4.9606037 -5.222165 2.949486 -2.2618651 1.4432087 2.4022613 -0.7309686 -2.052165 4.503827 0.10512951 -0.6956069 -4.5386505 -2.4007623 5.0481443 -10.155028 -2.2006102 4.4742947 -6.303238 3.3647676 -4.9444957 -8.0518265 9.167475 -4.740684 -0.3891456 2.171203 -1.5301212
906824 2.8564005 5.441858 3.7542658 -0.23791327 -2.9836004 -1.1644301 -2.2572644 -2.0601988 -0.5425535 -5.826706 -0.17373554 16.2132 -5.272322 2.3556218 -1.6872313 -4.681494 -3.5675817 -1.1337386 -6.6218104 -11.543065 -0.28339016 1.5913528 -1.8481921 6.6147575 0.85861135 5.696502 -2.5034332 7.197824 2.3241045 -0.8328011 0.7612272 -9.1065 1.4708213 -3.6753306 -2.1061137 -1.98082 3.0275507 -1.6626903 -5.232196 1.522873 6.9009395 -3.5488253 2.513434 3.32837 -4.611243 2.6496508 -2.6038733 -4.945297 3.4932745 -5.9324346 -7.2079573 1.2629912 -5.45548 -3.8660176 -6.9787884 2.1172972 -4.1048503 -4.128757 2.4892702 13.966072 -1.9382386 1.757813 1.3890887 8.652078
1240189 4.7613034 1.4951808 0.80400485 0.20221695 -0.43699318 9.739065 0.19464278 1.6587732 -5.2318535 -4.7456307 0.011290087 18.06141 -2.9206972 9.780234 -1.8271407 -0.91560346 -10.340855 -2.9833717 -0.8501595 -8.330879 -6.0185423 5.8279166 -1.2179649 -0.8458956 2.1672406 5.5325933 -0.90592796 6.0250435 4.9969296 -1.8364954 3.727562 -2.0045102 6.8553486 -2.8077476 -3.5824997 -0.04242336 -0.2409461 1.9750637 -3.7471247 -5.780291 -1.6690317 1.7313789 3.2234197 3.0788274 -0.6001299 2.110038 -1.4757828 2.506183 -1.6590005 4.9447494 -3.7970355 5.8646398 2.47729 -4.8963556 4.726734 -4.493025 -0.8904889 -5.5127134 -7.0695667 7.2147436 -1.310966 -2.814335 1.6824372 -0.8991851
907048 -0.84982055 0.9235226 3.206402 -3.095496 -0.81363416 4.0468307 -1.8523319 1.784973 1.7228441 -5.265835 -1.3175013 10.642688 -4.4058213 0.6857244 2.8163571 -2.6612747 -4.945004 -4.6338816 -2.4233353 -6.7653704 -2.2404668 5.2209983 1.6490477 2.6282256 -2.7532296 4.316612 -0.6325545 11.163764 3.573787 -0.426242 3.0797434 -3.8843088 6.425586 5.332214 2.500184 -3.3393574 -1.8203166 0.0318506 0.49077943 -11.215305 -3.5125513 -2.5234663 9.699974 -9.723672 0.93818647 11.006496 -3.1068192 -3.987298 -3.1071434 3.7516646 6.904176 1.6183372 -5.948662 -2.9656944 -2.2702916 -5.1974053 0.4796989 -10.748638 -1.5194317 12.684059 3.2074485 -0.8159761 -0.15109952 1.6192799
905952 6.093018 -0.8457263 0.9313386 -4.0126777 -6.355871 3.102006 1.4845685 -0.52918124 -2.2946873 -3.7175395 0.7536732 12.372055 0.8364097 6.246939 -0.6407189 -3.2534332 -1.4215378 0.2906535 -3.0613894 -9.035398 -0.0059243245 5.0090833 4.204804 2.0738313 8.242412 1.7940843 0.55429065 10.620252 1.481758 -4.461975 1.1110232 -3.108357 5.838416 -3.5037057 0.8969814 -1.4488244 1.7669868 5.787194 -7.4832587 -2.0304427 1.1630907 -2.97486 3.7090294 0.8100249 -3.553317 -2.2689812 4.1517525 1.2172699 0.51119053 -3.7165668 -3.2831635 4.694383 -10.630766 -0.990964 1.9858102 -2.43948 2.760267 -5.100434 -12.057794 9.372794 -6.0256925 -3.0857828 0.7815639 -0.018396568
724839 -4.3280635 4.7024994 3.017563 1.1198435 -4.1013956 -1.6971167 -3.1607733 -3.6228268 2.499689 -5.2058206 -0.8789558 15.153191 -2.9678154 4.1134944 -0.2217538 -3.4410174 -1.1001865 0.35371178 -7.422823 -8.87574 -0.66997045 -0.20209688 -2.8142128 5.113723 -2.4403188 5.864444 -0.17081976 4.021925 2.6441643 0.9473475 0.8510675 -5.344967 2.2147672 3.055479 -1.5872126 -2.440193 -0.5966783 -2.5287356 -5.303448 -0.55885834 7.3788176 -5.4349976 5.936481 -0.41430354 -7.4720693 4.580987 -6.139631 -4.6038527 0.57881325 -7.224185 -6.969848 -1.9671443 -2.6970794 2.4499831 -6.028902 3.1845243 -7.0076485 -2.5897543 6.490499 12.46885 -2.74794 1.8551509 -2.2617402 7.7197814
908158 6.716214 1.9537295 2.2454524 -3.507781 -1.690962 5.9300356 1.5218048 -3.7117243 -3.5337539 -5.475509 1.2882106 9.725974 1.8394525 4.980423 -2.1310043 -0.9370644 -2.477704 1.6706742 -2.5053306 -10.282941 -0.27697194 5.682275 4.412218 1.8601972 6.5319586 1.6361195 -1.8288481 9.329243 -0.90335095 -6.2310348 7.317869 -4.024549 5.072074 -5.6215773 -1.0761784 1.1706761 4.9726825 6.0694227 -2.556712 -3.4407654 3.3044076 -2.9182458 -0.43808156 2.3503819 -1.0037954 -2.155927 4.227294 -2.384629 -3.5137794 -3.9898868 0.93998474 5.0355945 -11.269788 -4.232116 5.688551 -2.2967694 3.5167322 -8.691685 -9.525395 8.99138 -4.700183 0.6871164 3.220923 -2.1743767
908134 1.8290172 0.986163 3.7640605 -5.5299807 -0.42662477 1.9216301 3.2176394 0.48970917 -2.0831447 -7.5564756 1.2260343 11.514044 1.0546852 -1.777402 1.0497421 -3.2609944 -4.9847713 -2.8091223 -0.02585867 -3.4461899 2.4959116 1.2499394 4.2097144 -0.04622629 3.2055643 9.571646 -0.38835576 10.508825 1.7427697 -5.6406775 2.630756 1.0743177 3.5450912 0.3409749 -2.156903 -7.109861 3.8914735 -1.9557496 -3.2436662 -9.670363 5.52167 -6.1781273 6.534022 -3.8777986 3.5208035 4.8936186 -4.057556 -2.6341128 -1.2179457 -4.1421633 2.9740195 3.999665 -8.844423 -1.2966615 6.021392 -7.3685327 1.318827 -8.988587 -5.14736 15.22687 -1.8760511 -3.3220086 2.4898286 -0.17077486
909252 5.884325 -0.60040164 2.75236 -4.275177 -2.1713884 3.6486707 2.32506 -1.2141697 -2.896947 -3.4170568 0.33406213 14.221239 4.501962 5.1660213 -1.2731583 -1.7692827 -3.4482844 -0.3684172 -2.2152996 -9.419485 0.6182248 3.4936235 3.6769016 1.8178079 6.1590734 3.1750631 -0.71633846 9.373707 3.0412378 -5.101869 3.1149127 -2.953816 5.737203 -5.106824 0.7559241 0.5095076 2.696674 3.4976954 -5.472156 -2.898688 4.2436233 -3.7573833 1.3670772 2.3365376 -1.2222112 -1.4120722 2.6414278 0.24121477 -0.2938306 -5.307851 -1.447931 5.569977 -9.172624 -3.8617456 3.7008386 -3.0722995 3.2233238 -6.111947 -10.60215 10.101154 -4.965946 -3.8536644 2.8592415 -2.7129061
910710 4.8332567 -0.021493541 -0.68398035 -2.8586748 -2.8942516 1.7127715 0.35301656 0.7503377 -1.542293 -5.555045 0.11687824 12.884075 -1.04147 6.1108274 1.0625091 -1.9273299 -6.6149178 0.42621416 -1.4886675 -5.9665384 -2.934052 4.6169553 3.3776677 3.223126 8.969874 1.0798227 -0.72117996 8.499306 1.0071195 -9.000975 2.051279 -0.76964194 4.6324344 -5.475907 1.8379169 -2.218859 -0.3159774 5.239246 -9.364713 -5.4070897 5.1578236 -1.2530913 6.9455853 1.6681507 -1.2081063 -3.0604525 2.0028663 0.6525809 2.4173436 -4.541094 -5.841852 4.7676144 -8.538967 1.0124855 4.074068 -6.1880255 0.381296 -4.6755195 -10.532501 9.400808 -7.795876 -6.8681073 1.0256556 -2.895657
1330950 4.82375 0.35168576 -0.26334295 -3.19068 -0.8876853 5.611823 1.6777322 -2.0996883 -5.6585393 -4.0377746 2.732164 13.36707 0.047332574 3.7744691 0.41662565 0.06806507 -7.0157743 2.6683297 -4.066756 -14.1701565 -2.6537473 5.8800235 2.6814022 3.7418556 9.481946 -0.7107999 -3.354218 9.190337 0.07314712 -4.9166384 2.1555338 -1.1404701 4.852939 -5.6086183 -0.60320985 -1.005896 4.4353 4.0457306 -2.0616724 -2.6190422 0.85916144 -0.2905431 1.5650371 0.24560127 -1.1543139 -1.9673425 2.397567 -1.9687939 -4.874247 -3.8352413 0.42717695 6.325475 -10.046972 -3.9386425 1.0305915 -1.62457 1.1547068 -4.4946775 -10.723631 8.889449 -3.4666514 -0.40905172 1.6606352 -0.77425903
908448 11.176561 3.0216262 -0.07549151 -2.215617 -0.124662176 5.3563986 2.0961316 -1.8978992 -0.30950582 -2.8443608 5.3711 10.337655 0.6619422 3.442543 0.6175248 2.9479628 -4.9807644 2.916821 -1.4224551 -12.913883 2.4724214 6.631453 3.7684922 1.1372035 4.445185 1.630986 -1.1816362 6.519597 1.4106351 -6.1423287 4.690311 -5.7456136 5.1305623 -5.65211 2.3688633 -2.2661746 3.9596972 3.8126132 -4.5194054 -2.718282 4.769284 -2.9003053 0.4750317 2.822737 -0.28795904 -1.9063733 4.689072 -2.6354403 -0.86586183 -3.370095 -3.2100155 2.086972 -8.28087 -2.5693796 4.751581 -0.44457766 3.6506808 -5.4601355 -13.562557 9.754743 -3.6398785 -2.133305 1.3059286 -4.712208
909718 -3.19244 0.9769269 -1.2265317 2.6018384 -1.9634851 2.7735233 -2.9414842 -1.5665936 2.5201416 -1.0452925 -2.041576 14.771089 -5.3894973 6.15221 0.068918176 -2.0068603 -1.0601028 2.3558307 -6.1867056 -1.3950948 -0.10826254 -0.3521619 0.09897474 -2.938297 4.790181 5.5957093 3.7761178 13.338485 1.1263087 4.081092 -1.44968 -3.995173 4.6814704 3.261965 5.584184 3.5175455 4.0356255 9.0569935 -1.6654975 -5.4967394 14.761481 -0.23252188 4.1151094 -2.0161276 -1.5887526 3.2323942 -4.4827576 -10.174428 -4.2961526 -4.9539623 -1.8879187 -4.2984686 2.2244527 2.604021 2.7236 -4.1863537 -2.353856 -13.313995 -2.2727838 7.6790357 1.4496733 -4.08773 3.3259816 0.023414422
1247871 5.9736733 -1.3383535 0.18208767 -2.6068773 -1.4265611 5.3028307 1.9348694 -1.6186373 -5.6108093 -4.1350827 3.430071 12.464624 0.021401266 5.676354 -1.9138585 0.39654142 -6.0096846 0.28749844 -3.9235256 -12.204567 -1.3260015 4.9801044 3.0483344 3.6680095 6.9089675 -1.5170468 -2.7219741 8.184301 0.025810543 -6.4522357 4.5138226 -2.2188573 5.5562234 -6.3822927 -0.12540923 -0.025634568 1.8323369 5.3783374 -2.0924623 -1.338732 1.5302585 -2.8542774 2.11888 3.0337334 -3.2726421 -1.6670569 3.6965508 -1.1935651 -2.7260523 -3.0915701 -1.539793 4.9291797 -8.182612 -1.8497497 5.883547 -3.9759839 -0.23183829 -3.5846972 -11.966003 9.992192 -6.688883 -2.3760471 0.79967976 -2.2845633
908450 2.7850783 -4.060085 -4.3432283 2.877684 -0.0055468315 -4.0066576 4.5288625 -0.08401255 5.291284 -5.5971403 -2.011313 10.250461 -6.0527773 5.9722195 -4.186943 -4.3774505 -3.0618668 -2.8418365 -2.437105 -9.607026 -3.452936 1.1972909 2.5518978 6.2539434 1.997755 3.2423227 -1.5373578 3.26808 -0.50310224 -7.8859134 1.2428035 2.612811 2.7562916 8.863086 6.287115 -1.8173358 1.511706 -1.1376613 -2.219599 6.0220056 2.0590107 5.2126303 4.5177417 -3.0117133 -7.1542516 -1.4687907 -1.3832438 -2.3392003 -2.9035256 7.2014303 -5.468499 -1.85369 -1.6713688 0.58553755 -2.7178688 -0.9689006 2.3540676 -0.04496812 -4.357259 4.403481 4.3884344 2.716614 9.462969 -2.4659684
908148 14.110568 4.103934 -0.16302575 1.7886165 0.4160824 7.176081 0.6157191 -1.3704181 0.27545545 -6.376124 2.7616584 14.067519 -2.0700667 3.6855814 0.9135705 2.8118408 -5.9983764 -0.3131436 0.3490293 -11.5803 -0.6106965 9.321967 1.221884 -2.9681163 1.3997902 1.5961311 -2.443065 5.861808 -0.9800047 -2.0645406 3.6733794 -7.8927145 6.06954 -5.2450695 3.21625 -2.4687312 1.3781192 4.9157143 -4.1169176 -3.7756164 2.0461736 -4.3836274 0.22941679 1.6247177 0.64252675 -0.4589814 0.5949313 0.7446466 -2.4002666 0.047933653 -1.3247201 5.795506 -3.289193 0.76794785 3.9728723 -3.3850946 0.6445128 -7.715043 -10.825655 10.433375 -1.6503714 0.120125905 0.060235683 -2.59413
907277 7.0282745 -0.24661157 -1.0854386 -2.678271 -3.2161682 4.358938 1.3554438 -0.83185863 -4.448764 -3.241482 2.9102254 11.163301 1.3802317 4.7286515 -0.8991345 -1.0836673 -2.643545 2.6313512 -4.1054325 -10.659423 -0.11672275 7.2281284 4.386325 2.8960202 8.706809 0.085498884 -1.291082 10.641734 0.16616227 -6.4297924 3.2127275 -2.5508435 5.771948 -4.4811234 -0.7481187 -0.7736728 1.9327832 5.3827868 -3.6134553 -4.1602154 2.263313 -3.632689 2.917007 1.3066757 -3.849528 -3.3033445 4.1681385 -1.1998276 -1.772232 -3.6528888 -1.696509 5.8454885 -10.143797 -4.3896284 2.1460328 -1.1223485 1.5362517 -4.7423754 -10.635123 9.77266 -7.1001096 -1.6643503 -0.32521692 -1.9203507
1240161 4.3922215 1.5397803 6.204443 -2.8209524 -2.4641392 6.152007 -0.6370212 2.4001038 -0.0381359 3.9175127 9.010838 13.135514 -3.223493 -2.0493062 -3.5532131 -4.1670933 0.84212893 -0.99568516 -10.376205 -9.336927 -1.5029895 3.1562588 -0.38010272 3.3595114 2.737726 6.7842927 -1.3233162 1.2959093 -0.199932 -5.2639318 -0.78384906 -5.516268 0.7232539 7.2356186 9.073448 -3.7431753 0.06574638 5.1810284 -0.442069 -3.6409788 2.9399498 -7.263989 9.104582 3.2434359 -3.7261646 -1.0928823 3.95034 -3.7009373 -5.881989 -7.0733657 -5.095006 5.6601663 -4.876586 5.675462 3.93395 -4.033946 -5.053852 -8.364361 1.3710595 6.6618586 1.2643695 0.35059327 -2.3781323 6.111049
949090 -7.8813934 -0.6816903 1.2556714 -2.6577687 -1.0692023 3.8325613 -2.3254478 3.0876286 -0.7633159 -1.5220299 2.3786554 12.310343 -4.049409 2.1349719 2.3802395 -4.1555467 -3.5763874 -3.506302 -7.527216 -4.751343 -2.9922767 1.0536104 4.0923605 -1.3938352 -2.212603 4.0917087 -0.08765735 10.726936 2.1478708 0.74028695 -1.7350838 -0.63141 5.1406116 3.5485895 2.5013115 -3.925345 -6.7825627 0.63370305 1.2950782 -11.630617 3.1482975 -3.2767467 8.496864 -9.883327 -3.7062194 10.551309 -5.1293154 -6.746403 -1.17486 3.4218671 2.310653 -2.0466673 -4.3198166 -0.7765965 -2.0418382 -4.5410137 -2.963667 -9.221999 1.4966536 12.213372 0.5843365 -1.6757334 -4.4114404 2.4862688
1322224 -0.4817922 -2.783095 1.4294146 3.003366 -3.4006252 2.564669 -1.2188927 -4.718808 2.8288538 -6.672275 -2.294489 10.884944 2.7377937 11.090879 -0.90672946 -4.67143 -2.8374128 -2.1584387 -1.2729065 -5.510515 -0.9906473 1.0981416 2.223086 2.9980934 1.1432981 1.5432726 4.0627728 6.462398 11.555298 -5.215713 5.8518734 -3.5914226 4.7314286 -3.1379008 -0.1301219 3.3346753 2.352235 6.100273 -4.062053 -2.097974 5.8132534 -1.9608754 6.3366923 1.3462677 2.9703188 -0.3004255 -0.22920325 1.2892567 -0.2436174 2.5225554 -2.7382686 4.4536505 -4.5490565 8.923462 1.8527766 -12.159512 -4.6106877 -7.933615 -3.357941 14.944155 -6.274898 -5.6532164 -0.95673996 2.0172186
1298222 -3.5630066 2.6048758 2.387954 -2.9643736 3.3429365 8.82966 -0.9004302 -2.126747 -1.7221738 -1.6973705 3.8451881 11.313199 -3.325371 3.2589066 3.587282 -3.0022123 0.08363681 1.1386155 -4.0008807 -6.7031856 -0.81415087 4.1812997 4.1565576 -2.0869792 1.4604422 3.5176117 0.057091672 11.2726965 5.3797255 -2.473168 -0.022499656 -4.9791245 4.8586645 3.2341387 2.1157556 -7.518911 0.6127303 2.162274 -0.03398396 -7.1045523 3.9004905 -2.4020302 2.2893326 -7.22003 0.6280245 6.182304 -1.6922569 -6.6922345 -5.146975 4.44284 3.3306208 -1.7602385 -6.048198 -3.9444995 1.8537459 -2.121973 -2.674915 -14.6375065 -1.2583679 12.304061 0.37289596 -0.0033741468 -0.32721886 3.6358309
910687 0.38835827 -1.4638994 1.4620324 -2.5747156 -4.818785 1.9674374 -1.0454656 -0.8661214 -1.6776574 -5.3713818 1.8469988 14.150699 -1.9957614 5.222646 1.7212083 -0.7279238 -3.7556944 -0.8071499 -3.59774 -8.03437 0.90735143 4.05728 4.766044 0.9413935 6.578627 1.959713 -6.286569 7.8832283 0.36283696 -3.3065407 -0.5503695 -4.0357924 5.2604055 -2.9795012 2.8098593 -1.7020175 -2.7743673 6.3451414 -2.889751 -11.700101 6.099908 -6.028019 3.1858711 -0.9287238 -6.8686423 1.0122421 2.531867 -3.6976168 2.7022574 -3.7637644 -0.99001664 2.989142 -7.7367806 -2.244542 1.6839286 -4.5029545 1.9470389 -6.966176 -8.886271 12.923087 -3.9499428 -4.1035256 -1.1434076 -1.3516269
753535 1.7428194 1.2990087 6.82089 1.1105897 1.0629151 2.1458821 -1.244931 -1.231548 -2.9019978 5.7188067 8.158875 14.761324 -4.651452 1.6431681 -6.6807275 -2.6318347 -3.6230524 -4.9104514 -10.086605 -9.760589 -2.3775127 4.746519 -0.68972564 4.4106574 3.6811786 3.7002287 1.6292307 2.26151 2.462049 -5.5247293 -2.5467768 -6.4591208 -1.1853572 8.1298 11.035435 -2.3900163 -1.1334958 3.4330308 -0.39464188 1.3496747 2.3159664 -8.717467 3.5850363 2.3475897 -2.6324155 0.8650398 -1.1538676 -0.24028285 -7.2838683 -3.582908 -2.7724679 7.15226 -1.1460309 2.8725996 0.5973157 -7.4701962 -9.687114 -7.32772 2.0908763 9.800707 0.799572 -0.27953666 -2.9332972 4.911272
1298167 0.65609354 3.9724169 3.5724754 5.3180146 -1.0788639 10.656106 5.879703 0.4805208 -2.590465 0.22756669 3.802485 11.210472 -1.8957442 7.660241 3.3672059 0.8351 -5.4341 5.014703 -3.9576318 -4.1676216 0.13439038 3.6641545 7.149729 2.0109475 -0.020263633 7.8215384 1.9821342 8.54336 -0.79926 -4.617903 3.4914606 2.7958806 7.8638315 5.193047 1.3486809 -1.3086021 0.79125 1.6439241 -1.7033252 -10.751598 2.001707 -1.0618287 6.9264917 -3.4782465 -9.162068 6.1625 -1.5944662 -0.58436733 -5.277541 0.295647 0.81852067 2.4549506 -1.4325367 0.7860873 5.3095055 -0.47492942 -6.135699 -9.886703 -5.048528 7.9064145 1.0765588 0.5222448 -4.7530513 2.0815535
907789 4.765641 -2.5549612 -1.485895 -2.2943878 -0.40382424 3.3681576 2.6215262 0.5341453 -6.015591 -4.9546247 2.4656675 14.295071 0.2727987 4.489086 0.45201227 -0.5058864 -3.7433088 0.9033013 -4.2962484 -10.524684 -1.6985646 7.0967894 2.9743488 1.7142342 8.47673 0.51132715 -0.75584 10.077667 -1.1750141 -3.486739 3.7248597 -0.7735498 6.758458 -5.8048997 0.14554583 -0.5118261 1.5563922 6.611215 -1.5016394 -3.1563303 1.3938226 -2.79268 1.8291035 0.13032156 -4.078118 -0.70279026 3.379458 -2.4300888 -2.2445152 -2.829434 0.0830927 6.2221994 -10.065805 -6.555131 1.2558762 -3.6174917 0.43569738 -3.2316096 -9.389351 8.914427 -5.493534 -3.827747 -0.31936 0.5191691
910936 1.1376148 1.9165282 3.2387102 2.1661327 -2.894038 0.55620503 -2.236165 2.210739 1.4523317 5.9792504 11.375683 11.503961 -5.3460426 0.9387256 -4.7744765 -1.9368106 -0.18824819 -2.967077 -12.327556 -5.774522 -3.1909208 2.169499 0.28933886 5.167616 2.2460792 5.7294345 -0.3882127 5.051993 1.8863076 -7.092137 0.6208198 -5.891788 -2.5754113 10.336084 11.327255 -0.6294507 -3.067179 1.1843857 -0.42003545 -2.5365496 9.883208 -6.343637 6.8681827 1.3790652 -0.56486964 1.2899883 2.4069822 -2.7780871 -3.0349112 -5.2398615 -5.3206606 3.9200873 -3.181344 6.7355165 2.2825148 -6.175501 -5.7542586 -8.624208 3.0553453 8.6003275 0.6577137 -2.172983 -3.0208795 4.542824
908145 3.4728968 -6.027404 0.72292006 0.15931426 -3.411034 -1.8760612 6.901775 0.34736237 5.032272 -4.188177 -3.091288 6.7636476 -7.5006113 5.051977 -2.5360792 -7.058601 -5.286345 -1.742549 -1.2619897 -7.981083 -5.43182 -3.5547175 7.1826873 4.5050745 2.4629831 7.243099 1.8800118 12.5385275 1.419149 -10.122221 3.959489 2.3435752 4.9255934 4.418578 5.256328 -3.322241 -0.9922518 -0.9902942 -6.271595 2.2844615 6.799993 5.3893847 7.9636106 -0.94054633 -8.1716585 -1.322623 2.0907753 -2.1117818 1.5619559 4.8888807 -2.4111044 1.4861456 -2.046526 1.9001536 2.3766558 -1.7761163 3.8913376 -6.5568004 -6.692333 8.117679 1.5897955 0.35507125 6.644879 2.4430735
1330982 7.6590557 -0.9553494 -0.44464394 -3.0587156 -1.8582425 4.2587223 3.2681596 -0.18229741 -2.647303 -5.154085 0.9607625 11.845181 0.81593096 5.840268 1.1321949 -1.961237 -3.9258177 1.1783117 -5.2959795 -11.84911 -0.61604005 4.517276 3.1152625 3.2023535 6.043904 0.9302859 -3.2837884 8.233934 -0.28751993 -5.0730834 4.6893034 -3.9093585 5.02253 -6.2284 -0.17619784 -0.03565188 1.8792144 4.3476367 -5.201402 -3.8094916 2.4423995 -2.2179427 2.208137 1.8372841 -2.4580288 -3.13087 5.0052805 -2.423392 -0.9438379 -5.163551 -1.4045517 5.490358 -9.034181 -3.3393593 2.0665302 -3.9884253 4.8798084 -3.1910207 -10.108852 10.04831 -4.7046776 0.7712571 1.3084208 -3.6457047
925340 -4.1426024 -1.4257919 3.4597647 5.7246566 -2.8477154 7.593715 -2.4535823 -4.355203 -0.1270713 -3.6693964 0.36064386 13.764099 0.36969674 11.724314 -0.6676304 -4.9059095 -5.1836977 -0.56321186 -4.4475684 -3.568206 -4.8017983 0.28725785 1.503158 2.1620123 -1.6967136 3.508896 3.3514187 4.896063 12.724929 -3.0252914 5.8131413 -0.48742267 8.906358 -2.9428036 -2.708432 7.5246334 3.6721323 5.703177 1.9576881 1.1066518 -0.16774206 0.6268528 3.8543482 3.689723 1.8076379 1.5626566 -1.0007665 2.8797078 -2.9801888 5.2235703 -2.3909495 6.5059223 5.6799207 6.6292005 4.4847784 -9.1561575 -6.8166766 -5.837116 -4.4592295 7.4203815 -5.61768 -4.881926 2.018029 -0.9770135
687819 -2.6651015 1.419558 6.191459 1.1371435 1.521941 6.7234035 -0.9672638 -1.0238348 -4.557555 -2.616539 3.6717162 12.241055 -0.90569997 7.5048895 3.2023325 -1.8726732 3.15635 0.5603897 -2.3460476 -5.952125 0.3102327 5.7837358 5.512895 -0.22331668 -4.8395333 2.7741377 5.575494 11.944539 7.6922297 2.24992 1.069869 -1.0711069 1.988681 1.4254936 -0.77201617 -3.25349 -2.5114138 1.2274662 -1.4663663 -9.282359 3.005936 -2.14212 4.181178 -6.8563814 -2.0611184 6.777132 -3.9740171 -4.1239433 -2.2965891 3.916508 2.2235975 -2.3064353 0.66147316 -1.8982879 0.93861425 -5.8903446 -0.7411238 -11.92078 2.4903247 11.676683 -2.944032 -0.96056145 2.1655464 0.3738612
749709 1.3782638 -1.6518865 4.1282086 -2.3023674 3.0910466 4.848579 -4.9466004 -1.1776814 0.057059806 -3.6831455 -0.73357123 10.271793 -5.6989107 0.30093798 3.8464 0.25350583 -1.7119182 -5.653303 -4.466626 -4.0103707 -1.3474842 6.3566 -2.1633425 2.8608315 -0.4467844 4.4732313 5.459255 12.267533 1.8190026 1.7937641 2.7494645 -4.959043 1.7108905 4.7998047 2.618074 -2.7310386 -0.19969593 1.4042909 0.37778422 -7.5155697 -4.915815 -4.258313 13.435111 -10.544866 2.7281098 9.402355 -1.6524261 -4.058548 -5.505335 2.4757366 9.416286 4.27785 -6.0009427 -1.3088634 -0.5322026 -3.872473 -3.4233856 -7.6467614 5.1142244 11.057524 1.9563609 -5.1993494 -1.7449701 2.550331
907275 8.726269 3.3526073 -0.45647117 3.1322117 -1.3292911 8.416463 2.7799973 2.5839589 -1.7194746 -1.2457987 4.2622085 12.275816 0.23526208 7.3460603 -4.512183 4.6854324 -4.0503106 3.1080866 -1.8697823 -10.878452 0.724309 5.1634254 2.5708997 1.0814399 1.0564984 7.9865546 -0.87844706 8.223261 5.2551126 -2.834231 9.538164 -4.0433598 7.554309 -3.6503222 -0.84365463 0.6116286 2.3243835 3.9266284 -5.6303062 -3.3257985 3.8133345 -2.629941 2.147543 4.3948584 -1.9145893 0.28754184 2.4912694 1.4051434 1.881117 0.49517506 -3.9205031 2.7911181 -4.967365 -4.628411 7.876361 0.5175359 1.3047711 -5.822415 -9.274605 8.314691 -0.64275587 -0.93087107 1.0368929 -3.8348708
946358 3.4843292 -2.741791 -5.376898 1.3693091 -1.5476763 3.7467546 1.4905609 3.2129514 -1.5085708 -4.024 2.9937487 13.35731 2.0974185 5.360878 1.1231765 -1.212896 -3.499055 0.47956443 -5.900035 -10.257708 -0.5934866 6.009707 1.4681721 -1.2984958 7.323619 1.0810333 -3.7212856 11.502385 -2.338825 -3.7497847 4.427579 -3.4993963 6.9302115 -2.5594492 0.036310084 -0.21874587 -2.7634125 7.3867183 -4.1988044 -5.5653396 4.9077272 -2.1626868 5.8694267 -2.914214 -6.12794 0.55332834 2.0909736 -2.3729124 -0.9944137 -3.007632 -1.2132636 4.143789 -9.720493 -4.4388313 -0.2959247 -2.9502916 1.406755 -3.9505806 -7.0689836 11.626474 -6.0060277 -1.667433 -2.660761 0.35741383
906870 12.563229 2.146545 -0.4248978 -1.8882803 2.4491255 4.5270696 -1.3485281 -4.5668783 -2.8848794 -7.388973 3.2018237 10.961206 -1.7662421 1.7400064 -1.2379649 4.423688 -7.3849077 0.7927193 -0.44601056 -13.313506 -1.7940422 8.548265 4.053458 0.75466 3.7267256 -4.0345864 -2.9923725 5.3933477 -2.4508152 -4.93202 4.3385744 -5.979867 3.8702219 -8.156931 2.2904959 -0.6472378 4.5718 3.9241672 -2.839102 -2.3137953 2.5228887 -2.4264362 -4.888109 1.0457742 0.9803235 -1.4958994 -0.96969706 -3.2954893 -3.7297723 -0.67500454 -0.7660563 6.60267 -7.89091 -1.7464682 4.357943 -1.7540308 2.2679632 -7.3555045 -10.583891 10.694464 -1.409461 -0.5655036 1.1480734 -4.071659
1298533 -7.6343117 -0.9569689 1.3032874 -0.332336 2.35617 2.1048558 -3.0253289 1.8278505 -1.2727373 -2.5337572 0.8962319 16.37644 -2.7932155 4.7762847 4.0525165 -1.8541934 0.9037298 -0.09575951 -6.7446575 -6.8129973 -0.9047632 0.65953314 4.0099206 -0.95102155 1.8958384 4.8223886 0.6175317 8.83345 1.6870996 2.8135128 -4.89573 -0.7053078 3.4389336 4.929717 5.6011057 -5.874216 -3.4204712 1.4821061 -2.6895342 -10.925518 6.7245398 -1.6028894 5.493644 -7.0829415 -2.9522302 6.493673 -8.030035 -8.263135 -1.3314017 0.90955997 -1.0198956 -2.2910185 -0.98731416 0.26903382 0.40429994 -0.518687 -5.997847 -7.83497 -1.0596595 12.625908 0.32209313 -4.332373 -4.5253944 3.0329487
1240153 5.317499 4.606411 0.91642696 -0.8764526 -6.126027 9.49261 1.5554534 -3.4572465 1.3596221 -0.5947987 0.0065426226 16.818604 1.1640928 9.452761 -3.5926611 1.4300238 -10.6508875 2.1771026 -4.320868 -7.341152 -5.02641 4.996495 1.9777403 1.2071378 -1.49532 7.1045413 3.399722 6.2400255 3.403401 -7.521262 2.00797 3.259778 5.6501255 1.6385274 -0.1423209 1.1249899 -4.6918993 1.4875929 1.2287525 -3.525785 -0.589388 0.34194466 3.5615983 1.2813733 0.8963112 -4.1509037 -0.96932715 0.30225852 -3.3562126 1.6497346 -4.1420794 1.023412 2.9101486 8.137043 0.84109217 1.7394776 -0.48836485 -7.424338 -10.134904 1.3191651 -8.027328 4.860241 -0.124620795 -2.9863145
905965 7.781328 2.8666964 1.4291644 -2.979402 -1.7410929 3.6020396 4.8995175 -1.904742 -2.975836 -4.947483 1.8039124 6.9586806 0.50482476 3.4096432 0.5482507 -0.5758715 -5.0264325 1.755122 -0.76303005 -11.114593 1.4799176 5.3558683 4.5180864 2.608582 7.419139 1.7009609 -1.9083414 8.954942 -1.1742988 -8.342005 3.5853593 -2.9301305 4.4893847 -5.2012305 -0.5018804 -1.1703019 4.8007746 6.270661 -4.868346 -3.578097 2.927292 -2.5237668 2.285482 2.7222502 -0.09492621 -2.6305158 3.2115247 -1.1756318 -1.6053284 -7.25741 -0.25340286 5.966717 -11.063313 -2.9112642 4.493876 -4.137426 3.1446333 -7.1377788 -10.708077 8.635528 -6.652592 -0.10291371 2.461174 -1.343773
1331033 5.887866 -0.96551913 -0.6630178 -2.4299097 -1.9797688 1.9855739 2.2802784 0.42945 -3.8827775 -2.9956677 0.76919216 11.817587 1.1705757 6.162551 -2.5669909 -2.0425634 -3.818615 2.6659925 -3.5905492 -13.57734 0.9142822 6.476761 3.8374512 0.8090327 6.9216986 3.219711 0.02218736 9.146078 2.5988367 -4.878567 6.2670603 -3.5931587 5.0654206 -2.8502471 -2.3486178 -0.17462151 2.7583823 6.166615 -4.5033617 -3.8703556 0.22329013 -4.811681 2.216198 -0.4242617 -2.2207627 -2.8478467 4.6956444 -0.337364 -1.3857049 -4.617908 -2.282837 5.9690976 -9.837006 -6.940138 0.16571617 -1.7147453 4.200858 -5.108329 -8.699373 8.922104 -4.697907 1.7497209 -0.119321816 -1.6229267
1298215 1.9646648 2.2261696 6.125418 -0.43687096 -2.3881557 3.686174 -0.3376976 2.3607032 -1.0904055 6.191169 10.910331 13.103549 -2.7359405 1.3299422 -5.045937 -4.6476517 0.6741563 -0.2632043 -7.759727 -11.122913 -1.7303301 4.9000115 1.8520154 5.523689 4.991833 5.135902 2.0993075 3.1253257 3.9995637 -7.8500967 -0.22939998 -4.584849 -2.5245035 7.810265 9.955829 -2.6516 -1.4026068 3.9973495 -3.4448144 0.42569152 3.3428316 -7.810269 7.449819 2.9360151 -4.6409116 -1.8942598 3.34316 -0.24978821 -4.5925198 -8.3012705 -4.493359 5.7997613 -4.0632367 4.242389 0.574001 -3.5970562 -5.778888 -7.2671776 0.13590495 6.0318723 -1.9232218 0.1287569 -1.2583492 5.9718666
722066 -6.77046 -1.1580443 4.137648 -2.132135 3.9735496 4.424944 0.53430426 0.23758388 -4.655209 -0.798412 0.49192542 11.334915 -0.572137 2.5494797 -0.20786369 1.1223488 0.034234636 -2.45039 -2.2818227 1.867897 -0.57172036 0.8781091 6.8184576 -2.6273048 -0.8200404 5.066892 3.8306863 12.651064 6.9816236 1.4048623 -1.9979686 -3.2505474 6.333798 5.6522946 -0.7549358 -3.977357 -2.9642458 2.2122622 -1.5387696 -7.6436887 6.4278293 -0.82783055 3.9187503 -3.0072193 -4.0731483 9.444221 -5.1718416 -6.3634586 -1.8657637 2.13658 1.1405408 -0.780765 -0.08950081 0.81523556 7.3981524 -6.4043813 -1.984717 -11.370031 1.2517312 13.29614 1.7704682 -7.538662 0.7556266 -0.5764623
906863 0.483988 -0.5444911 5.277295 -3.4077127 -4.2399235 3.905824 -0.8616811 2.2173777 -2.820604 3.7199962 5.4689126 13.266995 -4.7754903 3.262722 -5.8718324 -6.2418094 3.3389254 -4.026747 -5.777423 -5.9493146 -1.4836466 3.240131 0.28285953 7.007052 0.47114447 7.553228 0.8405377 2.9143615 5.413351 -6.4479856 -5.188154 -6.266272 -2.5869973 6.7704554 11.241463 -3.155042 -2.071982 2.237548 -3.2684689 -2.2061574 7.0345407 -5.6477437 5.098 -2.1610558 0.491607 -0.15159647 -1.6436746 -2.8481052 -4.820431 -4.851423 -3.2898407 5.060452 -4.522273 4.6838174 -1.7581351 -7.4055176 -5.246469 -5.444488 3.7615886 9.178041 4.1180415 -2.286274 -0.55155337 5.248335
1503366 5.4256754 4.5934076 3.5890377 0.91983616 0.56991804 11.622295 0.765188 -5.425442 -4.8054657 -3.6548645 0.5447024 16.353262 -0.84709436 7.726632 -2.1558843 -0.1701964 -5.10419 -6.1230717 -3.945444 -5.864767 -3.859396 7.235667 -4.587709 -0.1857396 1.1611522 4.68796 0.343666 8.583244 5.536179 -0.8809752 0.2485017 -5.9428043 3.4256108 -3.426418 -2.6961732 -0.63735837 -1.3081087 3.1359398 1.0085162 -2.2369432 -1.2596948 -0.57202023 0.50200146 -0.9789298 8.048869 -1.1958588 -1.9752481 2.6514761 -3.8087146 4.314202 -1.6531899 7.5339637 1.854218 1.3550311 2.2537959 -3.0947976 -4.0401473 -8.578548 -3.1135466 6.993112 -4.865354 -0.049357258 4.2735353 0.49842668
907311 7.036135 0.8581516 -0.025589135 -1.1344786 -0.3583552 3.4476514 1.5187365 -3.6974196 -3.729024 -3.5487225 0.08734131 15.989473 1.8664781 6.966263 -2.7972543 1.127974 -5.4191628 1.1778384 -5.5048466 -12.750527 -0.3703782 6.9352937 2.1194112 3.0386987 5.619545 0.72348726 -1.9009823 6.890948 0.8613408 -4.2764406 4.680186 -1.794726 2.9694846 -3.0721872 2.3537886 -0.70709753 0.16521244 2.4465146 -4.5612607 -5.246118 2.651213 -3.0627325 1.819209 0.21640974 -2.185112 -2.176544 1.1321679 -3.072056 -3.6909876 -5.9731817 -0.95841116 6.737564 -8.601564 -0.7255347 -0.46582088 0.16149928 1.3460457 -3.6827924 -10.568793 9.556097 -3.2336853 0.1886839 -0.20780993 -1.8555309
905954 -3.5151498 1.4528643 1.6083354 -5.550798 -4.118127 6.23238 -0.73503417 -2.4411674 2.5347726 -0.31835473 -0.1166499 14.817131 0.45714366 9.975708 0.22586119 1.8014994 -8.674977 4.3530273 -5.552018 -4.1897144 -2.2881095 0.4682246 5.052964 0.5872007 -2.7875862 4.123605 1.4479545 7.5291204 4.1611342 -8.035019 -0.54069513 5.324486 2.5107203 4.420928 8.454693 -0.8059951 -7.1825204 -1.8983023 -1.3850727 -8.7685995 9.441684 -0.532845 2.3171217 -8.513805 -1.7079885 3.324428 -4.7739897 -5.698395 -5.0187244 4.8153687 2.2924519 -3.4832428 -4.2296157 4.8193007 -5.0622516 0.6226395 -2.8763006 -11.322274 -2.2250388 4.4097323 -2.7416441 3.8105044 -3.331655 -1.9009725
907276 -6.8241353 -1.5884191 -0.28709877 8.673464 -3.0187562 2.8091283 -4.3993874 -5.4377823 5.4179683 -4.2114773 0.39407718 6.7992225 0.43199742 10.258156 0.61531246 -7.6710377 0.072607815 -3.7904456 -7.542513 -3.7148435 -1.7831516 -2.2302177 1.7362543 0.7992615 -2.6006784 2.7771204 0.6465469 6.043721 8.360653 -1.3035729 6.594926 -3.5651138 3.6776845 -1.0567251 2.7601986 7.5900416 0.18439212 4.857467 1.289867 -2.8614652 4.8948283 -2.4740224 4.315432 -3.5736277 4.234144 4.5635366 -0.40782425 -2.6958437 0.22991256 6.2440953 -2.245594 1.8652135 -1.6286469 7.593822 -0.40916795 -11.9325485 -6.505088 -8.907841 0.6385047 10.3367 -5.00806 -4.0075364 -1.8413963 3.3519046
905971 2.2328644 1.987653 -4.626574 1.6319168 -3.174858 3.930885 -7.016837 1.399952 -0.81602645 -2.180258 -2.0231123 17.498135 -0.08752251 4.516267 -0.44796455 0.9903636 0.39477652 2.158452 -2.4277031 -2.7136497 -4.061041 0.5048846 -2.227163 -6.1829247 0.46745932 3.916199 2.1290615 11.418957 4.2686987 5.625143 -0.7037025 -1.5890057 2.6889238 -1.0637922 4.8449187 5.00674 8.346507 9.047421 -6.248864 -0.57795316 2.778399 -2.667023 1.9033481 -2.6433532 -4.6666594 -0.5470964 -4.541485 -4.6544585 -8.050005 0.32488897 1.7873272 -4.9798717 1.7479715 3.9184031 4.998059 -7.3643255 -3.3569634 -6.8751726 -4.444506 2.1807408 -0.41365376 2.453919 6.9445286 2.9291093
1247873 -2.7165437 3.1118956 -0.6862223 -1.9142157 1.8422173 5.998058 -0.12256496 2.5327928 -1.690356 0.7873088 1.2092983 14.6063 -3.9029317 8.566831 -0.8129314 -2.623082 -4.0060096 -3.689571 -3.9955485 -3.6769018 -4.112236 2.3502934 4.4469867 0.08483038 -3.0286193 7.1780095 1.1670845 10.224463 5.8113427 -1.8100646 -1.0026689 -5.2533956 6.951405 7.9676623 -1.1417283 0.092901155 -3.6061897 -1.3805221 -0.98802406 -5.1513305 6.618494 -0.5210738 1.0237582 -1.7185488 0.205416 4.5166187 -6.558883 -2.3787506 -0.4473276 5.2172956 -5.910156 0.190057 4.905831 -1.5396934 5.8291 -2.74206 -1.5392919 -12.215584 2.8125668 12.7563095 -3.0152478 -2.6228514 -1.3289826 -1.7810328
1298531 1.5007623 1.2016245 4.2921753 -2.472007 -2.334278 2.2124484 0.67230433 -0.06499549 -0.28141713 5.5117297 9.101505 12.890315 -6.720644 1.9305869 -6.725488 -2.2165031 -1.0429776 -1.987015 -9.429113 -7.121414 -3.0178072 4.0663323 1.8099986 6.637852 4.4817452 5.0286713 1.3890297 7.5145335 2.1062186 -8.940115 0.517187 -4.866097 -1.3051304 8.443421 8.722953 -2.5307844 0.01158896 3.0658677 -1.9562112 -0.034809917 6.153537 -6.1573033 5.1961427 3.0926037 -0.62530714 -1.8199733 2.1294453 -2.3773372 -4.110966 -7.118806 -6.33933 5.3583455 -6.195865 4.557439 1.6111728 -5.675198 -2.6341865 -8.370931 0.07935327 9.438188 -0.7944392 -0.9088708 0.54895926 4.5277553
908118 10.086503 4.732568 1.0712925 0.6010534 -4.2446995 6.924533 3.4039664 -0.876662 -1.4453127 -2.1463587 -1.2431744 13.073915 -3.1231964 5.410264 -2.2746246 -4.2504463 -5.394877 0.1206476 0.38530576 -10.927454 -2.781482 8.041917 4.5350437 2.1192741 2.491159 1.8657724 4.793571 6.172515 -1.3410407 -2.976312 2.5593827 -3.2384753 3.4831166 -0.75121325 0.671508 -4.4385943 0.9020168 3.7369077 -6.9626203 -5.7546625 -3.9224756 -6.143505 7.036132 0.9507747 -2.3676257 -2.857481 -4.622773 1.274827 -1.203324 -0.09812849 -0.10939107 5.728863 -1.9583415 -0.53143424 1.0204847 -3.1659603 1.7358495 -8.817678 -10.637922 6.8569245 -6.9451337 2.421997 0.9508369 2.5596583
909257 -0.5002464 -0.22626613 0.42892134 -6.160811 -5.7171702 3.1964774 -4.2062354 4.4819903 -5.2798715 0.70257366 -2.0379004 18.45649 2.2699416 5.902286 -2.420954 -5.672972 1.3342372 3.4465115 -0.26927847 -2.8631742 -4.0820155 4.503692 3.0457056 -0.3006128 3.9117126 3.6730554 3.9533293 11.783023 4.4917903 -0.7659766 -5.998344 -0.86203754 6.3054366 -2.623479 0.09230033 2.8695219 1.8143377 10.482376 -6.94923 1.615751 -5.0843883 -2.8685172 4.9951434 -0.95167273 -5.424843 -2.103832 -4.2251263 -1.2187774 -1.4368407 -0.76684827 -4.2659564 1.8326193 -4.8010488 -2.3439229 -1.4234457 -2.819642 -1.4358469 -7.132107 -7.217172 3.8089757 -2.417474 -1.0805439 3.900358 6.4161186
909716 -0.85240483 0.047311567 3.0157237 1.4778721 -2.115877 0.38418785 0.03515691 -3.136272 2.5702825 -5.703005 -4.021637 9.791594 -3.7137713 4.839803 3.4780698 -0.077214226 -4.313479 -3.5813806 0.82355434 1.7262318 -1.0765454 1.1092227 5.459282 -2.2893941 -1.5216726 6.9672647 -0.2340861 8.2069 -1.5786926 -2.709538 -1.6669143 -1.4967259 4.7927904 5.0412126 6.572578 -4.123887 -3.7276642 -2.2675278 -2.893853 -10.604216 10.846331 -4.14958 3.280953 -8.655266 1.5429121 11.595232 -8.385344 -2.9341016 -2.1084666 2.4651594 2.2891214 1.5746038 -2.2881048 1.5399739 4.772383 -8.541224 0.5870507 -12.451381 -1.9116553 12.694902 3.3280053 -6.4058237 -1.7554461 -2.1271777
905936 1.5558504 -1.9495202 -0.46330693 0.19542502 -3.5306225 4.1359973 -1.4336371 -1.13686 -2.0118208 -3.9228792 -4.2818084 16.688486 2.4391904 5.169841 -4.269407 -1.5931683 1.1296775 2.6037326 -4.5848794 -6.1923337 -4.4056416 0.9507679 0.8872158 -3.5757022 5.105814 5.2764893 0.9211442 10.358696 1.5158913 2.3123624 1.9433558 -3.1758378 2.2570124 0.6107882 2.940892 4.196253 6.250048 9.831907 -2.8314395 -4.949309 5.322646 -2.393296 -1.6602263 1.527312 -6.125199 -4.642516 -0.19993544 -9.475714 -4.3342233 -8.307571 -1.8155843 -3.492906 1.1035641 1.5839909 6.4986825 -6.048052 0.7916857 -9.22353 -6.6863065 5.3330183 2.1624746 1.1141696 6.5039926 -1.2444079
908440 -1.3835679 -0.9814176 1.1478556 -2.2080417 -2.5913568 1.8015785 4.2473145 -0.4409833 -3.1464396 -3.6445706 1.9422967 10.620599 -6.2318807 4.0633297 3.797139 0.62736875 -1.621657 1.4014083 -3.0529716 -7.3827395 -1.5596068 4.017948 5.8771014 4.044074 4.2628846 1.2086638 -0.73607975 10.84667 -0.26070508 -7.283297 3.783199 -0.29940915 2.8860998 1.1366856 1.5932842 -4.3825526 -1.400471 4.6175094 -2.727883 -6.4787545 5.4200954 -4.1169143 6.3702984 -7.7411346 -1.2217041 0.74388903 -0.81448734 -4.1194816 -0.796742 -3.4105341 -1.019928 5.3577476 -9.672033 1.6741382 3.6856914 -5.5932827 0.52661943 -7.1389956 -8.103255 12.125775 -4.7952867 -4.720103 1.572986 1.2803084
688027 7.2094526 0.21898952 -0.031525392 1.387592 -2.045784 9.662566 -0.7298412 3.969844 -4.0157766 -2.023156 0.16881101 16.592793 -3.0305374 7.259624 -3.3733509 -2.3936753 -8.631639 -2.527823 0.62018055 -8.965052 -5.431357 7.3094325 -3.3301408 -4.2789936 0.69068146 2.9031262 2.3727238 5.595966 1.1703904 1.8108544 0.9214901 -2.1609063 6.404492 -2.6710489 -0.7199849 -0.6829369 -3.2209616 2.1959305 -2.3213062 -4.3414955 -6.959462 -4.2440877 5.856308 -0.22466849 -3.3178205 -0.80756825 -5.8353987 4.4738507 -3.421357 7.8724294 -3.9975982 4.5255046 7.4517837 -6.3941674 -0.78606504 -4.893352 -3.162423 -1.7134452 -6.404219 5.344813 -3.335321 0.09327284 -0.48726243 0.9532156
910554 1.5878707 -0.6474431 -0.9991872 -2.5028715 -3.574911 2.4820018 -8.950308 1.829601 -2.3532763 -4.751894 -6.7193494 15.844362 3.8786244 3.0101516 -5.4125385 -2.4494941 2.8863761 -2.400275 -2.4800446 -0.8205714 -4.188257 1.1805835 -0.6578275 -3.9986646 -0.8729963 2.3540733 3.1892347 11.842795 5.8650594 7.2964005 -4.3193884 -3.818595 3.740324 -1.3090311 2.4008982 7.0995736 3.6120582 10.277532 -4.9874725 -3.8030596 0.5741836 0.1774135 1.2637111 0.12875386 -7.1128573 -0.35495475 -4.307525 -7.133188 -6.9424467 1.9787179 -1.3269945 -3.122973 2.2351222 3.3075078 2.3057067 -6.68232 -5.2817225 -9.214455 -1.4221296 0.97516483 2.3469427 1.4654305 7.2045026 1.2357461
906833 -1.6317143 1.8451947 4.8595233 -5.1865897 -0.46755213 2.7461896 3.1048555 -6.6215315 -1.6102077 0.7270085 -0.509269 11.782284 -1.485914 2.8028917 2.0044205 -4.238903 -0.7722705 -1.2161895 -4.2900553 -9.525266 -4.581476 1.6652077 7.740877 5.641318 3.8068902 3.9550123 4.247986 9.318355 -1.6632725 -4.284336 0.031318873 -2.9595284 4.349856 6.4936795 3.1872067 -7.3075814 1.9193244 -1.2535572 -4.904564 -5.2850447 1.4352499 -5.1267676 5.340842 -0.5454197 -1.5111285 4.7917037 -4.377962 -6.4487596 -1.8358879 -1.5325747 -0.42071617 1.4654279 -6.139453 -4.622455 6.6612425 -2.504598 2.045894 -8.866989 -6.1053867 13.40952 -0.88584054 -2.3117554 3.668387 -0.46818727
1303900 3.914267 0.43711078 0.18705133 0.65743506 -2.991648 12.357833 -1.37948 4.048218 -2.275512 -2.4587371 1.5063951 14.683201 -3.5864573 7.889348 -0.07424798 -1.0727096 -4.891923 -0.002637306 0.78943616 -9.412233 -3.9978788 7.703433 -4.6561604 0.49971852 -1.9495734 10.477762 2.1194644 7.5871086 5.935711 0.26481405 4.091622 -2.5353127 9.1663685 -0.41046667 -4.1408 0.65220875 -2.5322742 1.6900275 1.2333399 -5.950248 -7.531661 2.5169253 11.751381 -0.5828992 -1.0467685 1.4773805 -1.8699547 1.5704073 -3.165703 3.9549387 -1.1880037 6.2441854 6.0382767 -0.5639076 5.2936616 -0.5166456 -2.5842745 -1.2799984 -4.6162004 4.1952443 -3.257229 -2.3015587 1.2646391 -0.29101175
1290810 -5.9271555 -0.06453813 2.8281894 -0.97881204 2.7198188 -0.11153334 -1.6081084 0.86424863 -2.3674319 -1.3734549 0.2593868 12.456461 -4.3419123 3.6608052 2.7034335 -1.8263973 -5.9594207 -3.6264749 -3.0794 -0.72101 -3.2339954 1.5785801 4.3794074 2.385134 -0.0224486 4.860532 3.5127025 13.23451 1.4851012 -0.61552674 1.2373374 -0.05463229 4.239072 5.964323 1.1803771 -2.5041976 -4.743764 -3.973004 -2.036475 -7.544897 4.1833506 -3.0425644 8.170737 -10.926428 0.7469259 10.863078 -7.246361 -3.4784074 -2.6724668 3.459168 2.6393967 2.9386408 -4.0665374 0.33018368 -1.0430843 -7.0047674 -4.4390473 -7.7661004 1.1230586 13.5484495 0.89513314 -6.649319 -1.2876133 -0.6742826
909260 4.18992 -2.5218074 -4.536452 -4.2144766 -0.7403361 4.342382 -0.9017686 1.2725183 -7.8944936 -1.629926 2.3100488 15.951153 1.2187377 4.586688 -2.6419146 -1.0369376 -2.844471 0.97513187 -5.9350286 -10.13369 -3.9755225 4.713907 3.0774813 2.7712634 7.4725246 -2.5036066 -4.599297 10.702409 3.8178468 -1.4425973 2.5839987 -2.8432598 7.959996 -5.020249 -0.05461173 1.1978796 1.7748626 3.59111 -3.3056936 -2.0719683 0.20148179 -0.71301097 -2.5609398 1.7307651 -5.7844844 -0.061676644 1.4107523 -2.4804738 -3.9346051 -1.405949 -2.220262 4.3653574 -8.5475445 -5.9674106 0.91043365 -2.7143412 0.26924008 -2.3097107 -8.623028 9.993118 -2.55762 -3.2404048 0.30177277 -1.2472862
905961 2.8894422 0.245232 -2.6137986 5.033303 -1.4311148 6.2230334 -2.3783054 -4.561627 0.33204922 -1.7205384 -1.6638536 15.777796 -2.5321212 5.894942 -2.8090847 3.7450502 -3.139462 4.803675 -5.743614 -8.785092 -2.2668147 3.2180228 -0.048826437 -3.726648 5.350042 0.55304545 3.4385638 8.549299 -0.3456545 2.8494503 -0.5779107 -2.1985106 1.636086 3.477894 6.7709904 2.656608 8.95808 9.108244 -4.0295305 -4.167654 9.157248 -2.7076588 0.057766 -1.4982018 -3.692596 -1.9421511 -6.500801 -5.725729 -9.518226 -5.8107405 0.237426 0.47039852 3.3342576 5.2539744 2.831236 -1.7680721 -5.1322365 -13.703467 -4.745314 4.244592 -0.39440218 0.05177347 0.412994 3.3777404
1327774 9.661779 5.531115 -0.33642194 1.3455536 -4.9276505 5.109349 2.404675 0.2125541 -1.0742671 -5.858598 0.9457132 8.076873 -3.282618 6.376067 1.4940441 -1.6636168 -4.491744 1.205519 -0.86446816 -13.69994 -1.4795382 6.342813 4.879658 4.8414235 2.9403803 1.7106814 -3.1234522 6.9864845 -1.055338 -6.1795225 5.9723806 -4.561697 5.277847 -4.976225 0.31367877 -1.7733428 1.2929384 6.130561 -6.8026423 -5.848984 0.45913088 -1.732802 4.504444 2.838146 -1.2775956 -0.6485772 5.2687535 0.8603446 1.3528527 -1.7913066 -3.7968717 2.9651353 -7.6504045 -0.2434892 6.48001 -4.5033903 3.0714061 -7.966757 -8.234937 7.499369 -6.317095 2.590678 2.7170613 -3.850018
906793 4.730881 3.375513 2.4487164 -5.2253113 -7.8076987 7.2238207 3.5360458 -5.469584 1.5054771 0.18033788 1.5957581 12.368406 0.28875932 5.665642 -2.6938663 2.1135955 -4.9713926 5.4112577 -3.8899891 -5.504874 -0.5469968 2.7518165 6.454329 2.616235 2.971603 4.747665 4.8348894 8.598347 -0.034654696 -12.459201 1.6382709 6.084125 2.1996653 0.31469554 1.2230588 -1.2947495 0.026535226 4.8961496 -4.5108414 -1.08758 5.3328266 -2.1563797 4.8238 -1.4264752 -4.227813 -7.1341553 -3.080416 -2.3519719 -2.1307955 -4.2903967 -3.682313 -0.56357825 -4.896945 5.503618 -0.20789674 2.8884335 0.15635258 -8.916982 -11.445571 5.091811 -8.474148 3.136645 1.2393771 -0.5853599
1327775 4.5310707 -1.268375 -0.5917359 -3.0807712 -0.95558095 5.3170586 -0.1646472 -2.1710842 -4.148178 -6.802148 3.3023045 13.800071 -1.2575514 3.9343293 0.5883796 -0.26249725 -4.3977046 1.6557965 -7.0713696 -12.995955 -2.090904 7.2095556 2.9614959 1.9973096 9.114948 -0.147507 -4.0141826 10.535923 -0.88127357 -3.3363004 0.3039199 0.35328132 4.387695 -5.307082 -0.3627014 -2.9439943 3.5301812 3.012882 -0.5082671 -5.0485287 1.5599442 -0.8173671 -0.49594215 -0.5970174 -2.008492 -3.425166 4.145341 -3.8530107 -4.361631 -2.6304762 -2.8240614 5.9988227 -9.680179 -4.424642 -0.28305924 -1.947921 -0.052111637 -4.268922 -7.380017 8.866041 -3.4103527 -1.4341233 -0.4251854 -1.368568
949153 7.28991 -0.9531583 -0.26460928 -0.75647753 -2.0828624 3.1960695 -0.7978742 -2.6794674 -2.3219607 -2.3655584 1.4628508 12.578497 0.22662756 4.9665093 -2.231743 1.6340154 -3.1060126 -0.61375403 -5.0304384 -9.275554 -0.33546513 6.457999 2.343744 1.3190796 7.088578 1.4790832 -1.4642093 9.634546 2.68464 -6.2712483 3.1455717 -4.4987683 3.9897635 -6.495607 1.0826706 -0.63214123 0.80501956 7.356949 -6.1817694 -3.4348643 2.7529292 -5.186842 2.7548935 -0.06577908 -2.3689897 -2.8653457 2.0284975 0.8500163 -0.13544714 -4.458731 -1.6751751 6.7659426 -9.847681 -3.261404 1.468538 -1.6800189 2.8111458 -3.9217334 -9.479927 10.313785 -5.561048 -2.8206713 -0.30220148 -2.1014328
907282 3.7773988 -4.9322042 -1.2493224 0.61907226 -2.6414964 -2.9656544 6.2626915 0.27898526 6.3017006 -3.557015 -2.6245346 5.8564253 -6.88335 4.9561296 -2.8299506 -5.392014 -2.9853957 -4.5461125 -2.8979812 -9.918706 -4.827062 -2.8326206 2.711172 5.5618963 3.500456 3.7835846 1.089041 5.9820247 -0.64923155 -7.596569 0.074396186 2.928126 3.562677 3.2091417 7.509524 -2.4984584 -0.2585782 -2.7091165 -0.8322517 5.8427835 2.8565352 9.429265 4.8464904 -5.862014 -2.8330564 -2.873335 -0.008461556 -0.87138635 -2.3476748 7.8172 -5.5552154 1.251247 -2.2353048 4.666786 -0.39116135 -3.7381084 1.7971792 -2.6701686 -3.8137457 1.8639003 1.9971567 1.0110193 7.7324834 0.743766
907066 -5.864348 1.2169749 4.908253 -0.12012405 3.3456151 0.73075825 0.78354746 4.746861 1.4830252 -4.242166 3.1523862 10.9545555 -0.9695322 2.9279854 0.52256 -4.25237 -5.3614893 -5.8359604 -0.5061152 -2.2211237 1.5817113 -1.1042211 5.3193517 -2.9355693 -1.9374723 6.5336285 -0.2509368 9.356629 3.533973 1.6801227 0.824702 -0.9122586 3.4691286 7.573152 4.316282 -2.9474103 -4.4394193 -2.1216989 -1.1964227 -11.232218 5.352381 -1.3134587 6.9020553 -7.025666 2.3437433 16.335327 -4.9548287 -2.1066754 0.4676392 6.1986017 1.4161382 -2.878408 -0.8708106 -1.3782794 0.2597302 -4.7174406 -0.83712554 -12.243892 -1.2245493 11.268829 2.322481 -3.2345746 -1.8585486 3.6450477
949155 9.191488 4.7895985 2.1776304 -3.076937 -1.2323593 6.90967 5.140046 -3.3169854 -4.7322507 -4.776034 0.62043375 10.26868 -1.0843288 3.168541 -1.9257042 -1.302776 -8.50704 -3.015247 1.3395598 -9.665774 -1.659062 5.198067 4.039891 2.463881 3.6808207 3.7291994 -1.540841 6.821266 0.3216017 -8.856018 0.8664944 -3.821567 2.11218 -4.896997 -0.35062066 -1.7051016 4.174032 4.0371356 -4.928726 -2.735802 1.1041341 -3.8781574 1.5675807 -1.3793215 0.5585633 -5.9392347 -1.9798695 0.15024333 -2.1575162 -2.896251 1.1905769 7.615865 -4.992904 0.11440309 5.6073136 -5.011086 0.46140358 -8.8188505 -10.77474 9.784083 -4.725907 0.57209915 3.4604113 1.4857166
910701 2.2042916 2.3378673 4.1147637 -2.8150442 -0.75560933 9.041344 -0.5470221 2.9811702 -3.6442811 4.38149 9.235073 17.60419 -3.8442326 2.0885828 -4.91034 -2.2082896 -2.0882263 -2.7898018 -9.053429 -9.172529 -4.2404037 5.5935507 -5.3451843 5.323168 2.3797717 4.777516 -1.9877931 1.6438693 3.3563788 -4.6297655 -2.8497674 -7.525605 1.8011439 5.6844716 5.5256705 -1.861441 -0.86550164 3.700056 1.189082 -1.2169676 1.4969925 -4.0368304 4.8622627 4.620736 1.1534238 -1.213239 -2.8008385 0.03858677 -3.7889442 -0.78995216 -9.2872925 8.12646 1.1481352 0.50542367 2.1362894 -4.4034305 -9.551964 -5.763368 2.1890237 4.596201 -0.8452592 -1.8479282 1.5228184 1.5377268
749716 -1.0890208 -0.014662564 1.1189691 -1.2936049 -1.3732061 3.5876892 -3.8518586 -0.3629302 -3.4449997 -2.6839752 1.218037 8.114772 -5.0644984 4.958904 4.408345 -0.612797 0.09980455 -5.042978 -3.022622 -6.1410584 -0.44937807 8.66887 -2.180802 5.737855 -0.09484066 3.2479665 2.137378 13.163661 2.8858547 2.0593364 1.1646532 -6.484385 6.241498 1.7486801 0.8260145 -1.2257872 -1.1387128 3.0702305 2.310709 -7.3346515 -1.2401394 -1.4805279 12.457902 -8.816191 2.6179755 9.906256 -0.8788162 -5.6538463 -5.8331513 -1.7256163 7.7796617 4.1159077 -6.437476 -3.0042176 -2.5333552 -3.1549857 -2.630016 -4.803264 1.4644265 13.33907 -0.008779746 -5.7265353 0.04993628 -0.18101032
753574 -6.5074353 1.6138968 4.314284 -3.3123748 2.4558806 8.9866495 -2.6316733 -1.5518346 1.6703908 -3.0396283 3.8662202 11.4991865 -3.698512 6.1247215 4.7091236 -0.774601 -1.4791081 -3.2212179 -5.863064 -1.0244097 1.5315256 3.18572 0.4431495 -0.30469862 1.6389943 3.9020236 1.0852066 14.736982 7.234972 -2.001177 -1.7408319 -2.3193595 1.5265203 2.412428 0.74153703 -5.043191 -1.4755422 2.9724262 -0.7633697 -8.05759 4.9281983 -3.8384514 7.666519 -6.509886 3.686039 7.8138 0.3581279 -3.6699252 -4.9495416 3.7040222 2.2154572 3.0545342 -6.2023683 0.45320615 -0.9292773 -2.541577 -6.349286 -13.004771 4.401357 8.256728 -4.091249 -4.486476 -1.6703405 2.912989
907061 1.2452838 1.9175078 6.377928 -2.2074726 -3.0336127 1.1491536 0.059673235 0.6109475 -1.4132484 6.0177255 10.228485 15.258005 -5.527946 2.0632012 -5.112263 -2.557506 -0.4852135 -1.0457644 -9.554777 -9.054599 -1.9500062 2.4512377 -1.253881 6.9955573 3.9328566 6.6141047 2.425831 2.5993633 1.8558149 -6.251236 -0.6577343 -2.9736953 -3.475656 6.757214 11.194941 -0.92095095 1.8065436 2.7710052 -2.2645695 -0.48886055 3.2153907 -8.293733 6.7987585 6.0456734 -1.7515228 -1.2702918 2.599103 -1.1746039 -3.2903934 -6.9247904 -5.626529 5.2003503 -2.9972923 2.9700744 0.34914893 -6.0331583 -6.602174 -6.259462 1.9888804 4.199294 -1.0542966 -0.57375324 0.2224125 6.520269
1240193 3.3002462 -1.0338504 -0.50099444 -4.7503138 1.1085087 6.029417 5.2411656 -0.6906423 -5.7904706 -2.6762216 1.7507229 13.305865 -0.17831072 5.210587 -1.1407565 -0.6940976 -2.9757595 2.2740731 -2.1793869 -11.936281 -0.5248505 7.9585023 2.434815 2.8986533 8.328293 0.5349498 0.71261257 10.787571 0.6423318 -2.120966 3.4919972 -1.706708 4.6949115 -2.5629597 -1.4602821 -2.4309552 2.714529 3.8459747 -2.6697977 -4.0205426 -2.2815156 -1.3401194 1.5179818 0.077529274 -0.28663793 -1.5392034 -0.80080223 -1.3503795 -0.8837645 0.45197043 -0.3008126 6.5651903 -10.141706 -6.0984774 0.04614965 -0.8170064 3.1087978 -4.969607 -8.550281 11.384109 -5.9277577 -0.820343 1.4368689 0.982078
909703 5.2041106 -2.2021422 -0.4645055 -2.4455485 -2.1803112 4.5108805 2.017493 -0.43170676 -4.954829 -6.0029774 2.2796729 11.863268 2.2034855 4.720524 1.251974 -0.23228963 -2.794528 0.6382958 -3.9068563 -10.1279545 -0.9528423 4.974936 1.925719 0.5497854 7.9072385 -2.3529205 -4.9501376 9.465922 0.94922996 -5.67312 3.5473688 -3.132552 4.18396 -4.3302283 -1.6560597 1.1967403 3.9173322 5.438716 -3.9589248 -2.3519003 3.9088826 -1.6492872 1.6590233 -1.9312997 -3.6227994 -3.30901 4.1469555 0.48756784 -0.63634485 -4.3514647 1.2453736 5.298324 -9.474693 -4.1430736 2.851613 -3.2349257 2.863244 -4.6536517 -10.83307 10.85489 -4.9824677 -2.20878 2.7472827 -0.9620711
1330984 5.3422985 1.184869 1.3744011 -5.1143866 -0.9423622 5.659442 3.7786655 -2.7935603 -5.349426 -4.2345448 3.4945898 11.732294 2.5494375 3.6505272 0.25999033 -0.42863983 -4.763947 1.565647 -4.5267196 -12.209202 0.67079204 4.1679387 3.0494905 2.0780876 6.744195 0.78102636 -3.671276 7.4650283 -0.51749843 -5.3625402 2.0146935 -2.1345365 6.4392476 -6.005333 -0.13816507 0.5724248 5.5524254 5.5848365 -2.948317 -1.7261943 2.4723482 -2.5407112 -1.6285688 1.8546686 -0.9965758 -2.3834422 2.141537 -1.6884218 -2.8202817 -6.075542 0.14335132 4.768769 -8.843793 -3.5328515 3.8837895 -2.8180435 2.3958478 -5.7357273 -11.404353 9.343296 -6.1142645 -0.09550982 2.437032 -2.018009
1290922 -3.6239533 0.6818346 1.0750655 -3.5212686 1.2006837 7.641518 -2.6714501 2.4474444 0.9495674 0.23356259 3.5838146 10.914974 -5.802327 3.2916763 1.6091288 -3.3054218 -2.2319071 -5.078394 -4.7463493 -6.6053896 -2.3878186 4.1662436 1.9321873 1.7462287 -1.7285242 4.6959534 1.2780846 11.216253 4.6599803 0.1694093 1.0304451 -2.6029963 5.588579 9.241522 1.2899787 -3.9110518 -4.842606 1.4135457 0.7295225 -8.672324 -0.5742741 -0.69461656 10.908139 -8.624941 -2.7727087 10.563625 -3.09889 -3.3274825 -3.5708952 4.3704476 2.2812018 1.9558144 -5.875825 -0.6796315 1.7770916 0.618271 -1.0956585 -12.118505 4.883798 8.879297 1.3388715 -4.095463 -3.5287986 4.4414682
908141 7.7064424 1.8245251 -1.3680145 -3.579303 -0.8867798 6.0499444 2.9105437 -2.1209273 -1.930873 -5.6686397 6.010907 14.441032 -0.6495013 3.1675847 -1.8734872 4.8563533 -8.622494 1.0669612 -3.1818604 -11.532322 -0.1376312 5.4134455 2.64685 3.4759037 4.449065 1.681359 -0.0875903 7.564074 -0.89777726 -3.0650156 3.2636154 -2.7237222 7.2299232 -6.502156 -0.07783489 -0.8564615 4.7573605 5.039497 -0.54600555 -1.3124259 4.8700113 0.04487725 -1.0848739 4.687081 0.46037164 0.064077355 0.96062505 -3.64833 -2.8694048 -0.5985763 -3.0238743 2.324749 -6.4015193 -0.49335402 6.040526 -1.7396264 1.2117376 -4.2527227 -11.382649 8.51801 -2.6864855 -2.3612375 2.1835654 -3.7586117
910691 1.8938574 -1.9866349 -0.88153887 -2.6002908 -1.5553148 -1.6640352 -5.4159117 0.8590163 0.6717999 -6.691397 -0.31662324 15.525278 2.3671868 -0.086044125 -2.6117692 -3.9728951 5.1714697 -2.2062209 -0.65809864 -12.592093 1.8918506 1.0857171 1.4508202 1.3553195 -3.1002228 0.7949808 2.0792673 9.477589 4.143187 3.2598562 2.2688735 -1.1631638 5.159906 -8.789668 -1.9810125 0.41001225 0.50794417 0.09489019 -1.5058968 7.566597 -4.961052 -10.4679785 1.6103984 -1.9433485 -8.322663 -1.2183944 -0.8340679 -6.6408267 1.9526895 2.8491673 -8.097855 1.18561 -7.8403206 -3.7876441 1.8169316 -1.0798211 0.81139386 -1.4920881 -3.2471685 6.055229 -3.0075603 -2.4571002 5.169348 3.7090476
908481 6.5530314 0.85845894 0.18875922 2.1988423 -0.48098895 10.486825 0.20788246 3.2330225 -4.3625083 -2.2313163 -1.7048049 19.052917 -1.4260442 7.649934 -3.8869085 -0.56285644 -9.383062 -3.4269876 -0.88447297 -8.595447 -9.194968 6.7747083 -2.4333847 -1.5780843 -1.9111648 2.3402321 1.8261858 4.48533 3.6792812 -0.14071164 2.8663957 -1.1204495 6.0375547 0.24041063 -2.0125575 0.14651647 -3.7715747 3.370933 -3.712781 -2.4939928 -6.2153006 -1.3810084 5.7354474 0.54460835 -4.689819 -0.7684848 -6.3336225 3.8292987 -2.9475348 7.7529 -1.7588774 6.6989713 4.673818 -2.533046 2.4811013 -2.3959072 -1.742804 -3.1642623 -4.70345 4.562086 -1.8806682 0.91961133 1.2856779 0.48389566
1327771 4.436704 0.5797435 -0.33550635 1.3138226 -3.0806766 6.603515 1.4580396 -1.0951014 -1.0857008 -2.8121226 2.4394207 18.0408 2.088293 9.32004 0.10912889 -0.4312761 -7.472803 1.9816395 -4.7793336 -5.557845 -1.9276698 5.8982863 1.0711485 1.5614976 5.599654 4.953808 -0.02192129 5.4185452 3.3202162 -5.5364313 2.9451756 -0.6691539 3.8687942 -3.544396 0.730385 -0.27835006 -3.4828825 2.5090525 -4.221859 -6.127161 4.392446 -1.6733184 2.5583692 2.9256415 2.3331144 -1.2604303 1.4335686 3.7941642 3.8836932 -2.1656797 -4.2700357 5.5533595 -5.2326293 4.4185257 5.1806526 -3.5390704 2.6869307 -4.7163835 -8.630818 8.080829 -6.1979218 -5.5472107 -1.6062694 -3.9336627
907786 6.048691 6.486984 0.33206883 2.3588865 -1.7742676 10.67996 3.0930626 0.7384324 -5.019474 -6.981842 6.382089 8.17249 -0.26060727 3.6730084 0.6583269 -0.4512694 -3.3201492 0.28110266 -1.4495814 -15.248064 -2.4994328 6.990509 8.484512 6.8131404 3.0015383 -1.9108107 -0.25584868 6.4191723 -1.1987835 -2.3879557 1.2466547 -2.0140095 3.8043966 -2.5100577 -1.4719181 -4.855597 2.199374 3.3228536 -2.7977326 -5.807462 1.088171 0.09692231 0.099756986 -2.2374306 1.486683 -1.995511 -2.2178912 -1.8664515 -2.6370223 1.9517809 -0.39627835 3.8764312 -4.8393846 5.6613264 8.032359 -5.3314652 -0.661443 -8.564562 -4.6903787 9.189797 -6.130389 1.0657709 2.2494655 -3.5541081
910544 8.182208 -0.73116106 1.5308787 0.544284 -4.906147 1.4964074 0.41333547 -1.3235593 -0.029905487 -3.659772 -3.363042 14.486782 0.5797168 5.665346 -1.1153455 -2.0160902 -5.226593 -2.7856882 -3.8829832 -6.781676 -2.9356928 4.9323273 0.6241005 0.6286184 6.4551435 2.4801908 -0.14430988 8.424052 1.693785 -7.5306144 0.08135379 -2.4205317 2.7990048 -4.6390433 3.5097442 -1.802183 -0.43660292 9.081986 -9.416762 -2.277924 1.8595525 -6.414787 6.739933 -1.3376476 -3.016024 -5.0046463 -0.12106195 3.1456745 -0.6085354 -6.5308814 -0.93823934 7.6795216 -7.6907525 1.1977785 -0.82227266 -4.632397 1.4313169 -3.8553476 -9.505431 8.572646 -6.9356422 -1.8059983 0.0149288215 2.3748977
909722 -0.30798677 -2.886598 -1.6968855 -2.0742905 -4.6647983 3.4404902 -0.194492 2.0304317 4.129359 -5.586618 -0.9903789 10.815512 4.5369015 4.112261 4.6754637 0.008677459 -3.6960359 -0.2538406 -0.027811106 -2.6663501 1.2221324 -1.4448975 2.209512 -1.5275974 -0.7422479 9.735207 -2.513828 11.691331 5.684028 -5.5453377 -1.193047 0.055487934 5.6257906 6.4997888 5.2676177 -3.85992 0.47620517 2.3975487 -4.7712955 -10.741902 8.399939 -4.6087046 10.097752 -8.408971 1.8301399 6.6992345 -4.147622 -2.624587 -4.734377 -2.151182 5.132795 0.74381274 -6.159948 3.3508525 1.6821643 -5.359373 -2.8372436 -8.846247 -0.7276967 10.336217 0.5253901 -1.8169296 -3.1236496 -0.91468537
905977 2.706157 3.7494133 1.0048422 -3.4476745 -4.267363 5.7788615 -0.7770663 -1.7118944 -0.76902837 1.3509687 0.028526556 18.404112 0.37265998 9.355266 -4.55475 2.117679 -15.370703 2.827225 -3.6743007 -2.593343 -4.7286067 2.297402 1.8459866 2.7836452 0.17972745 3.4526045 1.4908743 6.018617 4.5770135 -10.093611 2.3968015 4.9317565 6.410684 2.446802 -0.15434416 1.8367407 -3.7814088 0.3511198 0.6080662 -3.5834224 1.8742151 2.6539826 4.111024 0.5049949 0.20463048 0.1692506 -0.77452314 0.3496945 -4.382279 3.5803657 -5.4167266 -0.5397167 1.8607658 8.244458 1.9300494 0.2827509 -1.075645 -7.94494 -9.335478 2.490796 -7.192913 3.3955162 0.9114939 -5.051473
749717 1.4149861 1.5900252 2.1967869 3.3902762 -1.4263245 9.147837 0.87391543 3.061614 -4.809941 -0.6964311 0.9105364 19.042093 -4.395496 8.047079 -1.2254262 -2.9585454 -6.5389004 -0.9844816 -3.4614406 -5.46605 -6.5240083 6.9779034 -5.448636 4.5352097 1.0572734 7.2304134 3.1153736 6.0020475 5.507221 -1.2030602 3.8134155 -0.56121933 7.111845 2.1211472 -3.4409466 -0.03916312 -3.3122652 1.7850171 2.5562763 -3.8809845 -4.579691 4.1679683 10.439442 -0.14941248 3.712641 2.6394947 -1.194649 5.237692 0.2189964 3.7192526 -3.2039049 5.6208525 6.9198627 0.39876628 5.1541624 -3.5305216 -3.2578428 -3.8948681 -1.5850991 3.637251 -3.1903596 -4.901434 1.9007096 -1.1426425
906877 3.0050783 0.3419468 -0.8067657 -5.1095657 -5.8011146 3.4440901 2.0416343 3.9671934 -5.188308 -1.1663903 -0.112158135 15.236167 1.8303857 5.162159 -2.8067572 -3.676365 -4.33469 -0.7626139 -1.7860887 -11.666982 -2.7879794 3.4638271 1.0263915 0.23181199 4.9153605 6.3469048 -2.4959254 9.628912 5.8671446 -4.080743 -2.6143198 -3.144259 3.5943296 -3.1032908 -1.3785032 -1.7429621 1.3640382 7.591547 -4.430055 -2.9098158 -0.03076598 -0.28679708 3.0616128 -2.8903348 -2.7766418 -2.0392463 -1.7975782 -0.3320781 -1.8957033 0.13723984 -1.2289495 4.01638 -9.139154 -3.1467056 2.1470883 -5.6180816 0.8239281 -5.2014174 -4.8214602 7.0826507 -2.9270608 -0.3692038 4.063818 3.4930074
910546 3.3057597 1.6786214 -2.855773 -1.3131218 -3.181539 5.6006055 2.0493886 -2.5617297 -2.62161 -2.9423854 6.1601253 11.353761 -0.57678217 4.862908 0.46134716 -0.17037623 -3.8832355 2.8536632 -5.8515363 -13.023495 0.25408632 5.316502 7.422324 6.977189 7.680417 0.47810683 3.5651083 8.391521 -3.9641767 -5.2991953 1.579944 0.23334374 2.3238893 -0.94088525 2.5627723 -3.2947109 2.6610227 4.352705 -3.5741093 -4.8517766 5.5139093 -0.2799408 1.6446471 -2.6927683 -2.462193 -2.3839636 -0.74459636 -5.453051 -3.8985286 -3.1741447 0.51540685 1.4953166 -8.114148 3.3463957 3.3351388 0.51993674 -1.9340485 -7.96371 -7.9406075 7.159076 -8.657092 -0.12583448 -0.5353745 -1.7198125
684059 8.096437 1.1218908 -0.40351987 -4.338291 -2.4686162 3.284613 4.1660533 -2.7312458 -2.864692 -3.700807 -0.054451916 9.470685 1.4832101 2.254208 -1.5737363 -1.0412383 -1.467766 -1.8178118 0.46654615 -10.005861 2.0021393 2.995775 2.815944 2.4050472 5.7248907 5.1767707 -3.120119 10.254718 2.7651231 -7.730812 3.1632707 -4.9989805 4.972421 -4.1149764 -1.2521178 -1.9115552 5.234545 2.8955095 -3.8995388 -1.5170931 4.3236103 -3.470548 2.3398473 2.2789812 2.5206685 -4.43304 3.475312 -0.33094233 -0.54894996 -7.2976646 0.86806196 7.393723 -10.855656 -2.7164373 4.0886693 -1.4494859 4.1088185 -7.239251 -9.775905 10.58824 -4.6597857 -0.61266184 3.1443713 0.37228966
1330987 9.203964 5.860089 -0.09172349 -0.50051314 -3.5663555 5.578505 5.954911 -2.0192688 -3.5514793 -6.019306 0.52077633 8.765141 1.8065691 7.427015 1.0646478 -1.3841524 -3.8529348 1.8085309 -0.202204 -11.859678 -0.48050767 6.437877 4.280698 2.2799804 3.7070308 1.4659587 -4.086921 7.7307596 -0.10384933 -4.414048 5.4086285 -2.193784 5.4196424 -6.001209 0.6881637 -1.6108998 2.710411 4.414542 -5.6239066 -5.2280707 0.62703127 -1.8934029 -0.87812316 4.2165785 0.1618079 -1.3382998 3.8900795 -0.12701969 -1.7416514 -4.1288414 -2.2876081 4.640199 -9.814954 -0.93472224 3.8168015 -6.8547277 4.329614 -4.0956936 -10.329303 7.969386 -4.7384295 2.4238822 2.8831286 -3.7996476
908457 1.328597 1.6813836 -5.568475 1.2809561 -0.9663445 4.7467613 -3.0259101 2.0133135 -1.7525263 -3.8217165 2.6476471 14.042806 -6.2149644 6.0477943 -6.2305865 4.2125807 -3.1942012 1.2887859 -7.5175877 -7.7628016 -5.973507 3.0775106 1.0266496 1.0130045 6.468705 -0.736176 -1.7708437 11.969681 -0.6833321 3.4845574 3.1502624 -4.015927 4.120398 1.5719869 5.0377383 3.3048034 5.3327074 6.7728715 -1.4740053 -4.0319858 10.737957 0.91641265 -4.637277 0.90113 -3.288807 -1.5233291 -1.2998028 -9.233093 -6.444959 -3.6211512 -3.7492652 -2.772372 -1.3792461 3.2640188 5.931617 -5.4116907 -1.0304224 -10.062163 -2.058937 5.5749826 0.6483981 1.2841611 4.769918 -1.4683635
930298 0.523075 6.5899816 3.8694947 1.4426639 -3.2538836 5.8848886 -1.0918597 0.15190645 0.0045438115 -7.0283937 2.201498 16.874952 -4.2217126 5.128076 -2.807404 -1.5076168 -4.8518076 -1.5909054 -4.743598 -9.157588 -4.546107 3.0886624 -5.13393 7.1978 -4.3420877 5.780342 -2.059848 1.3789037 2.0527377 0.29464185 1.19689 -3.6183667 3.7450657 1.0281149 -3.994631 -1.6388141 -1.9988515 -1.0638444 -4.1873317 2.5575578 2.4378245 -2.5077996 4.1510878 4.1121697 -4.690409 2.9570405 -7.2034025 0.82127935 2.4577498 -0.027483609 -10.7316885 1.2133919 1.2754837 1.253855 -3.7820716 4.006228 -10.241639 -0.46459737 3.1512504 5.3201075 -4.530764 0.9117563 1.8581135 8.153049
1503368 -3.0543592 3.104183 3.3239105 -1.02186 3.0560057 6.1237674 -1.4728628 -3.798278 -0.6123948 -2.3278148 2.2955635 11.101844 -3.1638646 8.124299 1.9284637 -0.6997556 -3.999359 -5.1754713 -5.8659244 -2.2860146 0.41963828 2.6768243 1.4673972 1.4343939 4.806614 3.110649 -2.9342165 12.962245 8.272763 -3.3673017 1.4036065 -5.8914604 5.504995 -2.143223 -0.5309257 -1.9415417 -1.3869393 0.74759614 0.09408267 -4.945181 9.756485 -1.6188176 2.0424635 -5.7756925 6.87421 6.580205 3.5950425 -1.4789209 -1.9711763 4.378604 -1.5513877 2.3781452 -8.32969 -1.9584156 0.057596512 -2.8136764 -1.6064081 -12.576771 -0.52938306 14.435326 -3.5993187 -6.1733527 0.375591 -1.8696396
924187 1.3642027 1.9129843 -5.1058965 0.03321937 -1.9185593 0.6261769 -4.711071 1.2042643 -0.34042197 -7.6985216 0.13351078 17.827208 -1.6401116 1.0682662 -2.1884382 -1.0474155 2.391419 -0.33602884 -1.9173574 -12.06569 0.6305407 3.187358 -1.9191964 5.505874 -5.7152214 -0.08524563 1.6058952 5.9283376 1.937368 4.3649993 2.8693366 -0.89114726 4.3834968 -3.3364308 -3.518459 -0.68527955 -0.20513383 -0.7060703 -2.275979 7.8198266 -4.0027485 -6.8209147 4.016319 1.0745682 -10.456567 0.21832918 -5.853634 -6.6938877 2.372794 4.1865335 -8.922478 -1.5904058 -4.9391294 -0.8970454 -0.16268839 -0.23287348 -5.3417845 -0.31463265 2.683909 5.220381 -5.8080273 -1.1424118 3.1022494 7.4301615
1240179 -0.43797356 6.8281894 0.9919268 2.8549905 -0.754117 6.1290593 -1.8656132 2.1876874 0.34369397 -3.8373513 2.7224214 17.86416 -4.0172844 6.156656 -0.7763913 -4.706668 -4.4077086 0.092625 -4.122825 -9.1820135 -3.815288 2.913494 -7.6644073 0.71756357 -4.4275613 6.5198193 -2.1561396 1.5421897 2.6121829 1.3342044 2.3758514 -6.7102294 2.5698857 1.9300777 -5.025641 -1.8562053 -2.6477406 -2.83405 -2.4076226 3.4462395 1.1518042 -2.8562362 3.6568615 6.313974 -3.3667183 2.4404519 -7.4712253 -0.339811 1.8058698 -0.6677198 -12.603367 0.57268655 5.7809253 -1.4415634 -1.8393279 2.730281 -6.372528 -0.2958484 2.3716033 4.577281 -6.253032 2.5560422 1.0571938 7.470204
724873 -6.1633534 1.3652353 2.5590026 0.55593896 1.6700038 2.8038716 -1.2000651 2.2695618 -0.46121123 -4.7940207 2.377699 10.29767 -1.8887539 4.33215 4.5664663 -1.2022569 -0.9320667 -0.49335405 0.29635075 1.7194823 1.205249 3.3221996 6.782504 -2.491085 -3.3901877 9.459099 1.8784411 12.843808 4.5000596 1.6516328 -0.18376176 -0.81197375 4.933399 5.3817406 -2.7828865 -2.1094463 -1.0807794 -0.45098388 -0.80133414 -10.818606 7.0495906 -2.0440214 7.683593 -5.8892393 -1.4692711 13.116054 -3.7357082 -6.4714713 -1.5775478 1.9243606 -0.3106092 -1.8235033 1.1490566 -2.7714405 2.2142007 -4.5346866 0.39800236 -10.248559 2.2425873 12.815585 0.6730291 -4.385302 -0.22194456 -2.115866
1298357 -3.882518 -1.6916506 1.3558706 1.8134902 -1.2567397 5.0327406 -1.5298296 -6.755794 0.99592936 -0.51061887 3.162965 9.367406 1.3929513 10.135573 -0.96899503 -3.6055462 -0.48132208 0.094026096 -5.547728 -5.4087663 2.891237 1.1685596 0.837358 2.7232122 0.61233366 3.1554372 1.8032274 4.707261 11.942635 -5.732773 3.8026402 -1.409524 5.699698 -3.357711 -1.4945096 7.2973356 5.212494 8.286586 1.3854045 0.5990484 3.17299 -1.2670934 3.925422 0.5458717 3.033428 -1.3932823 -0.39098936 -0.9208172 -5.2804704 -0.055203825 -3.9160335 7.1555843 -5.3904166 9.016617 -0.82487595 -9.360818 -7.22394 -9.157971 -0.74182665 10.405572 -8.72387 -5.341051 0.83508587 4.0881643
1331038 3.4489784 -0.7229948 0.32371053 -3.5756316 -2.263191 4.3432517 2.102741 -1.1998601 -6.166908 -5.9076166 1.5507863 10.9190035 0.5203392 6.7324147 1.969139 -2.168669 -4.5663595 1.6972661 -3.5732846 -13.991079 -2.2961981 5.3228507 3.0829005 5.0488524 7.6601343 -2.770627 -3.9460335 8.911074 -3.2569137 -2.600018 2.7847357 -1.837696 7.5410495 -5.1145916 1.4726588 -0.04781027 3.264866 4.3407717 -1.6030122 -4.5462604 2.9625556 0.51992637 0.9334363 -0.27930903 -2.273525 1.525317 2.5179882 -4.573568 -5.9635525 -3.0662265 0.03613505 5.70508 -9.93099 -4.252672 0.68126917 -3.006644 0.14471646 -4.095281 -8.60912 9.087247 -4.5322475 -2.190292 1.037202 -3.3398983
908445 -3.6128907 -2.600176 1.2685052 4.9584656 -0.028388204 1.0385181 -5.9146113 -8.6583 1.367489 -2.7449615 -1.0722784 7.481018 -3.8627722 7.867426 0.65447897 -6.8381767 -1.343311 -4.1878557 -4.565564 -3.1449904 -4.0668154 0.66397554 4.2142415 0.6124655 -4.3707495 0.33062553 2.8761575 6.9923067 9.374946 -2.728347 3.8813586 -4.562263 2.449988 -3.6452134 2.600764 5.948927 0.9485068 5.070615 -1.4138551 -4.088507 2.764648 -1.8678421 3.385613 -6.0974336 1.3441063 2.9386144 -3.3206234 -4.4314194 -4.477204 4.8391056 -0.02045777 4.678408 -1.694756 9.023478 -1.5007133 -11.810874 -6.196462 -9.862595 -0.96258277 15.02047 -1.100834 -4.0395145 0.47846034 4.131457
1240151 1.4634476 -2.77769 -2.2854147 5.213541 -0.92183524 6.890612 -3.7350562 -6.222296 -1.026942 -5.2003727 -0.7819439 11.575551 -1.0100614 11.132088 -2.8874147 -3.205294 -4.0914097 -4.243331 -2.9663177 -8.468637 -1.3307676 3.6155162 -1.2877874 -3.0959408 -3.804767 3.0586684 1.0096242 2.3303487 8.714971 -1.1737604 7.1591353 -4.244254 5.8635974 -2.1929667 -2.7715416 6.1652694 3.2108278 6.845748 -2.8870425 -1.1588012 -0.9960319 -1.9873886 2.2387445 0.86142045 1.1928736 1.7362136 -6.0993357 -1.398535 -5.4441586 5.716143 -3.5322533 7.081813 1.0454228 1.6807417 1.9307321 -8.910561 -4.7680955 -7.2965283 -5.6580153 10.533926 -4.969751 -4.6761193 1.400176 4.423045
906855 1.0002469 -0.97476643 -2.4414504 -1.9169067 -2.5880823 3.9582517 0.19154482 -2.7153444 -4.3965 -4.695042 1.654067 11.964341 -3.2961102 6.287465 4.655568 1.6206607 -3.4938319 2.8394196 -4.930487 -7.533697 -3.040193 6.952731 4.5918527 2.2806623 4.2977095 0.8909651 -0.56833786 10.193967 1.3647993 -5.1641636 0.5924774 -1.286036 4.752204 -7.34323 0.2966684 -1.6780587 -0.2027433 6.341879 -3.740122 -6.4404345 5.7134233 -0.4175214 3.9421558 -4.602924 -1.2391562 1.4510566 4.2888904 -5.2911496 -1.434086 -2.878394 -3.835849 3.2303092 -9.34233 2.302257 2.6906416 -3.655134 -3.7607846 -6.5799456 -8.275373 9.244741 -6.016575 -6.710947 -0.38405073 -3.431764
909724 0.5075439 1.855407 1.8895583 -4.6925406 -4.789611 4.9570894 -0.48531377 -5.882012 3.8240566 0.2963281 -2.7916892 11.977615 1.4083189 8.466402 -2.3547323 2.9211287 -7.886204 0.347724 -2.9611866 -2.760237 -5.980817 0.952241 6.5871196 0.7742894 -0.39434305 3.0502305 1.3862922 11.655222 0.5728198 -9.491836 1.9488456 4.2727194 3.6543946 5.579992 8.237502 1.6368824 -5.2913938 -1.6398315 -0.23923256 -5.185721 8.851623 -1.1073021 1.8462284 -7.2233195 -0.1455038 1.2310294 -5.485383 -5.8228674 -10.12996 0.94770086 2.798776 1.3075821 -7.7448316 4.673327 -4.9452605 -1.5402249 -0.118939795 -11.110461 -4.8028784 7.581307 -0.35576624 3.766751 -3.0881505 -0.90078247
906696 -1.8576568 1.9858093 -0.87657785 -1.813498 -2.7503378 1.529545 1.2860845 -2.470721 3.56898 2.7062304 -0.39728633 9.863432 -2.289774 6.029987 -0.34074938 0.76384324 -2.1026027 2.1437128 -5.664414 -1.9650502 -1.6007451 1.5049686 6.606976 0.9228654 1.6182255 6.490253 2.6165144 12.11881 3.8334 -8.7780075 3.1475408 0.55094504 4.846579 8.495156 3.4719555 -4.318948 -2.1736932 3.3207228 -4.737207 -8.055455 6.8400784 -1.8808048 6.1877055 -3.6878219 -5.4753237 1.2942774 -3.6638036 -4.674353 -0.67408764 -5.9043946 -2.9848754 -3.0293577 -8.472467 5.4262924 2.2489235 -0.8309437 0.058609802 -9.832729 -4.2510552 13.605722 -2.4652553 1.5998828 -3.6666796 1.5412762
1480372 3.145384 2.602031 0.35716683 3.4287267 1.8572595 9.548527 1.3852853 0.76566255 -5.04153 -2.734346 -0.05614677 21.58494 -1.0235788 8.48629 -2.5922492 -0.18795614 -7.4053535 -1.8514475 -2.918154 -4.3349934 -6.093581 7.8628135 -2.4716632 2.2184427 -0.38015822 4.8262734 2.9289126 3.1255183 2.6249192 -0.047258396 1.035438 0.17700814 4.9866357 0.9460672 -1.4535005 0.6027952 -4.6807094 3.0563266 -3.3616679 -2.4300535 -3.8700693 0.66042846 5.3215985 -0.011998909 0.27689865 -0.07164192 -7.1705356 3.61915 -1.2257648 5.5115857 -3.987412 6.937074 6.2817745 1.3389232 3.9557817 -1.2273515 -3.545183 -2.7926683 -4.063527 3.5590117 -3.672816 -2.2501123 3.5150423 -0.36745942
687561 0.5308612 2.4097471 5.2441053 3.302826 3.8687768 -0.76001304 1.1248287 -2.9058225 0.93642706 -3.274133 -6.7850914 14.820142 -3.0383687 5.78339 -4.081609 -0.71675795 -7.979235 -6.225431 -2.9344525 -2.687068 -5.3515553 1.4148616 7.126726 2.712759 0.32669318 4.0900464 5.530769 11.43372 2.2495952 -3.3320148 1.262736 -2.0426939 4.429879 4.851495 4.035066 -2.4026942 -4.6040406 -2.383762 -4.8532043 -5.4259534 4.6077476 -1.9839263 3.9947197 -5.54353 1.1365013 5.294606 -5.712685 -0.14651337 0.20873286 4.5647 0.30119473 0.68881035 0.27563834 2.0722928 1.2698958 -2.3107426 -4.2497253 -12.2268305 -4.618806 13.137691 -0.31553528 -4.0250616 -2.3929818 0.24242133
753531 3.692371 5.8691177 5.3917117 -0.051024247 -0.61891073 3.7856967 1.500158 0.9895881 -4.0970955 5.003177 11.351883 12.07726 -5.2337112 2.4288607 -3.5201716 -2.536906 -1.6618925 -0.03423212 -9.959419 -14.097785 -0.7937012 4.8036375 0.42283857 10.298541 4.1403084 3.3121235 0.14126918 0.822791 2.7864678 -7.7409115 0.7978973 -5.8112016 -2.0398633 3.9844704 9.375453 -1.3768573 2.8098927 5.908033 -1.6841867 0.81149185 3.572023 -4.493493 3.3210106 2.078256 -0.28227237 -3.9289942 2.6593823 -2.772515 -3.7288864 -6.130209 -4.532624 4.4651556 -3.9680312 3.6948826 3.909728 -6.204569 -4.7719326 -6.2404947 1.3612205 5.3942623 -5.158064 2.2678227 4.4126997 1.3940575
