981 64
1240127 -2.5940788 -5.9309797 6.5726156 2.8011315 -0.90485126 3.4880903 -4.6687074 4.788059 1.4674813 -0.7274005 0.38363013 15.3164835 1.3941298 2.3704817 0.30513453 -0.45812237 7.9447217 3.7729154 -3.6445565 -4.360638 -1.4713299 6.0441604 -5.5706916 3.3446553 -11.066632 4.312673 -1.8263359 10.363586 4.701099 7.760289 -6.6551967 -0.7737496 3.1133928 -4.493863 -1.9700271 -0.86180496 -1.290464 2.211337 -8.366416 -0.51127493 -7.3830833 -10.7415085 3.3270152 0.18223582 -5.5337453 -0.6262962 -4.3904653 -3.0639224 -8.218003 3.8991063 -4.3936934 -2.6896756 1.9032784 4.5446324 0.023761628 -2.8614457 -5.523616 -3.5623345 5.173035 5.438956 -2.506189 -0.8806747 7.6689177 2.8696172
906871 5.3698173 -0.33500943 0.5246637 2.3664474 -0.8582298 1.7259634 4.8222733 1.8195659 6.7245917 -1.13853 -0.6688888 0.41793486 -1.3609849 7.4821286 1.9602681 -4.98853 -0.7723967 -9.397992 0.80761373 -11.633024 -10.886602 4.4165664 -2.21495 2.201477 -0.0046260706 4.6055613 0.5932905 15.875101 5.305383 -0.84809065 -5.1604414 -4.4621096 4.665437 3.1308289 6.4546704 -4.914205 2.1385686 -8.023107 -6.222319 -1.3087431 -1.0739683 -0.3257278 4.432502 -5.667233 4.093923 5.467105 -8.460203 1.4695717 -9.655572 3.8145375 0.45295185 1.5325235 -1.5099294 -0.28129727 1.7707813 -3.9531527 3.6265988 -10.200959 -3.400582 9.44413 -0.89436567 5.168 3.2633135 2.1095064
1240208 -5.656607 -0.80751586 0.9047051 9.109088 4.2680817 1.1551986 -2.3562772 -2.6529915 3.9316728 -2.4421735 -1.4159083 7.761079 -5.642956 12.0090685 6.2979393 -1.8063588 2.7702453 -5.316999 -2.128438 -0.8917791 -6.7628527 9.654913 -2.7676818 1.5175947 -0.6179309 2.1306803 0.312706 12.536463 4.991444 4.951702 -3.171152 0.06709546 5.4225435 2.4155362 2.3918707 -5.9378443 2.6423676 -5.6162214 -2.9008806 -3.268537 2.9840274 -4.5287447 5.941695 -11.920262 3.4648457 7.133291 -8.634041 -1.818312 -4.032956 3.5058715 4.3160005 -3.105008 -3.5981364 -0.12541327 3.8755448 -5.0930605 -3.7572365 -11.405839 2.8959892 9.611665 1.4071217 -0.5398427 0.9946575 -0.54920506
907794 4.166636 -4.3695374 2.7433867 4.3142104 -5.9269233 6.868115 -1.8908572 5.608052 0.34684446 -3.1064594 -4.155705 16.801855 -2.880797 3.0077066 -1.198745 -3.4357495 5.0937366 2.8673441 -6.409062 -6.310263 -6.257086 1.9192268 -8.078734 -5.032577 -2.5136526 0.65714455 -6.4471703 8.61841 2.1737742 0.96962154 -4.3119116 -2.2399695 7.0903645 -3.323345 2.1666434 6.9610796 5.439646 9.35569 -4.770865 -2.3201811 5.3400373 -2.4984064 0.14010476 3.9204245 -5.1791 -1.9874285 -0.4859451 -4.3309665 -7.7890153 -2.927602 1.9614706 -6.685515 1.5637444 4.634932 2.1786113 -0.37726042 -2.469462 -11.3459015 -6.1762686 2.0980442 1.7457826 1.2745717 8.946452 1.7214276
905958 2.7351944 -0.23220353 -0.6993487 4.212986 -3.3311887 2.158966 -0.33816385 -3.1729805 -6.2876163 2.4955478 -1.5291646 11.484261 -0.8820379 4.989516 -2.8345993 2.1463416 1.8435345 -2.292218 -6.7564464 -9.97351 -4.7153506 7.2942142 -4.637707 -1.1797951 2.2247248 0.34264907 0.019921113 12.958344 3.5536911 -2.341091 1.6181341 -3.9733403 9.893432 -0.37386003 0.39469743 -4.246316 -1.2011274 2.3755527 -8.391397 -5.6347265 0.38828933 -7.1249776 2.7265449 0.6050055 -1.8333832 2.4238353 -2.1229036 0.9299176 -8.80364 2.3967564 11.017864 -2.0130868 -2.0033727 -7.3704696 -0.29339272 -2.8935277 -4.989828 -8.495187 -3.5026295 2.6876364 -1.1103103 -2.9026787 8.178309 -0.7940953
1659823 -1.2347785 -4.5924873 3.6343646 5.315061 0.08475555 6.1350923 -5.413095 4.7550526 -1.0977961 -2.5829647 -3.8513339 19.511292 -5.658909 5.8580413 2.7098255 0.40217 4.994024 3.866652 -4.650454 -6.1111927 -1.7728229 5.1632857 -9.312081 -4.6581464 -5.4051976 3.0949295 -7.4422398 8.137026 5.9114594 3.3492908 -1.1080867 -1.5632339 3.4098322 0.035183415 0.94450134 7.361206 2.8992844 11.892012 -6.8677783 -3.1622171 -1.2044722 -4.9240537 0.12825385 5.721283 -5.2567496 1.2004143 -3.2846005 -1.1376386 -5.879489 3.2727633 3.4299228 -2.7507668 4.8197064 3.0382922 1.4586848 -2.4201384 -1.3788649 -7.0078454 1.5829633 4.671799 2.5740266 -0.7077366 10.033605 -0.9962103
910781 4.061467 -0.12386606 10.182982 1.2009922 -3.9280446 4.237756 0.18716328 2.2448976 1.4572974 -0.05108593 -1.2544987 15.681664 3.4603574 1.2294375 -3.011157 0.17770866 5.0073905 4.1888084 -2.3317506 -6.886679 -8.173198 3.336518 -4.061169 3.9617257 -12.770325 -3.5967762 -1.0446637 8.300585 5.9471517 5.3746395 -2.282549 -0.7166981 3.439665 -6.719753 -4.4343534 -0.8667855 -0.4833516 1.3352757 -7.536411 0.52079296 -6.1622496 -12.021494 1.5393428 1.7945681 -4.332212 0.628313 -3.5689678 -0.32935998 -5.666278 0.7915515 -6.7971725 -1.498409 3.9181492 2.0499935 -2.8780324 4.689346 -2.7599697 -1.4358377 0.21340413 1.767673 -5.5096016 0.26348582 6.1823645 2.9199414
908129 2.3291495 -2.4278212 5.755202 0.5193756 -1.194168 5.752995 1.2012596 -0.2521052 0.04119311 0.9893397 0.8105151 16.39401 1.3775182 2.1568103 0.30460718 -0.8393473 0.8092612 2.0701826 -0.6218759 -6.760431 -2.869691 4.0085263 -2.6691763 4.6134605 -12.510465 0.625386 -1.0352229 8.478592 3.6433787 6.275221 -4.5997567 0.9202557 3.913387 -5.2453322 -5.125266 -4.113431 -0.6172327 -0.7125819 -11.030511 1.2946379 -9.5597315 -11.940881 3.2606018 0.5415543 -1.9604783 0.7341913 -6.197584 1.4600881 -2.4885712 3.2334194 -5.8442054 2.5076232 3.376585 1.2746097 -4.873699 2.296088 -4.746568 -0.2708945 0.81505245 5.199145 -6.2970357 -0.53878963 6.19708 1.8837427
906800 9.708473 -1.2460365 6.8149853 -0.23294704 -5.892278 5.596781 6.204609 -6.4488177 -3.2932065 -0.43875387 -1.2103381 3.1513977 5.200458 2.2656362 -2.8031437 3.2726321 1.0753032 2.0249672 -4.3139124 -14.0614605 -3.9084165 3.9262717 -3.7851303 -0.4635354 5.980761 1.8968619 -1.6118664 10.478046 -0.71431446 -6.2681837 2.9672093 -7.507464 8.282863 -2.8573947 0.6818427 -5.729519 -0.14400253 2.8480382 -6.745245 -4.614969 2.9286258 -6.091947 0.92747694 3.1855304 1.7183645 -0.2755971 -1.6505787 5.749794 -8.0136595 1.1958652 8.482654 1.4789438 -5.3413877 -6.9055076 2.6782892 -0.0900905 -2.8195622 -6.732743 -6.1532836 5.6986704 -1.5493901 0.36486033 5.301859 -3.0879078
907051 -0.23460642 -2.437072 5.286273 2.695199 -2.3199368 1.1061974 0.9700448 5.8803253 0.40091875 2.8386996 2.4791517 11.293608 1.9025835 -0.25218993 -2.9079351 -0.7960087 11.573698 6.236705 -3.358301 -3.786971 -3.7386625 4.2594905 -3.1620758 4.406287 -10.790938 -2.2038527 1.505651 10.738258 7.03336 7.297563 -5.7504187 3.2478607 4.272383 -6.002368 -3.8346856 -3.0134377 -0.6201972 2.626577 -7.4585123 0.38157398 -8.594561 -9.853776 -0.9734712 1.0178086 -4.7498016 1.9351783 -1.4036431 0.64105004 -3.9817712 2.426914 -3.9102645 -0.67735624 0.56055546 3.3783615 -1.3938538 3.6261036 -3.2603052 -1.0951132 3.9110472 -0.19511896 -4.2127514 -1.5066956 4.189462 4.5755253
907042 7.1350055 -0.2447789 3.6806302 3.4842067 -2.4472077 2.786654 6.0772014 3.9869747 5.249456 3.069218 1.1499635 1.8442826 -1.9636283 5.033536 -9.24564 -6.5012736 -2.0549097 -7.336082 -1.6935163 -12.176461 -11.495617 -0.5416728 -2.4187446 2.9552329 -1.560617 0.9976305 4.91038 15.271055 5.6542664 -6.892615 -0.37735182 -3.2484624 4.622199 5.100133 8.358401 -7.146169 1.041816 -8.451368 -6.0805078 -0.38108444 0.009384861 2.5981812 1.9189318 0.9669108 1.7847259 -0.83492273 -0.51498365 2.2099707 -3.7096977 0.05823362 -0.24750064 0.7875175 1.5344583 3.7419932 -3.0896583 1.0810679 2.7401223 -8.02805 -5.5135293 3.5629053 1.416124 0.9177706 1.7115848 2.6283107
687815 -4.3765516 -1.0675974 2.30303 7.7461047 5.41129 4.6049705 -1.6725421 -2.8503075 2.8150513 1.6818347 2.035358 9.758513 -6.0522676 7.4403706 5.344993 -3.8407514 3.8810115 -6.4498262 -1.8000915 -1.2361577 -4.0015106 10.26363 -1.1467836 0.053286828 -1.8805693 2.425337 -0.54963386 12.27379 5.1769333 7.8166385 -4.4083323 -0.1624562 3.5736384 2.823769 0.98429525 -6.6979823 3.8039415 -2.467876 -1.9132878 -3.975606 -1.227173 -4.4952993 5.6778345 -10.220468 2.9788005 9.523612 -5.4124703 -2.3533742 -4.224741 0.8585473 3.5487247 -2.686011 -4.693012 0.11848996 5.146999 -4.5519004 -4.0606856 -13.555165 4.453573 7.550993 0.45422426 0.3641714 -1.3396906 2.2197366
907272 0.7869357 -5.155275 -1.6712513 0.49324644 -4.4402833 6.620965 5.9767404 -0.6798367 -6.0235353 -0.71109796 -3.154537 10.664064 5.091278 0.34069562 -3.4268146 2.2382333 2.329389 0.7491356 -7.447675 -10.718301 -3.3585687 5.7504225 -1.8086082 -2.0430849 5.0643673 3.5330741 -2.343639 10.307398 1.9425075 -1.9252744 1.8335946 -4.234798 10.501312 -0.07238164 -1.0883008 -2.5397816 0.00021528614 4.0823474 -8.021649 -4.593851 0.3012145 -6.539786 -0.400393 0.685285 0.691763 -2.5126398 -3.6078773 -0.062171478 -7.655472 4.656918 9.630158 4.618327 -4.2168217 -5.7726974 -2.1597126 0.72203666 -2.7995589 -5.1058855 -4.701712 8.386571 -2.9332914 -3.0749192 3.847093 -0.11866723
909737 -5.445586 -1.6177067 7.0465674 8.985079 4.199504 1.386709 -2.259746 -3.7477744 0.4981023 -1.1311872 0.18389945 7.9828205 -4.9958086 11.100987 2.7581978 -0.42815635 2.5190294 -2.7995565 -1.5706892 -0.3709344 -3.377365 7.4733872 -0.80747604 -0.7516521 -1.1118624 0.50618297 -2.1565568 13.629949 5.4878426 8.0292 1.6075653 -1.9090873 5.3220186 0.73442847 -0.0042629302 -5.8087273 1.72424 -8.687271 -1.8598058 -3.9348805 3.682748 -5.2350073 3.1218717 -8.3462 3.30411 9.61249 -3.8550675 -1.9509733 -4.156274 2.8319042 4.7648387 -2.6544662 -3.3053594 -1.5778022 5.960564 -6.249267 -2.4345138 -12.910504 4.203986 8.328019 -0.5414177 0.6400081 0.5708314 -3.3044238
1298362 -3.856508 2.1765263 0.46151373 0.312268 6.9083896 5.684226 0.39957047 -1.574226 2.2819467 2.5330894 11.574564 15.712995 -5.365614 9.493147 0.14116937 0.33223462 -1.4714603 -9.775985 -4.559004 -3.2625046 -5.9997807 7.2097154 -0.21719952 0.7527612 -3.4340978 -3.267943 3.4676225 7.315912 3.1066408 3.312667 3.2666242 -4.554213 7.253698 4.295966 6.766231 -6.072981 2.1166127 -1.3404106 -0.093643725 -1.1788502 3.1004665 -7.2156725 8.052118 -3.0865445 1.271025 7.723258 0.54352784 -2.2467735 2.3339603 -6.605872 -2.942898 -0.4849695 -8.12331 -0.4221617 10.517864 -6.0685263 -2.21117 -6.477543 4.709311 3.912442 5.437347 2.497738 1.0580617 1.7883837
909735 2.4016838 0.86640966 13.445018 1.8024656 -4.7420654 3.8439968 2.5279963 2.7986214 0.049882468 2.5575082 -1.0575987 10.278474 2.6270096 -1.2862254 -2.8350942 1.6670371 6.5219245 5.3249564 -4.1026535 -10.280583 -3.8441186 1.4806986 -3.3252132 3.4576745 -8.452399 -0.0023657074 -0.2523481 11.200885 2.68031 3.2520254 0.062335946 -1.3095661 5.0762315 -5.7990108 -4.695647 -4.105561 -0.5822569 0.79550403 -9.87171 0.73008317 -6.962024 -12.22855 3.7974267 5.013943 -2.439388 1.7480706 -2.9166129 -0.58137006 -7.336067 -0.06640233 -2.5480394 -1.1240915 -1.6648629 0.2656864 -2.684763 2.6413405 -4.7037125 -5.524226 -0.26973072 2.4517412 -5.149981 0.3133206 6.9483466 3.4029584
910944 7.569869 -2.0362477 5.516546 0.8299988 -5.587498 6.643361 6.132827 -3.977088 -3.648148 -0.41311312 -0.73711646 7.215261 4.6034775 1.0235413 -2.5887926 -0.2980656 -0.43538532 1.9431368 -9.654568 -12.8906765 -2.7858026 5.6789627 -1.6988912 -2.8606353 7.653191 -0.95770645 -1.0536488 10.355418 -1.768836 -5.047464 1.0453022 -5.5572367 7.997952 -2.9162674 2.3031106 -4.329594 -0.7531863 2.9776363 -5.5385275 -3.7187452 2.8224664 -7.547142 2.408065 1.8961271 1.1921866 -1.4417956 -1.8412079 1.9179263 -6.14389 1.5941329 8.545904 3.015143 -6.924249 -7.4039025 -1.3360069 -0.6681552 -3.4506454 -6.3389935 -6.526409 6.996009 -3.7139673 -1.9268069 3.2260914 0.13483703
1331036 3.5437758 -2.4000373 7.1368027 -0.34151244 -4.608094 5.4542694 6.2050705 -3.237558 -5.3859506 5.443533 -0.97872895 7.90107 3.1898074 0.9541851 -4.559525 2.6645265 0.22134651 1.9246159 -7.40417 -11.627596 -5.5309987 2.9323134 -1.8992286 -0.9256384 6.0455365 -0.662922 1.0346794 12.442965 -0.098433666 -4.402018 5.8523226 -2.8916817 8.395747 -3.9399972 2.5227242 -7.0991735 -0.48197645 0.92823356 -5.7527037 -5.60421 0.9972763 -7.655496 4.4826016 1.5154405 0.77312255 0.42695108 -2.5482514 0.12819383 -6.8686466 1.261025 9.467336 3.310998 -3.211766 -7.5772038 -0.70418066 0.8255255 -4.8557167 -6.596184 -6.661341 5.399021 -4.489198 -1.1949083 1.8165851 -0.04311404
1323913 5.7623844 -1.8072649 3.124018 -0.0960845 -6.5217257 9.503529 4.2712774 -4.901423 -1.6507516 1.9858885 3.3830853 8.026834 0.99545115 -0.25004482 -0.3384207 1.2524993 2.0399156 2.446801 -2.0619779 -12.729725 -3.1657593 2.6057835 -0.4374159 -6.2762017 6.0270996 1.7539951 -0.8335388 8.461602 -1.880692 -4.095382 1.8303089 -2.7724066 8.626631 -1.4439613 -1.1930836 -7.079265 1.5350386 3.32485 -5.1391926 -1.7008244 5.6083617 -6.5358157 -0.52133286 2.7807994 5.32941 1.194704 -2.9335537 0.29916617 -7.45111 5.777405 7.3749323 4.2022166 -6.2190585 -8.251267 2.1266356 -1.8528901 -3.4749904 -10.849674 -9.369037 4.641706 -2.753117 0.25496224 2.391301 -2.2248366
1295740 7.0810337 -1.8980296 4.0722013 0.32150555 -4.489449 11.458156 6.829117 -5.143653 -4.998008 1.2848266 -0.37368965 5.2756367 4.8390574 -1.3392371 0.15195778 0.04482017 -1.0682929 0.9718334 -7.1119895 -11.992499 -1.5646744 4.608541 -1.9663407 -3.323472 6.5419064 0.32975698 -3.8340592 11.998949 0.58945996 -3.7563999 -0.1154653 -4.8234773 6.686624 -4.221828 0.54563385 -2.8831854 -0.61832047 3.638063 -6.5241137 -3.2231665 0.74260426 -6.9133544 1.7835437 0.72291857 2.959665 -0.37813258 -1.6403115 4.5831857 -4.9136515 1.8795873 7.557261 2.3383844 -4.690697 -6.9542665 1.1451995 -1.3921422 -2.4216144 -8.299489 -7.3393984 7.7823677 -4.8342695 -1.5920632 4.8033943 -2.2234597
908122 -2.3104472 -0.2544278 0.82766676 0.31680152 0.9372012 -0.5224368 -2.6426783 -3.876423 2.6327987 -1.5285436 -2.1936085 9.212606 -6.506786 8.40807 4.675432 -1.9087955 3.9582014 -4.4712663 -5.907446 -7.495642 1.1433309 10.079969 -0.94284433 4.268278 -0.87810296 0.8170512 -2.2006958 12.549165 3.3264835 7.259097 4.30237 -2.8850899 7.1117744 -0.056536485 -0.82317543 -2.1432831 2.9770477 2.706896 -1.4014354 -1.7935599 -2.7626135 -4.029765 6.777657 -10.584944 5.741808 4.956176 -6.04399 -5.8857427 -6.5056114 4.526116 6.3307395 0.0009804544 -4.4420424 -6.606738 2.6699886 -6.767682 -8.631639 -5.803165 1.6121833 11.860512 1.5905548 -0.6971985 -0.7922138 1.7766052
1240123 -1.3968393 -3.203529 3.1633089 1.5013516 -2.5035913 4.7759547 -3.1305554 8.201027 -1.9404486 -5.855737 -6.941945 18.113937 -5.1499553 5.27142 -2.9707487 2.199076 5.035616 1.4091456 -7.0705366 -5.323479 -2.5998297 3.5613718 -7.0516677 -4.9978614 -3.1698635 5.949808 -6.9042864 11.764777 0.089068055 1.2361681 2.7857993 -5.8328943 8.01182 -0.11747468 -0.8747333 7.588018 2.1812222 8.844629 -4.3989663 -4.2983103 4.00172 -2.4479263 2.3571522 7.2149987 0.29705083 0.12778586 -2.7134368 -5.026466 -5.0427957 -5.3222094 -1.3033266 -2.6117742 -2.1561394 2.6667752 3.0153575 -3.124953 -6.5852737 -6.7963777 -2.2515633 2.1972265 4.9412513 0.050379097 8.251189 0.5267212
908156 10.580074 -0.6792116 8.751506 0.2936442 -4.7915077 6.1255507 5.772104 -5.6726737 -2.4338648 1.3759762 0.23727003 2.8240077 3.414825 1.6457916 -2.45096 2.0306232 -0.6926541 3.9622986 -4.521929 -13.627493 -3.5107822 4.673108 -2.0748646 -1.6585859 5.531965 0.91526854 -0.91461843 10.034105 -2.2451792 -5.0908628 4.149257 -8.058937 7.398975 -2.9821484 1.8805783 -5.4048038 0.8438248 2.1959925 -6.021618 -3.9082935 3.4579177 -7.316387 1.6932983 2.789334 2.076514 1.1027989 -0.68106633 3.6127305 -8.431577 1.3010918 8.445657 1.9637015 -5.641238 -8.02241 1.8556542 -0.026506975 -2.8677435 -9.424714 -6.4080486 4.335627 -1.1571306 -0.89511645 2.9951725 -2.8607025
906856 6.1853447 0.9685139 6.5691977 3.5664814 -3.761042 8.39137 6.1420703 -5.466057 -5.30546 0.043611426 0.60447055 6.614712 4.464768 3.5003066 -1.9428625 3.0399473 -1.9421209 3.2408307 -2.9730132 -9.237518 -3.916221 3.3193958 -3.841651 -2.083256 5.984604 1.6853163 -1.7097757 10.709556 -0.473647 -5.8452477 3.8628306 -6.171019 7.7794547 -0.7464694 -0.7523233 -5.561384 -0.08611627 1.0807457 -6.553566 -5.9322596 4.0016236 -6.329223 0.2197006 1.3633703 6.9251 0.5189136 -0.9045252 7.928745 -7.0047956 4.06324 7.836203 1.5300312 -5.8029194 -5.689471 1.8321236 -1.5262874 -2.3772619 -8.284347 -6.7307715 3.620651 1.1649013 -2.4194727 6.344839 -2.8620594
909750 -0.41545555 0.28056207 1.1448604 7.2882867 6.2760196 -1.0878426 -0.98961735 -0.8279086 4.65403 -0.62528116 -0.8596425 3.0708652 -7.3099513 11.941741 3.133975 -7.353875 1.8072339 -7.69097 -1.8334284 -4.4953814 -6.702635 4.568144 -1.4799149 0.7276036 -2.8526728 0.54394335 1.702545 17.71768 5.4310975 2.5586202 -2.9454703 -0.5882467 7.513599 4.867892 6.1867275 -7.272025 1.7605017 -7.1367803 -3.5647633 -0.68458843 0.86429435 0.4597827 6.500614 -9.819625 3.1770241 5.8278227 -3.823413 -2.075461 -1.8625286 4.4280014 -0.5377767 -2.6482053 0.4157438 0.07791868 4.376439 -0.8446636 -0.5997214 -12.777757 1.8031011 6.842445 0.7963121 0.12354855 1.6389431 0.86116683
909256 4.6457157 1.2206793 10.150572 -1.4473218 -1.2015163 2.602135 3.173473 -1.4744226 -1.234734 -1.8712312 -0.33386657 5.039822 -1.1566823 2.5184522 1.3805106 -3.9845247 -0.5057988 -2.688022 -3.5511189 -7.58188 -1.298421 9.590804 -1.4366716 3.8138833 1.8871619 -1.64657 -4.769361 17.449207 6.1490335 2.5764358 7.436971 -3.9121838 8.09122 -0.32693517 0.7212383 -3.0466363 2.219736 5.1845503 0.704909 -2.1504056 -2.029096 -4.745059 5.537785 -4.9885545 2.4591534 6.6970005 -1.7923057 -1.5055523 -10.393764 2.5134943 6.918744 2.431814 -4.0749483 -4.2670937 5.8998737 -2.6271346 -4.143028 -7.7177186 -1.6734496 12.2316675 -3.1961944 -2.5188057 0.2720904 4.041376
906763 4.0780344 -3.0109615 0.22154564 1.9196217 -5.6001654 6.285965 5.7748795 -3.476604 -6.6481333 4.0787945 1.5366027 7.3311076 5.111264 4.0949016 -2.3215156 1.7932404 2.1375022 1.0907238 -8.393575 -13.665524 -1.9657922 6.4516883 -3.768514 -1.8568643 6.4082823 -1.0035442 -1.2822052 11.901647 0.6473005 -2.0486434 -3.5520847 -4.614903 5.594819 -0.9605641 0.315718 -4.5947747 -1.5907712 4.4609222 -8.983345 -4.311155 1.4309888 -6.867775 -0.42129335 -1.3672228 3.077245 -0.43968558 -1.516611 2.4726267 -5.4967837 1.0781896 6.877054 0.8774459 -7.7227817 -5.6989493 -1.772321 0.0072195623 -2.5095108 -4.8750496 -4.5654926 6.7060566 -1.959692 -2.6915898 3.9472547 -1.0609403
908139 0.7442903 3.1211941 2.978016 7.195446 2.7096474 2.3576436 -3.7009063 0.06630937 -0.558546 -2.6036718 1.8879454 7.5639706 3.6657085 13.167227 3.7911472 -9.758199 0.8817534 -2.0234919 -4.505908 1.0032277 -6.481394 4.177596 -3.328873 2.1496775 -4.395311 -5.6833687 5.120381 5.807829 11.354029 0.08852336 6.322006 0.81373096 12.173767 3.6504414 -0.021672543 4.5760813 7.3451767 -0.77483964 -3.673606 -1.4082386 0.44954586 -7.8847647 -1.1664388 2.9659681 0.22192697 5.0645165 -6.0015907 0.075216696 -1.9424449 1.55708 5.2472777 3.8802805 -2.442072 6.429145 6.148768 -10.817498 -2.4103854 -9.322866 -1.0434829 5.2081246 -0.5572825 -1.5769565 2.0779233 1.3089755
909702 1.6773431 -3.835013 2.6659105 -1.8096302 -4.1373024 4.896839 6.2037897 -1.8765979 -7.2589216 1.7902576 -2.5008163 11.239463 4.148922 1.0862422 -4.4219856 0.89995146 1.8242311 0.4301372 -7.0832806 -11.590059 -3.1085045 2.651624 -1.4733214 -2.957992 6.384405 0.4207613 -1.85407 12.578293 2.6938944 -2.99757 2.1319103 -4.1352243 10.802504 -2.1665297 -2.69986 -4.363358 0.366246 2.6542182 -6.8920083 -5.0687547 0.29896486 -5.720458 1.4975753 2.5103335 0.17654552 0.21643788 -2.381752 -0.24038427 -6.6143994 2.9450178 8.143271 5.7235355 -4.0334177 -6.9730344 0.72714233 0.21346809 -2.8541577 -4.988242 -5.482922 8.127786 -4.3775983 -2.3578656 2.7435148 0.74279463
907062 -0.26329973 1.8263977 3.6250126 -1.2024854 3.4476812 5.270758 1.7153534 1.5753664 0.8247797 5.1179466 13.928777 16.008478 -4.045446 7.1747074 -1.6117072 3.3587708 -4.097621 -7.813267 -8.471369 -6.160777 -8.316055 7.6902485 -1.9750441 2.4857054 -2.5339966 -3.788615 2.7899323 8.705773 2.9482281 -1.1648421 4.0640225 -5.1489964 5.2667646 1.6194924 9.137461 -4.8326106 1.5029261 0.046568487 -2.0619807 0.7372703 0.30254877 -4.955847 4.565626 -1.4627101 3.4564548 7.108324 -0.07698445 -3.1769447 1.3710353 -5.980647 -0.90840685 1.4056374 -8.853525 -1.6064987 3.7990706 -4.1122923 -3.2288694 -6.4352045 0.34136513 2.6841605 2.7844753 4.4447455 0.114010274 5.8443613
907055 6.880907 2.3203979 8.831995 3.2717943 -1.9086264 4.0605917 1.4122218 0.29126543 -2.213043 0.13393427 0.754368 7.9027615 3.9445496 7.2416553 -0.46909878 -8.3934355 -1.0440464 3.8919873 -3.9529045 -6.1185775 -4.4260225 5.5003667 -5.2384353 3.4040062 -1.6505435 -4.2761965 5.255361 9.090111 6.5923886 -3.863025 12.937284 -3.3277724 10.271276 1.3901559 0.32905498 -0.5425302 7.0756884 1.1859157 -6.442248 -1.2041774 -3.4021688 -10.237386 -0.13259104 5.3572416 0.77138674 2.2196712 -2.186849 0.5647149 -7.3180585 1.3950514 5.0795636 3.6654284 -2.7586756 -0.51504534 -0.0557797 -6.263959 -7.429082 -7.8725863 -7.0114636 3.664186 -3.7781618 -1.6840127 0.8284418 5.5172663
1331037 8.857481 -3.574937 5.127981 -1.1740552 -5.115312 3.91975 5.613101 -3.1688862 -6.9672236 -0.14816618 -1.0386035 3.0535767 5.072849 3.9310708 -3.6866086 1.9934676 -1.0097232 3.6549685 -4.9526243 -14.027169 -2.919296 3.6445842 -0.9939096 -1.6761539 6.2754736 0.15137944 -2.547267 12.512383 2.2811136 -3.5066166 3.8588572 -4.9947004 9.539706 -4.3340855 2.2355852 -3.7513082 1.2211272 3.3793614 -7.332874 -3.268892 2.9392798 -5.7760916 3.1731746 0.950632 0.45191097 -0.27633303 -2.0657523 2.6224308 -6.3399897 1.2983031 6.981691 3.3000774 -3.7987149 -7.421634 3.996019 1.0313582 -0.51306224 -5.427568 -5.6313457 8.354377 -2.425064 -0.32354668 4.6379104 -2.717779
1297446 -0.53296846 -3.8382082 5.2966247 -0.23512061 -6.047988 8.549746 5.0965867 -0.29549366 -7.148656 4.5051622 -1.828044 9.915207 4.1511416 0.51269567 -3.411542 -0.561903 3.6039848 -1.4151165 -11.533985 -7.6481857 -5.729006 1.4999734 -1.3347154 -4.040155 5.4096627 -0.051083513 -1.9605306 12.788795 2.1187007 -3.3458881 1.4288095 -0.86213905 5.897885 -3.824479 -0.45084068 -1.8264802 -4.002742 7.2565055 -7.0219035 -4.2489967 1.3084857 -4.8207994 1.8064588 0.0011743723 -0.50919163 0.90213555 -1.3401622 0.7969257 -6.591991 1.9403301 7.6169596 0.7067393 -0.36044767 -4.530234 -3.344921 -3.7594845 -2.619712 -3.950627 -7.3524075 8.995548 -2.329632 0.8425945 4.9502707 -1.1535821
910706 7.662878 -2.75203 6.092384 1.1348337 -3.2591882 5.965191 3.6022208 -5.0730643 -3.5793839 1.5438813 -2.1459537 2.8587453 4.6407633 3.7433515 -5.13232 -0.8341412 1.2900796 1.6797576 -0.17075498 -11.1273775 -4.4824386 5.396438 -0.9866728 -3.26156 7.336355 1.5708363 -2.7301872 14.582192 1.8502394 -1.2249839 0.7537734 -7.005455 7.565798 -4.0746264 -0.41588396 -2.231209 1.726776 2.208027 -7.198825 -5.481019 0.8050035 -4.7603493 2.0724502 5.145303 1.2508979 -0.33818275 -3.024708 1.9313263 -8.476109 2.1023307 7.3181334 0.2166822 -3.9506505 -8.933537 2.8788803 -3.3603892 -2.7706225 -7.656335 -5.295993 8.0021925 -2.7984743 1.2677515 5.605122 -1.5075569
909715 6.5205374 -1.0171452 6.8069468 -4.88997 -3.044713 9.004305 3.7943885 -4.177689 -1.2086346 2.3996658 1.6651752 6.7956905 4.756741 -0.085425206 -0.9562565 -0.68599194 2.545032 1.6731583 -1.8206843 -13.438872 -1.5950845 1.8747652 0.79533416 -5.0761795 5.294212 0.53715616 -4.718324 9.333132 3.08959 -2.8465102 1.8969324 -7.324139 9.111946 -6.158338 -1.3447922 -1.0740805 1.816885 3.7373505 -3.5675576 -1.819741 4.7838964 -3.332502 0.5725472 3.009617 5.0255055 2.430601 -1.4613221 -1.5113052 -8.95615 2.9098616 4.3375063 3.3234155 -1.7943987 -8.445 3.9800696 -1.6152714 -1.9984479 -9.717669 -8.416054 8.596253 -2.685262 2.2125204 3.3574307 -6.050386
753548 5.6478815 -3.063333 4.894588 -0.13150343 -6.550811 8.109837 2.793532 -1.9250748 -4.204984 0.67958283 -2.3329675 7.1796646 3.6279383 2.8352687 -2.1054132 1.6730657 3.3326144 6.003064 -2.8211315 -12.113221 -3.0572152 5.7753043 -2.0194993 -1.4846938 2.3912444 4.8250585 -2.9027376 10.461692 0.7734677 -1.7709334 0.11171808 -7.563392 8.736569 -0.77058685 0.6149459 -2.5395138 2.152361 5.7129436 -7.8291097 -3.3936548 0.6504457 -5.775692 -0.7231012 3.5131495 1.3475504 -1.5155909 -3.4027488 2.4593415 -7.120818 4.3591595 5.69093 2.074304 -4.853293 -5.006398 2.3254838 -1.8563505 0.37326285 -6.8390636 -4.213056 8.614913 2.5308192 -2.6796167 5.0748677 -4.3902235
908443 -3.229111 -6.548518 5.3062115 5.2081594 2.05103 8.066171 3.135098 -3.8497264 -2.0798564 0.99837047 0.4920735 11.908769 1.1910105 4.4850264 5.335221 -2.9003248 4.4518433 -2.1963851 -1.0934796 -5.928651 -2.0916202 6.754696 -0.8343177 -0.24112362 0.39528283 0.57306224 -3.2456894 9.82452 4.3499284 5.401013 -2.6204848 -0.22108652 6.853119 -0.8842623 1.393852 -8.6613655 3.6314049 -0.7162692 -1.8539249 -6.5306926 -1.2102665 -6.3688745 6.717481 -7.211504 4.2186623 5.638287 -7.0580974 -1.8395212 -0.6770398 3.0104227 6.9501405 1.2237763 -4.0672836 -3.0444584 4.393637 -1.9841748 -1.0291779 -10.978649 0.07871994 11.515569 -0.44105703 -0.6546273 0.76320034 0.5397879
1240174 0.6142299 -1.804534 8.485971 3.1450636 -3.3362508 4.3476305 0.15344849 5.613614 1.3956081 -1.5160998 -2.0935848 14.797335 3.0017316 3.0003974 -1.8301957 0.30766922 6.048821 6.2591496 -4.556832 -6.1840906 -2.9465373 5.166918 -4.0472937 2.3625622 -13.874424 -0.11448456 -1.4086714 8.953386 3.5369968 5.5048704 -1.9612463 0.52449864 2.3901243 -5.573161 -4.506815 -1.3033592 -1.4249005 3.8791096 -7.1439867 1.4215348 -5.9111476 -10.495159 0.71173507 2.379684 -4.5705576 0.52997446 -4.6494536 0.19566536 -6.264761 0.7395521 -6.4949255 0.9236812 1.591373 3.4232597 -1.6656896 2.2722158 -2.6825767 -2.575858 3.4543097 1.7744101 -1.6845903 -0.38349247 5.05892 1.4622871
905984 10.844302 -1.390977 1.2811097 1.614467 -3.825129 6.1445565 4.0818825 2.6926537 2.0073233 0.9690343 -0.5678554 5.428742 -1.1195778 2.936579 -2.6452134 -5.3438363 -5.9214125 -8.816393 0.5463666 -11.425642 -8.451395 4.070979 -3.121057 2.7746885 -1.6881888 3.7621233 0.4563985 13.975341 5.4733877 -5.124773 -2.857315 -5.893417 4.0250144 2.044737 9.932817 -4.5095334 -1.776528 -5.550887 -6.6426888 -0.07916436 -4.555925 3.3651807 4.537634 3.6713605 -1.4520772 2.6772678 1.19219 3.4620304 -7.088132 -0.3651242 1.9959303 4.863516 4.7790747 2.0410702 -3.7020953 0.19583562 5.185671 -4.947087 -5.4856324 2.8074727 -3.204559 4.399194 6.325106 -0.2620082
1240204 1.8148047 1.7107666 2.870502 1.0574651 5.589568 5.5537086 2.0947132 -1.1495262 0.117661096 3.4472017 7.9656334 18.213787 -1.9558792 7.2327332 3.1309466 1.2384909 -3.989132 -7.390921 -7.681868 -4.4421964 -3.5245042 10.0931635 -1.7453988 3.0382695 -2.433997 -2.4346662 3.0654378 6.4035797 2.2757242 -1.1581303 2.7452006 -6.749045 4.7272234 3.82173 9.372526 -5.4441833 0.28472832 1.1477807 -1.7674717 -1.0714412 -2.9207108 -7.9953804 9.362665 -2.2762902 -0.83097214 7.8168516 0.8791152 1.1361835 -4.6460657 -5.747457 0.5950415 2.2229483 -5.4261546 0.20299199 3.9238122 -4.8992667 -1.4832301 -7.2090545 2.052543 4.1898417 2.9816427 4.0868325 1.5381664 2.2652223
1330947 9.549643 -2.9875164 5.2479563 0.3827178 -5.3077607 7.90709 4.4216714 -5.191456 -1.7360631 1.8053944 2.3749928 6.13015 3.18966 1.9601672 -1.9926254 3.0786383 1.3076273 3.3043103 -2.040779 -14.552749 -0.9945451 4.220335 -1.4614749 -3.6110888 5.9157763 0.28822708 -3.1115084 10.382009 0.12046342 -4.5746064 -0.48124406 -8.292422 7.9226747 -4.520736 0.92011344 -3.4768004 0.9337168 3.3419285 -4.9947605 -0.9580276 4.3327675 -5.2655964 -0.99560964 1.693692 4.6972165 0.46657783 -1.1253775 3.790754 -6.889338 4.5376244 7.4548564 2.9360042 -5.038793 -6.7688694 2.1671758 -1.8456081 -1.1572195 -7.249566 -7.7091527 7.5011406 -0.29356098 -1.2221521 3.2915196 -5.4558477
949154 -1.2259248 3.457547 2.5705392 1.571026 0.4387303 1.7533698 -2.955077 -4.6254363 4.4814115 -3.3232458 -0.9967049 15.8889475 -6.2946744 5.1802216 3.3369362 2.8468406 -1.894132 -8.124634 -6.040406 -3.31059 -10.855323 5.544425 -0.6937841 2.130632 -8.148875 3.662731 1.7065872 9.103039 0.10097685 6.4761505 1.7668755 -2.606628 4.489808 -3.1929038 -3.8874843 -2.3405786 3.0899167 -6.9516287 -7.631074 2.3218067 -0.4089301 -7.8477464 6.6985292 -3.5231607 -0.21294886 9.457746 -7.861053 -3.6607854 0.30047858 -1.6727607 -2.8985777 -1.5499732 -5.1991153 -0.92400867 1.4842674 -2.6745746 -4.7702484 -1.7131516 4.458441 10.067402 -2.6938775 3.9964595 1.1868645 4.009289
908442 -1.5368545 -2.1673558 0.53189105 10.354789 1.2846451 1.913231 -5.446146 1.6564792 3.4229126 -4.150316 2.5781496 13.23679 -8.326814 11.609748 3.9328394 -1.275261 1.2670275 1.4141767 -2.9342582 -1.2832718 -4.931982 6.9841623 -5.0357847 -4.1991477 -1.8262011 -3.4474456 -3.2454858 11.7634535 2.7693362 3.7892807 1.5212705 -1.2449782 10.04674 0.5187936 5.1077156 4.713084 4.745574 3.5977075 -1.9761298 1.9564217 7.723502 -3.1389024 3.9272835 -3.8554263 0.8257 5.8385143 -3.1330526 -5.4131727 -0.94442326 -1.69411 2.6073508 -2.419073 -6.2860026 2.4012873 4.077895 -1.7031742 -3.3205783 -13.855292 -0.81168836 1.4243188 4.7283235 -0.5609802 5.15146 5.002262
1331034 9.007755 -2.380871 6.143317 0.78025174 -5.2979536 8.20762 5.2684402 -5.144414 -6.664722 1.5494297 -0.7142001 4.8753986 5.652067 3.6702418 -2.56312 1.5567771 -0.8949901 4.125099 -4.138554 -12.350394 -1.8742872 4.3857284 -1.2712309 -2.9298918 5.8547015 0.18243752 -2.2754035 12.285094 0.8916059 -2.433651 6.0392203 -3.65813 8.571427 -3.9820025 2.7761314 -3.1404374 0.9599106 1.5483502 -5.2166567 -4.2285085 2.1060228 -5.7662063 1.999721 2.3517764 0.5050376 0.12522939 -1.593082 2.4787693 -4.825478 0.735815 7.455832 2.882661 -4.711898 -7.645325 2.1660328 -2.1390514 -2.124132 -5.491308 -7.4106545 5.963008 -0.75929487 -1.1734155 3.405734 -1.0302837
909698 3.3883479 -2.050409 4.9901423 2.7075913 -4.1186337 8.630117 -0.5766837 4.151487 0.4656385 -0.13204618 -2.0444777 12.378686 -0.07072623 1.5626765 1.0090483 0.44843724 0.33854213 4.5700893 -5.1541686 -8.91353 -2.6292875 2.3458943 -8.532119 -3.5304236 -2.3690398 3.037243 -6.1360545 11.893608 3.1777651 -0.077793635 1.7881645 -2.9197628 6.3698764 -1.1927587 1.3934605 5.0475626 0.78509474 8.072877 -5.943125 -1.3017063 2.5594797 -3.519676 1.4686748 6.94615 -2.064107 4.399908 -1.3960212 -1.2846109 -12.715435 -5.364637 2.7450485 -1.9384661 -2.222835 4.4046397 2.0494113 -0.7549882 -5.172333 -11.898167 -2.1526532 -1.0631968 1.03099 0.48370802 9.157285 -1.1165643
1240189 1.965959 -5.57326 1.4791692 2.8555431 -1.160015 11.182486 4.2886124 -0.795375 -10.220486 -0.45499298 -1.9174783 13.210894 -2.3507807 5.0301924 0.9356619 -1.6861014 -4.816216 -0.14074641 0.44690275 -5.621273 -2.7785707 2.9194689 -1.2716857 -3.8038282 -1.0453413 4.1440725 -3.4002404 12.181484 4.7301664 -4.4274483 3.1189513 -2.1452749 6.9494376 -2.4323595 -0.39354873 -5.7264776 1.4633151 5.4225216 -3.2011542 -7.312716 -2.8515103 -1.7688093 3.0143182 -2.0798671 5.569655 0.11787044 -1.1915976 4.6664057 -2.0825255 7.5551114 2.5816386 2.9185064 5.85449 -5.156054 3.7390625 -3.3021808 -3.6356711 -4.6227484 -4.6997347 8.729683 0.9035859 -2.1216218 3.036781 -3.4673944
753595 3.0012405 -1.5744474 2.4279876 2.7378535 1.767455 6.929505 0.6491514 -6.2317324 0.7391372 2.7657511 2.7335532 10.460533 0.53825647 5.6364474 3.784825 1.0527241 2.726514 -3.3706517 -8.842454 -9.565316 -5.787704 5.2869735 -3.3510551 -1.4121631 1.2749151 -2.8341506 -2.9783208 11.25206 4.1902122 3.4064682 -3.3631306 -0.8714119 4.921262 -5.355912 4.5286226 -3.0543964 0.89759386 0.40239242 -6.1495614 -3.782375 5.3373284 -3.6039915 0.24379057 -4.836679 4.412414 6.0459204 -4.2265162 -1.1782999 -2.515066 -0.33897054 8.917025 -5.476918 -5.524849 -1.566257 5.1504474 0.22219194 -1.0205885 -11.947744 -1.1958834 9.398273 -3.8552766 2.5775461 3.946786 0.56434095
905952 4.402513 -1.4550792 6.4018764 -1.0609941 -6.4317374 5.184812 5.3658166 -3.4314091 -5.951131 2.1554735 -1.2028935 8.565365 3.3654692 3.414172 -5.023515 1.0691026 1.9962246 2.9664135 -5.7425976 -9.6614895 -6.1546464 4.7591186 -1.680746 -1.774915 5.3907537 -0.5009986 1.6002233 11.000122 1.1343551 -4.3131633 2.5779092 -4.473688 9.597401 -0.3104235 1.9880303 -6.279701 -0.057618804 2.2309678 -7.647446 -5.8768754 0.5247624 -6.165685 1.0273142 0.67706025 -1.5725284 0.044589236 -0.69901377 2.370597 -6.877805 3.1786923 9.325869 2.0209057 -4.314362 -5.329739 -0.7952234 -0.25949252 -3.1060827 -4.9500093 -8.606918 4.1425076 -1.0650247 -3.1686926 3.0767424 2.170393
724839 1.1725574 5.483035 4.6316915 2.0628438 -0.11663287 1.3857169 0.51172185 -7.011245 -0.1550103 -1.7239752 -1.0014229 17.726456 -2.421049 7.198524 1.8580045 3.4113462 -2.1855595 -4.319881 -5.769121 -7.0963635 -9.1197815 3.745302 -1.2122678 2.7378738 -10.825873 2.2446027 0.46099272 6.487019 0.60110706 2.9351475 3.2298582 0.50497204 5.395939 -3.223069 -4.1454105 -4.3660855 0.15192975 -5.1120734 -6.303413 5.3569183 2.6283226 -7.8255672 5.1949024 -2.7618043 1.0345782 5.8374343 -5.117157 -2.6969419 -0.28822088 -6.8670897 -3.1142745 0.36144358 -5.5369515 1.9366146 -0.87220395 2.002578 -4.750163 -0.5307487 3.5963376 5.970867 -2.1675751 4.8222623 1.1395686 3.09435
907048 -1.3428091 -0.7734505 1.1388222 2.2686512 3.2053735 5.178884 -1.6263208 -2.492187 4.424402 -0.1330722 -2.6024158 6.2249775 -5.19597 6.010341 3.9215431 -3.6488702 0.65248 -5.5750723 -3.0907385 -6.2159777 -5.678424 10.886469 -0.94213295 3.2690568 -0.6979538 -2.1735384 -2.1425931 11.714704 6.8687687 7.22941 1.8286377 -1.807678 5.968981 0.65646905 0.8865096 -4.608312 4.512157 0.42410043 -1.56983 -7.8143687 -7.542474 -4.497994 6.549417 -9.8473425 1.935243 5.0969944 -7.2600307 -1.4856815 -5.3171864 4.9039583 5.4769373 -1.6342014 -2.5722473 -2.8915665 0.635197 -5.488804 -3.567243 -9.106127 0.8060946 12.659796 0.05448304 2.9841986 -2.0743413 0.030006927
906824 3.9618375 2.7388537 8.50237 -2.8619947 -1.7456524 2.807008 2.287061 -5.5379367 -0.6289319 -0.006391235 -1.7008922 17.590157 -3.0277991 3.1773934 0.77011293 4.04508 0.1394602 -2.7393699 -4.684983 -8.9120455 -10.8735695 3.6510725 -1.1256797 1.3294544 -6.7464743 1.7521733 -0.8942461 9.048906 2.403044 1.2296363 6.3153815 -6.353719 5.2793407 -8.703884 -2.7535853 -4.555191 2.488471 -3.8693748 -8.5485935 3.1469717 1.3140231 -7.048721 4.513102 1.4131767 1.7977221 6.1894193 -4.703101 -2.6215866 2.1201968 -3.220131 0.32567447 1.5929235 -3.1133215 -4.9183335 -4.65434 0.78438884 -3.1897004 0.988584 -0.44310904 8.346104 -3.1833346 4.32795 4.3232226 2.8521125
909252 1.4078364 -1.7489853 8.176 0.4783793 -1.5557046 4.724386 5.171303 -3.352874 -4.6851673 3.4657063 0.096976995 8.838749 3.5735393 2.6757376 -2.6467028 2.350636 4.339453 3.5255098 -5.0781755 -11.385389 -4.3526454 2.3616838 -1.6766801 -2.5059352 5.7409234 1.800255 -0.3953817 10.392542 2.5739348 -5.3546796 4.5663166 -6.2733 8.130856 -2.298775 -0.5908755 -5.1286416 0.7683678 1.7406994 -7.238363 -5.296893 2.7872148 -7.2186418 2.9232767 2.0815248 2.5211267 -0.7800481 -2.082347 3.8021412 -6.3541617 3.2563157 9.005055 2.7674623 -1.8556548 -7.4113045 1.1243924 -1.0655482 -0.19648503 -7.1573076 -5.564883 6.4973183 -1.4828211 -3.4258134 5.454026 -1.2962376
908158 5.3138833 -0.8583078 8.8817 -2.3342261 -4.3972244 6.8214283 4.7087965 -4.394727 -2.6189053 2.1424804 -0.948592 4.198188 3.286593 0.32638592 -2.4579988 -1.1260886 2.6447904 5.0342555 -5.591657 -11.3576145 -2.2913554 1.0541277 -0.39731643 -2.8420894 5.7220235 1.6322373 -3.7519422 10.548808 1.1112522 -4.536376 7.246796 -7.318908 7.202408 -2.4503336 -1.2715198 -1.8597642 1.1331486 3.4951406 -5.730933 -3.751281 2.3077884 -7.473206 0.8067126 2.9032483 1.1679022 -0.019066125 -0.83836 1.7228414 -8.589394 3.3370872 8.872041 1.8065563 -2.299024 -8.739428 2.5285516 -0.5420019 -0.93053764 -9.498381 -6.304327 7.301336 -3.4111154 -0.6505475 3.1491516 -2.5354755
908134 -0.5044598 -0.3834522 7.447459 2.8659072 0.77256894 2.8744829 3.8741238 -4.9108257 -0.39415333 0.14851822 0.52007276 6.5837865 -0.4790033 1.0195616 -0.52922606 -1.978292 4.963012 -1.4799844 -1.301911 -2.673213 -4.241471 7.773075 -0.48624772 0.6129154 4.2299104 4.629316 -0.72618526 10.312826 1.4690211 1.7011281 2.4498196 -2.4562461 1.3215935 2.9198408 -2.1215696 -11.265895 5.2441564 -3.8449302 -5.780102 -6.0185423 0.14905536 -9.650878 7.2191343 -3.5762088 6.008932 3.8454945 -8.321131 3.8216472 -8.929586 2.094383 10.175911 -0.9711301 -5.009113 -6.279903 4.8826566 -7.2418995 -2.685053 -11.463326 -0.5581511 9.8007965 -1.6053452 -0.16089982 4.749926 0.628525
910710 5.195989 -1.7235264 4.1090703 3.118632 -4.33193 5.6657457 5.9081535 -3.6523805 -5.4337716 -0.06752596 0.67977077 5.980245 2.0454607 4.4653215 -3.5370355 2.259121 -1.6962142 1.3778204 -6.357663 -8.92003 -6.152103 5.4819283 -4.8042483 -0.45422837 6.916616 0.14814194 3.420815 12.670804 -0.9778474 -7.137253 -1.2648066 -4.6426706 7.630671 -2.3914857 1.2477486 -9.37561 -0.38633084 1.2713008 -7.890613 -5.0644536 3.9695177 -5.957843 3.1765933 0.66433 2.739704 -0.79908884 -1.9275533 7.9722934 -5.263138 2.630438 8.419445 2.7236922 -6.6307664 -4.0966277 2.2142322 -1.9645416 -3.7676096 -4.713378 -3.6601648 4.614015 0.53924924 -5.818806 5.8380055 -2.258891
909718 0.375672 0.46484473 0.74162245 6.8311124 0.67756224 3.4475367 -3.4681616 0.9371737 3.7179728 -2.5838964 -2.2839193 14.071995 -9.872918 9.639953 1.8350974 -3.3820312 2.0927799 -0.3804444 -5.978392 -3.1924696 -3.8900478 5.1948643 -5.9006376 -4.8074956 -1.6918446 -0.0003538606 1.0086406 13.302317 -0.44473922 1.849892 1.495029 -1.3933898 9.885609 0.9930386 0.4065229 1.6819944 4.649535 4.909464 -3.2569728 1.2722081 11.068046 -2.4459937 4.8239784 -0.27799046 2.5633547 3.8136244 -2.2296195 -4.6177273 -3.7236116 -4.312814 2.762763 -1.9750459 -3.6393833 1.2301624 3.0644214 -2.2002378 -4.903469 -15.585703 -1.3485997 0.18500513 4.102475 -0.5129939 7.6361485 0.22755058
908148 11.146057 -3.9181259 4.514239 2.073254 -3.0408998 11.92604 1.1248803 -7.4031954 -1.0122913 2.6672292 2.0143733 9.345429 -0.25414652 1.8896636 4.4683266 -0.9514921 -0.31040585 2.8553076 0.8780822 -11.852154 -0.6109575 5.7167535 -1.8641697 -7.6380825 1.4732522 2.9751186 -3.8961756 7.038511 -0.84817594 -3.0062807 1.8650496 -5.5189986 7.7021475 -4.3523617 3.31215 -5.838838 -0.44904783 4.4783134 -5.3534384 -3.8558826 -1.3088704 -5.3008466 3.8049207 1.1546268 2.1891546 0.20909181 -0.0021214567 5.669513 -6.322853 5.904086 5.029001 3.3521287 -0.71255946 -5.6190357 -0.15249033 -3.1085167 -2.5949538 -8.453309 -7.6091676 7.015172 -1.2742801 -0.8663139 2.6688628 -5.2930665
1330950 3.6073666 -3.4201205 5.2091875 -2.6231098 -3.944419 7.252139 6.6210227 -4.1818514 -4.450978 2.4470446 -1.0207227 8.178348 4.5942745 -2.1305008 -2.16982 -0.30777588 -1.9131615 0.9158841 -5.9606547 -13.119191 -2.674189 2.1195955 -0.83082706 -2.5290189 8.046737 -0.583962 -2.7831078 12.325851 3.1199028 -3.2136605 0.9632182 -3.9810498 6.836208 -6.33153 -1.9160088 -2.8177578 0.70992595 3.762097 -5.6438856 -2.517569 2.0701575 -4.5126452 2.3832357 -1.1920624 2.583709 1.9926673 -2.2599857 1.3260877 -7.0967836 1.302603 8.891729 3.1150033 -2.387889 -7.614679 0.62745935 0.35117882 -3.1477757 -5.589167 -9.200698 7.6239834 -3.907171 0.890827 3.1464882 -1.7465228
908448 8.182839 -2.1743839 7.900502 -0.23069447 -4.6752095 8.549944 4.3226595 -6.3226886 -1.0490222 4.8293767 3.9687455 4.771587 2.0678465 0.1102438 -2.224436 3.7564623 2.2829835 4.7584076 -2.0274284 -14.689839 -2.0442736 1.8982323 -0.23558332 -4.2476287 4.8019257 1.8935326 0.032555893 7.7895737 0.8463639 -4.4008265 2.4553077 -5.9633117 8.146792 -3.1849625 0.47958678 -7.4392643 1.3457989 1.9585004 -6.318568 -1.9087799 4.8443975 -5.8985624 0.47219175 1.6628613 3.5423856 -0.3636042 0.6462163 1.688009 -5.5526323 5.793902 7.959263 2.0923796 -2.901578 -8.381009 1.0507163 -1.1831297 -2.7697122 -6.6611996 -8.535527 5.7623587 -0.39875427 -2.2865849 2.2883513 -6.6127067
907277 5.7624564 -2.0856946 4.8429074 -0.2372986 -4.414458 6.5028768 6.1771917 -3.5640635 -5.4927063 3.2273295 -0.25194532 8.191149 4.5885277 0.91075754 -4.2912583 1.1308591 0.6665535 2.5304446 -8.155429 -12.261901 -3.5060732 2.8164308 0.43895015 -2.354003 6.319092 -0.53807586 -0.15682454 11.781156 0.3242637 -4.6307445 2.437426 -4.091457 8.725064 -1.837225 0.19433345 -4.7161922 -1.3316607 2.4149823 -6.021008 -4.327364 2.2864943 -6.726644 2.016707 1.8451593 -0.14299804 -0.6305793 -0.015288242 0.549165 -6.3201127 3.3856893 9.839989 3.0938363 -3.9654715 -8.418607 0.32902512 -0.16598621 -3.3675761 -7.1376214 -5.898893 5.636385 -4.0144205 -0.7859081 2.1376264 -1.2553291
908450 5.3519664 -1.5946928 -2.974313 1.7171963 -2.8490133 0.6569455 3.5846593 5.7603602 1.9560428 -1.2912403 0.12469597 3.9858358 0.044955313 5.212655 -4.6298347 -3.9426568 -3.7487285 -6.901604 -2.3916278 -12.054406 -4.26655 -0.9846036 -2.6950223 3.6894162 -2.4057503 4.2517743 0.37385622 12.10041 6.180565 -5.9276533 -5.7385716 0.65685445 5.1976414 5.5153856 8.464032 -4.230792 2.7726116 -6.7707524 -5.8035736 3.6609669 -0.7202013 5.2146635 4.7723455 -0.13553941 -0.28293177 -1.6027837 -2.9534698 -0.6508339 -1.7448264 0.9198682 -3.4766536 0.31260487 2.7511804 4.4150496 -2.400053 4.078304 2.928842 -2.2751687 -6.4671607 5.144876 0.83180743 4.5936275 4.1837354 -1.3148726
949090 -4.8516912 -1.9922994 -0.39822558 7.311309 1.8089975 5.590449 -1.5743186 -1.4893265 1.1487181 1.321981 1.6482514 10.113626 -4.4386954 8.963237 1.6996192 -3.7840695 0.38145602 -7.8275347 -5.683349 -2.0246165 -5.9166474 7.8272686 0.55467206 1.7568175 -2.5897381 -1.9807136 -1.0477666 12.271179 6.0669804 8.2677965 -3.0967588 3.0695865 4.8631196 -0.987233 1.1174898 -5.9358864 -0.05809193 0.34095 -1.4120709 -5.107676 0.24081586 -4.6485295 5.6946115 -11.163171 1.4251032 7.2182336 -6.1369786 -4.331168 -1.7462356 1.3067988 5.2096562 -3.6425214 -6.858486 0.5979855 2.512754 -3.9719172 -4.1483893 -10.1293955 5.1165657 9.6084795 -0.0725978 4.104839 -1.904159 2.5584514
1247871 5.7927814 -3.2131746 5.925185 -0.6212832 -4.113376 7.0313034 6.741711 -4.0324907 -7.1381006 1.4024209 1.8460957 6.261803 4.704329 0.9965384 -3.4236298 0.15343504 -1.6454748 1.1695201 -6.3381047 -11.384665 -2.3651834 2.275165 -1.063594 -3.2290576 5.1728287 -1.0131506 -1.2733659 11.577471 2.4506006 -6.0569224 0.7994963 -4.172764 8.560196 -4.0615315 -1.5537285 -2.9618871 -1.3106344 4.093558 -4.917132 -1.5019461 2.2015555 -7.4545403 2.9943507 0.9840364 1.7848552 1.4341884 0.94690245 3.721341 -6.3238106 2.9054675 9.642578 2.6864276 -2.5168633 -5.613273 3.583649 -0.06403071 -2.5696847 -5.5388956 -7.234734 7.8809514 -2.9568267 -1.8217094 4.7534304 -2.437042
1322224 4.8051314 2.606279 4.835027 8.11265 1.0212598 3.5676467 -0.15164128 -2.5537884 -2.5567422 -2.6115315 -0.30504617 9.7748995 4.5643883 11.967909 1.4172246 -5.371472 -0.6749614 0.2054666 -3.8443124 -4.31576 -6.321141 5.3812947 -4.6240788 2.2823381 -0.6884631 -5.4827437 6.02787 5.5615754 7.6636367 -6.988956 6.5462017 -2.7862043 12.119576 1.9078141 -0.48843825 -1.6272701 6.076699 1.5072953 -5.3296857 -1.2654456 -0.9078815 -8.852878 2.0370367 5.256131 2.2511597 0.78470963 -3.19412 7.292637 -4.5630097 4.330986 7.426133 4.4770794 -2.4241083 1.884226 1.5314488 -9.221208 -2.2591617 -6.5725613 -3.400671 6.2836576 0.08473005 -2.9933846 3.1785016 2.73819
1240161 1.879513 0.23628268 6.003375 -5.6889443 0.94353294 10.075501 4.5310225 -1.5742441 2.0645666 1.2854272 11.549825 16.673882 -0.6969339 2.5042934 -2.1414278 -0.09715334 -2.5030842 -4.4549813 -6.455252 -8.037311 -4.4638333 5.985751 0.09655435 0.41061023 -2.110153 0.10851382 1.2375805 2.1352239 -0.97021157 -2.1575694 3.8531795 -5.0741053 7.326249 3.677292 7.8252835 -8.159787 0.7230209 2.894209 0.3288794 -0.57221365 -0.6663027 -7.240221 8.581105 0.9749945 1.663452 2.4460528 1.7522374 -2.4747193 -2.4507203 -6.688027 -0.37316075 4.127749 -10.240919 0.99440616 6.463461 -1.7769024 -3.2002728 -7.8350453 -1.9235184 2.830798 3.990553 4.4460173 -0.2916538 5.7404065
910687 2.2942247 -2.5885434 4.210468 4.412594 -5.205859 5.2600307 2.0973363 -7.252854 -2.8369298 -0.06493821 -0.71289974 10.460834 0.9784448 5.482655 -0.04956485 2.445532 2.7236216 -0.74319416 -7.0504007 -9.81531 -2.6396062 6.237441 -3.102598 -0.59139234 4.450463 -0.83378595 -2.9508145 11.509526 1.4685178 -1.755388 -0.42947248 -3.8362925 10.299928 -1.7925776 3.1586761 -7.9987354 -1.0259676 1.0308179 -3.6206517 -7.0204415 3.7257144 -7.101611 5.081451 -3.1578057 -1.1491008 0.20983388 -3.1372848 -1.0300674 -1.3938769 1.0892601 10.431108 0.05384922 -8.686599 -4.315823 0.92964 -1.0339907 0.31460512 -9.132187 -3.317805 7.168347 -0.5998789 -1.7297137 3.7517438 0.42092848
1298167 0.6329006 0.8112716 1.7181895 9.821634 -2.8011894 13.580395 4.6022816 0.80600035 -2.2628422 3.2700624 1.476839 8.676844 -1.6870238 5.29004 5.6570344 -0.45426616 -3.5755322 2.0344615 -0.6207631 -6.8993044 -2.2837167 2.0130253 0.57746214 -0.027200079 -1.5467051 5.499422 -2.2277036 10.334373 -0.17159875 0.95936507 1.1048807 3.3130858 8.623953 2.1324008 0.4674237 -2.701992 1.7065766 -1.2616587 -1.6540773 -5.8695416 -0.2704102 -0.8104723 4.5558124 -4.7366123 1.0766457 4.4228177 1.1276643 0.012176369 -4.9014616 4.048567 5.584727 0.67930233 -4.588033 -3.5703838 3.6525857 -0.5666494 -7.0762014 -18.203787 -1.2507339 2.7639606 2.1425223 3.520155 -6.5021114 2.9876482
753535 0.6126629 0.32341006 2.766689 -2.6259356 5.085209 9.187237 4.3025503 0.21904999 -1.2144765 6.2232676 12.904495 19.021656 -1.2113869 4.2842526 2.0082264 1.1370751 -7.56947 -7.5674434 -6.5780077 -6.719039 -1.7723461 7.178624 -0.57273203 -0.49247548 -1.7080561 -1.0539525 1.5034698 4.497289 3.7009842 -3.3070853 2.9701953 -6.9124274 5.8850555 1.4701821 8.145834 -2.3918767 0.90043026 2.8070896 -1.0162208 1.9696567 -3.624421 -6.605823 5.556891 0.41496167 -0.07430906 8.300215 3.3301418 0.38298133 -1.1965382 -8.172522 -0.48773283 3.7705972 -3.4595902 -1.3889533 4.901238 -5.2517953 -3.4900405 -6.6753535 -0.4890814 2.270764 0.3189495 4.829817 0.6134618 1.5919503
1330982 6.843854 -2.7796834 4.640965 -2.226809 -3.6830251 6.618851 5.2939835 -4.6887937 -5.45771 1.419543 -1.2291925 4.6435795 4.5192337 3.2140956 -2.68351 1.4033256 1.5129236 3.318214 -7.3797913 -12.585323 -5.0441527 2.7039735 0.096309334 -2.297472 5.50043 0.30688256 -0.64952683 10.551567 1.0241537 -4.482723 3.8600438 -3.95007 8.261931 -3.9901865 1.1589487 -5.303486 0.09808648 2.388326 -6.943166 -5.6502666 3.6323287 -5.87363 3.6519027 1.6804534 0.6084339 -2.4071474 -2.1272519 1.0668911 -6.478828 1.8094918 8.01195 3.5019643 -2.0704916 -5.8384976 1.1329885 0.1897754 0.29456925 -4.6185226 -7.5459633 8.612245 -1.3943006 -0.6440179 4.7887106 -3.1832323
1298222 1.286831 -2.542159 2.2391493 5.4332466 5.3159966 7.786961 1.7543706 -3.748272 0.5627547 2.2564332 0.104314305 8.871574 -0.34769294 5.681159 1.7462823 -6.274362 1.8095661 -0.95823544 -3.1050863 -2.179157 -2.6594431 8.557779 -1.3400439 -0.7402183 -0.8038077 -4.427467 -2.1906211 11.358816 7.893205 5.6374707 4.572528 -2.4591858 5.6542945 0.023145331 3.6913042 -5.7445416 5.2570105 -1.039989 -2.3848944 -0.83318764 1.1665001 -5.7991004 -0.027082164 -7.767837 3.4274194 5.0115013 -2.9778628 -8.142779 -3.8100638 4.493643 6.2488084 -2.95136 -6.3626695 -5.322533 1.6234795 -3.0932314 -5.821532 -13.782933 -2.0843253 7.1405134 -2.1941707 4.4565377 0.10354048 2.7346687
907789 2.6180139 -3.8731184 4.6624675 0.4097917 -4.0524654 5.7166543 6.2652397 -2.2748034 -6.8431125 2.1669674 -0.9150753 9.79809 3.538869 -0.058205634 -1.4391943 0.7717509 0.75297344 1.0271933 -8.212545 -10.082612 -1.707144 4.1841364 1.0460051 -2.1348424 7.4695983 -0.1650611 -1.7158034 11.414706 0.19355823 -2.7585323 0.061372343 -3.0569317 7.883133 -4.2498007 0.4123427 -4.1460986 -1.3117661 4.9558387 -5.606042 -4.01227 1.626646 -6.2522964 4.028898 0.123506285 -0.18527481 0.3707934 -1.4142315 -0.635231 -7.26519 3.3317792 9.965648 4.4465065 -2.5436804 -8.648253 0.94769824 -0.6038975 -2.5364819 -5.5299892 -5.6157436 8.203691 -6.036444 -2.7756884 2.4748287 -0.061970294
749709 -0.035111498 -0.8415337 1.204533 -2.8680322 7.0075655 3.01838 -0.8911117 -1.0690341 4.490897 -2.0408082 -0.35248902 9.674062 -7.7697606 4.5616217 8.146463 -2.4188094 0.3870661 -4.496341 -6.3596334 -4.509006 -1.5451716 13.634413 -2.015769 2.5831118 -1.3159714 -0.24008918 2.0390258 11.631565 4.279898 7.7291994 3.5735078 -2.0448637 2.8036776 0.9872182 -1.0205581 -1.5819514 2.9582465 0.7472668 -0.3051856 -4.1585383 -10.547824 -5.4472785 7.4354763 -8.527365 1.0336463 7.7685275 -3.956456 0.1602345 -8.0005 3.4049664 4.9848595 1.2375634 -3.1967657 -3.5689144 3.4510174 -5.352667 -7.7437787 -7.3780904 4.9080787 9.139295 -1.4495 -2.6031237 -2.957487 2.5930064
908145 6.3086867 -1.6636548 1.6793041 7.509835 -3.1950393 0.67938447 5.923434 3.448068 3.8817444 0.6142126 -0.12580621 1.5500715 -2.8499205 4.343076 -2.1184494 -3.383107 -0.21951316 -5.5072556 0.08975319 -11.376875 -13.282748 -0.13470961 -3.9296074 2.2131214 -1.4476348 4.027924 2.7149193 16.27909 5.6840124 -5.8580136 1.2470367 -1.9948013 5.9092455 2.8398237 8.431907 -8.032419 1.2123144 -6.3258123 -7.177623 -1.5697205 1.8198429 2.4771867 5.982839 -0.9048686 -0.7391351 2.486575 -0.84723675 0.46238467 -4.4271755 4.668795 3.4303434 2.352443 1.0485321 0.60690546 -3.2154615 1.2612811 4.568106 -7.4281917 -2.6204245 3.2492406 1.4695201 0.544061 3.0757496 5.6573324
687819 0.76813185 -0.80811155 7.0667186 8.33739 4.5255165 5.594382 1.3639818 1.2045647 -0.17481318 1.1687949 1.6141906 8.865016 0.15725191 10.6196575 3.1297665 -3.200873 4.1224427 2.8868592 -3.728687 -3.8993914 0.66977865 9.669972 0.14950496 -0.24451174 -6.474589 0.25683796 -2.7630382 13.553678 9.010627 7.711736 3.9802933 -1.23415 3.1126666 0.11597629 1.3549184 -3.6130612 1.1249273 0.46711755 -3.5014665 -5.393536 1.798959 -4.829385 -0.8531197 -6.6381464 0.6863665 6.9811416 -0.9465692 -3.200291 -3.180294 4.5633874 1.506193 -3.7773545 0.32894465 -1.2095232 1.7664791 -5.153949 -6.809016 -11.419005 2.3699956 7.15075 -0.39878947 1.5153403 -0.82340795 0.6353028
946358 4.2623196 -2.7995694 0.42251596 3.808378 -3.4146497 3.966978 2.7517965 -2.3058932 -3.9752173 1.3582295 1.0605965 9.686377 2.4583817 4.7210655 -2.0938802 0.6763126 -1.2886564 -0.16355234 -8.877152 -10.487759 -4.2051916 4.5657005 0.5364826 -4.3560696 6.7474685 -0.42904377 -1.1081051 11.662824 -1.9085242 -1.802556 0.08342094 -0.99266285 10.161331 -2.7906675 2.2193444 -4.4850135 -2.3441527 3.8963704 -7.541036 -4.5370812 4.0961595 -6.8641133 7.490155 -2.0279787 -1.0517722 -1.7612357 -3.48902 -1.8034722 -6.239361 4.138472 7.5187206 3.6739259 -5.87568 -6.810924 -0.5188375 -0.23290975 -4.5893517 -7.206378 -4.0103965 10.384926 -2.75359 -0.47673774 -0.13597405 1.6895108
907275 4.9830036 -4.2175775 4.9989934 7.014341 -5.1077094 9.195243 3.3362093 -1.0499982 -3.5011706 4.8997593 3.5508988 8.176051 0.71378785 3.6544323 -3.1565795 3.7896929 0.60660565 6.3643103 3.0125668 -13.162308 -2.028125 0.6098824 0.27968794 -5.545886 1.1813705 5.2888517 -3.4378672 8.986461 1.5388423 -2.2250993 8.409787 -3.028674 9.58719 -2.1877394 0.38429254 -4.8072 0.8789911 4.9821444 -5.7645497 -3.4307504 2.3531163 -7.077851 1.2321726 1.3393388 2.0807254 0.23015606 -0.57248694 2.8411992 -4.082867 8.798002 3.3294396 3.9157317 0.053716313 -9.231852 2.6668875 -0.43081462 -2.4210691 -6.5038695 -6.19875 5.682354 4.2130485 -3.1917691 -1.8158228 -4.1696763
910936 2.1195753 3.2781198 0.523923 0.18470721 1.3263284 4.483884 2.204512 -0.67001784 2.557331 2.598014 17.121248 15.8205595 -3.0219557 6.6406426 -2.368724 1.708937 -4.7193413 -6.5871687 -6.4614043 -6.3479676 -6.4660006 6.208072 -1.0236015 0.056194838 -1.9530325 -3.4454348 3.180868 5.067179 0.52163285 -2.0067313 5.5625978 -5.130155 6.7702384 4.771287 7.434021 -3.954795 2.0956244 -0.27139077 0.09112485 0.16610897 2.683404 -8.114253 5.4164987 -0.22126791 0.7182897 5.2709293 1.4021792 -2.0552132 1.7293425 -6.2371235 -1.6232264 1.2521397 -9.511513 -0.79048944 7.1327486 -4.7422686 -2.916744 -7.6082835 -1.1672503 1.4844276 6.1958604 4.5930014 -0.8545897 5.064607
925340 1.1177529 1.6238791 2.7078056 8.7132845 -0.2877556 6.986817 2.1546683 2.3278356 -8.120889 -2.7420115 -0.91896206 12.34845 2.5189571 7.0574827 4.133354 -9.751253 -3.2576444 -0.360236 -1.7429676 -1.2679188 -4.60366 0.051630285 -2.5297878 0.5171644 -5.9739237 -3.1020465 4.316579 8.2718115 8.3363495 -6.1648607 6.6977606 -0.67498523 14.162966 1.6022177 -4.624761 1.0945197 4.6634717 5.7370205 -2.1474361 0.903249 -3.9718823 -5.167756 -1.10052 1.9836564 3.0431697 0.98860323 0.51962894 5.616297 -0.8487066 4.171694 3.2599134 6.243335 5.4096465 1.3052064 5.871591 -8.761824 -3.238698 -5.353903 -5.0679626 1.6462224 0.25633225 -1.6211065 4.88273 -1.4681283
906870 9.344384 -3.446669 6.374474 -1.647552 -2.151207 9.908849 1.6315614 -7.6765766 -1.162601 3.0188317 3.1779213 6.110712 2.5885808 -0.9632732 2.1657841 0.03178803 0.27780434 3.0523405 -2.6457777 -13.027101 -0.03901909 4.824146 -2.1375618 -5.9771323 5.856149 -0.41416377 -5.5871735 8.335161 1.333135 -4.4455276 -1.4835515 -8.542609 4.3504386 -5.7390904 0.31625998 -1.8330168 0.84550244 4.365242 -6.280985 -1.4548246 0.7872532 -4.7177544 -0.64584285 2.216345 3.3210194 1.8185656 -1.4427527 5.553233 -7.114757 4.298166 5.590606 3.9389634 -0.92745453 -7.336651 1.3026402 -0.33718407 0.32417497 -8.051483 -5.8411155 9.166131 -4.118797 -1.5339605 4.3153114 -8.653802
1298533 -5.2136803 -3.216015 0.4072163 8.973737 5.0809274 5.3212295 -0.9389942 -2.2753305 1.6077557 0.7433884 -0.5629974 15.534737 -3.173437 8.559681 3.955809 -0.7571536 2.5391052 -4.423219 -7.36151 -5.0238833 -3.2327914 7.7244716 -2.6396148 -0.6624551 -1.5549356 0.19307984 -0.7885746 10.254961 3.965222 6.6301684 -4.3882422 2.7981908 4.4729204 -0.040711034 3.091871 -6.899296 1.1453354 0.40817583 -3.874343 -0.42214534 5.227588 -3.6127803 3.7012465 -8.303874 4.606129 6.8869634 -5.5378942 -3.8429844 -1.5794326 -0.42620873 3.0927787 -2.738917 -7.111535 2.374653 3.9358222 -0.9261741 -6.607047 -10.010576 0.8075464 6.4067817 0.062953666 1.2714161 -1.339929 1.6517797
1240153 3.4325504 -0.27149665 2.725051 4.7757826 -4.9356236 11.276536 4.840814 -2.2114398 -2.4608698 1.9122205 3.708479 13.721349 0.90589833 5.2598867 -1.7987952 0.953797 -8.665755 3.0777695 0.75327283 -8.272663 -7.233505 -0.083033584 -0.5785344 1.4375879 -3.9684312 -0.8427981 0.42193255 10.935854 -0.49551055 -3.7837298 3.2181 2.0278268 4.5644135 2.723625 -1.7141668 -3.8874123 0.10886193 3.921475 0.8625342 -7.3603654 -1.0652096 -4.0692534 -3.8267496 -0.7173281 6.3415775 -3.4908066 -0.96886384 5.106722 -6.581225 5.150483 3.9064198 0.7290609 6.871185 0.20950302 1.3492832 1.2987422 -3.4717147 -7.3899827 -8.479797 -1.3068032 0.420522 8.097956 4.0835543 -2.5599792
905965 8.116601 -0.578622 8.569499 -2.0825045 -4.146493 6.4321527 6.551451 -4.370292 -4.940581 1.8747847 -0.24021558 1.3237046 4.01087 -0.6001675 -2.6451366 1.6912452 -0.12054005 3.058929 -2.8859694 -10.670487 -3.2986524 3.3580065 -1.0182061 -1.7124991 7.7920437 1.8794497 -1.4403217 10.375165 -1.0206593 -5.9918027 4.1038427 -7.0506997 6.731765 -2.4117036 1.1643575 -4.7523704 1.7465729 1.2208865 -6.197349 -4.9555717 2.2018268 -5.359846 3.9031818 4.3147173 2.3457031 0.929809 -1.2445784 2.0504785 -8.529088 1.2917873 9.596497 2.1041632 -4.209932 -7.8878064 1.0615569 -1.0930821 -2.827605 -9.008112 -8.026616 5.7119403 -3.3910973 -0.99061877 4.555518 -0.10010364
1331033 4.1584125 -4.2018404 6.015107 -1.4235817 -3.6959395 3.6601734 4.6724086 -1.6182697 -7.013543 3.77066 -0.8880809 7.9189377 3.7436597 2.6459248 -4.942513 2.0941699 -1.0627365 4.7762613 -4.965675 -13.177951 -4.3749948 3.4511976 1.9542589 -1.9296691 6.172606 1.3575126 -1.1426175 10.151893 2.1370103 -2.7539945 5.8747687 -4.849951 7.956045 -2.434286 1.2049426 -4.173058 1.9681017 2.16302 -6.424925 -5.7714887 0.90232015 -6.7607074 3.6448417 0.78513247 0.5971244 -0.81799304 -2.5161116 -1.9936092 -8.056164 1.306708 7.675633 4.0980563 -1.5350293 -8.137734 -0.48817605 0.64833516 -0.8015379 -6.120808 -6.979509 7.3655005 -3.0550542 0.28842598 0.26097223 -0.99444175
722066 -4.458655 -1.5334619 2.2370644 10.513229 7.9478917 4.294013 2.4203086 0.8243378 -2.0882776 0.7766057 0.43373975 7.85762 -6.064505 7.2849894 1.6099727 -1.2161194 6.801615 -2.6480417 -2.6541753 2.1548524 -1.9293368 7.5110154 -0.8717441 -2.8735652 -4.188495 1.3133867 -1.9743602 11.849243 6.711242 3.1702678 -2.0399578 -3.0634527 5.3483644 4.502146 -1.0217159 -4.9723315 2.7750723 1.6341623 -3.1029966 -0.7405134 3.2037144 -4.007191 2.2167034 -5.8255696 4.171713 7.1137404 0.4436887 -2.8556094 -3.3503664 2.795496 6.032528 -2.0736127 -3.6832223 0.20667267 6.1431966 -6.9657097 -2.2535553 -14.561064 6.4874144 7.567231 3.6543467 -4.1053987 1.6215936 2.8514943
1247873 -0.28904396 -0.36322594 -1.8397406 6.288628 6.146432 6.93715 3.5176358 0.45483437 -3.946546 3.426468 1.5942609 11.856542 -6.359804 11.776656 0.42839524 -0.20572872 0.87135303 -3.335284 -1.8231354 -2.930674 -7.1266932 3.5933797 1.2871097 -4.335213 -8.727075 1.0308394 -0.6521251 12.273096 4.241956 1.5379883 0.6423237 -4.2390003 6.9387016 3.1924798 0.62666327 -4.3756113 2.9306648 1.9524212 -2.8172085 -4.2105455 3.3764834 -3.767491 -1.5604326 -5.146479 7.262817 2.4625325 -3.015694 -0.41735265 0.60130286 5.092447 -2.1094441 -3.2616172 1.8222016 -3.165598 6.089989 -5.2578015 -4.7391257 -11.44461 1.9634602 8.127673 2.608894 4.009234 1.1180404 0.10387352
907276 2.072358 2.0780444 1.1104256 11.298932 0.45021275 3.0386193 -7.089079 -2.1659095 0.62401396 -2.8660576 1.7006247 6.431962 3.1122315 12.52411 3.7743697 -10.399522 -0.6022548 -5.1178665 -5.5259643 -0.21603648 -6.7878847 3.0033422 -2.8282766 1.945286 -3.2486324 -6.8297553 3.971947 5.6699314 6.894908 -0.44241586 7.7671614 1.2231487 13.623896 2.8983693 0.40975627 4.4899507 4.907994 1.1524256 -3.1332414 0.47543064 -3.0750458 -8.519002 -0.36552042 1.5775951 -0.34280992 1.7785825 -4.113925 0.67888826 2.6124837 2.6564937 2.585069 1.2520502 -4.1681285 2.5477893 3.687816 -11.93327 -3.336492 -7.1644926 -2.540263 3.5023937 -1.5011334 0.21867363 1.8912823 3.6389458
1298215 1.659912 2.4201925 5.7808685 -3.6653202 0.9754598 7.6628857 7.3517356 2.2492588 -0.028639423 5.827374 12.430465 16.032887 0.85845387 3.1045356 -2.2006953 2.2519004 -5.3912196 -3.6251614 -6.5314007 -9.904679 -4.7965097 5.8525476 -1.1282978 1.211476 -1.3740393 -0.5711497 3.236845 5.7323627 1.2695985 -2.787335 4.8669267 -7.1886687 7.3088546 2.770041 9.007229 -5.1783977 -0.9877442 0.4386848 -2.231675 0.48279676 -0.8385202 -8.172463 5.1872225 0.97494024 0.39295277 4.955012 4.028776 -1.0572004 -0.74749875 -8.4008255 -1.0839953 2.770685 -8.061811 -0.5924143 2.5805075 -1.9395117 -4.7572155 -6.0043435 -2.908042 -0.9174578 2.5722957 2.3447862 -0.33511314 4.12174
905954 -5.0161986 0.8663524 -0.1116182 5.7536693 -1.8895452 7.606014 -0.54841965 -1.5090579 3.565127 2.9710073 6.062789 13.124877 1.3186517 11.817747 1.5977775 0.9959425 -5.4002547 -0.5366284 -2.6275055 -4.293326 -8.733251 2.2984755 -3.413126 5.181982 -1.6850065 -2.7560513 -1.6223662 10.120068 4.4969277 2.3729718 0.49133098 6.00444 1.6287222 1.8032095 4.4234095 -0.92659754 -0.37949678 -4.9744873 -0.12173997 -5.3894405 7.1635633 -2.563933 -4.1265345 -7.167171 5.2702694 2.5383687 -7.816761 -1.0658833 -7.6641283 4.3626485 8.206542 -1.5944518 -0.85202765 1.460341 1.1295303 -0.44920558 -2.109739 -12.997432 0.7538801 1.8084599 -1.6765367 10.356138 1.5392185 -2.8816476
688027 1.3379921 -8.14284 1.6106914 1.8357584 -0.22483626 10.991325 3.8919878 1.3105509 -7.9588857 3.6589978 -1.1036029 14.95536 -2.0874076 5.5472403 0.49195695 -2.473991 -6.8327675 0.8183305 -0.03892621 -3.2792022 -3.125309 5.3727813 -0.37372732 -5.391226 -3.3742592 3.8705308 -1.4504161 11.483044 3.098768 -1.7233104 -1.2889233 2.86338 4.8675346 -4.444594 2.9582279 -3.361055 -3.1996903 7.1724005 -1.7540454 -7.8393626 -6.7306094 -4.271389 5.2394395 -2.8471801 -0.9346592 -0.41870815 -1.6220244 4.586289 -2.511765 5.1896863 -0.19275577 2.0097775 10.402135 -2.1806638 -1.0026023 -2.8212974 -7.9243474 -1.0457475 -5.6643443 6.5153475 -0.6241537 -0.86258334 0.9719534 -3.6329634
905971 1.9661269 -1.3025054 1.057437 3.3787332 -1.4508101 3.601746 -2.1249895 6.7154403 0.39745352 -1.872674 -3.4069383 15.8587675 -4.8217773 2.314514 3.8760493 -1.773309 2.1611304 5.899891 -5.176942 -2.7203581 -2.6011071 0.890875 -9.738304 -7.027082 -4.3396053 3.0337417 -4.3781724 8.532668 3.8153865 1.4365412 0.440597 1.871808 6.4419403 -1.7089441 1.3347632 4.642383 4.880622 7.4144335 -6.9205136 0.9011674 3.2748463 -5.130384 3.0713592 4.342447 -2.139849 0.13686633 -2.1716177 -0.9287205 -10.803078 0.086195685 1.7216427 -3.0999362 0.6348675 5.5692344 2.0792675 -4.9376974 -4.239933 -7.2289267 -4.753599 0.6709257 1.0400745 -0.73498434 9.670176 0.8326306
1298531 2.3936124 1.944506 4.5762377 -2.9439182 0.47050974 6.5929823 6.6085668 0.84900045 0.6663994 4.7995234 11.605429 14.418095 -2.070521 3.6076994 -4.1575165 2.5840428 -2.8832936 -4.483794 -7.401511 -8.102901 -7.2800627 5.920489 -0.71064717 0.6294777 -0.76865256 -3.3241665 4.1264744 9.1033745 0.7074269 -4.0487995 6.783242 -7.2513943 6.5129805 4.902337 6.888055 -5.2488 3.434032 -0.621288 -1.4526019 1.1014199 1.4729948 -7.1656413 2.674511 1.6239831 1.6143446 5.6997833 1.1380206 -1.3836452 -1.2848091 -6.5210876 0.32639733 2.6430285 -7.8941426 -2.0288868 4.062825 -4.120731 -1.0287533 -7.2873826 -3.9683065 2.9778173 3.8058417 4.263231 1.7165914 5.011946
907311 4.829387 -2.1394372 4.6186423 0.28987595 -2.0794232 7.846828 3.4787326 -5.9729295 -4.2028213 3.29486 1.9838101 11.815381 5.221831 2.517096 -0.841891 2.147789 -2.1725583 1.9134088 -6.6216254 -14.237422 -2.8346817 3.9469228 -2.213556 -2.5678303 4.946329 0.7784409 -3.3917706 10.809055 1.2812552 -3.2931173 3.1149988 -2.5650737 6.410895 -3.265277 0.9338206 -2.6386151 -0.41680223 -0.8443651 -5.1577744 -4.90788 1.535986 -5.271837 3.0305202 1.2951092 3.2468536 0.6707636 -2.6025398 1.2654332 -7.7290387 -0.026026774 8.26849 4.250931 -3.0602334 -3.313451 0.22733948 3.1765058 -1.3982662 -6.314643 -7.50459 6.64293 -2.8706803 -0.23710711 2.8981593 -3.632499
1503366 5.052973 -4.9547787 2.8391953 2.9351845 2.8816597 9.715154 4.5133085 -3.6409905 -6.7556996 -0.59980255 -0.72905546 15.102043 -0.3287411 3.5787797 3.5470884 -3.605457 -1.8787262 -0.8734085 -0.15897976 -1.657878 0.3480979 6.009879 -2.5363617 -3.7264977 -4.4419208 -1.945923 -2.6194818 11.868333 2.8369415 -1.1123691 7.233691 -5.9186654 4.5319376 -0.44224384 -0.7416015 -1.5160104 0.29539302 5.9691 -1.5291646 -3.7446659 -7.073887 -5.0715275 -2.8232553 -0.80716383 7.4256635 3.066093 -1.022927 5.6425347 -2.0184846 5.0747666 3.729105 3.3904872 5.6684914 -5.6089296 -0.030795217 -6.065701 -5.4440894 -4.112762 -6.167921 3.72039 -1.4350772 3.7202442 7.187397 0.29986542
906863 -0.41156074 1.4282615 2.4138596 -4.006063 1.6470106 6.563623 5.9429784 0.62438816 3.0784059 3.6041987 9.768846 16.854841 -1.1119987 9.7872 -0.7138858 0.6416496 -0.16307 -6.705446 -6.7761893 -4.9311957 -4.3453226 9.838566 -1.8692268 3.7910123 -5.1977034 1.2215841 2.33957 4.35293 3.5108783 -1.0219668 2.6383805 -8.36441 3.4913435 3.0673487 9.505927 -2.6055593 1.5320506 -0.23494245 -2.2294276 -0.45036736 1.3229204 -6.7608204 2.9637914 -2.8057516 1.8625215 6.5548754 -1.834058 -1.711201 -1.9559692 -7.5064707 0.725556 2.1415465 -7.8747816 0.69417375 1.0588013 -6.682742 -0.9990004 -2.7995172 -2.0605276 2.4669547 6.446053 2.2129312 1.8141714 5.6806335
909257 -5.3255367 -3.2349358 6.8476076 2.0637872 -3.4912097 6.0377254 3.7207084 7.438673 -5.859461 5.281235 -3.6475873 14.399005 1.5585172 3.2941105 -2.5820465 1.4182601 3.5020843 6.9865713 -6.9928746 -1.4415092 -7.207807 5.7860465 -5.2891984 2.3459866 0.17347147 -0.027597068 1.3812417 13.007195 2.8939486 -0.10551755 -5.0699787 -2.7569528 7.758068 -1.9380803 1.284525 -2.5679462 2.6706073 7.813672 -7.1736937 -4.068855 -4.4918704 -3.2304342 0.34764394 3.5748634 -0.06917068 0.4661008 -3.4027252 -0.3627692 -6.338353 0.033980824 3.1082652 0.5310173 0.00065389654 1.5510272 -4.7794547 -0.45495832 -4.7952304 -3.5113108 -3.5734215 2.2906146 -0.71982497 -1.0553466 7.3323193 4.6055746
905936 0.8561042 -6.3439 6.768432 6.1039653 -2.055197 6.47776 -0.4423307 1.092969 -1.0000768 -2.070331 -2.3826237 15.557043 -2.0037706 1.6552745 -0.61064124 -2.039521 4.5780396 4.3668723 -6.1793146 -8.54108 -3.8018224 1.777664 -6.4519815 -6.196678 0.22880219 3.4814832 -5.148767 10.135305 -0.60805297 -2.235717 2.7858543 -3.2575576 4.0227466 1.6549685 -0.16192311 1.8539033 4.744201 7.5544515 -4.925218 -3.0147548 7.3202157 -4.348206 2.328181 4.691468 -0.6674146 -0.50658196 0.3524716 -5.3360305 -7.0260615 -5.338149 3.4348013 -3.928495 -0.9429055 2.1919782 1.7896456 -0.27892557 -0.42343402 -9.64582 -4.6302924 3.6173055 4.4695373 -1.8597528 8.870077 -0.5072233
908440 3.1552398 0.33346772 3.3713753 5.081579 -4.029192 4.4296145 6.5493793 -2.8565574 -2.4982347 1.6960636 1.9690659 3.816956 0.6015656 3.8372684 0.9474119 0.47004172 -0.82218766 -0.6203968 -6.5136247 -8.311652 -4.8319793 8.00775 -3.150831 1.1027409 3.8669856 -2.617633 0.91661507 14.341341 1.9469441 -1.0614456 0.8019663 -2.8156374 6.628283 -0.18444248 2.3541071 -7.0337653 0.9996492 -1.7012427 -3.235905 -4.2913795 2.6757514 -8.103432 4.062375 -6.5960617 2.6729665 4.9212203 -4.9570265 0.044599034 -6.051829 -0.13968013 7.6018105 0.9856819 -8.324319 -2.5577216 1.3130877 -1.5399309 -1.2343674 -9.727105 -4.526703 7.180111 -2.1716657 -2.0931735 2.9133937 3.7309728
1327774 12.207564 -2.2536333 5.837237 -0.43461123 -5.9498525 7.543546 5.3051944 -4.454189 -4.854381 -0.20052908 -0.58691996 0.13062966 3.6394122 5.7308702 -4.150003 0.6366533 -2.406976 4.8715487 -0.8325128 -12.530689 -5.2936835 5.199225 -1.1219124 -1.3237698 2.5403419 0.71669674 -2.3794775 10.392962 1.3482462 -3.3387148 5.2918806 -6.105659 8.948598 -2.9392745 3.9007697 -6.1937838 0.6723197 4.785154 -6.467632 -6.56569 -0.23801513 -5.9741664 4.1060777 1.2278198 -0.24091758 -0.37922198 -0.4966961 4.9903517 -4.1175423 2.692398 4.7972 0.5429096 -4.1176343 -5.6156387 4.6181107 2.3090184 -2.7319322 -7.493864 -6.6801867 5.3992124 0.5940337 1.0666251 2.8016682 -2.9820468
1303900 2.478112 -3.921455 0.429311 0.47178924 -1.9066328 6.5403714 6.3379183 2.89838 -4.236612 -1.6876082 -2.9439912 12.199298 -3.2869263 5.042007 0.09202032 -2.2952762 -3.9235375 1.6198206 2.3296766 -6.513137 -3.118101 5.3638635 0.55530846 -1.3004624 -7.3024535 4.622461 -0.47175205 13.542708 2.3238196 -0.6707548 4.1810064 1.8432164 8.682441 -0.5418127 -0.69541484 -3.961981 -1.0059061 6.6559806 2.709047 -4.8562207 -6.481032 -2.8427284 2.5232234 -5.3361664 4.918164 -1.504284 -3.4137788 2.57131 -4.9015365 7.3756375 -0.13267924 6.285547 6.99558 -0.60313123 5.2720327 -2.4963975 -10.702491 -1.6887039 -7.1792912 5.8915396 4.244828 -0.6281085 -2.6963398 -0.36722758
909716 -1.107648 1.9742581 -0.24483855 8.443833 2.3896239 4.451846 -2.3844726 -7.462852 3.777956 0.5358751 0.111146316 7.124186 -6.4237833 11.603687 6.225098 -2.629888 3.88998 -4.6990857 0.38968784 1.5344613 -6.431771 9.838781 -3.1007402 -2.0006142 0.07268644 4.3320546 -2.2369666 10.551328 3.4581456 1.161962 -3.1791322 -2.2845278 3.1176977 3.4400804 2.809834 -4.162217 2.7271018 -5.170606 -2.2876945 -6.3944964 2.709553 -5.0434985 4.061089 -8.397754 1.3459864 5.7266703 -7.196787 2.864702 -4.1336265 2.9243436 5.269123 -3.4106855 -2.9732034 -2.52726 5.1268907 -6.7905765 1.0907553 -15.340779 1.1819452 6.3779564 2.58044 -2.0428588 2.1711576 -1.6585222
908118 6.974082 -1.6694833 6.5467353 0.4892097 -1.9076807 12.883093 6.444315 -3.4431233 -3.5208073 7.0496187 -2.7809067 7.6064453 -0.92759323 2.6619062 -2.2943835 -1.8857802 -5.8842463 2.4742806 -3.5566838 -7.5313916 -5.1589437 6.554539 -0.8524092 -0.50447273 -1.8284779 1.9035474 0.7433585 9.809442 -0.3378809 -1.1502069 2.9448311 -3.6487627 4.5374413 -1.0649904 4.572295 -7.120795 0.59810275 3.293419 -6.0556803 -9.40625 -5.7532606 -7.131966 3.4390967 2.598418 -1.3823023 0.51613337 -2.4056334 3.4273283 -5.660122 0.5226929 5.126143 1.1867021 3.1576283 -2.596876 -1.4794884 0.11196963 -5.5277205 -9.111438 -7.8448524 4.24889 -2.6851335 0.25455537 0.94958836 -1.6479349
906833 -0.8222271 3.5855694 4.850844 0.45856303 3.2227857 7.406292 4.494156 -6.8489256 -1.6902467 7.018001 -2.8543952 5.567819 -0.1089061 2.7283683 -0.41971463 -1.2651628 1.7732688 -3.3194528 -6.947706 -7.2787986 -8.527034 5.8718085 -1.0980891 2.3907263 -0.22516672 1.3903817 1.7187539 12.743938 4.7666574 -1.1603434 2.3640535 -3.3978171 5.527169 3.9535108 1.4951665 -8.958357 3.3323305 -1.7162665 -4.309398 -4.553523 0.32027426 -5.1704125 4.350134 -2.7272465 3.2445464 6.073989 -3.0794585 -3.4220848 -5.3068113 -1.5150336 2.4777026 -5.174062 -3.2461822 -3.5015125 5.1496286 1.3548183 -2.9704638 -13.463491 -2.8569818 7.1666555 -1.4774423 -1.7865648 2.2398286 -0.8489591
1290810 -5.1493077 1.681921 -1.4358128 7.4746604 5.7706623 2.1623697 -0.63002026 -0.15137874 -0.35546806 3.2017143 1.4347941 8.784107 -4.5940623 7.878717 4.199683 -1.8346736 -0.8490997 -6.577624 -3.990227 0.15321799 -6.173664 8.380559 -0.15319522 2.0717509 0.48292017 -0.3842947 2.272504 15.706462 5.6112676 6.557506 -2.4124942 -1.3023033 4.8069677 2.7689226 -1.6362184 -3.9355023 2.2886505 -5.003149 -3.6512606 -3.6167061 -2.2487104 -4.610282 4.199387 -11.204771 3.4614913 7.481931 -6.2011523 0.7688146 -5.1931396 1.7492305 5.2520633 -0.39946732 -2.59617 -0.6564855 3.621626 -7.2966294 -4.0662513 -9.489972 5.3840647 9.196729 -0.10737971 -0.13231345 0.58667266 -0.040338907
910554 -0.16311538 -2.6335237 2.471771 3.281761 0.93476844 4.3747277 -4.1291003 7.2477508 0.19938412 -5.4778633 -4.641869 17.010864 -1.746335 3.7336218 0.6474368 -2.8277552 5.977746 2.3982522 -4.514177 -0.78727853 -4.5369086 5.424549 -8.590854 -2.5618804 -6.4017763 1.2049631 -6.077626 9.233175 6.0006757 2.3871934 -1.0250428 -3.1518972 5.7585716 -1.052189 0.75629216 5.593749 2.1434705 10.996689 -6.704925 -5.4435344 -0.39481273 -1.0327026 1.1076256 5.3728013 -3.1115346 0.91410846 -1.5848523 -2.842916 -8.460613 -0.48739928 -0.23382306 -2.4895175 2.771965 6.446348 -0.6185824 -3.0796957 -2.8959265 -6.0704966 1.3142041 0.7739662 2.970926 -1.6022011 10.933276 2.229371
906793 2.77456 6.091863 8.141576 1.1834722 -7.0457773 8.845057 6.0859857 -2.0138247 0.4126405 4.1635103 5.2877464 9.371255 1.8912476 2.671804 -2.5425975 3.1080463 -3.8459632 4.898669 -6.6888766 -7.550359 -6.7970524 0.44072065 -4.592452 2.3668761 0.56439346 0.8851666 1.909058 10.942945 -2.3030283 -7.741035 3.6774144 2.9742405 3.488361 3.558033 -0.4088899 -6.2914534 -1.1338761 -0.8647763 -3.950829 -4.6290264 5.1100125 -4.6659656 -2.3944633 -0.63120234 2.8269172 -0.20894358 -2.3889358 4.0502906 -10.44282 1.8643041 6.722184 -0.7388839 -0.4054631 -2.266556 -3.4824145 4.6529026 -3.025327 -13.41349 -5.955366 -1.6864619 -2.38644 4.7660203 4.869404 -0.22401749
907282 5.793914 -1.1416625 -1.7556763 -0.11930355 -3.298112 -0.19190823 6.031484 6.335871 5.708645 -1.1487067 -0.56799805 2.7660718 -1.7158793 5.0957627 -4.7998743 -4.8150473 -0.18814285 -7.868849 -2.135102 -10.294571 -8.570066 -1.1694766 -0.80979633 3.4254348 -1.4436407 1.812849 1.5807323 11.937702 6.1467323 -4.8775983 -3.915738 -1.1422714 3.4939058 2.0549724 7.7517457 -3.0009384 0.0064595114 -5.7149954 -4.6902466 2.957107 -0.5950556 6.05499 2.5588725 -2.654639 1.5991845 -1.2887818 -2.1904185 4.553468 -3.6427002 0.67681473 -1.6682413 3.6054108 3.7937734 5.7873635 -0.5402416 -0.7818449 4.896455 -3.112393 -5.4555163 2.1521654 -1.7200643 2.0341423 5.273475 4.282772
910701 0.27063885 -3.577548 2.3900316 -3.7326045 2.5452802 10.274296 9.344381 1.1314374 -2.944401 3.2459347 10.139919 19.381067 -0.76953936 3.427483 -1.713038 -0.21137829 -5.3124733 -5.0574617 -3.918712 -6.156947 -2.664161 5.637237 -0.31758767 -1.0570596 -4.8813343 -2.2992952 0.604632 5.687156 0.16588782 -2.8057356 3.2125506 -7.8464494 6.958481 1.8616446 3.9847753 -5.197666 0.15088513 8.386217 0.97993004 -0.8379357 -1.590186 -5.9849024 0.9478107 0.14493889 3.3205943 6.1529613 -0.91953903 1.1227578 3.672318 -4.26059 -4.1618114 4.4232483 -2.9016047 -2.6407046 4.7837644 -3.8982916 -8.304112 -1.5413456 -2.3205748 3.7794716 4.9872065 4.8430977 2.5021236 0.4243489
905961 3.4965992 -3.3211138 1.3375882 4.93234 0.1191827 9.917688 -0.6359613 0.7089733 2.2102578 0.56005 -0.9460939 17.885345 -5.3709965 4.6590714 4.354665 -2.7259283 -5.226564 3.9136882 -5.8713984 -8.725318 -0.8526227 3.6890554 -7.706097 -7.3834677 -0.8290865 0.5325625 -3.1900043 6.131216 -0.81094 -1.5591484 1.102296 -0.38856456 7.3291698 -0.9046774 2.4546375 4.895382 5.7577686 4.6944633 -3.508041 1.8197122 7.258502 -3.5728993 2.4848013 1.880701 -0.45970663 2.7338595 -0.87265366 -1.1796222 -7.9623914 -6.9294806 2.387455 1.6166482 -0.65326506 3.2834156 0.92172986 0.78842974 -4.415276 -16.857668 -5.413099 -0.59100133 0.07335314 -0.30503488 4.874584 -0.0040313452
909260 2.3097603 -5.578586 0.32878742 1.0107037 -2.790103 6.7422934 5.8851037 0.2895704 -9.146939 4.1388936 -1.7862507 10.229717 4.2794394 -0.16002908 -4.23637 0.90124166 2.2930837 0.6010002 -8.901493 -11.1229105 -3.0295331 1.3680369 -1.4552568 -4.370697 5.1838284 -1.2898047 -3.9049704 12.721929 5.0878735 -1.7187603 -0.68834275 -2.4354868 10.032113 -4.66692 -1.7061936 -0.30261114 0.95097005 4.721972 -7.0010834 -2.0402107 1.7080171 -4.0577006 0.7980841 1.2738099 -0.08406396 0.67540634 -0.097340465 -0.6704658 -4.1301527 2.661348 8.001275 2.358884 -2.1361525 -5.593578 -0.06607543 -1.377368 -1.5923544 -3.072863 -4.8606143 10.397988 -2.7379827 -1.8953699 3.5703392 -1.4481677
949155 6.795096 -1.0901772 8.278242 -2.4424849 -1.2957636 10.055441 7.5237017 -5.668847 -4.4609237 2.3227825 1.0907518 5.9688525 1.0960876 -0.026697893 0.07501034 1.1387061 -2.6280508 2.588627 -1.2988883 -6.4239607 -2.5519931 5.8191085 -3.4160697 -0.6545674 1.2568812 3.748291 -3.5538044 9.870755 1.9204128 -7.566529 3.26365 -7.276902 2.6450145 -0.8277361 2.997911 -4.8508425 2.2666674 2.1446376 -6.4730806 -3.9307768 -2.2184868 -6.7371054 4.5083833 1.2293224 4.5484414 -0.66534674 -3.399792 6.767375 -6.7074146 0.6997885 9.6380825 1.5179011 0.24218802 -4.961718 -0.7335826 -2.604705 -2.269814 -10.202836 -7.6635704 5.8049636 -3.0707126 -0.16431925 7.976576 0.97332245
1240193 1.6274418 -3.1214411 5.6376963 -0.9210615 -0.5190502 8.090807 8.7542715 -2.7348678 -4.2515287 5.318453 -3.3386202 7.255185 2.7832537 -0.6142343 -3.156681 0.24434626 -0.938254 2.6661646 -7.3253365 -8.967338 -1.9754406 3.900557 1.3032467 -3.1751392 5.6321115 0.5394347 -1.6495663 13.47417 2.3780098 -0.94640166 1.8241014 -3.4864564 7.688379 -2.4626293 0.45113292 -3.883496 0.5794177 1.6492121 -4.846098 -4.72102 -1.2538129 -5.259156 0.9637767 2.439269 3.0850148 1.7220649 -3.9996135 -0.20739624 -4.1950912 4.2761397 7.2009277 3.4188356 -2.099197 -5.515425 -1.6887419 -0.43525326 -4.5626016 -6.790965 -8.0974045 10.654518 -5.982403 -0.4267093 0.760248 0.24240784
907061 -0.8768231 1.3414758 5.084257 -5.475069 0.13421106 7.163321 6.7371726 0.43419486 0.22702453 4.958056 12.750151 17.724459 -0.28757504 1.8384805 -0.7950617 4.4131403 -5.7471476 -3.9015996 -6.933459 -7.899934 -5.7975063 4.550925 -1.384511 2.0807965 -1.7545087 -0.5341096 4.8060775 5.2506466 0.35219863 -2.4640298 6.504844 -5.165645 7.4940963 0.60444397 8.063702 -5.0571084 2.0482783 -0.8387276 -0.036240857 -0.8671716 -0.0907219 -6.3984246 5.682137 3.7511559 0.18448012 7.3417 1.3136327 -2.3133337 1.0441747 -9.775404 -3.0843472 2.3860474 -5.899204 -0.44615152 5.718953 -4.0231752 -3.699488 -4.7535486 -3.8544192 -0.5838464 2.2877934 3.7126784 2.578357 3.3288543
949153 4.764606 -2.5064178 4.0240507 0.58811945 -3.9900296 4.781074 3.4204535 -4.654313 -5.3617015 4.108482 1.7870654 9.8156185 0.94941866 2.8963256 -1.813368 3.4256606 0.70029074 3.1317632 -7.3468347 -11.8559265 -1.964289 4.421413 -3.2214775 -2.0333142 5.9686003 -1.3912753 -0.16976961 10.566291 0.86195755 -6.169125 4.370273 -4.371562 8.296491 -3.1492364 1.3191252 -5.581013 -0.05993553 3.4121718 -6.420728 -4.4119263 0.4126336 -6.9953933 2.7506392 0.4710021 -0.70343405 0.38079408 -1.4880176 3.9206321 -7.5048094 3.3459642 9.034174 5.0997386 -3.3626208 -7.669111 -0.79888785 0.40635893 -0.8861389 -5.6582274 -5.036246 5.416188 -1.9645756 -2.8807971 3.5551755 -1.5534312
1330984 3.2410934 -1.2128294 8.398111 -2.3047142 -3.534771 7.5793104 6.706349 -5.037281 -5.4996834 2.5851336 0.33586717 6.343069 3.8439593 -0.826423 -1.4417025 1.5053635 2.1627274 3.050936 -6.0828404 -11.352051 -1.4296502 1.0671403 0.45832047 -2.6080844 5.6509666 1.1687032 -3.158779 9.175961 0.56280494 -5.3824415 2.3994644 -5.7969728 7.818085 -4.229359 -1.5416014 -3.8950129 1.1776053 4.163903 -6.0782595 -2.2614877 3.4667816 -6.064194 2.1632473 1.0537355 3.587274 0.47620797 -1.9575995 1.9627248 -6.338705 1.7405263 9.219704 1.9524722 -2.2580295 -7.0348916 0.84696466 -1.127957 -1.5567129 -8.255378 -7.2794943 7.486535 -4.2688737 0.18679708 5.946727 -2.228882
907786 12.461142 0.52617556 5.5162883 2.1034203 -1.758893 11.4029665 8.9639 -2.8564496 -1.9545712 -0.21362256 -0.02073539 1.9656477 6.135029 1.7687322 -2.188516 -3.480542 -3.0504282 0.67312014 -3.3177676 -12.446469 1.8695945 4.18325 0.66435856 -3.4090276 -0.16678411 1.6977837 -4.7690673 8.890829 5.3637753 -0.20217954 -0.19571719 -3.6024225 6.537831 -1.239115 1.0847442 -2.5107865 -0.5835419 5.8147154 -6.1401544 -0.80021125 -0.019571079 -6.1943507 -1.4150531 -4.306607 4.5686264 1.8093777 -0.6317594 7.8513494 -3.0249727 1.4915533 5.469022 -1.5033157 -4.3182554 -1.8420275 5.317421 -2.1942804 -3.8336906 -12.480779 -6.5002217 6.481292 -0.72212315 3.1420348 1.9132516 -1.5607553
909703 4.452711 -2.4243896 5.035868 -0.7807201 -4.320436 4.5180063 5.173453 -3.0565796 -5.587684 -0.028937683 -0.72113925 6.8994923 3.8786564 -0.26846448 -0.33895606 0.2786782 2.5075161 3.6573715 -7.3549333 -11.132399 -1.3635149 2.4714653 -3.0868459 -3.4768298 6.769506 -0.60792834 -4.2270494 10.276387 2.007886 -6.232677 3.0471392 -5.2763786 7.040374 -2.5685568 -0.4745218 -2.9311922 1.5346707 2.2833157 -6.397661 -3.153684 3.4088826 -6.443827 4.1752753 -0.5982254 0.76313645 -2.1522083 -1.8793398 1.0002469 -5.517472 3.3738775 10.441765 2.6238577 -3.5006647 -6.512626 -1.7764931 -0.97035795 -1.9683617 -5.4998145 -8.124004 9.377796 -3.4426918 -2.4099355 3.5708869 1.0816613
1327775 4.098844 -4.0417495 4.0312614 -2.1179688 -3.4290648 8.266855 5.3247533 -4.938793 -2.6639702 -1.0168349 -0.06580472 10.743998 5.1150584 -0.9296594 -1.1187109 -0.041093335 0.15346815 0.2691444 -8.663663 -13.306376 -1.8859069 4.368813 -0.010057802 -4.5417013 8.163476 -1.5897366 -3.2798772 11.564972 3.5680597 -1.1828732 0.382449 -2.1759934 6.275534 -5.0337877 -2.1366758 -2.7599187 0.24642259 2.109019 -4.926957 -3.5771892 1.8918669 -3.999113 1.055552 -1.1383556 -0.40045357 2.4672577 -1.5121071 0.27946267 -5.338435 1.9665152 6.703487 3.0471652 -4.2629166 -8.313245 0.13972728 0.2314208 -2.5447817 -5.23182 -7.812616 6.284972 -4.7914424 1.5215698 3.3542428 -0.51232874
907066 -5.7554674 -0.74197215 4.1519685 10.229377 7.828053 2.1843557 -3.34004 -0.6845012 2.1536424 0.25461444 2.6391222 7.440721 -4.586842 10.834627 3.7816432 -3.8647006 0.61769736 -6.978902 -0.021493211 1.415524 -6.187826 4.62131 -0.14132679 -0.76352113 0.7906841 1.5677208 -1.8402328 8.362024 8.093207 8.1838255 -2.2603374 -0.67153686 6.1674867 1.0737396 4.410348 -5.8798304 3.7680907 -5.343307 -3.2190115 -7.2040863 -0.41365787 -3.4981594 6.845877 -8.69543 5.0861077 7.351245 -6.479427 -0.5604799 1.3667108 6.586617 2.9254234 -4.5149274 -2.8342607 -0.091769606 4.693909 -5.4172816 -1.7988762 -11.094397 1.3597611 8.742145 2.5000324 1.7808477 -0.14895274 1.2081244
910691 1.8016527 -3.9808853 7.4386563 -0.85321563 -2.984019 -0.10349508 0.16687034 2.6317801 -1.52325 1.2832057 1.6144819 11.624551 3.2476888 -0.18010361 -3.6150048 0.027931875 10.260139 4.655317 -3.426638 -10.7608 -3.3965328 2.2387621 -2.3863358 1.7184778 -5.18479 -1.8335685 -1.2567521 9.366597 5.3798103 3.6200995 -4.2720094 0.17947724 5.5584 -7.521453 -4.3718085 -4.6532993 -1.3295566 0.85796374 -8.8700695 0.12699836 -6.0476217 -10.835017 3.5957654 1.7085747 -3.1904562 -3.2180817 -3.154317 -1.065714 -4.019091 4.855801 -2.0961916 2.833423 0.30569378 -1.8940395 0.2285595 3.492607 -0.053703357 -1.2863965 0.6774406 5.783706 -5.489203 -4.719959 6.7202687 2.7596025
749716 -0.26874894 -0.18028092 -1.3656007 -2.855525 0.27348566 1.3123616 -0.3593135 -0.8357502 1.5272533 -1.7015159 -0.23797627 7.0743403 -5.371848 7.9851327 4.9590273 -1.4133916 3.475746 -4.802164 -4.6858635 -8.121636 1.5680641 12.581742 -1.2625511 3.5696461 -0.6275725 -1.9341514 0.0037755107 15.394697 3.792794 6.8643756 2.0719113 -3.790159 7.18869 -1.3805594 -1.8520344 -1.7228855 0.7298181 1.4833502 0.35817644 -5.1889124 -6.2109966 -4.6821346 7.215808 -7.8021016 3.475133 7.423846 -3.1803074 -1.874483 -7.9980044 1.4688032 5.4475794 0.24423958 -2.7482734 -4.0332813 0.610381 -5.67849 -7.7716594 -5.677575 2.0102994 10.767603 -0.85643005 -0.4275103 -1.8878864 1.983063
724873 -2.9751449 1.3977578 1.4324994 7.858564 5.49453 1.9387178 -1.6159424 0.8862373 0.8655635 -1.9905716 -0.6680859 6.7755013 -5.2620378 9.929824 4.6362176 -3.157808 5.0997586 -1.2314984 -1.040037 0.61598235 -2.4320958 8.778558 0.23468542 -1.6389298 -2.007772 4.6395664 -1.1790515 13.738226 5.857108 6.350483 -1.5662539 -1.1712252 6.5110717 3.1900182 -0.9884885 -5.7494926 2.881171 -3.2927256 -1.5164814 -4.799436 3.037629 -2.6193182 4.9753895 -8.173078 4.3784575 5.064664 -4.008736 -4.294604 -4.2595205 4.340653 -0.03061077 -3.3078501 -2.299956 -4.019425 5.7765694 -6.297746 -3.6606703 -13.735549 4.2693424 8.172197 2.3153534 -0.13853873 0.067448124 -0.97584265
1327771 5.0657277 -2.3152843 1.9960418 5.900017 -2.8919663 7.7571464 4.9349184 -6.348961 -7.3641143 1.7413754 3.0149333 12.795088 3.000153 5.3210225 -1.6438053 1.5373319 -2.8929446 2.3562906 -3.3530686 -8.215997 -4.90799 2.9706676 -0.49107543 -2.4945066 3.1968732 -0.24256304 3.3005183 10.184953 -1.6070154 -4.616971 3.1088274 -0.78609306 8.11429 0.22918902 1.2846895 -6.8882604 0.13349107 2.20907 -3.8204725 -4.1676307 1.5052141 -7.4052444 -1.4769458 0.28278166 5.642464 -2.0120032 -1.7306192 8.907071 -1.3920245 4.9393497 9.006019 3.6276464 -3.7172022 -3.9425213 4.7043314 -2.5705774 -0.68409663 -4.535212 -5.828786 2.615443 3.9201217 -2.9468758 4.8808246 -3.7077231
1290922 -0.74219966 0.48802665 0.1319807 1.9912591 6.073091 4.7397633 2.5295627 1.4205611 1.9062225 2.1385264 2.153796 9.817675 -7.5955224 8.190041 1.4256122 -4.7400565 -1.393493 -5.8530083 -4.282352 -5.2371573 -4.7391024 7.814309 0.323143 1.6473244 -3.8041844 -3.0735888 -1.0916349 11.892675 5.4085746 8.539323 0.47461104 -0.04939859 7.5468225 1.4989507 1.5010653 -4.048627 2.9144835 1.8287535 -0.31371468 -6.081653 -4.6100883 -2.6098137 3.7618384 -10.82152 2.0132728 6.5071993 -4.0270715 -2.3946898 -3.266436 5.421453 1.3612142 0.117742166 -5.881427 -2.663292 4.2408085 -0.62158847 -5.043 -10.683806 3.4236155 8.878303 2.044627 2.6151216 -4.925363 5.732879
753574 -1.3193805 -2.243275 0.18666604 5.571909 5.2576413 5.2552853 2.595862 0.22326545 3.0816388 -4.196513 2.5046356 10.434188 -3.123956 9.061627 4.0737686 -3.818583 -0.33248642 -4.312814 -3.6303225 0.07763359 -1.5013316 9.035964 -2.520879 1.054609 -1.1503527 -5.4809866 2.9956458 12.223039 6.45485 5.566108 3.8483887 -2.4389167 6.530509 2.1982055 -0.8923937 -5.3842936 1.3048829 -2.6359448 -2.2055027 -3.5802443 -0.59783995 -6.5276 0.12659405 -6.8172607 2.982571 9.332094 -4.1370883 -2.014292 -4.0405903 5.833801 6.3849993 1.6898887 -7.542951 -5.550542 1.9463458 -6.4511075 -7.9198184 -9.959498 1.3402383 1.6997873 -1.4129345 2.46585 1.6989834 4.0466924
906877 0.91782075 -1.613475 5.08466 -1.3270725 -3.3655882 2.6486294 6.102265 1.8476425 -6.14654 4.2741876 -1.5718939 12.861704 0.5141308 2.8889103 -3.0595706 1.2184341 0.9478895 2.4009757 -4.0312886 -7.9183693 -5.851896 4.854735 -2.9622395 -0.9951869 2.8771858 2.147562 -3.7126057 11.00527 5.3014464 -3.6202984 1.3575338 -2.7542713 5.653325 -2.7360322 2.4859817 -3.8928008 2.1904984 7.274967 -5.20353 -5.333193 -1.7781101 -5.312803 2.8291345 -0.4894664 1.0877613 0.5711509 -5.4555917 1.8396568 -7.338285 2.2928317 6.9075985 0.083146416 -2.779792 -2.629721 -1.3655947 -3.4947386 -2.8028638 -3.4682777 -5.427116 7.516641 0.2868901 -0.097930364 6.2448435 5.6824827
749717 1.7883517 -1.9632258 0.5056383 3.894353 0.93831867 5.7595677 7.088 2.5068944 -6.954683 -1.5918882 -1.9776852 15.713301 -3.0266726 5.0471473 0.9477909 -2.8326578 -6.676453 -0.6554302 -1.6976302 -2.9861293 -2.3527975 4.185977 0.4563857 0.65654224 -5.77121 0.7674401 0.74330306 12.805281 1.2696598 -0.40544084 5.124178 -0.5854852 7.186055 0.28205645 -0.23653838 -2.921327 -0.1268221 7.1263976 1.8345599 -5.266176 -6.515127 -2.6055758 2.607814 -6.869929 6.639744 -0.13247856 -0.4903192 6.8369436 0.40720895 6.752905 -1.3925174 3.977677 6.782112 -3.7223947 6.010637 -3.8137746 -7.7453184 -0.6869474 -4.8867235 3.9283433 5.3033285 -1.2775533 0.5071209 -0.09797288
684059 6.0214176 -1.1810908 6.8149467 -2.762053 -2.0483763 3.319909 6.901912 -6.2230105 -2.8185427 3.7711856 -0.12699795 4.895624 1.4007847 0.44262266 -2.9347668 1.8055165 4.603769 3.5825655 -1.8053186 -10.71614 -2.2949123 3.1100051 -0.8414264 -1.7778842 4.784895 2.343579 -0.8903383 9.237735 -0.039017618 -6.5046253 6.672107 -7.1048455 6.080497 -1.6909711 0.83259594 -6.3178244 3.285104 0.15197645 -5.3324323 -3.7121012 0.82088435 -8.322762 4.0472016 4.397492 3.4696333 -0.489729 -3.9987814 3.0480409 -7.686129 1.5088582 9.936468 3.3737383 -3.128849 -8.4145975 -0.80927575 -1.5624502 -0.359406 -6.2828655 -7.779855 6.4133887 -2.5704563 -0.33724496 4.893311 2.6889434
908141 5.8561244 -1.2434735 5.382233 -0.37395656 -5.4232407 8.666909 4.48935 -4.341451 -2.1252112 0.9025633 3.687197 9.704153 1.8617288 -0.575799 -0.6060161 2.2378898 -0.24640796 1.8963672 -2.0397189 -11.322887 -1.1013515 1.5015557 0.8525014 -3.1695375 4.1814966 1.0677935 -1.7903534 9.886884 0.95644987 -4.3242917 -1.1047183 -4.081847 8.564813 -2.8480816 -4.0353713 -3.1495275 2.2608979 6.189057 -4.027835 -0.025819939 5.0063815 -4.346018 0.73726285 2.2892725 4.247488 1.8216718 -0.91107714 3.0239239 -6.886834 7.4603534 5.9558806 2.1957633 -0.17098022 -7.9420257 3.8017948 -1.5794069 -0.8105246 -7.7272263 -8.819691 7.5658627 -1.208543 -0.8526761 6.172039 -5.3876796
1298357 2.3005507 2.6556222 5.679923 4.4683185 -0.8819951 5.69723 2.7785838 1.2480515 -3.0422733 0.640724 2.0686705 9.702847 5.5209775 7.0843287 2.6612186 -6.80724 -1.0034608 -0.5245557 -6.3737097 -3.0146499 -2.3710048 0.79471695 -4.0488214 1.5868771 -2.064628 -6.835071 5.906936 6.572286 5.4616437 -4.1352205 8.124114 -2.432515 15.622201 2.0628006 -4.681425 2.8028953 6.457573 1.5271721 -2.4210687 1.6569448 -2.6209857 -5.9612203 -2.9673123 5.130023 4.8398924 3.4023259 -1.9567264 1.4775451 -2.640778 0.8330698 5.403128 8.010419 -4.114237 2.341283 0.40412632 -12.49342 -5.1197395 -7.430842 -4.1593866 3.0514026 -3.7927394 0.56998813 4.464923 3.4848335
905977 -0.2874912 2.0384207 2.0477896 3.3078868 -4.4866285 8.314104 4.286526 0.36279207 -4.8144803 2.175166 6.1660924 14.044725 -0.14300689 6.2890606 -3.2520661 2.4451761 -9.391285 2.38097 -0.2022664 -3.3543684 -7.437963 -2.7248523 -3.1914985 3.4434552 -2.1796865 -2.7489488 -0.6177877 12.306455 0.86235636 -4.811722 0.045922767 1.0753757 3.9851084 3.0357165 -3.1076734 -4.334107 2.2122574 1.6735938 -0.98903793 -7.5771422 1.6474473 -2.2931817 -2.2671173 -0.71802664 8.649204 -2.1489952 -0.6629197 6.953484 -7.4640684 6.7436857 4.7075534 -0.02690835 6.1335278 1.2835597 5.4178457 -0.052153885 -2.5313838 -7.424023 -5.2309628 1.8840709 0.7957317 8.622088 5.125136 -6.170027
909722 0.2896906 -1.128946 -2.2864792 7.591151 1.412398 0.52111614 0.69321275 -2.6007192 5.1734715 -1.811958 0.6998493 9.657809 0.4037575 9.431659 5.902895 -1.1534895 -0.14264058 -1.4206027 1.15631 -5.2140217 -7.050994 6.7256336 -4.9026184 -0.27371532 1.5162257 3.7727857 -0.034571126 5.7774124 2.1704586 0.21761788 -0.100250885 1.5920924 5.633575 4.754727 1.6153021 -5.9185266 4.9238086 -1.6677978 -3.5124476 -7.05152 2.3356621 -7.96746 6.330255 -8.418221 2.3423443 4.9243283 -10.162846 0.34471712 -11.193266 2.1190367 8.591309 -1.9663578 -8.196943 -2.1292622 0.96006167 -6.603274 -3.7718976 -10.938187 0.5809817 3.5748255 6.201244 3.2659905 0.54372764 2.7744982
1330987 9.395697 -2.3687656 5.7326713 0.54905534 -4.2534876 9.779597 5.088788 -6.4802375 -6.3697376 2.2321088 -3.0087404 1.0015097 7.2607102 2.7502005 -2.7430243 0.6897526 0.21170378 4.4740434 -1.481669 -12.014581 -2.5422487 3.6387494 0.35276648 -3.729323 5.049801 1.5062797 -3.057027 10.137902 0.093385465 -2.5351193 4.7823114 -4.35687 8.491172 -2.466011 2.6146212 -3.4212224 0.43775088 1.4417868 -5.111898 -5.394424 0.030443858 -5.1192575 1.5199381 5.1645293 1.7905394 -0.7692115 -1.3587645 2.9158247 -6.8620152 0.45055136 7.1792126 1.5986221 -2.8496087 -5.532729 1.8922087 -2.8272543 -0.39462394 -5.1951036 -9.060357 5.983623 -1.276758 0.43558773 4.8028684 -3.459074
930298 2.4546735 3.1945252 6.01648 0.9846176 -2.5447876 7.8650613 5.9278946 -2.2639275 -2.9204788 -2.5713491 -0.6223135 18.217236 -1.7553052 5.0192385 1.4544296 1.9205201 -7.5153875 -3.7909222 0.56088525 -4.1287217 -8.669143 1.5137925 -0.4197452 3.1535656 -12.259892 3.1293836 -1.3568611 5.3537025 -0.8893284 1.2372628 3.4377084 -2.6138482 5.4330454 -3.682706 -4.3598022 -3.822163 -1.822633 1.6642404 -6.597417 2.6841185 -1.1420497 -7.8358874 0.09671283 -2.6978548 1.7573122 5.495265 -5.431126 2.5678017 3.3505661 0.5715872 -7.8005295 3.675501 1.3828889 -1.1085886 -1.2047554 2.8211112 -5.915223 4.3060656 -1.4343871 4.253047 -2.1660368 2.80106 2.3416784 1.8072078
908481 2.0809033 -5.905043 -0.16519436 3.7144263 0.71187186 13.085648 5.6310015 2.0042098 -7.259744 3.461963 -1.7195553 14.929592 -1.5859866 3.4683273 2.3795266 -2.0142887 -8.605282 0.39777228 0.40562415 -4.891447 -3.011465 3.1767068 -1.7955929 -3.4961548 -6.303276 3.705781 -3.850443 10.697202 3.4243424 -3.08799 0.36819533 0.9474532 3.439102 -1.2818412 2.270188 -3.1658537 -2.6138594 8.767711 -3.1258743 -7.695153 -7.7890315 -4.3029346 4.262656 -1.5641989 1.9143542 -1.320633 -1.5123094 3.943317 -3.8979292 6.951614 -1.2221367 4.599892 8.693479 -0.5788868 0.811419 0.40313256 -4.73276 -2.4503124 -3.4083354 7.7444196 -0.5373462 -0.9065718 0.7744475 -2.476258
908445 3.2582479 2.0987484 1.4269646 9.999446 3.0812259 5.5487185 -5.0975103 -2.4887352 0.18814798 0.23207548 1.1859696 6.518923 0.87530845 10.921495 5.945592 -10.351905 -0.12477468 -4.0416813 -6.043369 -0.463381 -4.922309 7.702966 -5.9594173 2.1027572 -3.767595 -6.8896885 3.3782601 8.349628 9.320272 -1.8332407 5.616142 -2.0681207 10.291931 0.3110114 0.4989426 3.6966403 6.642971 0.46079245 -4.623402 1.3946302 -4.3064537 -4.9736333 -0.90875286 0.6064154 -0.36064285 5.328507 -2.4048834 0.40211457 -3.6240008 0.15745266 4.839061 3.2251568 -2.7598608 4.7725935 -0.32214317 -10.51746 -1.6800735 -6.7982006 0.112316854 6.9106894 -2.145227 -0.74876505 4.15983 1.5237484
908457 5.2241907 -5.391781 0.082287036 4.762829 -3.638778 7.0319166 0.5749761 3.4221835 -0.01833867 -2.679896 0.8020426 12.597442 -5.596843 4.8839097 -3.5236046 0.015637916 -1.4523076 0.061564583 -5.197323 -10.490923 -3.9211094 1.5530252 -4.5077715 -6.999196 0.85485744 -2.14522 -6.0097966 12.33333 1.7663883 1.3963844 2.0969 -4.3206935 8.564574 -1.3161129 1.5162003 4.613345 5.4023314 7.297404 -3.702424 2.6596103 10.218785 -3.9689095 -0.720792 1.9785699 0.6992698 2.2036912 -1.4177154 -2.1069467 -4.0644155 -3.9131727 2.2307737 -1.5203749 -3.5755386 1.0125424 6.084508 -1.8926746 -0.19539444 -10.3209095 -4.5477533 5.5280566 1.9452461 3.706158 7.5076475 -1.1498032
910546 7.016634 1.0655173 2.8044927 0.9025982 -3.4243615 7.7294683 6.795899 -2.234742 -0.26881382 2.3849466 1.9404323 6.3558774 4.081803 0.7293493 -3.0021653 -0.7217742 -4.0599265 -0.5458211 -8.522628 -13.077228 -2.4569006 2.7756515 -1.8882035 -0.38547212 3.387697 0.8705543 0.14733475 11.07267 1.0430005 -1.1396394 -0.31788862 -2.0200472 6.6000147 -0.9983187 0.8282635 -3.3621583 -1.2583044 1.4475268 -6.3145013 -2.2518575 5.226428 -5.1976457 -1.5716895 -1.6411409 3.5137658 3.0136194 -2.4527283 1.798103 -7.0239477 -0.14718302 8.538374 -2.0458267 -6.3183627 -2.8653462 3.525751 2.4305973 -5.9111586 -13.92264 -6.8833065 2.030085 -4.691389 2.1361582 2.4407768 -0.7137089
1331038 4.04589 -1.4150671 4.179513 -3.210483 -3.282901 6.5461884 5.1729627 -3.2494895 -5.425117 0.7607886 -3.4301422 6.149471 6.0096745 2.4467175 -1.289925 -1.4829099 -0.23922068 -0.92612445 -6.5259604 -13.11559 -2.2666407 2.8449988 0.4005141 -1.8531979 7.9062424 -2.026197 -3.832194 12.302478 2.327574 -1.1222306 -1.0587295 -4.636124 10.339511 -5.3000426 -0.5432932 -0.47164392 -0.9182494 2.8290951 -4.794251 -4.2794733 3.7771444 -2.8971207 3.2960393 -1.3906422 1.0935392 1.3551526 -2.1625843 -0.5015371 -6.6911216 0.5038459 8.328148 2.7057986 -2.8323681 -5.928038 2.8634932 -0.01311436 -2.8849597 -6.5976505 -6.72428 10.202346 -4.3104424 0.025820682 3.318746 -2.3991973
924187 4.8031764 -1.0330335 4.6623635 -1.72185 -3.7461722 3.7231836 3.6657324 2.1550677 -0.5620369 -1.4461073 0.68461555 14.016779 2.6334832 1.3618606 -3.1147845 1.3289249 1.1087143 1.6564281 -2.5810997 -7.4933023 -2.7487698 2.8317451 -1.7310903 4.1478305 -13.947583 -0.39334357 -2.8495646 8.404059 3.344014 5.0495934 -5.603745 2.034723 6.0644336 -8.088099 -5.6107635 -3.504789 -1.2003994 1.8720376 -7.9589176 3.712635 -4.1458874 -9.628018 3.3161318 2.6665363 -2.7367468 0.34781873 -5.12513 -1.4010334 -0.89999896 3.1719222 -6.4755554 3.021535 1.0597392 1.6806116 0.9689975 3.8485932 -5.613123 0.5386056 2.3973033 6.974638 -7.237371 -2.468615 3.618692 3.566798
1240151 3.530164 -1.66089 3.1893315 6.176636 0.7911081 7.8479166 -1.8921348 -1.9484352 -7.0913525 0.9659954 0.065685466 10.421226 -0.24468584 10.598548 4.5617876 -9.761837 -3.8724065 -1.3130468 -2.7545826 -3.839829 -1.1019328 2.3369086 -5.078236 -4.1375647 -5.290588 -1.0176299 0.12215506 5.516355 5.4080825 -4.91903 5.258899 -1.593148 12.607324 -0.8173843 -2.7975037 1.0628768 5.00997 6.496885 -5.2257867 -1.4520462 -4.737489 -6.652178 -0.662007 3.9259498 2.5696244 2.1471858 -4.3733683 1.3429047 -3.3575993 4.282304 0.8822748 6.9855986 3.1659331 1.7694273 1.1484524 -7.7533655 -3.8615575 -6.0200605 -4.9482503 7.427501 -4.069638 -3.6331222 3.3344152 0.03793018
906855 3.5809653 -3.5523794 0.7169954 3.9849417 -5.557998 6.5856757 3.732457 -4.32155 -4.5287814 -1.3353816 1.415326 6.194469 1.3464533 4.3471327 1.5358107 0.26216882 -0.04533929 2.453842 -7.448228 -11.168637 -2.2343557 8.046358 -3.5773916 -1.9372663 3.0030954 0.23235667 0.6697233 14.595059 0.72073996 -1.5808378 -3.0581596 -2.101397 8.094495 -4.2302513 -2.5285153 -5.4587426 -1.012539 1.448979 -3.8344755 -1.5231463 4.8336167 -3.8320158 0.60437286 -4.354841 6.2255263 3.0420787 -0.42147467 2.2622652 -7.1613364 2.2551498 8.505852 2.3236885 -9.080596 -2.6159856 2.4106164 -2.5284894 -4.0789504 -7.6590486 -1.8043762 4.773856 -1.3756282 -3.7899508 5.5337324 -1.2782788
687561 0.11017017 2.1156363 2.8959267 11.285373 8.475678 5.64181 -1.4393855 -3.0707226 0.056902222 3.2703905 0.120167464 11.284132 -4.5551114 9.270385 2.3804975 0.941547 -3.6533291 -4.7240295 -3.5867577 -1.5202582 -9.364248 7.3660264 -2.832826 -0.34612998 -1.4846416 0.5404475 0.3260123 11.621694 7.028159 -0.17114289 0.00944928 -2.936883 5.4955096 2.0805297 3.1033113 -3.7703767 2.4603226 -4.377485 -5.826479 -4.909777 -2.4489703 -2.4054484 3.2410579 -5.6828437 2.3105967 4.720956 -2.1385596 7.149164 -3.96793 2.8599377 4.7221074 -3.9423032 3.928655 0.24758069 3.4633486 -0.08332513 -0.6460833 -13.757021 0.3850867 6.0949636 -1.4454601 -1.1801654 2.611649 -0.65209514
910544 5.5242243 -1.3534089 5.2678246 2.2434735 -4.418688 6.482592 2.8880348 -4.022094 -4.52465 1.9215951 0.044026203 12.175784 1.6607804 3.144691 1.1309013 2.009007 -3.216708 1.1618072 -6.9023747 -8.543208 -5.841883 6.494359 -6.159669 -0.16904312 4.1990156 -0.34911233 2.1067529 8.513388 -1.4120525 -7.302749 3.889677 -3.4466074 7.182028 -1.5745335 5.6147194 -7.116628 -0.9174126 3.1581354 -7.1749506 -5.94139 -2.29624 -6.747353 6.3702474 1.357433 -2.5247686 -0.32485566 -2.0839524 6.2531943 -8.97854 -0.39818263 8.317973 4.992953 -2.8011477 -3.2490506 -4.503142 -0.42614025 -1.0692719 -3.9387097 -4.9682484 1.7631913 -1.7576911 -2.967377 5.895159 1.8664689
1503368 0.16095495 -0.3877913 1.6247991 4.3491373 2.9832199 3.2013316 0.39082447 -4.760405 -2.0782292 -1.4445106 2.874927 9.85502 -3.30132 11.074317 0.9312247 -2.056312 3.8567102 -2.6292462 -2.5184426 -2.2486298 -2.343992 5.406007 -0.44518903 -1.2358451 2.1574621 -6.253461 -0.67196524 12.796487 7.929608 2.40587 7.404072 -6.2300105 9.598983 -0.34473497 -1.5733744 -3.613316 3.1276906 -3.1309774 -3.7071767 -2.4582906 2.6532853 -6.367576 -1.0067837 -6.192766 5.7822986 4.507916 -2.302704 1.1499385 -0.7628723 8.34564 8.047958 0.3414316 -5.0929017 -9.27683 2.3102968 -7.3608 -3.2581089 -9.380199 -1.1942015 7.0508122 -0.9691655 1.8347106 4.23709 0.53119844
1240179 3.5473413 0.3310017 4.0158253 1.1412392 -1.0847561 6.359989 5.20902 -1.2875426 -5.6226864 -0.7940006 0.024542095 16.870642 -3.0532713 5.658082 1.7611705 -0.34726277 -6.916651 -2.065235 0.9479408 -2.7573802 -8.004382 0.5368202 0.1506121 -2.270823 -14.787033 3.1635332 -1.3136764 6.1718483 -2.106913 1.2948775 1.5034674 -2.7359955 4.520824 -6.525324 -3.5211525 -5.081022 -2.0338166 2.2862024 -4.49429 1.3999835 0.34594494 -8.363245 1.6706828 -0.5754681 3.3712234 3.2975266 -4.4953938 -1.3965415 4.9710364 0.14424303 -11.251407 2.2013905 2.3752687 -1.5505885 -0.3033784 1.8758556 -8.626123 5.26385 -2.7746294 4.1902604 -0.77970976 3.7182977 1.6614159 0.16685836
1290905 1.3336226 -0.27120563 2.403917 0.50058216 0.35677573 2.8376641 1.1354039 0.12526543 -0.062068976 0.103027046 1.1994458 9.601641 -4.152447 5.3876514 -1.1420263 -6.2066274 -1.3900001 -5.230212 -2.2955382 -6.793158 -3.276546 8.427972 -0.6059881 4.5001416 -6.2205434 -3.4841714 -0.4412932 8.53984 6.4156833 8.361548 4.5874186 1.2562938 7.5184965 0.3597097 -3.8748233 -5.278302 1.5318304 4.552268 2.2917843 -8.345898 -7.266269 -5.372609 3.0133276 -9.754068 2.0642135 7.7984324 -4.579515 -0.89320993 -6.526015 4.0046673 5.689309 1.7227241 -5.7444773 0.29472184 2.6841884 -2.0794992 -8.090363 -4.055472 3.630482 8.224805 2.0927289 0.96891755 -7.5641365 4.010257
1299050 0.33114076 -0.021945203 3.4330442 -1.8954037 3.206899 5.942395 4.1758184 1.8071171 0.26703176 3.943391 13.106804 18.588842 1.0597351 5.444108 3.241765 2.9187574 -3.56341 -3.8174908 -8.13082 -5.2986617 -1.5865406 9.121341 -2.883773 0.7327993 0.29092404 -1.9576305 2.0150855 4.916811 0.23845582 -1.6028422 3.3780897 -5.610811 6.495784 2.220885 10.914585 -3.515895 -1.407487 2.644218 0.1528186 -1.3854553 -2.3021607 -7.128682 6.1245613 1.3121374 -2.602688 6.721721 1.3398328 -0.27795154 -0.08775592 -8.290331 -1.7601045 5.417717 -8.039047 0.16358094 4.259951 -5.0029907 -2.386586 -2.3373494 0.8065071 1.8245134 3.476406 1.0725493 0.15632193 2.065104
905959 -5.5182366 -2.4752042 1.5244689 4.0178714 2.8979137 3.3350065 0.7858421 1.7017635 -1.0460633 -0.0028147926 -2.6832845 16.666643 -3.1022382 2.9494848 2.974219 -4.180928 1.4873668 0.40296945 -9.087773 -2.416826 -1.3276877 10.25837 -1.9582015 1.7350714 1.5798372 -0.79951775 0.998133 15.016409 5.2608194 5.793405 -1.6044357 -3.3814251 4.522602 -1.8985455 1.4323875 -2.7656515 1.2487409 1.9206041 -5.94655 -3.342066 -3.6533034 -6.829522 5.1511655 -5.303373 0.06790175 2.748382 -3.6273336 2.9806092 -4.842317 0.9254884 6.482434 2.1082633 1.0710092 0.40986273 2.7516813 -1.998459 -3.3264394 -8.123187 1.3853277 6.186109 -3.8073006 -3.8166516 4.920232 -3.622764
906696 2.5800006 2.6790917 0.112905845 10.149906 -1.8609357 4.7489676 0.7305126 -2.9452236 0.32261112 5.7689304 2.284808 7.681446 -3.3544254 8.090033 -2.12658 3.6999357 1.0620141 -1.2884865 -4.651916 -7.090196 -8.624188 4.6395335 -5.129482 2.2470646 -0.8029375 -1.6013741 1.5749997 12.514569 -1.0857106 -0.84370625 4.184993 2.0047739 5.609077 6.6959896 2.7054732 -8.590407 3.8394232 -3.7302353 -3.185254 -1.8570553 4.7000904 -3.7011178 0.9916388 -1.6339353 3.7223568 3.290419 -3.1902707 -1.2292383 -9.7281065 -0.61157113 6.0778275 -2.8638687 -9.6098995 0.36771825 -0.10111368 -0.28808802 -3.2424915 -13.082799 1.0389752 3.8981965 1.4337188 4.98881 -1.3110564 3.5641882
910916 2.7454574 -0.58206624 5.333646 -4.619529 0.100680895 8.552061 8.405959 0.603093 -1.7703941 3.573315 13.04035 16.446955 -0.9496195 5.047513 -3.6167507 3.1108663 -6.349035 -1.8992574 -3.3929017 -7.081368 -4.476154 5.1664567 0.26671392 -0.0037137154 -4.195391 0.72929096 3.4939415 4.911597 0.14776081 -3.4687374 6.6748695 -6.4169717 5.5726194 1.5418867 6.798996 -7.2667027 0.5277145 2.9423175 -0.53025395 -3.1223266 -0.6001778 -7.465632 4.8582263 2.6572835 1.40386 2.6978226 1.5671803 1.6614772 2.930534 -6.4063163 -1.8797522 2.5811157 -4.414432 -2.0759618 4.870916 -4.927406 -5.222822 -3.6802068 -3.7140212 -0.24594195 5.1744385 5.981678 2.0846965 2.2475781
