981 64
1240127 9.67429 5.7371874 1.5110385 -8.764352 2.0043979 0.28221118 -0.8513242 -4.847844 -1.9458894 12.577228 11.001206 -4.124078 -1.5155778 -13.570181 -7.8202443 7.7061744 2.8821511 -0.86365837 1.3570116 -4.4382 5.0432405 -6.8532143 6.191137 12.987017 4.74185 -3.640657 3.4299133 4.1482162 6.3131313 4.026593 13.236268 3.3330245 6.4210424 9.479248 -6.5120473 1.3943306 -3.7709856 -1.9625669 9.4065895 0.28830367 1.9432613 3.0782952 -6.6752477 -0.71006805 9.217056 4.0389986 -12.822249 -0.014733931 2.6279175 -8.837591 2.440735 6.8857684 -2.7131634 -0.76217556 -4.122227 -1.2157103 15.562617 1.4691787 2.3311765 -1.417998 -3.2571478 4.6167884 2.593905 1.7753112
906871 5.251728 0.19469592 4.816449 4.8820667 5.282767 8.166429 -3.271006 -3.7290065 0.7865364 0.7138016 5.371814 -12.489019 -4.0471864 -1.1938447 -3.059372 2.9898975 -8.288819 -2.3234684 -8.0330305 2.2013884 12.838241 3.381841 -4.735494 16.91214 -5.6363807 7.085503 -0.283442 -5.116292 6.944318 6.9476404 4.757782 14.71872 4.077492 -0.7444951 -5.345181 8.545837 3.9985683 2.3362381 10.348316 5.624185 3.1102557 0.7565133 -8.980108 -8.252736 6.362415 -2.4149613 2.878613 -5.084169 9.570668 -3.3290498 7.125994 -0.36864746 -1.6759521 -0.5881177 0.24122234 -4.16383 -6.2640343 2.939898 1.3401616 -1.6129864 -10.70502 -4.8600063 -3.8965294 -6.503484
907794 -1.8586847 3.0971875 3.2136307 -3.528161 1.7209969 0.7292746 -0.6652756 -5.793192 -1.8829488 11.774349 6.010167 -5.1462855 -3.4405875 -12.23981 1.0877995 9.466238 -3.4938238 -2.228412 -2.9565797 -1.4393593 6.236793 -0.91559184 11.408392 11.588982 -8.345191 0.41458756 -0.5052329 6.478766 5.967224 1.2488153 0.09581433 -2.4633837 12.795297 3.9688156 -14.459306 0.098444864 8.9542 1.4007351 5.2638373 6.5598025 -2.1671288 -2.225902 -0.53186685 -4.459501 0.38462847 1.5598606 -5.9312 6.710807 -6.107371 -12.089052 4.9443107 -0.21172573 -0.6752065 -5.8641415 2.7747521 -12.617999 2.2367532 -7.5848823 -0.18007465 -7.702365 -3.631358 4.3648763 2.7396178 8.428406
1240208 -8.483743 -2.7694616 8.552575 -0.98092306 0.23328218 3.236365 -3.685383 -4.3580604 -0.55482334 6.9880195 8.524418 -9.612086 1.5773408 2.2960172 -1.6185322 -0.24326478 -4.458086 0.89512044 -2.686583 0.11911297 5.801771 0.6831374 -4.1402535 16.330706 0.00314096 0.30872995 2.4918678 -7.7988434 12.163144 3.6712704 1.662409 11.681066 7.198245 1.7586353 -7.11312 11.69839 0.3764454 2.2832413 9.572609 7.2179284 3.876447 -4.472831 -13.428442 3.334197 10.255437 4.2201447 2.7026625 -1.1167327 0.8680767 -5.2282386 6.0323925 0.97930837 -0.12499234 0.94794136 -10.686915 2.5392983 -1.5877187 1.8538316 0.56528324 2.9478743 0.07553313 3.6315105 -3.603075 -4.2269044
905958 1.9584974 -3.5539985 10.290358 5.9818697 8.364728 7.2577357 -0.51667136 -2.1597803 2.9933555 4.5413666 1.037549 -12.469279 1.5631808 5.2509975 -6.8100195 8.759157 -1.9487907 -4.441945 -1.1550794 5.712362 2.6298184 -0.8210193 3.5037985 11.4250765 -3.5273292 -6.796123 1.8469015 1.6400732 4.1136503 3.797771 1.06555 -1.5078921 11.164781 4.259276 -11.503469 5.393977 9.877167 8.003499 9.094804 3.8993251 -3.1532938 -2.543528 0.10621485 -6.8795657 7.0957675 1.8444917 -8.640138 2.9392405 -1.1440388 -3.754651 5.997473 5.0150614 -5.1526628 -8.050565 -5.5862827 0.6389386 -1.3722322 -1.7504213 4.6175733 -4.501197 -6.613851 4.0724745 -7.8324866 7.3624845
910781 14.296454 -1.3879807 4.468108 -0.27163416 1.3886758 4.5798845 4.486277 -5.3125257 -1.8649136 9.38119 10.39287 7.2659135 1.6262668 -11.956827 -7.5141554 10.876067 0.121646404 -1.3647257 0.24804987 -3.314024 6.2390714 -2.9530602 5.1748357 10.891104 6.3071213 4.87083 3.5604365 9.162911 -0.522959 -1.7111387 11.472252 3.2091515 6.9514284 6.229056 -5.862707 4.0230026 -3.5655527 4.039465 9.945971 -1.5652872 -0.71954393 3.6612759 -5.6132135 -4.5172215 4.110984 4.344044 -11.232033 2.7471821 3.5460355 -7.6756654 2.0156434 11.499964 -6.4657564 1.7394794 7.087834 -2.0334175 10.7654085 -3.491447 0.8133879 -2.3568878 -5.084482 7.104564 2.886175 4.271491
1659823 -0.022788757 4.041634 7.2991724 -4.245141 2.5948174 0.43708923 -4.1223392 -7.971376 -2.4003115 13.163716 5.4289546 -6.4655404 0.28876567 -9.750051 -1.6012318 4.3238955 -3.527018 -8.797789 -5.637288 -4.572468 2.014801 -1.7341696 12.412711 11.807484 -0.72848 -1.840657 2.9833333 1.6906986 4.1388083 3.890105 3.4780989 -2.81278 10.221305 5.399793 -10.708972 0.90042883 6.773471 -0.2874899 1.9195918 3.6562831 -1.1857477 -4.767947 -1.646227 4.792083 3.2743416 3.7241855 -10.288557 4.499425 -1.005988 -8.23657 4.157898 -0.75100976 -0.6639522 -4.3548074 -4.559158 -5.323412 12.677744 -4.6588893 -0.22829859 -10.491636 -1.634534 7.9272537 -0.15732646 10.776215
907042 6.883369 -0.70151854 -3.2007468 5.7045236 5.759711 9.708243 3.85768 -0.6824949 -4.3786674 -7.750467 3.9147263 -8.036947 0.74861497 -1.4771549 -0.67065555 6.0021386 -8.5679035 -7.4046326 -6.295578 -0.24305043 9.953669 0.25014278 -4.9943423 11.596094 -6.597819 14.489888 2.971022 6.135508 -1.4925656 8.43637 -1.6454787 4.53799 1.991799 0.35858867 -4.5052795 2.6787858 5.059511 4.076305 7.378342 1.2391192 1.777157 4.897535 -9.292648 -10.874054 2.8184123 -2.470912 -2.3233562 -7.123761 12.591664 -4.41822 9.505159 3.064154 -1.7149258 -1.3035649 3.9958887 -3.0407274 -6.6349187 3.8751934 2.4203522 1.7095819 -11.536073 -2.8675923 -11.625055 -1.8205478
907051 13.012853 -0.5698627 -2.290974 -2.9967592 2.8307226 2.7156305 6.7838163 -1.61958 -5.2453437 14.299661 11.859488 2.033899 -5.875466 -10.77667 -6.233064 5.5173206 3.5796237 -0.15761757 7.652808 -2.096506 3.5408716 -10.219406 4.3734093 11.513033 6.0254245 -4.1832576 4.8020716 6.795205 0.45224008 1.5376799 7.8947263 -2.043468 3.2746282 9.253726 -5.4802713 1.635815 -2.4857254 0.6430234 9.896676 -2.5556192 0.6663637 0.09095621 -3.9031246 -5.9775877 6.5292277 1.1786475 -10.603843 0.46607888 4.118231 -5.396757 2.4569502 9.462239 -3.8171697 1.9446177 0.7270709 0.3815699 12.416227 -1.7540623 1.8638128 3.6857073 -4.213001 6.328023 6.4785123 -2.08407
906800 10.274544 -5.7004514 7.650685 13.796578 7.7849793 9.092259 -4.189015 4.0748367 6.079182 3.2287068 1.6041136 -9.050016 2.4937801 7.6609797 -4.3525233 16.13171 -4.2719054 -1.9581854 -3.3221383 8.108268 3.171702 5.4738207 3.9159212 7.874475 -8.510105 -4.3019423 -2.0532935 -0.9758354 4.3975625 0.007962077 2.2246773 1.792904 10.413277 3.5012636 -7.4913044 6.5121565 8.049579 10.976382 9.99925 3.5507638 0.89307547 -2.9248903 7.7153788 -9.237515 4.610722 -2.4916465 -6.180349 5.359422 1.2214559 -2.842951 5.682761 8.32543 -7.996943 -6.7780023 0.834965 -3.7744741 -7.5526485 -0.5746268 7.6266284 -10.473037 -7.412285 -2.9866128 -2.9323983 8.609134
908129 15.684949 -0.75407255 2.3207293 -1.1597587 3.3107038 4.555946 2.2916126 -4.351979 -1.0663425 6.6841793 7.5358067 3.2488718 -3.9024255 -5.789388 -12.175793 7.453665 0.5120579 1.2458652 -2.256225 -5.276064 8.991097 -4.8079734 2.3709812 11.032814 7.2884545 1.2697597 4.776789 4.3867583 -1.5546514 -1.0276045 14.403283 5.764892 5.8315563 3.7675257 -6.09049 4.5494175 -3.7272358 1.6833469 11.254857 -1.857062 -2.2195356 2.072186 -8.40539 -1.0909897 3.3781748 1.1905072 -13.31623 0.044148117 -1.0934458 -2.5114415 0.10832112 13.504466 -5.591696 2.213184 1.5446312 1.3193897 12.584224 1.6806772 -1.3697939 -0.36313942 -4.405242 4.983371 2.1517494 3.9168353
687815 -9.997897 -4.4123635 8.989092 -3.5128503 1.7455784 3.1373904 1.8789197 -1.9619677 -2.3698752 11.2302685 8.552851 -10.134353 -2.2417817 3.4949205 -0.39756578 -2.1505206 -4.2177258 1.4757291 0.7056298 -4.6824164 7.694028 -0.36603197 -4.0823274 15.975898 -0.37086824 -3.5734968 6.1976724 -5.482428 6.01824 -1.2483995 1.8524681 11.4070015 6.8822036 5.2491603 -6.9454794 10.388477 0.5535311 0.992466 8.704111 2.9864702 4.9483323 -4.114474 -9.646838 1.491813 10.500148 0.8260078 2.4682782 0.6953342 -0.5343996 -2.9082491 6.902781 3.7427082 0.6814023 1.6690211 -8.207393 -0.6117059 3.8003702 2.2559636 3.6317947 5.4647093 -0.8627479 1.1248194 -6.2725763 -3.522066
909735 13.67084 3.5512743 5.3287425 2.4315944 3.1930106 1.2832605 4.8332596 -1.0073841 -0.47521767 6.3603663 10.727631 0.9251748 1.5284083 -7.0324793 -8.282145 11.982132 2.2287428 -1.1932522 1.4738559 -1.4498199 8.50679 -2.465076 5.4615273 8.013428 3.1613731 -1.4071872 5.795066 8.59293 -0.2841146 0.2809287 8.709973 3.066814 11.61298 8.885969 -5.2610884 2.4238045 -0.58333707 6.134879 13.472701 0.2817095 2.3198147 -2.1715727 -1.9941115 -5.7086024 5.891806 -0.9505071 -15.084983 4.1313 4.857058 -8.899081 5.3022437 14.168312 -8.642395 -0.64308923 3.8634198 -1.9604592 7.083064 -0.8599971 4.666404 -1.0604948 -5.9500756 2.642012 0.009886828 2.5976188
909737 -9.542433 -2.378459 9.6346855 -2.0180235 3.2434287 1.4570438 -2.9801629 0.6238493 -1.3072684 9.877152 7.995804 -7.6636233 6.1463733 5.1589766 0.36483365 0.564152 0.62639654 -2.6848385 -3.569065 -1.309659 6.579363 3.0629163 -6.7881413 11.054469 1.05181 1.8953022 5.3239512 -4.701994 10.164865 1.5910515 0.53304636 8.945383 11.0015 3.7297037 -5.9454837 13.027816 1.6476632 4.056704 8.59549 4.529719 5.4832764 -8.075709 -7.91605 4.4584813 8.489655 2.3027647 2.7024455 -5.4842553 1.1788541 -7.430979 4.877813 5.4599953 -3.6419134 0.8749773 -14.491928 1.2114064 3.8361874 1.890522 5.569078 1.6958227 -3.302242 5.1087637 -2.5854347 -3.5187945
907272 11.043558 -4.210649 9.915337 14.177456 9.210186 6.731746 0.9189254 1.9334738 3.7888155 3.0398295 3.8465168 -14.329253 -0.92457277 1.5467136 -7.305674 11.501456 -1.083131 -1.2861828 1.1457248 5.065709 2.3641093 2.1822627 7.025109 9.753446 -2.194542 -2.983738 -3.4016151 0.47957006 6.1917934 4.7029543 2.3054473 -3.3768642 4.962885 3.1813598 -10.672727 4.0081086 9.55558 2.2179892 5.206017 6.2875667 -1.5996903 -1.0006391 3.4963787 -6.5705633 6.8785076 -0.72670686 -7.889928 4.163233 -4.8358026 -3.8284101 1.5576859 5.486869 -6.3480124 -6.5892177 -6.499411 -4.636364 -2.9388957 -2.3828545 3.3138244 -5.1430583 -7.1936316 -1.8729064 -4.230752 10.080141
1298362 -5.9441895 -8.201009 4.524084 -2.1972668 4.7495475 2.6204784 6.105494 -5.1844316 -11.921251 4.969075 8.297903 -5.7370934 -3.3684344 12.019617 4.9787264 -0.5875971 -0.22259383 -6.7888384 2.356452 -2.823354 4.2951746 2.3424807 -1.9176773 2.2018473 5.734149 8.54644 -0.15385076 -4.5685306 8.9761505 -7.234811 1.9975896 10.850509 15.270005 2.489956 -10.234661 6.681211 -4.2557635 5.859486 3.4984732 -3.2989557 -3.261395 -5.339171 -7.638159 2.315668 10.971807 1.5118257 4.4406147 3.0535736 1.9278729 -6.5837803 7.82297 5.9552755 5.558547 -7.9679904 -3.6401694 -1.4465213 0.30160978 -0.47409356 0.20222732 1.7918153 1.0237931 2.5211647 -11.490716 -1.7566298
910944 9.955976 -7.3690557 10.198219 14.345222 8.597482 8.662212 -3.3886375 4.7801547 1.5533693 2.6754155 2.6473658 -9.1834755 1.8988302 6.377889 -7.791218 14.161677 -3.0429447 1.4310954 0.61798996 6.2470164 3.786261 4.853442 3.742149 5.608852 -7.1674776 -1.8498046 -2.0039344 0.1385148 0.4430613 3.0313616 1.925906 0.4383975 10.522377 4.4581676 -9.643041 4.279627 7.090353 7.9209228 8.244949 4.8099585 2.587938 -2.2191856 4.4194927 -7.9221373 6.789241 -1.4600934 -8.377962 6.159065 -4.2398267 -4.379038 5.3630266 9.173487 -5.0722976 -7.0044837 -3.8833911 -3.318229 -9.430532 1.2518729 4.728961 -7.6293745 -5.6287045 -7.1501985 -3.7603934 10.741156
1323913 3.5122502 -4.215719 10.147215 14.752299 7.088326 7.7974105 -0.54465085 8.799487 4.3827157 -1.4876183 3.1567585 -9.489586 -2.631356 6.656658 -4.051653 9.055081 -3.4894674 0.56401193 -0.9660117 7.576507 8.897164 6.662976 2.4471252 6.6132975 -5.7812743 -4.7584977 0.9174597 -1.3172276 3.4231248 -6.4465556 0.9127802 1.8708068 10.038069 4.9717417 -10.989548 3.0752966 8.625989 7.302715 10.785803 7.954804 -1.926576 -4.2892933 6.5201592 -5.848555 7.6220407 -3.2435696 -4.2833304 6.899029 -3.0544732 -4.958136 3.7007194 8.74824 -3.7838435 -2.090357 -1.7432013 -6.4995203 -4.0724173 0.83407253 4.909119 -7.784802 -4.4438453 -3.3339746 -2.6410577 12.231949
1331036 8.375799 -4.671416 12.621226 13.0482235 8.177819 5.622105 1.3571262 2.8720796 2.5560362 -1.23977 2.0106478 -9.800849 5.0819473 7.6401033 -7.057605 15.4711685 -4.212923 -0.8009673 1.8392197 6.4492865 7.0396714 8.037218 6.4687414 6.710907 -2.4409528 -3.0997517 0.010435312 2.5046465 1.3595656 -0.06810288 0.8205587 -0.40010926 10.926571 4.262353 -9.702557 4.931886 4.888238 6.2846627 10.813592 3.8820198 1.4496844 -3.8412848 5.0281816 -10.190299 5.100356 -0.88608754 -11.939299 3.0886116 -2.6018639 -4.5075703 4.4842978 10.31817 -6.705519 -6.161523 -4.6848655 -2.8694527 -5.948842 2.26443 6.016922 -2.7153697 -5.6432033 -0.83485395 -8.391081 5.827359
1240123 -1.556665 6.741241 1.1405984 -5.223271 -1.7257321 -0.07597607 0.19530927 -8.591463 -2.347383 10.9670925 6.4528766 -4.1596775 0.8060508 -4.797312 -1.5422233 7.915114 2.1988811 -6.2313647 -3.5816107 -2.2788484 10.33906 0.23503193 14.42186 6.28724 -0.6161522 1.0726665 3.9167273 7.933126 11.24349 7.835119 -1.0653613 -0.40756482 12.334744 5.261144 -8.191912 4.481482 8.917832 -0.88236046 3.7722423 5.0792933 -1.4982009 -3.610761 2.6185215 3.1578817 1.7098697 2.4602869 -7.923044 4.958636 -1.8291253 -9.195572 7.886471 1.9104815 -2.5392199 -11.80915 -4.545678 -11.662163 2.3683894 -6.2599397 1.0120147 -9.338691 -1.4991176 -0.09246452 -0.9477881 7.7665725
1295740 10.127408 -5.9595747 9.9810295 12.130281 7.474612 9.905925 -2.9605212 8.887317 4.294383 5.2937922 1.8662615 -12.238308 0.20266907 4.92867 -6.8115396 11.30187 -2.8055468 1.6293415 -0.55382246 3.7048793 4.6772466 7.1375766 2.4362543 9.503077 -7.049974 -2.25122 -2.120939 -3.1297777 -1.3589342 -0.5442663 3.151488 -0.65585583 12.710014 2.279822 -8.206321 3.312559 6.52024 9.3509035 7.343834 4.1174417 3.540484 -5.3537636 5.1504216 -6.096486 5.516841 -0.7289904 -6.9520597 2.463096 -2.520467 -3.0637915 2.0865805 9.689297 -4.572743 -6.0654287 -4.3930454 -4.1573906 -6.6713543 0.49195424 4.085147 -9.64287 -5.4388595 -3.754042 -2.616222 10.996367
908122 -6.2734566 -6.8319535 14.2405815 0.9888167 6.0801425 3.4817512 -2.8832116 -7.0210304 1.1351258 0.9343202 4.149853 -11.46144 3.571379 2.5061677 -6.176838 -0.3674876 0.5856481 -1.4083904 -1.9790559 -1.1071917 4.9617352 2.818286 -2.2463732 8.575677 2.5066893 -6.6938095 7.276456 -7.5626574 9.322509 4.908996 4.2011614 13.2833 4.008787 6.185205 -11.368997 9.746837 1.3835366 -1.299813 10.97872 1.3709395 7.4125943 -3.4421077 -1.380888 4.8717856 11.984335 1.4474251 0.10449982 1.2061639 -0.9231989 -4.32809 3.6025538 4.1457834 -3.5202003 -9.727396 -9.7247 -4.024944 2.1262877 -5.73928 -0.13212349 -2.3532045 1.8309553 -2.720954 -1.5777155 -2.291822
906856 7.0754514 -5.0025635 4.424062 12.293143 7.639704 9.946083 -2.9206853 6.53707 5.5445204 3.132508 4.5950074 -8.66994 2.5397952 8.53452 -5.007923 10.76867 -1.4465003 -3.7794905 -6.321052 8.37724 4.439418 7.5045123 4.478878 7.867216 -8.63424 -1.3323666 0.65777004 -1.4344755 5.7298026 -1.7781374 1.4290819 0.42016473 10.265412 1.4873909 -7.0301785 7.178965 8.303081 12.155381 9.174172 5.1749787 -0.66047394 -3.203792 4.262421 -6.258874 3.1497016 0.15344034 -7.07805 4.367986 -0.2509001 -3.306858 5.6576943 9.395388 -7.7558465 -5.541723 -6.3563313 -2.5363104 -7.7658224 2.8239868 7.385971 -8.234098 -3.806578 -1.9277203 -2.2808745 9.166787
908156 7.7920055 -4.3061624 10.883441 13.049461 8.171791 8.828096 -3.8940945 5.2187014 3.1770868 0.71697456 3.0199368 -7.2235403 3.8509655 8.170832 -6.0522156 15.475087 -4.5004616 -0.50512695 -3.2946057 7.504684 7.4626985 6.012467 2.426413 6.906325 -9.781436 -4.4107747 0.7323856 -0.9783481 1.9235431 -1.6845213 1.4796199 1.902445 10.741766 3.3016431 -6.325986 6.419649 5.6832104 11.528488 11.2782 3.834047 2.0915182 -3.3553662 8.226932 -8.966922 5.25397 -1.9138271 -8.295373 6.5691566 3.228222 -4.5384345 6.3328195 9.185051 -6.136251 -7.003695 -0.8264684 -4.2989564 -5.9835744 0.10296373 7.837355 -9.152879 -5.696958 -5.096529 -4.415685 9.432946
909750 -3.898812 -2.2575538 7.149255 -0.25990182 -0.016422378 4.385986 -0.068208076 -4.49912 -6.4776754 -1.7418692 4.5431433 -7.0872335 2.8969328 2.7256167 -1.2969981 1.8521614 -9.460427 -4.24389 -3.530104 0.4929311 8.111299 -3.4415479 -12.312579 13.740269 -2.5184522 9.560846 5.324059 -4.6142426 3.1807582 5.394874 -0.009919523 10.082889 2.5434477 1.3162955 -5.3979583 11.284809 4.1488376 3.5223863 12.43874 4.4040585 5.0499206 -5.4752603 -14.165249 1.4593349 11.138878 2.0700402 4.0591173 -6.499467 4.5325403 -7.2622147 6.390263 -0.43910405 1.8452084 -1.066371 -5.282263 -2.8582323 -1.032695 1.6417825 1.7688893 2.9130497 -5.3691106 3.8327463 -8.436599 -4.096927
906763 8.411761 -6.461314 6.553288 10.7700205 8.571407 8.262855 0.31754145 6.590808 1.912156 7.6980457 2.9031923 -13.198437 -2.6950703 3.3524425 -9.397428 9.866514 -0.17919064 2.7066007 2.4659157 8.315021 1.6320504 2.526508 2.5392253 9.720699 -1.6464239 -3.389725 0.17280138 -1.0186929 1.8827709 3.2695873 0.893442 -0.73328984 9.5349655 1.3796852 -11.171477 5.561132 6.7801824 10.750934 8.662626 4.3153844 1.3231074 -1.6696956 3.737824 -9.485491 7.95293 1.3688622 -6.737779 2.0236528 -3.1053367 -2.7119107 4.993081 5.0616965 -4.5575547 -6.8859324 -6.6659517 -0.38632932 -5.8632226 0.3409073 4.5976076 -5.310359 -6.3918777 -2.2488587 -2.9291441 10.835086
909256 1.3936396 -7.9204006 15.188406 6.4032145 7.0297813 7.769221 -0.5887653 -3.8875344 4.1721306 1.6316758 6.725095 -12.406169 8.084131 3.837886 -6.717003 3.4651575 -6.3111334 -3.314719 -0.13153028 -0.7088656 2.0707343 5.856715 0.7427538 8.79638 -5.2908 -2.06897 2.5248897 -9.30302 4.085179 1.8639368 4.8253183 4.400112 7.73888 9.032067 -8.589958 6.3056917 5.7940993 1.1583877 14.265174 -2.7787971 10.060958 -3.5459914 1.4910271 -3.3750162 8.05409 -3.3926969 -0.92827564 2.7516797 3.5298047 -9.642634 4.072717 6.355604 -5.386101 -6.6659775 -2.214979 -10.427835 -3.5215142 -4.6863313 3.0655594 -3.7525725 -0.97214985 -4.8331485 -2.98026 -0.45721304
908139 -1.4419484 -0.19507357 5.0036607 -3.3035793 4.2852774 11.902799 1.3583498 -1.5716996 -4.721022 10.8775 3.8719144 -4.916671 0.8714392 5.2967196 -3.1628158 -1.3412131 0.17892295 -8.1961565 -1.969378 -2.9690824 7.043076 3.1889765 1.2326118 4.071712 -2.4685805 4.065032 -1.9699742 -3.4785683 -4.3923965 -2.8465002 4.0234327 -5.38115 4.8264427 6.771509 -6.5687103 2.5860853 2.2810376 0.99237007 6.633969 3.735654 1.0152037 -2.813148 -17.643684 8.076093 7.885763 3.4148304 1.6787049 9.967009 4.306734 -10.725373 6.666613 5.4157896 -9.38257 -10.049009 -7.9232273 1.6141542 -11.7663355 3.1317744 -0.29005334 2.7531216 0.29950464 6.350056 4.628239 -7.0186133
909702 9.156039 -5.233067 10.106334 14.898593 7.359636 6.346219 2.3457222 2.5331643 5.1298957 2.0478451 1.7582227 -13.081658 -0.0131987445 4.541254 -8.040412 11.4345875 -1.6589295 -1.3863059 3.813512 6.884609 4.878904 6.6045165 4.208589 7.872565 -0.9860624 -1.9600964 -2.0671122 1.1272571 3.3173978 2.7833397 3.9910877 -1.800452 8.468995 3.941344 -9.575039 2.5731761 9.250205 3.098108 8.378892 5.184117 -0.9357045 -1.7417341 4.6683865 -5.8692064 6.3832808 -2.6294367 -8.056535 3.0540009 -5.9522815 -3.9068437 2.0139627 7.5125713 -8.025564 -8.474174 -5.876185 -5.3725286 -3.3002985 -1.8408844 6.5655117 -4.031922 -7.0453844 -1.633405 -3.414201 8.983185
907062 -0.7580513 -8.018081 4.933483 3.9093819 8.363534 3.3530037 6.330056 -9.19138 -10.011388 2.3963764 8.6041155 -5.161043 -5.775543 8.430678 -1.2634158 0.3336036 -0.38559437 -4.259749 2.8427968 -0.34854135 4.5901394 6.099661 0.48531413 1.6292763 3.022019 7.4521513 1.230473 -3.7398446 7.3923707 -8.510863 1.6375072 8.353432 16.63896 3.0561392 -14.049224 1.418481 -4.1963005 4.894907 3.9588022 -2.6273596 -1.3595606 -2.7412224 -2.66257 -4.1906514 7.5753965 3.2127655 -3.210232 0.53881013 6.355031 -8.055284 9.645249 5.035935 5.576377 -9.093284 -0.44743386 -1.0036093 -3.1037343 3.5944555 -2.4143643 4.860391 -1.0688572 -0.53300864 -9.932305 2.4183621
907055 6.105872 -2.3314245 7.5009665 2.958766 10.023914 9.151634 1.2529733 -2.2093546 0.9689308 2.5249393 6.174236 -5.658915 6.3636017 8.082024 -9.1639805 6.5996532 -0.4729277 -8.329641 -3.3032882 1.6302372 9.704174 5.1937757 2.071268 4.014894 -6.2970853 -0.40184653 1.8780625 0.6247181 -5.8951907 -5.5758324 3.4161026 -5.9536643 5.871965 10.641198 -7.948141 0.89209414 2.964163 2.5327957 13.61231 0.23689218 1.0931228 -0.56882507 -8.570622 -2.761533 5.2223716 -0.25170514 -9.062446 10.796656 5.921325 -13.92941 6.030647 11.473314 -9.423358 -11.746259 -4.068852 -1.5845399 -8.850876 3.2033591 2.228928 -1.5540247 -1.4667054 0.36073366 -1.5316234 -0.32298368
910706 7.64285 -1.7706243 11.8464365 9.559796 9.240556 7.701392 -3.4387329 3.1121142 6.1889343 5.0276194 -1.4179764 -8.9141035 4.057145 6.525653 -2.844044 14.576304 -4.2226562 -0.08440835 -3.002999 6.9618316 8.067802 4.467873 3.1817925 9.263176 -5.199936 -1.9134264 -2.4322646 -3.0239735 1.7497364 -1.0556155 6.3194065 0.6674916 10.513382 4.9602466 -7.6246886 6.1913123 7.4073033 9.153369 11.156853 3.9820702 3.2414804 -1.9418464 5.9691405 -7.534261 5.6484456 -0.7554943 -5.1784396 1.8204045 -1.4584653 -6.2061267 3.3708627 4.4464045 -7.496038 -6.633474 -2.6543663 -4.8332157 -4.006256 0.17658748 10.367432 -9.531492 -12.40634 -1.1680003 -2.1150775 6.6169033
1331037 10.898772 -4.5136533 9.783638 11.750149 7.800228 9.540982 -2.968466 2.6668317 4.107746 4.4951267 -0.92671335 -11.293309 1.1728456 7.5505695 -5.8297524 18.08794 -3.6297596 -1.1574758 -1.436985 8.084496 7.8700976 5.2952166 1.4849473 5.258579 -6.1062675 0.15510985 -1.9811053 -1.816273 2.3549018 0.46064806 4.058182 -0.23864433 10.358619 0.2844343 -8.382201 6.675965 6.7805963 6.8696947 9.825199 4.908318 3.0030177 -3.1719015 6.373518 -7.930675 4.6190133 -2.053201 -6.9246054 1.799099 -2.1479752 -3.0108604 1.704072 8.053093 -7.543642 -9.041473 -2.286518 -5.852579 -7.155671 -1.2719129 7.885432 -7.439438 -8.637018 -1.8880756 -1.0583315 6.1005964
1297446 8.4194145 -2.990211 12.096268 8.60149 7.152401 4.534922 2.3206003 3.4071212 6.7230644 2.8847024 -0.12702 -10.453162 1.453798 -3.0513623 -1.696397 11.12012 -0.6958126 -3.5292003 0.3411931 4.9145374 0.6658205 8.161894 8.41557 8.981743 2.1709845 0.011465465 -2.4055142 0.8790136 1.1063136 2.990152 3.5683131 -1.1454394 11.052899 2.8106978 -11.570024 -0.78994757 5.112104 4.60499 6.7425046 4.8535705 3.5062842 -4.088159 4.8706737 -5.7311873 6.9328375 1.0680351 -9.196649 -1.3170507 -6.9505405 -4.8529477 3.6298327 8.640918 -5.2573624 -7.3419538 -8.157404 -3.535191 -4.752181 -1.0415732 5.410213 -4.6570897 -6.557539 -1.2465863 -4.1866317 7.979752
1240174 12.036841 1.3502355 2.1274836 -1.6759964 1.2639465 1.8479476 4.407213 -5.737508 -2.9146094 10.79472 10.263719 5.0350294 -2.3211987 -13.18046 -7.3658233 6.951156 1.916433 -2.23653 0.39619458 -2.173797 5.826876 -5.1674385 7.912662 11.532048 4.3095355 1.7670925 4.84438 6.590108 2.1241286 1.5139918 10.026082 0.58553344 6.17106 8.368715 -4.3154945 4.3294587 -2.134349 0.066481076 7.944407 -1.55892 -1.7153686 0.30680722 -2.276297 -1.0874591 5.0014477 3.0787663 -11.10699 3.2321043 2.0191374 -6.6223598 3.4538908 9.547148 -4.756099 1.7697601 2.8238251 -1.879312 11.162762 -0.84131557 1.2504488 -2.7052097 -1.1750106 5.533412 4.8237004 4.631957
905984 8.048725 0.4098878 1.2842867 3.4961796 5.148585 12.29577 0.44654757 -4.7098784 -1.6005572 -4.171998 -1.9968894 -9.090346 0.59506655 -3.453306 -5.975795 2.115439 -6.987035 -7.965964 -8.734121 1.0385567 8.461057 2.5190828 -3.494833 11.733778 -6.3069634 12.05827 -1.2210461 -0.54725516 -4.684723 6.885791 2.0104055 6.239433 6.311568 -4.540683 -4.3887076 0.6842988 5.499853 3.1196537 7.7519174 0.16252935 -0.9059504 2.8128457 -4.6941266 -13.426346 4.5555696 -4.0942206 -5.688299 -6.0946116 9.146725 -1.8348286 9.016066 3.0324218 1.7024307 -2.6424754 7.01989 -6.1414967 -1.4859042 7.627255 0.71724963 -7.3810077 -13.626839 -3.8973143 -10.548643 2.6456509
753548 9.902999 -2.5597315 9.397896 11.307296 6.718804 8.826608 -1.9031602 6.1435013 2.9157329 5.527884 4.911517 -9.5928335 -0.35314932 2.63646 -4.2605596 12.531495 -1.1809816 -4.113002 -2.7836885 5.310617 6.6292796 1.092871 6.312587 8.248439 -4.0677567 -4.655713 0.728739 -2.702527 7.103436 3.9015198 4.7594333 -0.8680202 7.297267 1.9947339 -5.6890316 4.818354 8.179545 8.504328 7.2123146 4.8526483 -0.89388233 -3.3491418 4.6463556 -5.002106 5.323217 0.065865934 -7.7847805 3.82694 3.4576366 -3.7372308 5.105116 6.219923 -4.573149 -6.8693595 -4.3188176 -6.844597 1.7210474 -2.2397542 8.550834 -12.95101 -3.6793427 -3.339978 0.015061362 9.957546
909715 8.676895 -2.9466033 13.658891 13.5782995 9.815075 6.081532 -2.5487852 9.739695 3.7425735 0.9040524 -0.29895318 -8.804126 0.13950583 3.2904966 0.2986115 11.432617 -5.9443717 -0.88050485 -1.2691545 4.5849404 10.00144 10.631745 1.5645305 5.9253087 -6.103443 -1.9226168 -2.715826 -2.5163617 2.2892642 -4.076602 5.900959 4.3274755 12.624648 4.0564313 -10.632362 0.007951044 6.9771533 6.046168 9.689258 5.8483205 2.5745893 -3.0966332 7.3604746 -1.1075147 5.1897497 -3.6474516 -0.20578991 2.6391299 -1.2079169 -5.9951434 0.33930296 7.8611317 -6.1222305 -7.8179884 -0.54826075 -8.497413 -0.12395623 -2.2942276 9.099778 -10.469603 -6.3320527 -3.8895605 0.12387342 7.2258396
908443 -0.85922474 -6.884712 8.496099 4.581482 5.168785 2.8016534 -1.720237 2.3495102 0.5565316 11.306053 6.947414 -11.252957 -3.8938575 4.6414237 0.057964053 6.4965177 -6.674036 0.62169933 2.4053583 -2.7087376 5.972074 6.656587 1.7694848 12.987482 2.795652 -1.2846146 3.5260625 -4.3366375 6.5978107 -1.411548 2.7635446 8.488191 6.740354 -0.11771224 -9.981618 11.873401 0.9625371 1.5610412 9.269528 4.536173 6.6216483 -4.15577 -9.168001 2.184283 7.9077177 -4.341007 -3.689151 1.6554244 -6.3537908 0.14508162 2.259375 8.897728 -0.52335835 2.1385067 -10.329253 -2.3150935 1.9913466 0.6501767 8.303922 0.8582874 -0.39258116 -0.07151213 -1.2120595 1.6272675
909698 3.7651086 4.791885 2.136476 -2.15499 2.3226523 4.013972 1.2156811 -1.8063235 -3.5526736 6.748674 9.754875 -7.879677 0.23162201 -6.226411 -0.0048152586 5.887525 -4.997567 -5.0203104 -2.5402777 2.2466464 9.913228 1.6225463 11.133354 8.734366 -13.4186535 -2.8609853 0.71129245 5.1690235 1.4874505 2.2791092 1.9041212 -0.46158475 16.198832 4.9108963 -8.281143 0.22228244 8.638545 6.508511 7.360305 4.130823 -2.5564368 -8.187041 3.971644 -3.2541907 2.4701555 0.74128217 -6.954125 6.527377 -0.15578939 -8.488184 4.411836 6.0336065 -3.6497338 -8.586207 0.03600179 -9.60576 2.7765744 -4.0630946 3.8598764 -6.8397913 0.49137354 1.1530181 -1.0048598 4.205499
1240204 0.9367935 -7.468795 9.640622 -0.9669616 5.296121 5.984912 2.8825824 -10.604063 -10.326971 7.39162 7.716041 -6.1594343 -4.6431527 9.142541 -0.5345492 -0.70006245 -2.1446288 -7.0179477 -1.5103134 0.9789153 0.94786114 6.132106 2.4357214 4.6497984 0.2431686 3.6553488 -0.26473817 -4.824931 4.383921 -6.116262 2.1208837 11.588853 14.077996 -1.371354 -12.432106 2.223833 -2.2854722 3.8181756 4.640967 -2.7242336 -2.0183673 -1.1781156 -5.0801606 -5.275929 10.094824 0.65590215 -5.197552 5.947047 2.6861851 -2.9335866 10.253478 8.097072 4.4345703 -5.057744 -1.402498 0.7455241 -0.90515023 2.7952464 -0.47661576 -0.8974564 -0.58302194 -2.713277 -13.076659 0.111307725
949154 -0.9947041 -4.9358096 9.645719 0.3527258 -1.0332857 -1.7228562 -0.27519068 -16.893347 1.7956202 5.0927134 10.534712 0.33025512 5.645449 2.543953 -5.837624 3.5496008 6.3209143 1.5884502 -1.763279 -5.509613 10.569313 2.5777125 -5.6785836 5.186171 8.760842 3.0685782 4.861167 -0.15057683 9.061706 1.7715473 12.915394 15.611847 10.219441 2.6530573 -7.034303 9.309353 -2.2897725 5.039826 8.628358 4.2262297 -6.3143635 -4.1881104 -8.692053 3.0353842 3.2354178 3.1164837 1.2379104 -3.0247383 -2.031691 -3.9656208 6.27617 6.249245 -6.4184566 -2.3545947 2.2451665 -0.38876218 6.1612062 -1.011691 -7.3783164 3.3523335 -4.727215 1.3265336 -1.5390619 1.0584203
1330947 7.295196 -5.210503 9.704978 13.541795 7.518972 12.5025625 -5.0791416 7.5856214 3.3438687 4.210589 1.2936945 -7.829726 -1.9842875 5.0611486 -4.8318214 11.706565 -4.862514 0.6848619 -2.0044978 6.8577 4.9362 5.7055044 0.74186516 6.8591676 -7.4146643 -4.844635 0.25490633 -3.070312 5.3570757 -2.31023 2.9925199 2.8615923 11.25339 1.5784167 -8.578644 3.2627895 9.698581 9.358114 9.64309 5.1120143 0.26565936 -0.35221615 8.838651 -6.2391505 5.029197 -2.3186162 -5.515213 2.4663205 1.4805151 -3.4203181 4.2580557 8.622018 -3.6277986 -6.5736117 -1.6027312 -5.359168 -3.1602604 -0.26770845 7.6018596 -11.41914 -6.1223407 -3.8131614 1.4787832 12.038746
1331034 8.371144 -4.228591 9.813405 12.136672 9.745883 8.699609 -3.7394824 4.6045136 3.5975313 4.172266 -0.9071269 -9.984035 5.140442 8.416351 -4.42227 14.58636 -0.61504316 -0.65135676 -1.4136388 6.044348 8.79741 7.8388824 4.166943 6.4038835 -5.3016953 -0.66885394 -0.21515644 -2.5624418 -0.46802464 -3.3050544 1.4038593 -2.0275586 11.530347 1.0409693 -8.173701 8.50288 6.405594 8.0863085 10.840142 2.5820544 1.2475846 -1.6493027 6.330676 -7.530323 4.6123247 -1.9802039 -8.801503 4.6621842 -1.6833456 -2.9278543 4.04977 8.365607 -4.5582433 -8.089236 -4.851045 -5.6408243 -6.3342977 0.2808459 6.8935094 -6.94092 -5.0695047 -0.63454753 -0.71902865 8.407312
908442 -12.7011175 0.8045443 5.651773 -2.963471 3.3817139 6.707838 -2.8183882 -11.423189 -10.608058 7.153264 8.196235 -4.1609817 2.318873 -1.0396125 0.56019247 0.58357465 -5.166525 0.46412227 -0.33781618 -0.44706944 8.323702 -5.1768417 -0.9579263 7.5953684 -5.625256 1.9919815 6.5234866 -2.2295902 5.804598 -1.5638605 -7.067975 0.8016227 13.356673 3.9124932 -12.619238 6.173543 7.348474 4.457703 5.3285527 6.523535 2.6183698 -8.011934 -7.1948304 5.3199453 6.457427 2.3686123 0.95683324 1.7704554 -1.7895256 -9.528912 7.0832057 -0.6027472 4.99385 -6.0273046 -5.1402597 -6.198484 -2.2221224 -2.1840816 -0.39291704 0.68373835 2.2614825 5.94998 1.0299313 5.60611
907048 -6.59315 -6.9512286 18.000874 0.6458172 10.431572 3.5345898 0.47436014 -6.2737756 3.9554427 4.9357457 5.6029005 -7.833589 -0.15404268 1.384262 -1.9543107 2.0438392 -7.157028 -3.6866252 -1.7738023 -3.0258193 6.359222 1.3683813 2.8089743 15.071068 0.48602712 -2.0784628 1.4310088 -11.532369 4.836434 2.9213781 4.2913084 11.284038 2.7849922 2.844351 -8.062911 12.10386 -0.35036117 -0.91703165 7.4318533 -0.020396544 8.136716 -3.0386686 -7.5983043 -1.0503944 6.7670054 2.1671467 -0.0358832 -0.75987196 0.26392585 -4.6707764 2.561453 6.2315526 -1.571593 -1.5506172 -5.8931856 0.3241447 -0.4649071 -1.4541417 3.6479747 -0.52487487 -1.2372046 -2.3441825 -2.0644717 -3.5785317
753595 1.4707794 -4.5970883 8.466182 4.118246 5.6829195 2.6586206 -1.8331645 3.9676857 -3.115802 11.065098 6.544299 -10.1623 0.5775047 2.4471664 -2.5709589 5.7534504 -5.1329403 5.270978 1.5416901 0.33860084 2.997495 6.1100063 -3.4174664 12.835182 -5.376776 1.0490203 1.6907935 -3.4974127 1.8830903 -0.68293494 0.41993776 5.022517 13.578114 2.0266125 -17.047527 10.57999 3.8879106 9.011889 6.9572506 6.04842 5.6179733 -8.064362 -2.6956587 -3.150813 7.1589103 2.9700665 1.0471293 -1.2870207 -5.5894613 -6.177159 4.1937695 5.8600287 -4.3543677 -3.4116569 -2.5473108 -1.5973519 -2.9473982 0.5585234 1.6970828 1.2361634 -5.4382334 1.9380695 -3.170554 5.1180906
908450 9.416021 0.04317533 -5.9073596 0.5157592 3.9291148 2.955581 -0.3010772 -0.20393041 -4.0475183 -7.208353 -0.51277846 -8.824867 -2.5449605 -10.081913 -2.1617553 4.613936 -2.667776 -4.0548496 -8.521157 1.8338653 9.459158 -0.3210094 -5.684387 9.481647 -0.7647292 17.767181 -0.34243125 4.5462174 0.7660531 11.664989 1.881194 6.2783303 1.8126554 -7.27488 -5.7830515 2.2558804 2.5926201 2.3009026 4.242398 2.707774 0.87669 5.5406117 -13.697426 -7.0941477 3.0209808 -4.9586 -1.0886894 -7.921474 7.755743 -3.0102491 3.919324 2.028023 2.6071303 -0.45408455 2.3683698 -7.504133 -5.050279 1.6050454 -2.4495642 -5.255359 -9.699062 -3.5477233 -4.9238877 -3.533964
905952 7.6921115 -6.8697658 7.2636847 11.860907 9.762087 5.777944 1.8492357 2.228476 3.9491289 1.0582786 2.8268027 -10.519403 1.8564354 7.8774304 -5.3818245 13.668058 -2.1159885 -4.47381 2.2865763 7.7764435 2.7604733 2.997931 4.801293 6.09235 -3.5078797 -2.3905392 0.16404304 2.4807808 2.322073 1.5989063 2.2306027 -2.0305886 6.3356056 4.6157837 -9.349149 4.2149496 9.806588 8.518724 9.932874 5.0325637 -0.9052579 -1.4534651 2.577708 -11.501496 4.818084 -2.502585 -9.2873745 4.409376 -1.8314774 -5.519867 4.540254 5.942823 -5.804601 -5.832629 -4.287583 -2.8401048 -5.4744244 -1.0959924 6.5102754 -4.1178975 -6.1128416 -1.2262881 -6.5079265 8.027733
906824 8.304573 -7.4555006 9.198009 10.380458 2.1188827 -0.703542 -0.94432414 -12.936472 3.5539908 1.762973 5.5160756 4.4117146 8.14256 5.244128 -4.6024747 8.741077 1.5008695 -0.026215263 -0.56481063 -1.4493123 5.7180805 5.8449883 -4.801718 5.813332 8.580056 5.2473893 6.273692 1.9930959 4.969516 -0.4359494 9.465722 11.11294 13.985096 0.5166923 -11.256529 7.2158327 1.9067516 6.7572856 11.573841 3.1481946 -8.070047 -2.11262 -3.4819171 -0.03390681 0.18573554 -1.2257261 -8.076768 -2.381129 -1.3869402 -2.9168706 7.6642556 13.357715 -7.2770004 -3.5617824 4.747574 -2.3359144 5.281275 -4.157975 -1.7133235 -1.6447803 -6.8051667 2.467032 -1.0164707 8.004805
724839 5.0505395 -7.1827407 6.9511604 1.7403401 -1.5819939 -0.7510735 0.2947089 -13.173698 0.057046764 3.077755 8.0536585 6.1631975 4.7294965 1.6843686 -3.5191112 5.5775547 7.179803 0.86674094 -4.781654 0.18498234 3.555793 2.7948465 -5.0663414 3.7575152 6.286469 6.492287 4.9975963 6.23178 5.4926147 -1.7776058 7.780338 15.455706 11.566932 2.0385942 -9.535449 11.457499 -0.29981285 8.916243 9.645656 3.0870366 -9.417959 -2.6743314 -10.033338 -0.09200601 1.258161 0.8441827 -0.34506717 2.6681457 -4.435507 -2.4737897 8.28939 16.294165 -5.4531245 0.82181674 3.6075866 -0.6892609 6.1770983 -6.209316 -5.9671655 4.0659227 -0.45978433 4.396294 -1.610615 1.9063555
908134 -2.6209795 -4.4758177 5.1546144 5.009215 0.29608494 2.8050096 -2.707204 2.7280872 9.959357 6.0051155 12.208362 -9.361639 0.3538602 11.592531 -0.90764314 6.31962 -3.716067 3.1723783 -1.4238377 1.1438006 6.9482265 4.907346 3.4747283 14.163466 -2.2294104 -6.319421 4.3788185 -5.1008773 8.003828 0.9602108 7.7238364 9.288049 8.395792 4.815528 -7.4426117 7.1474466 0.29713333 5.351602 9.448745 5.133108 4.9015455 -4.5986567 -3.3232517 -3.7280185 10.4326935 -4.0877423 -2.972406 4.473563 -0.52197737 -5.2500014 7.9732265 8.974107 -9.422525 2.5822542 -9.212435 -0.648972 -6.321822 2.4210513 7.858907 -5.091527 -5.273999 -6.454997 -10.03034 1.4099393
1240189 5.4835606 -7.0958495 6.8028655 4.9626536 3.294446 7.549619 3.6583846 5.734684 4.9772706 1.5509446 -0.37350336 -10.160342 -0.044570073 7.630601 -4.710884 6.4221625 -6.3546 -7.242926 -9.225772 0.84892136 7.467101 6.798684 4.2028265 11.93848 -1.1423699 3.5735016 1.2105204 -5.365039 5.232315 -3.182276 4.510483 -1.8830516 2.662764 0.16358131 -5.472871 2.5355203 6.6143 1.1005452 10.3257475 -0.4985808 -2.7991 -2.329362 -0.9145 2.1260874 -0.0081988545 4.5691824 -8.77689 -3.4294655 -9.132657 -2.0075588 -0.4258083 6.0405293 -0.041672748 -5.7677617 -9.297819 -8.905991 -1.8464125 1.8448759 3.394595 -7.33178 0.2159383 2.7776885 -4.44781 9.207245
908158 7.7812686 -3.7452984 13.178505 15.155984 9.228307 6.775163 -3.377986 6.317205 4.7214794 1.4911652 4.177896 -10.323014 4.5585523 5.3530807 -3.6260962 13.493373 -4.593326 -2.2843592 -1.5975608 5.2050734 6.959 7.8391776 2.827844 6.9023166 -6.6468196 -4.7672915 -0.4180386 0.59541756 1.3451126 -1.4753531 3.4262693 -2.2646863 9.69683 4.5644555 -8.216577 2.3858726 6.120096 8.039824 7.9096675 4.65502 2.8171299 -3.4721427 6.0915275 -4.4621577 4.9251637 -2.1473136 -6.6710258 4.0227847 0.34641936 -5.6397457 3.4311304 7.11785 -9.538665 -7.426765 -1.8194414 -7.6145916 -3.0478487 -1.207129 9.317102 -8.943563 -6.2158794 -3.7542422 -3.140515 8.749791
910710 5.5799837 -7.342452 1.9403844 11.12588 3.6960316 11.929369 -0.897494 5.0178456 3.92301 3.3364787 3.813961 -10.170921 0.18569694 9.126118 -6.8627934 12.941456 -2.995672 -2.3138034 0.12327222 8.335962 2.993416 3.176311 4.5953493 9.1094475 -5.7729464 -1.2966722 -0.21518716 -1.8295217 5.924363 3.8916745 1.8194218 -0.07894672 10.246907 0.44182712 -5.144885 6.80782 7.231722 12.842371 11.127171 3.859518 -2.3376563 -4.4318085 2.1535172 -9.747116 4.42685 1.8165282 -7.598512 2.1776824 -0.5406043 -1.4368482 8.062195 8.012299 -2.9357674 -7.580507 -5.34494 0.8915349 -10.756357 3.329525 5.3632436 -7.140779 -4.70151 -2.3531857 -4.7473807 8.7741995
909252 7.95033 -4.462788 9.227125 14.642514 5.6299715 6.5140605 -2.0884953 4.581586 5.760666 2.4001155 4.1436334 -9.29534 2.9037921 8.8670435 -2.5603616 14.0510435 -5.526351 -3.286247 0.12700516 6.4435234 4.547951 8.17076 4.8577037 8.407837 -2.5013454 -3.892798 0.9024106 2.1665933 5.541453 0.88163567 4.3282 -0.8475552 10.619883 2.7958736 -9.155583 3.6483586 7.48017 7.2381334 7.6288204 5.524961 -0.28148255 -1.589715 2.0582676 -4.3195186 5.536015 -1.1681861 -9.289518 3.924856 0.02158221 -4.1305265 4.2931657 8.47148 -9.012283 -5.8023376 -5.60066 -2.636118 -4.492555 -0.5680556 10.154921 -5.5368137 -4.4679284 1.2650253 -3.6253479 8.230603
908448 5.9123063 -5.1393476 10.614397 14.461666 9.130402 9.942663 -2.821911 10.435278 3.3783894 -1.4674314 0.3949103 -7.5883055 0.5271314 6.97294 -3.0037045 14.159236 -4.776584 -1.6198907 -1.1231039 6.56147 6.47827 4.6087685 0.12247309 5.411613 -6.198833 -5.408218 1.7978611 -1.8343875 2.9718256 -3.423471 1.9895489 2.1001508 10.520508 1.5292706 -9.109996 3.5773885 6.4707394 10.8040085 11.509888 4.7676063 -1.4235994 -1.8831214 7.163781 -5.143964 6.345031 -2.4876108 -6.650048 3.977163 3.3679245 -3.941221 2.4727342 10.010732 -3.7788033 -4.7573576 -1.7725124 -2.760939 -1.0536747 -0.6687995 8.697371 -10.693209 -4.141846 -1.5797824 -1.9812175 12.744423
908148 5.4089427 -6.0616837 12.360097 7.553749 6.90078 10.337122 -4.493819 6.8001842 1.2666577 4.0407176 1.1271733 -7.326372 -1.7263095 8.384946 -3.6543531 10.68601 -4.8886523 -2.994289 -6.5932317 1.7731408 8.441002 3.0359204 1.8631015 6.9890165 -7.4695163 -4.634962 0.03722004 -3.5645282 -2.3416958 -5.3288617 3.7218685 4.047691 8.226517 1.389203 -8.529095 4.9249773 8.462549 6.6898046 10.196531 3.2327034 -0.95424885 -1.3612489 5.0428233 -3.5826921 5.9862537 -0.9125184 -10.957995 3.6028042 -2.4598956 -0.83975774 3.3032568 12.648762 0.2684482 -1.3248543 -2.303538 -4.7390757 1.7829819 0.19549282 5.499203 -13.63066 -3.6552477 -1.2039305 -0.25751555 13.00163
907277 9.751673 -5.040932 12.146439 14.749027 9.497381 7.767174 1.3125764 5.1351337 2.13399 1.0317469 0.10881506 -8.962262 2.0751662 6.1361146 -6.6518364 13.458121 -2.7991233 -1.6540953 1.0149971 8.058737 4.065897 5.047572 3.5848408 7.576937 -5.6044807 -3.571382 -1.1154838 1.6262256 3.1846418 0.8521106 1.0963844 -0.7439629 9.731708 4.26493 -8.302529 2.1950543 7.962366 6.353714 9.690159 4.000348 0.80800617 -3.1228888 7.243259 -8.411316 7.4829245 -1.3349937 -7.0794415 4.584387 -3.3204374 -4.3522797 3.779293 7.952912 -6.080702 -6.632532 -3.9842298 -3.677976 -5.3982086 1.1333536 7.7744684 -5.1733665 -6.156038 -3.1250803 -6.4744897 8.294997
909718 -11.349925 1.6486754 5.559752 -1.4029366 -2.5995426 4.889128 -0.48209277 -6.3360753 -7.298716 2.9408202 6.148013 -2.4138393 2.2274592 0.2017161 0.26389614 1.7598716 -5.0831203 -0.7116224 -1.6184336 1.1453379 10.007756 -2.6629944 0.549095 9.646921 -6.1839714 0.93235546 5.440846 1.1874051 4.1005945 1.1980677 -6.000421 4.163988 16.163628 5.884648 -12.6342125 7.1037183 10.669703 5.5034943 7.732237 6.8449287 -3.4711049 -9.648952 -4.886921 3.80136 7.8142953 1.9465681 -0.06358291 5.024421 -4.3154116 -10.386135 10.35839 2.980919 -0.26608446 -9.104839 -3.9620388 -7.313931 -2.3148885 -3.6698332 0.30943692 -5.0517054 3.1250439 3.1141798 -3.4368174 6.942972
949090 -7.609563 -5.7080283 11.727411 -2.362734 5.6977267 1.9434371 5.0045605 -4.6693544 -2.4097314 7.7654986 5.60756 -7.9739146 0.63681555 0.17709658 -0.36538693 2.8705 -2.1577604 2.1782343 2.349784 -1.9427032 3.3635244 -1.7031101 -0.49553517 14.951597 2.9038951 0.38013446 1.3103696 -7.138378 6.0906777 -0.3197291 -0.7176665 8.3807955 6.7535963 4.4051776 -11.061997 10.981399 -2.8243058 1.1571774 8.593972 1.2051181 5.591163 -7.0613465 -7.491992 1.6363955 10.924999 5.1836905 3.059101 -1.1255555 -6.44862 -4.074825 4.4573936 5.0987396 -0.079722434 1.2510122 -7.5551 -0.5726541 -2.0102675 0.031058563 1.4291072 7.8694763 -1.5235564 1.9501061 -3.4652345 -3.4392822
1247871 10.300163 -7.806919 9.765557 12.418069 6.7870226 11.240332 -0.29388118 6.9720025 2.1409492 3.7578554 1.1896209 -10.657406 2.4764602 4.9765444 -7.2200985 13.194778 -4.4389644 -2.6793475 0.7165443 3.9017303 2.6033528 7.42222 1.3573997 6.5001698 -5.4089932 -2.8873537 -1.4530685 0.66158944 3.9609272 -0.22870177 3.1209538 -1.3163688 10.938746 2.4671886 -7.8456535 -0.40460277 7.290168 8.626202 9.955921 1.9455526 1.9849472 -2.4214647 4.7093477 -5.9297156 4.4333186 -2.072099 -6.447052 1.7193512 -2.3841085 -3.0348098 1.0398018 9.594532 -7.666306 -6.870715 -2.3472116 -6.59926 -7.0425873 0.24542871 6.104832 -6.135249 -3.4088967 -3.6315756 -3.1104686 10.4595995
1330950 6.6242604 -7.4937215 10.660582 12.682055 9.547452 6.0580573 -0.56379104 4.1611347 7.035609 0.32164222 0.34498224 -10.728428 2.0236232 1.8246195 -6.218014 11.626999 -6.9832644 2.0826352 2.7219021 5.7066565 5.220049 10.59814 3.0362005 10.385936 -5.6925144 -2.6703143 -3.0097506 -1.6777126 1.2685 -1.2917775 5.516144 2.562743 12.844532 1.6977838 -10.322099 0.5242239 6.902795 7.12631 8.085111 3.672798 1.5434376 -2.5461783 5.649139 -6.5354805 2.2562437 -3.4231095 -6.018522 0.7009827 -5.9464874 -3.994355 -0.4301818 8.639121 -8.237669 -7.9781094 -3.872418 -6.6742816 -5.235938 -2.0581353 6.634491 -6.363313 -4.3299093 -2.3785434 -2.266646 7.6509433
910687 1.0328141 -8.481886 9.068332 10.671559 7.649749 5.985346 -2.0812407 0.6999755 0.29544294 6.4673076 2.1760085 -10.976257 3.3981454 6.720325 -3.684631 14.485186 -4.2768745 -0.026296755 1.709061 4.384196 1.9910367 3.7049444 0.6562081 8.871584 -2.4461792 -3.8415072 -0.84109384 -2.1371148 7.6331997 2.5165877 -2.4852529 2.2102284 12.905576 2.262651 -12.188314 9.06317 5.582027 9.068971 10.79031 4.5654745 -0.9970587 -4.624263 -2.7010984 -4.269593 8.6187725 -1.2996501 -6.727963 6.0597377 -5.734709 -1.9017149 7.2211213 5.806985 -1.9980687 -2.0499434 -4.3241796 -2.0188253 -5.8723655 0.9323402 6.9405503 -4.7147365 -3.576186 0.26204172 -3.4892683 5.7348976
1298167 -1.8419782 -3.533915 11.855298 4.1877313 8.604736 2.9001842 4.0627985 2.06712 -2.2588274 2.4353456 5.404385 -8.506985 1.1885495 1.4219568 0.822425 4.8779607 1.7009225 -6.228608 -4.3939357 -1.5514387 12.081992 5.483288 2.0950608 11.489532 -10.916631 -3.0702572 2.1147144 -2.333296 3.2985227 -9.33995 -5.498321 5.6870627 4.433476 3.4125197 -2.9287944 6.0592155 7.696984 6.1625 10.106417 3.889239 2.5804179 -5.351679 -0.9240858 -2.6958978 5.9296107 1.1819168 -1.6855427 2.4005709 -3.1005347 -4.368972 1.676573 11.587581 5.063217 0.07454474 -9.199741 -8.3965845 0.7373634 3.1828656 1.5955682 8.818587 6.3448486 5.650144 -3.3334794 2.4612138
1322224 3.782637 -3.8878767 6.240424 3.78483 2.2871604 15.372651 -0.5852785 -3.6938088 -1.37973 8.959916 4.55151 -5.3747954 1.7449903 8.385903 -6.5398746 5.9701977 -1.0368651 -9.563341 -5.885619 2.5903509 3.4006736 4.9140983 1.8144207 4.6506925 -2.8375678 1.501816 -1.5946463 -3.473922 -0.90860933 -2.8819354 2.820307 -4.9877114 4.7546387 3.6727116 -5.360425 1.3122567 6.3471737 5.7220845 11.635268 0.86619836 -1.6535493 2.1753953 -12.913398 2.5856104 7.766623 3.4847136 -6.2409062 12.685861 3.0412083 -8.021176 8.459461 9.975293 -7.8835387 -8.442482 -6.885972 3.0763104 -14.415486 3.475281 3.846623 -1.834699 -2.1718278 2.7766652 1.0774626 3.6346822
1240161 2.1811075 -11.630535 5.955215 3.8689551 7.624951 1.6486543 6.6053915 -2.1551058 -9.612206 2.3701746 9.016421 -6.073079 -5.6157856 7.605383 4.6841955 5.5836616 -0.13095549 -7.3584013 2.4645433 -3.2976758 6.5991793 5.364738 5.3652434 -1.2138375 -0.3072539 5.977578 -1.6102914 0.5977102 5.043781 -9.66598 1.0425501 10.098659 13.776575 6.2776923 -12.606648 2.4425905 -2.5921574 4.88433 3.0485601 -2.6739566 -2.166476 -0.8665285 -1.1483408 -5.541738 8.7243185 -3.5606074 -4.7891407 9.700225 2.0206637 -5.601948 8.338685 10.971556 4.930054 -5.7802243 2.0200343 -7.946303 -1.4160024 -0.39050967 0.1462373 -0.0056544 2.143526 -6.907412 -11.626264 3.063346
1298222 -3.4807875 -5.598182 10.867975 1.7722067 15.276937 0.548024 0.5502478 -0.4315915 -2.9169323 5.1076593 7.5374823 -4.49582 7.161943 0.5694349 0.09333781 0.20877731 -5.1872 4.873984 -1.9398166 0.45688656 6.4040937 -0.06389512 -3.7095895 14.121529 -2.1545897 3.1041865 3.9905403 -6.4558167 0.9183366 -4.892308 -0.6806583 3.094762 7.6502814 7.6992507 -11.876343 7.636144 -1.8778558 2.3271754 11.418855 3.3089995 6.3748765 -6.2234526 -6.031138 2.1475577 5.8780537 -2.5839152 0.01834728 3.1976027 -4.5183706 -10.543907 4.4387217 6.1748157 -0.69307876 -1.7615166 -11.261067 -2.9218435 -0.4561711 -2.6744313 6.14343 -0.25710914 -5.0877876 -2.6914158 -6.1721697 0.52269197
908145 5.263783 -0.32171583 -0.04762304 5.3102603 1.6061984 9.579288 4.199499 -4.1973915 -2.8979008 -7.362577 5.46509 -11.016317 6.756465 -0.8404258 -0.90684974 4.173899 -9.339375 -7.0646396 -3.6967635 2.2020013 12.211502 0.22040445 -4.99068 14.181523 -4.591203 11.200047 2.0134172 0.5916098 2.0039864 9.104798 -2.6071296 2.0634692 1.2174987 -2.3405457 -4.963919 5.080937 5.6556683 4.942818 12.577154 3.451326 -0.9947869 -0.7796519 -7.6844087 -8.790057 6.9356422 -2.3056734 -3.536102 -8.193705 11.890428 -1.9127312 9.588678 3.905068 -0.4381587 0.40084782 1.139179 -6.9481425 -8.56206 4.209909 1.9078249 0.33804098 -10.996632 -1.0754685 -9.962563 -0.022245536
753535 3.427748 -6.834371 8.725447 1.3891959 8.417778 5.193668 6.8417077 -6.2292647 -11.918614 5.252704 4.101287 -5.4852905 -7.238884 8.412805 -0.20383625 -2.4471164 -2.1675997 -7.4986763 -0.6382296 -2.8093305 3.8721952 9.610586 0.8740967 0.28283432 0.62377983 4.4141364 -0.047859896 -1.7940013 1.3463508 -10.516504 4.311023 9.341325 18.357048 0.9473199 -10.017671 -5.172315 -1.410393 2.6878176 1.6794406 -4.6413064 -2.9820073 -2.3581514 -1.8943001 -2.9596698 5.4406786 -1.5965666 -4.854255 4.2606025 2.5023944 -3.4907565 7.556255 9.86888 5.4114437 -8.621092 -0.3323755 -4.1361365 1.3213625 2.570496 0.15860595 1.8373538 1.148788 -1.6830885 -12.072335 2.2251806
749709 -5.908959 -7.4047923 16.259626 -3.272936 5.503295 3.628486 -0.2009369 -10.647098 -1.6885179 4.7971153 6.3097887 -9.081768 2.864278 4.6819496 -7.199161 -3.4009151 -3.8596475 -6.1921625 0.8547276 -4.7501473 4.7008634 0.9576767 1.3765826 9.9096155 -2.5881433 -6.777337 5.2363753 -7.1511335 4.037011 3.9068453 8.182062 12.817115 3.276687 8.894537 -5.089594 10.033806 1.612349 -6.4395504 7.598745 -0.9958407 6.102418 -2.681174 -0.631711 -0.3249569 9.160688 0.7865904 -1.125289 -0.8760461 0.9339746 -2.6526093 0.240649 7.089403 -3.9638875 -5.1618056 -6.5655103 0.52566665 4.6997905 1.1539356 -2.9954925 0.5887633 3.1813753 -6.2029204 -3.9445841 -2.6402855
1330982 10.223392 -4.6868324 10.959486 12.5995245 7.7723083 8.305825 -2.4233062 3.8824723 3.6238081 2.145901 0.70441985 -9.68379 3.2564855 7.127077 -3.1222358 16.89037 -5.4815326 -2.5774782 -0.037910324 7.2946644 5.993711 7.0315957 4.2799296 5.8925705 -4.39006 -2.7269766 -3.1637259 0.1023677 3.356268 1.5476911 2.6928413 -0.592116 7.439022 -0.4491946 -10.65749 6.0178847 7.2016115 7.807289 9.72556 4.7170267 0.6779166 -1.6974379 2.9746096 -7.3406696 4.6713552 -2.1630135 -6.1786666 3.0670147 -3.297034 -2.5024815 1.3763473 8.925159 -7.2519903 -6.5064154 -1.6501328 -4.6369505 -7.5658402 -0.581816 7.8511043 -9.179755 -5.9137836 -3.1715293 -2.348855 6.520176
910936 -3.4137387 -9.250376 5.6278872 2.8758676 7.7397747 8.456333 5.9850492 -8.600199 -12.7838125 1.1534444 7.736738 -3.9016356 -6.263045 11.864574 2.2607114 1.6806815 1.0456897 -6.196676 0.24224618 -1.5624938 6.3569016 3.7218142 0.5690087 -1.0952986 -0.33863777 6.8205853 0.19574863 -1.1085203 7.150587 -11.122415 1.0359459 8.49026 15.15005 2.4517603 -13.39393 1.6274745 -3.2171006 6.5476255 0.19186853 -1.707869 -3.3811505 -0.8838831 -2.359367 -3.333326 10.507541 1.6176666 0.5359581 5.9477572 5.7815976 -6.1370068 9.274214 6.026284 4.926829 -7.2786207 1.0594746 -5.2348166 -6.859743 1.4291575 -3.156877 2.20012 0.5621358 0.36722818 -10.593296 1.3595896
907789 8.67161 -5.1880794 13.840587 12.96535 5.7656493 8.141541 -0.18775338 3.506731 1.6246799 2.4505606 -1.0193524 -11.9105835 4.043062 4.523109 -8.483041 11.623398 -3.7903461 0.48364455 3.0077555 5.2979765 2.6523795 8.456937 3.7855568 6.860777 -1.5135401 -3.2445853 -2.4474003 0.015616221 3.871348 2.153026 3.4440844 0.59115523 10.639285 4.536796 -8.758266 0.25326893 6.6876698 3.3772902 9.707421 4.5618443 3.9499483 -4.1916227 4.469013 -6.8727164 8.273455 -2.053323 -9.572811 2.294076 -6.3763084 -3.0790873 2.447913 6.6073656 -4.638128 -5.3179984 -5.661869 -5.808225 -5.208892 1.2279347 5.510467 -5.745933 -5.3852324 -2.9339724 -4.830702 7.023223
687819 1.1891466 -0.43008357 9.311584 0.79271406 7.6091795 1.4734832 0.67786944 2.9429698 -3.1776392 10.615444 6.2407603 -4.468066 5.497634 0.7057644 0.47071293 -0.32718033 -2.0426223 -3.9341972 -4.0703015 -2.5545232 5.521066 -0.5659987 -2.7683911 15.517569 -1.6395879 1.9333252 7.4522786 -5.7520084 1.6215084 -2.340927 0.75272906 2.0177 7.8508277 7.1923027 -7.8059688 9.621117 -0.2622173 -0.17047939 9.516359 -0.76684254 7.6370816 -3.9045887 -3.1381414 6.8983293 10.296956 2.9649832 -3.0274634 1.3444053 1.035452 -8.879855 3.2324407 6.572635 -1.6617364 -2.5248106 -12.111022 -2.569814 1.8184006 0.3055051 5.521445 2.343086 0.68636453 5.925413 -2.1287022 -1.8688984
925340 5.9112296 -5.7480097 0.9967705 -0.6012063 2.0071676 16.210844 5.7785335 -1.1684937 -0.1067157 5.397176 2.0912943 -3.3174498 1.3889116 2.9909463 -4.417594 0.54027396 -3.3931253 -13.195476 -8.0637 -1.1148691 3.121341 4.7909765 3.0106895 6.6123753 -1.2164388 3.50615 1.0111 -0.19730219 0.0040276777 -6.185184 4.08608 -8.663587 1.6661613 3.5391128 -0.97681236 -5.0956774 4.961998 2.5677028 10.087946 -0.9429076 -0.6567334 -5.829566 -13.813192 7.0176835 3.4675782 1.6214631 -3.4396796 4.6915674 -2.5535731 -4.7205906 3.5982256 10.926924 -7.4014573 -11.22042 -6.533702 -6.460334 -10.526463 2.2435894 3.5685666 -5.2729554 4.0355988 5.928197 4.2174463 -1.0822825
906870 6.899494 -5.4232683 12.7549925 12.159811 5.9679446 11.132551 -6.417362 11.775846 3.0476644 5.590178 2.173357 -9.387596 -4.3714633 6.5257616 -6.7727885 8.412321 -6.509582 0.68396115 -2.5401936 2.4675376 6.9716735 7.7010326 -0.3575569 7.8954997 -9.290646 -4.054575 -0.91947407 -3.222674 -1.8656031 -2.268365 6.8040075 2.5789063 11.951911 0.030765953 -10.491482 1.7926064 7.632814 6.7787466 6.301316 4.0306377 0.74600375 -2.3594837 6.698814 -3.2843294 4.5707846 -0.48111272 -6.1108484 -0.18125899 0.9744871 -2.6650062 0.84676653 9.315952 -4.859255 -4.509396 0.7981341 -4.0007234 0.9355075 0.73331285 6.196747 -14.067021 -7.375648 -4.083293 1.9712805 14.383335
946358 6.921953 -5.1518707 15.303719 10.572319 6.3930864 9.159907 -0.8086708 -0.7176424 -1.349074 1.9078511 0.89930606 -10.162896 1.3939605 5.45298 -6.731026 15.674413 -2.4006507 0.8431547 0.90132177 6.514306 6.5762663 3.5162227 2.4122763 4.6337056 -3.7459104 -3.4771194 -2.7349782 0.53025883 5.43476 2.7609415 1.3020074 3.4954402 6.5314126 2.4012272 -11.502775 4.8531413 8.658731 5.0795393 10.328868 6.2896414 1.418471 -1.6141095 1.473362 -6.297782 9.926391 2.5331357 -6.59684 4.208822 -8.84396 -3.261731 2.6537263 6.7577643 -1.8972713 -4.3220944 -6.833748 -3.9257731 -7.5979958 0.06454477 2.9387817 -1.897459 -4.3789415 -2.3023534 -4.145729 6.9981723
907275 5.090565 -1.6662625 12.00656 11.861785 5.472002 13.211252 0.14412886 5.415358 1.7777634 -2.587206 1.3605967 -7.797254 -0.6880824 7.849103 -4.6223173 13.430143 -3.0756013 -6.682584 -3.8406684 3.8640907 12.655832 4.4895053 3.1114223 7.464974 -3.3549805 -1.8822523 3.5406258 -1.4914654 4.967347 -8.005865 0.06649476 -2.7633924 6.2238083 -0.20934857 -5.2869277 4.1889553 5.768212 4.3551445 10.244975 2.9742851 -0.9029725 -1.1985444 10.119472 -0.8704727 7.6098433 2.8017476 -9.288081 2.4058173 3.6663296 -2.283204 0.65137 10.236356 0.28016394 -4.153767 -6.37573 -9.417523 1.1984218 -1.6013347 6.635667 -4.977323 -2.977901 7.94537 -2.4640236 12.208724
1298533 -3.8638053 -4.211679 3.4872582 -1.4353586 1.6963812 -0.19567913 1.7222848 -2.1725717 -4.254234 9.188942 6.1685567 -6.8119903 -2.2962453 -0.7160418 -2.3974147 0.9702 -3.356106 4.4507184 0.8245176 1.3522922 2.6956873 2.4031913 -4.6739283 12.796546 -0.11504607 1.9667965 5.0955887 -1.7529995 6.802514 -1.2499567 -0.780308 11.233734 11.849484 3.1780117 -12.183719 11.103233 1.8361161 1.9003005 9.484916 6.0448184 2.1199195 -6.4142575 -8.808972 1.0710667 8.195654 1.9909703 0.703822 2.9650936 -8.801806 -4.0920753 5.833781 5.0797453 2.8635712 -2.417659 -10.143742 0.09851734 1.9202517 -0.5242714 0.48439693 6.478449 1.6041261 3.5768337 -3.7756848 -1.0422616
1240153 1.2369627 -4.4549627 2.5218194 3.149352 10.400774 11.836693 4.8056808 2.6611657 3.0969462 -3.3336937 3.6297507 -0.2601202 -1.4264973 -1.4104377 -5.9402895 5.201862 -3.3085904 -7.4989357 -16.294645 -0.44555482 1.7381294 6.900177 11.797711 11.045484 -4.9979696 3.7073057 1.6982454 4.4963236 4.884447 -11.227576 -2.120594 1.310719 3.2852728 2.421774 -10.761339 5.013566 3.2291553 8.167681 6.524755 0.1956645 0.7474668 -0.6515842 1.1157424 -6.2358727 -1.5325149 -0.25757715 -2.8198447 2.106633 -8.675386 -3.4133189 2.4961164 11.146379 -5.524071 2.005219 0.34641623 -5.9910016 -3.8114343 5.1157923 2.218625 -5.505182 0.24370906 6.414129 -7.5587697 4.2219534
907282 7.5728793 -2.0410771 -7.6186147 2.3375826 3.253415 9.9040365 0.9521094 -3.7722034 -3.0989752 -4.5070286 -1.5987941 -9.936486 -2.1678417 -10.43682 0.44131044 2.597484 -4.9295735 -5.5342097 -7.877825 -0.4878029 7.651053 1.4181105 -6.895238 9.267766 -3.109091 14.351142 -0.08619699 1.6611453 0.49273676 10.543617 0.7181715 6.6443253 -0.52023166 -3.1753395 -6.4018474 2.1500394 4.9478884 -1.2086666 4.7081013 0.09054036 2.8393512 5.014034 -7.722968 -9.217509 2.5669413 -4.170614 -0.14971946 -10.283138 9.289742 0.42662767 6.993085 -1.3689171 -2.6366038 -1.2899444 6.8167243 -7.14989 -6.56212 0.2824454 -2.5036087 -0.4117687 -9.195329 -2.9854798 -3.5311732 -7.240292
905971 -0.48853135 4.0838656 4.0517025 -6.6620035 -1.8700566 1.7746311 0.6709056 -5.634619 -1.2883465 6.83784 7.1861215 -5.604932 0.3673821 -9.647322 0.325756 5.7869625 -4.566122 -3.7174 -4.8672247 1.1463162 6.721274 -2.7214265 10.299179 6.330617 -7.2387543 0.69543564 -0.25814846 1.4379119 4.2128325 0.54769516 5.3011894 -0.2868722 14.098516 6.183904 -9.880289 -0.7319493 9.374756 2.0067813 5.1099033 5.7158985 -4.415831 -4.211444 -0.16371459 -0.8840797 2.407325 4.263326 -9.19051 2.8421948 -1.1770142 -12.962188 2.0550294 1.9617217 -2.6561158 -6.4467735 -4.675416 -9.175528 2.234542 -6.542155 -1.9188722 -5.59338 2.937888 4.619756 1.4651521 4.9784064
905965 6.529848 -3.1943066 10.078515 12.589322 7.895167 5.578801 -3.0824256 5.1596813 6.4438887 1.4208163 1.5652267 -9.975769 4.1582656 9.398313 -4.543224 14.592344 -5.6429453 -0.45703274 -2.100546 7.1876087 7.033661 7.862955 2.7527056 6.358478 -7.266718 -4.9768763 -1.509567 -2.4904976 1.0393122 -1.9755701 1.7356929 0.8887531 11.762149 3.764704 -6.7993336 2.4270413 7.447758 8.5965805 10.439506 3.6808968 3.2320623 -3.2104294 7.568202 -9.146497 4.05289 -4.6429214 -9.376975 4.2255354 1.1935564 -6.1488376 5.082134 7.8804216 -7.7841363 -5.865731 -1.965564 -5.678292 -8.014337 1.0680603 8.779177 -7.984654 -8.084104 -4.3480945 -5.733419 7.0727415
907276 -2.5275564 -3.9180148 5.75469 -7.0320168 5.230071 12.6033945 -0.04722489 -5.7399945 -3.2137835 7.683238 1.0915511 -1.9286631 2.4407766 5.425847 -4.860722 4.2036114 3.4768207 -6.4302526 -2.3743782 -3.7849224 4.380543 0.46693775 -0.6472041 -0.09012475 -0.45323035 4.227019 -1.4595582 -2.4829392 -7.4995832 -6.7451053 1.565647 -7.165412 2.9233742 7.130522 -6.5590205 1.1137702 -2.062001 3.4423804 8.477228 3.1904316 4.245417 -5.0091815 -19.07872 7.3392267 9.059775 4.746806 1.5796934 7.533541 1.040195 -10.923363 4.655001 7.5084095 -5.1682696 -10.2992935 -7.076673 1.8620747 -13.786229 4.501271 -2.7396934 0.9325772 -2.640406 7.2644963 5.680263 -3.9458232
1331033 6.008488 -2.4065735 14.6839905 11.572856 8.660641 7.0597734 0.4451593 1.4401674 4.8066244 -0.94588804 0.65929425 -9.4081745 3.038995 6.453625 -6.4204793 16.545086 -4.1412187 -0.926838 0.52020687 8.101371 9.494267 8.006795 3.8861248 4.9813523 -1.7399641 -2.8658383 0.47754475 0.86502254 2.027626 -1.7800663 2.2769198 -1.8173441 8.767822 0.022509761 -9.191388 3.8607035 4.62313 2.7970903 9.12787 4.951378 1.5850626 -0.46482664 4.736098 -8.085202 4.5779285 -1.8969858 -10.513913 3.9953506 -2.4312978 -6.40255 1.3491014 8.755515 -6.3479686 -7.9786124 -6.0291915 -6.07957 -2.6031046 -0.18114549 9.069931 -4.080238 -5.565703 -1.5045431 -6.107425 6.666373
906863 3.4004157 -4.610749 3.5092359 4.5365524 7.90827 3.1790094 2.8615968 -6.52178 -9.28526 6.256546 5.9818544 -5.534413 -4.723147 6.9675965 0.9377263 -4.4630075 2.3052316 -5.3077993 -2.4082997 -0.84954447 0.10208992 3.5572486 2.3620079 6.5036445 4.615882 5.1532016 -1.2754197 -5.0792723 9.896274 -3.4430006 1.2452455 10.455443 15.289344 2.2011163 -13.782586 1.5427201 -2.9672997 1.7391812 0.35130554 -1.4036672 -3.5766513 3.0215683 -4.314936 -2.8626842 8.53662 -0.5163138 -5.5024514 7.37853 8.125563 -5.0895467 13.340968 4.664744 3.9615493 -9.10845 -1.8776671 -2.2171044 -4.134911 0.06755832 -2.920766 -0.22318284 1.0095316 -3.8332758 -9.107821 -0.9012745
1298215 5.0842366 -9.301139 2.7536216 5.1051903 11.883834 4.176507 7.6205225 -2.1389654 -11.268863 0.10572233 6.950824 -5.172641 -5.3032765 7.9348364 -0.07629214 3.209126 0.24198528 -7.998257 2.4380615 1.284471 6.1659813 6.1070476 2.9960406 -0.705706 -1.8218155 5.7081246 0.118527085 2.2736216 3.1850991 -6.982188 1.3193843 9.094797 16.363728 3.930732 -9.360984 -0.7915054 -3.1296437 7.567021 3.9028602 -3.350147 -4.8507514 -2.4604995 0.27064103 -7.5019817 6.103224 -2.0351272 -6.201841 7.3403673 5.56577 -5.6261683 8.55405 10.475436 5.699686 -9.774148 -2.5111854 -5.1351056 -2.7443328 -0.30475977 1.2162971 1.2529027 2.8816576 -2.5006151 -12.439994 0.13307203
905936 -1.9217048 4.5341525 4.075193 -0.12621036 -2.1232736 5.675612 -1.8753158 -2.2681777 -1.4368806 6.3388705 9.193402 -4.597301 2.6792176 -4.828104 1.609146 8.991723 -4.8084645 -2.610731 -2.0341952 0.9475668 6.178152 4.1528845 8.601979 8.604588 -6.146278 -0.1280671 2.4478076 8.475517 5.0557814 2.7487144 -1.208848 -3.0693717 13.843939 1.0957602 -10.1297 1.6305391 5.751654 5.1202083 4.5601954 8.406627 -1.861613 -3.2258573 0.15211968 -1.166235 4.6107173 0.6083364 -5.966863 6.758807 -2.6966991 -10.948989 5.790337 6.437016 -3.3287244 -7.6596727 -3.538717 -13.220147 0.16290458 -4.99794 6.915827 -7.4264655 -0.9219875 -0.023974722 -3.5293849 12.204427
909257 6.755486 -0.5649039 2.3925722 2.3527386 5.611456 0.4852917 6.469735 -1.9776008 3.6116655 6.52793 8.585815 -3.2783957 -2.2592988 -7.054502 -5.634386 6.481288 -2.726132 -2.834448 3.5376246 5.6282854 -1.9367266 1.641991 13.656905 10.603304 5.0329795 -1.6020956 2.266616 -0.051430687 7.55042 1.8155147 4.6871357 -3.1765368 9.255257 5.291581 -5.3925333 -1.9044222 6.805632 6.6254416 8.728375 1.7576722 -0.24385394 -4.3437696 -3.7878475 -8.491291 1.723988 0.26053122 -15.738025 -0.1740954 -2.7762408 -10.018767 6.706474 1.9080862 1.3074547 -7.481784 -7.4494143 -1.6811339 2.4997087 -0.5001739 5.014731 -2.2280555 -0.3000739 2.6375036 -2.5729957 4.2927284
722066 -5.3603277 1.4320588 8.042171 -1.1041973 -2.616557 4.9106703 2.48675 -1.8960946 -3.6557572 10.703484 7.9120193 -7.7459874 4.0555434 3.4616659 3.9215984 -3.5295932 -3.6020808 -3.4653797 -1.2096114 -1.6770616 -1.5256159 -2.2365932 -2.5942926 13.0318165 -0.5460333 -0.10656544 7.5088544 -5.405918 11.18786 -0.58379316 0.4296651 0.5615485 7.1350956 5.447034 -3.787831 5.4916415 6.164879 0.6379551 9.551872 4.144507 2.6078358 -6.5730276 -3.9128857 7.079268 10.625861 1.5710809 2.988716 2.3825243 -0.117219 -7.641435 5.635213 1.2567097 -1.5315275 -1.090032 -12.60959 -2.8842652 2.4224808 -0.5305709 6.478285 6.4252305 -2.575369 2.4768994 -7.810661 1.6040019
907311 7.9182134 -4.977857 10.7471485 10.625965 7.328616 8.712449 -2.762777 4.156557 1.931776 2.1537848 1.2754825 -9.087236 2.6830294 4.702504 -5.9765415 12.003497 -3.1794848 -2.5704885 -2.79664 5.3655457 6.646418 12.8185005 3.9325166 7.2159176 -5.423733 0.031371668 -1.6103039 3.682624 2.159088 -0.7782444 3.2975388 5.7750316 13.172887 -0.94754595 -13.746989 8.210365 5.667208 6.827463 5.9909763 6.2140446 -0.2528709 -0.44880223 1.5903696 -7.9584885 3.7156143 -0.63687694 -8.4796915 2.4349675 -4.649672 -0.6397188 1.4448109 13.164025 -7.3475423 -5.3368793 -4.4578223 -4.588989 -2.0193841 0.63043076 5.537466 -5.2114344 -2.382502 0.026715707 -1.461411 4.753878
910554 0.3812275 5.081495 0.24650942 -7.3834333 -2.4805152 0.5404474 0.5304399 -7.905493 -4.212633 10.943731 7.6792665 -4.0359063 -0.07911145 -10.64746 1.5021662 2.0087166 -3.5284207 -8.163097 -3.5839765 -2.5686836 1.243256 -3.1160755 14.583149 10.528813 -2.298839 1.5609802 0.2811635 2.6217952 4.7268424 4.7920203 3.7068434 -3.4598367 7.219918 7.115164 -9.35727 1.6120427 7.217914 -0.23212123 4.7026143 1.6707572 -1.595511 -4.060653 -0.90182465 2.5739667 3.1485898 2.4670262 -9.645662 3.6381187 -0.27777955 -8.527302 6.6360426 -0.81222534 -2.963714 -7.7059283 -2.7355385 -5.5806465 6.5513673 -6.058064 2.1083202 -6.8408127 -3.2610612 5.1504097 -0.23968068 6.302295
1247873 2.4311218 -1.3651191 8.889412 2.6731217 1.9010768 5.3612714 5.465996 -0.13554002 -5.6944413 6.2937074 6.66251 -1.6510307 -2.5114396 6.7746453 -1.2751805 2.5714588 -5.0457997 -2.4106457 -12.0841465 -0.2993833 5.2985983 -0.80332935 -2.3393903 12.747201 3.7027216 7.426758 7.1555233 -6.1011705 12.025241 -6.145079 0.11426203 1.674058 5.0141683 2.5771825 -8.150424 7.303494 3.7602532 1.6093298 6.4840975 1.8450625 1.2787397 -4.2819395 -3.6520007 7.7240887 5.8739505 5.2929854 1.8930235 -2.2515032 -2.001381 -7.294189 4.8087983 1.4820269 -0.33052918 -3.968026 -5.9818826 -3.5489006 -0.30264252 0.7380151 1.6678562 2.9127624 -3.8157659 6.395516 -8.64307 5.2198925
1298531 1.8262912 -7.1818676 6.018322 7.737226 8.308127 7.678124 7.3504825 -6.894693 -7.425322 0.56420714 9.034521 -3.2192562 -3.1155846 8.847673 1.2950426 1.2026013 -1.3812693 -5.363252 2.1394103 0.84779257 5.9613256 5.3244042 3.6258392 3.1279137 0.4650799 7.4450045 1.9670037 -1.5687348 7.519355 -8.106979 1.8015333 5.625921 17.797108 2.8267155 -10.509703 0.7177508 0.33251172 7.087334 2.4440525 -1.0774417 -2.3960576 -0.8481774 0.61553156 -7.9015303 6.522714 -3.5463686 -2.7670236 4.272073 7.9095187 -7.690028 10.2867985 8.25944 0.99414325 -9.41398 1.8892716 -4.9978194 -6.651615 2.309632 1.7884282 1.1204448 -1.3422345 -5.0086956 -11.505905 4.300401
905954 -5.5828915 -0.550302 4.925175 3.6646588 12.21559 4.2468805 0.20561735 3.7964962 -4.6287093 1.9069093 8.868528 -6.717755 -3.3738437 -7.3583436 -4.028101 -0.9205638 1.1655397 0.054718897 -10.640073 0.39529514 6.331213 7.4421425 4.1382165 12.684868 -3.474779 3.7340672 -2.2704647 -1.7870078 8.540589 -5.282871 -6.1290436 6.057964 8.399928 1.3956927 -16.219845 5.8803563 -0.9185587 5.8388367 3.6647954 4.803956 2.7104983 -5.8365307 -4.969896 0.7333259 3.691661 4.0782065 2.8761125 -1.8640945 -5.2455187 -5.447827 4.8112288 5.3522124 -5.6845007 3.652109 -4.6278405 3.9730191 -4.85597 5.4819546 -0.29864424 4.865388 -1.8105584 10.584967 -2.3528526 -6.5358257
1503366 5.120941 -5.1506896 3.400836 0.5686783 7.880019 10.372122 0.46636203 -2.9307828 2.853724 4.827852 0.8758869 -2.7831311 2.5136724 6.1531014 -6.1444464 -2.0549 -3.7329946 -5.6833377 -12.828327 -4.130123 2.4091308 4.833173 3.8939776 12.059264 2.0466404 1.7825396 7.963279 -1.3536421 -1.7453715 -8.620336 4.6581044 -1.3671703 4.960487 5.078478 -10.394214 1.9298049 3.6375556 -0.31304926 7.773745 -2.1979494 4.8715057 -3.0078201 2.1096087 3.9541264 0.7849287 -3.6726482 -10.784054 -2.4724405 -7.226559 -0.80056906 4.580038 10.841866 -7.9714484 -5.527305 -7.0537114 -4.51334 -0.2841214 4.5052314 2.8650107 -9.689188 -4.3316975 1.4937726 -4.413528 8.346418
1290810 -6.8213086 -1.4587222 11.180701 -2.403594 1.5706654 9.203783 3.2281554 -5.448196 -0.75612533 6.555499 6.61214 -7.867431 -2.1189873 5.317295 -5.7537284 -3.896661 -1.8791549 0.4789524 -0.876064 0.35790431 5.2294936 1.3614478 -2.7527246 15.316153 1.0471725 -3.5860198 4.5464554 -8.01593 6.386517 1.2598028 5.8100605 9.685373 6.458323 1.3174057 -2.3054423 6.6059623 2.0453775 1.6985307 7.060234 2.6333737 3.5780354 -5.31313 -8.255279 0.37663203 10.33558 4.886794 3.9190476 -5.04826 -0.6967201 -1.611941 5.2711973 4.5336466 -3.6654887 -2.5100734 -11.463852 3.4049408 -2.2768607 4.5508204 2.519776 6.154994 -1.059609 1.1937509 -4.9864297 -5.3500247
908118 5.615526 -2.752649 12.645851 4.9817643 9.124104 6.108258 4.141348 5.473585 2.544694 1.2721757 0.11936111 -4.1234956 1.5056549 5.6275067 -7.55272 9.951517 -6.599675 -3.5960517 -6.3554773 -0.68190485 8.753859 2.333352 8.066183 12.540764 -4.261953 0.6609243 0.8034575 -2.3923907 -5.668857 -2.371017 0.341677 0.9746179 8.781031 2.3004198 -4.1043124 8.29697 3.651102 7.0652165 8.089155 -0.74111867 1.4836255 -1.5188019 0.5813677 -9.776922 -0.808171 -0.80890703 -13.4594345 4.564023 -0.9980497 -4.5280895 6.1630073 11.754561 -0.58189267 -3.1020405 -2.3567765 -3.5791566 0.09803728 3.6666753 4.6055026 -6.820909 -1.2663906 -0.9723313 -13.603251 7.5893416
909716 -10.546008 -3.6096134 10.830587 0.40797815 0.35362256 7.4995246 -4.3805776 -0.16408268 -1.5247161 9.899391 7.117586 -9.1373205 0.3629655 10.18431 0.37892464 -1.2305231 -3.5026002 -0.64430404 -6.3692017 -3.1416068 7.229478 0.64165264 -4.0325003 15.873759 -3.5730596 -4.538599 1.0097716 -8.154523 9.18043 -0.5612058 0.8935089 7.701918 6.489059 1.2197957 -6.4681168 8.6275 3.8870578 6.0070844 4.5354247 6.5117316 -0.56278735 -1.758235 -12.714775 0.61157364 9.665331 4.6240597 3.173069 0.12459393 2.769789 -2.4482985 7.3548427 -1.6257565 0.3099247 3.1956506 -5.581216 -0.12711498 -2.074242 3.079502 0.77535594 -2.2065368 -2.5625558 5.783682 -4.6989956 0.04523102
908440 2.1752148 -5.384602 10.2687 7.2365837 5.8249507 10.985438 0.9856305 0.54105633 0.9909994 4.0267386 7.7442427 -10.799585 3.8113902 5.636922 -7.1401186 7.007304 -3.8051312 4.2676225 2.3962264 2.8231359 5.682422 3.1245635 0.7150358 9.754096 -5.9014354 -1.9121755 2.745359 -4.1436644 4.462296 1.1996137 -1.3276818 2.3047135 11.153179 2.2734714 -8.2192 7.471726 4.426723 8.266328 10.008834 4.2746615 6.615656 -3.8754141 -2.9654272 -9.032715 7.670354 -2.0328453 -4.4590354 3.202727 1.5362463 -5.006848 7.325783 8.501003 -4.08281 -3.4472306 -3.9155307 -3.0352788 -11.368787 2.7140627 1.8702881 0.7648553 -1.3304373 -6.082463 -6.6185026 1.3324862
1327774 8.775117 -7.1799607 9.137722 8.806116 10.12036 7.998893 -1.9551094 4.0212994 2.7818954 3.6248977 0.18786184 -7.732268 2.1225328 9.88621 -2.8504999 19.478346 -3.7557383 -5.500443 -3.207067 4.9674206 10.214053 0.9577341 3.0433607 8.26112 -9.639161 1.312252 -2.667022 -3.7994213 -0.71092975 -4.280666 0.04335923 -0.88901407 5.828935 1.1554743 -5.8669395 10.480105 4.930317 10.960489 10.739023 1.176522 3.2784193 -3.4184744 7.9885406 -9.5431 3.3413632 -0.38340607 -8.47213 2.483866 0.86419964 -3.4945977 2.1746283 9.247876 -3.1725261 -6.5675373 2.089341 -6.353677 -8.090157 -1.6611211 4.5291104 -8.493751 -6.6119523 1.1508776 -4.4174867 6.584881
688027 5.56937 -6.5113664 8.579437 -3.786816 3.6022987 6.677379 6.9272485 2.529881 3.2617335 3.007395 -4.3913317 -6.0604415 -1.6625115 2.89002 -4.1420074 8.729151 -6.4953504 -5.916002 -7.8040395 -4.2651644 6.451027 1.8758188 9.149838 10.774658 1.8586774 2.6020591 0.54080576 -2.4650514 0.075918116 -3.0803747 5.1270022 1.0345092 2.8417227 1.7795572 -3.6522481 0.37803924 4.5682898 -1.644985 7.920244 -3.0539029 0.22208554 -0.37219203 0.5591871 -1.089987 -0.51512957 4.6720047 -14.692577 -6.4357457 -10.876078 -0.063039295 -1.2658498 8.464454 5.266738 -2.1773744 -8.585711 -6.436139 2.546275 2.3092458 0.5302474 -4.1975756 2.16494 4.885985 -8.262335 7.9713736
905961 -4.191782 1.4314619 7.755098 0.1125815 2.0156388 5.2898426 -1.4638964 -2.5137758 -8.089539 4.798904 6.580157 -4.391321 -2.8915803 -2.653891 -2.253465 2.7648084 -6.2471685 -0.5289073 -6.3675714 0.44370422 15.113036 5.443428 5.491157 7.400993 -15.502042 -0.8576883 2.425127 4.921839 -3.099504 -2.6893983 -5.1496406 4.228454 16.868223 3.484394 -12.239398 1.4654993 11.363588 3.6080787 2.713647 6.5437627 -5.6131716 -7.467816 -2.947104 -0.9888794 -0.7846713 -0.37500945 -5.603312 8.391511 -6.334111 -5.9843774 5.7435145 8.317036 1.3167723 -6.3741655 -2.9322329 -7.9278336 0.3957518 -2.972647 0.45178097 -3.8112946 5.5067186 2.4815927 -2.6689513 9.2212925
910691 14.79166 -0.7264744 4.5937934 2.6322327 0.76109844 5.8512793 0.34932917 -1.5059793 -2.0203383 8.941806 5.5958056 -2.4876363 -2.5959241 -6.6888123 -8.731077 15.041338 -0.83089143 -0.717776 7.1892657 -0.70251197 6.6061015 -4.2365932 2.238463 8.403254 6.8316464 -2.5098436 1.8814602 7.9532223 1.5765841 3.7355757 10.57252 0.038912173 3.3989215 7.5985484 -7.0233674 2.821453 -1.370465 -1.441548 11.75172 0.3992664 1.167989 4.1443 -4.901398 -5.6768026 8.341256 1.5204637 -12.184341 0.5796829 0.8476193 -4.0542603 -0.97556543 10.321307 -6.3886724 1.4069581 3.716826 -1.1695129 10.896802 -1.0038203 4.357101 -0.05957541 -7.523582 4.7305512 4.541719 4.0275187
1303900 5.082584 -7.9159603 5.394231 -1.4892042 3.9964297 11.645117 7.249705 0.63013065 3.8500497 -2.1277351 -0.6284058 -4.876554 -0.75800925 2.2887828 -3.679115 4.290054 -6.555381 -9.344644 -8.998573 -1.2906204 5.624465 2.0908015 7.530583 9.675457 0.75649816 0.5505798 5.4331503 -2.1753523 7.8436418 -3.9028683 4.5697527 5.087108 -1.9579237 6.1953726 -2.0701337 5.9448276 8.235193 -4.3766465 12.833182 -3.3167949 1.2585982 1.2606959 2.4970722 -0.18725142 0.18102764 0.35596755 -6.107171 -1.7645643 -5.7340775 -2.116806 -2.6760798 9.696472 3.0717516 -4.5305653 -7.318549 -12.8293085 -1.5819249 -2.408132 -0.1880223 -5.4032145 7.5819755 3.6802995 -1.6931012 0.59090734
906793 3.842743 -1.6259397 4.923718 11.774546 8.633744 4.459299 3.7067301 7.087034 4.540938 -5.868076 10.042554 -2.400153 0.06057193 -0.37288904 -7.4728026 6.8062043 -0.18879017 -3.6826186 -8.367184 4.212761 3.1834714 6.1911125 9.006658 9.037691 -10.33524 0.8502047 1.5445184 5.974276 4.749872 -3.6188931 -3.9801557 2.1165884 10.498943 5.223706 -11.581761 2.2241552 5.9530735 13.176305 7.638173 4.79721 -1.4017706 -3.1706467 1.0716535 -9.7130375 2.7968626 0.7073496 -6.1472273 4.856878 0.69348204 -9.047846 7.5473833 10.005434 -6.4919677 3.0647626 1.9739276 0.18339385 -6.7105775 6.0398607 1.4740567 -1.1083096 -0.9809719 0.32937887 -10.282846 5.380208
906833 4.311951 -5.6554217 11.643079 4.8799825 3.4028645 0.04455005 4.5825233 5.0801644 1.2978901 2.2503183 6.8809633 -8.130476 6.6774697 5.973153 0.8849415 4.913027 -8.823452 -0.13883194 1.9003857 -0.26604638 6.334361 4.2170396 -0.73655003 16.7448 -2.3504353 2.996224 3.976109 -2.1525183 0.87912 -1.3483927 2.2387824 3.5220504 11.670989 4.350577 -9.042768 8.736303 1.269967 9.96769 9.054026 3.056543 2.6597083 -3.8995917 -7.804326 -5.96379 5.681832 -0.21655801 0.018714532 1.9762343 4.9146824 -6.602756 4.507322 4.42565 -4.9798703 -5.3421245 -1.2724708 -3.061203 0.034860477 -2.562243 5.9479723 0.15356375 -2.924788 1.076028 -15.2079525 1.303811
949155 6.338996 -5.179427 5.0511723 7.338778 6.1621647 5.511857 -2.8778749 6.0251966 7.895054 4.3340845 7.023072 -10.854068 -0.12507214 10.038683 -5.0432854 10.014322 -6.2342796 -0.8653819 -7.4493403 -0.8960149 4.640195 6.681959 4.3485937 10.623262 -8.303628 -5.0026603 1.3118521 -3.1737223 1.0363431 -3.6077871 4.184206 1.8329954 10.957688 1.4596075 -9.450048 -0.49676353 5.9778657 8.019756 7.185972 0.7319416 3.8648367 -1.1258678 1.1372688 -6.3745546 1.6129376 -5.78631 -13.925459 1.7301259 2.0040696 -4.6859903 5.5205207 10.844495 -6.2215586 -2.359488 -2.0143137 -3.7705123 -7.7226624 3.5714204 4.3779635 -8.428649 -5.358509 -4.610287 -9.1985445 9.792082
1240193 9.479433 -3.008421 14.553412 13.88191 8.778465 4.8868647 1.5887038 6.3109503 4.90063 2.4457166 1.9723465 -8.533472 3.6946702 3.9827785 -6.9530473 9.953732 -5.43071 2.3069944 1.5239292 2.3267748 5.3941364 7.477438 2.8938742 9.093929 -0.84631777 0.6283757 0.3731407 -2.7791846 0.38944787 0.99405676 4.323744 -1.0521913 9.703663 2.0036185 -7.355956 4.0194225 7.121495 3.2847612 9.04593 3.691067 4.961436 -0.51345 3.2383792 -5.306823 2.4080956 -3.2034013 -8.556671 1.5814991 -4.211962 -7.409812 1.5533315 8.078277 -5.126576 -5.2830467 -9.32705 -5.2212014 -2.7140326 0.34200495 6.634433 -2.0935934 -4.8798347 -3.5919514 -6.4265075 6.9806385
909260 9.763841 -3.9269633 11.009801 11.960178 6.2673063 8.417879 2.9852204 4.5381994 1.5266093 6.7382164 -1.0889419 -11.963966 -2.575497 -0.39766437 -6.1181974 10.124468 -2.894399 -0.80881155 4.86094 5.9948206 3.540032 4.3193717 2.350678 8.387252 1.3546234 -0.87877005 -2.2320309 -0.4556576 3.9521487 4.249443 5.074147 -2.808019 10.236427 -0.22294581 -9.729663 -1.6294441 9.412814 4.11652 8.068916 3.9136631 -0.7311175 -2.9597614 3.75877 -3.8074737 6.5640836 -0.44550467 -5.072714 -1.1406779 -8.306591 -3.2948785 1.1099373 6.783386 -7.2317295 -9.64034 -5.6527376 -6.3472033 -3.5248418 -2.3624816 7.74732 -2.7862906 -6.5354967 -0.730934 -0.0076769358 8.87166
949153 6.871601 -5.954175 11.937679 13.149317 8.359204 9.746187 -1.3146528 2.3199441 0.48052 1.1190301 1.4373348 -9.364355 0.5056357 9.026 -9.016881 12.113076 -4.5240736 -3.7019885 -0.11921919 8.069392 5.1171284 5.0125203 4.271963 6.648687 -3.740911 -5.7069707 0.45906642 1.1400064 3.90038 0.09205357 0.95350075 -1.5751355 9.940825 1.3908792 -12.148246 3.5563712 8.520299 5.1250076 8.463801 2.9043763 -3.1639667 -1.331821 3.489115 -7.1772094 6.428463 -0.12639442 -11.4994755 4.211055 -2.5961025 -1.6590115 4.583867 8.584586 -7.0250416 -6.8558965 -2.6695552 -1.320398 -4.3746586 2.6052287 6.5653987 -5.967959 -3.4800751 -0.50958526 -3.1604354 8.268786
753574 -7.2604165 -7.7599487 3.9445465 1.3058625 14.218425 3.0305226 1.0210898 -10.2685995 -4.7624593 4.5207124 8.195287 -5.0041494 6.357548 4.6113276 -5.4227223 -4.3466988 -0.38988245 -0.69763005 -2.2132125 2.1712093 7.259993 -0.80988324 -2.4506774 10.868129 -3.0671322 0.31424287 5.144775 -4.863753 4.8702383 -3.4895332 2.002361 4.3332286 5.071428 8.745296 -7.911705 9.608166 -1.5398386 -0.06474893 11.092794 3.7990758 2.7967448 -8.349481 -2.442485 4.1960325 7.5668592 -1.9221731 -0.39963627 1.8716782 -5.3467407 -5.3428626 4.189417 4.324926 -6.138818 -3.027682 -14.434067 2.6941378 -2.1569421 5.530784 1.581487 2.0376468 -3.2395756 -2.070121 -4.0802045 -0.72707593
1330984 9.660974 -5.0231166 9.540793 14.524963 7.0151563 4.7122626 -2.195225 8.4270735 6.6435804 3.0098994 3.418604 -10.492569 1.9770026 5.4677734 -2.5836077 13.4741955 -4.9253316 -0.54001236 0.0386293 4.5429983 3.883689 9.259804 2.4836016 6.222823 -4.3613396 -5.0969806 -0.14104494 0.35686523 3.164106 -1.2887177 4.139702 0.72288334 13.092531 2.2343552 -10.547553 -0.07808808 7.510171 9.060769 8.2309885 4.695382 2.1247091 -5.127799 4.0165653 -3.247661 4.3458447 -4.6324034 -6.902155 2.4261136 -2.4684854 -4.003728 2.254703 10.624664 -9.2593565 -5.8190994 -2.650387 -6.437491 -4.7444515 -1.8209381 8.5614395 -6.9376163 -3.7657168 -3.5173774 -2.639351 8.879383
1327775 7.855787 -8.971914 8.230642 12.790117 9.219608 5.27652 -0.42704415 1.7342812 6.279065 2.6805081 0.8048398 -9.894942 2.4851682 3.0629547 -6.1725283 7.831248 -2.7935429 2.5061972 3.504121 5.517784 3.7463806 8.866784 2.1787963 10.67577 -4.5777555 1.0966537 -2.82482 -0.19255091 1.0292983 -0.8341462 7.168676 2.5689363 12.397497 4.288528 -12.414274 4.001603 5.7263975 3.355244 8.408034 4.6817083 0.47459415 -4.263353 5.499478 -8.197494 6.387198 -4.1522846 -4.6650033 1.7730726 -8.850139 -4.0802116 0.4709769 6.6015825 -7.6224084 -5.3413777 -2.7812207 -6.006994 -5.027951 -0.12874815 4.6403284 -7.087337 -7.222986 -3.5461197 -1.1860486 8.4333105
909703 6.958763 -7.7666707 10.1135845 12.5172415 7.8376822 6.6708446 -3.5372965 4.423283 4.617955 2.4894955 5.6401606 -13.304816 1.6539736 5.0795827 -6.0587215 14.209541 -4.8880353 0.2583588 1.8407271 5.076111 4.5891986 6.248574 1.391428 5.294223 -4.7044926 -4.3606677 -2.3001096 -0.26437077 1.7509172 3.228053 2.6131182 -1.9111617 8.461715 2.1107402 -11.354763 0.021364667 8.029222 6.4929714 6.9340324 4.058717 3.0450232 -0.51922756 1.7660366 -3.8938637 6.042235 -3.0260072 -8.982072 3.072146 -2.8343725 -6.0160465 1.5978076 7.38072 -8.444966 -5.4370646 -6.245917 -5.6512613 -9.566731 -2.5212383 5.497593 -6.670831 -4.7143598 -4.124843 -3.462535 10.190154
910701 6.6238384 -9.549943 0.2307 4.359758 8.128878 6.3184967 7.688199 -2.2703428 -6.002485 3.071734 4.3459954 -2.2024014 -9.625645 6.689604 -0.06619405 0.28417116 -1.0970248 -3.1517646 -2.6979096 -5.6478934 4.830902 5.0466337 6.3157597 4.6770325 7.7661977 7.376792 2.9320345 -1.9942434 6.8130755 -10.476098 4.192584 6.91157 13.189543 3.142248 -9.733108 0.018448852 -3.5116303 1.404422 1.6403266 -4.8861547 0.57888526 -3.6864922 2.1790538 2.642715 3.472395 -5.147483 -7.0199547 3.1421764 -2.3962922 -0.34790015 7.821571 9.273741 4.714254 -9.510876 -3.100321 -7.362202 -3.6945689 0.054400623 -0.9949966 -3.6665244 0.8858892 -1.6423278 -9.9628 6.4820538
909722 -8.044949 -1.3606343 4.3500395 -1.2288325 3.7765315 5.4520717 -3.5858421 -8.046729 0.17543055 5.5076404 10.05099 -8.717031 -3.9905045 4.9407334 -0.81133056 4.2307563 -1.4595513 0.6489649 -6.872964 5.2494283 9.839192 2.9814293 4.341201 13.318639 -5.2544975 -8.541648 -0.334588 -4.2054067 12.651101 -2.822892 2.5026252 11.219137 2.5065207 0.372259 -10.63907 7.388291 0.052165464 2.360169 9.062854 8.509256 -0.445241 -0.023802867 -6.072839 -1.1262996 10.59637 -0.31526867 -3.153694 9.106614 -1.5579028 -2.480656 7.0413537 5.102425 -5.6770577 1.0481464 -10.586294 1.1579136 -8.785419 0.49480852 1.0336821 3.5029671 -1.5138961 2.760575 -3.3115656 -4.107129
1327771 4.3242836 -9.080715 1.7254319 8.787538 6.0039454 15.692163 0.90284014 5.6505065 0.9104487 4.12831 2.8900201 -5.632234 0.98345554 11.635686 -4.868556 9.845935 -0.20861231 -3.2215004 -4.6923313 5.3069224 2.350708 6.085056 6.178245 7.939111 -3.3419437 -0.99995446 4.2288694 0.92812353 6.067183 -5.2463965 1.8521647 -2.4584918 7.211275 -1.1625606 -9.103735 8.92691 5.4267263 11.418828 7.6892056 4.181793 -3.23218 -3.3124301 1.1518495 -5.6930566 3.0194497 2.310778 -4.617029 3.815193 -6.317076 1.7142928 5.717474 10.498894 -4.915193 -5.7489433 -8.689847 -2.5466757 -7.051368 3.9844596 5.738086 -6.6422763 2.0896373 1.178083 -2.218392 8.683355
907066 -9.114149 -3.8919227 9.758002 -2.4427745 6.418589 -1.9627547 -0.46782368 -2.109334 -0.13237612 8.683231 4.352457 -5.423166 0.3351223 8.381257 3.6599884 3.696608 -4.8013415 -4.867662 -5.1495094 -1.6504493 6.271705 0.5188086 -3.0183313 9.774119 0.14650664 6.4769063 1.7119932 -7.652167 8.095512 0.4108937 3.4543436 11.61456 3.695512 0.7957243 -4.149062 8.589359 0.37549713 2.2947495 6.6324286 6.3259554 5.169989 -7.6478586 -13.424078 4.2744913 6.1587634 6.9218006 2.993835 -2.1527553 -2.8749013 -7.657982 4.6282387 -2.3191302 2.8599205 1.8641868 -14.004566 1.2348979 -0.67377377 -0.6400923 4.2776303 5.4396644 -2.21641 4.0773773 -4.205087 -6.9552464
749716 -3.140324 -6.4413157 17.784098 0.72260576 6.8369365 4.6443467 -0.5600964 -8.726885 -0.4171576 3.3370502 -0.41664726 -8.258372 0.45500508 3.9947307 -6.866369 -2.664161 -1.3625648 -4.721661 0.6585961 0.19215319 1.4766438 -0.30244857 -1.1263133 9.831735 0.9798631 -7.3861704 4.7345433 -8.576622 4.3952284 6.331889 4.021513 12.055189 6.0520415 6.9111676 -8.4664955 10.77518 6.601598 -4.1482363 11.030565 -1.8419614 5.5707707 -1.7924165 1.6260971 0.27225655 11.300105 0.43389237 -0.77149564 -0.6921084 -0.09073211 -3.2638278 3.6713777 6.7989917 -3.75325 -8.369152 -4.1426673 -1.542834 0.4838538 -3.8346364 -1.8141958 -1.6351162 1.7900615 -2.5554037 -1.1882182 -2.6309881
908481 8.002316 -4.406565 8.183724 -0.17808807 2.6113696 10.408491 6.361332 3.1291883 -0.21086255 2.2388363 2.9215255 -7.4230714 -2.9365895 -0.05934098 -8.660992 4.6480904 -7.0745625 -5.4790974 -9.818132 -4.5671353 7.841305 5.1646013 9.246825 12.448574 -0.23561789 3.7734466 1.1428941 -3.418855 1.0671324 -3.3890686 5.389858 -0.5831881 0.35211095 -2.8789268 -3.2790291 0.31294695 2.2300832 -0.1349053 7.0258565 -3.8077028 -0.4344633 0.91947573 0.5125252 0.96880865 -1.3006011 4.8451176 -12.908866 -2.3814433 -8.490677 0.50967735 -2.6560717 7.7865734 3.192345 -1.4623755 -7.0078716 -8.01492 3.2687523 2.7343352 -0.44321054 -4.6043134 2.2765586 3.4365852 -7.6691604 9.249283
907061 3.6316247 -5.3690996 2.8986385 3.9592888 7.238444 2.6083167 7.032365 -5.1721625 -7.3704014 -0.4588385 6.1817613 -4.841954 -3.5613406 7.7550545 1.7788498 1.751951 0.91447234 -7.4716444 3.0271902 -1.1920276 6.9281206 10.821151 5.9274654 -1.655021 3.8241947 8.611513 -0.14537987 -0.5465075 4.814473 -10.929227 3.264791 7.985463 21.235043 2.0566275 -10.099287 1.5636798 -3.7037492 5.505912 2.7733483 -2.2202687 -5.4939785 -4.1460996 -0.3304968 -5.0055656 4.523892 -4.1463456 -6.7140994 4.4247427 6.06023 -5.621852 7.6510224 8.939422 4.747534 -10.314236 -0.1891963 -5.382029 -1.8164736 2.4149847 -1.7562363 -0.40491602 1.8275851 1.7443453 -10.662579 -1.2864845
906877 6.168708 -3.5315742 7.0775905 5.064666 6.4705615 2.836613 1.0683256 -0.812782 6.5618677 4.590166 5.6279364 -10.467437 -0.55819035 1.9114945 -4.900992 10.7192 -3.645207 -1.422376 -0.17008129 3.5672643 2.8178072 6.5541773 8.989804 9.516508 3.0968266 -2.4287257 2.748102 -2.5103748 6.4647937 -1.0993046 4.7243524 -2.9981906 9.414772 3.1120331 -11.401096 1.130593 4.521597 1.9407582 9.011712 0.6725532 1.6429081 -0.6782286 1.4207497 -6.0388 2.2212965 -3.1482549 -13.238032 2.23449 -1.9179727 -7.6405654 4.6252384 3.2408915 -3.975902 -6.5305524 -7.442834 -6.359459 -4.535898 -1.4904772 4.2907314 -1.6725658 -4.8002505 2.1932917 -5.283194 3.6266382
905977 -3.435799 -4.874313 1.7653717 2.914565 6.5414033 11.737782 6.1518493 5.0078535 2.597556 -2.805872 5.1267266 -2.1872017 -4.2588587 -1.5574707 -6.268014 4.957766 -3.138323 -8.700262 -16.862135 1.5690461 1.5761273 8.213334 9.169232 10.101972 -4.1594305 5.4634223 -0.39348853 0.3092314 12.450408 -8.068973 0.21403295 1.3112463 5.68647 -0.82671 -9.13605 0.1474846 3.4611883 10.458255 5.20424 -0.22255008 -0.3867713 -1.3158624 0.7504654 -2.6510494 -1.9545166 3.698748 -1.0105338 -3.7909544 -8.348804 -6.2611046 2.593706 7.862335 -9.808607 -1.1239142 -1.0329592 -4.259909 -6.2830887 6.670432 3.606682 -3.6600778 0.20671487 5.2263174 -7.8156557 2.8686416
724873 -4.9211574 0.017490985 10.722849 0.91865367 -1.7219447 1.6206374 0.1085969 -2.1405354 -0.5508775 5.667236 5.132912 -4.4448667 3.9026783 4.8734393 1.2095537 -0.28430074 -2.3562846 -2.1130497 -3.6989508 3.9281068 6.4098034 -1.431673 -5.0760193 13.417015 -2.968215 1.2461052 6.3222737 -7.211037 11.256536 0.9739053 1.3755339 8.191984 3.9910557 4.758168 -4.445838 11.535657 3.4079561 -0.7001777 12.729835 6.910589 1.8959773 -5.890932 -7.7247663 7.020571 10.991018 5.9473104 4.5194626 0.5820379 -0.0453629 -7.0231786 5.164568 -0.24920554 -0.5942558 1.4460751 -11.860728 -3.5169816 3.434834 0.17155579 4.0740957 0.6390778 1.4185054 2.420838 -2.8091915 -5.541621
684059 6.4882154 -2.5368245 9.905987 13.285874 6.119701 5.2544775 -4.9246936 1.6130345 7.9817224 0.33376068 4.683379 -8.841044 4.024939 10.054059 -3.5715346 13.4387045 -6.032716 -1.1497686 -2.1066873 4.362215 4.970813 7.256689 3.6932204 7.3069296 -1.7073636 -4.7450285 0.8146243 0.11119891 2.9185374 -0.8987377 2.0486875 -0.0026308186 9.220595 3.8766832 -11.79737 5.3878217 5.485727 5.9868603 7.603687 4.0655665 3.2455647 1.9894073 3.9573245 -6.4546657 5.666706 -6.511745 -11.956597 4.267628 4.849419 -5.4973917 6.4107995 9.854305 -10.673739 -4.7607665 -3.1495225 -5.073759 -7.252418 -0.92457557 8.202544 -6.0031176 -8.410827 -4.385689 -5.6095643 9.026196
908141 5.2573485 -4.7559276 9.885113 13.006458 4.155841 11.246933 -1.3422761 7.223943 5.9396987 -0.93192685 1.2023094 -8.149998 -1.2381026 3.51192 -5.250139 7.7505736 -4.8115835 -1.3592495 -1.2920511 4.6616974 2.4247448 7.1905513 1.5323005 8.524394 -5.820241 -1.5884159 -0.10607379 -3.0978034 6.3079166 -5.671837 6.2185016 2.3738978 11.011236 2.1733637 -10.056674 -1.4055077 9.93011 7.9694777 10.924995 4.5499845 -1.0504103 -1.4357115 6.247368 -3.3814218 6.239456 -3.6711454 -2.623839 3.046347 -1.8177812 -6.4666195 0.20808463 6.03631 -4.60948 -1.7164383 0.787203 -8.576466 -1.490508 0.046554882 4.777933 -11.80029 -4.5137587 -1.3311149 -1.6344982 13.745354
907786 11.068042 -5.27034 5.5830474 7.9349003 9.5195055 7.553732 0.22656067 7.343967 4.649391 12.049499 1.3093057 -6.625213 -5.394898 3.6832626 -1.2518185 9.859087 -3.4288216 -0.55360997 -5.084733 -0.406733 5.008533 1.6266259 -0.6467122 12.613469 -13.414789 1.2224826 1.7850208 -5.8873982 -4.6931467 -6.8884892 3.9028523 2.521529 10.265949 3.100497 -5.365329 6.8623395 7.3979273 6.9233212 8.151662 0.12825099 7.2759466 -3.7156513 8.638241 -5.711784 3.254057 -2.4495943 -1.8098638 7.623041 -1.8209743 -4.328431 2.27093 10.29538 -1.7719524 -4.489811 -1.5189918 -5.7059617 -8.468213 -3.9701076 3.8137996 -3.496854 -3.198788 -0.5371285 -1.3125533 5.7248807
1290922 -5.128941 -11.009425 14.128126 2.4589329 11.512237 2.568591 6.8428125 -5.8217554 -5.6298532 4.935203 8.450732 -6.594563 -2.7683554 3.4483907 -3.7926464 -0.098942764 -3.0560172 -4.3440638 0.24534605 -1.3330629 6.571626 -2.4232495 -0.47773206 11.573512 -0.0650696 2.1511269 4.422252 -8.638008 5.6813207 0.28768346 -0.20526235 9.035113 -0.7344645 5.797014 -7.745674 11.800855 2.3386323 0.004045912 7.6452336 -1.6020482 3.9610517 -3.5239499 -5.494417 0.5414181 5.6053224 3.6832178 3.7435312 1.3926121 -1.7111269 -5.067803 3.6751552 4.112572 1.9723164 -1.3631822 -6.0076346 -4.103629 1.021308 -3.5301206 0.7159429 7.631723 1.1597551 -0.5981989 -3.7341123 -1.9698637
910544 6.3770514 -6.1216345 6.717892 7.7180605 5.6260657 7.47723 -0.3263213 -3.747676 0.97646767 2.6372983 5.822838 -9.004768 2.2398813 8.439898 -8.896699 10.155262 -4.1174846 -5.136508 -2.5583396 7.2011075 3.646204 5.681185 10.206287 6.8056955 -4.206105 -3.7101643 -2.6029603 1.6721417 1.7267221 2.2680757 0.7720924 0.64123815 8.88322 1.2123967 -9.9318695 3.8995552 6.896168 8.234807 8.563749 2.0572162 -3.2186015 -1.9320316 -2.6917846 -11.740204 4.552905 -0.38244197 -16.470568 6.178738 -3.8747315 -0.81215364 9.390732 9.789949 -4.0497417 -3.794844 -2.043629 1.1149517 -7.4966116 6.226627 3.6584048 -7.2590156 -2.244957 -4.1275344 -6.8859596 6.053346
908457 -2.2932148 0.55634475 7.611657 3.9389622 1.3204272 9.700164 -0.24110942 -5.9237733 -4.473773 6.4284277 5.2578354 -5.4568505 -2.1474497 -3.0980055 -0.7982701 6.237752 -4.81159 2.3453107 -3.8521125 0.08193328 10.906442 -0.2598138 4.564245 8.78627 -9.214035 6.832186 -0.2158608 -2.1629488 5.390398 -1.1307517 -1.021275 0.23655014 19.465265 2.2564194 -10.640494 3.5884821 9.577379 3.142884 1.8118854 5.742117 -0.60687035 -8.233748 6.7928314 -1.6565653 4.3063364 -0.26761988 1.2477058 1.0292318 -5.8032217 -9.398754 4.209272 2.708065 -2.378246 -9.087344 1.1763574 -13.320178 -5.44175 -3.535146 1.4789157 -6.426887 -4.3809204 -0.5155851 -0.7683489 12.592989
1503368 -2.6642666 -8.400208 9.208001 8.750274 11.310331 6.54039 -2.7217762 -5.773842 -0.7537443 4.3819566 4.061111 -6.1202283 5.9211674 11.170322 -3.875174 2.7464175 -0.9403801 -2.7472446 -4.5515594 1.9358983 3.393004 0.8187247 -7.526703 10.058376 0.5887992 0.010900132 2.9656734 -7.7419457 6.855446 -3.9525492 2.934849 -0.12180186 7.349048 5.96027 -12.213416 5.7412214 3.9035363 2.6575115 9.520925 3.4887452 2.7538133 -5.355925 -2.9632275 5.760217 9.235209 0.9726051 -1.2283825 -3.039427 -3.8885305 -6.7207675 4.489357 4.9534698 -10.228469 -6.233111 -10.595874 1.3169526 -5.195804 2.8071227 5.8556805 -1.5189205 -8.258518 4.704975 -1.2623285 3.925599
1331038 9.161914 -5.4372616 12.40489 12.160363 7.867105 5.877192 -2.1504629 5.7092514 4.1936617 3.3678613 -4.374323 -11.88045 1.3696054 1.9899559 -5.2441306 11.925398 -4.425637 0.39866936 1.8181106 5.8162518 5.2199116 8.959288 0.3437121 8.559874 -4.4746914 -0.8109199 -5.996166 -2.0825448 1.4400693 2.257563 4.672473 4.4102726 12.081179 3.2469108 -9.129336 2.8955405 7.9650292 6.565299 9.626051 4.458115 3.8971486 -4.8870854 3.866485 -5.1327105 5.5643864 -2.7981453 -2.9372308 0.5707509 -6.5990815 -3.4651222 1.1093414 6.3533864 -7.1745715 -9.119784 -2.425202 -7.163247 -5.5602455 -3.299817 6.2748938 -7.0742135 -5.3999248 -1.4983015 -1.8663648 4.0135837
1298357 4.090927 -1.3185481 4.4242167 3.4701028 6.5520897 12.3875475 3.3881814 -0.6663998 -1.7576045 4.7366557 4.3116326 -1.9150056 0.3619765 3.5565677 -7.2940116 0.317008 1.5051521 -8.238676 -2.8927305 0.26550204 5.2525983 7.8651705 3.8026762 -0.5827035 0.2256695 2.4840271 2.527091 0.48228455 -3.0110483 -6.7046776 3.5520134 -6.345592 9.251141 8.274606 -7.071089 -2.5385008 3.4844358 2.1359148 9.519483 1.1984105 1.4493146 -3.6328204 -11.345999 6.495373 6.159512 -2.1872392 -5.676768 9.895401 0.6934052 -10.631501 7.143084 13.3237295 -12.238594 -12.616543 -7.739554 -1.7440441 -12.091605 7.1846895 4.8969607 2.5753717 0.45187014 -0.6639476 7.006295 -2.180777
1330987 10.959478 -0.3130276 9.788854 9.151422 10.096846 8.525158 -3.154175 7.787059 7.228825 4.3736916 -3.0592377 -8.319114 4.369526 6.066865 0.38566446 14.387454 -0.2917092 -1.98908 -4.4634476 7.1680174 7.333676 5.335801 4.565203 6.407936 -4.7130513 -0.17013273 -1.6510724 -2.4199333 -3.305618 -1.8242017 2.723693 -1.3152303 9.996454 -0.5402481 -7.5052857 8.970076 6.54996 11.40669 9.86852 4.2278347 2.4951162 -1.3223006 6.274809 -7.9045835 3.963273 -2.841167 -6.3618493 2.7123237 0.19416928 -2.5777926 3.0148847 10.709177 -5.1761203 -6.667023 -4.3050423 -4.2089615 -5.375318 -1.5882912 8.5408325 -10.716754 -7.8229327 -2.0455327 -0.9483318 8.230006
1240151 5.9275236 -1.4975528 9.233884 0.46406686 1.407478 11.309179 2.0429294 4.7985473 0.12297049 7.062645 -0.33422238 -6.1983128 -4.211403 5.0221105 -9.193985 2.161317 -4.784437 -8.418571 -8.773988 -2.4475317 8.766239 3.2738004 2.0061646 4.015197 1.4458667 1.1846586 0.35159293 -0.7450647 -4.4998574 -3.7427197 4.816837 -5.3406544 3.407507 6.44906 -7.133942 -1.582705 6.7209864 -1.2756749 10.304937 -0.30747232 -0.5262569 -0.37064782 -14.177267 7.598057 3.9006875 3.4421499 -10.307201 6.698739 -1.6520324 -7.409638 4.056965 10.862793 -4.908308 -8.5209 -4.3509107 -4.1469126 -5.4273734 1.0807875 0.42932412 -5.663936 0.5614925 2.5724018 3.345451 3.525099
924187 16.732698 -1.359414 3.1675162 1.9422785 -2.0674527 4.8708825 2.5278385 -2.8290703 -3.361618 7.434051 5.2785015 2.4460135 -1.5527936 -8.261618 -11.954765 9.783703 4.298727 3.5034697 1.4228483 -4.4750404 8.670675 -3.5349288 -0.3761169 6.959958 8.372096 4.5821943 3.9095693 4.3571935 2.643985 0.20429885 12.257096 5.209608 5.6560454 5.575251 -4.5844007 5.0079803 -2.2774677 0.21850288 13.7143755 -1.8083874 -1.4805349 1.6773553 -3.818401 -1.8615112 4.5678625 -0.3335275 -11.455692 0.7019499 -2.1368432 -3.4348266 0.86532944 11.673415 -5.2878385 2.5562942 5.264693 -5.2195497 8.547963 -2.290264 -5.758397 1.0018239 -3.9883125 4.503171 4.477879 4.8873563
906855 2.9882545 -6.900455 4.9207683 7.999442 4.404102 12.766731 -1.6842571 4.741694 0.98063135 5.6548047 2.8452904 -11.703841 2.1948216 1.6069384 -7.918072 5.9917054 1.8470284 0.97132605 1.4060569 7.6289196 2.1388164 3.8251219 -2.129091 10.610609 -7.2684507 -3.2566452 3.186669 -1.2693932 4.9016204 0.34846798 -0.4206465 0.45374852 10.492972 3.479153 -11.350912 9.956238 5.8707504 10.603332 14.171047 6.7985992 0.4881437 -5.0587087 3.276018 -5.8624725 7.9632707 1.2027445 -4.220504 0.910283 -2.194439 -1.7090852 3.8853886 9.880684 -3.7001264 -6.8014445 -6.430057 -3.7070208 -5.320165 0.5688026 2.0943809 -4.3113065 -2.5823681 -2.8457847 3.638935 6.843991
749717 4.235799 -11.286716 3.3294883 0.4015917 2.4933558 12.949975 7.233208 -4.181804 1.9186562 -1.6074786 1.1908854 -1.6729091 1.4852059 5.6327105 -4.739745 1.4633925 -4.917865 -8.717285 -7.981488 -2.8695004 0.61161643 4.271653 6.517602 11.263977 0.9679978 5.319601 7.568204 -3.9362793 6.4259577 -4.3007627 5.9795375 2.8836367 -0.5918471 1.7285564 -1.3571297 4.1008983 5.2663784 1.4398578 6.818001 -4.257279 3.3441741 -3.4428735 -0.1411257 1.6844578 -0.09948934 3.01452 -3.8753395 -2.401709 -8.739098 0.36301026 0.59641784 6.6337404 1.3590935 -8.802073 -7.0011826 -11.687973 -5.726403 -2.2542796 -1.3509679 -4.8709536 8.763721 3.9282436 -6.0907807 3.875797
908445 -0.31092355 -2.3219001 8.381146 -5.9561944 5.0840664 12.698313 -0.01667434 -2.840933 -4.126461 9.0674095 5.676888 -4.7107105 2.3938012 2.2933376 -4.9398937 -5.4244876 -3.5892603 -6.7514973 -1.3022616 -1.3129622 3.7907674 0.16362298 -0.49366674 6.5662417 -3.2303405 2.48591 -1.7701768 -4.688476 -9.300994 -0.7289203 2.1586735 -5.306318 5.7435484 5.080407 -9.576392 1.6708293 2.1947124 1.7001008 8.005737 0.14586124 0.9734013 -2.0869286 -18.252264 5.1917744 8.941466 4.5216494 -1.7277907 4.8950458 5.2975025 -9.575864 5.7494054 9.943944 -5.795378 -9.357247 -4.473413 3.7522893 -8.639746 5.307553 1.1740032 -1.2518053 -2.631454 0.08981399 6.988179 -2.3202636
930298 12.55308 -7.3232718 2.2323642 8.167131 0.94242215 4.1793504 3.248793 -9.181407 4.14087 -0.79317456 5.1773677 7.969201 1.955765 0.6425067 -9.284546 2.691137 4.755767 -0.69845885 -9.897482 -4.4609714 3.7021976 3.0945265 -1.7020882 5.656379 10.304739 9.185957 6.9121566 0.81223375 6.0612407 -6.134514 12.5029545 9.572953 6.1125293 0.5153463 -1.6588265 3.6025534 -1.6807822 7.25081 9.6621065 -0.3036559 -7.6104712 -4.128012 -5.1076193 3.4494886 -3.730195 -0.46173128 -5.594111 0.05961891 -5.1621504 -0.68762875 4.742175 11.699847 -1.8701806 -0.43350887 2.9600444 -5.501318 5.086463 -3.3049383 -8.790821 -1.9480792 0.021408064 6.6263766 -1.2655675 6.2642617
910546 6.214042 -3.1807628 7.2061315 10.40059 10.254965 6.4069104 2.699902 5.105197 0.18329471 1.9839603 1.56583 -6.7838216 -0.87404644 2.5723474 -6.2715645 8.061826 -1.9746016 2.4688902 -1.5515721 4.2521353 5.845187 3.4491732 -0.24175939 11.224561 -15.047284 -0.244778 0.5166026 0.85827935 -0.3114319 -3.754244 1.7727792 5.5454016 14.208455 5.427273 -10.27954 4.9702387 7.9335604 9.987144 8.049761 6.8706803 0.8808451 -6.07629 6.10423 -10.44353 4.1236353 -1.0056133 -0.66938925 5.906511 -4.2486935 -6.5183334 4.947602 6.7591043 -5.9706 -5.5655904 0.66858494 -4.982979 -5.5784097 1.2173408 2.0144491 -0.10570793 -2.0274668 -2.1550524 -6.8311114 4.8857484
1299050 2.429413 -7.078268 3.7736263 3.357532 7.52723 6.197 3.173153 -5.9796057 -12.6414 4.5116987 6.064912 -6.401468 -6.5400705 9.159402 0.19881923 -1.1853569 -0.75741464 -5.039674 2.5579522 -1.5725343 4.2480135 6.78029 7.196496 -1.9767958 2.515016 4.4692836 -1.3172845 -2.3406324 5.4462757 -5.473664 2.980425 9.011205 17.787653 1.2946279 -10.268107 1.4032838 -3.1964705 2.3667467 0.5694062 -3.8645847 -1.9508061 -2.151871 -1.8186337 -2.8699079 10.097315 -1.1206005 -8.269886 5.3274446 3.7997406 -1.4379895 11.398863 7.7345023 8.080644 -8.800546 -3.4842951 -1.7039227 -2.264519 5.0121317 -0.9608627 -1.4066433 4.5356216 -2.120826 -8.448938 0.51131034
753531 9.928039 -7.3406053 1.1331233 7.1670303 10.8432455 3.504391 4.2392125 0.2491589 -6.784432 2.376418 4.727816 -6.158344 -5.077607 7.869 1.1495098 6.351196 -0.44843906 -4.592611 -1.8385673 -1.368061 7.679261 5.8364162 2.3181005 -0.12607758 -4.9660096 7.2272086 1.3739045 -2.265247 2.8704636 -8.897187 2.5347636 6.1988482 20.264982 2.787024 -11.324047 0.00054823287 -2.7894635 6.503231 4.11947 -2.9190433 2.0978107 -6.8102717 5.323133 -4.446356 3.6413636 -5.305298 -7.244884 5.994618 5.8175144 -5.9488 8.45301 10.255637 1.11409 -13.245266 3.1274915 -8.363579 -6.707936 -1.7530552 -1.2569631 -2.7477546 0.63056517 -3.0307853 -9.639212 0.481011
908130 14.421631 -1.8629198 1.0989512 -2.1734095 -0.19493967 4.245883 1.2490048 -3.5082605 -3.9001215 9.572956 10.058484 4.158086 -0.07320373 -9.468908 -8.337449 14.031934 0.90525734 0.43123603 3.8746948 -3.5499578 6.301865 -4.1106772 1.2475291 5.6007814 5.7510285 -0.015204746 4.4500966 10.109655 -0.731687 1.151383 9.602333 2.580714 5.0316405 7.627543 -3.9613416 3.6206162 -4.7706537 6.5385804 10.9636965 -1.3376374 1.864247 1.4894307 -5.6065226 -5.7125044 6.015565 3.925809 -10.800597 1.3186383 4.511909 -6.6830497 1.8438574 11.922141 -7.0953155 1.5134723 4.274982 -0.5389945 8.293275 -1.8256197 -0.6185457 -0.17123722 -4.9512124 5.3456206 2.704935 2.4270172
687505 9.125719 -5.1441145 6.688848 10.99009 3.2395515 -1.5502735 2.9130147 -5.7693667 6.266953 2.1652467 10.400469 1.2055732 2.3980947 0.71094334 -9.258731 6.4626493 0.6985871 -0.73657876 -4.9600887 1.1709068 3.6751575 7.25914 4.0299277 2.8503253 6.2649727 4.6888046 7.227232 3.6830192 5.5416737 -2.1925397 10.253347 5.870161 10.505184 3.0695045 -6.6484146 4.9542413 4.3298883 8.2336 10.917844 3.2600243 -2.2408237 -5.3686657 -3.835258 -2.6341918 -0.50893664 -4.205136 -13.670905 3.743859 -2.1934645 -6.928442 9.099608 8.96055 -6.3496027 -3.7095027 1.2576609 -5.3090096 5.813962 -4.1529226 1.9151055 -2.5090795 -2.2502687 -1.3682292 -1.5984933 8.443961
1240179 12.828322 -7.0300627 1.376427 0.6654936 -1.5419165 2.237668 5.0573125 -4.442722 0.93253106 0.43565118 1.7508682 9.378441 1.2515695 2.852271 -5.1404853 5.1940756 2.0077662 1.7341017 -12.547481 -4.48656 9.160034 0.46315792 -1.8311967 2.7288892 11.454537 9.5998535 7.5648437 5.2054205 5.9251995 -7.181567 10.1327 9.654346 6.427329 2.0475013 -2.9511049 4.893539 -1.8497133 4.480584 11.977121 0.9615052 -6.465478 -2.663247 -4.698982 6.6025534 -3.8404782 0.86555815 -7.909474 -4.278253 -8.848414 1.7312932 3.6478312 12.151578 -1.0175929 -0.73176366 1.6031657 -7.674083 3.1485317 -4.238494 -8.651919 -3.07695 1.0898385 5.4911876 -1.9588158 4.771103
910916 3.522257 -6.7195354 -0.39684245 4.2020116 9.747342 4.76136 8.487837 -3.629866 -6.135411 -0.2330355 3.5759807 -2.62883 -4.390054 10.917116 1.6367865 6.04142 0.6180604 -7.396897 -4.0661683 -2.2558768 7.379074 4.863378 5.040637 0.8559928 3.2277598 7.947276 2.4922013 -1.7304264 5.5554705 -11.908227 1.0280375 5.9267154 16.010513 1.8076922 -10.198812 2.5349975 -3.7021248 5.49031 2.7781105 -4.7232738 -4.5362816 -1.0523664 2.2436526 -3.0849051 2.9901977 -3.6720004 -10.491357 4.661124 3.0211565 -4.3161893 8.295095 10.005145 4.07822 -8.692237 -0.9646407 -6.0951557 -4.490778 3.2955801 -0.5520862 -2.2599342 1.0316174 -0.52489436 -12.182969 3.5433786
1290905 -7.11692 -12.278216 9.666287 -0.22043763 10.14534 3.8512268 9.831059 -2.3370779 -0.030727725 4.4704413 6.5692534 -6.591854 -1.1273538 3.5926845 -4.5533133 -1.78078 0.16584675 -6.2184668 0.76224613 -3.910989 4.6755967 -2.1282566 5.422406 10.225007 0.6595667 -1.4905041 4.963887 -6.1329546 3.044792 2.240242 2.6290154 9.024137 -3.847653 8.598396 -5.531277 13.046037 1.0124005 -0.74553615 9.270325 -6.7780237 4.1341324 -2.3137033 -1.7140939 -0.5465151 4.876192 1.7239484 0.60486495 4.5189824 -1.2300934 -3.2208376 4.019169 9.899643 -2.194331 -2.0739775 -5.5701246 -4.7248354 -0.81651366 -7.26902 1.1053692 4.2083 5.551087 -4.5354743 -1.6468722 -4.8873897
906696 -4.3159003 -0.65886855 9.584937 2.1979568 2.9539208 5.3856015 4.180639 -3.70343 -3.0391562 0.38602793 12.666775 -5.1170754 2.1639192 3.5879369 -2.1336703 4.5702996 0.10055143 -0.95528316 -6.6208878 8.091616 5.7054424 1.73467 3.003245 10.173772 -5.6001763 1.1812304 3.3540382 -0.03544166 8.086442 -3.9718761 -6.3560843 3.745 9.39922 2.6263142 -12.150868 11.409445 4.5771646 10.209324 8.507715 6.0241337 -0.23147704 -3.5852306 -3.861721 -9.001917 8.2 4.139221 -0.40961894 3.823066 3.651023 -7.8795795 10.4208765 11.273227 -3.912386 0.7056987 -3.2642949 -0.3516286 -5.515381 2.4227386 3.5001888 8.3032255 -3.6698663 0.21523558 -7.466383 2.1215777
687561 -3.2598965 -3.408417 11.276858 0.67614686 1.1718483 8.099137 0.6805787 -6.12471 -1.9732902 7.5975924 6.7518787 -5.071915 3.6781845 7.9173093 -4.0718246 1.4614203 -5.733897 -7.807697 -8.456163 -2.1337795 0.57188004 5.27191 -4.066502 14.7799835 -7.216738 4.0273294 2.2182336 -3.9805174 3.2791939 -1.3470932 2.812469 5.3173194 7.5509634 -2.5614257 -5.891463 5.9939795 6.0555925 6.5092134 4.193872 4.2454295 1.7455773 -3.3490696 -9.820915 -3.1078985 3.106787 8.494578 -1.7555784 -4.977417 1.475835 -5.2142506 4.789674 4.9960566 -1.2533907 -0.6713309 -5.7328787 2.8863115 2.6170208 5.110113 2.4733403 3.7080448 -3.4370332 7.5088363 -9.451271 3.5905292
