981 64
1240127 -1.114296 -9.371024 4.006483 8.012903 0.62402374 1.0517591 11.028577 2.7756438 -3.7839835 -9.541195 2.6522777 -2.4009213 -0.5744973 0.94253397 8.1043215 2.3494594 0.27192822 -6.4237943 -12.584887 -9.251873 2.8515227 8.031377 -3.1234288 3.083731 -4.15528 15.371903 9.051062 -3.015254 -16.339237 5.138307 -7.2656527 -5.3578267 4.4471526 -0.6458691 -9.824912 4.668558 -4.6282086 4.640897 -5.461076 8.42683 -2.0354125 -3.9185643 -2.067528 -0.52404 3.5029063 5.386161 1.1702112 -0.8481995 -5.68632 -1.9431267 -3.138682 -3.7280076 -7.2799416 3.4975092 -1.4303299 4.4867077 -6.9498644 -0.868405 -1.4507191 0.7056112 -1.2900441 -7.8730407 -17.112682 -1.7232517
906871 -2.6924205 -17.818125 11.391291 11.050725 0.9403017 -0.61266667 -2.4792287 6.894209 -8.679465 -7.1639585 0.07813726 3.218788 -14.121535 3.8645496 0.20237336 -1.5362833 3.8700156 -2.5911076 3.265693 -3.2601955 -7.589424 1.8145957 2.5842235 7.2574 6.598443 -4.1489863 -4.9235883 2.3546414 -10.098064 2.4374835 9.826359 -3.811183 -1.7274691 4.070452 2.2523084 12.96392 2.2249656 9.481317 -5.0525904 3.8491123 -9.665913 0.22003043 3.303442 -1.2695179 -1.3979805 3.0353963 -2.055774 -1.3631625 -10.969699 -9.974662 -1.7738564 -2.1770544 0.20262809 4.122656 11.173842 -3.7165308 -7.739739 3.677382 4.8939395 -5.3799157 -0.27806628 -3.5819054 -0.47164005 -0.44858938
907794 1.160624 -1.0836806 13.985702 6.9532456 8.705033 11.120171 14.364673 -2.075539 -4.1461654 -9.743664 1.7549118 1.8583103 -6.72301 7.5982013 7.1545386 6.285054 3.3046777 -2.4604921 -3.5539784 -1.8098053 -7.297737 -1.2087225 -8.579489 6.363339 -6.9951754 7.5523515 -4.900516 0.58222145 -8.363108 9.64184 -3.10841 -0.25988632 0.08884428 -8.870776 -2.7108355 12.614016 -2.5303717 0.513221 0.6880069 5.568961 2.3020918 -0.49348643 -6.6392646 1.4105811 -5.727211 9.632431 3.331047 4.4446206 -2.7713208 -0.7898762 0.6212729 -1.9569788 -3.7859306 7.3418684 -1.1042663 4.864163 -5.6212287 8.683823 -2.7083836 -6.5296702 0.7592803 4.5454216 -5.88505 0.14970481
1240208 -8.655948 -16.299341 10.991461 9.482382 1.3235283 6.187189 -7.182347 3.4600847 -5.743658 -5.2685204 6.736332 1.3143471 -5.9768476 7.860866 -1.6602886 -2.472922 -2.3962114 -6.157823 -4.539055 -7.3205595 -0.5618773 8.185841 0.1055959 9.908009 8.356807 -3.802186 0.81013477 4.402874 -11.96457 -0.8888195 0.89049304 3.573178 -1.6099752 0.5658159 -2.8500967 4.877601 2.6226692 17.18467 4.779865 3.458946 -3.8343217 -0.971428 -0.7887653 -4.177258 -3.6935291 1.4770825 3.8837314 -1.9182963 -0.0021185346 -3.13271 -5.7086062 4.1980567 -0.35458666 4.7429323 6.0670624 -4.3336587 -3.551566 5.811767 1.6949952 1.4423022 2.2863932 1.1128638 -5.982618 -7.003032
1659823 2.4203744 1.075806 9.960856 8.706026 10.448513 10.784428 10.503169 1.853377 2.5207977 -10.177957 5.096827 1.7422994 -7.0644035 9.189436 5.605457 3.0107493 3.7395084 -4.4069333 -5.435158 -5.563205 -4.6040745 4.658237 -6.658918 1.411741 -4.9175143 12.0977745 5.903405 -2.8865626 -14.919109 4.890339 -3.3230922 3.7120588 -1.9637861 -7.5043335 -3.3270864 6.6003876 -5.2806683 3.6349757 4.971138 7.2773166 0.81039304 -7.5031486 -8.059341 -1.9914818 -1.1810366 6.715342 1.0655491 5.227473 0.3049758 -0.2948855 0.90185195 0.52194893 -0.87966466 7.693887 -5.7827 4.713152 -5.505713 4.4989667 -3.4490716 -2.8389904 -0.112511836 -1.2298465 -10.224421 0.58074176
905958 -6.308661 1.1327723 14.502365 -2.6330764 2.369836 0.11021991 3.7965999 2.8867588 -4.532057 -10.47259 6.8633046 5.850498 -10.167189 -0.324323 4.726405 0.6383157 -0.07322168 0.78222364 1.8019576 -4.242146 -3.5999918 -3.8270838 -2.872578 7.6141186 1.7280061 1.6390072 3.8541198 -1.909711 -14.506812 7.3293037 6.8484154 2.089985 -1.980117 -3.216805 -6.655801 10.565623 -1.426054 13.879714 7.3910723 4.7015653 -0.9736196 -2.7032623 0.34092996 -3.2221897 -0.9563784 8.74947 4.5650344 2.6222954 -1.3614216 0.13438097 -1.2225909 3.7040985 -3.0558896 6.5182734 6.2189865 -4.021481 -2.2778776 8.124916 -0.9788984 -8.711527 -9.276272 -2.3801184 -7.9797883 7.7822223
910781 4.210681 -6.239062 6.538113 3.8215437 4.103409 -0.7526169 13.187051 -2.2820811 -7.8115454 -8.326971 -3.1561306 -0.5115091 2.5966053 -4.566379 9.0786085 0.9537583 -1.0860138 0.0685642 -1.9088246 -10.127223 3.7292378 -1.6363392 -9.346729 3.1415854 -0.7836872 13.012794 2.466491 -4.0166383 -10.689684 8.848054 -9.599887 -5.2090926 -1.549048 3.0191553 -13.94739 1.9138693 -2.1065717 3.5337107 -9.204499 5.139313 -3.4205153 -6.7128706 -3.2836657 2.9755013 5.8152046 1.0256248 2.7053034 4.312758 -6.355238 -3.3272915 -4.966275 -6.056285 -3.1263323 2.1251473 3.7275338 3.214743 -6.944522 3.6923366 -3.7019668 -2.582926 3.6623573 -8.602047 -17.55816 2.911703
907051 1.4624615 -4.525117 4.4986477 -0.62447083 2.6621783 -4.8678718 11.229397 -3.024989 -6.5551805 -5.4329343 1.2980678 -4.6557107 2.5410826 -6.577021 3.8478084 2.1096687 0.82542795 -2.1129732 -4.9145665 -8.381782 1.6459821 5.599268 -3.3268096 2.8953755 -3.759622 13.431151 5.1409554 -3.5876262 -11.025727 5.690578 -13.119484 -4.835164 6.3234024 -0.7215197 -16.82181 1.8820652 -2.0236547 1.5335747 -5.28959 9.439791 2.021384 -1.4096107 0.9688413 -0.50115746 3.9578276 2.2768936 2.758887 -3.355588 -11.751341 -2.7596178 -3.169747 -6.129289 -8.519035 3.381928 -0.18839093 0.83981675 -4.6243577 0.83043283 -0.5846987 2.3828557 1.3186945 -7.6430764 -16.723677 -0.5199762
907042 -1.7129256 -11.434372 5.2675037 0.95383483 2.285447 -7.823797 1.0712829 10.368133 -9.525883 -10.490492 -7.7649794 2.3515077 -9.532071 -2.5192225 -2.4338462 -0.180688 6.0661316 -4.6519895 7.808235 0.32131532 -8.260055 -2.9293149 0.73967785 7.154649 10.293725 4.1064796 -5.272548 -0.036970235 -3.2621431 2.7466602 11.746923 -3.9924815 -2.7273958 2.8466446 5.2280273 12.5147505 6.5868134 3.2382557 -2.8665116 1.8850182 -3.3050325 -1.9670233 1.2562425 1.3554575 -1.0815082 7.570837 -1.204733 -0.65997285 -9.762743 -13.904565 -1.9770578 -2.7372677 1.0900242 8.302997 13.084672 -1.0615785 -4.2136493 0.62020284 0.004748949 -5.5662236 6.7522597 -9.116681 -1.8090681 8.270335
908129 1.5383829 -6.946039 3.9476488 2.7173913 3.606996 -1.8779954 7.6400485 0.1680273 -9.309957 -8.503159 -3.5152466 -1.436021 6.354523 -4.915517 5.964276 1.3589447 -3.833948 -1.2508222 -2.8198845 -7.982504 4.575171 -1.2175945 -6.8623133 5.5675306 -3.1750987 11.531593 5.2843995 -3.0640733 -16.232798 9.989243 -2.6007009 -5.4166884 1.8501891 4.535423 -15.777181 -0.70625293 -4.85508 4.1974206 -8.294932 6.941126 -5.4180164 -8.8443165 1.5714989 -0.47455272 5.658203 0.45672634 0.0012376148 4.1686883 -6.3335032 -1.7223228 -3.6141956 0.032203127 -1.1636574 0.9709689 2.971813 1.1834674 -8.2598295 -0.42484677 1.2833357 3.016073 0.24053514 -8.5251045 -14.676764 0.7265483
906800 -7.0883217 -0.30094528 18.095505 -0.2813976 1.5355756 -4.693056 6.161768 3.0936747 -3.960663 -8.647411 0.99152553 11.253985 -11.151504 2.2712042 4.0554147 3.0649009 0.22177188 6.0334616 3.405982 -1.455637 -2.5545661 -11.42914 -4.2644176 2.8996487 3.5879679 -4.204129 -4.7357335 -6.1607165 -9.4184675 9.612154 6.861726 -0.5826551 -1.5737054 -0.44000965 -7.912674 10.998019 -1.0132325 11.272098 1.2005283 2.4828186 -3.765575 -0.60302556 1.1364461 0.28691053 0.85396534 6.0295568 -2.9815137 5.3459353 -1.7102813 -2.032231 4.974736 0.9793198 -0.76877147 -1.4177707 6.5789747 -4.3110805 -2.2388737 10.263706 0.2813923 -14.493949 -16.994719 1.0840758 -7.7510524 12.008771
909735 -0.94915646 -8.323954 10.054184 -0.5463677 -0.9635867 -2.800294 14.354426 -3.233238 -10.749973 -10.032503 -1.179416 0.76860213 -0.48545346 -5.3344626 7.6617913 1.7353836 0.7432322 -3.021502 -4.071518 -7.973928 2.1191318 -4.3534465 -8.121304 1.764053 0.103227235 12.36762 1.7163393 -5.674989 -8.973915 10.136555 -6.963156 -4.9374237 2.2965055 -0.33509737 -15.944405 5.6556706 -4.289621 5.8787913 -6.942343 5.3480606 -4.679642 -3.5114613 0.20666845 0.33773488 2.189962 2.5401967 1.1024611 3.467362 -3.4184608 -2.204668 -0.497981 1.3648036 -6.8508134 4.1576095 4.1678114 -0.45097086 -4.2632947 1.9541556 -6.359168 -6.96258 -4.2767973 -10.162293 -15.409995 5.3788614
687815 -7.043146 -14.231836 8.364913 8.714229 -1.2440947 7.8030214 -2.1739497 1.6749134 -5.182361 -5.547853 1.3112271 3.7550066 -4.488416 5.710328 -1.8953497 0.2734762 -0.09770385 -5.7709713 -1.9474008 -6.547472 -1.020439 6.86583 1.9479691 5.7891126 5.4360337 -1.0371245 2.2169166 4.6298256 -11.877251 4.593134 -6.274465 4.135515 0.13311061 3.5775976 -2.267126 1.2893723 3.8901234 17.122995 7.378787 6.3413634 -5.1521635 0.5346743 1.3867794 -5.0745664 -3.0345047 3.9437304 2.546524 -3.5802817 1.2403754 -0.7032384 -4.6402435 7.4476457 -2.431892 5.7512007 7.4011517 -6.6616616 -6.547163 6.1034346 4.6455536 4.047683 2.0458047 -1.5300437 -5.2938395 -8.879322
909737 -7.037187 -15.000677 11.772644 9.150735 -1.9640335 3.1055505 -5.2489266 -2.5762112 -5.4946 -3.8872728 3.5841057 6.300008 -5.3220873 3.8424942 -3.3689687 -4.8073792 -1.0422506 -5.676502 -6.1818557 -9.002098 2.1076198 6.1559196 -3.4208584 7.3936844 10.084024 1.309731 2.0112305 0.47574013 -9.82189 -0.52148354 -4.20592 4.3000097 1.5980476 -2.7841573 -4.8371577 1.4521254 0.14830704 21.720514 9.770806 2.608783 -5.5890675 -6.4737225 -1.6961936 -0.56392115 -2.6781354 3.8597314 -0.29180142 -4.6904373 4.896382 -2.5884345 -2.6293967 4.79015 0.5412302 6.0939813 3.9152753 -2.931523 -7.2962756 4.2735863 1.3470289 0.9036978 -0.55755705 -0.0069054747 -4.9749403 -5.3658557
907272 -7.2010617 1.355097 15.056609 -3.8533323 1.0822071 -0.061413903 3.9374118 6.1243443 -1.2092485 -8.010755 10.935514 7.737283 -4.7692394 2.8914707 6.7436485 5.1545677 0.6467188 3.667664 2.2328951 -2.3803046 -2.5025795 -5.2553387 0.2674523 3.1394176 -0.92742884 0.8269218 0.58307904 -2.4520996 -12.889004 9.200656 7.9250665 -0.8045783 -1.8539706 -4.2333455 -10.439623 12.096307 -4.2491174 7.691921 2.8468666 5.7687473 -3.3840194 -4.8675966 3.1296844 -2.4104185 0.41802368 10.660265 -0.560572 2.9303083 -5.7808495 -0.05255032 5.0644827 -1.4973093 0.6676109 5.4398713 3.6872175 -4.0790596 0.6919435 6.356499 5.0344048 -11.945912 -10.825156 -3.335182 -5.6689434 7.771487
910944 -9.042081 0.33649993 18.064392 -3.6276162 0.11485156 -1.7597078 6.8659396 3.7872362 -2.0963628 -13.02585 6.29491 9.489649 -8.09355 1.337758 0.19589262 4.5907717 -2.6189146 3.5190012 2.1129754 -1.2328773 0.51357126 -14.023147 -1.8641486 4.1688457 2.855577 -2.838472 -4.8703637 -4.2304387 -8.840358 10.1375675 4.9968634 1.5561901 -5.210542 -0.3875078 -9.310234 7.5045185 -1.4092406 8.775929 -0.53692317 1.7927089 -3.7018225 -0.9756854 1.6034168 -1.8269346 -1.083289 9.588589 -1.6493516 3.6288888 -2.6244504 0.05401211 5.717803 -0.2083758 -1.023651 3.628077 5.6840105 -5.840793 -2.211073 8.704696 5.534219 -15.025633 -14.295428 -2.2748098 -6.544614 10.09802
1298362 -8.615693 -8.841977 0.3038754 5.746807 3.252659 1.2587514 0.8286507 9.019815 -5.6105337 -15.409092 -6.033475 9.94963 -3.109919 2.874646 0.2848524 -6.4871535 1.1951549 -2.0396945 -5.410279 -4.0113797 -5.404818 6.6152124 -6.6505466 5.3033237 7.683418 3.8585472 -0.033380684 1.1444883 -0.52732027 -0.8570694 -9.902103 1.502055 -5.4321737 0.83303356 -4.875305 -3.4121995 -0.2497279 13.275931 11.59254 8.0942335 -7.492321 4.3165727 -4.4960876 -0.89290065 -3.9839559 5.3192887 8.241527 0.25539196 4.9935975 -0.16329242 -8.151416 6.204735 4.6722174 5.9794755 6.6146913 -8.211379 -7.47378 4.379392 7.0847692 1.2623817 -1.0798901 -1.94637 6.212429 -2.5913522
1331036 -11.319771 -1.542054 15.502086 -4.759935 -0.2505222 -3.858095 4.3833723 1.8385633 -3.9888196 -9.833121 5.188944 10.853759 -3.5939078 -1.7023729 3.8776054 2.1221926 -2.2120094 0.8194862 2.594626 -5.1024675 -2.0952504 -11.837984 -3.2302399 4.548761 5.9229774 0.12849146 -3.7538135 -4.6185713 -9.574506 12.444501 3.100585 1.7324353 -2.3160484 -1.8884956 -8.686047 10.057332 -4.080256 13.374735 0.32270157 4.7237597 -3.698426 0.34137735 2.2093189 -0.6500092 0.49269098 7.3696423 1.2049475 3.0562904 0.35441914 -0.5582579 4.721362 3.060053 -0.3122633 4.4737277 9.384724 -7.2347417 0.36910626 3.8410187 0.17001538 -17.478651 -11.371448 -4.9526663 -6.553331 9.727393
1323913 -7.998272 -2.379894 18.189798 2.063272 0.94383746 -6.680036 9.606084 1.5029488 -4.8213034 -9.258 3.4286046 9.957494 -2.7012548 5.72081 0.541556 4.787304 4.293635 3.4328704 5.18726 -1.1582942 0.16468827 -11.741646 -3.0640638 1.9844499 1.4702339 -5.7846336 -3.6982803 0.14163533 -8.148121 11.894566 6.9065757 -0.9308824 -3.4306386 -2.5817761 -9.385558 9.781547 -1.1773688 9.549857 3.4330146 2.3886383 -5.653776 0.23884197 3.3437874 -0.79531807 -2.1471179 7.156064 0.87721133 4.5220737 1.8728517 0.33373824 8.564661 7.628007 -0.6341449 3.000679 6.083424 -5.5340123 -2.0014696 10.317098 1.1038995 -11.659012 -12.658136 -2.0853903 -0.7334306 3.7527297
1240123 -2.2764847 1.0885234 9.649648 7.2376866 7.923213 9.089772 12.8637705 1.6611805 -0.70023745 -8.545691 -0.6277102 4.1172485 -6.6644416 8.363766 8.827938 -2.8405986 0.68629754 -8.106577 -6.9562984 -0.15773408 -8.431139 1.9807829 -9.866735 2.2812834 -10.225916 10.156676 -3.4297323 -1.7430578 -5.1978493 2.7314992 -2.097977 1.5093477 -0.9263843 -10.145254 -6.7913485 12.061155 -1.0830358 7.11838 0.46077052 8.122013 0.86190057 -7.5422463 0.30063447 -2.3529618 -5.8729954 7.3674617 2.3568127 0.7873675 -0.30113336 3.2734506 -1.2802033 4.2093706 -3.506221 10.442699 -2.7225232 6.2348714 -4.3105593 5.6473994 -7.8487287 -6.45736 -3.5562017 0.33723578 -3.0405164 -0.2142306
908122 -7.249198 -9.037789 10.474811 7.724515 -6.122984 7.717417 -4.956059 0.95625734 -0.7584418 -2.6973488 9.135814 5.2613935 -4.0697527 8.693481 6.013034 -1.3858145 2.1121051 -3.368578 -7.331484 -3.2895067 3.8161287 8.972247 1.0547246 5.19521 3.8968585 -2.096386 2.3448966 -7.2963037 -10.266372 4.214234 -3.7680755 5.024175 -4.200856 2.2248547 -7.8459244 5.723583 2.416833 16.147459 1.5044073 4.2020917 -3.2532783 -4.5282106 1.2413353 -11.388142 -1.4788768 3.20335 0.32790503 -2.503709 0.62475985 2.0170283 -4.26827 6.6913733 2.1840613 7.444162 7.9476094 -5.752939 -6.707803 8.62676 0.40145308 -3.490483 -9.033902 -2.075298 2.1444716 -1.753645
1295740 -8.237899 0.63093805 17.59094 0.95402044 0.65248436 -3.1895466 8.41925 3.082584 -3.0424807 -10.836242 5.583362 8.549541 -7.5230074 1.4601715 0.08831477 4.4632964 -2.8141634 6.295983 3.744141 -4.755488 -0.39943036 -14.097394 -0.31647292 3.6310732 1.098026 -2.0291083 -3.114376 -1.8325665 -11.113996 10.835455 4.498146 1.1936018 -2.4013078 0.23232426 -6.4675207 8.564896 -4.0286736 11.227692 3.032348 1.8787949 -6.1153984 -3.5388381 0.12339691 -0.9344248 -0.97922593 7.0292225 -4.03752 6.7499566 -2.9825678 1.2388681 6.642436 1.3170644 -0.7193558 0.32943273 7.121571 -4.0405984 -3.050151 6.419893 7.1541615 -12.570445 -14.8750725 2.0005157 -4.828949 6.994483
908156 -6.255541 -0.5718282 18.214762 -1.4744467 0.21056817 -4.476951 7.4469733 1.7957075 -4.431803 -11.035743 0.8226416 11.204917 -9.863967 1.6621633 0.8890905 2.7693794 0.233784 4.0938067 2.919153 -1.7134088 -1.155211 -11.815984 -3.3921509 1.3777678 5.5744505 -5.4283104 -4.519153 -6.2164526 -8.7504015 10.197975 4.67375 0.27303055 -1.5033532 -0.78673637 -7.1847205 10.899414 0.40549526 13.61736 0.031379975 2.6698792 -5.4905167 -0.45596212 -0.0007358003 0.043532923 -1.105249 5.9810405 -1.8428282 5.3297935 0.97423834 -0.6327204 5.477542 3.7481766 -2.6129246 0.20977236 7.0470386 -5.6288624 -2.9702868 8.831859 -0.85577106 -15.879847 -15.9259815 -2.3679433 -7.057695 10.345986
906856 -8.655882 1.3237525 18.23487 -0.14640819 3.9066958 -6.183634 6.040236 5.820562 -4.5103755 -8.120756 3.401195 10.774299 -7.7131705 4.564171 -0.17703822 -0.7193445 1.4410228 5.120681 0.0815416 -2.672296 -1.9993523 -12.404249 -3.7567873 3.487325 6.214874 -3.9568663 -6.4722037 -4.267062 -8.767285 9.538198 8.544509 1.3472061 1.2544452 -2.4149663 -9.794207 9.417144 -2.4873533 13.131531 5.6951714 1.9074905 -4.0745754 -3.0491312 0.9789125 -0.5195775 -0.7518903 5.0529413 -0.8844115 5.1492205 -1.197915 -1.9219449 3.7941782 4.2934594 -2.2428243 -2.8511767 2.9880338 -4.491991 -4.41281 7.433215 -0.72542566 -10.737451 -11.444441 -0.24488302 -6.9392586 8.287007
909750 -4.2681794 -19.14681 8.151353 6.2569504 -2.8116345 1.203643 -7.540755 6.855834 -5.6863127 -5.058696 -1.7693261 1.4319142 -8.845514 0.43239078 -4.8499103 1.363976 1.0386643 -5.6281633 0.18336086 -4.8252735 -1.4044697 6.507139 -2.7436123 10.414978 8.396639 0.12990196 -0.89679277 3.1444025 -8.729284 -0.7349355 2.829535 3.7250345 -5.828094 0.7337108 1.521615 7.4968157 7.8401456 16.98985 1.2047929 6.9414544 -4.191515 -3.995942 -3.067523 -1.2929301 -5.715735 3.1311834 1.0039713 1.5006951 -0.23046319 -7.8203845 -4.5161896 1.7528527 4.6292467 8.259053 10.511413 -4.608106 -4.6130204 4.6646743 1.5114492 4.169589 6.9092255 -1.7161644 -2.727172 -2.760976
906763 -8.084246 2.0838957 16.366987 -3.1444633 -0.55281353 -1.4839722 7.492517 5.7207985 0.16611138 -9.092903 8.941623 6.413581 -9.134932 -0.88395983 0.6990209 1.8097723 -2.3619008 7.297399 0.07991549 -3.3379538 -1.0550334 -9.351009 -1.4327137 5.9049716 3.8219514 -0.85250926 -0.49702007 0.5169284 -11.033107 6.438805 6.710499 1.7194804 -0.74274623 -0.23026676 -9.72403 8.545202 -1.7087071 9.053658 5.9172893 4.214006 -4.228975 -1.2304349 2.2634494 -2.8159275 -1.7993008 9.403573 -0.20740715 1.7550251 -6.3984594 3.1316178 3.6250887 2.560895 -0.6430073 2.7846384 6.26321 -5.360172 -2.9031787 8.7649145 6.6321225 -9.495624 -11.4772835 -2.976394 -8.408171 9.360857
909256 -5.087919 -8.179265 15.82967 7.3135333 -1.5672334 3.4041219 -1.3321173 0.36554763 -1.8061298 -4.8563027 5.2357373 3.6715972 -8.922855 3.0236878 2.4273875 5.009752 9.538377 -1.0382729 -3.142909 -6.900517 -2.606177 0.875692 -0.67095065 2.1283305 6.0970626 -1.788917 -3.9835036 -10.8483 -6.7798676 12.961522 -3.9041326 4.561147 -2.0397599 6.695736 -6.113937 5.3499494 -0.79898995 15.975426 -1.2437506 2.5585647 -1.4014847 -1.224534 -3.2733803 -8.957045 0.22642002 1.9936885 -1.415886 0.64824224 -0.2503223 -2.560926 2.5377045 2.1627328 -0.60424656 5.1427164 7.5238113 -7.2175803 -7.1845264 8.677113 5.929239 -13.3509245 -12.085068 -4.3785768 -0.31293967 3.2217226
908139 -6.314631 -3.2629318 8.241721 6.766761 4.703376 -6.184952 -10.280519 6.8011174 -11.344864 -10.34229 0.52888143 1.6469029 -7.518773 0.76258665 -8.437139 3.4996972 4.202623 -2.4181588 -5.210354 -0.8560921 -1.7707453 2.8007784 -2.0994604 4.876427 1.9304299 1.8203695 -3.8901386 -3.2033043 -0.87790364 -2.310228 -2.8166227 2.168795 -7.0180435 0.5776556 -10.121831 0.4731788 -11.542783 14.791384 1.0159562 -5.3795457 1.9761724 -4.543964 -9.808849 -5.589606 -3.222956 12.986562 6.4993606 2.6119304 -6.6905475 -4.069489 -7.001893 -0.5555023 -10.137272 4.2273116 -0.40383947 0.41543874 -7.138847 4.117169 0.71673024 -1.7005118 2.0427816 -3.1605983 0.12299965 -11.832697
909702 -9.415272 0.3739577 15.832439 -2.7675948 -1.663018 -1.6110913 4.389972 3.7072814 -0.040321156 -5.5789084 7.622221 7.492526 -3.0192351 -0.0032727888 5.8335047 3.6909883 0.7585885 2.9915173 2.5158696 -3.124387 -3.0845468 -8.478734 -1.8233113 3.5308812 0.777156 1.8355305 -2.5207589 -3.5235088 -9.563897 11.168191 7.430069 -2.0588527 -3.0371609 -5.038901 -12.096146 9.531917 -5.1341863 11.391213 1.5112785 5.082499 -2.1451654 -3.202721 3.8604658 -0.8000237 -0.4234862 8.669725 -0.76576185 3.3476052 -3.2056653 -0.5453429 5.297039 1.1010925 1.5104659 5.363765 6.005502 -4.3427744 -0.28670797 7.4664445 6.8451023 -13.651838 -13.405082 -4.4822164 -4.929736 5.6627593
907062 -8.870456 -4.37582 1.5977646 1.700239 2.6594627 2.0845897 6.8224 7.0588317 -5.2574396 -19.065006 -5.965992 6.0278 -3.0328784 2.2564523 1.1058385 -5.0381618 7.165714 -0.40762475 -4.933581 -4.156614 -6.002528 1.5644466 -8.658487 6.309862 11.429946 1.6081278 -4.6330056 0.10018026 -2.4493196 2.754442 -7.775627 0.50319374 -4.133938 3.2786126 -3.8653839 -0.8630899 -1.3949077 8.764674 8.064117 7.5686255 -8.525069 4.4678493 -0.46337897 -4.258517 -2.520274 4.7577724 9.456212 0.457916 -2.1262298 0.74098593 -8.314334 4.088939 7.169131 6.4258595 7.2179413 -9.370994 -5.039829 0.60390276 6.598015 -5.60045 -2.7235522 -5.1305094 5.4207644 2.210122
1240174 1.5112545 -5.468581 7.2414837 4.1327024 5.596294 -0.40880433 11.783466 0.25508147 -3.8334014 -6.947945 0.200343 -1.8798357 3.6932228 -1.6651651 5.839206 0.82122016 -1.1575978 -3.6390617 -5.343787 -9.016196 1.3524425 1.358959 -9.972577 -0.16977842 -4.16901 11.7925625 5.1833725 -4.6074147 -9.834252 6.9490485 -11.349858 -5.305783 1.1793864 -1.2889704 -13.698723 3.9974153 -3.4705515 0.48336142 -5.5294633 7.107483 -1.8241667 -7.5881906 -0.5024313 0.9051673 3.7378368 0.3826636 0.52575403 1.8815328 -7.501081 -1.5497687 -3.2481153 -4.9153805 -6.2747817 2.5139887 -1.2085727 3.0252311 -8.105098 3.634498 -4.1350446 -0.9403364 2.6142788 -8.054736 -16.453684 0.8007505
1331037 -6.5807543 -1.9503602 15.964766 -0.59634805 -0.5076886 -5.231151 2.260328 3.1102257 -1.4026188 -6.58277 3.1058164 12.208703 -9.577399 -0.7383424 2.0802557 4.8529453 -3.0432174 4.76014 -0.053490948 -3.0640552 -2.2149005 -10.218685 -5.006998 2.989593 1.610901 -2.1384442 -6.6019945 -5.323171 -11.021969 10.07272 6.11297 -1.6339189 -1.0855988 -1.7387567 -8.896326 11.086385 -2.9598844 12.001317 -0.5350534 5.2861886 -4.10893 -4.118411 1.0383612 2.507635 -1.0409554 8.161193 -2.7642314 4.4589925 -2.5575647 -0.29543906 5.122471 -2.8136675 1.1481934 2.2170794 6.7670217 -3.6689856 -3.5059316 9.470897 3.8517401 -14.727007 -15.636975 0.7308133 -4.5819874 10.058048
910706 -8.417638 -3.673405 19.068789 2.9209032 -2.5769928 -3.8908243 6.2092204 1.0463732 -3.6291242 -5.7365704 4.331582 12.567272 -9.999424 -1.834468 4.6851096 3.7131891 -0.40920335 4.4222026 1.8702995 -5.4056783 -3.1668143 -8.681233 -5.577574 3.6482058 1.9308084 -1.9232554 -2.7412543 -5.0795665 -10.612682 8.512745 6.9200554 1.0756329 -0.72770077 0.5687494 -6.4172945 8.988219 -2.9946992 14.714052 -0.47701386 4.706388 -4.3001633 -1.466062 0.6467763 2.7185426 -0.20180932 8.907792 -4.595025 4.73358 -0.7493022 -3.0812194 8.024057 -0.6946281 -2.505954 1.2207931 4.1829953 -0.93059945 -5.4155993 10.465124 0.19967112 -14.421835 -12.359993 0.12780672 -4.2801266 6.3904467
907055 -6.420699 0.92152816 13.506948 -0.16172284 2.9604905 -7.726218 -3.1810105 4.1802707 -11.533502 -14.258497 -2.4018507 3.1814625 -7.1579366 -0.67995363 -2.5578191 5.4634366 8.211836 -2.6853535 -1.8921407 -2.1679676 0.7950565 -7.2120094 -4.6461205 2.215527 5.986994 2.564704 -5.57797 -8.212454 -4.3373613 11.310194 2.2185314 0.0403612 -5.1285286 3.0005262 -12.19347 5.2064543 -8.17929 16.621786 -4.7591124 -1.3274125 -0.30364588 -3.1432517 -6.988571 -7.2990675 0.8680234 10.6603 4.5365815 4.270343 -2.8314445 -4.1781907 -3.9757524 -1.3883157 -8.49229 4.3738556 3.8181336 -2.9189084 -4.8419404 1.7319503 -3.7290242 -11.387742 -6.6079035 -8.4669285 -1.2378645 -2.2851758
905984 5.6865187 -7.4806685 6.149591 5.7525735 3.7797117 -3.181495 4.757368 12.243771 -6.9196286 -9.504017 -7.508291 4.900819 -12.827143 -2.6901236 2.6530352 -1.0368363 5.8684616 -1.7459635 5.989458 -1.2749984 -8.335994 -6.658662 3.1762834 7.500071 5.355029 5.350657 -2.8596501 3.552313 -6.864679 10.169075 12.425813 -2.2091386 -6.685262 1.8245734 7.797229 10.590188 3.9920402 5.732828 -5.5668955 2.8687837 -6.8470187 -3.6457376 2.9624772 1.406957 1.1868072 3.1596134 -3.080309 2.5724642 -7.217435 -8.821635 -3.048607 -4.3140135 3.124668 3.636059 10.722905 -0.5667623 -9.181777 2.3339036 3.0652397 -8.934702 -0.33700463 -6.7357607 -0.831108 7.6662426
1297446 -10.70632 1.1017107 14.617839 -1.1599462 -3.2129521 -0.40673676 8.082911 3.7556295 -0.6000351 -6.054646 12.152692 7.3730783 -2.6372676 3.4058168 7.358186 3.5667338 -3.069152 2.9682872 1.2066789 -6.8336816 -1.0267837 -8.286684 -4.4146013 6.6356044 1.3919214 3.0050457 -1.4724785 -2.4606743 -7.781959 9.478941 2.3737698 0.9893713 -2.4544563 -3.9588497 -6.057779 8.988186 -8.2906885 8.683576 5.0635448 1.7481395 -2.2236445 -5.275517 -0.37541005 -0.27969378 5.022013 8.204707 1.8779604 3.3117645 -5.8091197 0.94414276 5.8971314 0.10151399 -0.020658186 5.7145705 7.8172183 -0.64286417 -2.2576163 2.913419 1.6874315 -14.476411 -9.47024 -1.5796195 -2.2655098 6.1717544
753548 -4.1149316 -0.016252639 15.111991 2.3823 4.1992 -5.820854 9.081885 4.9606137 -0.54768604 -8.256613 4.173518 7.960588 -9.275202 5.6408715 5.4849815 2.8589864 0.663589 4.9459934 0.80131125 -2.4746442 -1.768151 -4.915487 -1.4419262 -0.34296423 -0.6517142 -1.7450523 -0.07995913 -3.505832 -11.28083 6.089445 4.441308 -3.2111454 -0.7091711 -3.5245407 -10.608456 11.062532 -0.5812957 11.409616 0.9651694 6.740755 -3.347551 -6.4400268 -0.5087251 1.429178 -0.7447872 6.157771 -2.9971945 5.3881307 -3.1241324 0.6857095 7.205341 2.4495404 -3.7426314 3.050099 3.5609179 -3.8532727 -4.972542 8.974941 -1.0399083 -11.571942 -13.681297 -2.576411 -8.789305 6.8347697
909715 -6.4142365 -3.904455 18.731928 8.278924 -4.6421003 -5.25057 10.220716 0.04410308 -2.9634945 -7.6568966 3.9511578 12.416805 -3.8560357 6.766725 1.879141 5.10257 2.2626386 5.7042947 4.350233 -2.7338767 0.6416443 -9.710528 -2.5029042 0.13828717 1.2827508 -1.0331477 -3.751981 -6.57798 -7.942193 9.350542 3.0875146 -4.429649 -4.1244473 -3.2022736 -6.4880013 9.50875 -4.7709117 10.994805 -0.8163084 2.9966269 -5.415852 -1.5771877 -1.2478341 4.376002 -1.1906021 8.257186 -4.3423257 7.4536543 1.418343 -2.2893198 9.175399 1.3262208 -0.3554263 2.3299334 8.428466 -3.97769 -2.7477326 8.196998 4.0325794 -12.903694 -14.271334 2.13498 2.4782395 3.3393006
908443 -9.653361 -12.495284 11.872888 7.172168 1.4990838 3.701875 -2.5127914 2.98989 -1.9290103 -8.339142 3.9011238 8.863093 0.28789493 8.987667 -0.10057645 3.2971172 -6.607186 -1.6447939 -2.2156355 -7.088865 -1.1078789 1.1778516 3.0008123 5.739884 3.6186128 -0.69124496 -3.6072469 1.461939 -12.563333 8.203918 -1.0281136 1.7296447 2.795152 1.2131737 -9.952872 -1.0137208 -1.7798235 12.781004 5.3836875 5.845461 -5.080426 0.09453687 -1.4327933 -2.1823046 -0.32691073 5.704912 -0.5043715 0.41334122 0.45808098 -0.33606538 3.690441 5.0654235 -0.33179292 4.5329337 7.4184856 -6.3941107 -5.355755 5.90614 8.558716 -0.53355354 -5.7859807 1.7126204 -8.494325 -4.64735
909698 -2.0620115 -0.22541915 13.06316 3.311865 5.6761956 3.210082 14.496421 0.8063153 -7.79346 -8.31022 0.8008954 3.6418953 -9.670829 4.8971205 4.1920123 3.5492454 3.492035 -4.917673 -3.6365042 -4.885873 -9.275562 -4.0476384 -6.4456553 0.9331724 -4.00163 8.964458 -2.542927 -0.5701839 -5.8440003 11.385399 -7.1005497 0.8778068 -1.2446425 -8.470404 -5.277737 15.52944 -0.2574433 7.412935 -0.0860087 4.102772 -2.0557425 -3.6183016 -4.299283 -0.26750267 -8.646878 5.010825 2.5569954 5.4727325 -1.0437827 -1.1936213 3.4853663 3.0342784 -4.9926133 1.7816783 1.6647457 -0.67986256 -6.17172 3.364993 -3.7637653 -8.48546 -4.76116 3.4198842 -5.2373996 -0.008763454
1240204 -3.9124463 -2.1641357 3.769971 2.817465 3.489671 3.7588625 3.0449877 10.941961 -4.8855085 -16.418066 -7.0030394 11.829369 -8.971493 5.661023 1.2990663 -2.8350227 0.7717947 -2.4572122 -6.271643 -3.4264097 -6.3569627 3.110346 -3.687742 3.4609194 7.299016 3.0476148 -0.7027494 2.204249 -5.1059074 7.5819006 -6.6026998 2.3603363 -8.338811 2.763221 -3.4435024 -0.3396255 -2.2465255 10.151521 5.531273 5.0978494 -8.803934 3.246833 -1.4434247 -3.8400476 2.7505448 1.8439888 9.167801 1.6058972 -0.43942592 1.0439957 -11.21713 3.6614587 3.0895422 2.0404088 7.4610434 -12.276118 -6.9693785 3.26709 7.2195997 -4.133833 -3.5715113 -3.4404566 0.99742955 2.6171806
908442 -3.0278597 -5.736668 9.802051 5.348864 6.8885574 7.271802 1.5755663 -4.5767345 -4.811783 -13.409213 1.5828519 -0.45203713 -5.664532 6.618301 -5.1049175 2.5225918 3.5795653 -8.549174 -4.0954375 -1.1273131 -5.7451935 3.5647573 -6.96019 8.061582 1.2048444 0.055957686 -4.122038 1.9102007 -8.63458 -0.71937805 -6.9843664 6.1212354 -3.5598373 -6.0523777 -1.5858778 4.684878 5.1941643 10.570068 6.384807 3.1552134 -0.71800214 -4.0232224 -4.328729 -5.983168 -13.100651 6.8203335 9.692087 1.0994067 -1.1030593 -2.3026862 -0.6824579 5.4347544 4.226892 12.791385 -2.0034297 -3.8001497 -5.432027 10.320983 -0.6658928 0.22115292 1.2512003 6.459007 -2.2546089 -5.266832
1330947 -5.359068 0.5296616 19.695467 3.4630425 -0.3887314 -7.180435 11.504172 2.5161824 -1.2764778 -9.847395 2.0338829 10.519428 -5.66694 4.706434 1.0070244 4.0578933 1.3572888 7.0873127 1.2045739 0.32978004 -0.6343233 -8.329942 -1.5999936 2.1532702 3.0370483 -3.9880185 -4.5356216 -3.5371141 -11.591451 8.48867 7.823615 -1.29681 -1.1535944 -0.89618844 -6.007904 9.47333 0.19003755 10.338758 2.0290084 2.0358708 -4.5733395 -3.0186594 1.8082533 0.37481105 -1.2422963 6.4120216 -2.2292821 5.7839913 -2.164311 1.4669716 7.5512996 3.391079 0.23630059 -0.33684087 6.3354297 -5.0354505 -4.3578 11.131041 3.4327505 -12.125628 -16.725494 1.2335829 -5.4414577 7.1724825
1331034 -8.036327 1.0887338 16.379951 1.9315434 2.3586235 -4.9196463 4.0763555 2.7094386 -2.680548 -9.159627 3.6914473 12.831575 -7.9019504 -0.48425815 1.1524345 3.6300814 -3.3972058 3.7819138 1.2163497 -3.7390523 -0.894461 -12.035006 -1.767259 2.029154 4.9660964 -2.4894266 -6.18875 -6.556746 -7.7855363 11.294633 4.468885 0.8821264 -0.7199063 -1.448586 -7.7407346 8.0088 -4.0961742 13.234087 2.613393 6.33614 -3.796784 -2.6964827 1.3625152 0.60709643 -1.4431686 6.577081 -0.73353136 6.510974 -0.07943469 0.63430184 5.5264654 -1.7945834 -1.7172263 2.032981 4.4281716 -3.7919893 -4.919519 9.299111 0.6326622 -15.060772 -14.981058 -0.55124706 -4.493583 9.043364
949154 -3.7397678 -12.109668 0.356967 9.502364 -0.49777296 11.325475 -0.5636449 -4.7289424 -9.270994 -6.1860614 -3.5456934 -0.24986944 -0.49215293 0.589277 9.179145 -7.8571744 0.5811428 -5.8749423 -0.7416271 -6.542558 2.1991425 2.0148816 -9.110526 11.40602 4.6019 1.0358429 3.4587975 1.0549586 -7.942464 2.6604497 -3.6033864 -5.223628 -5.60052 3.183271 -11.5003605 -2.9908545 -1.6940274 14.588127 -3.2723017 3.1434872 -13.447987 -11.055811 4.088619 -1.009446 -2.8161387 -2.272589 6.338716 -3.7166743 1.5346062 1.9571474 -10.638465 4.089976 5.962426 6.903521 4.3168473 -0.7372316 -5.7711616 7.492959 1.9764515 0.80928636 -1.3353286 -5.353731 -6.731519 -1.3968662
908450 4.933169 -10.831935 3.543578 5.2448177 3.5745642 -3.5945923 -0.7140631 11.075863 -6.210104 -6.378507 -4.2693586 -0.018679991 -7.695925 0.072892204 3.6225421 -0.55345136 0.3552004 -5.6773806 0.8399281 -1.4257073 -2.8141987 -0.20841283 1.5497288 8.651466 5.422739 6.484882 -5.5318747 6.3516383 -2.9280155 1.0671148 14.045529 -8.407182 -3.3435245 0.80247164 3.7821243 13.140521 3.658726 -2.9458008 -5.9638042 2.1922455 -5.405808 -3.0636132 0.50512886 3.3629265 -7.3899965 4.6200833 -3.2030628 2.3374832 -9.38196 -10.056962 -3.6517637 -8.366046 3.1964228 5.267723 10.698884 2.4177377 -7.737659 3.6677723 3.5320487 -0.53525084 6.356497 -4.7949023 2.8429863 11.379125
907048 -6.4389043 -12.55641 13.59904 7.2273765 -1.346634 5.3487945 -6.0657873 2.0169282 -1.4408208 -7.322221 6.5054154 6.0368104 -6.822444 8.570309 3.2911353 -1.0064058 -1.6828653 -1.5075979 0.3793726 -7.0009 -3.109677 10.939678 -0.8738231 6.422848 4.9035506 -3.3391845 1.4406577 -0.042895515 -11.768424 6.1503825 -3.6560338 6.066502 -1.068484 9.307555 -3.3496566 1.4093243 -0.6361278 11.851375 -1.632307 2.5307355 -3.9785078 -0.8847456 -2.9346268 -7.0431476 3.8535564 3.183027 -1.0013925 -0.89476126 -2.5641773 -1.0649176 2.120966 1.7494918 -0.60048425 4.3256917 9.9163475 -8.052396 -9.911788 4.4816294 1.1857914 -3.4232862 -2.9191942 -3.0542488 -0.82692385 -6.446776
753595 -8.788047 -8.034916 16.221573 7.3311224 -1.9338833 6.8284416 4.1422796 -0.27012393 -4.889766 -9.334069 4.419476 7.3782706 -8.58237 3.577574 -4.7943325 3.496795 -0.016228879 3.2551007 1.6871483 -5.357859 0.63070357 -5.116512 -3.7724433 9.633836 7.557623 3.0845501 -3.110935 3.757598 -9.936951 4.3764772 -5.0099883 3.2840595 -0.46682152 2.0902784 -4.5347223 7.3243732 -3.1342309 11.406746 7.7250137 3.6180282 -6.633842 -0.9547793 -2.1106005 -3.3272822 -6.514955 6.627426 -0.28053674 -0.35925102 -2.1009662 -0.019088194 1.8599384 1.5613738 1.4188972 4.241014 8.06014 -4.6945796 -3.7324283 6.698769 8.923594 -3.1601274 -4.6898355 5.0653424 -8.489892 4.4016843
905952 -7.7147408 1.496378 14.704603 -4.337514 0.67664 -5.4995394 3.696946 4.9133205 -3.4830215 -7.7563925 4.3674436 7.5517125 -8.313608 -0.91152227 5.1935515 3.7540126 -0.6435488 2.580037 3.3278334 -2.0766203 -2.2339265 -10.10549 -4.4920216 4.984088 5.5018888 0.21281917 -2.3401499 -4.6741037 -8.723971 10.457462 6.682286 -0.05637374 -1.0045862 -4.4088774 -10.732742 8.23104 -1.327154 10.206355 2.2802222 6.9817305 -1.3161422 -0.1656286 0.6175541 -1.6829433 0.37082297 7.9569707 3.0745857 0.96822697 -2.4426997 -2.3768907 5.0057597 2.075025 -1.2341101 5.4256644 5.9718337 -5.6178803 -0.7539002 7.105458 1.0088345 -12.450278 -10.930339 -3.7936056 -7.0501738 9.929549
906824 -4.1612797 -4.3409553 7.004474 7.21095 0.18329896 5.615472 4.6940923 -4.4998465 -8.290586 -9.202451 -6.1119823 3.0629568 3.408077 -0.5309806 12.417582 -2.1696637 0.018820144 0.82941574 2.9762814 -3.5767343 4.3785415 -5.684634 -10.6062155 10.568663 10.024319 5.1374917 -2.9401395 -3.6844358 -6.2992983 6.710207 1.3616248 -6.466115 -6.780193 1.4288334 -14.988349 -2.2808359 -2.5768483 14.262781 -1.7268704 5.4014416 -8.676666 -11.180163 4.4394264 0.60350287 4.142686 -3.2817056 4.4638515 2.4026115 1.9674777 0.6302652 -5.5468793 2.744124 8.053426 5.848677 6.9118047 -0.110996 -1.5052462 10.710892 2.5955913 -6.445597 -5.4519854 -4.6772366 -8.527298 6.3511033
908134 -11.60214 -7.5114164 14.948853 3.8666518 -2.8881154 2.623638 1.3000304 1.694581 -9.735985 -5.764424 2.7539818 7.7094665 -8.530623 8.947762 2.9058948 -0.41094452 -0.14101644 -4.374827 -2.5988324 -6.203796 -0.9117317 -4.8666925 -1.9385589 3.0290632 3.0208297 -4.6581964 -2.3306177 2.860353 -13.328455 5.184362 1.2962275 -0.23623678 -0.7751944 3.4875913 -9.195888 4.869831 -2.2222023 20.516045 3.0954616 3.056083 -5.5827947 4.374113 3.3502352 -2.55789 4.5514145 -0.8409453 -4.2151556 -6.9465756 2.8615506 -4.884626 1.5240993 11.453587 -5.3428774 -0.45486802 7.6262193 -4.2209606 -2.9004521 9.794082 5.1656737 -9.45812 -4.416758 -3.956677 -7.534433 1.6489066
724839 -1.0932088 -9.303437 3.2712553 6.303203 3.3213246 9.758367 0.37388995 -5.0594025 -10.354389 -6.0701375 -7.5053535 4.1817656 3.428191 -1.2949357 8.534226 -3.9855163 -4.4756794 -3.421631 -0.061844785 -6.2300787 5.6641264 -1.9084423 -13.221105 9.522881 10.876209 4.3744345 1.8870552 1.3315283 -1.632022 7.6975646 -2.8146827 -5.802964 -6.277785 1.7351868 -16.711487 -1.2522494 -2.0510573 7.9015565 2.5631225 0.91465014 -9.113872 -9.297349 2.7629225 -0.80672 -0.45567983 -1.8124175 9.90192 2.6299605 1.7441026 1.0757247 -11.86862 3.8072155 4.405887 3.5863268 5.2584405 -0.45923722 -7.1820736 11.852076 0.7196324 2.1075447 0.3540787 -5.2915425 -8.683876 5.2396092
1240189 -6.2091846 2.167226 10.8486185 3.5503213 7.731047 -2.7017665 1.817134 10.272446 4.082628 -1.6696004 2.983837 6.93626 2.4520168 6.3092027 -1.9180874 0.13036674 0.8217093 -1.2215779 -0.49013585 -7.2792277 -3.4642954 -7.436455 -1.588874 4.5685406 -1.8161933 -2.54509 -4.5457373 -3.444464 -13.3485365 15.230557 9.039802 0.014656103 -1.260424 0.2743574 -5.0376577 5.0151486 -2.6605217 14.632217 3.226305 8.7185135 -1.0938691 -8.023853 -3.3721683 2.167634 3.432555 4.915743 -1.6911688 7.3343577 0.4691689 -0.26863286 2.673962 4.083366 2.3034296 4.3634586 5.1361904 -0.62834626 -6.4664316 2.3169248 3.1127625 -4.148422 -4.2397323 -1.2289177 0.87093073 1.5037345
908158 -7.870294 1.0329957 17.327951 -0.21835111 -1.3207034 -3.5620701 5.2282796 -1.1195658 -2.28392 -7.7418027 2.7165232 10.865481 -7.1443315 3.847986 3.238185 6.1396456 3.7470431 2.9160855 4.3263917 -3.5825431 -0.11809401 -11.463606 -1.8961564 -0.92397386 2.6791794 -2.157053 -2.7901032 -6.18043 -10.943209 8.954841 3.0199742 -1.9445463 -2.4698672 -3.492015 -7.717745 10.079614 -3.317375 13.364801 -0.24980521 2.2720325 -5.562267 -3.4932683 -3.8103187 1.3857217 -0.32462037 8.131583 -3.2290714 4.803088 -0.015007791 -1.86031 8.604533 1.7628415 -1.574458 2.79865 6.0812 -5.1283355 -0.4780766 7.431707 1.8846556 -16.735939 -14.497649 -2.0280755 -5.3245277 7.145636
909252 -11.887827 0.43359423 15.420679 0.009424839 -0.37383622 -5.2856236 5.010221 2.5064018 -2.462716 -8.641367 3.7391803 10.339059 -4.607638 4.113054 5.149993 3.2848358 0.038388688 2.831505 0.49439844 -3.7391798 -1.5238031 -7.9008455 -2.5478616 1.8438815 4.507567 1.237553 -3.7227168 -5.9130893 -10.785215 6.943281 7.693839 -1.3467629 -1.3218874 -4.307469 -11.34648 7.5689254 -5.2510705 14.470601 2.021369 4.2522717 -1.4954853 -1.191016 -0.3034063 1.4389287 1.3336303 6.249553 -0.23719025 4.9478016 -0.5276335 -3.4688663 5.115629 4.806185 -1.7227175 2.3287928 5.2813897 -5.073946 1.1863892 6.8778567 1.757752 -14.525973 -11.308245 -2.8767202 -9.585116 7.572298
910710 -11.1031475 1.3041798 13.782674 -3.243714 4.8218822 -7.293845 5.6972413 10.848584 -2.9098432 -9.315859 4.373047 5.362819 -9.381577 -0.48371658 -0.059157018 -1.235859 -2.0659997 4.5536537 -0.20751598 -1.8986431 -5.4851704 -10.587782 -3.0071797 7.9946756 4.577869 -4.4909816 -5.658738 -2.178753 -9.852007 7.7995644 8.640277 0.6205384 -1.2433949 -1.2956855 -9.160158 10.18216 0.2807558 13.550366 3.866161 2.6097925 -1.6495006 -0.4454241 1.7432952 0.5905396 -1.597333 5.626655 1.8803599 1.8207088 -3.2752352 0.30022326 1.5289272 5.06551 -1.5057472 -1.9789386 6.305418 -4.274046 -2.8587499 7.9685674 3.2714298 -12.145432 -11.7720585 -1.0120043 -9.378838 8.639948
908148 -2.52686 0.046026975 15.383295 5.3300457 2.8332949 -6.968125 10.286317 3.655852 -2.3816164 -12.573444 -1.7262448 12.831623 -4.9416933 6.6612287 -1.8864429 5.7484856 -3.1915584 2.9538677 3.404696 -0.95173186 1.3395977 -9.279182 -0.19009778 2.3391285 -0.40118566 -1.7682276 -0.30033383 -2.5219045 -14.634673 14.033485 6.281515 3.5885582 -4.9069467 0.103423305 -4.6960983 3.9871597 -1.6389974 10.326095 0.20088671 4.308445 -4.291854 -3.4328897 0.71806216 0.07996159 2.9782403 4.966339 -0.594653 7.336908 2.3148036 0.33801115 8.054183 5.7494526 0.25980777 2.293936 5.680493 -4.3540387 -8.031362 5.799828 -0.72963494 -7.8997755 -14.306977 1.764275 -5.6257286 2.5497432
907277 -8.824253 0.6909545 17.251919 -5.1878552 -1.050756 -3.35257 6.143117 2.6988776 -1.6372318 -8.611955 5.6449604 9.973054 -5.7752786 -0.067045495 3.141411 4.134915 -1.1393743 3.0271938 3.5549603 -3.5143347 -1.7556658 -11.511092 -2.890419 1.1454135 3.377621 -1.0438819 -1.9032193 -4.71383 -9.553408 11.696783 4.024032 -0.1239208 -4.4733872 -3.5683675 -9.189156 10.005136 -1.3761736 10.976448 2.4561312 4.217225 -2.9030433 -0.995748 2.3366065 0.29658723 0.27547824 10.217472 -1.2413266 5.1253033 -0.64791596 -0.8678203 4.338308 1.027774 0.28906283 3.3286808 7.205053 -7.3905263 0.92214113 7.977805 3.8741405 -14.1940775 -12.319238 -4.1412587 -5.0914054 9.679299
909718 -4.897944 -4.9214225 13.095165 6.8471723 4.4762235 7.0043836 5.401886 -0.77159655 -6.0044384 -10.274237 -0.18756303 2.6841595 -5.53639 7.2326446 -1.0996386 1.438491 3.0212607 -8.292969 -0.92325056 0.26520568 -5.0213203 -0.5975352 -8.517718 8.29586 -0.6604093 3.3198125 -4.953563 4.0256844 -5.3519588 2.7224154 -4.9904833 5.1340914 -8.447955 -8.911962 -2.9022174 11.781419 4.0849676 15.56848 4.040333 1.964318 1.6398718 -3.4203367 -1.3535372 -4.6298485 -11.734168 3.4643042 6.4636025 3.177962 3.5620646 -1.1307987 -3.6233742 11.996639 0.044041686 9.580614 2.5174417 -3.050154 -5.374233 10.485252 -3.7859175 -3.9074273 1.7686812 4.19834 -1.2716821 -4.1038413
1330950 -8.753601 1.9274983 18.118229 2.0170288 -2.9705248 -0.9966855 6.248322 0.6637125 -2.333114 -5.920785 7.9154806 7.6201487 -1.4396775 3.0335662 7.1284385 4.351382 -0.21793516 3.6754484 3.6882343 -3.6990502 -2.053008 -11.506737 -1.3777603 4.4113903 4.8139515 -0.9064486 -6.025425 -3.7772877 -10.06812 12.549907 3.3702526 -2.2881994 -1.6802088 -1.7912724 -5.5693974 8.7399025 -5.1719394 12.909827 -0.41971302 1.6156517 -3.5899606 -1.2777101 0.99988186 0.69390243 -0.96232927 5.637054 -1.9774748 7.3398585 -2.8509085 -1.1930997 7.587883 2.3535585 0.71674514 -0.052269068 9.057821 -5.3280144 -1.9352773 7.062826 7.543763 -14.237506 -14.128165 1.5590305 -2.1919224 4.602926
908448 -6.4538093 -0.48306337 16.867071 1.6279804 0.15170111 -10.228379 9.52289 3.2333362 -2.5568383 -11.135252 1.7447125 9.383534 -4.470916 4.160961 0.96840155 5.107229 0.49897528 6.7508745 3.420688 -0.41485932 2.0656965 -9.319419 -1.8820332 0.91469634 4.7129703 -4.264161 -1.5919925 -4.5003614 -11.092971 8.8918085 6.6432314 -3.2710454 -2.1383426 -1.8189095 -7.7476163 9.5049305 -0.07367916 11.123348 2.5242088 2.9202619 -4.012926 -0.64393806 -0.1484909 2.3909283 -0.11013741 6.728481 -0.9611351 7.0290403 3.5321064 0.57371575 7.512772 6.3012075 -0.063449785 0.2767339 7.946609 -6.0437884 -1.8064688 10.002177 -0.027967561 -11.855258 -15.4120245 -1.4691724 -5.641501 7.4675756
1247871 -7.477462 2.054102 15.332177 -0.30763558 -0.35107788 -5.4795723 6.120691 4.106804 -0.17553014 -6.60478 4.3569107 7.717822 -5.1008925 1.0476522 0.8658903 5.0313196 1.6352879 4.254076 0.4308525 -3.46158 -1.6707256 -13.185735 -1.4659687 2.284902 2.4005175 -2.189202 -4.778878 -6.8098073 -10.133154 11.941512 3.6661592 -3.272158 -3.5462558 -1.9226528 -7.0773587 9.17593 -4.034434 10.835074 2.0342445 0.92752516 -3.530337 -4.3288136 -1.0547478 1.1503278 0.12688279 8.858507 -0.63200605 5.4898376 -2.998919 0.56150454 3.992287 3.6014385 1.3054472 1.8095343 9.291761 -6.034124 -0.94160783 7.2178073 7.5779824 -12.540383 -14.650004 -1.7316495 -6.296604 9.070068
949090 -10.405924 -13.938359 9.210551 4.416972 -0.08275217 8.740726 -4.8215194 -0.15050192 -2.8902528 -7.048392 8.024086 3.3529253 -2.2621264 2.6020634 -2.5954723 0.14269204 -3.8326104 -4.6813354 -1.3040185 -8.863722 -1.9649234 6.0192885 -3.9761753 8.706966 5.275785 -3.0596077 1.8328848 4.826953 -7.3633666 5.7456326 -10.888789 5.3293567 0.15613219 6.3687987 -3.9391866 2.7362258 1.7082704 10.837316 7.1641045 4.4163527 -3.7327898 0.5504096 -2.3937395 -5.001854 -0.8183274 6.292109 4.3934045 -3.8710918 -2.5034544 0.53808624 -1.5642111 1.8725485 1.2217182 7.2027183 7.822849 -4.976592 -8.615139 7.815491 4.8571935 2.7074583 1.7313933 -1.308876 -3.4122803 -4.31646
910687 -10.39399 -5.948133 15.401505 -0.89863557 3.419069 1.740277 0.17562227 1.3542445 -2.3403482 -11.835057 5.298018 7.9430094 -7.3022203 2.026287 2.4500556 2.5235887 -5.4359746 1.6758426 0.36553368 -3.2847657 -3.295518 -6.6610856 -1.3602564 8.956441 5.093554 -3.167245 -3.065707 -2.4934447 -9.930643 9.372787 3.2136521 2.5574727 -1.5923756 -1.6081009 -9.136231 3.5847514 -0.16556114 10.710187 6.8226447 3.926005 -1.2773623 2.872305 -0.91723424 -0.28319103 -3.258271 7.816348 3.0449393 1.2394361 1.8816661 -0.7992346 3.449029 4.0549293 0.46433255 5.647465 5.065195 -6.4310102 -5.272582 11.953463 4.3732476 -9.110108 -12.512947 1.3553109 -10.853522 6.4662476
1322224 -8.109403 2.7813075 11.5104475 2.5711539 4.3677096 -7.3132153 -4.138602 11.058086 -7.7157993 -13.301578 0.03710379 6.124809 -9.261116 1.3587965 -6.402411 3.7584512 3.9364665 -1.8946482 -4.674365 -0.39988497 -3.0483272 -1.5778816 -1.6762879 5.302382 3.5070639 -1.926058 -6.4932413 -5.3446684 -3.753305 6.0895658 7.0338154 1.6280384 -8.441618 3.3565 -12.320383 2.8660975 -9.766223 15.193364 -0.7548228 -5.591801 2.346176 -5.100479 -5.474256 -2.7497764 2.8441215 10.24803 7.714614 5.854401 -5.6842737 -4.5066667 -6.6285825 2.1184118 -7.2371383 1.350152 0.65365946 -0.430871 -5.748325 7.4132624 0.22037117 -6.8968287 -3.8129263 -6.4321465 -6.9929175 -2.8931613
1240161 -6.3617463 -3.5073986 1.5439115 2.1868172 5.3926597 -0.21031123 9.933479 9.871888 -6.491246 -19.97035 -7.079636 12.751461 -1.6021982 6.120871 4.59286 0.86044323 2.2303836 -3.147341 -0.8019888 -0.11078386 -2.5160742 -2.3754473 -4.7947745 -0.18802175 8.086089 1.1895539 -4.9326663 -1.688857 0.248986 9.798077 -11.336678 -2.6061945 -6.4354715 1.2458898 -5.777621 0.51634103 -1.1165669 4.553388 4.9950924 8.057045 -9.222057 5.720431 -1.166123 -2.3657682 -0.8274538 8.103053 9.018175 1.0898578 3.275259 -0.044875935 -3.6694343 4.227471 2.2365067 6.090376 8.20186 -9.079089 -7.3780594 3.88684 4.606801 -4.8868947 -6.7841706 -4.265891 6.5296755 2.1361198
1298222 -7.428547 -8.942597 18.873562 3.086769 -2.1747792 5.012946 -0.5066428 -3.2226222 -7.204852 -11.599045 6.281881 4.494926 -2.6595252 5.6047316 -1.8673569 3.0733864 -0.10137861 -5.068983 1.6784418 -7.415461 2.3244352 -1.2623267 -1.9730775 3.2957687 9.792097 0.7275459 0.7959065 -0.0245782 -6.185296 7.2685666 -5.3028307 4.942676 0.818122 3.1526604 -4.66737 0.96578336 2.6345093 15.523881 5.695027 6.2330713 -6.2972717 -1.1784828 -6.5577726 -5.6011696 -1.1225154 6.9234114 -0.39712334 -1.2945668 0.71111786 -6.9726357 5.54934 -1.8791481 -1.0956668 9.305052 5.0356755 -4.2045703 -6.1572256 7.8523836 3.9366014 -0.90166473 -0.0012071911 -0.6329869 1.8025576 -3.193372
1298167 -5.907733 -7.739622 11.5100355 3.096758 4.781871 -0.4345346 4.672908 1.9228609 -5.6943293 -4.652033 3.6504142 10.962849 -0.9843857 7.0937247 -4.223053 2.5674932 -2.5090683 -7.523652 2.1457908 -9.410671 -0.3283954 -1.8083649 1.4204803 1.2264184 8.027317 -7.120372 -2.7312183 -0.9423332 -5.663591 16.556944 -4.8946486 3.3004289 3.3653815 -1.4114494 -4.9815392 4.823484 2.5364687 12.3264 6.679664 5.203118 -5.887169 -3.3663888 3.0599353 0.48151517 -6.309331 9.3743925 8.3262 10.16774 1.9206592 -0.34996176 -0.26678988 2.455679 -3.2906182 2.358146 6.0131063 -7.76292 -3.5353723 0.7321748 -4.626937 2.328827 -3.2398393 -0.7584986 -0.3347509 -4.2460203
1330982 -8.800282 -0.9037174 15.984268 -0.07220235 0.8881733 -6.282684 2.0683525 3.7278943 -1.899699 -7.0560837 4.130711 12.456269 -7.400112 1.869705 4.2729635 5.147963 -2.8232028 4.960562 2.2933996 -2.1569264 -1.432323 -10.154368 -3.9583225 3.4530172 2.3767264 -1.622871 -5.0840163 -4.8271203 -10.511591 9.615614 6.7933683 -1.2511129 -3.9899976 -2.2765667 -9.257623 9.986067 -4.894782 10.584505 -1.5539125 2.9444396 -2.8198419 -1.3649479 -1.3866662 1.5438225 0.31016958 8.217652 -1.4823406 3.1020267 -1.0595602 -0.4854519 6.610091 0.27947515 0.55352485 2.7137005 7.8077497 -6.515761 -1.1833383 8.521114 2.287517 -14.895681 -11.71668 1.185182 -6.172394 10.507235
908145 -3.0646477 -11.903645 6.5680923 1.9280204 4.2582154 -7.4660935 -0.6314747 9.766997 -10.2564 -8.386462 -3.4086235 -0.6461575 -11.313067 -1.9824893 -0.40543652 -1.1081673 5.4391246 -8.269424 5.292336 -3.7883527 -9.012583 -3.7287867 4.914388 8.24944 7.341367 0.4486936 -5.739441 4.077954 -4.3067994 3.7581189 10.804348 -2.6134243 -4.8398886 1.3639089 2.813929 12.511868 6.601235 11.186226 -3.882155 4.561545 -5.152701 -4.4266553 1.4433657 0.81303376 -2.3632298 3.3844073 2.5010097 -2.5900745 -7.8813906 -12.319524 1.7255223 -2.3672922 4.8886805 8.448483 10.649816 -1.0575987 -2.389357 5.128418 -1.6930313 -5.8674774 4.0678773 -7.1299405 -4.4541135 7.756371
753535 -4.3994365 1.8936473 0.88227254 4.098075 1.1690285 2.102893 8.015214 9.192405 -4.527013 -16.651102 -9.078503 10.566599 -2.243308 3.6985462 1.5944326 -2.2716076 4.3920045 -2.367487 -4.7628584 -3.8016798 -6.292472 -2.0236986 -2.7960482 0.8495422 7.284047 5.298444 -2.0599108 -1.4389923 -2.0411258 9.489246 -8.215528 -1.1549653 -7.520712 -0.0057789534 -1.8664131 -1.8779272 -4.5776324 8.140466 7.3520555 5.461567 -9.281281 1.2137 -0.050553806 -1.4673688 -0.34524676 6.481038 7.671263 6.3786845 -0.96329224 1.3342978 -9.074155 5.8289084 4.3262386 3.9246519 7.2515793 -11.324174 -5.0478683 -2.4310508 9.409299 -4.9949517 -4.675378 -3.4478498 7.5150204 -0.6039117
749709 -5.8019576 -9.761154 9.75081 7.3271594 -2.9564734 5.623686 -4.713536 4.478078 -0.33379936 -5.114635 4.257364 3.9609075 -5.690005 4.9166408 3.971659 -2.3610258 3.9333704 -5.687661 -3.6374476 -3.8462026 -2.055849 11.115551 -1.0002276 2.2311985 1.524236 0.7673841 5.6526694 -5.897404 -12.912731 8.794187 -7.1283407 7.463419 -6.439028 5.189306 -3.7476542 2.9580812 0.05933149 13.779306 -1.5634991 4.5091143 -5.545588 -2.5994856 3.3203487 -13.346059 2.926962 -0.17539656 -2.028546 -3.5015218 -0.18390542 4.8030505 -4.764574 3.8557491 0.11078843 2.5903695 6.622498 -10.563914 -5.0398736 1.2268616 1.7310181 -0.6156425 -6.2603045 -4.3708386 0.9827607 -6.9195623
907789 -8.238102 -1.2962804 14.393547 -1.2619553 -2.8024838 -0.16162163 4.792167 3.2958431 0.10687777 -7.0141153 10.185632 9.220172 -3.2616987 0.01823731 3.1537113 4.73281 -0.48351142 2.077563 -0.48472747 -5.23879 -0.7551309 -10.263981 0.7632194 5.514935 1.6855088 -0.56588423 -3.045506 -4.2219505 -10.535134 11.981357 3.7498713 0.32819128 -5.6652117 -3.4854062 -6.9429293 7.8721113 -3.952957 12.06232 0.32057178 3.3988364 -2.0638788 -1.5110022 2.1983442 0.2578586 0.8556104 9.106004 -0.638936 3.851216 -1.023066 0.44959867 4.4284296 2.078897 0.08549235 5.037601 6.069915 -6.315777 0.5033104 6.7219424 7.637535 -16.477438 -12.30733 -3.403886 -4.3640256 7.0939703
687819 -7.7686963 -8.63948 15.150311 5.507083 1.2227634 2.3226557 -1.2695899 1.3255761 -3.4931128 -7.13036 2.3259833 3.5961092 -3.3500285 3.9410088 -8.14337 1.8713032 -0.8186163 -4.9587193 -4.953433 -10.883956 4.775216 4.2919874 -2.2335794 1.1633582 7.2370944 3.3986883 1.6862305 -3.3895352 -7.0881095 3.4101346 -8.029351 4.00902 -1.148141 2.3858802 -6.5912404 4.559285 -0.396605 16.185974 8.404924 7.7052765 -1.2631427 -6.0838375 -2.9892354 -5.3664913 2.4821224 5.579735 -2.6800983 3.127433 1.9850667 -3.281558 -0.4823857 -3.3308818 -4.857574 7.547104 1.7979405 -3.569567 -5.257239 3.3926222 -0.048578274 1.7235076 0.51952 -1.7990376 -2.625121 -3.1134775
910936 -6.7349844 -2.7401443 -0.8686748 1.7572991 6.188778 -1.5862795 4.5509644 7.6045456 -7.761323 -21.188608 -8.023405 11.031564 -4.083679 3.8502407 0.22409599 -4.075137 5.2904224 -2.6994674 -3.707503 -0.39111355 -5.246998 0.72588784 -7.006033 2.14512 7.2888594 -2.3030467 -5.9094396 -0.61050266 -2.233511 1.3170071 -9.178589 -0.7598776 -8.265635 2.2397559 -3.102052 0.53335375 0.69172984 7.3019347 9.539276 3.8433726 -9.6986685 4.868589 -0.801621 -3.6360273 -3.225257 8.838166 11.217002 1.4199132 -0.48980948 -0.0415452 -9.48873 4.1589594 6.075373 5.909553 5.818885 -9.9460745 -6.234507 5.9113135 4.980722 -3.982636 -3.1493912 -3.7149622 7.0177755 2.5079637
946358 -10.332666 -3.944032 13.157373 -1.7390224 -1.2325196 -1.3948834 2.349449 3.4680903 -0.72084415 -8.684566 8.629709 11.628066 -5.0183086 0.76337445 0.5499242 5.8910728 -5.3698344 -0.27734268 -0.7416623 -3.0339336 -0.6817037 -6.634241 -1.7871164 6.606039 1.4746642 -4.9422836 -2.4233952 -2.0270019 -11.794049 10.843253 4.043705 1.8013943 -7.336354 -0.85169804 -9.111466 9.559794 -1.6265901 8.350816 -1.4808792 4.1060243 -3.6852548 -2.6216006 3.7055795 -1.029025 -2.100286 11.852635 5.7508454 3.228624 -1.9729711 1.5866365 3.2677732 1.9429357 2.1722202 7.0952306 5.938522 -8.051521 -0.7986219 8.42374 3.4272904 -12.220989 -8.153178 -2.1194956 -5.656497 7.48269
906870 -4.2336626 0.506972 18.78311 5.5171423 -0.94695765 -5.01199 12.018553 1.6787053 -0.5961503 -9.525121 -1.0949041 10.867923 -5.720482 5.8699136 -2.086662 6.44201 2.086787 9.329091 4.678297 0.3455851 0.84890026 -9.847633 -0.5124925 0.06538283 -0.4444455 -1.162475 -1.0795237 -1.6227053 -16.940052 9.04294 6.1909533 -0.39406466 -4.6469226 -0.19162151 -4.0083714 8.324457 -4.333998 10.087914 0.030303717 0.7212253 -6.554588 -3.9972873 -0.5587031 1.7277627 0.37419307 5.238443 -5.71653 6.3169594 -1.2241087 3.2620354 8.031222 3.9862366 1.5591353 -1.8855934 6.9691954 -5.3660398 -5.4255743 6.6375785 6.979645 -10.95115 -15.888511 2.2713976 -5.4585557 4.0938125
925340 -2.5255976 2.4000747 6.1120567 2.8899295 6.456502 -10.512094 -4.7363834 10.1026125 -5.3008695 -4.8794646 0.839017 1.5820808 0.01652216 4.690726 -2.9135842 2.1784134 5.8021903 -3.887524 -5.0935946 -7.619814 -2.9240456 -6.6338634 -2.9565191 2.3705273 -4.6826396 1.6829302 -8.20019 -5.4150305 -2.4750078 9.467201 3.5225563 1.3794616 -5.32825 -2.3269324 -10.661793 -0.6538126 -5.5560055 16.850471 1.8430792 -5.306708 5.751532 -9.962987 -11.161278 -1.9144795 0.39170694 9.992524 3.269495 9.995423 -8.903858 -5.994686 -5.888672 -0.27030227 -3.7287762 2.213905 2.9765005 1.0981851 -6.827333 1.9546244 -0.38358983 -1.7203462 -1.5409207 -2.4383686 -0.4275669 -6.7525005
907275 -5.1956487 0.17951259 10.817212 0.69022644 5.3316555 -12.080994 6.690018 3.438423 -1.9618793 -7.17299 0.48388243 11.9407625 0.8102335 4.716063 -1.4228853 5.446037 -1.0442572 0.26913473 0.20215896 -3.769001 0.14449938 -2.047502 -2.4902465 -2.8169553 0.455631 -5.809901 -3.935629 -5.6833916 -13.46261 11.002087 4.661616 0.25671554 0.66358536 -1.503485 -7.6071863 10.571554 0.8903174 13.845522 5.2767887 7.0636415 -4.6201587 -9.2264185 1.9260527 1.9538692 3.025086 6.230391 3.073048 9.609163 2.4115138 1.6300211 6.466582 6.113406 0.933684 4.2150183 6.450247 -1.7994312 -2.7263541 7.070037 -4.129212 -10.446148 -12.47815 -3.094993 -3.909042 5.5693784
1298533 -7.7480035 -11.005351 11.232219 6.057071 0.40944588 10.649952 0.41363943 3.0085843 -4.4106956 -6.861503 3.574213 3.2002132 0.46210155 6.570996 -1.6301436 0.7273602 -4.903348 -2.7741878 -3.9857001 -4.2507296 1.3533574 3.798563 -2.7852662 10.263127 8.6990185 2.5797899 -2.5078309 6.249354 -6.805277 5.8238807 -4.1693845 2.8703458 -1.0707554 -1.6307372 -6.2486787 4.5344095 2.8180263 10.360148 9.18909 5.3402557 -4.1596065 -1.0905252 1.9675345 -5.741001 -4.2981653 4.277377 5.802175 0.36079097 0.29264426 1.2497933 -5.1912236 5.1721163 -0.5912229 5.3952 6.2826505 -3.6874154 -3.7692916 6.3793573 7.398214 3.8767333 1.9869019 2.7309718 -6.275051 -5.542782
1240153 -0.123375 -1.9451056 10.826687 1.0601482 10.259687 -5.266259 2.7025576 2.641217 -5.065312 -4.262273 3.6522965 11.167854 3.734758 7.426794 1.4444984 -2.1172833 6.173245 0.79306114 3.4207006 -7.583006 -4.03583 -12.567731 -9.334078 1.6089789 3.0887122 -0.3968579 -6.712456 -4.0807996 -9.864789 16.555586 1.3773448 5.30178 2.5687735 1.5592455 -2.884508 6.782582 -1.8600016 2.5852427 7.772228 -3.2832818 -1.7089671 -1.4383746 -1.6721582 -0.2090421 5.630318 8.791101 0.45513037 8.505189 -2.1615064 -8.390273 -1.5992632 3.627537 0.10372777 -1.7792865 7.017697 -3.3968303 -8.074144 3.5114791 -4.428433 -2.368797 4.776618 -4.6810904 -1.6223055 7.934324
905936 -1.553846 1.0629625 13.326047 4.549215 5.720969 6.246565 12.790699 0.10037528 -2.8808117 -10.442162 0.9734984 6.768012 -7.3376107 10.128155 5.233065 4.5970097 0.6727607 -5.1344695 -4.3435993 -3.0268104 -5.5603476 -3.4430132 -5.8499503 0.35000607 -4.347537 8.133067 -7.7710986 0.5383899 -4.488554 5.9942203 -1.9998204 -0.38097888 -2.1805575 -7.5558133 -4.593989 11.928093 -2.8875947 9.253986 2.763611 -2.3850007 -0.13385922 -3.9476953 -5.854886 0.48982653 -4.868745 6.0991573 2.7555022 1.8228226 0.7147434 -1.2242993 3.5378325 7.200019 -4.989747 6.745597 0.72359866 2.8927064 -3.63394 7.335638 -1.891989 -11.716309 -1.3552866 1.7703153 -9.197035 0.9589938
905965 -8.068147 -0.32051012 18.049711 -0.9341871 -2.1208732 -4.407117 5.283175 0.7045176 -5.9729276 -7.9087334 1.4303067 10.139138 -9.611265 1.0259558 3.1065993 3.8602996 0.9801921 3.080709 1.808512 -2.1618927 -2.7483582 -13.500761 -1.9307487 3.0656703 4.1986628 -3.765756 -5.725965 -5.675916 -8.238389 10.680604 6.142493 0.3824759 -1.0460758 -0.8813628 -5.441401 10.094251 -2.9919252 14.038561 -1.1483028 3.2074037 -4.0717945 1.2682812 1.0981807 0.8361672 0.41466787 5.004736 -3.392281 4.045125 1.0482405 -2.4103978 7.9590807 4.7404375 -2.0181642 1.0270863 7.166289 -5.1239467 -0.8001787 6.214404 0.24308805 -17.490038 -15.905117 -0.39888296 -3.5561564 8.521372
907282 2.7890427 -9.476407 1.7545018 5.899323 1.9282756 -5.3765492 -1.0943785 10.554954 -6.174338 -4.1848617 -3.0753853 -1.2018204 -9.162929 -2.9449832 1.5661944 -2.307292 8.411702 -2.5929332 3.3126826 0.9806217 -7.8792686 -1.0285524 5.267462 10.915589 4.703092 4.293491 -6.997412 2.979313 -3.7832696 0.8982717 10.151583 -4.929746 -5.7530794 2.4341238 6.6281123 14.18129 3.3028674 -0.92888486 -7.178089 2.2531543 -2.4231195 -2.4764748 2.567915 1.3288264 -0.76160467 3.8521085 -3.796256 -0.24708618 -13.376063 -12.189127 -5.099239 -8.888538 3.5257945 6.772194 9.417697 0.49745622 -7.274646 0.061905816 2.0819144 -2.371501 4.78124 -1.8306226 4.149611 6.0172157
1331033 -7.8430934 -0.09050972 15.470119 -3.5588868 -1.2173823 -3.555739 2.2002416 1.4818058 -0.928966 -7.4845476 4.371966 13.372994 -2.8711538 1.0448552 5.777253 4.789437 -1.9497253 1.0719131 -0.324567 -4.770302 -1.1814892 -8.07403 -3.3173842 0.7870826 4.724168 0.033745967 -4.6996694 -3.6582987 -10.369179 12.057892 5.4186454 -1.1266047 -1.3656967 -2.4811087 -8.211934 9.141001 -4.3413725 13.213969 -0.82667124 5.2009635 -3.7990787 -2.3689065 -0.010801093 1.8996171 1.476606 8.752451 -0.02091358 3.9946957 0.98960537 0.13514191 5.9801946 1.8439636 -0.61723655 5.327981 7.6925883 -5.6880875 -1.0536306 6.600041 0.6984413 -18.15581 -11.153111 -5.643712 -4.0524783 7.659983
905971 1.942136 1.5325553 11.3234005 5.237657 8.212406 5.3243613 10.851978 1.6507801 -5.383634 -8.476801 5.502354 -1.7490194 -4.475967 5.72629 5.2816367 4.135946 4.7420444 -8.618022 -6.9640484 -3.8234596 -5.2292247 0.66577315 -8.295844 5.6495357 -4.2413845 7.118838 -1.9924866 1.2933139 -8.794222 7.3204684 -3.9985495 -0.072116114 -5.068323 -6.489785 -1.6157198 11.881208 -5.0352945 5.8671417 -0.99265206 4.319423 2.4319112 -3.144279 -5.381166 0.3481151 -4.4935555 4.7600303 5.7724786 6.7418494 -0.6904491 -2.736444 2.9730654 2.1131074 -4.6839685 6.41001 -2.4226468 2.9906142 -5.8329835 3.7158966 -5.8947067 -5.4340005 0.6848938 2.9465055 -2.6761377 -2.4594014
907276 -7.110202 -6.562406 4.858811 3.5194585 4.1263256 -6.767694 -10.291032 3.7221954 -9.066138 -14.587191 -0.767051 1.5068309 -6.8889356 -0.13309713 -8.351117 4.9361496 0.095701315 -3.2380416 -5.105726 -2.7674155 2.235226 -0.6187781 -6.217713 7.8677926 -1.6920625 -1.2243073 -3.5924437 -2.4183059 -1.1651001 0.13675429 -1.588385 5.7149916 -5.104898 3.0884485 -7.8161497 -5.982106 -9.646558 11.313132 1.922417 -8.797212 1.0403244 -4.6163845 -12.548464 -6.828225 -2.894568 15.316031 8.390671 1.4878888 -7.6506147 -2.4226499 -7.5770764 -3.107716 -4.7116075 4.5816317 -1.0652844 4.1125712 -9.310104 4.358442 -0.8170062 -0.6449956 -1.7087212 -3.2809348 -0.6172591 -8.707302
1247873 -7.9008102 -6.9304047 9.672093 2.6683555 4.1527853 2.1312435 1.9433018 4.8141727 -1.5847174 -5.1968384 -2.296249 8.895577 0.1498128 5.952842 -7.1493273 -3.4842436 5.4086633 -3.6213953 -4.6175323 -7.947809 -2.6414368 4.0865355 -8.507922 5.5631933 0.2582095 -0.64586645 0.33619198 1.2221084 -7.287832 -0.5486506 2.870161 3.2437277 -1.1435266 3.519164 -5.470822 3.2234175 2.0374181 14.0245905 9.509081 10.084183 -4.751335 -8.687568 -3.133403 -1.2910744 -0.26672462 8.08133 -1.795411 6.3067293 -1.6014127 -4.5537214 -2.7739367 4.487694 3.9518619 10.240335 5.032929 -2.7834325 -1.1121899 4.742143 0.5985647 4.804391 7.451324 -3.0497282 0.6749198 2.9586573
1298215 -4.9253707 0.31623977 2.0082114 -1.5673147 4.864276 -3.3549182 8.587135 8.987816 -7.2282147 -19.510612 -6.658471 8.267813 -2.6287386 2.4713402 2.8490732 -4.095823 1.1020374 -1.9756664 -2.9620187 -2.678464 -5.300452 -3.7726226 -4.2652626 -0.7770981 11.918971 3.3690443 -6.080073 -3.7974358 1.2623171 9.037782 -9.372402 -2.8111255 -5.1494117 -1.8231324 -6.1054044 2.1286519 0.43386167 6.963869 6.1263843 7.5721207 -8.665627 5.7307544 -0.5446809 -1.8364562 -1.5977944 6.9582705 8.632893 3.9580336 0.2068961 -0.8764876 -5.4605336 4.250719 1.4762698 4.8417373 8.793037 -10.933034 -5.076487 -1.5943884 5.9591265 -8.440397 -6.4919095 -5.319821 6.882345 3.3185616
909257 -4.6414394 1.6782109 12.4226265 -2.338398 3.469832 0.026222194 12.779153 6.157557 -0.6152711 -4.00871 7.0133147 -1.8372564 -0.025672039 2.7926407 11.151494 -0.36462477 1.1097392 -0.52942175 -7.1968904 -7.866108 -6.3948092 -0.58982736 -7.454613 10.525005 3.4229734 8.770787 -1.6435493 -1.7186068 -7.6725864 6.763172 -0.88873386 -1.0547686 3.738337 -6.080116 -9.3143015 3.5166755 -4.0512757 7.062128 -0.025162099 10.319481 3.8813841 -0.22955734 -2.9830313 -1.3636359 1.7549316 4.1137466 4.7150183 4.4875903 -7.8287554 -3.235165 3.6938536 2.7930481 -7.521757 4.751579 0.66784644 -3.265478 -1.7334579 -0.44110614 -0.80653226 -10.584523 -0.8567195 -5.5926447 -7.5635176 2.2613535
722066 -9.037603 -10.289123 12.338212 2.9599001 -2.8497248 4.7867603 1.2576916 3.11835 -4.913463 -3.6973538 2.7842233 4.4251003 -4.2885513 3.6891627 -3.9597478 2.028491 3.5504646 -6.346734 -8.165089 -8.345322 -3.3288152 9.413678 0.329273 2.3399043 0.997017 2.4409647 2.2765577 -0.8937571 -4.0582423 1.0524132 -1.9336622 3.9820864 1.128104 -1.9264412 -3.6833882 3.0398114 3.2416852 18.718739 14.090625 7.370776 -1.7469319 -6.596037 -3.3918889 -3.1123545 -1.8149292 4.442764 2.1040215 -0.56627285 2.9194944 -1.8955897 -1.7385796 6.2777915 -2.733646 5.5460896 -0.016475016 -1.4932871 0.873289 7.8826323 2.2730644 3.7015748 2.4601305 -1.4377567 -4.6098905 -3.6980367
1298531 -7.623665 -0.9114372 6.2680616 -0.0052982247 4.159958 -3.3763998 8.921422 6.7504697 -7.582503 -19.81685 -7.2904615 8.6574135 -4.923436 2.589264 5.1149015 -3.519736 8.030945 -2.1225924 -1.960667 -2.481483 -8.286003 -2.7829435 -7.7340293 2.0293999 8.7662735 1.742386 -6.6710796 0.44352904 0.49738127 2.1251457 -5.244868 -1.8258471 -4.8725767 1.8667612 -4.1365037 1.7217462 -0.2944103 10.038808 7.062209 5.052503 -9.783376 2.2915926 0.8819308 -4.370685 -1.56185 4.7658286 6.9763575 2.3186893 -3.245302 -1.987586 -3.6833813 4.565478 4.4432173 4.8747 7.7252164 -11.502393 -3.2247775 4.9887595 5.1789565 -9.732673 -4.4836764 -7.0922995 5.5944476 5.69423
910554 0.44918832 -1.1643536 8.110383 7.506679 6.8754706 8.303242 11.015934 4.7833605 -1.6067811 -7.152029 2.8734615 0.46044064 -7.773165 6.3862505 5.9474044 2.5512598 5.4158444 -6.384223 -6.200069 -2.7763085 -7.0874023 4.7435765 -6.2780476 2.9227257 -6.6143184 13.856338 0.6506788 -2.3284657 -6.1528573 3.97826 -4.4895277 2.5094879 -2.321245 -8.562458 -3.3542871 10.607614 -3.2066655 4.4758453 1.7372794 8.603247 4.810537 -5.828927 -6.428413 -1.4519702 0.10854955 4.050973 2.8757315 -0.20033172 -4.22748 -3.6459856 1.1986817 -0.17161849 -3.3756936 5.5914164 -4.2788463 7.7951407 -6.797994 4.2650723 -5.368213 -0.8433318 1.849624 -0.9349223 -9.293329 -0.49017745
905954 -6.651681 -9.718509 12.524414 3.4773455 5.083889 2.7030263 -3.465263 -4.1827817 -8.920325 -4.419955 9.310892 6.769764 0.08411853 9.846819 -3.4738078 -5.6051292 3.9707246 0.64053756 0.09455625 -6.347546 -3.666218 -3.2147865 -3.4840956 6.4002166 14.052469 -2.063767 -0.27906364 1.4562176 -11.038327 3.7028577 -8.163381 4.231088 0.95104724 -3.788437 -3.8562956 9.815771 -4.949145 3.076473 10.516245 -3.2021792 -6.631181 -0.31910652 -0.14961377 0.29631323 -1.7203255 10.055641 4.8002405 0.51590544 -6.3347344 -6.640555 -4.5531554 0.7702028 2.859185 0.63697827 6.3450017 -5.3219037 -8.457398 0.9060414 -2.341146 1.7989764 7.857218 1.6625149 -0.024559874 0.8499794
906863 -4.852117 1.1373488 4.824327 5.3336225 6.5582848 3.6013937 3.897116 9.331606 -8.036738 -18.518671 -4.1810284 7.874861 -4.526444 6.826675 4.952758 -5.3262196 4.002717 0.120092385 -6.1118126 1.5681077 -2.8751826 2.8628848 -1.8809724 3.4357111 11.91008 3.8366616 -2.9951348 -0.8970241 -0.80542254 -1.4786174 -5.808035 -2.839204 -6.776756 1.0573927 -3.2099857 3.9670436 -3.454321 8.260077 8.154665 7.6485143 -6.8874536 3.8785853 2.7029073 -8.042027 3.3656058 1.6023508 7.907172 -0.39681464 -5.505243 -0.07006029 -8.918413 3.3109035 0.5558685 6.540832 5.168973 -8.835361 -5.3262024 1.9408292 5.627433 -4.979714 -3.4307964 -3.3811269 5.566687 1.0347404
907311 -6.3810515 -2.460555 15.726327 2.6258335 1.7118431 -2.1855981 3.4039679 2.0144033 -3.6205776 -8.462043 3.3647432 15.576916 -1.3594916 3.595802 5.0407553 2.4200523 -2.1677885 4.902068 0.5296282 -2.2793238 0.76428926 -9.995528 -2.5578423 4.004621 7.1513233 2.6283777 -6.3699875 -2.3021452 -11.446157 12.470714 5.809458 1.024326 -2.6791732 -4.3215256 -7.5740423 10.1480465 -6.871231 8.763711 1.6152347 1.1466715 -6.7217455 -2.2009282 2.9562948 -0.7403532 -0.3117979 6.953695 1.2311263 6.5240808 -0.34314626 1.1816283 2.5784564 2.367768 1.3698708 0.1428604 8.54974 -7.1168246 -4.336594 4.2832932 2.1348517 -12.328413 -10.793065 0.19979408 -6.9343395 7.3270445
1503366 -3.0017767 3.2150593 12.358038 5.1205153 3.5386064 -2.7348874 2.8791585 2.5876753 -2.4480627 -7.358884 -0.5716014 8.057844 0.76972187 5.744186 0.63113046 -0.5683627 6.756051 -2.1413226 -0.7185176 -6.071424 0.33321375 -11.983795 -4.9651847 2.125109 -4.015026 6.6377625 -2.2888148 -7.4733644 -12.006834 12.173165 3.7418432 9.087262 -2.7176526 1.8077453 -3.6919935 -2.0371037 -3.5865335 13.601617 6.866913 4.660559 -1.2872958 -10.043771 -0.8008775 -8.832172 7.5969443 4.2491446 -6.3599324 3.57722 -4.596474 -4.4244466 -1.0386673 2.9083831 3.1729136 4.5345354 3.2559988 0.4164081 -6.653322 1.2453259 -0.5680388 -0.26394317 -4.601991 -0.5665296 0.18114327 3.2772431
909716 -6.0974536 -8.918349 9.190884 10.878859 4.9339695 2.389101 -4.529214 1.4867876 -5.045936 -5.653927 0.54273534 6.2592196 -10.98496 7.943165 -4.3953586 -1.9572963 0.28523132 -2.2766485 0.4440139 -4.406782 -2.0139754 3.1578763 2.7494657 8.089184 5.577736 -6.0418015 3.1710093 4.536195 -15.108679 -3.0236833 1.4597465 3.9978757 -3.87794 0.9967725 0.22469053 1.5173188 1.6055622 19.427086 7.6578913 3.7111027 -3.377044 0.39754486 -0.2212321 -1.6826648 -2.5654948 3.225321 2.9510312 -1.1870966 0.7431528 -2.77187 -4.0205874 8.286312 -3.019294 4.246268 3.4246135 -6.922675 -5.008283 6.5034013 -0.29479235 0.8451133 3.3355098 1.4545016 -7.870749 -6.2600636
688027 -3.7835643 2.5152907 6.6323824 2.5998566 8.534341 -2.1039007 3.4340956 9.107893 4.5101724 -1.6408165 2.6412246 4.431139 4.7789826 3.765679 -0.23428532 0.58556753 -7.488982 -4.9681754 -1.5557481 -8.394367 -2.382544 -6.835444 -3.3321993 6.278893 -2.5558236 2.650339 2.043076 -3.3948157 -14.573605 17.097086 2.3123956 2.8070374 -2.4059515 3.0375202 1.9673007 1.6201056 -2.960518 7.8724833 2.2501085 9.548082 2.6580381 -7.7262807 -0.16615754 0.5769111 9.4574 6.287144 -0.5541271 6.7617407 -0.6906686 0.6104089 3.248874 4.035675 0.53690475 8.183532 6.6512604 -0.47051322 -8.41025 -4.4124403 0.8680785 -3.9417577 -0.17836349 -3.3656795 0.9053449 2.425423
908118 -2.3576403 0.7131608 13.531159 -0.9707804 7.9155245 -1.1117586 4.256792 5.8028164 -5.0601954 -10.939571 -1.3597362 9.558375 -4.0292287 -0.22340038 1.2815286 0.54145795 -4.5737705 -0.43356797 7.6768885 -4.7996593 -3.7647471 -10.802639 -2.6727521 3.2653055 4.229626 1.2267785 -0.1755035 -2.6083362 -10.33539 15.676746 1.6671182 3.5879192 -1.2446743 5.055889 -2.0366004 6.690606 -1.8159033 10.747524 -0.503909 6.0342865 -3.5059614 -2.160884 -1.1770645 -0.8677713 4.829362 5.402475 -3.149886 8.799441 1.5257046 -2.0407317 4.0199885 6.4580193 -7.836704 4.3452935 9.484915 -7.2958674 -6.7127366 -0.77085924 -1.8673669 -11.860626 -3.7963212 -6.7168884 -4.4233313 5.2428517
1327774 -4.1502256 -1.3831586 14.113653 -0.9753165 5.541747 -8.418256 1.7792196 4.867354 -4.0069127 -8.69304 0.25412282 11.551562 -11.101302 -1.398565 -0.95510143 4.594341 -4.506058 4.7994184 5.0442243 -2.4141781 -2.254885 -9.9416275 -7.4147816 2.236824 3.9988458 -6.262221 -6.188364 -7.269321 -10.381926 12.706286 0.99103975 0.87622863 -0.84965396 3.5457954 -4.9403167 11.0859785 0.7464944 11.398808 -0.20553687 8.493004 -5.4305005 -2.3821867 -2.5469027 3.0933328 1.6182344 6.6433454 -1.6084892 6.225469 0.1388715 -1.5974815 6.6867104 -3.4486995 -1.5050842 2.0531514 9.333839 -2.1371272 -5.593676 8.410063 -1.4004432 -11.46555 -14.570871 2.2087002 -4.9047728 10.5291
910691 -1.7549446 -8.355758 5.7633386 2.1056898 -1.2349141 -5.5150075 8.538767 -0.36459345 -1.585451 -8.013879 0.6118404 1.178848 2.2777863 -6.7323227 6.672113 6.4275885 -1.9742736 -0.2754516 -3.283685 -6.1752076 2.9365814 1.8077765 -3.2912807 3.2808385 -5.0685396 10.900934 2.114939 -5.6000767 -16.274822 7.110722 -2.3455834 -7.748831 0.71858394 -1.2342108 -15.987544 3.8549402 -5.1591177 3.426688 -9.993158 8.450867 -0.100327455 -2.3140728 1.434373 4.5704365 3.5848718 5.511407 1.0161966 0.21086223 -5.31295 -1.3562822 -2.0447526 -5.39834 -2.4399574 2.9710588 3.1193776 2.055818 -2.5697637 3.6011798 1.5686914 -5.1473775 -5.8790293 -8.801677 -18.61588 2.1868517
906793 -5.1100593 -2.6798944 15.66064 -4.641584 5.0666485 -3.7548673 8.118964 -0.41889307 -7.261493 -8.4816885 1.9255277 4.6480403 -4.216675 6.950631 -0.27344862 -0.16793619 6.7609506 1.1302817 6.4003773 -3.7174118 -1.9844534 -14.526948 -8.393061 2.294661 11.655089 -1.7952636 -3.5045178 -0.52838206 -7.9074225 11.569988 -0.10936308 0.7869918 -0.5712052 -1.7924002 -7.723412 13.606073 -2.2403202 2.6818285 4.32871 -3.1335313 -4.001779 2.5586534 2.989793 -0.2516892 -0.24376197 5.0748196 3.378295 5.3368897 -1.7714778 -7.5463095 -1.0826137 6.614999 -3.2358222 -1.472166 6.9508743 -10.252972 -2.5636559 2.9878573 -5.410954 -9.061456 1.441465 -7.8730235 -5.621981 11.792995
1290810 -9.588903 -10.028172 7.9069877 5.151905 -4.5947523 2.900475 -5.412301 3.0586784 -4.590342 -2.8218474 5.6811514 3.1986403 -4.0000453 1.180011 -2.0461726 -2.8397136 0.12058877 -5.61703 -4.6827445 -7.364098 -4.499653 6.2781553 0.8474361 5.5739365 3.6420798 -2.1555016 2.8438373 3.9162009 -12.432141 2.2842083 -3.608783 4.9849696 -1.2369651 4.1378064 -3.143992 2.5166929 0.42965865 19.590893 5.4807506 1.9749385 -4.5167418 -2.562841 1.7688031 -4.9856935 -0.5642315 3.230967 2.645118 -0.5052539 -5.905639 -0.22407927 -7.3060703 5.913765 -1.4832171 0.9939115 7.7138805 -8.124145 -4.020731 4.6971726 5.5690784 1.267476 2.3598948 -3.8043973 -3.7633255 -7.270471
906833 -7.9999394 -8.273268 13.405902 3.7596002 0.440928 1.8460655 2.4859369 4.066185 -5.7121778 -8.374304 -1.5472573 5.584531 -8.223277 1.3449852 3.290468 2.9393468 -0.45347905 0.48118213 6.644782 -8.06232 -1.9838555 -2.7980723 -1.5301547 4.277692 10.434167 3.2248497 1.5953088 0.7568892 -4.3013587 3.1150987 -1.7910889 -1.0840499 -1.0118654 2.5416253 -3.092842 6.649147 -1.5436696 19.698391 5.1750665 8.184116 -6.720858 1.0014923 -6.3854985 -2.592536 -2.230971 2.9732418 -0.6486396 4.1383843 1.4030617 -3.9599037 1.921963 5.8138156 -5.7058706 6.2301874 13.385256 -6.8300986 -1.2683302 5.4487524 3.3182137 -6.382194 0.0049857786 -5.4086847 -5.4874954 5.9883103
908440 -7.935203 -7.070319 15.48953 -1.4136822 1.161566 -1.2738731 0.635183 1.5350537 -8.193274 -11.552643 5.435515 4.3412113 -8.972364 0.8870092 -2.0049694 2.2382796 -0.49054888 -2.1161833 -1.0282855 -5.37512 -3.3432696 -8.120942 0.23533201 6.4331813 5.7637615 -4.104354 -6.263024 1.9457424 -8.226677 6.3131957 0.22082944 2.853929 -1.1274304 4.245468 -4.6078486 7.3134904 1.1192279 13.877983 1.634563 1.2222915 -5.194449 -0.5676854 0.5986166 -7.517483 -4.426258 4.7278156 1.631083 -0.30814454 -3.7971847 -1.3624535 0.27637145 2.6777196 -2.1365924 5.002132 8.8197365 -11.000223 -2.2379699 7.616492 3.8154802 -10.719918 -7.5980787 -3.3819013 -6.269274 5.7502165
905961 -0.683791 2.1955667 13.593771 4.6153116 9.0459175 8.408549 9.301445 -3.0056176 -6.3476834 -13.697218 -3.697968 6.333595 -3.0968308 9.182564 -3.4934695 3.0426424 1.3799192 -6.730065 2.655904 0.5841737 -8.036796 -6.6804037 -3.4889252 3.113618 -0.029082287 3.459377 -5.3721046 3.052716 -7.540412 12.375122 -3.7093034 1.3622743 -7.5897903 -9.900229 -3.1483536 12.928253 -1.1882628 7.211038 0.5584779 0.489203 -2.6237059 -3.8400748 0.49250558 -0.8027663 -9.880379 7.4818964 5.0669875 9.631917 0.98553926 -0.3187513 -1.5776889 9.492066 -1.4559188 6.7891526 1.6155454 -5.5898676 -5.2698927 2.6759367 -1.8400096 -5.687318 -0.17143825 5.112066 -1.069787 -5.864302
1330984 -9.118282 0.35232687 16.571936 1.354959 -2.9434824 -2.9313703 6.8307095 0.2381252 -3.104949 -7.349494 4.329784 9.0795145 -4.672316 6.0021315 3.6237524 5.0828853 0.864871 3.886411 1.9031003 -3.9743726 0.79846734 -13.969718 -2.3910825 2.2787673 3.7613344 -0.3024792 -4.4523993 -4.7217975 -8.766138 9.27737 3.8705685 -3.379465 -1.902932 -3.0422878 -8.844908 8.332328 -6.1038513 11.402282 2.4688284 1.978734 -3.5532649 -2.4892347 -1.6579611 1.4418302 -1.0552672 6.413431 -3.2732036 5.3848515 -0.8010457 -2.0121403 8.640555 5.399309 -0.4422667 2.2874234 8.070973 -5.8427515 -0.16758035 6.4329524 4.0761056 -13.553013 -15.066477 1.1232202 -5.422183 8.659577
1303900 -1.1955289 -2.297298 9.049417 5.3977647 9.997703 -6.863691 -0.47664833 8.564384 2.2252686 3.0688293 1.0745162 5.7127056 8.763154 6.746412 5.1723666 0.17632708 0.5162984 -5.5486875 -6.2878666 -7.304518 -2.7799447 -0.39836276 -3.644638 3.1394835 -2.511799 -2.2849526 -4.861751 -8.925394 -9.455044 16.697935 2.452419 2.9047313 -0.26782972 3.9221878 -4.5439954 4.196471 3.265401 7.785861 -0.07299068 6.4084373 3.4952607 -8.746434 1.2257097 -8.159062 6.3210936 4.159673 -0.3326741 6.246165 -3.0785658 -0.36019877 0.61209315 4.6358247 -1.1322227 4.0208225 7.8433685 -2.793926 -7.841716 1.1235297 -2.1121063 -2.8909032 -2.1551857 -1.8520919 4.699457 1.315513
909260 -8.706654 1.5861903 15.54777 -2.1120193 -3.3830605 -0.94675213 6.838343 2.9107344 1.6377228 -3.5687177 8.120989 6.989737 -1.5506942 -0.34267843 5.1122923 5.1002917 -1.7354579 4.6752234 -0.0541318 -3.858371 -4.168271 -6.4960704 -0.45848313 4.2069416 -0.84906805 2.1033163 -2.1669083 -2.0257845 -9.308703 9.425579 3.721823 -3.7818356 -2.6840928 -4.6073575 -9.785034 7.919807 -6.597903 10.51815 3.6098335 4.412906 -1.1045932 -7.5106573 0.09744151 2.6393173 -2.5330024 10.6182165 0.6045749 4.921444 -8.181366 2.9532166 4.7488885 0.32838857 1.7123401 5.5816364 5.984165 -3.4175682 -2.5795946 8.169735 8.261254 -10.647638 -12.027206 -0.34524024 -4.6703753 5.2497644
910701 -6.391073 1.6320667 1.3113961 2.5431795 6.4157667 -0.78422534 9.309284 10.069846 -3.213623 -15.445898 -5.4133334 7.0513577 4.875746 7.3263893 3.959666 -5.8858404 2.2229733 -0.9029873 -4.0182414 -4.747545 -5.4993463 -5.5407095 -6.3514786 1.949852 -0.77245164 1.9787406 -5.6741753 -4.39926 -2.6021245 4.741522 -6.8675423 -1.2850182 -4.6486464 2.1319926 -6.503186 -1.9445784 0.0026309213 6.28227 8.878738 10.359872 -7.179163 -3.3838768 1.1979375 -4.511077 2.5625496 6.024368 0.53790337 5.40058 -5.1972365 -0.5890421 -3.2439094 6.288599 6.3114953 7.060475 7.681203 -4.6505437 -6.515604 1.6435505 8.302441 -3.1393862 -4.8028603 -3.1242054 9.798954 4.8396053
949155 -7.4404917 2.4879103 14.812381 1.189325 3.3454788 -2.5763152 6.528152 2.0936875 -7.847913 -9.797688 -3.7402527 6.3338976 -9.547866 7.876222 0.33403206 3.0229554 3.3828871 0.3883106 0.23128387 -2.5946722 -2.0875978 -14.742934 -1.1207027 3.7207227 3.2409036 -1.2684225 -4.678777 -3.5948908 -14.661578 12.545449 6.465566 -1.0403483 -0.3719532 3.703702 -2.607332 6.7703304 -6.2765584 12.443359 1.4664718 3.4356039 -5.0094013 -0.4029242 0.703308 -2.1231017 4.464348 2.3430536 -4.5999827 2.48817 -2.2868197 -4.795119 4.848383 8.190967 -2.2683272 1.0928315 7.182993 -5.5995255 -2.821182 1.0181023 3.4589689 -11.550218 -10.325379 -0.22582074 -5.905251 9.6232605
949153 -8.925431 3.3739483 15.86401 -4.9257936 2.0036054 -5.8359747 3.274322 2.8501134 0.1847703 -9.386717 2.3129964 10.414453 -5.1293206 1.0846853 2.0871847 3.4319355 1.0520116 3.067836 1.4533587 -0.6683742 -3.3008573 -8.824241 -2.9079394 2.642394 2.8881323 -1.3148407 -1.7631829 -3.6673677 -13.451182 11.086757 5.9657183 1.4391528 -5.002568 -3.8200662 -9.545854 8.94184 -3.7468095 11.2344055 1.6033028 4.5176616 -1.4983294 -1.2962809 1.8437674 -1.8831135 -0.13902555 7.217482 2.5679123 3.4220366 -2.839889 1.5808628 2.6770363 3.271776 1.5274746 3.7366424 5.8971663 -9.582587 -2.895857 6.974993 1.402687 -12.628855 -13.347377 -3.1655402 -7.4478917 8.4853525
909703 -9.309107 3.655122 16.221539 -2.676162 -1.274183 -2.145566 2.660144 1.0558982 -2.1435964 -8.70309 6.791558 5.780577 -6.8666053 4.169491 2.8424356 5.6986823 -0.25760043 1.3808013 -0.012720367 -1.6352605 -0.88034225 -10.338395 0.015269844 3.585657 2.4769337 -2.5095878 -4.8109 -4.2520585 -12.344083 8.665502 6.2607913 -1.5092006 -4.7468033 -0.81467396 -9.108957 8.108659 -4.3725557 9.766883 -1.2519183 1.3455297 -1.9919786 -2.6401916 -0.9928855 -0.55222535 0.62083864 8.664056 -1.293877 2.500597 -2.626124 -1.872535 8.379967 2.6297371 1.0443182 4.869563 6.202687 -5.215612 -0.29598892 7.7650614 6.236205 -14.0664215 -13.677171 -0.6785231 -6.5501018 8.387889
1240193 -9.548287 -1.0994376 18.772686 0.18621948 -2.4066694 -1.049027 5.3609548 1.9508688 -1.7412719 -6.7130904 6.365797 7.8641376 -1.1457144 -0.14533614 2.3314834 4.162588 -1.7347533 1.5684947 1.9809555 -4.911677 -0.102732174 -7.9153757 0.49523723 5.244762 4.840399 1.3568585 -3.5960786 -3.2739573 -7.68854 9.561299 4.6351867 0.6759896 -0.9420554 1.1639855 -7.511192 5.769881 -5.1568356 13.418565 -1.1663457 4.705251 -4.3821106 -6.2056475 2.7907963 -1.0140524 2.0961905 8.363425 -4.745148 6.5368133 -2.1280444 -0.6545998 9.943232 3.856985 -2.7982543 5.632466 7.2019687 -7.125464 -1.0121056 3.359844 6.3680344 -13.671276 -7.5986133 -4.5570292 -2.1316803 5.792251
749716 -3.589454 -7.9792404 13.920421 7.9911857 -5.9197364 4.796431 -4.8973665 2.1380143 0.52437806 -3.8723707 5.6297054 6.4415455 -5.550807 2.454787 5.248671 -0.6273691 2.0305617 -1.5304724 -4.9258943 -1.8123056 -0.52146786 9.152945 -1.3520111 6.551291 1.1372089 0.9861326 3.9197145 -6.332403 -9.683955 7.6439433 -4.1609006 6.652853 -7.7516875 5.6655517 -5.4697156 6.2462587 0.7237061 12.342109 0.19164595 4.1433997 0.32522067 -3.010255 4.167341 -13.849642 1.8176705 1.1444119 0.25796926 -0.49446738 -2.399993 5.506238 -6.0106387 2.6911523 0.5673922 5.1072683 8.920672 -9.850678 -6.2239904 6.797597 0.72573197 -2.0045545 -8.972474 -2.188763 1.5871743 -1.9845644
1327775 -8.277076 -1.6047125 19.055464 2.2662022 -1.4164517 1.0046504 6.056617 1.6858242 -2.0579073 -6.9655805 8.21861 6.0665965 -3.5087724 1.7355187 6.4057817 4.389593 -0.052658513 4.429677 3.9028804 -4.353706 -0.010284042 -12.005766 -3.599843 4.312013 3.8673813 0.39984962 -3.9356194 -1.5489312 -9.442893 12.150094 3.9754658 -0.9537584 -3.467031 -3.2702765 -7.3468685 7.0395317 -5.2362885 9.991092 2.3983223 2.747874 -5.076355 -0.6455477 3.5449042 -2.2368166 0.6545998 4.871615 -2.6717458 2.56722 -1.7875106 -1.492393 5.746541 -2.9839382 3.2555518 2.0691671 5.324482 -4.5269723 -3.289625 10.161255 10.013651 -12.611921 -12.456311 0.15116361 -2.160264 4.497797
907066 -6.882502 -15.131156 6.114464 6.5454307 -1.2632104 6.7307987 -8.318665 3.7378902 -5.194992 -5.316246 4.9949484 5.294889 -4.7366943 8.101043 -6.5419064 -3.231217 -3.9732242 -3.9726186 -2.3337474 -7.1502256 -1.358232 9.286644 -5.936679 10.122184 8.017791 -4.885345 -1.9747484 -0.1079712 -10.1456175 0.9672932 0.47967094 4.356884 2.6194623 1.9508709 -3.1567662 -2.3257349 0.851472 15.434361 4.363093 5.5303164 -3.8960369 1.3579174 -3.9846807 1.5677912 -0.6802537 3.4087708 2.8733587 -1.9868803 3.1635935 -5.7778645 0.03839621 5.146872 -2.6088595 8.691379 2.1528988 -2.6989367 -7.242219 1.7422091 2.4952052 1.4124883 3.8822896 0.9258807 0.3420381 -11.255399
909722 -7.886808 -7.946661 11.212233 4.4978905 2.826317 2.308546 -6.678356 1.4489563 -11.690964 -6.071364 6.278357 8.186515 -8.151912 13.1541 0.2303353 -3.427339 -2.845169 -8.513015 -5.735248 -3.0812774 -2.7787364 3.0729516 0.295425 5.192615 3.3141947 -8.3637 -3.1539817 1.326164 -11.809699 4.457879 0.1323399 1.6108521 -0.81942564 -0.1302738 -7.2834616 8.325268 -2.5379267 11.876637 5.134705 0.5469838 -5.5914187 5.3373895 5.961654 -5.6340814 2.3832946 3.3630586 10.074144 -4.642654 -4.903796 -5.1108985 -3.7661953 7.09323 -4.3892903 2.063305 4.208646 -3.693462 -4.3195014 7.7294426 -4.762234 -0.3751734 -2.2095025 0.5104816 -5.838217 -3.6185882
907061 -5.571971 -2.421147 0.51466525 3.6792903 6.089419 -2.2992942 7.476634 8.189472 -8.497508 -18.469896 -7.6101656 7.6544065 0.6329692 1.060013 7.490574 -6.1036854 2.7588885 -1.5557075 -4.5297093 -4.443707 -7.6397786 -4.16173 -6.984289 3.3754752 8.9332905 5.6251645 -6.6206007 -3.1582744 1.854564 5.255233 -7.6936955 -2.692871 -3.170316 -3.2536216 -3.9166121 -0.20755637 -5.5394917 8.624194 7.365155 7.7652493 -8.866707 4.746121 0.034088038 -1.9365408 -2.3188448 3.1594362 7.598822 5.6207943 1.868143 0.12625223 -5.5784974 4.963709 2.9970107 4.029932 6.7098293 -8.689013 -5.4177604 -1.5399866 3.660673 -9.579771 -6.912437 -3.4717028 9.317871 2.2517853
1327771 -8.065029 4.0956745 11.675353 -0.87105596 8.036035 -9.333557 2.3356953 7.9059825 -2.9955027 -7.6388183 4.139248 13.559333 -1.1364427 2.6392868 -0.53623587 -0.9302693 -1.0960188 4.993827 -0.62150884 -4.276138 -1.8579981 -12.391056 -4.3082232 2.7596498 2.8912835 -2.9348629 -6.8334394 -2.4415371 -9.787009 9.888249 4.9556866 3.941272 -0.53400993 -2.0802395 -10.417003 3.3316061 -0.3878111 13.603233 9.67474 1.6978961 -1.442015 -2.4852786 -0.19603515 -1.7125379 -0.06998117 7.439044 2.4512393 4.535745 -1.5743692 0.96814966 -0.28869995 5.8753033 -1.4051036 -2.5464742 3.5997586 -5.715512 -4.523657 10.0499935 2.1122832 -7.0145125 -4.93797 -0.9866165 -7.8630166 8.107745
908141 -3.899753 -1.2106003 16.636883 6.362251 0.9899441 -5.830013 10.574835 3.741839 -1.0174994 -6.0596285 5.437005 7.1936255 -2.7038414 6.243801 1.6114521 5.690544 6.9761925 4.918239 3.3186448 -2.5424492 -0.35988814 -10.063247 -3.275133 2.0536323 -0.8918418 -3.805134 -4.1995025 -3.717416 -10.239706 11.6311655 7.272463 -3.9156249 -3.389137 -1.5210011 -5.788955 8.315623 -2.29882 9.949672 2.7931812 -0.44639432 -3.3642352 -2.2287781 0.45009658 1.710246 0.1775299 4.286328 -0.38966894 7.6521673 1.4492365 -1.9011523 6.7915483 8.067825 0.13933189 -0.48841146 5.605218 -4.755029 -3.7181413 12.626995 7.0073714 -10.1383295 -11.622006 -1.0016615 -1.7384363 6.4232693
908481 -0.9365763 2.471333 5.0583253 2.4722536 9.92511 -1.3930248 5.070347 10.612786 2.441122 -2.3833928 3.5779185 6.2814193 5.4351654 5.824965 -1.3552241 0.042649254 -1.6359683 -3.9472911 -1.2774962 -7.9221935 -4.98451 -5.5296307 0.7280395 1.6602163 -4.412009 2.2389767 -0.9325231 -1.9134098 -14.704717 18.50875 2.9763443 3.0988426 -0.7593101 4.800288 -0.37943178 4.013747 -1.7216588 6.9135656 -0.9736678 7.5160108 -2.3889031 -10.443015 -3.3462732 0.8038242 6.5617375 4.473263 -1.1863953 8.85038 -3.0167706 -0.03660083 1.8177748 5.005592 2.2168052 4.2153387 6.799606 -1.9899647 -7.965746 -3.698256 2.8939977 -2.196988 1.5864105 -4.9426246 -1.8753138 4.1643534
907786 -3.791247 0.10409987 18.865265 3.328641 0.23960786 -1.5295874 7.5301895 3.7527127 -7.954183 -8.4879 -1.3230318 7.7172203 -9.495801 2.8918161 -6.4523587 8.330023 -3.6773877 3.7117367 2.5568707 -4.1461964 -1.2819761 -7.722061 -4.6868286 -0.078473516 1.8706003 -3.7443993 -6.54486 -5.5471 -6.2886214 13.436292 -2.0383396 2.0913267 2.0177145 5.732927 -5.41321 8.647076 -0.5126745 7.1660147 6.00872 4.9603395 -4.499292 -3.5659275 0.6114669 -2.2441978 1.5686938 6.078227 -6.9628344 10.624376 -4.830427 -3.8123288 4.225827 -1.8468106 -6.7640524 -1.1064959 6.9291897 -3.4079492 -5.647438 7.4710894 6.9825277 -5.870807 -10.593312 4.611275 -1.057502 3.609125
753574 -8.706478 -7.097508 13.697961 -0.6634282 -1.558394 2.1657376 -5.605022 0.08381271 -6.726511 -10.498386 7.8912835 0.9544666 -3.1847541 2.7398374 -3.1303651 -5.3826437 3.7868392 -8.788531 -2.31502 -5.2810793 -1.4657444 -1.1228434 -4.3982344 4.616857 3.5062616 -0.68957806 1.4540837 -3.463776 -8.661588 6.6572137 -3.9358218 7.9374056 -0.5002164 -0.5881625 -9.087394 0.5710646 5.4214754 16.390682 5.4622073 4.5559444 -7.4795446 -1.6804987 2.0983696 -9.254049 -1.1537051 5.415235 1.0651968 -6.9609485 -1.7301629 -5.256297 -0.41177976 0.38895658 3.365704 6.602437 1.4865996 -5.7822213 -4.5743604 5.560626 1.4498615 5.118398 -2.920586 -0.6868977 1.1052676 -7.1938534
906877 -10.5826435 1.1928333 13.151704 0.7002165 3.6273324 0.2692865 4.428978 2.3102138 -2.0656455 -5.5754023 6.575382 3.0497086 -3.941303 4.219748 6.979046 1.4838456 2.4957817 -0.81823426 -5.5090933 -6.175215 -4.9341054 -4.596148 -2.1963038 5.414537 3.6303833 1.8670129 -4.6800303 -5.5138435 -9.3162565 9.738506 2.0135891 -1.0586959 3.819185 -0.36518794 -6.96496 5.6738286 -8.099897 10.259094 2.8607292 10.212505 -0.2502048 -0.5611073 -0.77175546 -1.747091 3.1094959 4.3350453 1.7997711 0.71890146 -6.3166556 -1.8021947 4.7294426 3.041866 -2.3207796 6.36567 3.8060167 -1.3868179 -3.9801767 3.2536135 1.4332956 -12.430777 -6.7108006 -4.2077003 -3.7522976 8.393592
724873 -6.8294425 -15.837582 12.888488 6.8429403 -1.1399912 4.778921 -5.09318 2.8773303 -3.5849535 -0.73253095 3.3433037 4.7370024 -1.9529116 4.9706726 -2.9107652 0.08641558 -0.4917332 -6.230626 -4.335614 -7.309113 2.2582638 8.288601 -3.268936 4.0507965 4.1686482 -3.312422 1.1991893 4.334519 -8.740214 2.1711025 0.7256471 3.338555 -2.8416624 -0.8108284 -7.230777 5.5309615 6.323836 19.891903 3.7578948 8.186278 -1.7372786 -2.3555984 -0.9470267 -3.234129 -2.6240764 1.9774636 1.440713 1.8573841 5.769981 -2.0289397 -3.9461453 2.1497817 -3.2901304 3.882762 1.0852076 -3.2328663 -2.5856533 9.563433 -1.9692835 2.092945 3.8813508 0.34826902 -2.1457918 -7.0960565
1290922 -5.8006616 -10.049353 10.181429 2.959698 1.0571579 5.936681 -4.5464373 2.0742443 -0.6214594 -6.7051067 3.8791962 4.1711073 -2.5884826 4.8900104 -3.304701 -2.4483612 2.7355218 -3.0278559 1.4490242 -4.511942 -4.4512224 11.707394 -3.8585117 5.26734 5.8470764 -4.6652775 1.1030557 -3.2187335 -6.320778 7.4855814 -7.344549 4.926371 -0.5203791 7.662686 -8.617922 0.6785872 4.370819 9.569329 2.8005912 8.396685 -4.096092 -1.0586697 -0.24002147 -7.4363384 -1.8294097 5.547965 3.771768 -0.09426085 -4.640265 0.15119278 0.7464698 3.7323666 -0.20536152 8.914748 7.160066 -9.9733925 -8.887411 5.0000305 3.299374 3.2188735 0.25389934 -4.221964 2.7642171 -4.76601
908457 -1.9508836 -0.5790714 14.6155815 5.1648617 6.7438536 7.4634395 11.729375 -1.609404 -3.3150172 -11.649059 1.8178227 6.4557467 -6.270247 4.61479 -1.4819254 2.326855 5.92729 -3.9745505 0.30906898 -1.5559974 -11.325056 -3.4506273 -11.146349 5.427584 -6.05794 0.015417387 -8.316593 2.4640896 -7.2874565 3.8121173 -4.0795307 0.5406834 -3.876788 -3.8893478 -1.1954132 13.462083 1.0930684 7.589023 4.634049 0.68245745 -5.2403708 -6.673976 0.64412636 0.16028695 -7.9097295 5.874867 -0.59310406 4.8050117 -3.3441355 -1.2207223 3.5417306 3.0466948 4.841527 8.095159 1.6250528 -0.91409427 -6.306682 13.2237835 5.838018 -9.298803 -4.324595 5.434279 1.2659981 2.5744033
905977 -2.551263 -0.8138889 10.949211 -0.36352322 5.6951118 -4.1720686 2.6542368 5.2146688 -2.3767943 -0.78822625 6.318256 10.376832 4.0932484 8.215855 0.07551413 -6.5511904 11.473942 1.3259788 -1.3459729 -6.97499 -7.6051316 -9.316109 -9.374279 5.574988 3.2207391 -2.4676492 -7.359468 -2.5324817 -11.272648 12.073619 1.8739642 1.1474733 1.9981765 -0.08581624 -2.987757 8.74842 -3.268917 6.5358186 7.0830135 -3.4058435 -1.6884432 -1.6236683 -4.6023684 6.137366 3.00037 8.702626 0.48524645 7.7159615 -3.3288374 -7.885781 -4.311835 5.987769 1.6858741 -5.372984 8.175773 -3.0260122 -8.348089 3.3705175 -2.262031 -0.2583301 4.8611984 -3.788068 0.036240883 6.586433
684059 -8.950206 0.50282156 16.875444 0.33573613 -0.96289617 -2.6259823 3.920262 -0.4303405 -6.38594 -10.513314 0.7562032 11.44076 -7.059141 3.4324389 5.55233 2.9844544 4.7580357 0.5933744 1.3718665 -1.8407748 -0.28406724 -9.018339 -2.4937851 2.0804038 2.8108206 -1.3101717 -6.6748705 -5.2009606 -10.296555 5.367883 9.363444 -0.014310109 -2.628816 0.88292426 -7.403376 8.437594 -5.8309965 13.201352 -1.0026234 3.3068817 -3.6234548 0.14098553 3.085811 -2.3141463 5.1356506 4.350621 -2.861538 1.0732454 -0.19830538 -4.6034045 8.177562 5.348854 -0.58371276 4.7012053 7.0934725 -4.744529 1.8754001 7.874463 -0.067994736 -16.853868 -12.29576 -4.3089967 -7.085733 10.285065
924187 3.4706957 -9.656619 3.7314854 2.8930695 3.3135324 0.64522225 8.293663 -0.92580986 -7.286143 -6.031929 -2.20122 -2.3974025 7.6290507 -8.840279 4.644171 2.1905775 -1.5833486 -0.59192723 -5.3956003 -6.92444 5.0281467 -3.0750844 -6.6470785 8.285861 -5.2306824 7.889024 1.4668791 -4.589032 -10.526387 8.965605 -4.406256 -9.081265 -1.221704 3.3566806 -16.155413 3.0092824 -1.2247366 0.8227405 -9.720314 7.3508863 -5.851262 -10.637051 2.5381672 -0.14347036 2.6810267 3.1191704 1.055583 4.072351 -4.5505176 1.7779359 -3.7156832 -2.953758 0.5189952 2.6018677 3.2775333 2.400716 -7.314267 4.4188437 3.660105 0.856851 -2.0264382 -8.479226 -12.835592 5.8289523
910544 -7.892027 3.803681 11.600608 -5.0761237 5.93437 -2.1394656 3.750996 7.248665 -3.797434 -12.110174 2.3309944 9.637614 -10.322085 2.1470208 4.063741 -1.4136679 -0.36407006 -0.26343796 0.67984796 -1.6274176 -4.2972226 -11.8953085 -2.1953955 7.3010936 4.1811676 1.5401043 -3.3441322 -0.24062903 -10.912507 13.599766 7.6165996 5.2199507 -6.425088 -2.0299554 -8.597524 6.3870454 -5.2256207 9.417468 -2.0117679 2.5002358 -1.4419754 1.7820541 1.8139424 -3.651168 2.0719705 2.7598057 6.012893 0.4195337 -2.418356 -1.2974796 0.19079812 3.9260874 -0.13179989 2.1924934 4.6652613 -8.602217 -5.032674 2.8095987 -1.9470695 -12.492606 -8.833077 -4.666913 -10.449372 8.804606
1298357 -9.0048895 -1.8085603 12.42295 0.7122907 -0.13603963 -8.980796 -1.8242924 4.8107696 -8.810514 -14.416455 -0.56298053 4.220118 -0.6549475 1.654497 -3.463625 2.7560258 7.939101 -2.677957 -7.8413825 -1.4286915 -0.58475363 -6.735563 -3.9785252 4.272806 -1.1061376 4.189174 -8.30535 -5.035518 3.3064516 5.5474777 1.5311077 1.228378 -4.777251 -1.4760786 -13.809815 -1.0423838 -11.965832 12.71003 0.18195044 -6.804418 2.161325 -6.2729654 -6.6640477 -6.893251 -2.7811525 14.074349 3.7580385 6.010265 -9.297712 -2.6261911 -4.3761396 1.0469788 -5.5765214 2.5831556 -0.3166017 -3.0229053 -7.6051426 1.213729 -0.90732294 -3.4037983 -6.4844546 -8.910958 1.1180551 -7.9598703
1330987 -5.379807 -0.6508122 16.57838 2.8064983 0.7162083 -6.872408 6.416478 3.0536346 -4.03663 -7.4929123 2.7685385 13.806009 -10.934886 -0.36873373 3.2840655 4.8022423 -5.511407 5.758761 2.7325685 -5.010151 0.13176093 -12.879553 -2.669185 0.6091274 3.4623106 -1.3071911 -3.8452904 -4.1500087 -7.1103616 8.863067 6.751998 0.5453595 -0.13338445 -0.24019775 -5.7752233 8.42757 -5.64227 10.87829 3.5066433 4.1885095 -4.6095667 -3.746233 -0.68723196 2.9304693 1.0092047 7.622937 -3.7610915 6.7759104 -0.8809829 -1.1864214 8.550015 -0.9538521 -4.0572248 0.746879 5.6902194 -1.9726211 -5.8972855 8.89055 -2.3037977 -14.362615 -13.124415 0.1905508 -3.485645 9.082104
1331038 -6.8671694 -3.6992104 17.175886 4.3795633 -4.491336 0.2447832 2.737852 1.9158084 -0.9236651 -3.8052502 8.361549 10.171094 -5.7324023 0.6469649 5.1210513 4.531229 -2.9628189 5.264239 2.7930288 -3.501091 -0.9319441 -10.047451 -1.5920202 6.4906135 2.9903162 -0.43661496 -5.1301575 -5.570533 -7.6995273 10.52325 3.6724133 -2.1596973 -5.18201 -3.0712135 -6.325163 10.284913 -5.0840206 10.931865 -0.571416 3.718827 -1.731236 -1.8297743 0.6215716 1.3744965 -2.8777955 9.109771 -3.0587714 6.5936565 -2.8816397 -0.9234728 4.94938 -0.64394855 -0.63623154 3.50894 9.118557 -4.741818 -3.233171 8.419937 7.266135 -12.496008 -14.528786 2.7929626 -1.1106231 5.6621118
930298 3.842471 -3.2275522 -2.1765246 5.493054 8.236545 5.0119467 2.909964 -0.49376526 -8.775905 -4.1680975 -3.8616648 -1.6213893 10.365741 0.84744626 6.923524 -6.1786275 0.8109727 -0.6961959 1.4302753 -8.453071 5.6592155 -8.185173 -9.106423 8.922665 4.180792 0.42908546 -2.5788977 -5.114084 -4.8931527 10.725509 1.3783226 -6.4286785 -3.1361742 4.6974216 -14.639751 -4.156813 1.4589881 6.9486713 -0.06329156 3.4368296 -10.079652 -16.577965 1.7986581 0.015566507 5.278352 -3.5653203 3.5435994 7.463108 -1.5917559 -1.6087521 -8.082473 4.804754 5.722691 3.7127347 3.6693134 1.6726822 -5.510369 5.62971 2.9634736 0.40355593 0.12411339 -6.104734 -3.099185 5.717266
910546 -4.2270117 -2.6229584 17.953964 -0.847092 -0.18171103 1.272864 7.239139 1.689119 -9.0568905 -9.47645 3.7468433 7.571052 -6.2816887 0.778105 -1.7950425 3.787824 2.267069 2.5157275 5.673078 -2.117061 -2.2141535 -12.186934 -6.478613 3.6366963 5.3436217 -1.7533417 -4.9158635 -1.1201216 -6.71878 13.263662 -0.20367983 -0.54927754 -1.5155196 -0.6558118 -5.8721504 13.77499 1.8626256 8.103093 4.419558 1.5867519 -6.64024 1.9498174 4.435491 -2.7923143 -6.235255 8.533377 -1.2966787 7.3439894 -2.278338 -2.5901456 0.9580108 3.073805 -5.3013124 0.034897573 7.332725 -8.324256 -2.0550816 7.5436954 5.4424605 -7.956205 -7.641125 1.1523247 -1.9878426 5.341113
749717 -1.5558349 1.4651551 4.5769987 4.040363 7.7987857 -2.040577 -1.2816513 10.4029255 2.1187968 -0.5127039 5.495685 6.0826464 6.414859 6.075842 2.3766894 -3.5521088 1.5220782 -3.645773 -4.763137 -10.175288 -3.6634774 -3.2060537 -5.323299 3.4472423 -2.5883508 -1.4862424 -8.750145 -8.388912 -6.860026 12.703546 1.1956098 5.7357674 -2.113232 3.6417575 -3.602176 -1.5631908 4.121113 13.63649 3.4168916 6.6693106 4.0720725 -8.935354 -2.280178 -6.00423 3.9369981 1.1378344 -1.0943757 10.282556 -3.5658076 -2.5458517 -4.6686044 3.3438818 0.56539017 1.8005269 5.873339 -2.7090151 -5.9347153 2.4139543 3.0849013 -2.3655834 1.5866046 -2.6054525 3.8951952 2.6213298
906855 -7.8177075 -4.6716247 16.830976 1.4565899 1.2392082 -4.531907 5.818986 3.8204963 -2.2265422 -8.616109 7.7466 3.6718464 -5.7404685 -0.69315493 -0.34112257 3.8902314 0.08870251 5.4668126 -2.705708 -3.956487 2.169235 -9.709376 -0.6868456 6.87457 4.542554 -2.5055575 -3.7901402 0.55913794 -8.4725275 9.184646 3.8434186 1.1055324 -0.7323509 -3.04947 -7.6798525 12.227047 2.449569 12.869793 8.032322 1.2520111 -5.5473027 -4.4379582 0.21240807 -5.7775702 -4.6948495 9.276609 3.4214466 1.9229295 -3.125419 4.7530274 -1.0787355 0.8903069 0.695797 -0.024955813 6.816731 -3.5323346 -5.003188 11.328551 2.923532 -4.3420362 -12.789729 1.7403609 -7.365838 5.124809
1503368 -11.601983 -3.5588002 15.195086 2.0047002 -4.460487 -1.283258 -6.1127324 -1.5354048 -4.6992183 -9.875954 5.32834 7.290941 -3.4216971 2.147594 -2.1014206 0.16517402 7.1900268 -1.6971009 -1.4313645 -3.9355175 1.5167181 -1.6268559 -5.9625835 7.9380765 4.816 -1.3190461 -0.35447425 -6.054513 -12.999158 1.6605581 3.8284953 5.1013203 -3.137194 -0.12547806 -10.03417 -0.5643939 -1.7299037 20.723598 8.649524 4.9114294 -2.9091535 -4.3641768 -0.09671946 -3.813232 1.240689 6.960948 0.08256155 -0.16859964 -2.061508 -5.9439125 -1.6746882 -0.082202256 6.0493174 6.287981 1.4007045 -3.9378698 -2.4432795 9.68856 1.9152045 0.35437515 -6.621144 1.2618278 -1.1294407 -0.27019984
753531 -4.597922 -0.85709256 4.771659 -0.060352292 3.55348 -2.420006 9.2678795 7.371763 -10.389595 -18.413998 -7.3231335 8.687587 -5.249734 2.751649 1.5881146 -2.4120288 3.8049295 1.7115908 -4.349456 -2.5352175 -4.076907 -8.960724 -8.350296 1.5137342 5.942397 3.2181988 -8.969384 -6.482095 -0.021080125 6.9742203 -9.13231 -3.1722362 -3.6664252 -0.0045453943 -6.407996 6.697522 -1.1044807 7.974113 5.469696 9.347592 -9.292058 1.2444255 -1.441099 -2.0803351 -3.2751136 5.71401 -0.13384786 6.8968854 -0.67650056 -1.5749359 -3.4401934 0.8309427 2.405323 3.9404585 9.190126 -8.205648 -5.425876 -0.36711404 5.2867446 -10.1382265 -11.191622 0.63641495 9.765091 8.573363
908130 2.2999885 -7.6834316 3.4382422 2.2421868 0.28923285 -4.42535 9.873196 -2.2689505 -7.710377 -8.07906 -2.8999245 -1.5794363 1.5628586 -6.91011 5.5582166 3.0940285 -2.8583155 -2.1334462 -3.6356156 -7.823247 4.659271 -1.3270798 -8.506324 4.1087713 -0.6525821 10.867794 1.7362444 -4.642907 -11.208885 6.3746176 -10.457117 -5.7142396 0.97385234 2.5749607 -14.725794 1.3527894 -1.8815418 2.3433976 -10.544955 3.9609566 -3.040075 -5.514648 -3.1551638 2.1624954 2.2170641 2.9320817 3.3319147 0.97474456 -5.939321 -1.9313545 -4.3492084 -3.2466507 -3.673922 0.62773204 4.592503 4.5618353 -3.3496134 1.7322986 -1.4334382 -1.9533246 -0.5561805 -8.68219 -20.32775 4.2699847
910916 -6.094284 1.4504997 1.0092529 0.37057492 9.015511 -4.0568705 6.2736764 9.648527 -7.1645885 -18.287855 -7.749541 10.223675 0.5888007 3.258253 3.8477793 -6.1716156 2.3825738 -3.4241486 -3.9754627 -2.8159232 -5.7754145 -8.03457 -8.8972845 1.7722869 6.536445 2.6079044 -7.4365125 -5.227418 -1.3092328 7.8625236 -5.833457 -2.594945 -2.602732 1.7945404 -3.6649415 0.6655604 -2.3429112 6.616229 8.780806 10.607222 -6.8521733 2.8978698 1.0727773 -1.2015259 2.3328125 5.39067 3.2670856 4.2572403 1.7802294 -2.6323903 -3.7777333 4.8934283 3.8565404 5.7477117 6.249421 -7.3942857 -7.344409 0.17569633 1.2612779 -5.688954 -5.5372505 -5.2349505 9.469198 5.8578134
1240151 -3.9243093 1.0053271 10.556752 3.269564 6.6243525 -5.8005133 -1.320501 8.102865 -2.6122246 -8.715026 -5.1389804 3.2180839 0.77694935 3.230439 -5.9102607 6.4987073 3.7320957 -1.1184208 -3.7447135 -1.8275427 1.3481966 -4.0955925 -1.7412971 5.0937767 -5.0523906 1.8633034 -1.9226809 -2.7734396 -7.0779786 8.460242 8.39649 0.0702371 -7.5995154 1.4342214 -9.53179 2.7278256 -11.185443 10.842634 -1.7274133 -2.284777 1.7522966 -11.945884 -8.525014 -5.631733 0.7263933 12.686647 2.0181613 7.5071797 -5.7945065 1.71623 -2.2868104 4.8933773 -5.1615505 8.565939 3.4077017 0.5311716 -10.415438 -0.29834318 -0.9995067 -2.840716 -3.8466573 -4.9803057 0.53379256 -6.318959
908445 -6.153791 -3.028679 11.571504 3.6090636 3.583659 -4.652266 -4.9586043 5.7252674 -7.557756 -14.131565 -3.759817 -0.24274026 -9.128245 0.34688485 -6.679046 6.3967853 4.054344 -0.5155919 -3.1560893 -1.6008968 -0.49278924 2.7265468 -0.6688847 5.8221364 1.1996732 4.5773344 0.51848745 2.9861484 -2.6904156 1.6594282 -0.89891607 5.856014 -7.0857205 3.5074904 -5.03669 -1.0627722 -9.051321 14.0309305 -0.6830779 -8.128444 1.4948201 -7.2560644 -12.4633 -9.498607 -1.9000758 11.086318 5.8868937 0.9199505 -8.434262 0.2060362 -5.2402678 -3.7276227 -2.751992 2.6591141 2.4003725 -1.0406646 -10.541831 3.046776 0.91703856 -0.47320458 -2.335207 -2.1526675 -2.5645647 -10.027965
906696 -8.912999 -8.499171 14.654007 -2.9129362 3.8360672 1.6247196 3.133817 -0.06046312 -7.0998955 -9.85951 -1.4016176 10.614605 -7.4307857 2.5247808 -2.7291033 -0.7885607 4.7033525 -5.992457 -1.2569504 -6.2728276 -4.879336 1.7356614 -7.910792 5.298499 9.643559 -2.99771 -1.5683094 8.081897 -2.6195927 5.8412976 0.29458407 4.663954 2.8206618 3.0503097 -7.6395464 10.87343 0.8536627 9.874753 8.203651 -0.48742908 -7.1046305 0.9771544 2.0436456 -4.069133 -4.6480064 6.667453 10.352446 -0.69397223 -2.722238 -1.5080727 -1.4152815 5.868016 -0.27299523 2.953941 6.9746785 -6.848174 -4.363959 8.673676 -5.8758388 -2.5316417 0.43072733 -6.3680706 -7.4281707 6.8778515
1240179 3.177061 -4.9370756 -0.8678505 6.553654 7.1006007 1.613794 4.460754 -0.7378483 -6.835425 -2.6718247 -8.275908 1.8070889 14.838119 -0.2110953 4.8648195 -6.093808 -4.2726254 -3.6917455 -2.2020962 -8.101173 6.7534504 -10.845746 -11.477666 9.431171 -0.89521974 1.5204543 -3.1369054 -5.298678 -4.033205 9.177991 1.6579585 -5.5033746 -5.1831136 4.1379304 -12.344338 -3.6069162 1.7724714 6.5962462 -0.47405064 8.247403 -8.120157 -14.735312 1.0903131 -0.09024372 4.8245764 -2.1471355 2.3001516 6.830754 -1.0546114 0.46720865 -5.6334405 5.2016006 4.9965587 8.178834 5.9297085 4.407593 -6.2168164 2.6917386 -1.3185216 2.3273861 1.2180154 -3.1841486 0.90174127 4.8684325
687505 -1.9736955 -4.2532125 9.753734 2.1541758 0.9200257 6.1972194 9.463256 0.46912575 -5.2846923 -6.6944804 -2.4084513 3.0856357 2.475166 3.432215 10.221167 -3.5934484 5.6390777 0.6159025 -1.898763 -7.0435085 2.9389317 -7.956921 -9.531951 6.7042713 5.7604413 4.998283 -4.183637 -3.37975 -3.2744958 10.473448 4.4553313 -4.3006387 -1.1039815 -1.1177244 -17.023426 -0.22974806 -4.6276355 9.368959 -2.973771 5.4953675 -7.0368643 -8.122007 0.8631847 -1.0266529 1.9694498 -2.6707819 1.4333175 7.2385077 -0.6422789 -2.2532127 0.067693174 7.9664993 0.6381014 6.829808 1.7489812 -3.7101033 -4.4662075 4.214337 -0.34639436 -8.549578 -6.4182057 -9.713977 -7.806968 5.526237
910935 -8.011638 -1.7370806 17.730171 1.7264237 -1.1115212 -4.500258 5.877759 1.895658 -2.34854 -3.5061102 4.4380064 12.0102005 -4.5364013 1.9080133 6.513833 -1.0054585 1.3579817 3.7964344 1.5461248 -5.073086 -5.854456 -10.616585 -4.304411 3.809949 2.5744216 -2.2911494 -7.196347 -3.0333848 -7.0644784 9.504107 6.479131 -0.659009 -1.0526016 -4.7898827 -5.703335 9.122225 -2.8791108 16.102299 2.4939983 2.5172253 -3.7617598 -4.6951394 2.711444 4.168774 -2.3825846 4.2962937 -3.0010924 8.377196 -0.95094675 -1.4213798 4.9063425 2.9838037 1.2682333 -0.9048509 6.2688704 -5.2997427 -2.9636316 9.024652 1.7106363 -14.686682 -13.1794405 -0.61452657 -1.3796228 5.6177125
