981 64
1240127 2.4306426 -3.5280511 6.035209 1.8426651 2.6220622 16.022366 -8.603232 6.8036957 -11.348515 2.8182068 -12.326592 -7.9789615 2.801121 9.970902 -2.319777 -6.749528 10.575034 -9.846131 1.4711884 -1.1497192 5.574764 4.6212196 2.7355387 -2.714073 9.335443 -6.573951 -2.6975832 -2.6082234 1.8377414 -9.621055 2.698016 -0.68628997 5.128045 -3.0008795 -4.4063964 -4.2142506 -1.9457252 -6.240886 -1.9169166 -5.0765996 -4.6664395 1.7906237 3.480203 -1.9120986 -4.7473745 0.2632651 1.6864917 4.8057537 1.7261894 -1.654338 -1.2064065 10.231549 -4.869291 -4.4332557 -5.74032 2.126101 -11.069738 -5.6636915 -7.01992 -11.182851 -8.686185 4.580666 -9.75734 3.7269495
906871 -8.747419 1.4680303 10.481529 10.719885 4.267372 7.459125 0.46041498 -3.3073053 -4.2448487 -7.9739933 1.6462716 6.519994 2.4285145 12.326238 3.5137296 2.9266887 -5.4630957 -9.440917 1.5377339 0.4382801 -0.61285037 11.199184 7.729024 -8.816906 -3.9065611 -2.7293062 -15.679904 -4.7619486 8.337813 -3.3487225 5.650839 10.753626 -6.5698547 -1.2807035 -2.9888875 11.093656 2.951263 -7.7024107 11.79182 -1.2573742 -4.8835354 4.324851 3.205459 0.23107049 -8.551919 0.9099528 0.5754714 3.4508739 3.1424816 -11.146077 2.4829044 7.2940273 -7.131858 1.081471 1.2626438 1.1503308 3.708946 -0.75223 -1.0127923 -4.7636743 -4.5478096 3.1746244 0.12925227 3.6023583
907794 5.889115 -5.27252 14.847971 -6.3180885 -0.80415076 7.279538 2.1484847 -0.8476933 -0.7706846 -0.23109367 -0.9872981 -3.3086653 -5.965165 8.454588 2.9087715 -11.726839 3.3143544 -8.069667 -2.661336 0.26212454 9.414068 2.1375856 2.751669 -7.538163 -1.5951508 -13.000095 4.406892 -0.65631497 -3.4625194 -1.3609624 1.522637 5.886501 4.025173 -5.0078273 -10.668549 1.150816 3.2356381 -7.9420977 8.34076 -3.7368774 -0.7023959 -2.3017387 -3.6786218 2.9972827 3.3346438 5.9686236 -3.6397364 0.90971893 7.5051117 -6.1845217 3.4782073 10.44865 4.286593 -3.5787911 -4.86404 8.594265 -1.2067648 -4.649988 -1.9121858 -12.607047 -10.49885 9.842586 -1.830308 -2.2972755
1240208 -8.859365 -1.140524 3.1029725 2.8175068 5.405681 11.640727 1.5390235 10.27769 -6.0849633 -8.395677 0.23050475 -2.8077743 2.2549784 11.176745 1.8808361 1.2333026 -10.974038 -7.1625376 -4.4068227 -2.1526737 3.0733962 4.3821177 7.0832605 3.6752348 0.9148511 1.3820304 -12.064039 -3.583606 5.7864647 -8.612416 2.1175375 12.747033 -3.2411246 -0.5812415 -2.9944978 10.301947 0.41976088 -5.123831 4.6930075 3.2430124 -6.3312325 -2.1961462 1.8098164 -2.53182 -1.1878787 0.52512234 2.875187 -5.4457946 6.434512 -4.8635564 10.406156 1.5821159 -3.9139924 5.7826314 -2.9129424 -7.0444236 -4.1303725 -3.7682283 -2.2941923 -11.769239 -4.5373893 3.0001583 0.93963134 2.9328384
905958 4.18506 -3.3600643 8.828717 -0.6272122 1.5009027 0.5640072 2.861095 -2.2892997 -14.471592 -8.830611 -0.18603143 -4.7216125 -12.271183 3.4886997 1.1582212 -5.0987134 -2.486334 -4.712885 -2.2281854 -3.7691932 1.361729 3.6614425 3.2626615 -2.3482454 3.7546122 -7.5032825 -6.8201423 -6.638961 -1.0610225 -8.32375 9.125625 8.289909 -5.962094 -0.82696307 -5.806547 7.9824905 4.86495 1.8871266 6.3732133 2.4898608 -6.5096283 5.33426 -3.540013 -2.0137773 -3.4352055 1.0039542 -9.007712 1.7518127 5.2765684 -9.366547 5.277105 6.399484 -2.2197702 -4.793287 -9.149215 0.35841483 -4.294473 -1.8253249 -5.6539607 -12.655461 -4.2268724 6.9158874 2.836307 -6.886523
910781 2.8100252 -6.8184915 7.408844 1.5402662 -0.3772721 8.934319 -5.0460668 -5.156518 -10.376086 3.5699089 -13.430606 -8.313346 0.141109 14.313713 -5.016404 -8.243696 5.7509704 -4.773625 8.253864 0.68552166 1.6699153 9.083343 0.05260626 -5.820616 11.524476 -3.4836478 -2.8091512 -5.2403812 -1.9662138 -11.971259 2.9136655 -1.6049467 4.043834 -2.2896101 -5.019422 -8.880733 -4.374991 -6.8875475 -3.954887 -1.5087836 -4.636068 5.680441 2.8595066 -1.6451336 -2.5894656 4.357108 1.2210479 -0.51458365 6.671612 -4.901419 -4.8959107 7.667441 -5.214251 -10.523025 -6.581298 0.95029604 -8.620471 0.3350368 -1.7847093 -1.7411267 -10.288084 8.279912 -3.939131 0.72817916
907042 -3.820747 -4.7822714 12.432559 10.74887 0.26075116 0.018979948 -0.43697566 -12.626034 -5.2570157 -1.0465529 3.3030372 4.0996947 -0.69565445 10.333855 5.073383 3.9871101 -3.6617155 -1.5891196 2.6123223 -4.581699 -8.511849 9.383053 3.1735263 -8.967023 -3.9439015 -4.419643 -13.9767275 0.14591055 8.728874 -4.775487 6.417973 6.612287 -4.914391 -5.2397614 1.0308545 7.8115077 1.4549373 -5.717699 17.099684 -2.635866 -1.9676151 6.8125687 1.3682883 -2.078711 -7.7746267 5.8614874 -1.4086703 -3.3035333 3.0987544 -8.103923 -5.738752 6.335205 -6.359619 -7.717115 9.833124 2.3109822 6.6563206 6.102447 -2.6793032 -3.7097888 -3.6753623 2.729704 -1.2413193 3.0386329
1659823 6.7431874 -1.9013367 14.501179 -6.156453 2.3940914 9.376669 -2.278543 1.6549714 0.72809684 -2.1017494 -2.56702 -7.952476 -0.33855602 4.8113933 -2.575785 -10.077724 8.259471 -9.040381 -1.8282586 -2.4696543 7.6244025 -1.3889638 3.0608425 1.3190411 4.596301 -9.707702 -0.40019032 -2.19032 -2.6659393 -9.143184 0.746988 -0.5939098 2.4182775 -2.909538 -11.732207 2.0798638 -0.13768834 -0.08013716 3.1663163 -3.9838097 -4.5549865 -2.8588898 -6.545943 0.29181537 5.951847 4.024365 -2.7121518 -0.3447266 6.5737476 -7.9989614 4.4211454 11.682553 3.41191 -1.2921644 -5.2853303 6.8898735 -5.693491 -6.321864 -3.433925 -15.327827 -9.713442 4.630162 -6.644446 -1.8504268
907051 1.3478851 -4.429046 3.127472 -3.2085876 2.6323643 10.72938 -9.024103 1.5073164 -12.027452 1.8279636 -10.516463 -4.937076 -0.44046834 7.214319 -1.982548 -5.68767 10.291338 -5.513056 6.2854414 -1.0768101 -1.4595073 3.5865753 -0.98421746 -4.502907 10.572347 -1.6071332 -1.9164995 -3.7706447 -2.649686 -10.161363 6.3803897 -0.3153314 4.9752445 -2.560654 0.4898426 -10.020091 -3.600489 -8.6893215 0.5087732 1.6938716 -4.2972283 4.5542345 8.376053 -7.508131 -1.0883597 1.545263 -1.2229099 4.237661 0.32571602 3.0374618 -1.9374893 10.897904 -3.3464267 -8.733411 -7.161929 0.16852772 -8.545088 -3.987097 -2.8705 -5.3194895 -5.5450726 10.837359 -10.1556 3.4505825
906800 2.1819594 3.2649806 10.042275 4.7555356 2.346316 -2.0434115 6.715225 -8.855036 -12.156067 -9.894645 3.0118253 -0.16963626 -12.547687 8.365564 1.0115862 -9.279695 -3.8257039 1.8922088 4.161566 -2.5072 2.3077283 5.953167 9.110896 -10.398182 1.8236347 -7.7596684 -3.8188562 -5.6677423 -6.6146994 -4.6135364 12.712774 10.0766535 -4.3812885 4.1127915 -9.660766 9.62801 5.5493655 4.680521 2.621681 0.4326428 -5.2027903 7.968295 -3.7006478 4.528969 -7.071944 0.5874316 -8.309078 6.3785963 1.6843352 -10.164596 0.43175092 3.730853 -3.8826427 -5.631682 -10.303231 0.7860672 -0.18406765 4.3116364 -2.5679524 -6.7494817 -2.062628 8.35625 6.186703 -11.880396
908129 2.5535653 -5.04822 3.4294014 4.4955297 1.5680746 9.79581 -9.571901 -2.5090306 -14.008304 -5.0590467 -9.033505 -7.5872407 -1.1407174 8.452917 -3.7858248 -1.9871367 4.194136 -5.870237 6.7462826 1.5285772 0.7972341 10.080181 -1.1618152 -5.5981984 12.90254 -0.57157546 -4.7982574 -6.4563594 -0.049159933 -11.724061 2.6396532 -1.9182808 3.1841302 -3.216697 -3.9528608 -10.82348 -1.4279145 -6.255741 -3.646461 -2.3030517 -8.710039 2.9133658 -0.09929611 -3.3840058 -6.083119 1.5622308 5.1100955 2.559207 2.0896068 -6.446151 -7.981343 8.584767 -7.4251447 -5.1850286 -5.9617553 -1.5466332 -9.471162 -2.652963 -3.2281961 -2.672544 -8.529686 3.33186 -4.9659395 2.4533844
687815 -5.6191587 -2.0495636 2.6660416 -0.22928502 5.7407694 11.594731 -1.6726922 8.51848 -11.076146 -8.037503 -0.95817375 -0.5646256 0.5663779 10.459363 2.3820972 1.3602071 -5.306714 -8.286153 -0.9923028 -0.8730387 3.5687222 2.3897085 5.295942 4.324338 1.7263092 4.4173236 -9.326776 -5.6317406 2.282151 -9.948551 3.7899008 11.842591 -0.56908804 -1.6881313 0.6473139 8.536206 3.6121216 -2.9219642 3.8374193 4.2436347 -6.1244984 -6.293643 4.4271865 -0.67458045 -2.5264568 -0.65627146 5.9154954 -7.3898997 5.0747824 -7.856958 12.037719 5.1042795 -0.09396073 5.8637996 -1.2441808 -5.3303 -1.8143414 -1.0031288 2.3938699 -10.6951885 -3.260581 6.037277 -0.46903923 5.792694
909735 4.6198897 -7.1173882 8.648633 2.4737818 0.5720546 6.560453 -6.113033 -3.6041908 -15.769829 2.3458562 -10.625974 -5.9345655 -1.0244951 12.085852 1.4657481 -6.4223833 3.5530064 -1.7008137 5.974422 -1.6062597 2.1147997 8.724072 4.1257677 -8.576934 9.899344 -7.0494666 -2.7050679 -6.667588 -4.243865 -10.862892 5.2821937 0.7206188 2.2045512 -2.892061 -3.6121578 -7.1816063 -2.6025684 -4.315235 -0.6863043 -1.1111977 -4.903207 8.120305 2.1256118 1.3744344 -7.152935 1.1592672 0.5391819 0.0154778855 2.0509498 -5.7059336 -4.553064 8.880997 -8.5817375 -11.633544 -12.165685 0.22917154 -4.4541116 1.0627677 -1.5088362 -7.669346 -2.6211417 10.352114 -4.5174313 -3.1907969
907272 7.251529 2.788104 11.146758 1.043001 1.0933274 4.1904607 3.620337 -6.519638 -11.099867 -8.645123 5.3396173 -0.99386275 -13.03729 2.915597 -1.3416666 -5.1628885 -0.5673105 -4.746122 2.2175167 -2.9664536 3.677323 4.549896 5.0359554 -5.663773 5.2715225 -11.713059 -1.2196453 -0.21491072 -6.9747834 -3.1274552 13.759126 4.3725915 -6.047562 2.6541624 -3.4831524 5.251668 6.797859 -1.8646857 5.7917666 2.3229475 -6.5865693 6.294023 -4.226309 -0.20406456 -3.5517676 -1.3189751 -10.28703 6.8976483 4.201936 -7.6754303 2.2199697 3.158077 -4.7290416 -0.6223493 -8.415916 -0.8082458 -5.9052825 -1.1579355 -5.2098184 -13.718015 -1.9085017 6.833712 5.299415 -5.0762415
909737 -4.721247 -0.9489103 7.323301 3.5912485 7.66671 9.360288 3.08031 12.975736 -9.379967 -8.046441 -2.7389536 0.07898518 5.5977793 11.121564 2.9504294 -0.36211783 -9.362892 -5.404016 -4.0697985 -5.274907 -0.21193592 1.7735361 4.912689 8.299901 4.297094 0.55471283 -9.263387 -8.286248 -0.2021289 -8.557739 4.4786415 11.913219 -0.7358448 -1.1745374 -1.8837699 5.9988585 -1.4063654 0.09577408 1.0366619 0.038930032 -5.6815367 1.3187386 0.9339874 1.0947323 -2.8421314 0.14664812 4.046228 -10.861277 6.4107823 -5.662286 10.810477 1.2791423 -1.0376328 1.6223321 -6.8839526 -8.021463 -2.6839018 -3.6206207 3.608161 -12.534657 -6.7930136 3.413412 0.9705765 1.7471126
1298362 -11.941094 -5.766634 2.848982 -2.564473 7.8202505 7.535252 -3.9306407 3.300844 -5.2032137 -7.8403134 -5.710589 -0.010859191 -5.972536 12.477225 5.9835286 -1.5727895 0.4427999 -3.8282635 -2.5706747 -5.447787 0.8075007 9.469373 1.590572 7.9072347 -1.4970751 5.3358707 0.90042317 7.6708307 -1.2500974 -12.793863 1.2648549 9.7500725 -2.6156895 -4.9270706 -3.8583763 3.0838985 6.6338577 6.734712 5.9338737 1.264687 -0.5440547 1.6491117 0.87500274 -2.4013875 -6.5295305 7.2578864 4.0713067 -11.433423 11.403814 -9.836113 11.526848 1.3124595 4.078884 -2.1038742 -1.5243634 -8.374447 -4.0072846 2.353344 5.359291 -4.6894903 2.036772 -2.1615238 3.6641228 7.122508
910944 3.4154134 1.6922874 9.271181 1.4131165 0.7375126 1.2110679 6.9842176 -9.891414 -17.614866 -7.1783648 6.859653 1.066372 -13.828177 5.0479255 2.591043 -4.51406 -3.1326382 2.3981876 4.3753858 -3.134522 3.576379 7.2144666 7.8947043 -9.252754 0.27275634 -7.036552 -1.4039035 -3.3739529 -7.5759254 -4.002424 13.52668 8.119958 -3.103284 2.0793102 -6.9370008 7.4223766 5.139047 -0.15807536 2.4845638 -0.018838564 -3.9174352 7.105672 -5.4229956 3.6290529 -5.2694387 3.731367 -7.7220097 5.5976796 2.7116168 -11.654143 -0.49093676 2.1556616 -4.6321707 -1.7354702 -10.873077 -3.0741665 -2.3671026 3.864449 -4.823897 -11.005805 -0.83508855 8.311801 7.8994107 -6.8552637
1331036 5.403628 -2.9804819 9.493675 4.7680545 1.8663627 1.1929462 5.014111 -6.750993 -18.4216 -8.516004 0.48067322 -3.4953015 -15.067251 7.069137 6.975005 -1.8128783 -5.391184 2.1176934 4.892504 -2.9425013 -0.63523126 4.2994366 5.4008355 -5.742642 3.947055 -9.641891 -4.1019297 -5.3766026 -8.017555 -4.791009 12.0191555 5.145624 -4.067574 2.4340858 -4.4734554 4.674758 6.2060485 0.20757318 4.166325 2.8395684 -2.2307982 10.727099 -4.1334987 4.859212 -3.9649138 0.72469753 -5.4514103 1.961575 4.227699 -11.1827 2.232848 -0.17257407 -6.05547 -6.721989 -11.0851755 -0.997823 -0.6943635 5.1147366 -2.6234996 -12.0399685 -0.19199523 8.167537 6.4022527 -8.021298
1323913 6.6741576 1.4969418 9.259794 2.4510112 3.6485515 -2.4564216 5.0500355 -1.5879877 -15.508379 -10.093095 6.4203854 1.2690923 -11.841459 6.3749228 5.0928698 -4.487734 -7.93791 1.7814733 5.5355043 -2.084985 8.902851 9.209004 7.0424457 -7.840392 1.6071997 -7.801986 1.8708793 -0.21243511 -4.0359354 -3.1233118 13.350166 9.782402 -2.9900234 2.4640453 -6.551079 5.2440696 8.326241 2.1236649 4.4880056 1.7658932 -8.326088 8.031295 0.15056974 6.2014103 -1.4352823 -1.9951392 -4.9396033 1.6060265 1.8035259 -11.83704 0.12710652 5.7562656 -2.9392695 -2.471976 -10.460169 0.6001309 2.4009595 0.6873714 -1.209568 -8.380848 -0.107856706 4.963748 8.659769 -7.150401
1295740 4.144383 1.8225738 9.1008835 3.213497 -0.9097782 1.2311226 5.5483413 -6.605621 -17.052387 -12.3255205 8.27206 0.09028047 -12.31135 3.8661962 0.32933608 -5.1280074 -3.6883037 1.3367401 4.416994 -2.2551994 4.4762135 6.5824747 6.219472 -10.884883 -0.05238819 -7.232761 -1.514895 -4.915608 -6.157596 -3.773539 14.2571535 7.428518 -4.344296 2.3252623 -6.692409 4.955049 4.0728726 1.400606 1.4154079 -3.6444976 -5.2882867 5.70016 -4.5694423 4.4131804 -5.926489 1.4122429 -4.899156 5.5604014 3.838981 -12.91414 1.7486837 0.7783404 -0.7995829 0.1172147 -11.89353 -0.23588209 -1.5317161 3.0525644 -0.3452035 -8.341877 -3.5654187 8.189161 6.1046963 -9.589931
1240123 5.149483 -7.428684 13.98992 -2.119312 0.7365731 6.197839 1.0331827 -0.6919958 -0.7885838 -3.0492377 -4.760794 -2.1506324 -2.6358862 8.360603 2.5827148 -7.461283 4.1374903 -7.931116 -7.389301 -5.5163145 11.244897 0.04711014 0.64952546 -2.6896546 1.468299 -12.806402 6.937083 -3.5555465 -10.529028 -5.165844 -1.3718656 6.2248135 0.94031346 -4.818097 -11.4858265 1.7118531 4.9327097 -3.3328123 7.920585 -3.1690462 0.27674246 -5.6244254 -6.6991673 0.587811 0.5676939 3.0389984 -0.48107198 -2.8524003 6.7867303 -5.677122 3.9878962 14.139851 -2.0308664 -6.5980635 -7.4478564 0.70623285 -3.9127233 -3.8552725 -4.289258 -10.35011 -2.4968143 5.3313303 -7.1388474 -1.7971046
908122 0.33746052 2.8070662 5.159245 9.770897 3.1437302 8.229761 0.9028763 8.675912 -11.282306 -5.416764 -4.136495 0.9729828 -1.4422028 8.88948 -0.7911547 3.4249315 -3.748727 -5.414631 -3.7762575 -2.5747793 6.7233405 3.5186992 4.214108 8.786598 -8.601173 2.6013443 -6.826958 -6.475615 -6.4093246 -12.082789 2.767481 7.018052 -3.1207337 0.515834 -4.3247533 9.929715 5.302402 -2.2803257 0.8026788 8.43305 -6.442838 -2.4397347 -1.9754375 3.5909762 -4.6492023 -4.468035 -1.6220192 -1.546171 6.4271946 -9.331391 9.11093 6.7762165 -3.225464 4.0128884 -7.275762 -4.766954 -7.3543572 -3.3479373 -1.3453441 -12.320439 1.79474 3.1496668 -1.7631785 1.5339278
908156 2.5577357 1.2703743 8.974742 3.7838871 2.9021914 -0.3994703 8.075069 -8.367757 -16.211737 -8.110159 2.2783744 0.4552481 -11.698154 8.517799 3.4854412 -7.460773 -3.9139054 4.8322954 4.593939 -1.967633 3.0950773 6.5804567 9.042017 -8.666634 0.7028545 -7.1546717 -2.8152766 -6.4483395 -6.7561064 -5.196923 11.770522 10.126577 -3.9010792 3.76617 -9.1605425 8.676016 4.821903 5.1646967 4.9593077 -0.56221986 -5.1721516 7.4804134 -2.3138747 6.524461 -5.256257 -0.8669321 -6.9296885 2.2601764 1.3000282 -12.257966 -1.39619 3.170889 -4.8041325 -6.273159 -10.834689 -1.0826828 1.1864101 6.3123007 -1.2662627 -8.7996645 -0.41413018 8.835453 6.0486426 -11.489413
906856 3.0804918 3.4697893 8.903599 3.714523 4.8457828 -0.062290713 5.9558625 -3.3952534 -12.506836 -12.802608 5.271833 -1.0438632 -9.661047 6.8475766 4.4371657 -7.6185703 -6.276003 0.7237304 0.54767936 -4.445897 2.653533 6.0951185 7.54091 -6.405095 4.3122473 -8.238178 -1.1827868 -2.704719 -4.2017283 -4.3238306 13.085561 11.609607 -3.8174932 4.859072 -9.535037 5.408705 3.0763755 4.9788895 2.7534761 -1.615145 -8.704472 6.0360403 -4.368086 3.1213531 -3.7401397 3.6174583 -5.6535788 4.8892303 1.3672818 -10.874941 -0.67680997 1.838113 -2.7340267 -7.647364 -8.878672 -3.7905545 1.4762676 5.2733436 -2.102529 -7.692573 -2.395775 8.785476 6.1339793 -13.057654
909256 2.0482366 7.774762 11.471788 5.9388413 1.6873581 6.0290017 1.4223385 0.8432786 -9.823922 -3.8432117 -0.46568045 0.92230505 -4.5622196 13.227061 -3.7513962 -0.6523422 -4.758774 0.09420639 1.7768348 0.24654244 2.4760413 -1.2737899 5.971721 0.7937173 -10.404214 0.99872106 -9.889463 -5.8639593 -8.218424 -11.702559 10.995841 2.0445147 -5.180428 2.1205192 -6.649509 8.431515 2.534157 -1.7873297 5.6798925 7.121951 -4.920283 7.2031574 -0.4586447 11.095346 -6.073182 0.20165555 -0.50651747 0.9539176 3.9148817 -12.934188 5.3626966 5.8511786 -1.8914149 -1.7026464 -7.371676 -2.4417787 -1.6237588 2.3783236 3.296564 -14.838118 0.71107566 8.685939 2.2797945 -0.17869554
909750 -10.397793 -3.2895753 5.720975 9.813179 2.6862378 6.4491634 4.4798822 4.597828 -7.5510917 -6.699551 2.7078955 5.469819 3.2212708 15.892466 -1.8654675 0.8654097 -5.205378 -2.7193778 -0.8956343 -6.1000323 -1.5421214 5.589042 4.613284 2.8873513 -0.032707382 1.1974831 -13.751277 -4.394134 9.085915 -10.692603 -0.46587682 11.264583 -3.3465185 -5.20319 0.19924049 8.307561 0.72270346 -6.699314 11.324892 3.0895293 -4.1312585 1.2826517 -0.7772758 -4.5396643 -3.489236 -0.062535375 3.032718 -9.028298 6.5729647 -5.0427604 4.371022 3.803802 -2.9123452 3.3315396 3.1270096 -1.7195277 -1.6457225 1.6983856 1.474231 -11.83775 -3.6771379 1.6968669 0.519964 6.101521
906763 2.869657 0.1628742 5.1228085 0.193805 0.7975426 2.3123617 0.9720316 -4.6731434 -16.808704 -10.398263 7.170991 2.3876998 -13.553873 3.4979098 1.5967727 -4.1240797 -0.29881814 -2.5116436 2.8083503 -4.6999807 2.7784548 5.505309 5.239334 -6.1253796 1.8129834 -8.847543 -1.3847705 -4.3919144 -3.922797 -4.0795064 14.03603 11.16814 -4.70602 2.4567847 -3.3912582 5.573902 2.1543417 -0.12820114 1.0522158 1.7853466 -5.31964 5.120175 -2.841006 -2.1181154 -6.3863425 1.0889459 -9.036911 7.20332 4.8685484 -9.391885 2.7274756 3.8200784 -2.7519476 -1.6043358 -9.358042 -3.2709718 -2.9677174 0.6699909 -4.2238865 -10.294534 -2.850046 8.139292 6.4589896 -9.669658
908139 -8.109011 4.670176 3.69769 -4.2437687 -1.327727 4.9000216 9.759574 12.092798 -1.9650825 -1.2184532 -0.010957334 -0.3575295 -0.91324013 -4.072437 0.60849386 -3.2541385 -5.973078 -4.5508175 -6.0543256 -4.520935 -2.9638312 3.7938075 1.3205774 -1.4355253 -3.153079 1.6585817 -6.6325045 -0.027817737 -0.44837737 -14.783452 5.1294713 4.4182267 -7.212601 -5.1372695 -9.996166 -3.3828645 1.4167912 -1.6366459 7.8778324 -5.231286 -4.9981236 3.218902 3.822065 -6.7394223 0.91468155 13.4617605 6.5465612 -3.9860733 0.4425988 -13.3359 -0.81069386 -1.3298222 -5.7087436 -7.7526712 -7.3734984 -5.188878 -3.19196 0.66405994 -0.60006016 -12.901461 -0.9568213 9.526393 -1.9861597 10.160755
909702 8.064872 2.5250263 11.865835 2.4605687 0.48212928 0.36019012 2.8649864 -4.837344 -15.486104 -8.203721 6.100084 1.7902536 -13.694557 5.775507 1.1454117 -4.3309517 -2.5167048 -3.120421 1.6268489 -5.257883 3.422927 2.8123674 3.7848866 -4.626714 4.075302 -9.839132 -2.150946 -2.742349 -8.492306 -3.7171204 13.024034 3.9555335 -6.6004405 2.0329225 -4.317492 1.8721919 7.277511 -1.6565548 4.016282 3.881342 -4.103168 8.57237 -3.4830987 3.3947215 -5.667187 -1.3475097 -8.127916 6.286311 4.753088 -8.890707 2.9961607 2.5876942 -5.5223117 -3.6316564 -11.698065 -1.0256754 -3.8432136 0.7242926 -2.7084072 -11.069315 -1.0175737 5.5732555 7.0522833 -5.3162947
907062 -9.222359 -4.520013 6.3446317 -3.9521043 7.7386417 7.3373113 -6.950131 -4.531533 -8.906142 -6.0565696 -5.139729 -0.19930756 -10.105565 8.754961 7.3675094 2.369431 1.2724903 0.87124956 -0.41495886 -2.1578016 -1.2828567 10.530725 1.8650681 3.9281943 -6.100035 2.041992 -2.627588 10.790352 -3.4929435 -12.828222 0.200514 8.027172 -1.1366804 -3.6462324 -3.6201212 0.24992608 3.3017406 3.1793888 7.6893115 1.5430456 -2.7525418 4.028461 -0.93058735 0.26000437 -8.387738 7.584516 3.9314249 -5.7358665 10.638501 -13.47546 9.874031 0.6520722 0.9827984 -5.3091855 -1.9047002 -6.389373 2.1549802 -2.025822 3.2988842 -5.389286 3.5163918 0.47662133 5.058443 0.9619755
907055 0.6014292 5.5255885 8.421535 -0.19875215 0.39976355 1.6461179 6.828855 1.4830692 -12.202653 -1.2407824 -3.2479548 -2.18561 -9.412381 1.2279687 1.1779002 -3.3235173 -5.5072083 1.3915733 -2.5612242 0.7713915 -3.9380262 4.011501 2.56195 -2.542317 -2.4178438 -0.9052243 -6.9623775 -0.4342917 -4.457446 -14.823988 9.196497 1.2735184 -1.8674344 -3.1047392 -10.774595 -1.0769365 0.21896112 -2.0045006 10.064457 -2.9857118 -8.053222 8.141962 0.10086824 0.26392654 -5.4564595 7.1823783 3.9572506 -0.68858814 0.39753586 -17.02901 -6.2837434 1.1676086 -7.6999965 -14.791591 -12.579502 -1.319632 0.09478561 6.365978 -2.3200097 -14.351992 0.8896004 9.338807 2.3104532 -1.0812289
1331037 1.1676444 1.6888511 10.327688 6.9115553 1.4892845 0.72168714 7.4507985 -6.5960193 -12.209968 -10.488347 3.9556854 4.45473 -13.397011 7.517925 1.0003873 -7.316363 -0.9888627 2.1403224 2.5697334 -2.8599594 1.2459239 5.724385 5.262632 -7.2045946 1.9895343 -10.574825 -3.4866958 -7.630526 -8.833016 -2.1588194 12.31648 8.321801 -5.1872997 0.976731 -10.278051 5.508607 6.22025 1.603029 3.369909 -0.8786417 -2.5130367 10.749307 -5.472671 3.5311427 -8.100042 -1.0982542 -5.595386 7.0046053 2.313226 -9.714508 0.2640239 1.1765991 -3.9672234 -4.1536436 -10.961575 -1.3991325 -2.9527194 4.1945252 -1.0861266 -9.212035 -4.4351935 8.328213 6.2104535 -7.715483
1240174 1.7808998 -3.2691844 6.0187893 1.7730076 3.4276817 8.517664 -9.124378 -1.56348 -7.3278503 2.3060608 -11.979275 -7.339061 2.8295212 9.599115 -2.3071666 -8.271467 7.873675 -5.520542 6.807064 -1.9460864 6.0294137 6.3482456 2.0081344 -4.414599 11.489341 -5.3475814 -0.99433416 -2.4760034 -4.011895 -8.397769 1.4427598 -1.4992056 4.1854367 -2.2661893 -5.661429 -7.1915827 -3.0050583 -6.0812106 -3.291469 -2.2511415 -4.260275 2.1675575 1.5412536 -3.4735806 0.91993856 4.209942 0.8430545 1.4439775 1.8098154 -2.6679 -5.1925383 10.26149 -6.0355124 -8.542708 -7.523865 -0.005908485 -8.686122 -3.0769656 -3.3928742 -5.54999 -7.1876173 10.170632 -5.431164 0.6690656
910706 1.6877253 3.6754649 11.518399 7.8829565 2.6145585 0.04676496 7.817542 -1.9598756 -11.658545 -7.8572254 3.085088 3.052786 -11.231787 8.576344 1.4685698 -9.191195 -0.3447989 -1.0761845 5.0853972 -0.82032967 1.528228 4.839127 6.349969 -7.9384427 3.2414536 -8.54613 -2.8026683 -11.185929 -4.9291134 -3.7064872 12.810468 8.616316 -3.989063 1.495057 -9.513973 5.297674 4.2396445 1.2759184 2.5753095 -0.079143524 -3.4286761 8.73661 -2.0823095 5.7840815 -5.4797835 -1.5565621 -6.479767 3.8431323 2.19448 -13.605381 4.256091 1.9220653 -5.060902 -4.3753605 -12.000809 0.36046526 0.88417757 3.8196404 -2.8794649 -9.619734 -5.489217 6.0654707 5.1692204 -8.814114
905984 -1.5124791 -1.8464562 15.58882 11.2767515 0.247308 4.0280733 1.5707821 -12.223876 -6.648712 -4.4871764 5.1252437 4.2869053 -3.4825878 8.722053 0.9076085 3.3553312 1.5747327 -7.6205053 5.870454 -1.9585271 -1.6317999 7.8794417 4.7336855 -6.668804 -1.923244 -2.5478313 -14.077084 0.019460833 13.323237 -1.2786458 3.8077755 0.9124863 -6.51003 -3.1065109 -5.135628 7.497064 3.1920197 -3.2501311 11.283211 -6.217895 -0.45550638 4.973817 -3.0655594 2.3032913 -11.807919 6.463541 0.44390142 1.5996253 4.1181164 -10.754134 -4.9380355 10.51039 -2.7120934 -7.505184 4.7784786 3.7737913 5.1088443 6.061212 -0.5712369 -0.3357092 -5.5264945 1.3637493 2.8274848 -3.7342055
1297446 7.6438055 -0.7675635 10.289106 8.545135 -0.7067777 1.417536 1.3602097 -0.53097135 -13.633194 -6.947155 1.9846971 -3.5994046 -9.302909 4.8265305 2.0665433 -4.0709734 -1.6317127 -3.004594 3.7782607 -6.2170134 2.8504496 3.3530428 3.8045444 -7.2704654 1.6863961 -10.605873 -2.645443 -1.014743 -7.2270155 -0.8519112 11.931937 3.2151344 -4.8856874 -0.6452395 -3.1805139 -0.6982186 4.5432057 -1.5978401 1.1456372 -0.029102538 -1.116657 6.886725 -7.097958 1.5355196 -2.3984048 4.0285435 -6.3637004 6.76548 6.2630744 -11.611684 8.8810625 0.85294986 -4.6162686 -0.8888415 -11.501601 1.2422513 -2.151444 -1.2789856 -1.1244683 -11.662886 -3.4236388 7.6616096 6.157581 -7.048379
909715 4.2787924 3.8389738 11.132628 7.689052 2.4826202 -1.2604622 7.3641067 -1.3315791 -12.507056 -8.161428 5.061523 2.8756344 -6.4969034 8.955172 3.586515 -8.689479 -3.057541 1.4822203 3.5532913 -2.3950653 8.536557 7.8379054 7.161318 -10.77438 -2.1289647 -7.190857 1.6597419 -3.161009 -7.7917943 -3.3830955 14.586234 5.7982354 -3.4976554 1.0730782 -7.5713143 2.676284 7.539387 5.0729513 2.616909 -1.9654026 -4.0983615 10.095627 -0.34005216 11.223932 -3.0644164 -3.8576705 -5.597801 3.370059 5.9027047 -15.008695 2.4990647 0.3139251 -2.4111419 -2.2598324 -11.52921 3.310743 -1.8217964 1.0504358 2.6963923 -6.9848666 -5.6387205 3.5593743 7.9882183 -3.0999956
753548 5.19905 1.4777553 10.180523 3.509688 4.656387 2.208938 5.850123 -4.1573324 -8.989533 -9.383958 2.9101076 -2.9807258 -7.886308 9.64655 0.98665226 -9.54059 0.20800073 -3.5518346 3.8766692 -5.2487326 5.2458467 4.7520156 5.915107 -7.7083817 2.619568 -9.076449 1.1368842 -4.6405134 -6.6315503 -4.934461 13.101264 6.9072466 -4.52144 1.8509666 -10.2746725 6.7408085 3.3063447 2.7132373 3.8556092 -1.881487 -7.8903265 5.166018 -0.6273749 0.8755062 -3.9300454 -3.985795 -8.190001 6.1354294 0.61928546 -9.207823 -1.0904454 9.2684765 -2.9855587 -4.638518 -10.713166 -0.08884086 -4.9655952 1.266832 -2.2891421 -8.106777 -2.672493 6.145763 3.1660943 -8.260186
908443 -3.896191 -0.25939023 5.587442 1.9486816 5.977104 9.536821 -0.4043781 4.0455403 -12.635955 -11.625415 1.3657502 -2.2116697 -4.0749316 10.744671 4.410196 -1.3375851 -6.317449 -5.91748 2.05599 -4.671633 4.275774 2.3453991 6.0242095 -0.61931574 4.654187 -1.8747491 -4.818054 -6.4776263 -6.9179115 -4.3560257 11.914392 9.928767 -0.5096901 -0.17482789 -3.536095 5.3360753 5.4055037 -1.6728481 -1.6768746 2.2371464 -9.5825815 -1.1593828 -1.518818 0.2998371 -3.3731453 -0.53596866 5.402998 1.5795304 3.7605457 -8.834457 7.1775937 1.4867206 -1.3133092 8.771766 -4.107793 -6.8826437 -4.5276284 0.5811123 3.062698 -10.523923 -4.535673 5.4063935 0.39199832 5.039402
1240204 -7.1846066 -4.235057 6.959027 -4.203372 6.647595 12.451232 -4.6374536 -3.735418 -8.80113 -6.2307816 -5.177524 -1.9001768 -8.953367 8.7246475 4.316381 0.90793765 3.5200005 -4.9743 -1.2893636 0.8259494 1.2244306 9.769716 7.2637186 5.971206 -2.53753 5.3450885 -6.268078 8.075579 -0.1292692 -9.765495 2.0817702 5.6657844 -2.4310863 -3.377084 -5.8431025 7.0012226 5.9389653 8.747764 2.5028043 0.23604602 -1.6185586 1.1149766 -4.8936696 -1.4052428 -7.5820956 9.486872 2.995061 -1.7559669 6.4911404 -12.825907 8.387155 4.1711082 2.9176512 -5.126893 -2.3661072 -4.9932 -2.0863094 5.1555915 4.099961 -5.4816375 1.1162598 4.8349147 4.986359 2.365576
909698 4.3938465 -4.2542696 11.403052 -4.3161693 -1.3104192 5.932337 1.4913411 -0.26752463 -6.724279 -4.1123667 -3.9393609 -3.378368 -2.6885054 8.112082 5.305824 -9.462761 -0.44408682 -3.5355043 -5.27581 -0.7265595 8.966465 2.5614204 4.886518 -9.64558 -0.9389407 -10.670163 3.5540502 -3.364155 -3.4555235 -5.912618 3.7120073 4.218067 1.9075415 -2.5105944 -9.553797 0.7375272 5.1483655 -1.297234 9.629661 -1.4522842 -2.0036602 0.9305949 -4.217777 3.6246715 -0.6425385 3.0326903 -2.7344046 0.4521609 7.0754595 -7.262995 -0.5466602 10.566012 4.7571683 -8.506479 -9.937672 6.1801324 -1.6404771 1.5935417 1.965779 -10.572844 -4.004877 14.344314 -2.7030325 -5.485394
1331034 1.0170282 1.5243353 9.234521 4.225313 3.3626122 0.12766318 7.564086 -3.7163622 -12.976713 -12.192734 2.0126622 1.9080248 -14.653519 5.2568927 4.249484 -6.3341637 -1.8229053 1.9094912 4.9608855 -3.3900974 1.3853767 5.1032743 5.0092583 -4.8237057 -0.12087863 -8.61815 -0.9789976 -8.569031 -7.94895 -3.2405665 12.89768 5.9884596 -4.4098134 1.6160768 -9.775348 5.5723667 3.6070523 2.8643324 3.5565345 -1.6779826 -4.7981877 9.059495 -5.1454988 5.973421 -5.1775165 0.33481598 -2.0264995 4.087332 3.256939 -12.348297 0.27264658 0.36535463 -2.5034833 -5.006174 -11.2922 -1.8832977 -1.4665504 5.5951033 -4.394412 -8.558677 -3.5389533 9.362785 7.3388805 -10.703306
949154 -3.0501559 -7.315872 4.90396 1.0485382 3.6924791 5.8160715 -3.00275 0.776577 -7.7046947 -2.9505029 -12.67965 -5.0033736 2.9314702 12.832481 -3.2772038 1.1615965 -6.7264132 -7.9521213 0.8721295 1.7940577 4.6601667 10.369917 1.5208287 3.0492477 6.961321 0.38206553 -7.8927526 -8.523698 -2.3535826 -14.162302 -6.129997 4.034273 -0.940014 -5.565515 -3.3928766 1.0772332 0.9845169 -7.1037245 -1.0023471 3.4376893 -5.3162503 -0.6073001 -4.5447345 -0.33942994 -10.632007 -0.20579423 8.580967 -9.877659 12.279544 -7.7998066 7.818039 4.096473 -5.4846377 2.0737472 -8.983856 -7.325901 -5.7266355 -6.7394724 -0.5467703 2.396296 -0.064658634 -3.2052653 0.9027793 2.8090892
908442 -5.8936486 -3.9522216 11.897165 -8.894462 -0.13735925 7.0353007 5.0077343 6.5351934 -2.1022787 -6.2935524 1.1782128 -1.5710466 -4.363332 8.800884 0.6265727 -3.1335938 -4.3157454 1.6183432 -4.474694 -4.5838795 4.2296863 0.778821 1.0267346 1.1338042 -5.542621 -1.6140498 -2.8725228 -2.936165 0.16743964 -6.972709 -3.8560865 13.568188 3.3414712 -7.0332823 -7.0445313 5.568727 1.2974532 -5.8519034 10.324996 3.1383824 -3.9421682 -0.81929433 -2.9400935 -1.9719049 2.7970858 2.7627718 2.448392 -14.481848 8.260798 -6.177774 4.8974175 10.277259 5.994398 1.8610531 -4.4813232 -4.343275 -2.1229072 -8.4824295 -2.6435285 -13.446114 -2.56734 7.746764 -2.1334105 2.506058
1330947 4.061247 4.638533 9.151183 2.7308698 2.610381 1.9536511 6.2464824 -5.0830765 -15.250988 -10.169397 7.5190063 1.9468732 -11.908179 9.014491 1.0996593 -8.36661 -1.6374207 2.253946 4.893274 -4.200959 7.3189783 6.43218 8.51689 -10.257194 -1.5614303 -6.5228024 -0.35613564 -3.4149222 -6.39824 -1.8123366 13.267955 11.136422 -3.9957013 4.0684853 -9.743454 7.156489 3.645109 6.752222 2.337948 -1.7858573 -6.2705545 7.518635 -0.59816223 5.7292576 -4.515846 -1.6524096 -7.9584546 5.0139055 1.4387076 -11.206926 -0.64649636 5.316008 -1.3297833 -3.8419707 -8.800533 -0.79100406 -1.3190057 0.164801 -1.5077364 -5.0671988 -4.8545046 6.2157516 7.0195084 -9.193575
753595 -5.572183 -3.8998187 5.0192704 -2.1388314 1.8782912 5.2131395 0.9094533 0.60600924 -13.462422 -10.730318 4.8438373 2.3229804 -4.7536 7.0325565 2.0905204 -3.8858051 -5.6803007 -1.2295952 1.5199754 -1.3414778 2.9976249 2.9911115 8.2293415 -5.9227376 1.5819839 -4.31389 -2.442717 -6.40408 -2.8941574 -8.917785 8.843478 14.311955 0.9393164 -0.8343941 -2.635233 6.125203 0.8185518 -1.6451906 2.160799 2.4723504 -3.3891616 3.0573459 -0.9279399 3.1786172 -6.7169113 4.274627 0.7757058 -1.9437586 11.219282 -11.302565 8.646845 -1.5026724 1.4058323 4.382653 -6.818818 0.0035155553 -1.600576 -3.6045177 1.9008737 -13.673422 -7.714398 8.832266 4.8328853 -2.1656575
907048 -3.8181777 1.9316915 3.4735913 11.328463 2.698025 12.904109 -1.296505 3.5562222 -6.8894033 -5.936786 -3.0341306 -3.7978067 -1.8230927 8.240155 1.1841823 2.2480063 -4.347435 -6.310001 0.8875298 2.5683944 -0.0463025 3.2907455 6.5406938 2.1702063 -3.4719276 3.570324 -10.004626 -7.1877174 -3.1486318 -6.0134206 6.2269893 6.464989 -3.542308 -0.25649834 -6.1918635 10.793772 4.081952 -2.379287 5.0757613 5.762075 -8.383124 -2.1284955 0.91317564 2.3208528 -0.44199744 0.365127 -2.9408708 -2.338829 2.6622863 -10.898911 10.984702 0.71299833 -4.0925336 4.327853 -3.8869479 -4.892304 -4.355081 -2.1553767 6.5973153 -13.633199 -5.426142 4.930302 -0.8946565 7.4073997
905952 4.392528 -0.32765445 9.401598 1.155667 3.2807946 -2.8857932 5.6430597 -6.1856027 -14.715181 -8.410358 1.9482934 -0.8661197 -13.421071 7.5472736 3.2033324 -3.8795295 -3.6558812 -0.45233256 2.51773 -4.1570067 -1.3756534 3.9750206 3.170614 -5.119292 2.5713089 -9.653043 -3.5707452 -3.34682 -4.483378 -5.894034 12.839713 4.1759706 -3.7020154 1.5348259 -5.7997637 6.076272 5.8938613 0.4100651 5.9351306 4.511093 -6.1312056 9.607736 -2.38234 0.012501481 -4.238295 1.8181946 -9.726356 5.22237 3.1679106 -8.448005 1.0240465 3.7169125 -4.3151894 -6.629336 -10.066193 -2.891347 -1.4376632 4.6879277 -3.6183684 -10.521049 -1.8566076 6.0922327 7.086387 -8.419364
908450 -5.930979 -7.728764 11.43598 12.117911 -2.0596516 2.5734324 -2.4285932 -9.955248 -0.22313702 -1.9153478 1.4816417 8.844425 4.6186223 8.566085 1.1460309 1.7043941 -1.2684982 -6.4391093 1.907596 -2.8296793 -3.5140998 12.458216 2.014515 -6.731545 -8.082121 -6.698126 -10.694137 1.2965077 11.512863 2.6836078 4.672328 3.921076 -3.8745422 -7.2525682 -1.4376333 5.517288 0.3010616 -8.149492 9.572143 -4.653661 0.02204337 7.41064 -4.3332596 -2.9746885 -8.876221 4.6911664 1.8574163 3.8389373 5.261582 -2.54775 -7.081913 7.687108 -3.4942622 -2.3479688 8.535398 2.4811413 -0.20148142 1.3243083 -1.9542645 -0.9337179 -6.8185024 -1.8021667 -0.9695652 2.4173188
724839 -3.6804087 -8.826766 4.1914387 -2.7753856 2.5661252 1.3050903 -7.249679 -3.6811268 -6.731643 -1.8044406 -15.930023 -4.391485 0.061566576 12.616766 -2.7816246 -4.6363435 -10.601952 -6.9044976 3.9415765 -1.0211704 3.4860811 11.762039 1.845278 4.375809 8.437139 1.3096372 -7.317589 -6.2958627 -6.1884847 -11.957558 -1.474193 5.855944 2.4347005 -7.7733827 -2.3343697 -1.3701215 -0.8349061 -2.6142492 -6.0118837 6.211829 -5.5479345 0.5230504 -8.833786 -2.0971603 -7.96483 4.811383 8.685654 -6.7128572 11.830951 -7.2101684 -0.57768583 5.186214 -3.8934948 -3.2911935 -7.3831882 -5.379618 -6.113829 -2.4195228 -2.5410228 2.2715034 -2.3914745 1.8180354 7.5156074 -1.1451287
908134 2.4431825 -0.3926296 9.399993 2.3022597 7.0502357 4.600497 1.8419183 4.7401423 -14.650636 -8.486518 3.299965 -5.836969 -0.89886737 12.094766 5.628292 0.044975426 -9.00739 -4.9344077 -1.4102738 4.103566 2.3341837 3.6723337 10.28641 -2.663543 7.028594 2.054775 -5.510667 -5.840402 -2.5113702 -8.283784 12.530989 13.658558 -3.4027972 3.2173028 -6.1409664 9.640907 6.704294 1.1250019 -1.0506388 2.5094476 -5.0466933 2.0560043 2.2521365 1.6001292 -5.8128967 1.7663213 -0.14621262 2.8381011 -0.17790034 -10.125523 10.25924 5.2741857 -8.551527 3.0517926 -8.537692 -6.7924 6.751324 5.237037 0.71892357 -9.8705635 -0.9868284 4.529083 0.0028508569 -4.5660815
906824 0.15121317 -4.7281237 9.167959 0.94457173 3.559716 0.42145303 -2.352693 -7.242802 -11.583844 -5.276845 -8.346684 -7.20268 -4.2784915 15.388827 -3.2622235 -2.3556542 -3.9571998 -3.1205885 6.021962 -1.2133921 1.5353117 7.7805114 1.4764249 -1.6289811 9.113849 -0.13019659 -6.58283 -7.3434997 -10.769974 -13.102387 1.4976254 3.4609022 -0.022986798 -4.287815 -5.3971066 -1.045693 -0.102502465 -0.83974373 -1.992122 4.6421843 -5.668656 4.647838 -9.439133 2.5903664 -10.959424 0.3425939 8.140772 -3.2015934 13.893564 -10.362371 1.6143724 3.5522459 -6.450014 -1.9661653 -12.426811 -4.137545 -3.1299963 -5.6467776 -2.6876774 3.2068663 -2.1644406 -0.8250934 7.0937304 -5.477529
1240189 6.4985113 2.7509046 6.6683445 11.20904 4.1544104 2.73337 1.8133227 -0.6651297 -9.234593 -18.340427 8.161569 -2.977355 -9.939325 7.440725 -3.2545583 -4.722287 -4.764017 -3.5726407 1.0785565 -2.028599 2.5154676 -0.06022791 -3.388795 1.5855904 2.5406523 -7.1054907 -2.2840784 -0.80173594 -4.6902905 -4.155752 7.1341257 2.6506455 -3.6737072 3.8229785 -8.919241 -1.6577436 4.4599037 -0.016690489 7.36026 -3.3539457 -7.1462827 0.57028985 -7.568679 0.7784297 3.852768 1.6956806 4.47071 4.3112664 4.0299535 -12.290576 2.357293 3.9844859 -1.3568714 -3.269493 -2.5300765 -0.22968392 -3.0754452 4.30965 0.8330879 -8.074249 -4.7337937 0.54942906 4.41902 -3.751373
909252 5.6656365 -1.3991339 11.959709 1.9069818 3.9641366 -0.7313769 7.33726 -3.3892362 -14.560698 -8.18522 2.918012 -4.3218865 -10.372395 8.883798 3.6042204 -5.8914094 -5.345199 0.17543562 0.17580852 -6.1903977 0.80885136 3.6470766 6.1376405 -5.925709 5.701811 -8.176617 -2.9323566 -4.4196362 -8.311656 -6.709964 13.732545 6.621596 -5.60879 3.5111477 -7.490261 3.9111545 6.12113 4.356778 3.0522065 -0.07233769 -6.020022 10.525213 -1.9247677 3.101525 -3.1710908 -0.1865444 -5.8246937 6.106363 3.564212 -10.444727 3.5712235 -0.28978243 -6.055076 -4.9925084 -10.209391 -1.2457075 -0.57849425 3.247787 -3.840432 -9.005859 -2.953389 5.8465576 4.58227 -6.0499163
910710 -0.6629222 1.2726922 5.0360513 2.187701 2.450792 1.3143203 4.502461 -3.6403995 -15.746616 -11.554291 8.855257 -3.5764081 -14.381045 8.920607 4.1572266 -5.2114434 -5.083569 0.21559203 1.7614609 -6.1074085 0.0024596131 4.077198 5.0110245 -8.70356 3.557419 -7.6889706 -3.2516627 -2.8655581 -2.4842522 -4.6923695 11.304013 11.863281 -5.7414083 3.0627308 -8.9049835 6.9083614 4.780348 1.2135047 6.194596 0.5961863 -3.5663977 5.2631507 -4.6762753 -3.668424 -5.860286 6.0542817 -8.059166 6.027167 2.1160123 -8.579936 1.0238332 3.7626526 -3.8362362 -6.673474 -7.235426 -5.365394 0.70186573 5.713832 -3.8764632 -5.9431615 0.18113954 7.2058525 4.702528 -12.645035
908158 7.487566 2.3101683 11.865721 4.2204213 1.6978421 -0.71956843 10.482206 -5.3003235 -13.286309 -5.58744 3.7961667 -1.3101165 -9.298103 6.969303 0.64299953 -7.8301015 -3.619122 1.97514 3.3332722 -3.1925364 2.0757139 4.2464447 6.043157 -9.467343 1.547924 -9.575243 -1.6885238 -5.1367884 -9.072853 -5.7076893 14.046681 6.5635815 -4.259384 2.7613664 -7.2157683 6.078925 5.7892275 3.6631224 3.6868892 -1.1260512 -5.349031 9.349094 -1.989696 7.1999493 -4.5348477 -2.8938963 -6.1467586 3.1187751 2.680443 -13.952618 0.8340438 1.189508 -4.339143 -3.9580083 -12.664603 0.8162241 0.8092216 3.7388713 1.2817429 -10.806786 -1.2080755 6.2812357 5.339048 -7.221721
908148 6.482171 0.468648 6.3720365 5.1888847 1.9844141 4.1525264 8.080287 -3.9991379 -17.286304 -14.65413 4.6107244 -1.877755 -12.010351 5.7480354 0.69739413 -6.4789696 -2.5935957 1.9888656 8.143064 -1.3505942 7.831961 7.4068484 8.166036 -6.1041613 1.5231783 -0.2726597 0.34090766 -4.953539 -3.1714244 -2.7201989 10.0839205 5.06217 -0.85113 2.2059767 -13.022983 4.2645183 5.790661 8.185713 3.6642067 -3.3717246 -9.228415 5.3232327 -3.404934 4.436611 -0.85710496 1.5998533 -2.515663 3.2194097 0.7415075 -12.788101 -1.6215874 6.982532 1.422891 -0.02892039 -6.842244 1.7686156 -3.2980704 3.6339104 -0.82933515 -5.8240356 -7.3442883 4.702065 5.1367283 -4.424241
908448 6.1425323 1.3887516 6.60418 4.046653 3.8700185 -0.61567533 7.018054 -3.0633647 -17.068201 -9.612469 5.491652 -2.3632746 -11.567787 9.605148 3.4033463 -6.8470383 -4.0889683 5.23018 6.3546658 -4.1340404 4.152445 8.959025 6.782713 -7.9629693 0.55960333 -7.412744 0.97520804 -3.35132 -5.6286697 -5.5823464 13.368611 9.632275 -3.5591314 2.9329207 -7.8952413 6.9064574 5.2046447 8.033231 3.0338306 -1.3181014 -6.8924456 9.400894 -0.48744422 5.130389 -4.046279 -4.2419596 -7.56772 2.3758094 1.6202887 -10.904643 -2.3753233 3.9157882 -2.3492553 -3.793752 -8.744014 0.37249273 -0.024801789 3.4309537 -1.2549275 -5.6383767 -4.9382844 4.394133 6.838737 -8.279744
1247871 6.7481213 2.142139 8.927046 3.6637475 -0.6627942 -0.63348055 3.8687365 -5.696746 -15.943537 -8.816207 7.0846195 -1.3421856 -13.447076 8.577809 -2.2278287 -5.894758 -3.711119 2.1393497 2.4908538 -4.799772 2.5560153 4.299065 3.5289278 -8.964555 -1.0980688 -9.407295 -3.2848577 -2.2280614 -8.744768 -4.7263007 13.318035 7.1108804 -4.4404917 3.5975218 -5.1819215 4.2657557 6.391501 3.0662374 1.8347898 -1.9344218 -3.6966672 8.095812 -4.4717026 3.3122869 -6.5387316 0.59619284 -5.047802 5.288789 3.8395824 -12.542489 -0.4425677 1.7048444 -1.8712829 -3.636967 -8.697143 -0.8354611 -2.7639678 4.839423 0.48005345 -7.932214 -0.6488696 7.730303 6.2468386 -7.3403416
909718 -1.5365059 -6.5295525 11.086826 -4.192602 -1.1034586 3.7585714 5.8966475 6.255819 -7.453261 -6.425329 2.349846 -3.410079 -4.8497944 11.169245 4.5477495 -4.2520175 -7.616605 -1.1553504 -6.325512 -5.888643 9.536468 2.6973598 4.2715764 -0.53222376 -3.2367976 -1.3881572 1.750314 -2.7497885 0.667143 -8.0702915 -3.0498786 13.3472185 -0.012325657 -6.950787 -8.097562 5.7254333 5.2693954 -2.6337705 10.713311 3.5710611 -0.5960571 -5.8362546 -4.2763805 0.12689598 1.9718609 3.5873153 0.51751 -14.067464 8.852187 -7.7357936 2.894936 10.1466675 3.0671515 -3.613061 -7.483178 0.22271769 -0.8008978 -4.343555 -2.9523332 -11.884535 -1.8285602 8.290525 0.76709 -1.160095
907277 6.153161 1.3963249 10.100471 2.9791417 1.9848627 -1.0801569 4.7426934 -6.4424357 -16.433552 -7.6900215 5.5289493 -0.21205689 -14.135132 6.440738 2.5876489 -6.1509204 -2.2521994 1.2263416 3.360966 -3.3545494 1.7729914 5.943427 5.4810696 -6.3388276 2.3862526 -9.609523 -2.773532 -3.8988616 -7.5937696 -4.526462 13.216561 6.3722653 -4.6770835 1.7180444 -3.1488607 5.5091534 7.1886187 1.5713706 2.620937 1.3663446 -3.316327 7.932506 -4.561349 2.593802 -4.1499743 -1.0832986 -8.889083 2.814887 2.2757754 -11.40745 1.8044106 2.3985736 -4.5800796 -5.083929 -10.175338 -1.0125718 -2.341885 4.942202 -2.6893213 -10.464939 -0.25279802 8.404216 8.1294985 -7.827456
1330950 5.6832366 4.0057297 10.347816 4.5930347 -1.1175252 -0.027126908 2.8336492 -4.6188216 -15.279998 -9.39517 5.0213094 -0.86069703 -12.758803 8.191273 1.8694018 -5.920978 -5.3944573 -0.006616205 1.1021769 -1.533747 2.6420727 3.7959204 4.1650667 -10.364598 -1.0630265 -8.638184 -3.5006623 -5.307445 -8.601737 -0.10974347 13.197605 4.593632 -4.409776 3.3007934 -6.0703897 3.01527 8.0860405 0.74338675 2.2346866 2.8285112 -2.9246802 6.7343383 -3.631313 9.011446 -4.9926715 -0.60527706 -5.6562014 6.0619926 6.3243604 -14.084359 4.333695 -1.4999125 -1.8420564 -1.630773 -11.449593 0.41277698 -1.1781234 0.11748575 1.3199031 -7.70782 -3.4153874 6.0223823 7.451654 -6.8165784
910687 0.99738336 -1.1948669 7.775547 0.16173232 5.4831595 0.42920396 4.2066436 -3.6386106 -13.140891 -9.443447 1.2388259 -3.5308173 -12.614511 9.306633 4.3009043 -3.939094 -6.5413547 -2.269759 1.8641111 -6.115465 1.2967074 3.5756571 6.3313923 -4.789675 2.9075115 -6.3412695 -4.2672997 -7.27455 -5.684548 -5.9580126 11.010286 12.090124 -2.74778 0.06986318 -6.9476275 11.232588 4.621097 -0.9784249 1.1178436 4.055817 -5.109479 6.9580245 -5.064355 1.0493947 -4.80841 5.668066 -4.517868 1.7955648 4.735137 -7.2052703 4.344645 4.137252 -0.43656343 3.102128 -7.342005 -5.9500775 -5.3374834 0.0083681075 -3.9636395 -11.356534 -1.4463074 7.314808 7.582254 -3.0770848
1240161 -4.358601 -5.0179615 6.403744 -3.1236613 6.6536264 5.246621 -3.6829689 -7.5790005 -9.550311 -4.452175 -8.166693 0.016724842 -10.319954 12.121914 9.277297 -2.345109 0.38483685 -0.296746 5.2593894 -2.0961697 4.5211096 12.599259 5.6035533 0.37832415 -4.3488708 1.7000544 4.247557 12.496835 -6.042933 -8.51247 6.3132067 4.182135 0.8639809 -3.4080791 -6.1121736 2.5410223 9.061635 5.390097 6.4943295 1.4302684 -2.0333147 2.1380723 -1.4293797 3.3568852 -5.8628197 8.32166 1.9095615 -4.8331194 6.7127504 -13.370515 4.550316 4.2314024 2.1707609 -3.4212449 -3.3827531 -4.222755 -1.2815683 7.9891963 4.741873 -5.6403456 5.60487 1.5696275 6.230625 3.4490492
1322224 -3.006416 4.084286 7.2985744 -1.8359264 -1.3971281 4.524287 7.8919997 5.5193014 -7.8842645 -4.579337 3.1141202 -1.7228419 -10.0052 -0.034840293 -2.44642 -5.5208983 -5.5455384 -3.1613333 -2.9066756 -3.622376 -0.7373208 4.664698 6.7996583 -3.2708845 0.9724521 1.826754 -7.150565 -0.90103096 -2.27635 -11.1371975 8.95066 5.704597 -7.6716747 1.3392062 -13.55442 0.5215456 -0.002398727 3.4763267 8.903817 -3.765181 -8.08185 6.322427 -1.4201665 -7.239876 -1.9771881 14.221613 2.5755885 1.7748306 -0.6601917 -13.343855 -2.4917188 0.68578225 -6.721324 -11.931146 -5.896176 -5.61144 -1.6092067 5.742265 -7.0945044 -9.819469 1.3623236 9.610649 0.7042944 3.3986664
949090 -6.0738163 -2.1978621 1.4895434 5.1723547 2.443838 11.340385 -5.114509 7.431926 -7.669176 -6.6166015 -3.4008682 -2.0856268 -2.7247772 7.605435 2.403314 0.6508452 -4.5808525 -6.301398 2.0346935 0.6448444 1.0576632 3.0990844 3.1826475 4.0557303 0.9944268 1.15783 -6.4299903 -4.17595 -2.9876907 -7.3656235 3.892715 12.789329 0.066148244 -1.0707692 0.9217184 6.880332 2.9203 -7.2565794 2.8194222 7.2358623 -2.6794803 -0.9467205 1.2788659 -1.5196207 -0.10916162 5.275074 2.623919 -7.801459 6.3958044 -6.523826 12.621742 1.1159694 -0.4921254 7.3711004 -1.2781065 -5.7524467 -2.9418538 -3.2517626 2.7014048 -15.188837 -3.0524826 7.1370316 2.565046 7.0063705
908145 -4.0182962 -4.60655 14.676937 10.631037 0.35586703 2.2908907 3.8147209 -5.4242115 -4.8901234 -6.460038 3.2650547 1.5943776 -0.8628307 12.892361 1.5191684 4.4540887 -7.736 -4.673142 5.614423 -4.3948126 -5.565201 4.5752654 5.0421405 -7.510281 -1.7509803 -4.2071447 -14.240616 0.46462852 10.108906 -4.8845053 3.5189145 6.732918 -6.2706623 -2.4898071 -1.6825827 8.434065 1.7526324 -6.9018316 18.788193 0.9562219 -0.7171392 11.659016 0.67278254 -4.500032 -6.781369 4.0193434 2.9307168 -2.6084437 5.592801 -4.1667056 -3.0680761 9.13237 -6.3357687 -4.528189 4.021201 0.4643572 5.418871 5.9542933 -3.4076173 -3.370807 -0.437077 3.2702467 0.9488086 -1.704122
1298222 -4.626267 3.6530323 8.412864 4.66825 3.7519748 4.976785 1.5956964 4.3991885 -11.580513 -6.0151243 -0.76347786 -1.0534058 0.06583417 6.5804367 2.6855414 -4.437602 -1.8854738 -2.0561953 0.927793 3.2056806 0.011888462 2.2003515 3.8887591 -0.670639 -0.5288108 1.6045017 -4.030751 -4.5597153 -4.1565766 -5.1023307 9.991288 9.732553 5.3328724 -1.9823617 1.5572602 6.9653516 1.4836458 -3.4955447 8.675338 5.718352 -7.3055944 2.0947242 1.6959823 3.6294222 0.5800589 1.8176165 1.6771364 -10.302921 9.403689 -13.853805 3.904927 0.45241246 -1.4859166 4.2590394 -8.242705 -6.861571 0.4913068 -0.9195313 0.9925149 -18.869507 -3.535976 5.3724895 4.541171 3.954349
1298167 -0.0057676327 -0.23362559 4.372249 2.8567808 2.516701 7.416961 2.1846347 4.6755104 -10.971247 -14.373801 -4.882636 2.4322264 -7.5270305 6.392247 5.7581677 -5.4256487 -13.045842 -0.26111484 2.1097863 -1.597267 5.9525943 7.068661 6.593443 2.9588504 -2.4311366 -5.8673344 -6.216361 -0.49870762 -1.7349782 -2.3685923 6.356709 4.382217 -0.4058778 -1.1304222 0.947872 0.97042775 1.5058749 -1.8450844 8.534681 -0.71724516 -11.861973 -3.0277336 -1.6168535 2.6958714 3.3731995 -3.2066536 5.424937 -7.7327433 2.3809626 -7.7176137 4.5063267 0.34283352 2.7222714 -2.3769314 -2.3899019 -2.2536428 -3.8985875 7.4646235 3.5899487 -8.082352 1.1800183 12.367203 6.382962 -1.988856
1330982 4.107622 0.33230212 9.311683 6.1933503 1.9059073 0.01787813 8.525846 -5.089621 -11.204382 -9.495338 3.7601063 -1.9295955 -13.317031 8.378068 1.6894997 -4.590785 -4.7258773 1.0401099 3.4235191 -2.722495 -0.097336926 5.5322976 5.92743 -8.6274 2.849886 -10.444027 -1.1043881 -4.680792 -7.7855005 -2.6750195 14.009435 7.0879116 -4.622873 0.7296995 -9.568977 7.653612 7.6036234 1.8188524 1.4335724 0.13972491 -3.445113 10.443026 -4.6371727 2.2840493 -6.066446 0.3076362 -6.5931683 6.8912106 2.8683329 -10.986825 0.43359175 -0.14912099 -4.4536395 -3.565929 -10.209878 -0.636054 -3.9997656 4.27895 -0.9211131 -8.654765 -3.9166424 6.3249664 6.6580076 -5.9754477
753535 -3.4440904 -4.813101 7.821117 -5.1661468 4.9405003 7.3858085 -6.816473 -5.397884 -11.179279 -6.2349906 -3.8237967 -0.074722864 -10.49692 5.9716544 6.315934 -1.2489473 5.2425222 -2.4524906 -1.1301738 -2.1591105 2.6512496 11.206286 2.4724896 2.990246 -5.6916547 3.969457 -3.698885 10.348443 -4.710723 -8.377515 1.4802148 1.4264394 -1.7181666 -4.9488873 -2.787003 -1.4846058 7.3316436 10.7329235 4.4795876 -3.4092164 -2.905865 0.7494859 -4.3144994 2.2269468 -6.020418 7.136238 5.8042035 -3.130692 8.906286 -16.796253 6.567148 1.4176028 4.2980685 -5.987999 -2.3206325 -3.013202 -0.033830184 4.389406 5.8411446 -3.1528456 3.5758402 2.2576628 5.5476813 3.7170331
907789 6.97858 1.3813789 12.009706 2.4367166 1.0183733 3.58562 5.502243 -4.2065105 -17.195732 -7.1760216 7.326036 0.4103935 -14.300896 7.7168994 0.87787217 -3.3025393 -2.5201526 -0.55748457 4.3797383 -4.453005 3.3409023 2.909568 5.335217 -4.9713736 1.1013173 -8.254771 -4.869126 -2.9188285 -5.724456 -2.611891 12.557139 3.4242864 -5.751923 2.5951464 -3.899824 3.1828566 5.5500593 -1.4536052 0.120688096 2.1170394 -1.6506596 8.376816 -5.0619636 6.480023 -4.6334343 -0.25981176 -5.5373273 5.2600756 3.667216 -11.157157 5.2614703 0.79856825 -3.5284183 -1.5491428 -10.26548 -2.3837707 -4.2591834 2.9368975 -3.1255882 -10.906511 0.37617835 5.707831 7.4437685 -6.025772
925340 1.7484374 6.298165 8.836986 5.660743 -3.8024986 -0.44096935 7.533608 5.2575493 -2.9750116 -7.4151826 3.0417163 -4.7582946 -4.0195823 1.2161053 -6.4453583 -9.3194895 -6.074026 -0.03135279 -6.538432 -7.038084 1.0231904 -0.9216664 -3.4091651 -0.041253537 -1.1276062 -1.6948159 -8.504875 4.369934 -3.1894934 -7.1274147 7.8132873 0.4152451 -5.660956 -1.2606103 -10.284898 -10.193538 4.5914397 -1.8712909 6.3518457 -4.5638566 -9.030432 0.728306 0.33938408 -7.3336906 1.5926774 12.242771 7.011369 1.431756 2.848431 -12.663468 -4.121554 1.9324492 -0.8683603 -11.457757 -2.2697573 -4.481601 -4.842224 4.1179714 0.2912722 -7.4477344 1.2071669 9.160215 -1.0764164 3.6039073
910936 -7.706661 -5.294178 7.624679 -5.123176 5.9212213 5.5327535 -1.9011513 -4.7362485 -5.3568635 -6.311507 -6.446686 1.6314938 -12.016744 8.580972 6.8844557 0.82324797 -0.11578943 2.0670118 -1.6154847 -1.5475268 0.47487015 15.458089 0.40372765 4.2901044 -6.8221054 2.6565003 -0.48791927 12.435421 -3.1819205 -12.517772 -0.7780637 11.235282 -2.8424678 -4.515769 -6.099565 1.9895068 7.4939594 6.16015 5.976011 1.0086004 -1.7755146 5.9160943 0.85009897 -1.3926548 -5.892627 9.088829 2.855591 -8.407831 6.910282 -13.135245 7.4332557 2.8719037 4.7057834 -3.851827 -0.3209674 -6.4352508 0.5092292 2.839329 2.507261 -3.525673 4.8291273 2.4444249 5.318945 3.4928696
687819 -3.8257523 1.1854789 6.89423 4.7044606 6.0682287 7.884492 -1.8164245 8.590355 -9.253061 -8.029437 -2.410627 0.34588093 2.1988595 7.8901777 0.34807122 -4.357012 -1.1121498 -1.35441 -2.4105785 -1.5065539 0.56068915 1.3763521 4.4182925 6.07027 -0.4620168 1.8598773 -4.67479 -4.5049863 -3.4341073 -12.779231 7.7251816 6.039246 1.8990065 -1.8024659 -0.989298 2.1615243 -6.168781 -2.0199897 2.3508086 -0.671066 -7.1322346 1.4899045 1.7223976 0.58043885 4.1376557 0.92584556 5.8114576 -7.911087 2.9485025 -8.951356 6.600122 0.5873694 -0.8084797 -0.22239476 -9.056584 -2.772423 -5.486715 2.2290113 -1.0130254 -15.223335 -6.7789884 10.8958 0.90070206 -0.43749776
749709 -1.0626718 5.6454334 2.6893299 6.343397 3.2299032 13.460226 -3.5154629 4.3716683 -10.107317 -2.576776 -1.7966497 -1.8058021 -3.4438882 7.2458096 -0.7406977 6.7987523 0.44990596 -4.9509034 -2.212326 2.7977536 3.2881937 2.0804899 6.038983 7.634511 -3.2318947 6.0649223 -11.726824 -4.069979 -2.180207 -12.552523 0.42758662 -0.42257956 -2.3866215 0.5191062 -5.5065265 10.136063 6.935785 -1.0721395 2.387803 4.3631086 -5.93246 -5.2929997 -0.50116897 4.223126 -3.0670326 -2.4686103 -0.3522938 -6.0089555 -0.22934972 -11.37321 9.301925 3.7203736 -2.437549 0.89433265 -7.691345 -2.5381095 -7.661854 0.33232754 3.5154703 -12.653225 -0.77599543 5.314152 -2.5880451 4.7442636
906870 7.2724543 3.58684 8.0833025 3.4623442 1.7261995 3.642176 7.672164 -5.617644 -17.28869 -10.30404 11.384994 1.5221348 -9.220062 5.4848337 -0.71297634 -5.7941246 -1.2054815 1.6169881 5.7074614 -2.7824109 7.2096734 7.015024 8.641257 -10.384659 0.096346915 -3.4290771 -0.402736 -5.0088596 -5.39193 -4.6402373 12.29205 9.108809 -3.2590141 2.7582908 -10.246222 4.6239214 4.7435703 6.887704 -0.7825209 -5.759932 -6.3293443 6.7072 -2.123291 6.3722315 -5.3586426 -1.9149054 -5.92786 6.3124614 2.140812 -15.086977 -0.81351453 3.883932 0.28351456 -0.37094134 -9.536304 5.251095 -1.0946755 -0.2073259 4.855322 -4.7311034 -8.462347 5.0133305 5.3629966 -6.214525
946358 4.1855936 -1.7573079 8.780607 3.061304 0.30621642 5.8673296 6.3057275 -2.885385 -14.822902 -8.383157 4.688556 2.1221926 -16.86976 7.311919 1.7762148 -2.7025282 -5.4340215 -0.76392716 4.6896152 -2.011212 3.455915 8.38721 6.334216 -4.3118024 1.0199037 -9.302499 -3.3393805 -3.924285 -5.7937927 -3.9188473 8.560603 7.5322127 -4.0176153 0.09101204 -6.179351 6.0485477 6.0939984 -2.9227037 2.293131 3.6802735 -3.6317968 8.819512 -6.6488233 -0.40552494 -2.2213073 0.9912368 -5.9200616 3.1793208 2.4550328 -8.952784 3.789209 1.790533 -4.118495 -0.43794644 -6.291391 -3.646729 -6.677649 2.7032511 -5.703063 -12.225747 -0.54377925 7.9988723 7.5318975 -0.9115452
907275 7.5980983 -0.5273874 9.593163 7.002161 2.5916343 3.5974207 6.608156 -0.1469299 -13.130308 -15.369725 0.18893433 1.1761969 -14.113308 7.60705 0.07891132 -5.7450504 -4.872657 5.029135 5.8233266 -4.917151 4.5721455 5.8563266 1.3540391 0.6206868 1.650755 -7.7857685 0.15720463 -1.740405 -8.016637 -6.1653557 9.628467 5.3634458 -6.292291 4.5479703 -9.295031 -0.08945684 3.0602975 6.323807 7.1228943 -3.910569 -7.8769274 11.347551 -1.1550782 3.3213499 1.7112992 -5.967485 -0.7408646 -2.5951183 -1.9481632 -7.1017413 -1.1955146 7.3249507 -0.6595779 -6.1586475 -5.368244 0.4760719 -2.431673 4.466139 -0.8446192 -6.4011807 -3.827983 5.8095155 3.0471232 -8.388285
1240153 5.402525 2.283969 9.743547 9.828953 1.4213946 0.124310814 -2.3082263 -6.202325 -3.6106105 -12.475591 -4.633878 -7.339084 -8.032044 3.5817142 1.3727862 -8.689418 -9.7223625 0.38105357 2.366615 3.5123641 1.8476101 6.6098566 0.95409906 0.32872152 3.658243 -9.4113035 -2.676051 3.7927063 2.2111096 -1.0365937 7.558509 7.1679583 -0.8157591 3.2224095 -3.9727108 -1.9369758 3.4534113 -0.50605553 -1.7061183 1.6981161 -9.978591 2.2529216 -2.397359 3.154432 3.0134819 10.258693 -1.4766227 -4.0679555 1.3255569 -16.550724 -3.151131 3.3712687 3.9425154 -11.090257 6.581435 2.604035 0.6794747 4.5772653 1.8007948 -8.909355 -4.729233 7.5377865 4.298986 -6.1149917
1298533 -7.8499594 -3.2888808 2.184092 -3.1290889 4.630135 7.989363 -5.786899 5.9960427 -11.363844 -8.50111 1.2992178 0.44189265 -2.638808 10.713774 4.104974 -2.897207 -6.683372 -7.0283303 -2.8780303 -3.051419 5.8021193 5.499805 4.850076 2.1468272 2.0712843 -0.039428554 -3.357869 -2.1445806 0.23601466 -5.7737 3.3862407 11.44118 2.6055279 -3.9599137 0.5341087 5.6620026 1.7297124 -6.9747195 2.488289 5.89737 -6.671484 -7.565587 -2.1719158 -1.8221314 -1.8475745 3.2084296 4.9285417 -4.763868 8.88194 -4.7238116 8.17739 1.7672226 1.4925784 4.6340175 -3.5619097 -5.2161107 -4.652773 -4.072861 -2.793081 -11.064061 -4.3110385 6.219543 4.395967 1.9531076
905971 6.6429095 -4.916368 11.815043 -5.5949125 -0.63893926 7.534872 0.5212292 4.232154 -2.2580535 -0.5628944 -1.7274323 -6.841091 -1.004677 9.673088 0.18501179 -7.450095 -0.40885216 -3.683122 -6.0813136 0.5560577 5.3447657 2.3626118 0.68036234 -6.5560813 -2.6195319 -8.979798 3.179891 -2.0161214 0.9900629 -4.5549064 -0.49304047 1.412444 4.1305346 -5.1808662 -11.351147 -3.0688834 1.595001 -4.469879 10.492426 -1.4210371 -1.0118473 -1.7343678 -6.1922536 1.4820093 6.5902405 5.2906427 -1.5665427 -0.2208521 4.473396 -8.239316 1.8178316 9.57743 2.7262926 -3.1812606 -10.495871 4.8924046 -2.000553 -3.7128668 -2.3580625 -12.355375 -6.3645473 7.4972577 -1.6392219 -1.5846578
905965 5.035955 1.7555348 11.053377 4.421031 2.8285797 -1.4201705 7.783961 -6.2606936 -15.651374 -8.985433 3.8163867 0.55511874 -11.810652 6.926215 4.5449576 -5.0664682 -4.7700105 3.9116452 2.196199 -1.3921099 0.600875 4.108796 8.119215 -9.5531225 0.64879423 -7.0150905 -3.7397807 -6.823562 -5.8998075 -2.3517249 13.086788 7.3517494 -3.594879 3.197555 -7.941878 6.330131 5.426211 3.8409803 5.168217 -0.007031774 -4.1643233 8.82318 -3.3561788 8.315917 -6.285548 -1.7094548 -5.081998 4.8198986 1.0648985 -12.70595 2.0254507 1.422877 -5.9544153 -4.6194158 -12.530462 -0.12405927 2.893999 5.562156 -1.6326802 -8.72288 0.2271106 6.4325814 5.1603 -11.191143
907282 -4.959111 -2.6513464 12.311288 13.388795 -2.3569183 1.5407077 -0.70978737 -9.162622 2.4045932 -1.0720814 5.551739 6.9709854 3.9825118 8.275331 1.8456956 4.1456275 -0.43349728 -6.473247 2.601035 -5.5834723 -5.3326297 10.290932 2.072224 -9.199935 -9.448984 -3.8758364 -13.244172 0.35136548 12.108631 0.6091508 3.6193755 4.112773 -5.7240577 -6.048675 -2.1546836 4.397964 1.9841418 -9.253778 11.840899 -4.64194 0.26390463 3.4835625 0.14930333 -1.377923 -7.0918937 8.926463 -0.69423187 5.361577 2.777313 -5.1205425 -3.0055866 6.8570056 -2.6350248 -3.6599965 8.07838 3.3533614 2.9832182 0.7171502 -3.4110317 0.65191394 -1.203243 -0.023204941 -2.9514618 3.0889275
906863 -9.38455 -2.474207 5.2374234 -4.0888977 8.350896 8.848167 -6.3989716 -5.392496 -3.5208392 -8.052307 -6.6020036 -2.8933656 -5.8443384 7.2172275 6.9872036 2.7614264 3.0590897 -7.126633 -1.6067408 -2.4470985 1.6429125 11.806854 4.419226 1.4277833 -7.978607 6.893896 -0.18620236 12.359504 -1.6802647 -10.755817 2.6682365 7.0420866 -3.6581802 -3.0978408 -2.69942 4.165458 3.006434 5.91608 7.220947 -0.2620006 -1.52479 0.23357463 -0.054679155 0.92514324 -5.6315084 9.095493 3.0984018 0.23501071 9.068055 -12.22784 5.392861 4.663329 -1.1794592 -2.9886293 -5.7628765 -5.8422375 -0.58041054 -1.3856989 -3.8705952 -5.0505495 3.3832521 2.0490692 5.464416 -1.4109278
1331033 6.90564 -1.185992 11.658858 5.7390018 2.8025324 3.1054904 5.8532443 -4.637483 -14.845654 -6.5204864 0.11141394 -0.7776808 -14.742878 7.508163 3.9974692 -3.6582282 -2.5771885 1.5622827 2.1251547 -1.2110753 0.41110477 3.9043622 4.3943806 -1.2677145 3.1535606 -11.0827055 -2.2948437 -4.664764 -9.230162 -1.905423 12.553875 4.2717843 -5.0202656 0.22157238 -7.649034 3.946165 6.8346367 1.804119 4.170713 1.0786762 -2.9498506 10.4984665 -4.1567206 5.932201 -4.218968 -4.039499 -4.8328996 3.3332503 2.5625343 -11.347093 1.6194087 0.2567315 -6.529513 -6.682649 -10.424592 -2.4659266 -1.9799064 4.682689 -0.63609 -12.005545 -3.146451 5.0547695 7.146284 -5.933029
722066 -2.9693012 1.6429288 8.800777 -0.99366987 6.779042 5.9052544 -1.162959 12.061938 -3.4650416 -6.1499357 2.7523084 -0.15566745 1.6321366 12.663151 -3.5655837 -3.7588928 -1.1621263 -5.8657427 -5.7998405 -4.5504017 5.424544 -4.3179183 5.69796 4.4471617 3.3846998 -0.121125504 -4.0904675 -1.4062092 0.0018568136 -12.206005 5.445086 10.1079 -1.8965393 -0.6921423 2.8726878 4.347958 -0.6790461 0.44743314 7.175566 1.7594784 -5.504457 -1.4687247 2.5001485 -3.9555192 1.6442755 -1.8036982 3.5002186 -9.148319 4.843851 -3.9560597 10.641984 3.7339792 -0.703145 3.2953165 -3.6771598 -4.8678093 -1.2986548 2.1136894 -2.1910357 -13.095989 -2.802148 9.251276 1.482115 -0.20915642
910554 1.7984241 -2.7824447 11.566378 -3.7616363 0.48912618 10.788343 -1.1245964 3.0040414 -0.00013666 -0.8465509 -4.63992 -5.638424 1.4690025 6.9352765 -0.9307802 -10.014509 9.114568 -8.455037 -3.6377964 -2.9843857 8.462776 -4.345221 4.3488894 -2.3208237 3.7567773 -8.05902 2.348861 -0.28342545 -1.4209187 -6.089676 -0.10659462 1.528453 1.9412689 -1.9763302 -9.957402 -1.6140814 0.048338935 -2.7932434 8.231922 0.0744944 -0.8122244 -2.3749769 -4.1027513 -1.6457005 3.350348 7.1665883 -2.600511 1.1298027 6.6993146 -5.0946236 2.3939598 10.93691 2.3451881 -3.83373 -4.232371 7.0491333 -4.778915 -3.3366518 -4.015283 -13.641261 -7.091252 6.402363 -8.049081 -1.0917201
909257 0.6602928 -0.36165395 9.721667 -2.1594236 4.84405 7.956309 -6.719581 -0.13783784 -11.445772 -2.9148366 -1.7445059 -9.717615 -5.892686 10.940986 4.8792706 -8.65919 5.034831 -5.4798427 -0.421001 -3.907819 -0.35350516 -4.154267 3.6241732 -3.4787982 3.1637716 -10.971134 -2.400016 2.3134272 -0.74179745 -0.9011305 7.102981 -2.0532446 -1.533148 -2.8943348 -3.1492155 -6.010029 -0.52413243 -4.5017185 4.4911942 2.941865 -4.1763453 -0.81196934 -0.3104181 -1.5130794 2.7293792 4.747775 -5.6171536 6.776895 4.83379 -6.425965 4.4125977 4.3053455 -6.441715 -10.596203 -8.803009 -3.6234565 -1.4530817 -4.120055 -2.026008 -12.472942 -3.370831 3.0335383 0.2827717 -9.591064
907276 -8.534209 4.643358 3.4653535 -0.91720974 -3.8302858 2.0992415 10.883922 11.537324 -2.9382005 0.08246486 -3.5019312 0.6555554 -5.430186 -6.0840364 -4.2338185 -3.3064063 -5.690276 1.7003062 -1.3017516 -2.9079866 -2.441445 4.348994 -0.461107 0.37499464 -3.4392817 0.7793578 -9.32608 -0.1460639 -1.8534617 -13.174129 3.2110622 6.25713 -3.8657327 -6.9005723 -11.941207 -4.3940773 -0.017756278 -4.6476727 4.296477 -5.001263 -5.4419966 5.9019303 0.19371237 -9.646696 -2.6353583 16.03959 8.080719 -5.918237 -0.064667605 -12.5367365 -1.1364231 -1.8389276 -3.7091794 -4.174076 -4.239086 -6.0143013 -3.308279 -1.5714965 -1.4564941 -12.547557 -0.32260498 6.732021 -1.0283304 9.736957
907311 4.8971515 -2.0144029 9.9844 3.5336094 2.140482 4.425814 4.519862 -5.663658 -14.005878 -10.120313 0.88756657 -0.1800565 -11.714828 6.9426503 4.33726 -3.4589818 -7.070203 -1.7778014 2.2795143 -4.646292 1.7981867 8.933378 6.47572 -4.5736103 4.030942 -8.952593 -2.6860228 -4.0767965 -6.705333 -2.7968447 11.472596 7.4343634 -3.2332485 1.457949 -7.7243648 3.6833022 5.825519 2.553703 -1.8986864 -0.2452538 -5.3070416 6.956897 -6.0777674 6.9175267 -6.2604775 1.7409346 -1.8035339 4.411752 4.8122845 -14.122005 -0.9993397 -1.4525224 -0.8992611 -5.2225466 -8.254399 0.1928777 -4.4799333 2.8850558 -0.13993476 -8.127361 -6.01755 8.556751 8.852123 -5.5932007
905936 5.267448 -7.3027654 14.348768 -5.18072 -1.9542061 2.7333798 6.1102867 1.2123394 -5.9361806 -0.5427944 -2.6115944 -6.452277 -4.8719096 10.174386 1.2322109 -10.686362 -4.185576 -3.6082323 -4.062088 -3.9843388 9.74069 0.11812889 4.9570847 -5.983808 0.71600145 -8.113927 4.9522595 0.4773774 -6.232522 -2.2812738 6.130147 8.106106 0.042916834 -3.4578226 -9.980875 3.0837836 4.2820086 0.008365902 8.884239 -3.490031 -0.3613866 1.0895685 -5.211747 2.3395944 -0.19378866 2.934948 -0.41572076 -2.1806405 8.256426 -6.5338917 -0.6672232 10.411658 0.335811 -4.0885158 -7.2326713 3.4328132 0.21634036 1.4049659 -2.0098708 -13.041349 -6.4807615 9.066677 -0.90426797 -4.6629577
1298215 -4.2955217 -4.6077023 6.0829206 -4.468058 6.9914365 4.192347 -5.5152326 -8.93586 -12.507458 -5.5264997 -7.4686856 -0.18775707 -11.137266 9.811509 12.194925 -2.5715365 0.93358594 1.0238693 -1.1591557 -2.4276435 -0.54224867 13.388468 0.7038143 -0.25258815 -6.57828 0.38343728 0.039165515 11.278946 -5.6392946 -8.260394 5.62965 2.7239676 -0.4506829 -4.1324763 -3.1466608 -0.09763137 7.089274 6.1932383 8.819835 -0.20826311 -2.3910675 3.652393 -1.9800826 1.6971548 -6.3269157 6.988773 0.45528162 -3.237845 7.0427127 -12.396238 2.684274 2.1527538 2.7200832 -7.853424 -4.2961974 -5.853413 -0.6116193 8.483077 3.733461 -3.9340093 5.1090245 3.3533504 6.133823 0.04633158
905954 -4.6564827 2.0758245 4.8114977 3.4241087 5.066459 9.004231 -2.537101 4.718883 -3.223337 -12.07638 -3.7207773 -4.6063943 2.3742208 -1.5067096 10.581453 -4.6601286 -13.46692 -5.707042 0.33546793 1.6140702 -0.80689615 11.241816 4.372095 0.3563392 1.1624078 -7.500087 -6.1060753 1.2369835 3.6108384 -2.7281976 2.6649659 16.427912 1.0308874 -0.50911814 3.3634691 1.9985989 -2.5253792 -3.6803474 -0.8383852 2.2706985 -5.225827 3.8308296 -0.8165817 -0.10035076 2.568571 7.5673213 -0.48102447 -7.7314057 7.2189064 -12.523933 3.9158378 0.02963403 2.3243997 -2.6486187 0.6339396 1.8759347 -0.61243933 -7.5091834 4.814278 -12.794713 -1.6522616 8.026095 4.5421896 -1.1866976
1247873 -5.3023834 -3.3776474 7.800823 5.799592 4.868778 3.8662326 -2.2884078 1.1298188 -2.199262 -14.824328 2.612448 0.06556829 -2.2228212 9.555938 -6.004851 -5.7313895 -1.8254321 -1.3198729 -1.2231979 -2.6104667 2.9126835 3.8985252 2.1309285 4.8657966 4.0732303 -3.4558434 -2.6332843 0.8541517 -2.1705341 -11.76393 2.069127 12.283516 -2.3165758 -0.18575108 0.39611858 -1.3126744 0.6687922 2.1944575 7.929558 -0.9038448 -8.042884 -0.12461444 1.4543513 -5.4953866 5.009065 0.4533717 5.8693194 -9.239099 6.2863145 -10.939696 7.2602234 3.883443 -4.7149243 -0.7005671 0.5332404 -4.2816763 0.0785205 -0.97990966 -1.2033403 -11.721465 -3.465025 1.0547012 3.449779 2.5031505
909716 -4.048341 -2.5935905 2.769871 -0.74385107 6.205734 8.706757 9.88712 8.01283 -4.943023 -12.381035 3.1411617 -4.6361294 -1.5742819 8.159391 1.775767 0.4746855 -8.881561 -8.385675 -2.5901027 -2.4213033 2.1922276 4.890727 5.5761404 2.0336537 0.4787153 4.1031327 -10.522635 -5.739355 7.4845614 -9.975489 1.5163738 14.890133 -5.2881145 -0.2306912 -4.894266 11.935339 2.3072183 2.8666232 4.541204 -1.2032036 -6.9132247 -1.9583024 4.0352306 -2.1114461 1.7436439 1.6331406 2.2852407 -5.2140803 3.645049 -7.302845 10.78052 3.5580623 1.0807394 4.7062845 -1.5807506 -3.5582447 0.19117352 -1.192515 0.92397434 -7.368567 -5.193738 3.0008252 1.8737012 1.9736581
1503366 5.104104 6.942795 12.096434 10.799078 2.3012872 -0.79196185 0.53025246 -2.516959 -10.882853 -14.656843 1.3292851 -4.3467393 -5.443994 0.5215779 -5.705689 -2.928694 3.1001225 -1.2054087 0.5594893 0.16955511 2.3914237 -0.11846293 -1.8391886 2.5702689 4.058221 1.0722318 -5.6205626 -1.1894743 -5.4623466 -7.442395 5.033212 3.112038 0.72487074 1.5368664 -6.0122786 -3.1790354 4.2000217 3.6370943 -1.449643 -2.047889 -8.492519 -1.4812274 -5.793851 1.5474223 -0.52439624 7.2232823 6.2569385 0.04267985 3.4260697 -18.912796 0.02680352 7.35281 0.18086967 -3.4685287 -4.076524 -0.514525 2.077394 -1.1807631 -1.8484954 -9.587394 -4.872869 5.0844336 -0.7628565 -5.6179776
688027 8.045409 -1.8283039 4.149103 12.464201 0.8352367 6.0912976 -5.1383343 -2.5119874 -12.639933 -14.645021 2.9227796 -7.4718795 -11.115738 6.4170847 -1.5814883 -3.0171428 -1.2291871 -3.0790155 5.185726 -0.4758035 0.25899723 -1.4308383 -5.0914273 2.756442 0.8549095 -4.4842033 -5.5629153 -1.5977397 -2.8337443 -0.49385992 2.57147 -5.2624626 -0.5824754 -0.69465315 -6.8145237 -4.16013 3.7216916 0.7597686 3.5941792 -4.0734167 -2.8344064 -2.9208343 -9.198277 -0.3940327 8.542311 4.6421003 4.516782 1.2228487 0.5810624 -11.452458 2.535814 7.157951 -2.6430488 -1.9192036 0.9682001 0.9274516 -5.4346514 4.508513 0.03498849 -8.394368 -8.32881 -0.95520425 2.0868096 -2.6838129
1298531 -6.2038655 -4.197817 11.504146 -3.499768 4.846986 3.4449103 -3.8095548 -7.992887 -7.0169725 -5.2337275 -4.004413 -2.0254507 -9.846081 12.064483 6.360505 0.5691117 2.0594463 1.5080236 0.2173971 -2.0663178 0.039095625 11.696654 4.0792036 -0.862238 -5.0318894 0.11141849 -1.5146414 11.452212 -4.9249525 -9.154991 5.696786 6.9459686 -5.06539 -2.9529421 -3.75977 2.5285645 7.3746767 6.947982 8.449341 1.2932016 -1.7313342 6.2898197 1.6047437 1.8209298 -6.9737554 6.9705267 1.3960046 -6.427481 7.2550845 -14.650164 5.2655225 3.8630717 0.2428491 -9.42106 -4.704388 -8.433371 4.9333906 1.3253337 2.4908085 -4.180755 4.237493 4.366993 7.0094137 -0.88444555
1290810 -4.137445 0.5511149 3.7775064 2.988456 2.6985586 12.433059 -2.8921125 10.426834 -9.64856 -7.98911 3.1784165 -2.4872997 -2.368261 6.9083476 -0.025890075 3.6551504 -4.167212 -7.375435 -5.999826 0.13164094 -1.5455322 3.9158707 3.291719 4.772039 2.3405395 2.2093136 -12.69259 -6.2321634 1.3559259 -8.247127 1.1696901 11.389586 -7.3835945 -1.838181 1.2265934 4.9108214 4.389255 -2.93413 0.7788959 2.939862 -5.0787964 -3.5992863 3.867277 -4.1692348 -3.0327964 -0.06406867 3.5413182 -4.4519434 1.4220991 -9.151836 12.5833435 1.1963975 -2.5806267 0.79342216 -2.48746 -7.081915 -1.1946485 -1.518816 2.074033 -9.606404 -1.9240296 6.6844616 -0.1971545 4.085224
908440 -1.9187719 -1.1557907 7.5634108 0.5065879 0.5153394 5.2652907 1.9592981 -3.7891204 -12.751288 -7.9740477 4.3853607 -1.5885801 -8.936238 9.181568 2.1817334 3.6465049 -7.5635133 2.2614293 0.60051334 0.40468013 0.3049107 3.939305 7.0813975 -6.1937065 -3.1958582 -3.875319 -8.846901 -3.8047814 -1.9414119 -7.150972 10.082684 11.758263 -5.9442906 -0.7515283 -3.7171586 9.577823 3.4107 -3.0580213 3.899195 2.4588685 -3.0290525 5.7959228 0.7021045 1.9501412 -6.3781843 3.3802538 -0.82156694 -0.13553222 2.3248055 -9.999954 2.2865105 3.1905925 -4.1755605 -1.8926162 -8.161433 -8.064173 0.8043778 0.9581383 -0.7601948 -12.60524 0.015309052 12.790427 5.4647226 -5.289563
1303900 5.617555 5.490029 6.18765 13.468848 0.91882473 3.6444397 -3.6853604 -1.0457032 -6.130612 -12.604973 -1.6732308 -2.3363547 -9.547737 12.5893345 -3.7586906 -3.5066907 -8.501001 -1.179789 1.9773146 -0.48639235 4.0690045 0.498726 -5.567501 5.977964 -6.9649744 -4.3432975 -5.8070936 0.97973514 -7.2069106 -1.912186 4.5316815 -2.8486538 -2.139284 1.8136877 -8.6452 -2.123304 5.106706 -1.7436849 4.056882 1.6322029 -8.762867 -3.9102154 -1.1794993 0.68334043 8.69566 1.1669844 4.0518613 0.7911816 -3.0854352 -8.534059 -1.0607435 9.586416 -2.0086591 -6.652656 0.7747754 -2.9192903 -5.881203 4.878981 -0.6682821 -6.997202 -3.622528 2.714885 0.21630678 -1.148509
908118 3.460043 -4.0267596 5.7207866 6.260502 1.8105928 3.9206896 0.24136794 -11.334889 -15.123059 -12.499532 -0.22112879 -7.3045654 -12.148512 5.677802 4.8690734 -3.0470033 -4.385145 -0.7648473 6.5170465 1.3779742 -1.6069871 3.7274873 3.4983158 -5.8536882 3.158899 -1.9016551 -3.6419044 -6.236543 -0.33404714 -3.8574154 9.244643 -0.5386502 -2.7221496 -0.18854791 -6.4713264 4.2349586 3.4633443 2.8887823 6.972493 -2.4124696 -5.2669086 -0.4776406 -3.4693525 5.0681167 0.7726896 2.7313988 -1.368066 -3.1477747 -0.0273535 -16.642584 -1.2355274 4.085291 -4.3181043 -7.51179 -5.0318675 0.90658206 -0.59717983 9.61356 1.374514 -11.027803 -5.120124 6.0688214 3.195356 -7.6637635
910691 5.220667 -4.8148236 6.968871 1.868964 1.9265906 8.099006 -3.7293565 -0.29099953 -13.174168 2.7994697 -5.2674904 -2.635531 -6.2939696 11.735755 -3.1143136 -4.447045 8.02158 -4.159942 7.523906 -3.185711 0.85010034 6.4232397 0.6020268 -6.4451823 12.44499 -7.267774 -4.123736 -5.7986884 -4.3722596 -10.278025 6.911541 1.4397491 1.2249188 -2.9541118 -5.7450705 -6.541532 -0.35857165 -6.4075565 -3.0004885 -0.9765785 -2.2154813 11.432002 1.9775426 -2.8417993 -6.1244516 -1.3260034 -1.2297322 7.8132257 0.6508933 -1.0316088 -4.1178427 7.2894926 -8.495858 -4.784245 -7.175824 1.7810972 -10.722606 -2.1179554 -4.3072314 -5.326852 -7.206342 6.6491413 -4.4419785 5.491893
905961 4.3609033 -6.1453214 12.421331 -9.655114 -1.9284335 4.490279 3.1557252 -2.4952059 -8.356849 -7.7437916 3.4846811 -3.2098248 -7.615384 4.211455 8.826514 -6.552765 -8.5253 -3.1997268 -4.187641 -1.7194413 8.614034 7.48973 4.3407874 -5.613509 -4.0561576 -4.4120107 0.30432093 -3.223057 -2.4100544 -1.300029 -1.8560145 6.7186437 4.1120844 -7.3714085 -9.000442 2.0858002 6.204323 -0.3208455 11.056564 -2.5293367 -4.771846 -6.1785984 -8.979671 4.0292306 4.5539923 2.6046274 2.4025388 -8.792733 6.2987533 -13.931885 -2.6221445 8.3720665 5.1376405 -5.412113 -7.4462647 4.7557497 -0.5648265 -0.024493044 1.1926588 -9.8127985 -3.3070662 11.122698 2.4864879 0.67547446
1327774 -1.9640831 0.94830453 5.511956 9.735701 1.3431737 -0.5921854 7.719355 -9.169823 -10.653596 -14.57314 -1.6095699 2.8522217 -14.776673 8.289276 0.81926954 -7.87871 -2.142109 4.7889857 6.984307 0.26265553 -1.2036209 6.1655126 3.863139 -7.756387 0.6804574 -7.2893925 -2.3014102 -7.228993 -6.7278137 -5.8804955 11.1806555 8.053706 -1.8360224 2.504352 -12.117228 7.7395315 4.811136 2.1570742 7.9606705 -1.9495647 -3.2212365 8.849373 -4.9506755 3.6308124 -4.061358 0.8042945 -5.600804 2.4022431 0.044717744 -9.827084 -0.072375484 3.070303 -0.3222907 -4.482799 -9.095702 1.3854396 -2.5812812 8.6356125 1.0030677 -8.01793 -4.5776215 9.14619 4.213478 -10.193083
906833 -4.1000204 -8.419844 5.201569 2.4339128 2.6869855 -0.37229374 1.9445338 -2.9608867 -11.663162 -7.926525 -0.66483414 -5.536853 -1.9593257 14.073258 0.9917477 -2.1252725 -4.676043 -3.82044 2.6545591 -1.40775 -1.9294095 4.2929945 4.9783325 -3.9750822 1.5462517 -2.4574814 -6.915413 -4.55371 0.43739894 -12.080054 12.185406 6.360791 -5.175303 0.07042981 1.598149 8.526045 6.1438627 2.6808987 9.910584 2.703275 -2.108641 2.2158947 3.8512003 3.1685596 -2.982693 -2.24885 1.1563215 -4.5854053 10.265509 -11.23998 6.438028 -0.44543192 -3.3944526 -3.9520297 -7.4833083 0.52379173 1.376371 4.9910636 2.9200695 -12.327053 -6.034448 5.499231 5.3684835 -0.7826357
909260 6.3556166 0.6916048 10.583084 2.3795986 -1.0026637 2.476231 2.0092616 -2.0757341 -12.859058 -8.926778 8.013877 0.70500815 -12.76514 6.6412787 -1.6054801 -6.6206985 -0.44286638 -4.9149833 1.6974884 -7.0974298 2.9039035 2.2057328 1.6343253 -7.75391 0.29161334 -10.579632 -0.10865974 -4.0475917 -9.647091 -0.76909846 12.293898 5.7169557 -6.9843817 -1.1120996 -2.7440434 -1.6927422 6.17661 -0.116856426 2.4164758 0.00904285 -1.4456465 6.894561 -4.423382 -0.5053529 -4.891401 -1.9880431 -5.820283 6.5661635 5.9621387 -10.021472 4.6283827 2.5475821 -3.6259809 -1.6332122 -11.383791 -1.8606716 -6.364145 -2.124323 0.27109253 -8.848423 -2.98176 7.8025227 7.649253 -3.3925827
1327775 4.2288074 5.116024 11.06281 4.144425 1.2209008 -1.0055588 1.9007187 -3.7314582 -14.751885 -7.6074276 6.1532245 1.4354347 -9.721704 7.242746 2.429199 -4.677101 -2.5260704 -2.0566478 4.2913456 -1.6811427 5.2161894 4.7365656 4.8020926 -6.9501443 2.162569 -6.47733 -3.243569 -3.0094407 -5.9192758 -1.6988806 13.961834 4.049081 -2.9459846 2.5032825 -5.7469454 4.2854776 7.5535192 -3.5171056 -0.21915334 4.3231893 -2.498759 7.7781973 -3.713216 7.527217 -6.120075 3.5724964 -5.609587 5.298186 7.5545483 -12.2223 3.6952603 0.019010441 -1.458266 0.018244673 -13.295628 0.044303242 -1.5877259 -1.2927687 -1.1484159 -8.796421 -4.4852405 7.26691 9.7832575 -6.475872
949153 6.685846 -0.33885926 8.229808 1.5417322 3.556552 1.6267184 5.6006093 -6.2985063 -15.039038 -9.736694 4.6111307 -3.0056078 -15.902466 4.830723 3.2655668 -2.4159987 -2.1400049 0.6111226 2.335081 -4.811178 -0.71847606 4.5786743 4.740773 -3.9484332 3.2051666 -7.3052297 -3.7814689 -4.077156 -7.476395 -6.2919865 10.071373 8.111079 -4.4881697 1.8498558 -8.23898 6.1607976 7.321327 3.6820397 2.3987582 2.254637 -4.70847 9.805938 -4.8624053 0.26372132 -3.2911797 1.0007634 -6.7648835 5.472523 1.2695286 -11.467316 0.4946565 3.9625711 -2.3175046 -7.8960714 -9.544244 -0.4599215 -3.5258517 0.96695113 -1.7480851 -10.009156 -0.56127584 9.174941 7.05194 -6.107549
906793 4.811026 -2.2104905 8.177775 0.06648821 3.4462852 -0.40529242 -0.330712 -7.964833 -11.079281 -7.9228477 0.28256357 -7.4759364 -3.9204633 5.131965 8.596379 -5.708228 -12.8429575 1.9330196 3.3678648 2.1618583 0.7086323 9.908436 8.432316 -6.8497257 3.1194322 -8.309074 -4.1494617 4.5851736 1.5938345 -7.7283564 7.9916534 9.657654 -1.1722419 1.6626271 0.71737003 4.0818763 0.4704373 0.6455707 0.94026077 2.8877485 -6.21009 7.367642 -3.318032 2.5096798 0.36035514 7.1732645 -6.054091 -3.351769 1.0288931 -11.954406 -3.9371307 3.0154576 -2.7532763 -12.703678 -2.2435145 3.9002864 5.4979653 2.755995 2.266451 -11.269134 0.4730296 10.628246 8.367 -11.042895
909703 8.908679 1.0231527 11.927963 2.1108494 -0.24709395 0.94427156 7.454482 -4.8937664 -15.4558935 -8.324674 6.382678 -0.50294584 -11.679417 5.550264 -0.104631774 -2.466749 -5.890585 1.5287223 -1.1300571 -2.2773018 0.9340575 3.5637324 5.396493 -8.555015 -1.271213 -8.174841 -1.9949604 -4.4524746 -8.668086 -4.3417306 13.568447 6.733843 -3.6624794 2.171554 -7.0103445 6.0478315 5.1868467 0.26461002 2.839756 1.1907874 -4.4993906 11.297298 -4.582816 2.3786201 -5.465682 1.3692067 -7.544281 7.8330617 4.1740766 -10.165174 2.046676 1.6794077 -4.4408417 1.1452209 -11.108272 -1.9577038 -2.6230257 2.106561 -1.910452 -10.807679 -1.4174309 5.4509478 4.890596 -4.5992208
1240193 5.531445 0.80125654 10.160067 5.0039134 0.35673565 3.7799509 2.761487 -5.1490726 -18.09776 -9.137808 6.6899548 0.5152143 -9.227505 7.5730705 2.0447526 -2.0405009 -2.0729294 -1.4420432 4.571976 -2.4623516 0.1298819 3.835475 4.0993433 -6.5977335 0.6750504 -7.464521 -2.5687401 -6.4023037 -8.3580885 -2.7448225 15.317836 1.93189 -6.4920053 1.6298403 -0.51708806 2.0075274 3.476371 0.50629973 4.03145 0.16191173 -3.795402 5.2866993 -2.8512695 6.309736 -0.85618794 -1.5828984 -2.6598277 2.90822 3.2362409 -12.5004425 1.8966779 -1.591618 -6.8890924 -2.158536 -10.7556715 -3.6064036 1.0746166 3.2076533 0.002252467 -13.07439 -3.8908758 4.800691 5.732174 -3.2330253
1330984 6.850157 -0.17999558 11.109286 3.7191143 2.1146924 -2.6403005 5.1973333 -4.0873327 -14.923922 -9.131498 4.4901752 -2.519828 -8.313804 7.897245 2.3794448 -6.660725 -5.832029 2.227371 1.3214322 -3.8607502 4.725558 3.8089995 7.0664415 -10.481884 0.84993064 -8.611291 -1.4358879 -4.0029655 -9.613526 -4.209214 14.302884 6.92859 -2.90816 1.3275387 -5.7223244 3.246321 7.335172 4.5291677 0.6185967 -0.7510783 -5.451021 8.108011 -3.8595347 6.067166 -5.6674366 -0.83866614 -4.346856 6.6117764 5.471126 -12.708987 1.6289725 -0.3052855 -3.9646683 -1.1032481 -11.762981 0.18697943 -0.011864738 1.8950516 0.4618029 -8.43295 -1.9384985 5.616506 5.938448 -7.2646217
910701 -4.709159 -0.5009454 9.696859 3.3899748 4.500456 3.333073 -8.32942 -9.078854 -7.512506 -12.891859 -2.766114 -1.1996267 -8.855014 7.5371165 3.4634328 -2.2446113 6.20809 -1.1324477 3.5652716 -2.1213608 5.4547496 9.115272 -3.0013092 1.1394545 -3.8884459 1.6798166 1.8741454 11.5421095 -10.1330805 -7.1328216 3.5952306 3.8264782 -2.6410153 -1.9476736 -3.3480022 -4.3261595 8.497701 7.252985 1.5045716 -1.1277728 -2.6539426 -0.87421155 -2.4350514 -0.4915003 -0.66878873 8.650706 5.3162823 -2.3089108 8.103977 -15.34793 4.337807 8.260659 -0.057797354 -1.6348044 -1.603954 -7.229202 1.4601315 0.79961556 1.6953982 -3.0014844 3.5313585 -0.24064893 1.7838154 -1.8845084
949155 7.0443926 0.39452478 11.587965 2.7529647 3.4284425 1.68478 2.394671 -8.086352 -14.420076 -13.886668 4.698051 -5.5534296 -8.07149 5.129787 1.7710311 -3.032714 -5.620963 1.1143384 -0.8264344 3.004475 -0.9258536 3.691446 7.1785784 -9.09106 0.0776741 -3.2848492 -5.547245 -3.418924 -4.0579095 -5.9356856 11.819102 7.5095806 -1.7700928 2.837499 -7.3481607 5.838765 4.6816406 6.224457 3.063212 -5.1384053 -6.4627085 5.678664 -3.8835404 4.2251925 -5.85365 3.670812 0.59149325 8.085151 0.84224916 -14.9890785 0.6286272 5.6568604 -4.8732557 -2.13197 -7.8884206 1.1864063 7.084744 4.593793 0.83186823 -8.278855 -2.1403778 4.2201896 2.2188838 -10.524567
753574 -4.9184113 11.126715 5.973219 4.783299 5.9366417 4.0064974 0.48778382 7.2469983 -11.4018 -8.0315075 -1.8962568 -0.08859726 -0.115857884 1.9222716 2.8436036 1.5052546 -1.3471406 -2.5721812 -3.4982288 1.2430737 1.1988686 3.103255 0.31014004 2.8877254 4.794519 1.6041427 -8.491513 -1.5466368 0.00019183975 -8.785884 1.9012263 9.273805 4.776813 1.6697206 -0.13232024 5.9439054 4.6477103 -6.3788767 6.2087264 8.169848 -7.6963377 0.74713033 0.13299887 -1.4239374 -2.1902027 3.9533775 1.2706958 -11.37044 5.984757 -11.700933 3.8923907 3.6662621 -1.6860037 1.7229085 -8.226822 -10.814028 -1.3958074 -1.9269235 -2.1748984 -14.843631 2.847672 6.6161027 1.3335857 0.65101665
907061 -7.3420196 -5.438511 8.929593 -3.3249385 7.260681 3.566825 -5.627546 -6.3718104 -9.1045065 -6.800741 -9.83017 -2.5325947 -10.096274 9.842152 12.414457 -0.8098691 1.0154117 -0.058047086 -0.46726304 -3.7288084 1.1878422 11.005108 0.7104313 1.8309873 -4.471986 -0.4051338 -0.2797919 11.458765 -3.739229 -7.321533 1.7931012 0.7057656 -3.8840346 -4.61548 -5.700921 -2.7870574 7.595453 6.709786 5.476286 -1.9441272 -0.1861442 4.9233036 -1.6228623 4.939821 -7.0528817 7.4609528 5.41451 -5.067047 8.925819 -12.215459 5.137263 0.7391739 2.5874622 -8.22041 -7.5001564 -5.0753145 0.90370494 2.9109957 3.6163988 -2.0313313 3.4572592 0.1377431 4.7029734 -2.293189
749716 -0.435767 5.3874345 2.3357425 8.501212 1.6142157 9.837166 -3.1462336 3.743735 -10.47867 -5.5249276 -3.3261828 2.7162998 -6.2960567 7.0561557 -2.8516185 5.482987 -1.441256 -6.1341376 -1.9643167 -0.91424435 6.487529 1.0981764 5.350488 6.8697925 -8.575092 5.925299 -10.104926 -6.1885195 -6.348221 -11.233746 1.4502575 5.0109787 -3.5726159 0.020384222 -3.5571132 9.427524 4.2969394 0.38132635 0.19419296 7.35818 -5.8237963 -2.0029016 -1.9527599 2.9624896 -3.5658271 -2.8290846 -2.0694218 -1.7057294 1.705591 -9.099797 8.604781 5.426452 -3.157141 -0.32099587 -9.340885 -0.7858064 -10.112645 -4.005003 -0.45761898 -11.550514 -1.4366802 7.941061 1.4499004 1.6886424
1327771 2.6832979 2.440265 5.1472425 2.3620346 5.173005 -1.3037363 4.4333735 -0.837649 -12.229732 -13.498734 5.016977 -5.3754115 -13.923422 5.558001 3.260507 -5.596075 -5.2131314 1.086358 0.43802142 -5.855604 1.3533316 6.570563 0.12579773 0.2310569 5.533086 -8.588475 0.5332954 -2.1540992 -5.486526 -5.4052553 12.084282 11.668604 -4.174493 2.7327685 -8.570977 3.5025172 8.019483 2.999421 -1.5392447 -0.13895975 -8.443629 1.6492988 -3.9094217 -3.5404682 -1.0428865 7.3898616 -2.0743835 3.5234683 1.1587592 -11.1200485 -1.2553029 2.7378566 2.748819 -6.342801 -2.302598 -6.75771 -0.6043965 6.6242213 -3.43003 -6.3419204 -2.1761978 9.573158 4.6594467 -8.932862
906877 3.6452024 -1.5543847 12.018007 2.8743901 5.8722997 4.2978387 -1.8581644 -0.54405457 -10.509058 -9.131799 -2.773648 -5.1465983 -9.570001 7.39389 4.208361 -3.5288246 0.3823974 -3.6802042 -0.4244533 -0.72025174 -0.48485583 -0.40489298 1.565166 -3.1837218 -1.0549346 -10.080389 -3.529949 -2.9676807 -8.572727 -4.879747 10.839642 2.7769969 -3.1598036 1.5100666 -5.7918773 0.5862143 1.6860392 -1.1481776 4.3151083 1.4318908 -3.2002382 6.5191545 -2.5356994 2.3572192 -0.22721665 3.5942197 -1.6237671 9.634904 4.37669 -10.400927 6.898668 5.217175 -5.8505945 -3.129125 -8.8408 -1.4663622 2.648226 -0.7327751 -2.5028675 -12.147575 -1.8901964 3.77911 1.8019328 -7.52072
907066 -7.3831415 -1.0780779 3.5169754 5.1550727 8.929751 8.654848 1.7533693 10.792826 -4.329117 -10.08241 -0.089711286 3.2644937 3.9271092 10.214209 4.6671286 -0.6913783 -8.279382 -4.2484527 -5.3806047 -2.019301 -3.4482932 3.398643 2.203619 4.9642262 3.1213827 2.39869 -6.386656 -5.069751 2.9702733 -6.4761314 2.450103 10.117695 1.9211826 -5.033437 -3.1981316 3.3400033 0.82720935 -5.340444 7.9718785 2.3874502 -7.405616 -1.0904673 -1.1893291 0.04485971 2.2054477 1.1989293 4.021931 -6.657237 3.6162176 -6.5843716 14.299692 -1.8794799 -3.0893097 7.9168797 -0.73602587 -7.423845 -1.6236417 -0.19446594 4.182027 -11.171092 -5.7755947 -1.5120575 -0.57211185 7.793316
908481 7.8143277 -0.88055515 5.057496 10.768454 -0.14566967 10.613659 -3.8425558 -5.171549 -9.821323 -17.08901 3.235343 -6.3326125 -9.170363 5.5792294 -4.711939 -1.9057453 -1.7263383 -4.3500886 4.3185277 1.9054549 3.5983539 0.8809997 -3.016598 0.7144642 2.3346236 -6.1011014 -3.014502 0.8612103 -1.0762402 -2.7349758 3.9938495 -4.3443046 -2.7480142 4.4635496 -4.773983 -5.3513193 3.058154 0.8524028 5.6487885 -4.9819145 -5.80794 -0.47449082 -5.3421793 0.80174834 5.9683757 3.5561633 4.8550944 2.260628 3.5813556 -11.960974 -1.098434 6.687087 -0.27221224 -3.4869297 3.3784068 0.9091133 -4.868023 5.8635707 2.0981548 -8.105017 -5.9654245 1.7141955 0.10684225 -1.8419325
1290922 -5.7001057 2.178191 2.0576975 5.2754116 3.5696301 11.139602 -4.14554 1.5429076 -5.8025465 -9.311852 -3.5293813 3.3843062 -3.8616014 7.4299464 1.4686806 0.77450085 -3.5052621 -4.232692 2.0922647 0.45988393 0.50214756 4.078267 1.5338752 5.202747 -4.421588 4.448437 -6.4852266 -2.4254754 -4.879284 -9.582606 4.321954 6.416182 -0.7397158 -0.08166443 0.19177952 5.3301926 3.1203377 -3.4343393 9.413225 8.944659 -8.460313 -1.7841653 2.2203705 -0.03389016 3.2537985 -0.6536741 -1.0086994 -8.445962 3.90434 -9.110863 9.540243 3.7248113 -0.5909339 1.5967083 -1.1069458 -5.3348236 -4.5643167 -0.61140317 5.7721276 -13.945265 0.18205628 4.8899345 1.7692167 8.811023
907786 -1.7476782 3.3957803 6.598342 4.554562 -1.7481344 -1.451403 -2.010506 -5.068019 -11.421364 -14.75588 3.2882593 7.8858695 -6.647378 5.6814165 0.09957941 -9.884196 0.099309936 3.510899 1.892262 3.5686297 4.793935 8.507537 6.0124536 -10.746911 -3.9067006 -2.662376 -1.0045494 -7.062108 -7.1393743 -5.9290595 15.044446 6.2008734 -0.36258367 -0.5067497 -4.969792 3.3025744 2.7269883 1.969675 4.7405353 -2.6583397 -7.901101 0.75736773 -1.44972 4.5085974 -1.2410245 3.5970383 -2.0232692 3.3772006 -0.16239537 -11.283833 2.918873 2.216051 1.6278715 1.3396847 -7.226119 1.6776701 1.6442959 7.2514577 1.0633465 -7.4629965 -8.134823 15.727881 2.6818616 -6.7615333
908457 0.6284232 -1.7593608 18.053455 -3.3535404 -2.6552444 4.1730394 1.9949788 -3.640839 -0.15372472 -8.84271 7.0805798 2.4918478 -6.243015 9.047045 -0.68951684 -6.570231 -0.7784556 0.35882956 -0.41735834 -1.1016073 8.94862 5.4340186 2.849345 -7.7231665 -3.175421 -6.688708 3.076383 -2.1953433 -6.4761386 -1.0487444 1.4089445 12.466615 -2.8968153 -4.086745 -9.751668 2.4222524 5.8071313 -1.6209077 10.532395 -0.8525378 3.5820024 2.844681 -5.4784527 4.895663 -0.23255979 3.8643658 -1.3924838 -9.409932 7.513274 -11.06247 4.3924484 11.78504 2.9359872 -0.6361927 -8.344547 1.1498467 1.7082483 -5.6559157 0.5982334 -10.679787 -5.298088 10.446959 3.4328039 -3.6956818
909722 -3.8599582 -0.4669657 4.292698 1.7058219 6.609674 9.079697 2.0146146 8.636961 -6.1519623 -9.845035 -8.475656 -3.1241004 -3.287629 2.2920775 8.172525 -0.4252074 -13.8739605 -7.120121 -6.600041 5.253077 6.0239716 9.861023 8.058975 0.27068037 -0.15268679 -0.97637224 -7.8480463 -2.2128956 3.1401684 -3.5145009 2.511884 15.3890505 -0.32557565 2.479563 -6.9462037 9.3099 7.969643 -1.7622902 6.302577 5.8875475 -8.061595 1.676288 0.5110191 -3.4659884 -0.35756323 4.0839825 -0.7451164 1.9507067 0.35778907 -7.2663302 7.2541094 6.323923 -4.630735 2.827647 -3.771158 -5.455042 -0.5470922 1.7825903 -6.4656906 -10.298217 1.6014469 8.827463 -0.91425884 -0.10732169
684059 6.7795296 -0.7739373 13.660265 2.9328065 3.104591 -0.16672212 7.6161556 -7.171609 -12.751352 -7.791144 -0.1444292 -2.9943073 -11.193667 7.084562 1.2744203 -1.2871332 -4.2797265 2.156004 2.1947792 -1.279456 -0.492252 2.8706722 9.451317 -6.877673 2.7596424 -4.4311113 -3.242695 -4.5769033 -8.579996 -6.221256 13.706037 8.27841 -4.900273 4.0697684 -7.665772 6.5020347 4.9516296 5.049389 3.9160786 1.8127445 -5.386739 12.33362 -0.9284413 6.3123345 -5.697895 0.33368295 -3.568097 5.331021 0.9680404 -13.002564 1.0995202 3.074787 -8.940499 -2.3145294 -10.914535 -0.4652429 4.83872 2.4498644 -4.251923 -10.467374 -0.9705641 3.978994 3.7958312 -8.124493
905977 5.831864 3.0118828 8.974857 11.289343 2.1508396 4.0831666 -2.72632 -1.9543111 -3.0424473 -12.271909 0.5871976 -6.654843 -4.804208 6.16018 0.84677184 -9.203002 -9.306212 -1.4157221 -4.507398 0.058276385 0.46925047 6.0800276 0.9215831 0.09127914 3.5661168 -11.682011 -2.5486777 5.3712287 3.3149831 -0.881806 4.7213 13.410202 -2.8848958 5.629529 -2.8526394 -4.7598968 2.9397311 1.6950393 0.13415201 0.2796678 -6.8624835 2.5708208 -2.233451 2.148018 1.8406253 8.736012 -3.5370188 -2.7486217 3.1871436 -15.863386 2.088355 1.6496199 3.9189687 -12.294917 7.0627937 0.46971363 1.1508062 2.6090698 6.2204986 -8.0619 -1.7785134 4.160209 3.7350798 -5.935349
724873 -4.729098 1.1340048 5.138431 4.976306 8.87072 7.402086 3.4514937 12.595366 -3.5668333 -6.541824 3.4917297 2.607068 3.6787062 14.348472 -0.67097944 -1.9661957 -7.0351143 -5.4540277 -3.028589 -0.33740008 3.5370307 1.8183113 4.5937266 8.098336 3.0680158 0.97299117 -5.631399 -4.544633 1.6977075 -11.867192 1.8880063 11.818726 0.14561643 -1.8582476 -3.563574 7.645587 -0.044758637 -6.85592 3.7504897 4.3363023 -7.2915053 -3.8367536 1.071726 -1.6393781 3.3680184 -4.456039 5.010999 -6.1857753 0.9789623 -3.6620786 8.921018 2.7685335 -3.1030936 1.093249 -5.4683137 -4.7592635 -3.4436293 2.191342 -2.477177 -11.72364 -4.7845483 6.069893 2.9042091 2.0502996
908141 7.713346 3.7965298 12.009521 3.5349095 2.213702 -1.6589527 3.1089199 -0.5755629 -12.947847 -10.171641 9.092165 -0.27952293 -8.557923 11.197078 -1.9838964 -6.397611 -5.6988306 1.6199532 4.40136 -1.7031102 9.663472 6.1922007 5.500054 -8.081414 -1.6684419 -7.3819914 0.42621306 0.53049403 -1.6164657 -4.704861 13.480572 6.8261247 -5.7308836 4.9543486 -8.289774 3.912568 6.930197 4.4923606 0.7469773 -0.22536948 -4.7439957 9.101013 0.28181133 7.8013825 -2.5397058 -0.016032128 -5.6062136 3.8796322 3.2050524 -12.078975 0.56220716 6.924272 1.1489412 -2.9599438 -6.8610797 1.7949512 0.97183275 0.31911856 0.4304498 -5.9480815 -5.0301967 3.5071285 7.1223783 -7.044321
910544 4.972281 -3.346432 8.553281 -0.34095344 3.0970645 5.0341983 4.8416104 -9.179828 -14.525601 -9.657241 0.6896884 -7.6328535 -13.515376 3.421006 5.6350007 0.14831631 -5.1095133 -1.9910202 3.1288655 -2.5730922 -0.68366987 4.5516634 8.230044 -4.8590617 5.473959 -3.575326 -6.2785916 -1.4783093 -0.07190878 -3.9397526 8.632703 3.47639 -2.423243 2.8016093 -11.032508 5.650917 7.023393 1.449203 3.931812 2.7462144 -4.112505 7.287685 -7.397152 -0.5154648 -4.868166 11.101174 -5.6328216 8.356055 2.6248076 -11.463008 0.35910222 4.7076173 -3.4837792 -9.081918 -7.367787 -2.9241729 -1.5144833 4.7181344 -4.8841887 -9.528071 1.8899813 8.229776 4.6222935 -7.5544877
924187 2.1225262 -4.8441997 4.94049 3.1889737 0.21533321 9.966218 -8.522834 -3.5626414 -11.516838 -2.9517794 -7.1630707 -0.4993801 -2.3854358 13.299806 -6.91923 -1.9612658 3.8408687 -5.052965 11.693514 -0.68665653 3.9650714 10.156893 -1.6930931 -5.2677193 10.050379 -4.054878 -1.7104677 -5.8145533 -3.7589161 -11.962136 0.97714657 0.113418594 2.2851405 -2.7308743 -1.9533874 -11.041154 -2.8503256 -8.747546 -5.163891 -1.2998592 -3.5919056 5.0110664 -1.0800748 -0.7618683 -4.900309 0.6967291 5.2648525 2.125293 3.8394067 -2.896168 -8.535942 9.344585 -6.698109 -2.4873552 -7.013187 -1.7303973 -9.970044 -1.7813566 -4.1520133 -0.59103084 -4.063783 4.7672367 -3.4766524 0.14257607
1503368 -1.8541397 8.5968485 10.485212 7.136142 5.6608615 1.4215386 7.592352 6.3002515 -9.250268 -12.152834 2.9419966 0.43999606 -6.0214148 3.6095502 -2.9549499 -2.659197 -0.6419076 0.28643376 -3.2140403 -3.1613808 -1.7549748 4.089958 1.8168845 2.672833 5.430711 1.2370459 -8.127048 -2.921689 -4.9206114 -12.235301 5.9515004 13.731968 -1.625889 1.8931482 -3.2256174 3.0219135 3.1998122 0.8032864 3.6347535 4.4428563 -8.941378 7.9430637 -1.8653738 -0.92188907 -3.9549608 1.8476771 0.43651202 -5.8733377 6.438686 -12.683219 7.524035 -0.54872304 -1.9055089 0.92682296 -9.4851465 -5.975647 -1.674013 -5.99024 -3.785838 -14.0613785 -0.45155597 3.6414225 4.620849 -0.08753051
1298357 -2.4020813 7.20149 8.319517 0.54644036 -1.092254 1.3569733 4.457971 6.905507 -8.536209 0.30013874 0.83375376 -0.17174421 -4.7303505 -3.204255 2.1233978 -3.9444566 -2.9485013 0.45870903 -5.1229215 -7.5634747 1.7766714 3.832421 4.231265 -4.441485 -2.1513996 -2.1864052 -6.0548754 4.053113 -7.390656 -10.214037 6.955251 4.599298 -5.370538 -2.6989586 -8.3374 -10.147719 3.384946 -0.22671205 4.1845827 -4.091135 -8.063266 4.1386476 1.1492819 -3.818823 -2.8774617 13.080185 7.069033 -0.5739803 -0.1602176 -16.9397 -6.5291543 -1.5258933 -7.2669287 -12.340146 -9.370302 -6.3115964 -0.41588435 -1.1773158 -0.93000126 -12.176475 5.6599207 11.503933 1.9134656 4.0157943
910546 0.34670705 1.5277133 7.666278 1.3889467 0.5830782 -2.0396202 -0.6632965 -6.263025 -15.081559 -8.9591875 4.6891603 4.626057 -8.982489 6.333462 6.1853414 -6.594119 -5.1423254 0.9501875 0.15757456 1.5249834 4.443352 11.178945 5.35925 -10.2659235 -0.37408167 -8.428507 -2.266161 -2.4567347 -0.5387438 -6.6411486 10.03124 10.575323 -0.5959237 -0.52652514 -0.48711395 6.1421266 6.934029 -2.3487089 3.3935597 2.1282508 -2.9042802 2.0465376 -1.2422836 6.938909 -3.4771469 1.7606572 -5.1027465 -0.9645801 3.668894 -12.229176 0.8324283 1.8202168 0.656547 -4.0236664 -8.360843 2.4695842 2.087169 4.034961 -0.40143043 -11.108102 -3.4668682 13.897683 7.816593 -8.637637
908445 -6.3501163 5.1868906 2.6452017 -2.205354 -3.9454997 8.110209 7.0198245 8.6196575 -5.4550633 0.9322732 3.9504004 -3.8675308 -2.5582752 -3.694157 -5.1345587 -1.955925 -2.8218853 -3.4063077 -2.8290567 -3.0632129 -3.8706732 0.9415438 4.718727 -2.567424 -4.9799204 6.6747203 -9.007598 -0.15369557 -1.0150418 -12.775353 4.0264525 5.4507494 -4.337077 -6.3393416 -11.092958 -0.41779533 -1.8753392 -1.047896 7.02254 -4.440191 -4.8364196 2.437194 1.5069143 -8.986472 -4.0701876 12.924457 5.7518806 -2.9906583 1.6721298 -15.194509 -2.8833046 0.0953022 -3.718697 -7.262163 -7.5535774 -2.2389684 -2.783084 -4.140883 4.347316 -11.89597 -3.3415844 9.962305 1.1222718 6.9780374
906855 -1.3198732 4.2121253 4.0732427 2.3504493 0.25807348 3.0570443 3.0886579 2.9293869 -16.155375 -8.533407 6.222588 1.0554 -11.029494 7.5270333 -0.40912604 -4.600118 -4.1500273 -1.544653 3.067478 -5.7144127 6.0755835 5.497716 4.540297 -4.391031 0.035472095 -9.239698 -3.984985 -2.7342336 -3.821422 -6.0452476 9.461997 14.919305 -2.325208 2.4126801 -4.938699 6.4477386 2.2013562 -2.8113143 1.1646243 1.0858927 -5.1419497 2.889962 -3.3440104 -1.6688699 -7.1527677 1.7007562 -2.8229012 2.6524127 4.808288 -8.615433 -2.0448735 3.420895 1.7034079 -2.009017 -9.556575 -3.34396 -2.716082 0.5533933 -2.9469724 -9.767142 -2.1169362 12.262901 7.5144815 -11.236175
1331038 1.6248394 3.4698055 9.608897 7.351566 -1.189137 -0.33316725 4.804263 -3.6536083 -12.6627865 -9.130747 5.4698687 4.8483796 -10.833421 7.7495055 1.5703808 -7.1947255 -4.8064466 -2.4509132 2.4483178 -4.8696947 4.7566833 4.9275246 4.512123 -8.679144 -3.0093195 -8.035924 -4.8278303 -6.120913 -6.5097895 -1.3235022 12.496994 5.9907484 -5.7955117 0.8580339 -5.7726407 3.6993444 7.2199273 -0.94072247 0.07278689 1.45812 -0.29434845 6.4246726 -5.207915 8.328486 -5.433639 -1.1552995 -5.896305 6.38915 5.987563 -12.289213 4.1528754 -1.6338204 -3.9320886 -0.488392 -11.821915 1.5573674 -6.196324 1.453697 -0.4024674 -9.6939125 -3.8787086 6.2058864 8.277565 -4.6541247
687505 2.6773555 -4.798749 10.891743 -0.19967656 4.838991 0.47522134 -4.2687407 -9.316498 -11.246974 -4.3038225 -6.3636723 -5.555172 -0.9132386 12.588088 -0.52984655 -7.54845 -3.5581977 -2.265165 5.8207235 -3.701585 6.542574 3.818406 5.7687163 -1.9076879 6.893761 -3.9279923 -4.017749 -3.1661675 -6.808575 -7.888499 5.1780133 -0.8660947 -0.98418266 -0.6372985 -5.942462 -7.7977033 -0.997495 -2.103612 0.38312164 5.2549872 -11.498123 3.7690067 -5.313073 4.6171746 -5.359437 3.1213017 3.7562149 1.3918625 8.551372 -12.550211 -1.4274344 5.3245845 -7.963118 -6.1603546 -10.710528 -5.088231 -0.42143258 -1.5208069 -0.91290575 -4.6717305 1.8239698 -0.10966999 5.0245085 -7.9626927
749717 1.1582975 3.5492306 7.770319 12.2589 -0.73640305 2.2392704 -2.3615847 -2.4804752 -4.9855003 -14.873746 0.7138873 -3.823401 -8.955434 10.957611 -6.4033074 -3.4645114 -3.265576 1.2006229 -1.6715544 -1.6898965 3.3424642 -0.49149212 -5.5155234 8.450431 -3.2703197 -1.5938447 -6.319142 3.127545 -5.411696 -5.7338676 4.285187 -2.0745854 -6.100813 3.8681717 -7.055322 -4.3069544 4.188549 -1.4999949 1.217714 2.3663745 -7.535587 -5.796825 -3.2466497 1.1731163 6.6653395 5.7795415 4.0558105 -1.1133542 2.8165646 -10.410231 4.830944 2.931252 2.6030428 -7.37803 3.2880313 -6.875595 -5.0349636 7.367318 -0.6518219 -6.168813 -1.883268 3.4023902 -1.6907588 -3.23776
930298 0.23824805 -3.4530976 6.0363245 3.6832063 1.8709317 -0.04343494 -6.871449 -9.405537 -5.153972 -10.7809515 -10.440721 -5.813201 0.99060595 10.58936 -9.241099 -3.866063 -7.5943484 -2.2619548 7.992986 0.47715685 5.333942 10.07517 -6.09068 0.54893017 7.827917 0.42440808 -6.756315 -2.1149843 -5.5047393 -10.03961 -0.4526955 -2.5852563 -1.6363093 -0.98394525 -1.947587 -10.219591 -3.0742233 -4.014276 -4.0516744 2.6050272 -9.411753 -0.42140418 -7.355979 0.9991089 -2.7103658 3.9207187 9.30925 -3.7472248 10.42991 -9.389397 -2.4049215 7.8660007 -2.7026494 -2.9447486 -3.6410217 -8.601351 -3.956624 -1.6026832 -1.9622935 5.9810724 0.34001112 -3.0316827 2.0055716 -4.965354
1330987 0.67106795 1.1234293 8.010781 7.7838955 1.3484106 -2.112148 8.05273 -3.6225026 -11.189694 -10.248327 0.69527465 1.707265 -11.17722 4.7940073 2.7740993 -9.004235 -2.1673818 0.59705096 7.6917515 -2.3665793 1.7822163 5.287697 6.6203856 -7.40722 0.56007457 -8.839624 -0.1299438 -9.409024 -6.463412 -0.13437049 14.83729 5.72112 -4.5586953 -0.95711124 -9.685198 4.754777 3.019581 5.1076097 2.6320982 -3.6998274 -4.4689097 7.708583 -4.8210196 3.4594653 -5.05894 0.14340866 -4.8940115 5.5555363 1.4052864 -13.3173485 -1.6261022 0.48517904 -4.4912453 -3.8456812 -11.978292 -0.094597846 0.52867204 7.164012 -2.001087 -8.188211 -7.1326294 8.294767 7.1081614 -10.696472
753531 -6.334027 -3.1571267 8.887205 2.5694873 4.629307 1.7861253 -4.0519767 -10.717551 -8.808362 -10.025957 -4.804989 2.6239972 -7.5675344 9.415084 9.068867 -3.2439754 4.56922 5.4123697 -1.4939752 -1.0421486 2.0310385 13.355974 1.3428482 -5.1043735 -8.845878 -2.0202785 1.7530073 8.248779 -8.319392 -11.006474 6.2644753 5.494511 -0.46033543 -4.231144 -5.611768 -1.3903542 7.957416 6.144443 6.340421 -4.1174254 -0.5914932 5.454564 -2.9961474 5.584615 -8.329458 6.09208 2.5602942 -0.4796971 7.9467816 -14.02243 1.4999177 2.9368424 2.3770766 -6.0856895 -8.659525 -3.2696154 2.2443883 5.3737917 4.484588 -4.793527 3.1263373 6.1640997 3.0474312 -6.293288
687561 -3.4198298 -3.7586048 7.698046 0.27534598 2.597961 11.662867 3.614373 0.84578586 -7.41014 -10.984639 4.2541046 -3.6224706 -2.5136237 9.085242 -3.0796337 -2.855898 -5.8925714 -4.550895 -3.4966893 -2.021855 -2.2847106 4.226746 6.0093565 3.9159737 7.416097 0.5988671 -13.429259 -2.398307 6.6637526 -11.041605 2.3332386 7.962667 -3.5448632 0.57805353 -2.6284008 4.845467 -1.0931747 2.2070518 6.480259 -1.8017727 -8.0959425 -1.2757344 -3.1752434 -1.4038703 -1.805814 3.7930498 2.6419077 -5.3483105 5.8301053 -9.408673 9.285116 -3.4081848 2.4166632 -4.9642205 3.2616522 -1.4539349 0.42369688 3.3446 2.7516413 -8.773815 -8.730133 6.4021807 2.4653435 1.2869413
908130 0.88370526 -6.671446 3.811876 -0.05170079 -0.49789673 7.537573 -4.6008034 -2.5911531 -13.650055 4.791255 -12.21429 -4.341355 -1.6351444 11.584998 -4.6400247 -5.325501 4.036748 -0.31452432 7.5039153 0.63081604 0.08454782 7.2809033 1.0586333 -7.6143775 11.116371 -4.6391997 -3.741475 -6.545888 -3.1676536 -12.605213 3.2772264 1.0692879 5.1678314 -3.1391246 -5.330864 -7.650069 -5.143448 -7.0122957 -4.577382 -0.7713853 -3.603187 6.8059125 0.96186066 -3.888331 -5.4174433 3.202394 0.8013178 1.8590997 3.4602032 -1.0359929 -6.125437 7.9498296 -6.17687 -8.681689 -6.1962404 -0.30645242 -10.238721 1.2700026 -1.7505538 -2.5226583 -6.381062 7.686431 -7.0685453 1.2482431
910916 -5.335379 -3.732642 8.65965 3.4801252 7.8368716 2.3576012 -5.729274 -8.31488 -8.201118 -12.37369 -8.489414 -3.4295788 -12.28799 7.726588 10.54298 -2.980858 3.7372022 2.7941732 0.99881256 -0.5857549 0.20233318 10.172709 -1.1435367 2.4080503 -2.8264809 -0.9929985 2.056378 11.259561 -5.8103275 -7.500983 2.3393264 4.8296003 -0.32675385 -2.0263813 -6.261661 -1.4913169 8.054014 8.55057 5.3396115 -2.9218657 -1.5240704 3.364109 -2.4542477 2.487565 -3.5758457 9.670551 4.8966393 -4.671285 6.0987043 -13.305149 1.7953517 3.9477074 0.11021159 -6.986889 -3.4899025 -6.788925 3.5521004 5.897995 0.3340401 -3.89131 3.4135008 -0.8365957 4.1361685 -3.9079278
1299050 -6.9058156 -3.225439 6.881792 -6.82315 8.766494 10.650889 -4.2135167 -7.168838 -8.703168 -5.9075904 -3.2406273 -0.9180752 -10.166346 7.3519516 10.834558 2.1394107 4.7263064 -1.303908 0.54733384 -5.4950852 1.5378407 10.526182 3.4611108 4.85195 -6.391002 4.392664 -2.272359 11.500087 -3.5570378 -8.16936 1.0185273 3.1847742 -2.4488242 -5.4633675 -6.2439485 0.45353362 6.676752 7.7366195 0.89554685 -1.3402846 0.48786533 1.8171214 -4.030631 -0.44667098 -5.0709167 9.773952 3.701648 -0.97245944 5.460416 -12.234918 5.4413815 4.591613 2.8196976 -4.5236316 -4.0616164 -8.657176 -3.229225 2.47276 1.2715633 -3.1328242 5.76014 3.6080036 4.115363 0.73644054
906696 -3.23811 -7.6677303 6.8966312 -1.9107822 2.8849154 6.4289637 -1.5327381 0.11508604 -7.153404 -5.645679 -5.652683 -1.1591427 -5.7530274 6.5519342 4.679832 -1.8789347 -11.378581 -1.8685673 1.4839703 -0.25462982 0.48375553 8.52746 11.948594 2.178855 2.6451378 -5.368727 -5.7526884 -1.3749541 -0.71899265 -5.491045 5.3685184 18.13664 -2.5033844 -0.6821472 -1.3340664 7.7510767 1.2187086 0.68826675 8.510215 6.757291 -5.554979 6.1661816 0.99406683 -3.5608292 -2.9459794 5.143489 1.4961191 -8.023226 2.3881645 -7.5722375 3.2871845 4.889212 -1.989757 -8.592338 -1.7461107 -3.3755848 5.8440833 0.3252648 0.36718622 -13.510444 0.017335413 12.161286 8.496261 -2.907275
1240151 3.189761 1.392111 5.632644 2.5210066 -2.686343 3.7997756 5.044635 2.0655775 -8.619407 -5.884665 5.440747 -0.73112786 -7.113013 -2.1630685 -5.826242 -5.506155 -6.2093043 -4.2793555 1.6736237 -5.7421165 3.246712 1.5757927 0.6181823 -1.954878 -1.5808429 1.4010556 -5.361294 0.64230573 -5.094099 -10.165046 5.983214 1.8023379 -6.4787517 -3.6952941 -12.68121 -8.545547 0.6786103 1.4444579 7.4872 -7.781205 -8.278983 2.4219534 -2.45325 -5.7640886 3.4088042 8.433701 8.193042 2.4380498 -0.9312335 -16.472069 -6.7146873 5.617615 -8.691303 -6.739002 -6.3135223 0.85459936 -3.3908832 -0.17505103 0.9713846 -12.035115 -1.3732013 3.4802806 1.2239094 5.0615735
