981 64
1240127 1.0217444 -11.5647545 11.1194515 -0.70757294 -3.5653543 1.1809392 -3.1971874 0.9045182 -4.678446 -11.086695 14.118248 -1.4978769 5.0294943 8.92698 10.641372 7.3738155 5.13307 4.823352 3.7286043 0.3772532 0.42196026 -7.2552385 -7.752183 -10.772549 -0.40570968 2.1638923 4.6608186 -8.196438 -3.687924 -4.6229424 0.6605672 2.112676 -9.650251 -0.2145093 -3.8977447 -11.917992 7.132399 3.5524833 9.043042 -0.79616386 0.5264668 2.9650686 -1.5933641 2.4129364 -2.1929798 4.916114 -2.0026557 -3.7175183 3.4401803 -1.9404345 -2.0681393 1.5236892 7.9448085 -13.597512 -13.921137 -2.2114213 1.9961921 -1.4176548 -1.389218 6.258352 -9.585142 0.6811183 -5.3392296 -6.0841627
906871 -4.3665714 2.4769673 4.4923134 -2.1140757 8.678044 17.2877 -9.25102 -1.1474304 -15.136547 0.1822933 1.7800311 -0.023335949 -2.685521 7.5054326 3.7488625 0.57826334 2.7801683 3.426498 -3.1383207 -11.328261 -9.174353 1.8021184 7.3389487 -15.81047 7.85162 3.1264055 4.4410024 -1.9649706 9.481968 -0.06784261 -4.9736724 1.8257334 0.39969254 -0.15743284 -6.6009955 -0.5748029 5.798254 12.561929 1.0260036 0.5665639 8.10529 1.2349466 6.6080055 4.881312 0.13182735 -1.3088439 -3.8540466 -4.980059 0.6278639 -1.4485482 -0.58740646 -7.117486 -2.3435543 -2.7949371 -12.540872 5.500048 1.05532 2.5453265 -3.8698347 -2.2868042 -9.678105 -2.4676 -8.664643 7.1298423
907794 13.935505 -1.0363774 0.22971343 1.9691812 2.4180622 3.0341702 -6.2836776 4.420025 -3.3314414 2.7039979 13.955611 1.5757012 -1.126976 -7.9442015 7.5663896 7.6649814 -4.6465683 -4.456367 6.261881 1.628402 -5.3650336 -4.750081 -3.9758396 -12.081028 1.3826648 4.8343306 -7.3531203 -7.1534514 -1.5490174 -1.536679 -3.0560405 5.2246947 -0.64395976 1.6325173 -11.266371 -5.3835835 0.8222104 5.751171 1.7910268 -4.429093 5.8434834 -2.3121057 2.1764007 5.062513 -1.4094537 1.7741687 1.7971123 2.573056 -0.58934444 -2.4228134 -7.0231647 4.3671007 8.469929 -10.089337 -15.578821 -6.7252355 6.7374816 -3.1650338 -11.51173 2.0615304 -10.147496 4.449655 -5.726521 1.99441
1240208 -5.7536263 -1.7419589 4.7696247 4.6728163 3.383007 5.6058187 -3.1968994 -2.4832401 -3.46994 -0.8906609 7.1095552 -0.023852536 -2.2043908 6.356128 5.3174086 -2.2649837 -4.2536736 5.972772 -1.8979052 -3.4782152 -5.2630043 -2.5645106 -1.9264838 -16.105816 6.5608063 7.255031 5.8126388 -1.4960885 8.011393 -1.1403587 1.0414352 -0.30235723 0.94767684 -7.5732026 3.1410732 -3.5541618 3.146842 11.410051 -2.1317406 0.10246684 5.4183 9.384862 -2.6788967 2.1475847 4.0642495 0.4584477 2.596319 -3.8741095 2.6273437 -4.25309 1.6231314 -8.002044 -4.0335565 3.8210359 -19.312883 -2.2221515 -8.526048 -5.3182178 -2.7705 -2.885002 -8.817915 -4.915521 -10.175626 8.129219
905958 -1.4185326 6.247058 3.3501415 0.14493553 -1.9168693 7.426128 -4.963055 6.231667 -6.933264 -0.03223752 9.447554 -0.10048614 -1.11442 2.8058295 10.24906 0.9775358 -4.104507 4.4485946 -0.09223879 -2.3784583 -1.2786956 2.549948 -3.9029334 -6.939658 2.6345832 7.2279034 -1.6962862 -7.0729976 8.361638 -4.9578476 -6.2823915 2.8503623 -7.9522476 -9.390606 -10.810285 3.1225433 -1.2850032 -2.0440063 0.52835274 -6.46083 6.5887833 -6.0800858 -0.8416699 2.616616 1.1431258 -3.4130845 6.8953447 -2.5277703 2.9780357 -10.971845 -3.0563304 3.9440231 5.768734 -7.553765 -15.678105 2.2412837 -4.2481427 -0.8115665 -6.015197 -7.2400274 -13.06435 2.2204664 -7.2600465 5.3191867
1659823 10.656288 -5.167329 2.6209967 1.6738598 -3.6548522 -1.6556978 -5.62756 0.22282228 3.3643186 -0.37312418 15.129139 -0.20290852 -0.26375625 -2.5315433 8.440372 7.264869 -1.3158708 -1.2692152 3.8882134 5.6009865 -1.0480702 -2.199799 -7.6123013 -11.343286 0.43908814 6.956586 -4.5692315 -9.60345 -4.8495913 1.1367573 -0.81450343 0.97259235 -1.356155 3.009516 -5.2560887 -5.3864746 4.9534774 4.276001 2.1887052 -7.3638997 1.0591204 -2.9181418 0.11527782 1.9785229 2.0230224 1.2505094 6.1626134 2.2051525 5.787425 -7.101584 -5.5659876 -0.7478347 7.16709 -10.76093 -20.721125 -3.2979841 3.7108305 -2.2862191 -9.649833 -0.28013104 -7.984315 2.7578804 -6.3072615 -3.8186352
910781 2.455366 -10.018924 11.454002 2.704194 5.686956 4.696335 -0.65866065 5.926591 -5.439594 -11.897272 18.333803 -1.3635426 6.9419074 5.4706645 7.1490088 2.2387884 7.410018 3.7211924 3.5320807 -1.3893967 -9.533962 -2.1972044 -5.3124714 -2.563101 -3.9662993 -0.50231797 5.6008015 -4.3162465 -5.525515 -6.17036 1.4386697 5.3791757 -8.317825 -2.2767432 -5.9974203 -10.008228 5.5536327 4.684478 4.1378675 -4.4323373 3.176612 -1.4243329 4.631889 -1.0923309 -4.2262726 4.640584 -4.099065 -0.9352562 3.6816049 0.24672614 -5.8178906 6.9171963 6.9325433 -13.108687 -5.5450516 -1.9030269 5.41134 -3.2871683 -0.5558728 -3.026333 -12.263227 -3.0064988 -3.4095528 -10.441268
907051 -0.20341447 -9.061845 12.581858 0.00074180245 1.1347573 2.2360287 1.1496711 1.1520702 -4.1477084 -9.92987 13.959474 -1.1978043 5.316661 4.966154 9.849718 2.2614436 8.506031 6.9366713 2.171054 1.0874721 -2.6492393 -7.911253 -7.590595 -0.7623528 -4.452863 5.07563 3.6575093 -9.121787 -3.720782 -8.852213 4.410908 1.8247156 -10.288339 -3.6067922 -8.95347 -8.572726 3.3403723 4.0819507 9.572065 1.9263824 2.0205986 4.809262 -5.8409953 2.7731814 -2.0900269 6.3784738 -5.567274 -3.924748 1.9198581 0.61891985 -3.911526 6.533263 10.371459 -10.828645 -3.4509559 0.30545065 2.2951562 -1.4497321 2.8354897 1.6425258 -6.597782 5.7857013 -2.3883767 -7.1367364
907042 -3.5193446 6.2403274 2.5014026 -4.12826 12.790216 23.329638 -6.2953305 3.6554377 -17.35371 3.0755508 -4.2880116 -4.115742 -3.9389963 5.21699 1.7793238 0.42729613 1.8200202 5.164059 -2.2561328 -4.512657 -11.207933 2.4508297 8.3489685 -12.091975 1.9587696 -0.3718719 1.2691097 -2.409702 2.0713606 1.5655547 -2.9360154 9.662793 -5.5236 -2.6439488 -10.773681 -1.8255507 3.341868 10.172243 -1.0314238 -0.34140408 6.245109 0.34227356 4.41973 -0.14369157 3.4213042 -1.5451546 -2.6642382 0.21512094 -3.7618287 0.8054818 -4.157301 0.6018056 -0.40876368 -7.795364 -1.6186999 6.2812204 -5.2028623 3.284659 -9.00854 -0.60800827 -6.6400614 0.1275133 -3.8713877 -3.5408425
908129 -0.28263474 -8.285466 17.108303 -0.4977313 2.5782928 6.80148 -0.16501027 3.1242933 -1.0511016 -12.61185 11.20458 2.887456 7.9943185 9.359063 7.7732854 -0.5265891 11.039362 5.0357704 0.567278 -3.7403822 -4.165672 1.3654783 -4.126395 -3.8898752 -2.4246948 2.7799275 3.6207597 -6.474174 -4.3959517 -6.8451443 -0.39912844 4.0250015 -7.2350307 -3.8671198 -3.6030698 -8.610565 6.6393995 1.5121422 5.875549 -5.8000665 4.0011883 0.89204866 5.924624 -3.8317032 -6.103756 4.0030174 -4.8342104 -2.387668 7.3568754 -3.152676 -4.4297843 2.7072704 6.8891535 -8.967763 -7.217604 1.0371466 3.555366 -4.3800435 2.450628 -0.23287773 -11.960417 -0.49140286 -3.5870848 -10.009317
906800 2.3775218 9.414077 1.5000443 -0.726619 -4.993484 7.5429096 -7.635475 11.381686 -11.25584 -1.9863611 12.232114 4.3863106 1.6779408 6.7860956 7.5731664 0.2652105 -5.8811655 -2.2068033 -0.8257369 -8.937756 -4.7096696 5.0296693 1.0611366 2.2039826 -0.6939637 6.402673 -1.9663708 -2.1251266 11.137106 -5.635576 -6.1773453 4.68493 -4.6277375 -3.2554379 -14.869715 5.235604 -3.4685688 -2.2563858 -2.22943 -5.422262 14.572963 -8.7829895 8.564655 4.31408 -0.08477352 -2.821876 5.730354 -2.3434103 0.8908632 -9.478505 -4.5084233 6.243952 0.71803826 -9.441032 -12.04965 5.089212 -0.33445483 3.3845623 -4.2789354 -9.802045 -9.467457 -1.14879 -5.8475623 8.9451
909735 -1.3432399 -5.3251314 12.179415 1.6436765 -1.462123 6.824247 -1.9624605 6.5814953 -9.448095 -7.3006945 16.412233 1.1088313 9.430474 6.3304725 7.2540035 1.7783862 3.3570333 2.9863706 4.12052 -3.6603527 -6.4771605 -1.6920133 -1.8714411 -0.20717117 -4.920328 6.039922 0.92172354 -4.201356 -3.6767497 -8.877457 -0.5175507 4.6368985 -10.258238 -2.6031966 -9.860022 -9.060628 4.318395 0.8321898 6.0536714 -2.914339 5.7956705 -3.774111 2.057726 0.03348 -3.5516822 5.3106685 -3.105676 -3.68311 0.5490663 -4.4751616 -4.8440137 9.769488 7.3258443 -14.21682 -6.201869 -0.20255524 0.2928986 -3.0388935 -1.3238298 -2.3881147 -14.4611635 -1.2360889 -10.65096 -6.482453
687815 -7.6461406 0.07507035 6.4952188 6.9133205 -0.441799 7.730689 -2.9111164 -0.28832042 -0.98479503 -1.4485071 7.190677 2.887717 -0.32695574 4.2052946 7.0836315 -4.4058657 -2.5103266 4.7167883 -4.3235493 -6.657546 -4.259943 -8.676306 -6.391521 -11.638472 3.701813 10.460282 6.787759 -3.4078367 7.197459 -1.9040664 -0.7136661 -1.6025215 2.9887352 -7.7179494 -0.18539703 -5.3403916 3.103128 10.830992 3.0769663 -0.8096996 1.8443037 8.552436 -3.8533788 -1.4076682 4.5606585 2.078041 3.5088117 -2.8707643 -0.011786075 -0.13305028 -0.74070823 -8.311813 -4.437835 5.1605377 -16.999401 -3.1198478 -5.017987 -4.5161834 -3.7645032 -1.8189065 -7.170654 -0.9176909 -11.874365 3.8208766
907272 3.848316 6.570971 4.442825 -0.65121585 -3.4481723 6.3984423 -6.4044027 8.572101 -6.3373885 -5.184024 7.5312734 -0.653374 4.6992903 2.704634 12.51586 1.5487831 -2.4352303 -0.329251 -3.541289 -1.9080734 2.2820594 2.6159422 0.40793663 -7.2327275 0.00861718 4.6253014 -2.93148 -8.581765 11.241616 -3.1471677 -5.914686 4.3877387 -7.8506727 -1.004279 -10.742869 5.8586974 -8.155831 -1.2865039 0.84795636 -7.6667643 8.682367 -4.7413383 2.9296227 0.46189618 0.8172776 -3.9791763 3.368959 -3.7036915 0.3414435 -8.434969 -5.256938 10.168143 6.2615514 -5.1612577 -15.035298 6.7482133 1.0951682 1.0902238 -2.9740188 -6.9000254 -9.487436 1.586674 -7.0874753 7.5121393
909737 -9.200466 -3.040309 4.6551175 6.47657 -0.6134184 1.2899581 -3.6302638 1.7383542 -3.7129362 -1.0567695 9.166179 -0.71203274 -0.094264194 7.658599 6.2820787 -5.107768 -5.089587 7.352439 -2.8398924 -5.6285543 -4.947148 -5.5890718 -4.423035 -9.382668 2.4666958 7.493715 7.58091 -0.25328338 6.6427426 -0.74048096 1.9489778 -3.3315132 0.81611294 -2.082082 0.19738 -5.977401 8.232959 8.537816 -3.5295222 -2.9013867 7.9497395 6.8405666 -8.460679 -1.4638764 8.278878 0.14669754 2.627975 -3.2658398 -0.07516223 -7.6732755 -0.8607837 -3.900165 -3.5090916 1.124035 -20.87266 -1.6694255 -9.059473 -6.859313 -4.492078 -4.81206 -9.185096 -6.008769 -6.3912935 4.683147
1298362 -8.0599785 -1.4279692 -3.3778362 5.197427 2.0750725 9.930551 2.0153418 6.7494354 1.9918284 -4.803756 8.474566 5.988166 -2.1038907 3.306196 -3.5882697 0.58882445 -6.685496 11.321114 -12.070205 -2.2267563 -7.570646 -12.104553 -9.007589 -5.925221 -3.2583747 8.424774 -2.2711897 0.35627013 9.857836 0.6236186 2.3876798 0.30131912 -0.5349692 -5.4857454 9.058532 -9.495866 2.779447 5.1183715 -3.8081083 -7.3529496 5.0790243 0.4661632 -0.5151763 -3.684698 5.2825117 5.8510046 -1.9458091 1.3994975 -5.0577273 1.2386483 0.7753128 -8.131006 0.024083545 -2.9904497 -10.668948 4.3290615 -5.8609123 -8.186331 -9.697951 -1.4182639 -6.6391244 -2.2602184 -9.735866 2.9647806
910944 1.7054029 10.639218 3.6368296 2.508357 -4.9886556 8.408207 -6.6208096 11.214273 -8.927801 -3.8532069 9.015627 6.0829144 6.704315 2.3751812 10.512717 0.4953204 -7.02029 -0.6493668 -0.7290651 -7.271479 -4.565284 4.7737103 0.656769 -0.19907475 -0.66496176 4.6280003 -6.3740683 -2.246756 12.067252 -2.1048422 -6.9559135 4.8647013 -6.613841 -4.08491 -13.835966 4.7865973 -8.938126 -2.3587718 -2.8892658 -8.263204 11.968206 -4.820177 6.5899863 1.3124106 -0.4994474 -3.444506 3.7124662 -4.1965566 -0.6457023 -5.8146915 -6.282271 9.036618 1.2944876 -4.690067 -13.444195 5.5910726 -1.6719705 3.57461 -3.8703632 -6.7078304 -9.747595 0.73803484 -7.1538844 7.7967396
1323913 0.4075732 9.307379 3.6078765 3.207044 -4.264838 10.179326 -5.8405466 9.994396 -4.03641 -2.2866726 8.889327 4.7315598 5.1701627 -1.1852096 6.3970695 -2.8468652 -6.309405 -4.9679556 0.44105905 -12.516753 -0.50451505 2.747909 3.9022248 -1.6385933 -4.720087 8.818897 -1.6290092 -2.8769712 9.599053 -11.188968 -5.2352095 4.8329883 -2.2409134 -0.34884194 -10.822587 0.45429954 -7.423612 -4.191457 0.8305157 -6.159954 12.091056 -2.7353594 4.4496546 0.90443337 -2.4318194 -2.6967142 6.9669423 -0.55071753 -3.3304863 -8.567885 -6.010624 4.067359 0.6090152 -6.167766 -12.610478 8.164206 -0.111755125 -2.1295059 -5.8231583 -7.7684507 -10.056568 1.7561266 -6.6303515 11.0595
1295740 -0.10724422 9.767634 4.068322 1.8570321 -7.7896743 7.181092 -6.716272 11.517533 -5.044519 -2.0147765 9.228932 5.777229 5.0151134 -0.2727972 10.740371 -1.7799331 -1.6102861 -0.7645907 -1.9211918 -7.2611465 -3.4970918 5.293258 1.1003187 0.17673256 -1.4951885 3.5074084 -4.186814 -0.9659943 11.722071 -3.2510679 -6.673409 1.4773493 -4.5221977 -4.215033 -15.062185 1.9172868 -6.741396 0.017494785 0.8372485 -9.671918 12.471132 -4.237922 6.597317 2.8755126 0.120492235 -3.9996789 3.686216 -2.882202 0.5848074 -7.340855 -7.1042747 5.6100373 1.8074583 -6.2849393 -15.117664 6.3807845 2.8055673 3.02224 -2.5823357 -8.947409 -12.270004 -2.3598678 -3.0817635 9.461794
1240123 11.618566 -3.9129856 3.0385177 -1.9662765 -2.4839675 -0.21335165 -4.8391075 4.353194 -6.5775943 -2.8259053 13.840109 0.4530266 0.16994245 -6.807585 6.6237307 8.069178 -1.4534527 -1.99691 2.2336926 5.635971 -2.3563879 -3.082392 -0.7930988 -8.8526125 7.5820193 6.1873364 -9.91188 -4.522182 1.2842262 4.038225 -6.4012575 4.7333574 -0.099259704 -0.37762573 -4.398936 -6.6923676 5.318322 4.2587476 0.004955893 -1.0178248 7.804411 -6.9009137 -5.964738 -0.27984852 0.4856531 6.4553595 2.2038338 4.972485 -2.1230814 -7.721136 -2.2124925 3.3785806 8.394908 -5.2717147 -14.488487 0.42091084 3.309754 -9.466959 -12.79075 1.880134 -12.877564 1.2161318 -8.730389 -0.45812133
1331036 -1.5042977 12.29372 5.082799 3.068879 -3.7184286 8.801653 -0.62019706 12.3153515 -7.6495333 -2.5238698 10.510728 3.2624476 4.057106 4.7921166 12.051677 -1.1275423 -4.2782087 1.3911103 0.2864555 -6.0383525 -4.3054633 5.8285327 2.8269145 -2.5665793 -1.8170426 7.5723176 -3.0310438 -2.4672012 9.907126 -4.9404573 -6.6575227 3.0166054 -9.015655 -4.388568 -10.115026 0.89389133 -5.551977 -4.055464 0.37134027 -6.253201 12.641395 -7.4390306 4.8345947 -2.0034537 1.2915373 -3.146444 4.5217204 -2.4835706 -1.4427505 -6.1327825 -4.196371 12.991676 0.9833792 -7.5778418 -10.734772 3.3919828 -6.25265 1.0980256 -5.7167783 -6.0632024 -12.024855 -2.6165426 -9.519888 6.8566513
908122 -4.0026207 -3.119982 -2.6191695 5.945836 -8.134403 3.8745697 -1.5175335 -1.3963095 -6.4898753 -7.821286 11.464378 2.4081085 3.1941733 7.998463 6.3136168 -5.37924 1.2763534 3.2223217 0.15541293 -6.8501167 0.4359158 -3.1682365 -6.607008 -12.306017 8.037802 7.0918283 4.490127 -0.5667222 9.486467 -0.20534512 -4.934239 -1.3216189 -5.1991463 2.0810068 -1.8242756 -0.4496544 -2.365158 5.818054 -3.2823951 -0.12500514 2.9289227 -0.81271005 -1.5846082 -4.407874 1.8507231 1.7292112 3.9644034 -7.13276 6.4857163 -2.3853364 -2.154408 -4.2783318 -4.5813093 5.2474513 -15.789337 0.5620632 -6.9348702 -11.2695675 -8.585661 -1.4364575 -9.896987 -1.105565 -11.657865 7.574865
908156 -0.22864196 10.631756 2.744206 1.2558918 -6.261472 9.65382 -7.1851845 10.547916 -10.383458 -2.9601622 12.562885 5.0198154 3.3811727 4.8958926 7.518711 -0.39417273 -6.844227 -1.9551373 1.5798551 -10.450075 -7.7315173 5.231196 3.1065755 2.486583 -1.5716451 6.7581363 -3.7587492 -0.35519764 9.573808 -4.380186 -6.0423636 5.305304 -4.763978 -2.386589 -15.287289 4.232845 -4.221613 -3.6931038 -1.4703987 -4.6856084 12.652479 -8.862243 6.231329 1.5343741 0.34784436 -1.5005184 5.2862563 -0.9761789 -2.1782389 -9.219087 -4.553829 6.098296 -2.2255497 -8.225788 -13.067465 5.542974 -3.1931267 2.6319973 -4.9243817 -9.624301 -11.319627 -0.8920216 -7.336401 7.08855
906856 3.7867858 9.171511 5.0021925 0.7066604 -2.6705043 6.2613645 -7.146731 12.978156 -6.286198 -1.6346815 10.098405 5.401958 2.214913 4.78414 7.307054 0.5534591 -3.9938967 -1.2916133 0.28024763 -5.0205603 -6.7605543 7.076226 3.6012485 2.561305 -0.66743934 6.6696773 -1.7439113 -2.361494 10.348582 -7.891051 -5.1202326 4.7126455 -4.744657 -2.3961697 -11.588054 3.8908288 -2.8764029 -3.3873315 -4.21723 -7.6286674 15.613763 -4.818495 2.862093 2.8932202 4.23997 0.2699801 7.0792785 -2.7630057 -0.26298183 -13.198722 -3.3375568 1.0153304 0.686809 -7.4854417 -12.968128 6.7260475 -2.672847 2.3082871 -4.5572114 -9.787004 -9.1797495 -1.9769022 -5.621275 8.78973
909750 -8.111861 -1.8337433 -0.33855516 0.7829272 5.529501 13.571306 -4.076931 -2.354118 -4.825372 1.0355093 3.8362823 -7.0131617 -0.23264001 10.442618 2.3653011 -6.0607195 -3.1982872 5.5576 -2.3469439 -8.846612 -9.729756 -1.2677226 0.10412044 -15.848717 5.7453156 2.8488185 1.596881 -1.0681043 3.4110222 5.2816033 2.0943263 2.318437 -1.7317121 -8.197144 -1.824335 -4.077382 4.284043 15.108164 -2.3020716 -0.021419171 8.97212 6.606194 -0.062218346 -1.5935577 6.264991 -1.6516423 -0.964095 -2.5909877 -0.41343647 -2.2006116 -0.5947792 -8.098916 -4.7017436 2.7209396 -13.544221 -0.9467659 -10.154633 -4.138064 -7.4586773 -2.3393435 -7.7547455 -1.659606 -5.8982987 1.2425722
906763 -0.5204804 6.389995 3.570366 2.6659648 -2.350441 6.0183535 -6.3835783 10.909555 -3.1129234 -3.6558797 6.6539164 4.2900634 5.060758 3.0282376 10.517077 0.31590083 -2.775115 1.8004662 -3.14419 -4.3437104 -2.9694273 5.8967147 -2.8898942 -0.5836351 2.2042367 4.3603086 -3.905446 -4.515885 12.45755 -5.0765195 -7.348177 2.974958 -8.228086 -7.983832 -12.299309 5.065877 -7.1475663 1.070216 1.163962 -9.194806 10.961128 -3.6657963 1.060407 4.588496 2.2249782 -1.0355929 3.6980548 -4.7120667 -2.3893585 -7.170081 -6.462576 5.680168 5.426655 -5.4406176 -13.940523 4.6310215 0.8920915 1.1957232 -0.7154175 -6.9783425 -9.400588 2.816641 -5.5640187 9.880404
909256 -1.9942994 6.4018426 -5.3693666 2.6027293 -9.124109 9.962848 -4.937866 2.2773552 -9.214796 -5.5509696 15.395178 5.51936 6.2202225 7.1646943 11.994516 -3.9039705 -1.0153707 4.7722216 -1.1537422 -8.292909 -5.7274985 -5.1227202 2.7091613 -5.51976 2.2803252 7.087205 4.301987 1.449533 6.4175305 -2.2831535 -3.683192 -2.7891695 -2.7066891 5.016938 -9.672243 -0.7617264 -5.144954 6.614122 -2.0838938 0.23630576 8.397557 -2.5460858 2.1863308 -0.37279797 3.5690293 0.3872668 2.3604257 -9.320371 6.811499 -1.5263427 -6.19612 -0.8286181 -1.548913 -1.3561387 -11.681951 1.438699 -4.691083 0.4452355 -13.164242 -6.7849154 -8.933764 -2.793531 -11.261716 5.533257
908139 4.2416606 3.1091914 4.9511786 4.8462267 4.508866 5.5838675 -5.46193 0.50885487 -8.662519 3.138592 0.10510623 3.7491152 6.789762 -1.5597352 0.8907494 1.9012663 -1.8911927 9.733332 4.104802 0.74264246 -7.1969147 -9.192846 -0.054679237 -13.048457 0.14721678 2.1433718 -4.372483 0.55217254 7.036049 -0.33434212 10.326611 -4.327455 -12.223467 -2.497413 1.1958126 -8.913421 1.9206866 -5.7465253 -4.87971 -0.73190606 8.850398 13.528323 -0.8405835 -0.19750363 6.2264013 7.3044844 -3.080361 -6.2205276 5.314948 -4.2858186 -3.1957173 -9.491087 -0.23245388 3.2272282 -7.9039016 3.9260657 0.34342244 0.36759892 -13.108876 -8.741015 -10.681868 -4.084406 -3.4377882 0.6896916
909702 1.9957991 7.849003 4.2095923 2.299737 -5.1821795 6.4383388 -5.2629423 11.098704 -5.6592283 -2.1974092 9.411282 0.8520431 8.138198 3.5109758 13.910065 -2.0954258 -3.8411124 1.4150287 -5.452612 -5.69539 2.0859506 4.2666526 1.0893404 -3.4591222 0.324763 6.5527396 -1.8831091 -5.2354302 10.821207 -3.4869087 -6.4539356 3.3185322 -8.654007 -1.548745 -9.799024 2.3554065 -6.626544 -2.5118294 1.169847 -5.6028 11.988225 -5.8984556 4.0549254 -0.44216833 0.070741355 -2.3268151 3.320722 -3.2365744 -0.9810047 -8.018931 -6.046 10.077496 6.9716773 -4.1617136 -10.525342 6.361552 0.021924077 0.38729036 -6.1737676 -6.0990725 -9.174701 0.42132106 -6.305746 8.394525
907062 -6.9037557 5.046456 2.0432496 5.209937 2.7931943 12.663651 4.8978853 8.014301 0.8558419 -6.6794624 5.613127 7.473359 -0.23440029 -0.8563356 -1.0205095 1.300978 -3.0938978 11.642534 -9.328974 -2.4433048 -10.990567 -8.181025 -3.789037 -6.287725 -3.1524668 6.7765126 -2.2040498 0.040619228 7.624813 -0.32187444 -0.55766064 0.7621693 -2.6148348 -3.6689928 5.157136 -7.684873 -2.0906727 6.849735 -5.789152 -8.091406 4.2201233 -9.790219 1.2105316 -0.3308569 1.2152432 3.5732052 -2.802944 -0.2768374 -4.4577436 0.85750806 -3.4195557 -5.938776 2.9953063 -7.6144953 -6.3106112 7.05409 -6.9009323 -5.8814416 -8.717016 0.7744004 -5.986576 2.110006 -14.103264 6.0219636
910706 0.61768717 7.931343 2.8099093 1.234718 -6.0122633 5.882846 -7.507402 9.937035 -10.156495 -1.9332885 12.283235 1.8248777 6.2952037 6.574898 8.111967 -1.1312335 -6.3456287 -0.21360469 0.7034611 -11.346755 -3.1767352 7.1228695 0.99800634 -3.1632867 0.69785345 6.9360485 -0.9555019 -1.5103582 10.856164 -3.5850017 -6.4495564 -0.0128573 -4.8081713 -1.4477167 -12.854972 3.6877358 -1.6499716 -1.6848495 0.20301534 -3.388699 13.9767885 -7.396457 4.985084 2.4083467 2.1387916 -3.500474 5.0089564 -0.9472714 -1.2275865 -8.0376005 -7.222935 4.5165286 1.5907326 -8.570457 -14.3233385 0.02174972 4.60186 2.6085944 -5.4701033 -7.919471 -11.596982 -3.555436 -5.353198 8.074281
1240174 5.097984 -11.0467005 13.172421 0.052114468 2.118479 1.6444924 0.64655113 3.5143926 -4.7468305 -9.665448 16.944626 -0.9749764 6.8414893 3.2494774 8.39095 6.234757 6.851293 1.884286 4.128281 0.53600365 -3.8253617 -3.4411643 -5.783579 -2.6957457 -3.0095468 1.388724 2.811484 -5.787824 -4.021658 -6.307888 2.2505724 5.281835 -5.183226 -0.09360742 -5.7232294 -10.242953 5.3075943 3.1939526 5.3296337 -4.194176 3.1895492 0.26371783 -0.13778026 -1.1926292 -2.094615 6.108706 -1.7057091 -1.1980449 3.675439 -3.3680036 -2.2757955 5.268149 9.943199 -9.88454 -7.9472103 -1.6659789 3.218075 -2.4672446 0.09676206 -0.14342518 -9.1047125 0.4708682 -4.7945957 -9.328039
907055 3.0640218 10.165641 7.0082335 0.78009695 -0.744766 10.240489 -3.5735273 6.8232555 -11.755539 -2.606011 4.9583626 5.3975134 11.728535 2.956577 5.088238 1.3597258 -2.576916 7.7405066 5.2143936 -4.8314543 -9.522937 -4.904174 4.47068 -5.1430454 -2.7919273 4.653828 -3.5916414 -1.3134404 4.498426 -3.1697617 2.7040114 -2.8859131 -15.104469 -1.0412151 -9.0897255 -4.5670834 -1.3278972 -7.6586905 -5.639926 -1.019336 11.408172 0.8596113 3.926626 -3.9891222 0.123300724 5.564923 1.2730949 -5.171515 4.658582 -6.084877 -6.126823 -2.9073412 -0.7927107 -5.388567 -4.8729033 2.8107955 -3.929338 3.579606 -14.552898 -6.0741673 -14.939914 -2.1008143 -8.58525 -0.00266926
905984 -4.853027 5.7523117 -0.8836427 -4.1319094 8.345459 18.695269 -8.812253 4.8223763 -16.251034 -1.4149748 -0.8157551 -2.452818 -4.912107 5.2508664 5.187986 4.394287 2.7782176 2.1627266 -2.7085495 -7.792147 -12.220955 7.350707 6.32349 -9.823359 3.783199 -1.1439321 -0.00021844383 -6.332036 2.6556 0.8141972 -6.4523087 5.691548 -0.14214543 -0.05268851 -10.697872 -1.9877404 3.4130123 8.293823 2.2016587 -8.04896 4.0257316 -6.879634 8.631027 0.13541892 -2.045603 -2.4727523 -1.2632823 -1.5084523 0.33972758 0.4683093 -1.1667997 -5.4768267 1.798308 -7.7650404 -6.287161 8.842119 0.32553205 8.135702 -10.65806 1.2874331 -9.826657 -0.3435754 -0.107255585 -4.033518
1331037 1.9171684 9.186266 1.5604469 -0.78809077 -6.6411743 7.451384 -7.3166795 10.469553 -8.363105 -3.333697 11.816222 2.4587908 4.836606 8.5219555 10.02852 -1.4775718 -5.266203 -0.5409419 -0.4087712 -10.514857 -4.306554 5.511631 0.6987229 -0.94032586 1.1394886 3.8077013 -4.8717566 -2.9464643 11.42303 -1.8328053 -6.2254944 1.4693296 -6.4073386 -2.8538392 -12.617727 4.1667066 -2.999876 -1.5622315 -1.3954291 -6.6900826 17.355314 -8.798048 6.842895 0.6271217 2.4548306 -2.76017 0.37405172 -3.1907163 -1.3565859 -8.710851 -3.6223426 8.364597 3.0653892 -7.510742 -12.519137 3.795271 0.33689108 1.9081492 -5.117948 -5.7618475 -9.960279 -2.7800283 -1.4698521 9.32043
1297446 3.0302567 6.3750067 4.4330235 5.5431557 -3.5538988 4.525538 -1.971077 12.470511 -4.267066 0.002610871 9.323162 0.75094044 5.5051284 -0.081879035 12.041395 -0.51072824 -0.025191432 0.5660102 -1.4645896 -0.52784634 1.2735536 6.420369 -0.2977927 -7.553626 -0.6393116 2.648487 -1.5096978 -2.5995831 10.426184 -2.6230361 -4.6885705 1.8106278 -8.367051 0.45706478 -10.339852 -1.4307164 -7.9338813 0.33602226 0.47526816 -8.00767 8.707381 -6.09207 2.5061336 0.26564953 2.1757543 -5.854101 7.740887 -3.568956 1.6288009 -5.49065 -3.1440713 10.2137 6.8360085 -5.7243724 -9.81717 3.424574 2.4120717 -0.852001 -5.3892336 -3.9632561 -12.090876 -3.9417856 -6.6394672 9.508366
753548 3.4645984 1.5786967 1.2738713 -2.3005004 -4.904823 6.045359 -7.6628575 6.7428274 -7.970188 -4.147996 14.157572 3.0281298 2.6978822 3.9223602 8.78718 2.330154 -2.1560574 -1.7181393 0.39259318 -5.7032313 -2.0732396 5.4584503 0.4833289 -1.3692344 -2.078456 9.029694 -2.1779008 -4.1575804 9.467495 -3.7638655 -2.6066456 4.8089094 -6.966532 -0.363104 -12.354463 4.2529135 -1.6623657 -2.1589322 3.6448526 -4.520203 11.6552925 -6.644413 4.649697 2.0346563 3.4585347 1.3073887 7.7718253 0.32746586 -0.85608035 -10.5395 -3.8692088 5.323942 3.1364543 -7.927944 -16.408709 8.502833 3.5270417 1.0406041 -4.2837324 -6.5220556 -9.2476635 -0.43767166 -3.7483046 6.9492044
909715 1.0992516 6.154113 0.6603565 2.8918674 -7.4867754 7.132299 -9.497123 11.530612 -6.8206534 -0.24421403 13.24847 4.696627 6.940983 1.0247012 5.488387 -3.6499603 -2.308758 -5.0504804 0.5176399 -14.881588 -0.20589578 2.4848006 2.5449007 -3.7007177 -4.1483927 5.196864 -0.9419201 0.91014904 12.054099 -1.8484138 -4.049534 2.777618 -4.545424 5.9817176 -10.857198 -2.3359826 -3.484678 -1.1240011 1.7905725 -5.1878924 12.422059 -4.530148 9.048796 1.0680909 -1.2482123 -4.7889743 5.115115 0.23550579 -2.301932 -7.9050264 -6.722001 4.82252 -0.1344536 -8.357942 -14.118035 5.9688344 1.2780583 -0.9584402 -6.3311696 -6.4935036 -9.400131 -5.0888305 -1.8065227 11.64492
908443 -1.2270715 4.0606575 9.806277 4.7132206 -0.929361 6.431282 -5.556476 2.9827578 0.37028533 -3.9115677 11.314513 7.429427 2.6348302 8.093893 9.895702 -4.637415 -2.3229911 1.7256469 -5.4398885 -8.248248 -2.6256483 -2.2049906 -4.7532306 -7.932946 -0.9624547 9.842813 4.212656 -4.110032 9.498098 -0.091770105 -2.8986223 -0.5901148 -0.94975835 -3.8277974 -0.97499466 -2.4116874 0.07445273 5.7479186 2.558289 -6.7454643 10.50516 8.181092 3.7532606 -1.6328784 4.987025 -0.69954556 4.299438 -3.8784745 -0.21657941 -1.1133476 -0.8555753 -0.35382962 -0.3797708 2.5019412 -17.993055 -1.0330644 -2.1102853 -4.9010077 -2.4161983 -2.8250496 -3.042395 -4.4534535 -8.540849 6.890157
909698 5.431173 2.4256473 0.14823812 -3.7705956 -5.007265 3.0479548 -5.3329496 6.8431525 -4.5291586 4.2559323 15.939625 5.0720572 1.508632 -5.643982 6.7100716 8.304461 0.5719044 -2.8416069 8.019259 1.1564394 -10.435847 -4.1315665 0.66490674 -3.766593 0.280664 6.376295 -6.7245197 -4.140608 2.874247 -1.704088 -4.0828013 5.2461605 -2.266537 -0.0025600055 -12.703377 -6.5048604 2.5890932 3.7575433 3.1939604 -3.854968 8.046878 -1.5475684 -0.38036323 2.2536361 -1.7618544 5.3065104 1.4386051 4.3995485 -1.2393037 -9.444514 -0.6423838 1.9441718 7.6632223 -6.3738704 -14.700438 0.34012014 0.6555389 -2.3239536 -9.787135 0.10246112 -12.533429 -0.5607208 -7.9693685 3.92825
949154 -6.0222774 -9.029819 8.264844 7.99218 5.043299 4.531681 1.7589197 4.491139 -1.8190471 -4.5644674 10.720308 1.0880098 3.1126432 5.6314073 0.1320151 -1.215312 3.916367 7.6395307 -8.231751 -3.2982156 -5.9689984 -1.9595774 -3.1499503 -9.235094 7.283767 6.1378284 6.205927 -0.93300474 1.9344244 -3.6682632 -1.9723045 -3.0236742 2.4366388 -4.3909698 5.764259 -3.5646217 9.091305 7.455538 -6.5458755 -0.6546832 2.4678438 -4.096175 5.0736103 -4.9525185 -8.186305 2.8118327 -5.9973383 -0.6986841 7.076005 -4.519194 -5.761002 0.45610252 3.214213 2.843954 -12.03833 0.4321056 -2.002559 -16.264355 -2.0876298 -1.4639956 -14.141838 -7.398058 -12.647046 -2.7082076
1330947 0.42322665 6.3209014 1.6974444 1.5704345 -5.065044 8.292772 -9.850291 9.817653 -7.8221927 -4.652336 12.952464 5.5096917 3.4844723 1.4691185 8.619875 -1.7979037 -5.39347 -3.4043655 0.6847254 -12.075982 -4.5456905 5.3375425 1.2806342 0.44057572 -1.8230855 4.9590526 -1.6443572 -2.7854438 11.832404 -5.263077 -4.9823766 6.535795 -2.640028 -0.07679219 -12.540696 4.2802563 -6.255404 -1.6567892 0.5393333 -7.2927227 11.809652 -7.6412425 5.2198987 5.021096 -0.10843194 -2.20474 6.6106386 -1.5755529 -1.8965421 -11.485517 -6.860422 3.4952514 0.8250152 -9.302937 -14.925007 8.158708 0.885933 2.5397868 -4.129937 -8.235469 -7.295069 1.1057483 -0.5295632 9.582898
1240204 -5.626287 5.67255 -0.45000762 5.0947227 3.2496476 10.556504 -0.8886291 5.307062 -1.2323394 -7.991705 8.514889 9.528052 -2.388532 5.381998 1.0724044 4.334387 -3.995957 7.3257174 -7.342808 -1.332281 -11.534709 -9.236535 -8.571293 -5.6424556 -2.2944198 6.1812153 -0.9219689 -4.580737 9.238144 0.6745539 -2.9996612 0.040293284 -1.3583571 -5.471645 3.341848 -6.780752 -0.5598666 5.102886 -2.9134386 -13.0624075 -0.32459047 -6.722194 4.6369696 -2.3931503 -0.06266646 3.952546 0.8158905 -2.083732 -0.7216982 -2.3582816 3.422635 -8.443218 0.08723524 -4.1491885 -9.196392 6.253786 -5.578526 1.3233742 -8.997621 1.1482983 -7.9760118 0.7672825 -13.327213 2.6283534
908442 1.5146285 0.99545044 -0.86078763 3.6537852 0.26361242 5.870893 -2.0309043 -3.043382 0.335428 3.2337036 10.47742 -0.094755836 -2.015946 -6.10602 1.3337557 -0.15119247 -8.715951 2.6497724 5.331989 -2.9447422 -11.167929 -8.219153 -4.861507 -13.511143 2.6752148 8.519144 -8.053299 -4.076572 1.2418252 1.2939912 2.057724 2.556491 3.4668639 -5.1519747 1.544756 -2.1434069 1.0113094 9.878131 -7.164708 -1.6185565 7.0780053 3.316126 -5.020026 -0.15341525 2.9221346 1.8430849 0.29509753 0.5941564 -0.03285821 -5.645347 -7.643588 -4.4450974 4.518461 3.0438993 -18.50809 -3.5798018 -7.1986933 -8.770046 -12.358883 0.4353946 -6.0067854 6.1710596 -5.6888056 3.8016653
908450 -1.8379303 -2.5689352 -0.49030045 -9.445524 10.896994 16.541973 -8.399045 0.038075406 -12.913043 0.9770332 -5.1915793 -3.916998 -5.173317 6.0069747 1.1295155 2.5739534 3.100535 0.59909445 -4.685595 -4.1497197 -5.7454967 6.616353 6.674239 -13.465334 3.7546082 -4.277521 -0.68388987 -1.3796327 0.057729486 3.4129295 -5.115155 9.584158 -4.58146 1.3757684 -6.74184 -2.514741 3.7839012 14.811386 -0.6057712 -4.617647 5.676925 0.061980788 7.2569084 0.36391276 -2.6911638 0.48202774 -7.452248 -2.3044033 -3.4266 1.5796746 0.58780825 -1.7933283 6.059137 -6.1018777 -3.487292 2.847478 -2.2086782 0.51253974 -5.654958 6.109228 -8.564185 -2.3061445 4.7630706 2.1949751
1331034 1.475318 11.461081 2.7084506 -0.36818463 -7.0218143 6.816007 -4.719835 9.80954 -7.876672 -4.026325 9.874492 4.7037177 4.23851 3.7446432 7.729291 0.04259165 -4.2334805 0.16391122 -0.65987086 -9.362437 -6.634203 6.933598 0.71115285 0.9074779 -1.8038539 5.0594916 -4.114232 -1.266003 11.834197 -3.3203344 -8.308228 0.0142085785 -5.7408977 -3.2571301 -10.482121 1.8601578 -3.2926533 -3.9401915 -1.0265206 -6.6300097 17.236094 -7.568081 4.0022135 -0.65417033 2.1889129 -2.7076607 4.0906434 -2.6334875 -0.90281254 -8.960069 -5.2891855 6.8039527 2.923308 -6.8508224 -13.4267435 1.4260461 -0.026620211 0.07756259 -7.341873 -7.653395 -10.6358 -3.1564703 -3.8832839 7.689522
907048 -4.088568 0.047640685 2.1075323 2.9924855 1.6307764 8.263173 2.2471414 -3.6104283 -5.8354836 -2.9765327 11.446667 6.389436 0.5826082 7.395021 8.198945 -5.6291127 -2.0770674 4.942867 0.42850423 -6.9754343 -3.848071 -1.1393536 -5.022832 -15.366975 4.296425 9.238754 6.909994 -1.7425916 8.970368 -0.85056126 -1.3799099 -5.949422 -3.007014 1.1249882 -4.0786676 1.4878442 -0.9364034 9.48231 0.29043183 -3.1341197 1.9232494 2.586983 3.9225044 -2.886732 5.5034847 -0.13043648 2.2073698 -3.8663592 5.4537363 1.3378364 0.6391566 -4.4048805 -7.6611056 1.3696197 -15.63099 -2.4698145 1.5337316 -2.8840563 -6.0205345 -4.650576 -7.9448614 -4.0732155 -12.696527 5.201679
753595 -2.691619 4.750462 2.5734715 8.786958 0.56722146 4.6217737 -6.651564 9.156948 1.3215053 -1.3589021 7.5999002 3.2253444 1.903816 1.3758936 6.8140106 -2.831599 -2.727329 1.7059909 -1.1509085 -7.35989 -7.1139174 -3.9521055 -3.2319164 -6.076804 1.9641287 7.1514454 -2.4299567 -0.09002885 10.205308 -3.1313562 -1.1283882 -2.7355525 -1.8246177 -6.941827 -10.227377 -3.9131339 -0.7394556 10.854165 -0.7917587 -10.848397 11.914371 3.100532 1.7361742 6.45137 2.1883938 -3.0644178 -1.4463686 -4.658124 -1.2711099 -3.422483 -6.3810062 2.2722673 -0.26115015 -2.8382177 -17.859365 -2.996606 -4.0229163 -4.0475674 -2.6584585 -5.3945565 -8.305964 -2.8936515 -7.5420675 7.345033
906824 0.61398417 -2.4839697 8.22126 8.4527235 6.859156 7.9762177 -2.1966314 11.025844 -4.3843346 -7.8740225 14.916454 2.641515 6.495278 7.133977 1.8484333 -3.9585824 4.857 4.6609373 -9.025936 -5.1908145 -9.121319 3.8012736 -3.460422 -1.2782056 1.5266182 7.5026884 4.135723 -0.43768877 2.4442284 -3.5845234 -1.1455498 1.7360045 -1.3648797 -1.8077816 0.7472535 -0.27896187 4.7435975 2.656177 -6.37489 -7.0726237 6.973795 -10.470265 9.043264 -2.9691832 -9.615354 -0.951565 -0.51318365 1.7049907 8.164102 -7.8682284 -9.355892 8.127225 5.9794517 -2.259653 -8.871792 1.6905189 -3.9380383 -13.320336 -4.4904284 -3.63195 -11.222837 -8.222327 -8.31723 -4.8272166
908134 -2.4856467 7.224447 7.7414594 9.326129 -1.9354653 7.145242 -7.843666 8.419801 -6.3124576 -5.734313 10.488849 5.678092 3.5015473 10.754108 6.4462423 -5.6027584 -6.453138 1.574093 -3.73737 -3.1208208 -3.7809296 -3.5069938 1.4034383 -2.4326568 4.0294886 13.946502 6.3509417 -1.9280351 7.218324 -10.280452 -7.4950213 0.29071936 0.4449418 -6.2497206 -7.1442394 -1.67377 3.0120575 3.123671 -2.0082927 -0.32606345 5.961871 3.8646264 1.662182 0.38304693 3.6562488 2.5646513 7.735971 -1.5663371 2.4624631 -5.184562 -1.333124 2.3170485 -6.398993 1.6382173 -15.788306 5.307188 0.280379 3.1092033 -2.8832896 -3.988108 -10.536579 -7.0193806 -13.552439 9.910319
905952 0.85786927 9.760806 3.5649564 -1.8914152 -0.8040357 9.039185 -3.7620637 10.979392 -6.762862 -1.255786 9.664454 2.6454728 3.3955534 5.586853 9.118984 -0.7427869 -5.727344 1.6840094 -1.89107 -4.3249745 -3.299414 4.7035656 -0.05135902 -1.092536 -1.3323642 7.328028 -2.5231717 -5.438778 9.8119545 -5.7246733 -4.8709083 3.0100842 -10.808437 -5.200563 -12.300965 4.208357 -4.241525 -4.6515393 -1.0041324 -3.9918792 11.664398 -4.583456 2.4767303 0.595839 0.45366403 -3.8942802 6.541855 -2.957143 -0.41762525 -5.987163 -6.043976 9.330853 4.5656257 -6.336425 -8.996473 6.0363016 -2.5622385 1.3321043 -6.404808 -6.317678 -9.382114 -0.031603523 -8.146531 6.6281366
1240189 6.2121916 7.302823 5.50564 -3.5488124 -3.3332887 7.7558293 -2.2551613 7.356364 3.284904 -1.9622248 8.74669 2.0925643 2.6603317 2.5347672 14.464244 -4.2314715 2.5177047 0.7423799 -3.4070115 -1.4016329 0.6627215 7.3619127 4.5021663 -7.026521 1.3329891 3.6894119 0.4176742 -2.721159 5.982595 -0.8191437 -4.784568 -0.31855434 -0.9458702 -1.5828266 -4.4713163 -2.325355 -2.0602002 -0.36962008 0.07988939 -7.912447 16.20032 -2.1634097 4.6140943 -8.045418 7.001057 -0.43180966 10.954714 1.2641413 3.963192 -6.929827 -0.5358824 -5.858626 -0.7473338 -5.822421 -10.952704 4.6875706 1.2209514 -2.6892166 -7.409444 -3.1208699 -8.242132 -1.6003165 1.1193657 2.9891663
724839 0.19965181 -8.117985 6.066915 5.5050273 9.487539 5.484588 -0.8533496 7.7009134 -1.2906873 -5.012087 10.560281 5.4077706 3.948189 5.693089 -1.6217122 -0.845538 2.6929092 4.1810594 -8.661427 -2.1545866 -11.7823715 -1.3482174 -6.533818 -1.0421858 0.7857065 4.3268747 8.857877 -1.6966118 1.1636966 -5.468932 1.6404113 4.1378055 1.6211698 -6.159565 2.7327867 -2.9542189 6.940164 3.2439945 -8.8740015 -8.125425 4.597663 -3.6718416 6.2174897 -4.6207724 -10.841705 3.6339564 -4.511862 -1.9306322 6.6213026 -6.709416 -3.3670282 3.60417 6.691979 2.209166 -6.373759 -5.244414 -5.0030737 -17.942007 -0.17977932 -5.4409137 -14.242886 -6.0232296 -10.077444 -4.20797
909252 3.3399322 9.761037 5.639598 4.5076723 -4.3320312 6.97904 -6.1156244 10.758417 -7.157513 -2.6242085 11.929928 1.4884924 4.4668527 6.2875533 9.879139 -1.6674229 -3.6422062 -0.45947167 -0.54498464 -3.6285665 -2.4947238 3.9607127 0.94135267 -1.7222629 -3.0916288 8.582805 -0.048501696 -2.399009 10.256223 -4.069181 -3.465734 3.809118 -9.45393 -3.2746625 -7.8080883 0.5007665 -2.6510139 -4.4539704 -0.23160402 -3.9284277 12.713596 -3.9741344 4.8260098 1.9623753 2.5346284 -2.0344214 7.60725 -0.92929304 -0.3722926 -10.795895 -6.169795 9.272855 2.9932132 -7.882171 -12.371127 6.968652 -2.8983228 1.9191265 -6.4094453 -7.933583 -7.669128 -4.331388 -6.436017 6.8618994
910710 1.3475771 7.5216637 1.8714743 0.92859286 -1.728053 9.196094 -4.184576 12.307321 -6.6371274 -0.80248547 9.182029 5.4672756 1.4954903 7.0468364 10.029421 2.8445942 -5.156134 4.1809683 -2.6454427 -1.0567346 -6.4645014 7.2233353 2.468568 1.6497045 3.4239225 7.0125804 -4.660147 -4.5276265 11.625224 -7.327268 -4.239659 6.4239764 -5.8904796 -10.511793 -11.911253 4.533276 -5.390149 -2.8561168 -2.2770894 -5.6517406 15.246431 -3.6114228 4.6407776 4.684582 4.5949345 0.102026984 5.710602 -1.2614081 -0.27626675 -9.346436 -3.2040656 2.3571465 0.7941728 -6.479186 -10.498953 9.373083 -3.5511065 2.4064689 -3.0772026 -6.736424 -8.689175 -0.47955793 -3.89665 9.609809
908158 1.8301625 11.062307 1.3813539 4.105895 -8.042118 6.744285 -7.0651336 10.314377 -8.1566515 -0.4965795 12.468077 0.6643537 5.423318 3.3868515 8.728246 -3.0775084 -4.310522 -3.2231371 0.9676962 -8.259105 -2.9447877 1.7405661 3.4258726 -0.84819686 -3.0905573 7.8029866 -2.5935373 -0.22613254 8.345386 -3.001005 -4.8490906 1.3253895 -8.050562 1.5736352 -14.370001 1.361284 -3.705729 -4.3519597 -0.33905455 -4.1468186 11.749053 -5.9765806 7.041685 -0.5874093 1.2377704 -3.150506 7.037936 -0.8091241 -1.6029369 -8.198432 -7.6083407 8.076276 0.28344974 -8.407374 -13.802342 5.9835835 -1.2041026 3.0532362 -6.465605 -9.566687 -9.680282 -3.3390722 -5.7248917 7.0628285
908148 -0.5527764 7.046574 4.6169796 -0.27704495 -6.22958 10.356284 -7.0341177 6.2806582 -3.6210723 -4.965429 11.189585 7.4841814 2.5316317 0.004172761 9.9518175 -3.5882895 -5.427858 -3.6530342 3.8032608 -10.470523 -5.8675156 5.0651245 -2.7286673 -0.27372783 -5.699064 4.4036236 -1.1202267 -5.020922 9.005293 -3.6665199 -5.2358856 2.5086398 -0.2789033 -2.9153485 -10.491418 1.1397946 -2.7398248 -3.7847204 1.4797499 -10.6798115 10.627371 -3.9700317 6.4964275 -2.0060542 -2.578104 -4.310207 9.274768 1.5031832 2.0878253 -7.2011657 -3.439838 0.67744935 -3.3098552 -7.133024 -17.88142 8.440957 5.266899 0.5539006 -5.9691715 -6.682367 -9.14075 1.1595519 -1.3375015 0.9212262
908448 -1.9524078 6.912897 1.8600739 1.7564383 -6.107491 10.104266 -6.3969355 10.387861 -6.5999126 -4.608422 11.037645 4.9072733 4.0430465 4.160184 5.635485 -2.6363673 -5.50057 -2.412134 0.79391074 -11.730217 -3.8670428 5.5576253 0.99899304 1.6048146 -4.718131 6.565194 -1.2480665 -2.134412 8.7892685 -7.011463 -3.1964145 6.964017 -5.6126695 -1.9248071 -12.60588 2.2301776 -5.27513 -5.9902654 1.6266657 -5.476341 11.313765 -4.9159737 6.6865063 1.339718 0.88125294 -4.36366 8.483486 1.0736643 -2.996334 -10.705025 -6.582356 5.5277877 -1.5196189 -10.598731 -13.997916 8.2408285 -2.2322326 -0.37346822 -4.67826 -8.602231 -7.1553693 -0.79533076 -1.9170657 7.991128
907277 0.1636649 9.655078 2.8107157 1.3245659 -5.6982036 7.628539 -3.8694017 12.374524 -8.417844 -1.1510321 9.982899 2.5284407 5.273851 4.01697 9.671254 -1.1847323 -5.4452114 -0.7890472 -1.6895895 -7.632006 -1.8144563 4.6209307 0.14112741 -1.243508 -1.6960716 5.5302634 -3.0504775 -3.8725884 11.194527 -4.289825 -6.631513 5.2304754 -8.894156 -2.9877212 -13.2659 2.521633 -7.934959 -3.0480683 0.2800057 -7.118902 10.290036 -6.558078 5.4581075 -1.9449347 1.4338199 -3.9296963 5.869582 -1.8477257 -1.7122504 -8.485142 -5.2363286 9.816254 2.5065346 -6.7970376 -10.955554 3.5756269 -4.1716833 2.729994 -4.9614863 -7.6793323 -9.462219 0.63072085 -6.29552 8.450617
1330950 1.9713955 11.14092 3.035593 2.9903803 -6.1405115 6.764991 -4.485607 14.11658 -4.826911 1.2727655 12.773168 5.334566 6.552337 1.9171611 12.286346 -3.8314853 0.24020872 -0.67090976 -1.7604909 -7.9492106 -2.6096647 5.2541785 3.577662 -3.1488435 1.105106 5.245111 -0.5084198 -0.70326144 11.826022 -4.0783696 -7.740405 3.4082081 -5.4864783 2.4655292 -10.129003 1.2985692 -6.854708 -0.58938533 0.18955494 -5.8998585 10.455346 -5.8662267 8.315586 2.2681658 -1.9943167 -3.5755587 3.574784 -1.6551006 0.16357492 -6.161583 -7.5005174 6.9044766 4.021057 -5.0388227 -11.74744 2.7945964 -0.45803654 2.5272348 -5.8930516 -5.610221 -8.529973 -5.6639705 -3.199029 12.301835
909718 4.1596384 0.5465097 -2.7268703 4.9617424 0.23412538 7.568912 -3.5906935 4.9999247 -1.9723587 5.3170004 10.947959 0.47166672 0.87941474 -6.5669627 1.6252494 -1.0310688 -6.8748994 -0.8393222 5.2092795 -3.4193125 -8.224549 -5.2799315 -1.844929 -9.816213 4.6843915 11.810587 -7.9144115 -1.5100673 2.2662625 -2.074849 0.123432405 7.4746346 2.3474565 -8.839783 -1.0428993 -7.3950486 1.7645634 7.6839037 -4.841263 -1.5496913 7.5483303 3.310203 -2.3332665 0.29266602 -0.16350277 4.4420457 4.2840996 3.9281807 -0.29769588 -7.431849 -4.1613417 -2.5253115 2.4506443 3.771493 -16.441435 -2.786952 -6.514148 -8.307009 -14.520728 -0.17423065 -12.976919 3.4857235 -7.781466 2.1513684
949090 -3.4648006 0.2296406 4.6936917 8.028337 4.2039495 5.686355 4.2464414 0.50887483 -0.038245317 -1.3562258 9.220279 3.485142 -0.0289464 4.6916084 6.9543853 -4.664782 -4.123601 7.452563 -3.252024 -4.4393907 -3.19816 -8.247183 -8.593959 -14.592609 3.47583 7.1254277 3.9621398 -2.5216923 7.401918 -4.273091 -0.09345482 -2.847106 2.4459908 -5.309646 -2.2400892 -2.871604 -2.2715144 10.311934 -0.9870621 -4.4726024 5.142825 5.6621256 -0.6708877 -2.0359626 7.3180413 -0.38225028 -1.2966102 -4.0073333 1.7564149 1.0395674 1.209376 -2.1513605 -3.388573 4.2021694 -14.0223 -7.9476266 -3.6924314 -7.7706285 -2.962325 -1.432222 -7.1122746 -1.0333445 -10.860182 5.915761
1298222 -2.4076867 5.9775157 7.1060905 6.2519536 1.7549124 9.704884 -3.0042408 1.5596602 -3.1818156 -4.4625797 9.644897 1.2208347 5.7904053 0.09701845 3.3729718 -5.3525033 -5.6731915 6.207469 -3.7184796 -7.8471117 -5.5647297 -6.7255926 -3.6156206 -9.871474 -2.3272893 9.604297 -0.038028564 -0.35417014 6.640832 -2.1585531 -1.8315185 -3.1555977 -1.9912262 4.6407385 -9.415641 2.1264448 -2.3069527 7.079925 -3.8937287 -4.4758663 5.459583 6.8198624 -3.05096 -5.6914577 2.9733133 -3.0001137 2.2839282 -1.6132426 -0.64446163 -1.5557443 -6.4569182 -3.1002202 -3.391036 -0.61960053 -18.826555 -8.785542 -7.8993196 -3.3658743 -5.366789 -1.762042 -9.245704 -3.940133 -6.5923696 6.131647
1247871 1.0060618 8.853831 1.4203385 1.9257139 -6.6413035 8.874926 -6.8290462 13.87005 -6.180889 -0.6048154 11.739486 3.874305 5.9588494 4.1621666 12.1785965 -2.508653 -2.0105422 -0.5033587 -2.5930984 -5.551939 -2.2570417 2.615538 1.9065622 0.5109008 -1.3737046 2.7204409 -3.1676993 -0.5438065 10.649336 -2.773268 -5.577976 5.189801 -6.757516 -2.400236 -12.695712 0.6522914 -7.5811024 -2.569122 -1.0197084 -7.101187 12.705281 -4.995331 8.193585 0.19934972 2.035771 -2.8583517 5.3921204 -3.9164155 -0.17797464 -8.16221 -6.167787 5.687934 3.4575481 -7.57927 -9.851423 6.0572352 -2.7388842 2.6070833 -4.783357 -7.9715095 -8.556498 -1.7287177 -1.7249253 8.313116
1240161 -2.5027962 5.313504 -0.23298065 1.1910043 0.032261834 14.928234 2.5373957 11.121273 -2.0363338 -4.9553204 8.896438 9.977353 -0.44716182 0.89347935 -0.36762136 2.7947414 -6.208953 3.295406 -9.534044 -3.8420014 -8.841864 -12.0080595 -5.576662 -1.1988708 -8.365238 6.8074226 -3.5433655 -2.093909 9.5825205 -1.7936251 0.7579562 6.0739617 -2.8723397 0.17132618 0.92712104 -9.646195 -4.186841 0.5160914 -3.0925026 -9.995008 3.8382273 -6.078403 7.419944 -5.6523886 -1.8774219 3.3921068 1.6105946 1.6534307 -6.1735015 5.3654017 -1.2362416 0.10140006 -0.41852072 -5.6351385 -7.0718064 6.872657 -2.7252843 -5.394856 -11.028814 -0.15383217 -6.2057457 0.11656913 -13.9806 3.3506827
910687 0.06351073 7.265372 3.4265115 4.2704034 -0.7990492 7.8257494 -3.361235 7.3035245 -6.982108 -0.66390896 12.387029 5.998271 -2.001957 6.677728 9.188929 0.678203 -9.438354 2.936899 -3.3317378 -5.986103 -1.3187304 0.9172356 -5.349546 -4.2171674 -0.9476657 7.2755985 -2.8569188 -4.1411967 10.644338 -6.4886737 -5.7091174 2.0626662 -3.2758257 -7.2879877 -5.648711 2.949157 -5.7171392 -0.18210311 -2.1889348 -6.654255 14.462738 0.23929144 6.042528 4.596494 2.1694844 -2.8052108 4.7979765 -3.7224479 0.36320493 -5.467748 -5.0758977 6.547385 2.8945122 -3.5545614 -16.687786 -0.028290162 -5.280533 -1.6117946 -6.8153973 -6.2130666 -6.944065 -1.2992461 -8.121214 6.856456
908145 -6.8807716 6.0922656 1.9512937 -3.7671347 10.838546 22.026478 -5.0329757 1.5588617 -16.157204 2.4188619 0.90962124 -9.264286 -4.1370435 5.9235706 5.691498 -0.31398687 -0.082342654 4.1612444 -2.9660318 -1.8481536 -13.307792 3.953166 10.571103 -12.786599 4.049117 2.212942 -0.68408996 -3.8360388 2.3828115 -2.3355262 -3.3006353 5.433678 -1.2279323 -5.2791367 -7.470029 -0.32810605 2.8301644 10.024952 -0.5442549 -1.2364383 10.035938 0.8059829 3.357148 -1.0603768 2.5298247 -1.8237534 -2.7091234 -2.3737023 1.3333358 -2.8996282 -0.4929519 1.0981104 1.3785425 -3.3641112 -7.2997856 10.724749 -5.36201 0.7702755 -9.091892 -2.010943 -6.398775 -0.008966098 -2.8859808 -0.6598032
1322224 6.8661504 9.14507 6.2986846 5.9906125 4.4541173 9.378161 -8.076732 4.167625 -10.464414 -2.6079023 4.7478323 4.785601 7.935377 4.2097797 5.054408 3.2706068 -4.3071895 7.8701787 3.6094286 1.1896172 -6.925931 -1.3140081 1.5592673 -7.0256186 -2.1370823 1.2110711 -4.4322996 -3.2924027 9.880741 -4.428533 3.5826972 0.06766933 -10.863824 -7.14205 -1.8318722 -3.553902 -4.922389 -7.152852 -5.765882 -2.3393748 12.280276 6.444473 2.5482557 0.21453929 2.9837863 4.909964 2.5910828 -6.27801 4.932242 -11.274296 -1.9711665 -8.714769 -0.5484779 -3.5749512 -6.8305507 5.896484 0.1143304 3.5286036 -12.347252 -9.410257 -10.4969225 -2.4367754 -4.8556705 -2.1958342
1298167 -4.2853165 8.589213 7.9766865 -6.198818 -5.29777 6.3724775 3.8570995 3.4666555 0.78278375 6.9824867 6.556805 2.488171 -1.1045766 -3.069641 7.0243583 -4.713315 -1.1355801 -2.081598 2.4678614 -6.7057943 -8.927298 -2.712638 -0.3206694 -7.644906 -7.8327785 3.4461923 4.865375 -6.704759 10.335491 -2.9946651 -0.90289855 3.3195078 0.03413118 -1.9311777 -3.963444 -3.2420526 -4.0408773 5.1485076 2.289973 -4.208403 9.398691 1.1539078 -3.043141 -10.452378 2.7949202 -0.31485763 3.8610492 -1.7544423 -1.7964773 -5.134858 2.2284536 -3.9704568 -2.9938924 -1.5277867 -14.187418 -4.1759396 -8.042515 -8.607907 -6.0761495 -8.058255 -8.191023 0.52371824 -9.866375 6.568549
1330982 3.334121 9.7291155 0.42911467 0.9329387 -2.6230793 8.205771 -5.3977737 10.848954 -8.647538 -1.8779428 10.717555 3.878587 3.5462184 7.5148964 8.938048 -0.8378484 -4.2142944 -2.8157814 0.5685781 -8.222519 -1.9165272 5.585331 1.3762236 -2.509493 -0.5219854 6.0522647 -3.4921317 -2.1943605 12.001201 -4.1530128 -5.647982 1.7646816 -9.431917 -4.053393 -10.593249 2.408687 -4.5080914 -3.9226964 -1.1661798 -6.4766116 14.482631 -4.5148883 11.018923 0.56382877 1.5477648 -3.0841506 4.5384936 -2.3954148 -0.17180151 -8.468906 -4.9186244 9.790244 2.1589909 -6.999804 -11.626363 4.8051476 -0.2815303 2.5442793 -5.8613486 -6.7441654 -7.8861322 -4.170213 -3.1130793 9.339735
907789 -0.5130278 9.20838 1.7616959 5.710586 -6.878265 5.5893044 -5.4408603 11.7177105 -5.9926805 -3.3592126 10.918878 1.8913231 5.043733 4.4169617 15.189727 -1.3188275 -3.7061749 -0.13589159 -1.4775786 -6.579373 0.9210989 3.3396554 0.81587046 -4.2135725 -0.90534896 3.5311978 -2.7828014 -3.9304597 11.437364 -3.7675164 -6.583091 3.3612797 -5.9365706 -1.5444325 -7.8870916 0.43895817 -9.576179 -2.8907502 1.3352118 -7.4025216 10.135509 -4.4837155 5.1452904 -0.16762468 0.11817215 -4.8806124 5.244796 -6.0225716 -0.17453721 -4.723765 -5.674827 8.988556 2.7661316 -4.109607 -12.256125 4.381138 -3.7518072 3.9346066 -5.6103444 -4.1916084 -11.004644 -1.4097035 -5.3100386 8.4608135
753535 -6.2491684 6.6425495 1.5902566 4.9605618 -1.928985 11.957666 -0.019065937 9.419116 1.1950141 -3.6377892 6.4582086 10.357388 0.5426854 -0.86205125 0.6978231 2.4632597 0.01161342 6.403091 -9.890047 -3.1602888 -9.380019 -9.585483 -5.6133814 -3.022607 -6.9722733 4.325808 -3.0177324 -2.5990121 9.177971 4.4841905 -1.8406523 2.380568 -1.8033699 -0.55117744 5.0047994 -11.254388 -1.8069546 1.7585366 -0.99544036 -13.300632 -0.2902959 -9.447692 3.8693051 -5.4880476 -1.090627 4.10215 0.98948276 -0.82358885 -3.1305523 -0.68721855 -0.5855269 -8.752811 3.3833668 -7.1854873 -6.1330943 7.139896 -5.607075 -1.1673632 -9.973296 1.1790879 -7.6410537 0.4139271 -8.916846 2.5681028
687819 -2.173137 1.0883328 9.27131 0.98067534 -4.023463 3.1023254 -0.4472097 0.35217237 -2.2915823 -3.6347039 8.874209 0.5310424 6.1944933 3.086753 3.6931837 -3.0996554 1.0575852 6.6153245 -0.8551878 -4.8304043 -5.7556963 -7.3920307 -5.2991943 -8.762158 -1.7572654 3.6962335 1.8053628 1.9261984 5.6427245 -0.25357604 3.0715415 -5.571854 -4.7785926 -1.2974945 -5.098832 -9.146215 1.7910817 8.963427 -0.37116247 -4.6198063 10.787397 5.654991 -6.090354 -3.698174 8.130565 1.709862 5.7218623 -2.9454064 3.5700307 -6.552824 -2.4455569 -3.7495458 -4.835568 -0.174112 -15.8192005 -6.976488 -4.531813 -2.4042518 -6.4240484 -3.0697308 -7.865659 -0.7668639 -6.4811473 2.9868972
946358 1.1813207 7.745582 1.6894958 2.7989852 -2.8283255 7.513123 -2.3171775 7.034518 -5.6528664 -3.2404659 8.579637 3.4258676 4.8725443 6.6812515 11.468615 -0.9566756 -7.250345 -0.8439746 1.6022942 -7.487667 -2.968484 3.672459 -1.0713483 -9.062699 0.432774 3.1754644 -3.271149 -7.0152855 12.379915 -2.0036752 -5.956268 4.7819576 -6.5573654 -7.6556087 -5.901445 3.5071988 -9.637431 -2.3043268 -2.5271995 -7.317319 11.22738 -4.4133596 5.7244496 -3.2965784 0.6974544 -4.2594733 2.6246133 -5.120936 -0.7803626 -6.6950903 -5.2932234 8.710218 1.2159897 -2.0185037 -14.173215 1.7828274 -3.2908542 -2.294969 -4.06046 -5.415284 -9.136406 2.9184794 -7.5524817 8.323247
910936 -5.241711 5.7649293 -1.0063854 4.274902 1.5860523 14.457014 4.9111996 7.2721157 -1.5840069 -5.0116987 6.3961077 6.599016 -3.1117191 -0.94362354 -6.469869 1.4665184 -5.8980627 7.533086 -8.31663 -3.7617588 -12.386402 -12.512134 -6.607051 -5.5709457 -4.7274947 5.3903365 -3.8351908 -0.7455011 8.879604 -1.7593019 -0.98508114 4.8830175 -1.1961068 -4.6540165 6.539802 -8.244481 -2.2522864 1.5404552 -8.34378 -9.131448 3.8987932 -8.012119 2.8339286 -2.0702822 2.7161949 5.319784 -3.4220867 0.16794765 -5.1792517 0.122758485 -2.656486 -6.5870156 1.1240432 -5.3854136 -6.739113 9.459448 -3.6190107 -5.325219 -10.493363 -2.6623626 -5.966116 4.276907 -11.081371 6.083176
749709 -7.3499784 -2.4553647 0.3604905 2.535519 -7.446262 5.8450904 2.482876 -3.7601118 -3.8262272 -6.3575463 9.844854 6.964326 3.9482071 6.2863674 10.417411 -3.5061872 0.38480264 5.316698 -0.8320305 -6.110514 -1.8094277 -5.2823677 -4.3648934 -9.924515 9.045204 8.002966 4.7509093 -3.4169734 7.432345 1.2119217 -0.33646727 -3.2350173 -2.9609823 0.92991763 -4.570734 -2.3407698 -0.40021992 5.2311325 1.1804882 -2.544839 -4.2299776 -0.8370104 0.09311576 -6.787393 1.0959213 2.711672 1.184098 -6.0904007 9.074454 -0.9738567 -1.5323441 -6.953733 -7.384688 4.8001237 -14.413193 2.544427 -5.2539606 -1.5396193 -7.3771586 -1.5286144 -5.6069975 1.3121951 -16.732208 1.6472871
925340 9.671352 4.4726753 6.3626747 -1.4771985 -0.863381 7.7983403 -3.4072473 6.914576 -6.9348626 2.2781844 8.9947 -0.1458803 6.612212 -3.430499 6.7483077 -2.016715 2.4426174 5.1997337 3.7044196 3.405207 -3.2816257 -1.8055898 0.31732458 -6.9377265 -5.028091 1.0859134 -2.2129292 -0.87408334 3.3033905 -0.902712 5.4689174 1.0173559 -9.118452 -1.3652291 -2.3496659 -5.9585814 -1.0648488 -4.1068616 -5.94597 -3.3470485 12.531231 8.2975645 2.582422 -5.4206896 6.766666 7.23616 4.039481 -5.8869214 7.674261 -4.634792 2.9799902 -13.598556 5.8381476 -1.3993381 -3.2360506 6.925572 -0.7035809 1.4610617 -13.550652 -7.9551697 -11.519338 -4.3339314 6.413936 -1.2371088
907275 -0.4772566 7.869279 5.0168157 -2.7762697 -8.523252 9.127632 -0.7721233 5.8515525 -3.0980632 -6.5653114 13.424337 -1.9768695 1.5422977 1.960799 8.007486 -4.141314 -1.7938772 -2.22197 3.4405055 -7.886138 -5.0618086 4.1128917 3.3121982 -4.1258144 -5.465557 1.5531175 0.74725854 -5.1336527 7.7046432 -5.509233 -3.3897135 6.3924947 -2.1047723 -2.2879252 -6.026772 -1.4750615 -3.8444128 -5.1941023 3.1371477 -4.9748473 14.923023 -8.302373 -0.97052234 -5.9996037 5.515528 -2.2343338 6.5238976 2.3094623 -1.799538 -12.73412 -2.8091311 4.713874 -1.7580714 -9.432681 -13.014654 9.971704 0.017312055 -3.6297395 -6.6787477 -10.429037 -7.906145 2.169134 -0.42022875 5.2963023
906870 -2.0262444 6.073418 2.5106022 3.9614828 -7.889302 6.6441655 -10.171117 9.292736 -3.518886 -3.9382176 9.96727 6.0463023 6.1527834 -0.81153136 10.165587 -3.6794794 -1.8277566 -4.672662 1.871965 -13.030404 -5.145999 3.9208403 0.52654845 -0.07680974 -1.0701714 4.3648515 -0.6562398 -1.7765741 9.601895 -1.3836454 -4.5268655 2.4323273 -2.571706 -0.79858184 -14.789797 0.31891575 -3.2514417 -1.2499909 3.0096855 -11.310703 9.97448 -5.918999 11.233114 3.7326772 -0.78414017 -3.9052083 6.24011 0.9246249 -0.8892534 -10.969666 -8.289337 2.5423396 -1.4698255 -7.801318 -17.42424 10.803909 5.058604 4.446359 -2.86303 -8.379804 -6.6529074 0.29980633 0.10207712 7.2940507
905971 7.591371 -3.8557816 1.2957424 -3.5641375 -2.0255606 5.8867393 -3.5758798 2.79165 1.753179 2.9854984 11.779769 0.96025795 2.5589192 -5.7864203 8.602753 4.5842304 -2.2154117 -1.3923942 7.4324374 6.382324 -8.885105 -3.8776293 0.72849804 -9.27934 4.3326864 3.5248148 -6.6927743 -4.7139597 -3.2744465 -3.6749873 0.027563274 4.533934 -0.8232469 2.8761618 -5.9035387 -6.914389 0.63360715 3.2114038 -1.3243397 -2.8836286 2.854542 -1.4164897 -1.6645157 1.7625332 -1.4496362 2.037642 3.3620021 3.74652 2.9671996 -6.129248 -4.848198 1.3125544 6.9675264 -6.2534614 -16.798923 -2.4292135 6.2160025 -2.611217 -11.378191 3.6298802 -12.585852 1.9426947 -6.708926 1.0441047
1298533 0.17375492 -1.379315 5.295988 6.049281 3.4147596 4.385022 -2.7086947 3.7638793 4.2494164 -2.684171 6.257609 5.1324253 1.348358 2.8444958 4.8355193 -0.6244669 -1.941491 3.8488698 -4.74397 -5.270337 -5.7308726 -4.667871 -5.3985677 -9.761275 3.3493237 6.969486 1.4332505 -4.794728 7.1427016 -2.5051796 0.23063833 3.0363023 0.057099212 -8.032002 0.18695664 -5.0515957 -0.66945934 10.748385 -0.1092911 -7.059037 5.99009 7.1430864 -3.5603416 0.2580835 -0.025308786 1.2856464 1.9468757 -3.3508897 -1.6860173 -2.525459 -1.974646 -4.3739796 1.1501878 5.5462275 -15.223817 -8.975127 -9.662886 -8.692937 -3.1667893 1.2502714 -6.690047 -1.4899848 -9.918376 6.770865
1240153 8.489023 6.7136707 6.404458 -2.0881455 3.7193208 9.828356 2.0577493 13.706517 -0.76684076 -0.0993996 6.5361285 2.5459397 -2.7377868 -0.112786606 4.4423337 -4.015617 2.6408856 -3.3110743 5.5257034 -3.016841 -6.8245907 0.84174603 1.7487724 -5.699111 -6.1674743 3.4948616 4.8675623 -4.5031953 1.1322255 -13.439157 -9.611326 7.1292567 -1.8267152 1.7810076 -7.3113933 -3.322955 -1.3785738 -1.8484545 -5.042081 -11.41077 9.2462015 -0.048352618 7.541046 -6.5639386 8.869275 1.2177057 5.6760707 -3.456753 1.5097587 -0.4034085 1.0387242 -6.44099 -1.1485416 -12.703665 -3.7807605 -4.292882 -1.751944 0.87878937 -6.20156 -8.180266 -9.270038 -0.39932075 -4.047983 1.6382579
907282 -0.8603736 0.4780216 -0.71224105 -3.641503 11.083489 17.85021 -7.8289495 1.4537046 -16.669655 3.2257094 -5.300654 -6.721078 -8.075034 4.9912143 4.35556 1.1061655 6.548219 3.9598622 -1.0827255 -4.739174 -7.7388196 0.869567 7.5416765 -13.372999 4.4446754 -7.5530925 -1.7079955 -2.9860983 1.9124323 1.8130732 -2.6752722 6.8457727 -3.9499278 3.050504 -5.995957 -2.5482738 2.3252962 12.323667 0.845792 -2.7167797 5.687111 -0.01028759 6.2632422 4.2974253 -0.06234207 -1.6913736 -6.2016234 -4.5480647 -1.2319102 4.373907 -2.2355728 -3.7315578 2.6396322 -2.8243418 -1.5434983 6.998321 0.23091054 1.712164 -9.0076275 3.827149 -5.592487 -0.76922035 4.2668614 -1.5178587
1331033 0.5517706 12.2274685 3.055301 2.5498579 -3.5105913 7.740876 -3.6946898 10.819233 -6.364827 -4.420547 11.562364 1.5620227 6.083957 7.553793 11.610965 -2.0921524 -5.6948857 -1.1423565 0.6246611 -7.5166373 -3.6328404 5.2012687 3.031021 -3.955903 -1.9091318 6.65973 -1.269903 -3.4845266 9.267762 -2.7747192 -6.773929 1.1005267 -9.2784395 -0.39429125 -7.7961493 1.6692072 -4.5886226 -4.8761134 0.5169786 -5.0810895 11.536176 -8.728501 3.8980503 -4.5630856 2.4778147 -2.2485707 4.2212014 -1.4309312 -3.594659 -7.6285405 -4.7611337 11.56272 2.5529525 -7.5510592 -11.058347 2.3175244 -2.4215157 1.2445396 -7.680755 -4.7660985 -10.084267 -4.262055 -5.3557267 7.7021194
722066 -2.749679 -1.0849376 2.8844874 5.78515 -1.7720741 3.9596877 -6.8076572 -0.94814473 0.6267828 -2.061089 10.904481 -3.7031505 2.8311348 3.4490626 2.5992236 -1.8137192 -5.1021953 3.2147288 -6.5663385 1.3057697 -0.4751846 -8.644512 -3.8531516 -9.136089 1.027615 10.207227 1.8608975 -1.1454089 4.807782 -1.3299664 3.301719 0.04993391 1.0302932 -4.79473 -2.1135886 -4.523636 -0.6148866 9.054801 1.5094769 -0.056624074 4.4250894 6.800565 -10.428615 -2.9559467 9.972443 2.833355 7.9294477 -2.3793836 2.2837894 -11.146874 -2.4238422 -5.1365676 0.3592504 2.8762922 -14.331358 -3.7230835 -7.2163167 -3.3902655 -6.6963005 -3.9105408 -4.995568 1.1941562 -7.7598047 3.1456985
905965 -1.2769189 13.107204 3.367946 2.3964815 -6.2022305 9.0246525 -7.3197746 11.687614 -10.220342 -0.17587921 10.51752 4.204646 4.070891 5.235804 9.117043 -2.1892812 -5.8327336 -2.1381583 0.49064833 -9.2692795 -3.736086 5.1130133 5.0843706 1.0825657 -1.6080518 7.3156652 -3.7496703 0.4121772 10.181539 -5.18478 -6.6048846 1.1699125 -5.118247 -1.1186806 -12.130824 2.0411947 -4.230055 -3.444276 -0.3103637 -2.2614923 13.55921 -7.9206285 5.955061 2.5742574 -0.8697447 -2.6312995 6.5818896 -2.1458602 -0.8909792 -7.9272313 -5.4259186 7.3990226 -0.89479005 -8.1001215 -10.668422 4.818425 -1.0821161 4.697861 -6.678596 -7.507689 -10.311221 -3.4210706 -7.880064 8.629339
906863 -1.4586526 3.846099 2.5969393 2.4557116 5.763408 12.127408 -0.6675172 5.3293514 -5.1389008 -8.367952 4.491597 8.16392 -3.0731006 -0.6727758 -3.6254768 4.593495 2.0062351 8.219407 -10.820129 1.4163133 -8.808989 -9.64759 -6.0797267 -7.2343135 -1.4536614 6.273232 -3.1602123 2.3022428 12.665346 -1.6829858 -0.065274075 3.6143568 -4.9229364 1.4962373 6.606972 -7.9092107 -1.1840032 2.589896 -3.267066 -8.7078285 0.69573504 -6.3538227 -0.25902313 2.708651 -2.7378488 5.271933 2.9340231 -0.78629625 1.167901 -1.0210234 -1.3194584 -4.1213627 1.4442416 -3.5043416 -7.711703 6.953501 -4.204832 -1.7314124 -8.793155 1.9567561 -8.424562 1.0133842 -13.331948 6.9121327
909257 3.9297278 -0.7763231 8.106602 -1.3310975 2.2710614 2.89159 -1.3483694 11.648129 0.16767962 -0.87273306 14.7513 1.1902789 6.383753 3.1016803 14.35868 5.309121 -0.868132 3.0468154 -0.7928615 7.6509023 -3.243102 4.4107842 0.051525526 -7.693346 -1.6440611 10.606469 -1.3479855 -7.9412103 1.685238 -5.088553 1.935079 3.8205812 -9.497135 1.4215108 -3.5640745 -2.061062 -4.281732 4.2606673 4.2801137 -2.9000437 4.5283732 -4.0887895 -3.2528102 5.906401 0.8193493 4.537144 7.5811725 -2.823222 2.1399305 -1.5104558 -3.8307238 3.1231441 10.598951 -10.731357 -5.074881 0.2758099 -0.41949192 2.344975 -3.6310596 2.2761168 -9.27825 0.3781949 -9.937924 2.961899
1298215 -4.7523065 7.356648 0.9711429 -0.9370123 -0.13018246 14.566225 3.64887 10.984174 -2.7959778 -2.2784758 8.471434 12.178658 -0.5871056 -0.044271477 -0.85661066 4.074827 -1.1444341 8.459705 -8.889952 -2.3175526 -12.202986 -7.68406 -3.4253294 1.4950439 -8.226538 4.730605 -3.7527826 -1.0527586 10.47075 0.8269152 -2.258592 6.6436615 -6.0641713 -0.40604106 0.86485416 -8.13843 -3.2103927 -0.5803674 -3.3996425 -8.395799 3.8858786 -7.9933057 1.0761368 -3.6998463 -0.8543725 4.6544905 0.34674653 1.8065898 -6.2311068 1.7488835 0.16693732 -1.0209923 2.6615272 -8.049818 -4.4012938 8.019969 -7.7345223 -2.2055874 -9.341459 -0.30878708 -8.599758 0.35406652 -11.958399 5.9932003
907276 2.9479392 2.6196115 6.2181764 5.0650234 3.3791595 4.563982 -1.2276508 1.3445358 -8.50789 -1.0489334 0.2763065 1.6878097 6.2655253 -2.4240348 -0.38444856 0.19369103 -7.509966 10.630042 6.0108395 -0.30979848 -7.6497664 -7.575014 -4.077075 -12.38228 -1.9842458 -2.711669 -6.09178 -1.7106721 2.3996298 1.3261617 8.615916 -7.1062202 -9.099343 -7.1018114 0.031079302 -3.9712453 0.22963259 -6.241974 -10.389985 -1.3111318 10.791132 10.239216 2.4792523 -1.5188205 5.0707946 3.7060094 -6.7186565 -9.59768 5.799142 0.09449031 -3.8843315 -10.621851 1.2777156 2.2171586 -6.7331114 2.0465791 2.1110413 -2.9362023 -12.758349 -10.377991 -11.40078 -2.7295356 -1.0943791 -2.0484455
905936 9.264748 3.8800652 0.13150503 2.9876478 -1.1101062 4.4222164 -8.526816 7.6009994 -4.7489877 0.8637124 13.334554 0.3630025 3.377232 -5.8246975 6.493195 6.8634243 -6.8065815 -5.567753 5.7399416 3.3411264 -6.5993795 -3.7193737 1.3818551 -6.445304 -0.034724314 7.3526583 -5.337304 -2.5065897 0.92578495 -1.1239563 -3.8236315 7.230636 -1.4541935 -1.7917557 -8.288619 -7.063724 0.47550645 3.3151867 -0.8358001 -1.9889834 7.599525 -0.39208892 -1.3466108 -0.011097039 1.2948074 3.921495 5.630305 3.7510443 -2.8225288 -5.9621296 -3.2173314 6.808611 7.8830175 -5.1159525 -15.692664 -1.0859538 2.8033216 -2.3026156 -12.513022 -1.3270694 -11.207981 -1.1446137 -6.301729 3.9299452
910554 10.694376 -6.7278357 1.470028 -0.7959402 1.2903436 0.5944075 -6.411224 1.946741 -2.72099 -2.3407912 13.07336 -3.6396184 1.209895 -2.9759862 8.303967 8.7145 0.3571811 0.046230257 4.649193 9.363531 -4.446632 -5.355972 -5.5143876 -9.831191 4.117086 4.889333 -5.6472692 -7.1324496 -2.327549 1.6525985 -0.6010747 2.9865324 -1.2161797 2.1227193 -6.9989634 -5.253712 5.0716596 4.8539925 0.6599711 -2.435089 3.391218 0.643583 -3.25404 3.6920726 2.2629726 3.2988818 3.3545313 2.0437946 3.8399642 -5.647921 -0.54282784 0.21193935 8.703641 -7.0386534 -14.119213 -1.8425988 4.975857 -1.9661062 -9.81632 2.8409197 -7.10395 3.2234194 -7.802881 -6.0282316
907311 2.012008 7.86981 2.5256336 1.8925856 -3.192102 6.3305173 -4.6545773 12.58452 -4.7099776 -3.058527 8.692951 5.5833435 2.461255 4.1634846 10.937634 -0.83314294 -0.11968055 -3.0421002 0.6614997 -9.133265 -7.845853 5.0190496 0.20829046 -2.7524047 -1.2355326 5.0307736 1.1461463 -1.9731349 12.156207 -3.900158 -6.236962 5.533121 -8.352909 -1.2211589 -7.7119784 -1.1215985 -1.2275605 -3.7085147 -1.3502002 -13.614401 12.091071 -5.5014253 8.627624 -0.09202898 -0.79109883 -2.0771556 2.17185 -3.7028549 -1.4698784 -8.728013 -3.954236 7.7530437 2.5996044 -5.747833 -14.132292 3.0014455 -3.4583657 -0.41612273 -5.6914773 -7.029391 -9.261344 -4.513691 -4.974634 8.354278
909716 -6.4226027 2.7148576 4.5491285 6.046203 2.4746509 7.75133 -4.5673604 -1.7795883 -2.853809 2.382903 5.99146 0.32939994 -7.2956705 2.2922926 4.112544 -4.144799 -5.370741 2.7717175 -1.2621096 -3.1129403 -6.683837 -3.0184324 -4.9327216 -12.64406 3.5841043 8.532749 5.836402 -1.6957822 7.11812 -3.6000981 -0.29229623 -2.1191773 3.0978246 -10.907472 2.4798334 -2.7446883 6.3612943 5.3103127 0.5113741 -0.8515368 4.493089 7.905458 -1.582228 4.084341 5.213762 0.59661424 6.961719 -0.49930096 3.0240757 -5.3965974 -3.2373762 -9.6422205 -6.629629 2.34678 -20.632826 3.4810247 -1.3749037 -1.0583285 -4.274711 -8.140804 -8.938339 -1.6170996 -6.7676334 6.3433237
1298531 -4.3866625 8.028217 0.3880481 3.0360553 2.5681913 16.313547 1.5126512 10.24557 -5.19614 -5.0322776 9.977848 5.3630433 0.48455274 -1.6867788 -2.8073347 0.3746012 -6.200353 6.632661 -9.1716 -2.6759913 -11.4866295 -6.888809 -1.0566814 -2.8364491 -4.9613185 10.160675 -3.7398512 0.58513427 8.3985815 -3.3867836 -1.7741513 4.9573393 -4.033668 -0.6529357 1.0338233 -6.054721 -2.3320258 4.4877625 -4.1228414 -8.764287 2.68281 -10.636225 2.0825367 -1.9263424 2.0107446 5.538815 -1.5735942 0.25061008 -4.8205547 -1.8034558 -4.1063724 -1.7972573 3.751733 -7.4117684 -4.2090116 10.147319 -4.763892 -0.023464631 -12.018203 -3.1118352 -7.4806104 1.1772392 -11.280713 6.268467
1503366 5.794411 6.2766347 12.933461 2.4559474 -6.1717944 7.5414634 -3.6789582 8.643938 -0.023086667 -6.417713 8.26453 0.5084053 5.003218 -1.4892968 7.2606215 -7.2921157 4.87558 0.8003927 -0.35673997 -3.8684175 -0.9766301 1.3709253 -3.3684766 -3.273211 0.3139959 6.590561 -1.1155035 -1.9037226 1.1848357 -1.8607811 -7.2498403 -2.731092 -1.3707696 1.0068085 -8.106697 -1.3538077 2.3807943 -0.36248994 -5.6326346 -12.418101 8.109357 -5.2464437 2.561383 -7.6560626 5.6430583 -0.40421048 8.265196 -5.170488 10.132776 -2.7481503 -3.6251237 -9.817021 1.2257744 -4.9187236 -8.463757 3.6541023 0.8124249 1.7338135 -9.347119 -4.0969872 -9.20734 1.5723163 -1.1622729 -3.9978583
1247873 1.758932 0.11083389 6.405322 2.0460105 2.3701732 10.076209 -2.7094831 2.1884577 4.0185723 -5.312848 6.2370496 -4.991399 1.5359837 2.0643554 0.48222026 -7.7145257 -2.3549168 2.087368 -5.856329 -1.4989762 -2.3050663 -3.650349 -1.6173106 -12.928015 -1.5255097 7.238845 -1.7095387 1.3592987 4.8340435 0.4623471 1.004198 0.9456096 -0.40290868 -5.6603093 -0.02327119 -3.2419176 1.8024105 10.895327 -2.0172575 -7.928634 10.812329 -0.23687151 -3.2191458 -7.3349257 11.13094 3.6969693 4.414718 -0.001876817 -0.06258131 -8.651115 -2.335357 -8.493078 -3.0427797 -5.601983 -10.626334 -1.0031251 -2.5475357 -7.447318 -3.0986726 -7.27542 -7.0567346 4.3331885 -4.644199 0.53718525
905954 -0.9812967 0.95038116 7.368329 7.364705 7.319082 2.5621479 2.089405 8.387482 -1.8760275 5.1026735 -2.232567 0.9185053 -4.444601 -2.3515472 3.2189503 -2.1520004 3.528974 1.0827959 4.3746314 -1.5724427 -9.407565 -5.780223 -1.1037333 -12.952327 -0.9594038 4.547232 4.8479753 -4.3935204 7.074803 -9.653198 -5.7497787 1.8315223 -0.8236953 4.569244 -0.7009846 -4.0865707 2.417686 6.004256 -6.6263833 -10.80869 7.756628 7.8219347 2.0114188 0.2760352 8.411723 1.0564077 -1.9487513 -4.7329335 -1.9015282 -4.7058783 -1.4907075 -5.172284 -2.3802192 -7.4318275 -13.031953 -5.1233644 -8.405027 -5.751541 1.6600558 -3.947793 -8.539264 -1.2052016 -8.761089 9.52741
688027 2.5676367 4.14458 9.169653 -6.1333156 -4.773216 8.883797 2.9095178 7.6186414 5.68815 -1.8330343 8.249793 4.6341386 1.9319019 2.7437937 16.82132 -4.635292 2.7984703 1.3654437 -1.4954926 2.2984657 -1.6996113 7.0797906 0.83413875 -9.265708 -3.081579e-06 -0.76087767 0.7709728 -5.5619044 2.713913 2.2137833 -4.4322658 1.8338367 1.1129059 -3.7782004 -2.633418 -5.900164 -2.069322 -1.1724458 2.7122247 -10.419036 7.835642 -4.323906 2.0913243 -11.574246 4.595811 -3.0720234 11.430866 1.4672685 6.1925955 1.5100155 1.0051792 -1.9717909 -1.036956 -6.388392 -8.07714 1.1799636 4.346301 -1.3773397 -5.5873017 0.39454865 -9.090565 0.41319427 0.536489 -1.5172107
908440 -5.7198133 9.870991 4.594112 3.3765743 -0.57181424 11.892659 -4.3808775 5.7161064 -8.5139 -1.6205297 9.045544 5.241115 1.7996686 3.1092854 7.9952054 -2.5075288 -5.9032526 2.6731572 -0.099967636 -5.4893126 -8.270019 -0.6768945 2.135514 -6.2557073 2.044602 7.986769 -1.4557409 -0.20400308 9.411044 -6.409119 -4.2683115 1.4301726 -3.504426 -7.612513 -9.004572 1.3515035 -6.3857684 6.179186 -2.1041853 -5.196068 8.875679 -0.8781924 1.70337 3.2981555 3.2594101 0.8710212 -0.4620374 -7.9411206 0.8817313 -4.6162 -4.21488 4.0428057 -0.76564354 0.24558027 -10.324407 4.2081504 -6.7855387 3.5194435 -4.105394 -5.8112597 -12.063895 -0.6402702 -8.803769 9.353849
906833 -4.6468606 7.5806484 1.7432505 2.5332668 2.080942 13.395599 -5.0422106 6.6852202 -3.2119067 0.03940835 11.085829 -0.7038561 0.9343866 4.172923 3.4632092 -3.1172278 -0.9341565 3.6671174 -8.749495 -3.9675634 -6.5726275 0.99895436 0.08967041 -6.472316 -0.42942965 12.08158 3.0272968 4.868767 6.4762125 -1.8171277 -0.30320895 0.62422585 -8.215814 -8.063227 -9.7950535 -4.292351 3.058209 8.328477 5.2760415 -1.9191842 4.348006 1.803963 3.6520998 -0.41149452 2.7436419 0.12242094 4.467676 0.57812864 -2.4830487 -2.741233 -5.0269866 3.3046715 -1.6044402 -3.5691912 -11.481732 -0.79012734 -7.550453 -0.9551668 -6.611645 -8.575569 -13.302981 -7.893118 -10.7706175 5.636687
908118 0.20897788 10.148473 6.3159757 -4.073869 -0.76493305 13.735714 -0.2859186 8.532807 -2.9790106 -0.33042523 7.7934713 9.253615 1.2520138 1.9253865 9.681104 -0.8312525 -0.6459898 1.1094557 -0.22913243 -4.3077235 -7.984075 6.6143327 2.7491786 -3.0983434 -3.3746786 7.784111 -1.9652776 -2.0843928 5.376816 -3.500335 -5.378175 2.388433 -4.505829 -5.3685527 -12.331242 -1.9807178 -1.5397648 -1.3041279 4.2646523 -9.02306 7.0011277 -5.626106 6.4951124 -7.2083097 2.4129279 -1.0379757 8.879155 1.9897727 1.2071573 -0.81778145 -1.5809761 3.925262 -5.8361163 -8.139726 -10.038086 -1.5402062 0.5620413 4.953054 -5.9314485 -6.325406 -14.718564 -2.4851115 -9.2717705 -1.6944625
1290810 -7.066374 0.414874 4.748766 8.778761 -0.5863806 4.686554 0.027708082 0.43518555 -1.460883 -1.1511366 5.8128414 1.2349713 2.219673 6.323883 7.1346135 -5.0489674 0.5362235 8.348896 -2.870924 -3.1132839 -4.96506 -4.2224545 -3.4828756 -12.610053 7.944209 7.6832237 6.7375884 -3.8372808 9.634992 -2.0665753 -0.79521763 -1.7420571 -0.52064896 -8.815233 0.81487024 -2.383866 1.428549 7.972263 0.2946036 -2.0146985 1.3868529 4.402088 -3.7047122 -1.6582346 8.918523 4.71875 -0.12664777 -7.235735 2.9507232 -5.913571 1.0384047 -10.293141 -3.095407 5.0716877 -12.265091 0.6013169 -4.4529576 0.25786498 -0.58991396 -2.578211 -9.193837 -1.904767 -8.127719 5.8211045
1303900 6.643963 0.0962737 2.7290263 -11.790622 -4.4640617 10.537837 2.3647504 4.14422 -1.4464276 -6.1156025 13.878925 5.517205 1.7407757 3.763939 13.182814 -5.326091 4.6115007 -1.9364024 0.43664095 -1.0144106 -2.5230546 2.7352834 4.739606 -7.670257 0.1746034 1.8045503 5.00663 -2.9273958 5.04275 -1.8524399 -1.1326956 6.5142875 0.32271308 1.65098 -2.3675601 -3.0872178 -4.0942388 -1.0555044 -0.9164542 -4.438113 9.802755 -1.123025 -2.0141165 -11.781798 5.428347 3.2119086 9.870924 -3.9679358 8.002058 2.0666695 0.12627304 -5.338276 -3.0077007 -3.2550092 -4.05906 1.7010876 1.5392753 -5.1232967 -8.942844 -4.669685 -7.5471478 1.9722328 0.2084773 1.7862777
910691 0.061576784 -6.6189613 9.546335 2.6582286 -1.3757111 4.4811454 -1.7795151 2.9771998 -7.003808 -12.11222 13.338806 -2.7059674 8.3513 12.390598 12.78121 2.1407382 3.3988686 3.5282478 1.775744 -6.7807903 1.3497957 -1.6641992 -5.385796 -3.0281444 -2.60844 1.8929176 2.780563 -8.402839 -2.1696515 -4.6684713 0.23195955 3.692356 -10.958052 -4.2418323 -6.264183 -8.661678 2.2619402 -0.76622033 7.9507203 -1.0892136 6.5192533 0.060477108 5.2081037 1.9277359 -2.7583733 1.6913819 -4.7690506 -4.598287 0.20025864 -2.4784424 -5.6230197 10.492378 9.620668 -11.96856 -7.1054316 3.0680475 2.0494516 -2.6037216 -0.43899107 -0.26093712 -8.525818 2.5527072 -1.0516753 -5.6380954
905961 7.403206 7.233112 2.053276 1.4379457 -1.0007411 7.7638187 -5.086204 5.738005 0.8561995 9.819694 6.5097275 7.9786625 0.7844288 -10.869654 5.717103 2.7004428 -1.3536259 -5.1172204 6.9264307 -3.7947176 -13.040067 -3.4532142 2.0542586 -6.24976 -0.9573428 7.5348783 -8.693701 -5.440525 4.538459 1.4233309 -2.4845564 9.745262 1.9553587 -2.7779913 -4.903607 -7.5555267 1.2910405 2.4481988 -2.4496152 -8.322599 5.7446065 0.0044386424 3.4096951 -4.297621 -5.0307584 3.7985451 3.756638 5.2732987 -2.28562 -8.971235 -5.5811486 -0.98527867 3.0528789 0.09010103 -16.968311 -3.2037032 -3.8532665 -4.534306 -11.540488 0.35796118 -11.564827 3.9260564 -8.688379 2.7212846
906793 1.7980977 7.047885 5.995902 0.7721544 4.4081764 9.449067 -0.73323596 14.677906 -6.193185 3.8559566 2.6257122 3.8913903 1.1947762 -1.3352889 3.963372 -0.29088315 -1.7523211 -2.926264 4.1303697 -2.3441277 -10.758897 0.8457883 5.0983777 -2.1455793 -4.517948 7.5397353 3.2388957 -4.178656 0.7948565 -14.139411 -7.193169 8.586375 -5.433507 -1.3984407 -12.512564 -2.5567803 -2.347614 0.96945757 -4.747293 -8.781118 7.048254 -2.529597 6.652316 0.13339593 3.103232 0.89778847 4.8447876 -1.7983867 -2.6162963 -6.7327437 -3.6393685 2.8737032 -1.3618345 -11.130845 -4.944381 1.8922755 -9.014011 1.917755 -1.4774364 -8.189892 -12.579755 1.2866807 -12.93404 6.7337356
909703 1.7399577 11.269551 3.6004572 3.09097 -5.633449 8.82658 -7.273757 10.237135 -6.696191 -0.021054292 9.649674 3.0312347 6.511123 4.276329 11.650911 -3.762144 -4.512562 -1.6201231 -0.6993185 -2.4267633 -2.2221668 1.6561142 1.4943624 -2.6508582 0.4420823 3.9769988 -3.794955 -2.0279672 11.218451 -2.8760407 -7.1752305 1.5358374 -8.679063 -1.5743876 -10.282069 3.2416458 -7.8712296 -1.1799074 -4.038725 -4.4471064 11.653615 -2.262175 6.6287274 1.8716376 -0.6300824 -3.1471152 4.7623973 -3.1210172 1.3645167 -7.857412 -9.182789 11.009189 2.671251 -4.55373 -13.59179 7.989111 0.5543361 2.7756689 -5.491196 -5.8813133 -7.697134 -1.830863 -5.001205 8.934214
1327774 1.2846029 10.544358 0.9915325 -7.069323 -5.1287837 10.812879 -1.7318654 8.187579 -7.109613 -1.5682224 13.55589 4.251307 -0.07886315 7.752202 6.5802813 -1.5576972 -5.6730347 0.08174304 1.3011336 -9.808269 -8.618123 4.464028 -0.41339588 0.52337444 -1.206442 2.2064712 -5.1448874 -1.0865569 10.134484 -4.179482 -4.7179775 -0.3930906 -4.138292 -5.754438 -15.984332 4.496064 -1.9805903 -1.6983659 -1.1948428 -5.686937 18.279673 -8.76453 8.348757 -2.0886903 3.0362563 -3.6376219 2.1919572 1.2247688 -0.23932487 -4.874603 -3.0516412 6.34509 -3.0953126 -10.035615 -11.823018 2.722528 2.746563 1.3564403 -5.153393 -8.93684 -10.684569 -0.8778564 -3.1786282 6.0932536
949153 1.5654218 9.715321 2.8779163 2.360271 -3.501959 8.014601 -1.9835143 9.182659 -6.6751084 -3.0814881 9.433015 4.0710645 3.5266452 4.1006317 12.15558 -1.1188266 -4.394803 0.22132464 1.3526809 -6.510801 -3.8633451 4.2755523 -1.5545077 -1.7913113 0.048368737 8.243479 -3.0890033 -4.735097 10.130878 -5.3676944 -6.226687 2.0991294 -10.588759 -4.9279737 -9.33086 2.8559506 -5.4704905 -5.6977215 -0.78727794 -8.564714 11.293601 -7.811341 7.3754983 -0.5041971 2.1557457 -0.4846905 6.3721795 -2.3541133 0.15264906 -11.223 -5.9537506 7.2079134 2.6162598 -6.015194 -11.799149 7.4177146 -4.5195036 2.9226744 -6.552189 -5.0225573 -7.7331996 4.119719 -5.3669553 6.551092
949155 0.30035403 13.952166 9.156149 1.396852 -5.877056 12.096819 -8.942969 10.958238 -5.1180015 -1.5609154 6.722459 7.344619 1.96865 5.3316035 9.204477 -3.9508712 -1.9519027 -2.5253692 -1.8914733 -1.9347095 -6.6313944 1.5202937 4.5625377 -0.81012654 -1.9196295 8.030813 -1.5184374 -0.691728 4.550141 -5.33131 -8.961809 0.52046645 -2.186788 -3.2866983 -12.245347 -0.7321261 0.35072374 0.443165 -1.1810205 -8.051158 9.926325 -7.00363 8.560515 1.5859101 -0.7788473 -0.6854097 8.164419 -1.5853705 4.0059075 -7.8221164 -6.9801083 1.9635117 -3.0276284 -8.518596 -9.350044 7.983095 1.8004434 7.4321833 -4.0672655 -5.37209 -9.625521 -1.4556338 -7.10968 5.580813
910701 2.582865 2.9717052 8.415541 1.2154918 -3.4199977 12.998622 2.023854 10.946666 2.355808 -6.614496 10.65461 7.8423834 1.2591147 -1.2613097 -0.78256136 -1.2230859 2.6737561 4.2942495 -13.741921 -0.7312159 -3.4828074 -6.430706 -3.8571215 -3.392843 -3.2262454 6.3608046 -6.535447 0.07714267 7.009256 1.387605 -3.4864426 6.6196065 0.94798917 0.45271936 2.7882276 -7.154721 -1.9764111 2.6053996 -4.6300783 -12.392906 5.4209747 -9.6315975 4.173433 -7.2643857 3.5043387 5.7887626 2.3973453 -0.3851975 -0.08793989 3.698501 -2.2549255 -7.237268 2.126212 -6.330242 -3.710268 11.103506 -0.52789634 -5.7532496 -6.309226 0.048200317 -7.160773 2.8339283 -4.6799016 4.923682
909260 2.1105156 4.8613486 1.267181 2.1165743 -5.247659 4.9753757 -5.7468085 11.3472805 -3.9400094 0.81738245 10.1610985 0.46089754 8.524161 1.1280279 13.161993 -3.062212 -0.6993287 0.03593796 -4.655047 -3.6794243 2.6472063 4.073046 -1.6397643 -5.8231454 1.2215443 5.200042 -2.5048888 -3.7281694 12.602309 -1.3441947 -4.6471877 2.541011 -8.6828165 -1.7350732 -8.698391 1.4712933 -7.9235497 0.5941791 2.243058 -7.740285 10.577572 -4.979493 4.7568183 -1.0755512 2.231337 -1.0232223 3.3833272 -2.752069 0.05128302 -9.105575 -6.700168 9.291762 10.068362 -3.9913511 -11.326811 3.5074239 3.4130104 -0.63712025 -4.7107334 -3.337878 -8.846733 0.9941966 -1.3894416 9.469014
1330984 2.2614014 9.7777605 3.708996 3.5199904 -7.1526785 6.7884426 -8.389001 13.349045 -5.4512286 0.44888702 11.699896 4.759192 5.971304 3.5253937 9.149467 -4.5639997 -2.5036266 -4.3971186 -0.93781275 -6.6294003 -1.3467203 3.0893135 2.0259345 0.17451824 -4.1140857 7.648209 -2.1367571 0.70612055 8.810612 -3.7770143 -5.303122 2.3141518 -6.944518 -0.41217226 -11.607294 -0.745343 -4.2533917 -1.6945074 -0.6747001 -6.1366553 13.272583 -4.621849 8.427846 2.6860309 -1.010115 -3.2437134 7.1730824 -2.1050446 0.026452173 -9.157551 -6.266195 9.026535 3.589428 -6.850947 -11.652031 5.395284 -1.7696954 0.49601382 -4.032739 -7.431568 -8.946395 -4.948866 -4.9675584 9.795772
1327775 1.7872375 8.33706 4.40028 4.246879 -3.815591 4.7440066 -3.3704884 12.442368 -4.1895084 -1.762452 11.382733 2.9896278 7.8534513 0.7102174 11.496094 -2.0248134 -2.841393 1.3671538 -4.9036846 -9.83489 -1.6956178 3.3446016 0.35079995 -2.2083611 1.5133587 5.253168 -1.0123867 -3.6188726 9.881355 -6.9251404 -7.9365697 2.038516 -4.267595 2.24637 -11.596326 0.5520569 -5.258445 0.371749 -0.8024087 -9.66687 10.572598 -4.519181 7.0325065 1.9176226 -3.3489172 -4.934627 1.5935949 -3.8671265 1.5097834 -3.848448 -7.7251205 7.347857 5.489198 -2.0906675 -13.8078165 2.6537297 0.2566941 2.8616421 -6.424009 -5.004631 -7.475931 -3.0707836 -4.274093 11.993177
749716 -5.295773 -3.869001 -3.3435376 2.429491 -5.774714 5.311119 0.16967005 -1.6820432 -7.9018793 -6.0049114 11.765209 6.643367 3.531543 5.690957 9.183326 -6.0962124 1.3914305 2.8717182 1.2709559 -9.694796 -0.6725272 -2.654545 -6.9828753 -8.770152 9.061239 5.999662 4.2108717 -1.0217816 11.350621 0.751343 -2.1598415 -2.9292881 -4.598814 -0.9526162 -4.032298 -0.52706957 -3.795981 5.899154 0.063624516 -3.6617134 -0.22876275 -3.8247259 -3.257517 -2.8286648 0.71707684 1.3344078 2.936146 -8.588089 10.308917 -2.844965 0.1319645 -3.0998473 -4.351375 3.3825607 -11.989541 -0.16564173 -4.928971 -4.2419367 -9.470546 -3.5227802 -8.791093 3.0043519 -11.846763 3.4699159
753574 -4.6372757 2.5597267 11.381107 3.98374 -0.61652297 5.3842535 1.770242 0.34810734 -1.9665165 -0.9683305 7.1725874 0.9876198 4.6674604 1.0725828 2.9501948 -3.8214574 -2.5006926 10.210554 -4.292955 -5.8250504 -2.9939013 -6.69454 -3.4621236 -6.871082 6.0555763 9.339427 -3.3764315 -3.777474 6.0695267 -5.6575685 -2.6472316 -2.357392 -0.37080938 1.878713 -5.187903 4.5754004 0.54815364 3.4770472 -8.650279 -3.1526537 6.2736206 4.504575 -5.4457045 -6.6878533 1.9344727 0.44265604 -1.5643315 -4.627608 5.310476 -3.8237355 -3.3011842 -9.0690365 -0.49580908 4.2767525 -17.144888 -0.14929597 -11.162267 -3.6445246 -5.418919 -1.5828547 -6.061492 1.3826563 -11.255405 5.135366
1240193 0.13777938 10.179713 6.2056847 2.9918647 -3.40841 8.285788 -5.9428988 8.052499 -4.2408786 -2.5350733 9.3766775 4.629722 9.585727 3.354416 11.781572 -3.4363112 -0.37491867 0.94638574 -4.8217893 -6.346866 -1.6084455 7.2286205 5.5750575 -6.0926147 -1.4898684 6.8319435 -2.0167089 0.2091352 9.480155 0.1391784 -5.5984287 2.0787096 -7.213753 1.3995073 -9.476781 -0.47488785 -6.9557986 0.6130101 3.5112224 -6.3924446 9.148429 -4.643756 1.6327733 -2.6410685 2.1563914 -4.3789296 4.364771 -2.9975467 -0.7318677 -6.6017246 -8.024272 9.430602 -0.47894505 -2.7325687 -10.273302 1.4323353 -1.4313664 3.0106556 -4.766109 -7.1531696 -10.779863 -4.0153465 -5.4049807 7.7435365
907061 -4.652525 5.3453455 1.8566219 0.7796378 -0.36654276 11.571557 3.7973304 11.546684 -0.62527746 -2.8706796 9.178548 9.34484 -1.6201556 -1.5306168 -2.146754 4.6875176 -1.1225793 8.498868 -10.633981 -1.4461423 -9.571763 -5.882533 -0.864916 -1.3909303 -7.6958957 7.182466 -4.6132913 1.0967926 7.482052 -1.2147725 -1.1671773 4.25267 -3.3902655 0.82227534 6.51971 -11.553347 0.844032 -0.49314785 -2.7741823 -8.763294 5.409276 -10.824948 2.0486667 -1.568584 -1.6305199 5.5308576 -1.5349119 0.353584 -4.010115 1.3913608 0.087225944 -1.8536824 4.966017 -8.8889475 -3.9657295 7.8678584 -5.902527 -3.464783 -11.00702 0.16778365 -9.875533 -3.6030474 -11.786803 5.811483
907066 -2.9447117 0.5871323 4.4221373 3.115831 5.29154 3.007742 -2.5162106 -1.5614506 3.6565454 1.4512327 4.143524 4.577356 -1.324979 10.230749 3.5789542 -4.544542 -6.943108 8.31125 -2.6053336 -6.3455124 -5.4362445 -2.838003 -3.6384463 -16.333002 3.376305 6.495625 4.4982657 -1.6277806 6.731834 1.5250217 5.8816104 -4.1879478 1.3831011 -0.392027 4.4128857 -1.7200657 5.065142 6.537191 -5.219144 -0.2315907 8.232767 6.1708364 -4.868071 -1.6208961 8.560178 -2.968329 3.5693493 0.31014413 0.70226645 -2.013644 1.6871107 -8.743386 -6.841971 1.7614288 -16.28979 -4.003883 -2.430735 -5.6118484 -2.86646 -1.8700068 -5.947009 -4.6667 -11.094647 5.616678
1327771 6.26771 8.403838 3.8091168 2.2075942 -1.6399585 7.0185175 -1.7259443 12.240854 -0.22728111 -4.1330457 10.078489 6.8321376 -0.05381443 4.329568 6.0442543 -1.2542331 -1.4598142 1.1731663 0.030493628 -3.1703272 -6.32409 6.5181503 -2.8397958 2.168051 -2.3217957 8.387153 -0.9029958 -3.3733432 9.763468 -9.799852 -5.3134685 5.4449067 -6.8039923 -7.7247086 -7.5581727 2.2451406 -3.6313925 -7.1389112 -3.8853166 -9.945483 14.90814 -0.40412733 2.566084 -0.99978894 9.28167 2.2854354 7.6018662 -2.1779957 0.9446386 -8.522458 -1.3175964 -1.5739993 2.4451835 -4.5990453 -9.574212 5.755221 -3.9414926 -0.45645434 -5.764663 -8.904826 -6.7919903 -1.4746513 -0.057594325 6.8549056
906877 5.645073 8.297717 7.460801 3.6646867 -1.7066088 6.9253116 -2.7592633 8.894463 -2.0277395 -3.2931845 11.177246 3.3804429 2.8621066 5.773175 12.645947 1.5607387 0.71575177 2.2729056 -2.4372272 2.5920913 -1.9836565 2.7026908 1.9000484 -7.2320194 0.6595405 8.396908 -2.8106573 -2.6918116 6.657231 -3.5405483 -6.0186977 -2.219559 -6.608252 1.1524718 -5.932926 -0.85094035 -2.733673 0.1905803 1.7601724 -2.3282561 10.433398 -6.556634 0.96919334 1.9820597 3.5544286 0.6565123 7.5534415 -3.6585996 2.7671304 -4.640503 -6.5787373 5.880393 5.4760585 -7.6449594 -6.8447924 1.9878825 0.49987614 -0.23387168 -7.4319596 0.09875402 -9.682692 -0.5864831 -8.673162 7.1512856
907786 5.378829 10.127302 6.723224 -2.6328697 -7.0996394 7.901656 -6.559645 6.2917895 -1.8535098 0.52899647 10.695697 9.810788 5.075312 1.7810153 2.5723014 -2.9680893 -0.5986379 -1.119199 -2.3250766 -11.542491 -8.018855 -2.235738 -2.3728611 1.1179826 -3.7046099 0.6291587 -4.253414 -1.0286912 10.406286 -3.156076 -3.1079211 0.59562784 -1.2402675 -1.5916951 -18.273504 -2.4564135 -4.4437037 6.892232 2.1662633 -8.297451 13.291126 -3.9632745 2.338421 1.5889984 2.2905262 -2.1483316 2.5607822 -2.5673184 1.7041192 -6.3094454 -3.9886212 0.053570233 -3.5003526 -4.7020493 -8.685757 -2.9976482 6.3347316 4.796897 -5.0898466 -10.052417 -9.851895 0.018326428 -2.9723341 8.815736
724873 -1.3008759 -4.10522 2.0259411 1.6621794 0.043027773 2.3000782 -2.6871233 -3.6467109 -1.4196458 -2.573728 10.487503 -1.0452621 2.1861787 6.854138 2.4599934 -5.044631 -4.4199343 3.2428489 -1.1228664 -7.9901342 -3.0035257 -3.1824746 -2.502841 -10.994076 4.0988116 8.133361 6.0667677 -1.6080521 4.3064365 -1.7106981 4.312323 0.1571306 0.457986 -5.251191 0.6991402 -3.1563184 1.8309422 8.351289 -1.0189166 1.7476505 8.623093 6.6477036 -4.901159 -2.9774888 6.1918845 2.8106747 7.3967147 0.050025664 1.7956066 -8.652997 1.7553998 -7.8327475 -6.489689 5.839704 -17.37829 -5.8666496 -8.088719 -5.167403 -4.8119264 -2.270754 -8.962402 -1.844569 -7.815424 6.83161
908141 1.3083442 6.023067 -0.67280006 2.8214886 -5.43145 8.984252 -10.01492 11.419102 -2.1294167 -3.4080095 13.9086485 3.4893975 4.236282 0.73778784 7.480996 -2.7193167 -2.5598335 -3.7852736 -0.68333817 -10.00334 1.096111 3.1296322 3.8033059 -3.180893 -2.7239442 5.0502677 1.2512206 -2.2401733 6.0884566 -11.751895 -4.9584084 6.9864388 -0.52376574 1.3074414 -10.104733 -1.1299047 -6.988286 -2.4260793 1.3898815 -6.7474804 10.09248 -3.5050852 7.4770093 2.1211553 -0.8594239 -4.2287517 7.1420193 -1.4952704 -0.03539291 -9.549624 -7.283925 -0.058073837 1.4632566 -8.2203455 -11.905812 8.585549 0.8196061 3.019475 -7.1381416 -6.8658996 -8.164904 -0.4754804 -0.7490169 10.038028
909722 -0.8468463 5.703333 11.626066 3.8275862 3.447666 7.571469 -2.895119 -0.66529 -5.7107472 -0.74803 5.732425 4.397527 -3.9115603 6.25438 2.2923183 -0.0075767315 -4.109145 -0.30579397 4.0701456 0.34992054 -7.204773 -5.74344 -2.6321561 -12.621355 6.005561 8.264772 3.6576664 -5.898998 10.377616 -9.770964 -5.902117 2.851237 0.36399263 -4.934737 0.21568203 2.2397928 1.1190442 -1.0447655 -5.862307 1.5673656 6.599428 6.1884346 -1.9638569 1.3215612 -1.1308028 4.4111457 2.2735887 -3.6968846 4.7166305 -7.213672 4.9742146 -5.7130213 -2.290863 3.002522 -15.44041 1.481034 -1.3942484 -6.078163 -2.4249194 -2.1119108 -9.090794 0.14603277 -16.524263 11.422604
908481 4.417747 5.293698 7.9515533 -4.527511 -3.7527711 9.726902 0.2341044 4.98065 6.115323 -4.742742 8.8026085 3.7323496 1.095687 1.0665545 14.98237 -2.504885 7.2389092 -0.667576 0.08859641 3.7385406 -3.401295 6.667729 3.5157936 -10.061237 -0.44727984 0.15306671 0.69472665 -4.5942802 2.1012022 0.61720395 -7.22589 2.929877 0.10017961 -1.6025656 -4.22849 -4.2763767 -3.025754 1.9242802 4.4653897 -12.205484 6.9914107 -2.4005105 4.4087663 -12.2584505 6.076605 -0.31386337 6.23506 0.45980492 3.894578 -1.6124716 1.2678125 -4.9970083 -1.8968736 -7.4325385 -8.343243 3.8548322 3.1879196 -0.2530072 -4.9168444 -1.798798 -7.691533 0.49085137 0.4695946 -3.486598
1290922 -1.4333694 -0.1373109 0.6857741 0.3475036 2.536881 10.859016 4.0990806 -3.0272646 1.0776486 -0.41246086 8.485023 6.237398 0.9029487 3.0105839 6.316337 -6.4418764 -0.49820197 6.2269835 -5.7099924 -6.130023 -4.053668 -6.6010747 -5.06597 -11.724265 1.7675021 9.428871 4.1596384 -1.9638717 9.664021 -0.90969294 2.1219058 -1.6097143 -1.6195986 0.97622085 -2.680646 2.1368513 -3.3554566 9.381284 -0.7017375 -1.5983195 4.0913854 2.5211525 -2.7671075 -6.746096 6.101822 2.8457036 -0.7503418 -2.92288 2.6055586 1.7688047 -2.420989 -5.2101655 -5.256887 2.0393722 -11.405429 -2.552049 -2.6400578 -8.605664 -5.385072 -5.203822 -5.071804 4.9095106 -14.628996 2.9767087
924187 0.7178657 -12.499689 10.897437 0.7263973 1.9361837 7.114528 -2.7920141 5.409712 -1.2725292 -12.686509 13.960427 0.45314133 7.668217 10.277582 7.843792 0.9325791 9.011944 1.7332383 -2.3417337 -4.3786893 -2.2260084 -0.36328304 -2.5044403 -2.0698211 -0.5402339 -0.7765568 1.0321428 -4.2130933 -3.7396195 -7.5158954 1.11296 7.6513977 -3.3706784 -2.6369712 -3.9329243 -9.040279 2.161453 2.8007865 4.012593 -5.082488 7.773046 -0.581848 5.3418255 -1.5735894 -7.1002884 3.7981133 -8.645715 -6.0082197 6.8493342 -1.2154732 -5.906611 7.203746 5.2294993 -7.804202 -3.9386094 0.63643277 2.8392208 -9.12184 2.4952 -0.22694196 -12.913257 2.7699535 -0.5224806 -9.22228
684059 1.0604175 12.842836 6.567639 4.033331 -4.309641 12.333067 -7.784585 8.527193 -11.060097 -6.787177 8.971717 0.5603492 4.1825123 5.867201 8.85665 -4.7592707 -6.0913997 -2.890256 -1.690501 -4.400969 -4.9311914 2.8324013 2.8113184 -0.8680239 -0.63064235 9.420829 -0.8610928 0.6636071 7.8368835 -5.174477 -7.584172 1.564322 -6.029567 -1.3398492 -9.498658 2.4757888 -1.930575 -3.219496 -2.9917676 -2.5394793 10.357855 -7.732126 5.9223356 2.672659 -0.31673387 -2.4530418 7.090968 -2.3310182 1.2611288 -8.102067 -8.06044 10.991458 -0.4829289 -7.861563 -11.2605505 7.5078278 1.7051331 2.8408833 -5.8728805 -9.044245 -9.325767 -2.4573624 -10.154315 5.3890805
910544 1.8957767 11.549812 5.9040627 1.9080167 0.63549393 9.892088 -2.0573719 9.281444 -7.3816776 -3.659768 7.138729 6.9263473 -0.20854217 4.375767 13.401441 3.7121906 -5.207762 1.3960886 2.8504944 0.63593495 -8.331252 6.248402 -1.054297 -1.9707102 -0.36782274 8.616332 -3.5520256 -6.6726465 7.972922 -6.7427073 -7.573866 1.7280741 -8.918083 -7.3448305 -7.85764 2.6318336 -3.4275591 -4.040779 -2.781039 -10.534541 9.758865 -5.64053 7.415766 0.4545929 -2.026941 0.06499675 5.5826716 -3.149441 2.6986372 -6.280318 -0.35241416 4.8067737 2.7886734 -5.44856 -9.534021 8.3820715 -3.836572 4.541238 -6.953918 -1.6931145 -10.401525 0.11870399 -11.1772585 1.4624039
905977 6.073496 3.384013 2.7504847 2.1280367 3.9137802 7.883365 0.08358208 16.414886 2.4852774 3.5649955 6.6282783 0.8475967 -2.5675926 2.6031463 6.877007 -5.573355 2.1479986 -1.6027821 4.364806 1.0455736 -5.036235 0.018692214 3.293199 -7.1953354 -0.35778207 3.2742095 4.2539344 -2.1960435 2.6872063 -12.209205 -7.560318 6.964092 -3.3798418 3.9403615 -4.2799034 -3.686329 -2.2272315 1.244204 -6.3367524 -9.361923 10.954044 0.45891666 7.142175 -3.815918 13.474437 5.305861 5.1928926 -1.7422931 -1.262802 -5.842386 2.508528 -10.697168 -1.3377696 -14.786063 -3.7097912 -1.2346175 -3.3067849 0.8114439 -4.3021655 -4.0767937 -8.044113 -1.36276 -2.3061845 4.2868624
908457 6.769125 4.0925055 -3.36248 3.2879708 -2.8503304 8.875558 -6.1783457 6.8245535 -1.9773766 2.9056106 12.630769 -0.65319663 0.97172743 -7.8226323 4.3159356 -0.29220772 -6.710442 -2.9708042 0.71259177 -5.7847137 -7.520191 -4.974439 2.760476 -8.566513 4.3743157 6.2884436 -10.042706 -2.4089139 4.195849 -3.004519 -2.5897365 7.6685386 8.708851 1.2799244 -8.44842 -4.076451 -0.68848723 9.779208 -4.396597 -8.219448 9.105828 -7.200045 0.8173486 -0.20252481 2.4444227 1.5638244 -2.7675788 2.0708394 -1.4700681 -7.8741975 -7.1742754 3.069869 7.0812545 -3.278771 -15.852177 0.8115335 4.2753987 -2.5761392 -11.051221 -2.0508158 -10.891185 4.854219 -2.9382188 6.7538724
1330987 1.1714531 9.850652 1.6565057 -2.8107867 -5.7244086 7.307629 -7.2504654 9.394251 -9.860274 -3.1959124 8.626598 3.8517466 4.457865 4.2665653 5.6548886 -0.18787734 -3.975705 -2.0009744 0.6803389 -8.817749 -6.499674 9.0971365 0.47977033 1.3815668 -2.8841019 3.8915954 -2.241028 -1.5216304 11.25647 -2.3574011 -7.149559 -0.15919018 -5.6790895 -2.8170857 -14.003555 2.6191099 -0.6415959 -5.1577544 0.27298307 -7.8211074 14.966042 -7.351633 4.5561957 -0.8418675 2.8901763 -4.0600734 5.908108 -1.1910472 -1.9247353 -8.410844 -3.254473 5.968115 2.6845486 -8.006987 -12.514822 1.5621462 5.381218 0.6943618 -4.5500093 -10.071464 -12.578182 -6.449057 -0.94690764 8.462217
910546 1.8637238 9.080264 2.584437 1.210508 -2.666894 9.750907 -5.8253846 11.622097 -2.0810902 4.020612 7.075689 7.216209 3.3774128 0.6332896 2.893619 0.12933548 -2.2907128 -1.5442122 -1.0345932 -13.243664 -7.355058 -0.7321368 1.3070045 -2.3464713 0.7881335 7.296177 -4.1896586 -2.4377592 8.382642 -8.363469 -3.411006 8.005546 -3.4411302 -1.8741047 -16.877403 -1.1783341 -4.233233 1.6628784 0.08244532 -9.634941 9.340599 -4.706069 3.8837833 2.6035273 -0.6239346 -2.4113436 -0.30788016 -2.5270617 -2.2229035 -5.5500007 -4.825525 2.656142 -0.67346716 -4.9534006 -9.990806 -3.0045307 -5.8959165 3.1425643 -4.1675367 -7.43889 -12.541469 1.8787472 -8.3645 11.106897
1298357 4.4919043 4.340617 10.8392515 4.935574 0.56300896 7.6825004 -5.6293306 8.5750675 -11.096053 0.83184385 2.360406 5.410653 13.22951 -5.168038 3.2810068 -0.705007 -2.5387502 5.352361 4.466667 -2.533386 -4.854975 -3.3643222 0.9537428 -6.7667747 -5.2688212 5.441627 -7.2910924 1.2479856 6.132119 -1.607403 5.922894 -0.73344904 -13.528079 3.2455277 -2.2214036 -5.1307034 -3.9994977 -6.715702 -6.4729195 -4.275682 11.110589 5.3714466 2.2933702 -1.4983047 4.733425 8.884576 -1.9969622 -10.533605 3.4609182 -6.956411 -3.5003388 -7.9729333 5.2320685 0.12168982 -2.1147017 6.044547 -2.705669 -0.1863461 -13.446445 -6.9483843 -10.733348 -0.59024936 -5.2995715 -1.5015109
930298 4.154486 -5.4385467 11.999159 1.8131927 4.2556195 7.8911996 -1.6189959 8.069639 2.684611 -8.674037 13.197722 2.632274 3.0255475 4.00358 -1.1062629 -1.466358 12.787657 3.520376 -9.254153 -0.41493213 -6.52051 4.7307677 1.4050332 -1.2610234 -1.7884145 1.0764697 4.486625 -1.4702109 -3.1820772 -5.28556 0.25330216 6.653116 4.8024125 0.506637 2.23713 -0.64066046 2.7453024 2.1379805 -8.159893 -7.4978414 6.2766695 -6.792876 5.029621 -8.199062 -8.087872 1.7435721 -2.3625925 -1.8770083 9.3717785 -2.0273352 -4.271064 -3.006745 4.8036413 -2.0409322 -2.370523 3.6864905 -2.4240794 -13.240821 1.1166214 -6.502378 -14.289632 -5.1161838 -2.1174135 -6.617648
1240151 6.5071445 3.0655534 7.9358478 -1.587982 -0.3714135 9.258717 -6.9118905 2.6565335 -6.466982 -1.128377 0.8242872 4.504196 11.42676 -2.9779346 11.61557 -1.5150604 -0.280989 1.4380312 2.6782606 -0.90866923 -2.3878703 -0.71702474 2.4703922 -10.542562 -1.9213489 2.3298047 -3.6079578 -1.1809204 3.5840323 3.39341 6.8985734 -1.0186315 -8.840908 -3.668761 -3.1560724 -7.4782443 -0.8800166 -6.377628 -2.7622368 -8.142547 11.543919 3.5881913 5.86124 -5.617831 0.8585353 5.8638954 6.0244546 -4.3642864 5.1857114 -6.185585 -4.832317 -9.170788 0.22172399 -1.4827561 -6.6069193 8.153393 6.5695586 -3.422176 -10.476025 -7.295147 -12.855769 2.6004946 0.4001205 -3.1489782
908445 0.027991038 0.7735009 3.564073 3.413504 4.77585 5.8046303 -2.9270134 -0.51831555 -11.3065195 -0.9067599 -0.0043496843 3.976626 10.620404 -4.0120935 4.6336956 1.2386321 -4.240436 9.792348 4.738396 -0.26516977 -10.683454 -6.9212656 -4.250157 -11.655241 1.3802365 3.404319 -3.5725224 -1.5285091 5.170143 2.7611134 9.374101 -8.210751 -10.825946 -5.8285356 -5.7164793 -4.3595166 0.44013405 0.37688944 -5.051133 -6.3156233 4.973642 9.02368 5.4673905 0.43780744 3.7304301 6.1440144 -1.1829252 -6.14721 5.8203425 -6.5799484 -5.3030725 -11.612574 0.51088184 3.356887 -7.9037266 5.060358 1.668789 2.3859084 -11.7565 -6.3646564 -8.693866 -0.15294403 -0.888818 -2.4262345
1331038 2.1482375 6.641358 -0.6937988 1.9969509 -7.1325874 6.0789027 -8.033481 11.470288 -7.1026354 2.8043838 10.951455 3.6059911 5.421275 4.542116 11.39633 -2.7456956 -0.7546135 -2.0045495 -2.4108853 -11.754847 -0.10387449 5.3336945 -0.50311047 -4.5749755 2.7318916 3.2339723 -2.4932208 0.004466115 13.853901 -0.5484482 -5.0612955 3.5841787 -6.1033764 0.31336057 -10.975185 0.5565111 -5.26305 0.3169731 0.4105755 -6.840869 12.6375675 -4.188156 8.959055 2.1490338 -1.345446 -4.900671 1.7471751 -4.6595364 0.28312576 -4.0633926 -5.090497 6.341399 3.2696168 -3.018354 -12.129828 0.78788614 -0.68927276 0.20948008 -6.0307484 -5.6432934 -10.716912 -4.308225 -2.7245317 11.4569645
910916 -0.31162068 7.098509 6.1975183 -0.8405177 -0.45255518 15.575622 4.8591824 12.381342 -1.5172788 -5.4337296 7.2355633 9.802261 -1.8323597 2.2695074 -2.7652245 1.0364227 -3.0997353 6.3362255 -10.148884 -1.6163435 -7.1834154 -5.519355 -2.7589383 -0.54886496 -6.9123197 6.646488 -7.5305085 0.4521309 5.860041 -3.4140513 -3.6866856 4.821968 -1.3635818 0.513806 3.4080336 -8.736027 -0.013502397 -2.4902072 -4.6547303 -11.29129 8.844356 -11.600669 2.8251364 -5.950646 2.5507464 5.3473506 2.2980564 2.5583458 -2.9617481 1.5020168 -0.05885195 -4.2108707 0.81124437 -11.102185 -2.8863785 6.5009017 -3.426073 -3.8134375 -10.134561 0.8229056 -8.536749 0.30514205 -8.10496 3.1070764
753531 -1.4692363 6.8475866 1.9041321 -1.0924243 -5.800063 12.898197 -1.0222065 12.529457 -2.3514457 -3.5372143 10.520527 10.554018 0.08825179 1.8226913 -4.46319 1.7061766 0.00094835594 4.6168237 -7.9167767 -6.590731 -10.344927 -8.259482 -1.9949046 1.1139977 -6.761112 5.468859 -10.782576 3.0843165 7.330901 0.59447175 -1.9863377 3.6530466 -4.332987 2.7264636 -4.769504 -8.911826 -0.8011551 3.66128 -3.89675 -11.382717 10.971901 -12.383432 5.675074 -0.081344135 0.4049238 4.27717 -2.6501584 0.060777243 -3.376292 -0.10905999 -1.1333249 -1.0811961 1.1058136 -10.840154 -3.951805 7.9008603 -5.934985 -0.83928376 -8.925233 0.5353823 -11.786541 -0.5158168 -7.2076874 8.95547
908130 -0.9616528 -8.793672 10.230322 1.7108055 2.4291632 4.2191067 -0.5776968 5.814885 -4.967458 -10.660548 16.413822 -1.1110467 6.704607 10.064389 7.4148283 1.9983507 5.9785256 2.857838 5.3880286 -2.0918796 -6.6498914 -3.5969448 -3.6569726 1.239811 -2.8116164 -0.758739 2.5563111 -5.325783 -4.7586594 -5.5285583 2.9977188 4.9693847 -8.393314 -6.9238677 -6.447628 -9.804734 3.8631048 3.030508 3.224646 0.3899861 5.1176963 1.6976082 3.1087441 2.2869363 -5.301566 4.4804997 -7.1511383 -3.7769868 2.8201363 0.818316 -5.5995836 8.523729 7.1658797 -12.411628 -4.6525927 0.61998343 1.3696394 -4.2573204 1.1339666 -2.4397812 -10.492602 -1.4037573 -3.0931513 -9.425396
906855 -1.4508363 2.3402598 1.95107 2.8314097 -3.9928215 6.40045 -5.494407 8.425264 -5.4390736 -2.4198656 9.870407 2.1379793 4.0145717 2.4294147 9.863304 -0.3472406 -2.5154173 1.5756497 0.01740245 -7.035792 -5.645158 2.1823618 -3.016715 -0.4866929 4.122405 5.037065 -2.4842236 -4.211458 9.109967 -7.3286285 -2.3487663 5.9134088 -5.3030033 -7.0928383 -14.947818 2.6707964 -6.944344 -0.087633155 -1.6696846 -9.021651 13.599774 -2.0773304 2.4950573 5.0095925 2.8802438 -1.0922977 2.7469628 -5.774549 -0.70776814 -10.108703 -5.4811068 -1.3572714 3.5644028 -0.49383736 -13.5328245 4.099965 -6.514653 -4.667021 -2.8152528 -5.8543816 -8.990406 2.619691 -2.1532347 11.381983
1503368 -1.3068984 4.3982477 7.444456 9.657283 -3.0118458 6.0525827 -1.8927553 3.1587372 -3.4721208 -3.393441 7.4121346 -4.5961585 5.1923847 6.3947287 3.636752 -10.034214 -4.9702744 9.124328 -4.037814 -7.6662755 -0.7174337 -4.332698 -6.0020947 -8.114027 2.7578306 8.022575 -0.960733 -2.686001 7.5256014 -4.1104813 -0.82453793 -4.5126443 -4.8872304 -0.4443233 -3.230689 4.155004 -0.6325008 1.5472698 -9.141707 -4.8280344 11.81891 -0.5130026 -0.43069336 -1.3833046 7.138959 -2.4365065 1.6731175 -5.545896 6.43472 -10.776866 -7.1386223 -6.34493 0.4048308 -2.4049582 -16.71345 1.7887869 -7.960117 -1.9619707 -7.5213447 -6.174033 -6.5607805 0.12990083 -3.5578449 4.6733117
749717 9.113524 3.8389688 1.7303802 -4.798946 -5.8941813 8.130085 2.3823514 7.2496514 4.871395 -6.3528924 15.773048 2.2924583 0.13632715 2.927145 8.92075 -6.0977263 6.02148 2.9009817 -1.6934811 1.2739977 -3.1347482 4.0582614 0.7943317 -5.632012 0.5305942 1.5426118 1.5934638 -0.28573775 4.26215 -0.28582788 -2.6321602 4.3302937 -0.70614475 -2.2265894 -0.640815 -1.6581992 -4.863057 2.9322095 -4.455095 -6.0893617 8.735214 -1.4083898 -1.423449 -9.618868 10.940651 4.0448704 6.0286803 -4.762946 8.446618 3.5577211 1.855782 -10.76427 -1.010113 -2.0327463 -3.0701952 1.9168192 -2.7450438 -1.2516581 -9.960956 -5.5577154 -8.318398 -1.726662 1.2949451 0.7014396
687505 3.283801 -0.9565421 9.907065 3.7498796 1.7027613 6.851883 -7.1891994 10.9959135 -0.99487215 -6.0852613 13.082671 3.3162172 9.191534 3.736784 7.8312836 -0.9718111 2.3055975 1.579113 -5.9926376 -1.8938267 -6.4775815 5.7120476 3.5853693 -0.32360932 -4.7403536 9.8785095 1.7956501 -0.33552486 -1.6410534 -4.814432 -1.5089127 4.6880245 -4.071443 2.9087305 -1.5120068 -0.9107655 1.1202434 3.5847666 -3.7948208 -6.2031064 9.978643 -10.417449 4.2338295 -1.189212 -7.336635 4.088346 3.1407242 -2.8641164 2.6620438 -4.6929307 -5.7061753 3.5505018 8.624554 -5.576999 -6.3676567 2.703575 -0.6446853 -9.312334 -3.4592438 -5.0519824 -11.33917 -3.7384145 -13.787931 -3.9810016
1240179 4.738941 -7.5983634 13.148737 -1.6394721 4.2937765 9.68297 0.3975186 8.5268755 3.911627 -8.976527 10.97612 2.9535434 3.7081766 2.11685 0.61282504 -5.5853786 10.349508 0.2961821 -8.289478 -0.5739307 -4.821969 4.617667 1.1654128 -1.0069401 0.60297626 -0.9476777 2.2359555 2.4837723 -2.7283816 -1.5510987 1.1451966 6.133007 5.5105977 -3.1141715 4.488269 -4.5510874 4.7711234 -0.31560224 -7.810035 -7.0914555 10.580912 -6.157943 4.1250315 -10.623545 -7.190861 4.82968 1.2522137 0.25652704 8.8043995 0.9792107 -4.0797157 -2.1187007 3.8572183 -2.2077227 -1.4826201 1.4305633 1.249424 -17.674227 1.6413463 -3.0798805 -13.958469 -2.8825326 0.681666 -7.0292563
1290905 0.40761933 -0.89065075 -0.6392402 -0.19551094 0.64399034 9.850835 4.0455437 -1.8070853 -4.550472 -3.1991758 10.484749 11.668029 1.9899942 5.038221 9.866923 -5.4405866 2.4854147 6.0756526 -3.051967 -3.6116788 -2.5662773 -6.6357555 -5.988803 -6.234864 3.6524613 8.372198 7.7843122 -1.1162276 8.961118 -5.417494 0.024266588 -0.8497513 -2.042383 5.3446484 -6.103074 0.8305606 -4.258156 1.8506811 -0.86312467 -0.52516264 2.268381 4.0383744 -4.728214 -6.9927 7.0797706 5.472888 0.74491507 -5.318591 5.7705073 5.053674 0.78355795 -3.855298 -6.2943263 4.0811405 -6.6219606 -1.7647984 0.36694774 -8.78042 -6.584415 -6.7910028 -5.438362 2.0393207 -13.388459 0.394884
906696 -2.8983505 6.101638 1.4018922 3.514893 7.8890867 12.039123 -0.53153914 4.6510463 -5.237214 -0.030947967 3.5253274 -0.2443499 -0.67543393 0.9107813 2.7329795 -1.8442268 -9.254322 1.6485349 0.82846314 -2.7968025 -13.235844 -3.5469065 -0.14036277 -7.111274 -1.2652185 10.994157 3.923466 -2.920482 6.9358163 -10.868324 -2.1704235 3.3536713 -2.2489445 -8.48412 -6.5748267 0.20014931 -0.68728036 5.6212645 -3.7400734 -6.0247355 8.041144 -1.9313805 -2.2247148 -0.27673462 4.7818117 4.2841163 -0.5530222 -3.1099014 -4.7800794 -10.564498 1.4933031 0.18879358 0.58694345 -4.1700573 -10.439668 -3.8096318 -7.477124 -6.4530473 -4.561383 -7.9243016 -10.651476 2.8013816 -16.427866 5.7099876
