981 64
1240127 -4.6756396 -4.5920205 6.9945736 2.1205366 6.0632415 4.6835027 -5.2937245 8.570458 -0.04745875 -4.2144103 -0.60028636 -2.6617177 1.82234 6.6015186 6.000476 11.221515 4.874849 12.850123 -11.399119 5.3168087 -7.9986715 4.895908 -2.4502432 -3.7099872 -4.0139265 -3.15759 11.569502 -1.3167112 0.81065583 11.570246 4.5690007 -0.75707114 -5.2207227 1.9261477 7.4485264 2.6807055 -6.1888514 5.94073 -4.839647 2.5846148 -2.4263756 4.722925 -2.2287273 4.030747 -3.9599047 -6.184921 -10.794191 -6.666185 -11.311134 -4.860671 -6.8093133 6.950658 13.907951 -1.9617356 -5.661705 1.4804792 -9.591702 -2.1458554 10.710188 -1.0650878 6.1289515 -8.633071 4.606286 5.734222
906871 -10.105148 -2.7825477 0.24876976 1.0850434 -5.1020045 5.2138968 2.6250439 1.1348 -5.446502 1.8543133 0.6017122 1.0160925 -10.732403 11.411457 -7.0715775 -7.127889 8.14313 -1.3350079 -10.090591 -0.02819938 -9.430644 -6.079386 2.490727 -0.72256434 -11.593263 -6.410556 1.3420426 -5.403212 9.751136 2.1962116 8.987716 -3.9062219 0.7820252 5.136247 9.872996 0.9024351 -2.7788477 0.9612811 12.588153 5.644144 -4.588575 -8.090992 -1.7158835 7.435446 7.34931 -0.09330898 -7.342607 -1.455829 -3.8058178 -1.7961887 -18.634724 7.3554516 1.3673465 5.502542 -1.4846394 5.278325 -1.1215811 3.7262821 -4.1990924 -2.766022 -2.4506428 -7.110953 -5.553013 6.0141354
907794 1.1119268 0.44837376 5.477732 -1.7273818 -1.9156998 -5.868109 -0.2530622 8.557751 -7.179615 -1.7055892 -0.769767 -3.4452631 -2.3232253 -2.6801095 -4.006877 1.8920033 1.3715726 5.905962 -2.09123 11.116532 -9.210158 -4.4826565 -6.657657 -0.49895996 -12.870407 2.5026152 9.17998 -3.2482612 7.3881974 12.011674 9.569984 0.33607912 -5.3899484 -3.3160212 12.572148 8.511425 -11.153032 -2.09838 2.1919017 2.0856075 3.043933 3.7579565 8.579124 -2.647341 0.35478702 -10.096063 -1.88326 -4.876457 1.7636006 -4.241121 -5.4805145 8.53407 5.52533 7.765831 -6.720768 6.6067543 -8.290437 -5.5226583 9.062967 1.739652 -6.5499206 0.3538684 7.784225 2.9589484
1240208 2.7239993 -4.0454793 3.0019767 7.348085 -2.12445 3.868792 1.8245959 1.7095637 -7.351039 -1.937244 -2.0618298 -0.26120082 -3.942979 12.747533 -8.93686 -0.17233498 3.1275854 3.3513052 -12.589937 -1.7237394 -8.994982 -6.2486606 -0.52895176 -2.9045644 -4.5457125 -12.676907 1.8005056 0.078662165 9.949023 3.8690875 1.2593026 -1.5192863 -3.9047947 -5.141356 -3.2721136 1.0018806 5.021165 7.512393 4.9450245 3.0557895 -6.158313 -10.708916 1.5659217 0.17587812 4.0817714 -2.0510213 -6.5528564 2.3228207 -4.8335867 -1.5932409 -14.894128 2.3793454 7.7487254 -0.028289856 -5.5925617 12.560301 -6.384377 3.3053398 1.9633011 -5.335869 1.8260885 1.8846126 -3.284419 7.9064364
905958 -4.2743654 1.8955432 -1.2295616 0.4478388 -0.40917385 -5.311003 -2.036254 0.51048154 -10.549515 4.618161 -4.665304 8.882778 -6.678982 4.649714 -4.817069 -0.10422471 -2.2989306 6.8219805 -13.703415 3.9267106 -3.1750786 -4.3438587 -5.0831428 -0.26276857 -3.9110272 -1.0218875 7.324717 -0.072204225 5.7909217 9.447545 4.8721757 -1.8276882 -1.0502275 -2.6248448 11.209297 10.143815 0.93995506 -2.3582387 2.5280986 -5.684568 -2.421132 -5.2305126 -4.425632 7.941058 -0.84746826 -16.426386 1.9603705 -1.1505662 3.0429752 0.42387065 -11.455956 4.1218734 2.0651546 2.0553405 -5.51176 8.322099 -5.0829735 0.24338716 9.948094 -5.948845 -4.788554 -5.956267 -3.6964846 9.037847
910781 -5.390457 -2.9258285 4.8176594 1.1244135 12.911302 5.5804853 -2.7483594 7.79923 2.045538 0.113991536 -0.24882875 7.329561 0.5111728 4.6222243 -0.39414838 8.274965 -1.4491141 8.142902 -9.467601 3.5220158 -13.313756 8.180257 -6.423116 0.42601842 -2.4131143 -0.07308712 9.427209 -7.207399 -1.6166713 12.028305 5.3166475 -2.8493278 -1.9294813 3.935209 9.93714 5.1889005 -6.3397474 -1.2482703 -5.188963 -0.44943815 4.0477057 8.74706 0.40173507 -3.2304783 0.18424848 -5.3310523 -12.802693 -4.7793484 -8.0057335 -8.616323 -6.666246 7.40385 8.515875 3.7658339 -6.62801 -5.3488874 -6.5751886 -3.150747 11.076901 -3.1765547 4.991995 -6.4942985 -5.0558147 0.30086508
1659823 0.76521283 1.7078139 6.2376966 -0.70216095 -1.689331 -4.382647 -2.4517443 6.4125433 -1.8063788 -5.617476 -3.5556417 -4.1097913 0.048143603 -4.3760643 -0.7468175 7.038302 1.069027 8.675118 -0.3475739 11.665175 -6.6739573 -1.523157 -3.162405 -7.2410207 -9.635616 -1.9282018 13.116778 -1.7433299 6.6057763 12.346657 7.806858 -1.4836884 -8.645599 -4.540414 8.48556 1.5797544 -2.8474872 -1.0518123 -2.459534 3.4262323 -0.29294488 0.19800591 4.357989 -0.20579088 -6.506547 -14.63123 -2.8269722 -6.349649 -0.1703154 2.7544112 -6.8099666 4.866588 9.670853 0.26753482 -10.517558 8.442388 -8.118587 -5.94112 11.1736145 -2.6314163 -1.0582465 -1.127031 4.6724343 0.9428359
907042 -15.254867 1.5858958 -8.508538 -2.6666653 -0.69014066 1.3176117 -2.355205 -3.4250638 2.7109666 5.316364 1.2991866 5.4872336 -8.538606 1.0698106 -3.3370245 -11.308433 10.4588175 -1.1643885 -6.5991316 0.9796251 -14.132107 -3.9109144 -0.99882305 0.6884048 -8.932896 -0.8674503 -3.842432 -8.170555 6.205689 4.7566032 3.1029124 -2.890912 5.327954 8.570972 10.866096 2.2570126 -5.114618 -4.1873083 11.590635 7.1983933 -3.553447 -3.7382905 -4.1574087 8.651957 1.8961874 -1.3863033 -5.033994 -4.0687647 -3.6197848 -11.887264 -15.245773 5.0972104 -3.7787645 1.77024 -2.704561 3.3547695 -2.209142 2.0410004 -3.3805368 -0.09376618 0.6507536 -6.5744467 -2.417563 7.970419
907051 -6.07467 -2.3764353 4.9196467 2.9143877 15.405519 1.9676231 -4.6306252 7.0348105 2.5017338 0.83448106 -7.1768355 5.2924647 3.51976 4.4640093 1.8619889 5.554766 1.2022617 13.919504 -10.802447 3.3885648 -7.476249 11.3344965 -3.113007 1.1576152 -6.593849 2.5518582 6.761466 1.7386901 -3.0655982 6.633186 -1.0917408 -5.3991027 2.1258051 4.281858 8.978379 -0.20757505 -7.1965084 3.795055 -5.1594124 -0.7887499 0.5306741 4.2974753 -2.9066713 3.2661183 -0.2985222 -3.5580819 -8.197536 -5.7259555 -11.279509 -6.839812 -2.423404 6.734015 12.470512 0.4916234 -5.192142 -2.2633548 -10.71277 -0.61286294 10.853323 -4.3536377 2.1083837 -6.649504 4.619173 0.8110555
906800 -6.058458 -0.4035053 -0.120536044 3.9420419 -2.5681834 -3.6844492 2.5401347 -2.9076905 -13.273079 8.590926 -0.5040706 7.4794426 -7.3035426 3.3800461 -2.5876172 -1.724822 -3.373847 -3.2811208 -12.8786125 1.6315098 -0.91946435 -7.48419 -5.606525 2.2765303 -10.406952 1.2774132 6.6400743 -6.05742 1.8366426 12.763095 11.65021 0.09771459 -0.15877111 -1.4753721 11.1540785 10.893519 0.36832827 -8.708091 4.856463 -6.136321 1.8331325 -1.9520024 -6.245027 4.7899566 -0.3717759 -16.942995 0.36397216 -1.9745542 3.490135 0.75003064 -10.338456 -1.7986802 -1.3917199 7.938451 0.7873799 1.1126543 -0.064894006 5.474899 7.41198 -7.179463 -11.922008 -13.26246 -7.887256 4.3432193
908129 -7.4206905 1.3400463 7.170086 0.29349777 9.467369 10.211414 -2.9726384 7.0711436 -2.562755 -2.9312487 0.76005846 9.363393 -0.53640217 7.86704 3.1011083 6.4679403 0.6329577 8.409983 -6.793389 -0.09195061 -9.535872 8.092968 -1.4649793 0.10445205 -0.7741122 -5.181862 8.434011 -2.0131772 -0.8256126 8.329818 4.0287285 -3.7130373 -1.3085163 3.4034386 9.006424 7.3780813 -3.8804407 -0.66365844 -2.224518 -2.7317688 0.94981617 4.4688625 -5.844462 1.2605121 -0.4078841 -2.72259 -13.566722 -2.0217679 -7.8038206 -5.8740463 -6.1525435 9.279042 9.744179 -1.2560686 -8.912025 -5.5002484 -7.90355 0.014164392 11.458767 -3.598997 6.7742534 -8.387576 -3.7216845 -1.0420014
909735 -9.670474 -4.058463 2.3732445 2.8635125 9.9549675 -0.0049758377 -4.5990124 3.6958153 -7.293807 3.2797832 -3.3311756 6.9411936 -0.14098324 4.148376 2.655119 3.9018726 -0.5788258 8.190645 -12.326043 2.3224542 -12.927184 0.8922994 -8.255047 1.9126275 -4.333039 1.672473 10.181653 -3.300838 -1.4727187 11.946394 5.1308537 -3.2967567 0.97523105 1.3422316 12.140366 7.1691084 -5.534892 0.63628286 -6.6776156 -3.4603882 1.460797 6.800879 -3.7195365 -0.46268782 1.5528458 -6.734122 -10.9999075 -5.864841 -6.440599 -8.656305 -4.9166126 9.21827 7.967806 1.5231467 -4.939551 -5.126628 -6.820595 1.3425242 12.095735 -2.9789405 1.1032546 -11.559329 -6.505495 1.533103
907272 -6.6637673 2.7588282 -1.2656893 -0.81600904 -2.591254 -3.625931 1.4786366 -1.9468137 -8.398489 3.8623972 -3.557991 3.7727983 -6.135644 5.7548137 -7.251021 3.1675515 -0.83492833 -0.1721731 -10.279748 1.1657982 1.3186201 -4.6565204 -4.4115467 4.0403733 -8.077182 -1.5579846 7.275962 0.43459263 3.8594189 10.552891 7.796845 -2.303721 -2.006244 -1.2688788 8.203904 11.708109 -0.7928842 -4.5550656 5.4746065 -7.6611404 0.7510797 -0.9792575 -5.642275 9.794865 1.0746045 -20.425173 1.806385 -5.3133054 0.32614934 1.127046 -3.0198762 3.272487 3.601769 6.2056427 -6.144326 1.9583098 -6.4603233 2.4015286 5.9140983 -6.8488927 -9.138686 -13.632045 2.1016436 5.8065743
909737 5.495292 -8.15509 3.2140796 6.7931085 3.5773165 -1.5792717 -5.509597 -0.7663371 -6.788686 -4.15487 -0.48978594 0.15587391 0.4247807 7.9914556 -7.156553 -0.86491007 4.1547885 3.7843263 -13.370002 0.44890946 -7.2461376 -3.3223398 -3.836621 -4.5343647 -1.9998634 -10.9433365 6.8667 1.5274068 7.81882 9.137067 1.3155546 -4.024783 -3.500545 -6.9839416 -4.1317654 4.110809 8.909723 3.2578707 2.3607779 -0.10416672 0.098221205 -8.556104 -0.75056654 -1.5774248 4.046269 -1.4783529 -4.826285 1.6510268 -3.0832126 -3.0895102 -15.955597 2.8698711 9.978419 -4.6842227 -5.5597587 13.565683 -4.031022 6.287415 -0.22108981 -8.867745 2.1045268 -1.4819393 -6.397998 8.307236
687815 0.8836174 -2.0306294 6.8932867 6.938155 3.952469 0.21580994 -2.3388183 1.4057194 -6.0621405 -1.5234952 -1.2121857 -2.4403157 -2.4923668 8.713083 -5.52838 -1.9559112 4.2332563 4.9064503 -10.934728 2.7870548 -6.985832 -5.736951 0.5916788 -1.9837627 -4.51225 -13.570929 3.193961 1.3955364 7.4372506 3.881168 -0.9848409 -5.005393 -2.2915692 -8.58559 -4.453773 0.4319807 1.8529416 8.53483 5.289487 2.672355 -5.8212743 -13.5404625 -1.1798238 -0.31050226 3.8310468 -0.34452444 -7.8547153 0.16443172 -2.4066007 -2.2021322 -12.545319 6.125852 7.6266866 1.2527852 -3.5997517 8.6676235 -5.9254737 3.8282132 4.433139 -10.109385 0.78497547 3.3589835 -3.1542807 8.131953
1298362 1.6748936 -6.7532578 1.9961895 6.999112 6.9774404 -0.16911553 -1.9124454 -1.7746874 -1.3552599 -6.882536 -2.4462142 4.9395924 7.1878095 0.048771564 -4.982788 -7.4251213 1.7006143 1.8936967 -9.277965 1.3899891 -5.2028584 -16.967457 -6.3654413 -9.969209 6.934999 -15.145954 1.1026698 -4.8732157 3.9738202 0.20281246 2.012699 -1.7408173 0.30695575 -7.7362003 -1.6126072 2.05325 -1.2695202 4.84474 4.247127 5.725275 0.71109354 -6.8723116 1.9304243 3.3957107 0.22976068 -3.5752766 -1.8313498 1.1075524 0.025163973 -7.29843 -12.932348 1.4848508 7.045788 8.579698 -8.886541 -0.39417383 -2.085798 1.930839 2.2376215 -16.01811 5.177046 4.76083 -1.0305855 7.8949513
910944 -5.9324236 -2.4776468 -2.2253714 2.3251493 -4.963693 -2.9897683 0.6502313 -3.3624532 -12.541185 6.1480117 -1.1884727 7.832081 -8.4113455 2.1144335 -3.8880165 -0.49625856 -3.8100436 -2.5256288 -10.662423 -0.12835664 -1.13336 -8.84746 -3.445026 4.702907 -10.4537325 0.9455386 5.2519655 -1.9529837 4.787614 12.322288 9.421854 -4.3654046 0.0940178 -4.947118 8.255174 15.329455 -0.4575644 -7.789117 4.171834 -6.860871 0.64121145 -3.5314243 -7.687848 4.161254 1.6076599 -18.146133 2.244492 -0.97849977 0.5986362 -3.5272973 -5.7567406 -0.84641266 -0.10160559 9.68984 -2.0905197 -2.481407 -4.612243 4.089391 7.3087068 -6.902063 -10.148211 -12.261971 -4.317964 6.394675
1331036 -7.521757 2.5327628 -2.605904 2.1913123 -1.0892037 -4.7933865 -4.2775216 -4.317295 -13.739147 7.2703533 -4.0808153 8.62913 -7.3252473 3.74609 -5.595029 1.435967 -5.8074384 -3.0104365 -12.668489 0.031221498 -2.3450823 -6.7261214 -7.4314585 2.5205743 -6.7073503 -0.12849994 4.4170456 -3.350422 3.4450154 14.80407 4.4649777 -2.153075 2.626707 -4.768425 10.245352 15.027185 1.0196242 -5.0656776 1.9197721 -7.9714494 -0.14483199 -1.9605842 -9.775728 4.6840515 0.518414 -15.478906 -1.3188117 -3.4517996 1.6911755 -6.4493427 -5.6956153 4.7642107 0.20337531 6.613248 -4.1788964 0.11412277 -1.6623162 4.6200347 4.8025885 -8.127083 -5.648167 -10.653639 -7.2979617 7.8773284
1323913 -8.802414 0.2773904 3.5621128 -3.1953695 -0.73300254 -6.761859 3.4513302 -1.1664132 -17.394344 7.0018377 -0.69470674 6.770015 -5.5945272 3.6059337 -3.7252564 -1.8324139 -3.364659 -0.048724867 -7.0652905 2.5724068 3.094878 -12.421091 -4.172747 6.1233087 -7.708947 -5.123881 3.0556479 -1.9441255 4.0486083 12.178446 7.139487 -1.8149978 1.6251007 -5.608271 7.193551 14.927736 -0.44978905 -6.8612294 4.6909986 -6.3945184 0.502974 -1.5993941 -2.6920567 3.6051505 4.8934526 -13.548117 1.5136155 -2.8726933 2.5945663 -3.756085 -8.071713 2.1063204 -2.2512488 7.121983 -0.9847042 3.7245471 -3.1690345 9.571473 6.464732 -7.8176594 -11.049207 -8.9157095 -4.3138957 0.68474084
1295740 -6.3234873 -0.94525856 4.348364 -1.5335227 -4.2053947 -3.4275281 0.27644122 -3.972467 -13.669254 7.3226895 1.0616076 8.491381 -7.7487783 -0.2707614 -5.9007297 -1.7928358 -2.6684928 -1.173516 -10.230928 -0.10119032 1.2043874 -7.545106 -3.1408055 3.7880058 -10.166428 -3.4143915 7.4573665 0.3038818 2.8574255 11.496386 9.279801 -5.04201 -3.439479 -5.2202883 8.76615 11.64831 0.33337384 -8.734699 5.958181 -7.8442917 2.9037497 -2.2663355 -8.398703 3.0516694 1.0283701 -16.610106 1.1382345 0.050376687 1.7599654 -1.7793443 -8.521394 0.19427498 1.3883686 8.00151 -0.8327225 -1.6696124 -4.6806536 2.5643566 4.0982666 -6.466756 -10.007943 -12.986333 -7.426553 4.8613324
908122 -1.1227814 -7.908382 8.906439 7.879583 -1.3894981 1.0936053 -0.08412802 2.2548504 -5.9764094 0.027401064 1.1227628 -5.8580713 2.636703 11.537688 -3.6104226 6.000936 -1.7027476 -3.996495 -11.420941 1.0555134 -1.6202605 -5.2961698 -2.682338 -5.9064503 1.0105017 -8.166782 1.6151152 2.5840018 8.8812 2.8498433 1.1394283 -6.190853 -2.7881553 -3.4077814 -0.019543119 8.631663 2.7995708 5.207738 -1.872805 -1.4071797 -7.461821 -9.688036 -5.296315 4.5754423 5.301649 -5.9836416 -2.7019038 0.12283541 -2.5428872 1.6025217 -12.057577 8.190626 5.3451934 4.484223 -6.990739 13.007232 -1.1174943 5.301607 11.440397 -5.9135456 -3.5168016 -3.2646482 -3.282243 10.274839
1240123 3.6158981 -2.5616844 5.3872557 1.2406526 -1.8797853 -3.1866643 3.1193876 3.441132 -6.0255423 -6.4886293 -3.559546 -4.847298 2.3855944 1.1428831 2.9406385 0.7687125 4.197203 7.4575033 -2.7768624 4.376986 -12.035707 -10.690123 -12.114188 -8.376286 -5.149298 2.7431276 11.047007 -1.8534601 7.0219774 11.918071 4.077806 -0.8191249 -5.6650133 -3.6008615 11.619852 10.251776 -6.726813 0.9723624 -0.059220426 2.1696053 5.515107 4.610658 2.9018247 4.314773 3.05856 -7.083615 -1.3434283 -4.1293187 4.4062657 -1.6320566 -5.027899 8.874563 6.315138 0.8208813 -9.449782 8.605198 -3.3852522 -7.0495787 9.534969 -0.8875447 -7.9297304 -5.8255844 8.272007 1.2509094
906856 -4.736947 -0.7235728 0.7586716 2.7310803 -2.448679 -3.6123185 4.0377827 -0.050355278 -17.513296 7.713422 -2.2848558 8.781171 -6.1524105 1.8720851 -3.5924323 -2.8848925 0.5144788 -4.0692973 -9.82521 -2.80733 -2.6338391 -9.55718 -5.476248 2.265743 -7.6082735 -0.16933726 7.4689775 -5.7481766 1.1449927 11.689514 6.48262 -0.43815583 -2.320248 -4.1651998 7.9282355 12.282972 1.5330364 -8.838114 3.3175566 -5.8682427 1.6836092 -1.1514019 -5.3019567 4.969799 -3.3916934 -16.392212 -0.10826285 -0.50506693 3.6666684 -2.7511795 -10.8570175 -3.8526723 1.2064714 3.0645452 -1.8955003 4.8926134 -4.220311 6.0665455 3.6511145 -9.57234 -11.639984 -10.138633 -7.655372 1.3479886
908156 -6.503737 -2.163363 -0.61262494 1.9417511 -2.260629 -4.838211 0.041755017 -3.5122192 -15.452765 9.035368 -1.1554637 7.8802385 -7.5241427 2.579777 -2.8479366 -1.6722099 -2.4268878 -3.0639155 -12.15499 2.1996863 -2.456599 -10.234351 -4.5570674 2.9324446 -8.998082 0.520214 5.1976867 -6.290295 3.1278412 15.143829 9.704863 -1.7882844 0.38630694 -3.8078358 10.206715 13.06186 1.587472 -7.983645 0.41452545 -5.6926317 0.021364382 -2.8139558 -6.9987373 3.9927697 1.5337235 -13.110822 -0.24168852 -1.2133819 3.819843 -1.6483419 -10.30416 -1.8735602 -1.6116341 7.5911546 0.27582213 0.47739968 -0.7894647 5.4524817 7.6603317 -7.9425144 -12.044492 -13.64296 -9.631855 4.363429
909750 -2.5064156 -0.08314169 0.8193888 4.5750413 -0.7145536 0.3810977 0.94063187 -1.9026834 0.5152053 1.8168641 0.08717802 0.7024318 -2.437546 5.9285445 -5.8826194 -5.2812552 5.3296013 3.5078766 -10.912245 -0.21655436 -9.49502 -7.264295 -0.34357566 -3.015323 -6.637569 -11.550593 0.05817319 -4.149388 12.837408 5.8752947 -0.2540634 -3.5902529 -0.4615215 2.948311 1.8018869 -2.1553614 6.8351874 1.6738482 6.47519 3.9270964 -7.6313157 -11.913828 3.787283 -0.40103388 6.973406 4.924766 -5.262687 -0.30998972 -6.48846 -6.7552767 -17.36522 2.546489 7.713998 1.6216981 -8.776449 9.917319 -5.41618 2.5317898 0.37015936 -3.9094474 3.8876987 -1.8265152 -5.69199 10.870407
906763 -8.11634 -0.3387643 0.40033457 3.0464866 -2.7257166 -2.8245034 -1.7746503 0.9350324 -11.204291 4.6688895 -3.2719982 6.85694 -8.251583 4.0645685 -4.5531187 -2.47372 -3.0225735 0.931222 -14.132858 -1.1887157 0.03913287 -6.4415874 -2.570864 6.355829 -7.288275 -0.99389714 7.927228 1.1470191 3.164774 9.074106 4.675571 -4.4781947 -1.6264204 -2.2510128 8.303602 9.916017 0.15606783 -7.189605 5.998174 -9.260269 0.44915617 -2.4794123 -5.699648 5.848097 -0.68047935 -16.556253 4.853841 0.77866876 2.107229 -0.22848937 -7.8325076 -0.9226774 2.508311 5.815456 -2.937151 0.80472344 -7.507354 0.13707972 6.997363 -9.647426 -8.49855 -9.747398 -0.2610706 7.7613773
909256 -6.2550945 -6.7422976 6.8598332 3.8031297 0.7349903 -3.897902 -1.3573992 -0.24931441 -3.179519 6.1355147 0.07271445 -1.1670357 0.5942304 2.807961 -6.025627 -0.3549934 -1.2539742 -11.304668 -10.995814 2.708135 -0.843152 -5.335443 -4.388901 -5.827096 -9.691738 -2.5556383 3.0822 -1.5462171 9.193736 4.836383 5.548954 -5.9814878 0.45869336 -5.031896 4.982042 6.7001786 1.0128334 -0.5624078 -2.0996275 0.3951972 -1.9515345 -11.139811 -7.203883 2.2093678 4.6227636 -13.430814 -6.8910317 -3.2443938 -2.8578782 -0.16212782 -10.79641 10.814546 2.4190497 8.138668 -2.9275973 8.292083 -3.5266294 7.797498 5.948548 -5.8407946 -8.686671 -12.700646 -10.411903 9.196597
908139 -0.65557647 -10.75869 0.62582654 3.664449 -4.654858 -2.9463506 1.5028646 6.211008 -2.63263 4.431427 -2.4089408 14.11608 -1.5975012 1.9477454 -4.1400943 -2.2906086 13.718756 1.7570083 1.524645 1.3524853 -8.103549 -2.3418186 -6.2969847 -8.103351 -3.8890686 1.1836165 5.6124973 -2.1231427 9.796567 -4.5213866 6.3921757 -2.835522 -3.144817 -3.9585876 -6.000072 -2.906692 0.6560925 3.0273318 -1.4814296 0.8902256 -7.34325 -5.17244 -5.8738933 -4.585693 -2.0335855 -10.285529 -1.9827999 -0.5457797 -8.480994 -12.999454 -9.645413 7.905296 7.9776945 6.6538963 -12.10459 7.9285703 -8.535077 3.2005358 -3.533271 -6.8540764 -1.0366862 0.18233219 -3.5903776 -3.007092
909702 -9.61825 1.5021021 1.5602909 0.3483268 -2.4574363 -6.2585115 0.49426457 -1.7621524 -10.040534 5.0547185 -1.8961192 6.7946997 -5.5745587 4.662669 -4.023415 1.3422328 -3.2706716 -2.6770265 -10.06046 0.55708843 1.3618841 -5.0565877 -6.2933083 2.4322143 -6.479898 0.7799218 7.4953933 0.7489932 2.9061155 10.483441 4.37184 -2.8424506 0.5218377 -2.1208441 7.118519 12.798823 1.6049768 -4.9298787 6.2909803 -10.084071 3.0525146 -1.4462638 -5.8777785 7.0213766 2.9871128 -19.92021 1.2866153 -4.4678206 0.45029998 -1.3497689 -3.297208 6.3456326 3.0747209 8.068708 -6.265809 1.8217701 -4.3395233 3.7466679 4.6223807 -8.345027 -7.95224 -13.41984 -0.26891893 6.395058
1240174 -1.2704184 -2.4143126 6.17262 2.193801 9.411242 5.315481 0.20783517 5.4479504 1.2383668 -0.4928423 -3.3700972 2.4239476 2.8671558 4.670454 3.6114562 9.731923 1.3010013 9.659148 -9.083707 3.4191482 -11.095312 4.190152 -5.609245 -1.1100097 -6.866305 0.9953092 8.473194 -1.8530517 -1.891765 10.9079685 4.1988573 -2.128104 -2.9002206 3.034207 9.457813 5.040682 -6.4754906 -0.43221727 -4.552802 2.019646 1.7251347 8.809547 0.15948617 0.3469023 -0.3147982 -7.375302 -11.684758 -6.4583483 -10.263235 -4.993421 -4.025992 7.329387 8.918008 0.6515144 -6.7951117 -3.767591 -7.1186743 -3.087519 9.753677 -4.8911023 4.1281223 -5.643751 -0.38067442 -3.1836877
907055 -8.164543 -7.2043076 -2.8590212 1.1037792 -2.3717291 -5.942959 -1.6162215 3.8189254 -8.491965 8.451891 -1.9906937 14.1475525 -5.064575 1.363362 -0.92088735 -1.9225451 9.757868 -2.8195817 -4.083753 2.6364858 -5.4259768 -2.0031784 -7.98661 -8.217465 -6.7365937 2.394529 6.499854 -5.8749876 3.804893 3.9573522 7.0996833 0.6057966 2.679767 -1.844004 0.28487763 7.3074427 -2.7112715 -2.6170614 -7.803774 -2.267162 -6.0848136 -4.655912 -10.660562 0.49181068 -1.9876494 -14.437456 -6.2069464 -2.8880327 -3.8297844 -12.616272 -8.92425 8.716477 4.4881983 9.0298605 -8.758804 2.7531075 -7.338942 6.688719 4.630186 -5.874299 -7.803894 -5.5950294 -9.576989 0.8068383
1331037 -4.202781 -0.3162058 0.29322243 2.9552648 -5.001417 -3.8121665 0.2301851 -2.1048534 -11.471281 6.5451565 1.7163159 7.5346184 -7.3775187 4.5418444 -3.533772 0.22386393 -2.1844423 -4.9969707 -11.924084 0.64427537 1.8572806 -5.0660377 -5.8854256 1.0351007 -10.042647 2.4179962 7.4460473 -2.5905843 5.327904 16.273832 10.498651 0.8932839 1.0020622 0.18724315 10.525245 11.327719 2.8087647 -9.055287 6.4077625 -6.754367 0.7393357 -1.6009198 -7.0988884 3.423069 1.8654131 -14.564201 1.441307 -1.5899689 3.4581459 -0.86556184 -8.838574 1.6549789 2.9068143 9.445558 -3.7724087 -0.4787851 -0.5990736 3.351077 2.8836613 -9.36942 -9.873299 -14.576262 -5.8868284 6.49374
907062 -5.19497 -4.149594 -0.34707293 4.4689627 4.331654 1.3836137 -7.2555156 -0.8844242 -1.645382 -6.387197 -4.7726817 5.5784745 1.2828388 1.7563957 -4.0197353 -9.256487 -1.7188807 -3.0430324 -10.344544 3.6988273 -6.4553947 -15.8291445 -2.596998 -9.7019005 4.824268 -12.604459 -0.6757368 -5.109544 3.2369046 -0.7042481 1.0865947 -3.459036 3.9759986 -3.7696545 3.5678928 8.067387 -5.6685195 0.016705045 0.9398265 4.905788 -0.63979906 -3.9371693 1.1010009 6.9658203 -0.020462872 -6.6541123 -0.7882289 1.809503 0.88966066 -9.629057 -10.940623 3.3977442 3.6306882 10.127794 -9.049055 -3.7162056 -3.8057218 -0.8707701 2.350526 -14.207905 -1.4314378 3.0184858 -4.755508 5.802181
1297446 -6.0126214 -0.416545 3.4459994 -2.6765485 -2.9322786 -6.7878036 -0.53192234 -5.495088 -9.784695 3.849504 -3.257741 4.2237105 -4.512806 5.543754 -6.145352 6.173238 -5.2806983 -0.70200115 -10.423532 -1.3620752 -0.8157793 -7.0499206 -5.522038 1.7316196 -7.1472993 -1.4916414 10.3287735 1.9792844 4.05429 9.554772 5.562208 -5.6131225 -1.653275 -1.6468723 9.644951 11.376253 -2.8530285 -7.320709 5.4246454 -6.945904 2.7967455 3.2006052 -8.175157 4.49685 -0.47894746 -18.201464 2.1292512 -5.8336296 -2.936406 -4.442431 -3.8237226 5.6616764 -0.010205014 4.27462 -6.2366734 3.595523 -4.6854005 -0.42199466 0.4795453 -3.856084 -5.077822 -7.180495 -4.022338 7.5738945
905984 -17.073719 2.3187687 -4.135106 -6.578469 -2.6982865 2.3993201 0.7720858 2.684644 -1.5733829 4.4551487 3.7940588 4.5255914 -8.339834 -2.3583572 -2.621141 -9.434 6.9627433 -2.8651586 -2.6248882 2.4301212 -9.315173 -4.0526314 0.50608313 -1.8064654 -10.335721 -3.0825074 2.768804 -8.762149 7.1645947 7.3910894 6.7323833 -3.308207 1.0172749 7.1776104 12.599513 5.0608087 -2.4964004 -3.6553862 12.506739 3.3321726 0.84003764 -3.0463972 -2.2599168 12.770679 -0.9429057 -1.9029888 -6.227703 -4.2814026 -3.8606124 -2.5888941 -15.362535 6.0745835 -0.82956535 5.1928673 -1.1612511 -1.1432928 2.7157173 -2.6988394 -0.71224314 -0.01807237 2.3343153 -5.8941927 -9.283566 9.29971
910706 -4.8655796 -1.6023288 1.2136694 1.0135913 -2.3515546 -5.60168 -0.6436942 -2.1769226 -14.569732 4.8654656 -1.0874968 6.316295 -7.6828084 5.780368 -4.184954 0.67133677 -0.18522756 -0.7908932 -12.150513 1.0140293 1.8939418 -7.073547 -5.2475023 0.069167525 -8.491434 1.1818669 11.131856 -4.405338 5.39143 15.27999 10.417116 -1.6748788 -1.7360954 0.96437895 10.2123 8.163243 1.132994 -8.001942 5.035783 -8.099191 1.3764997 -4.6295075 -5.180285 -0.91434705 2.9767146 -14.675032 -1.4984826 -2.5775206 2.139044 -0.32302335 -10.026785 2.3113952 -0.826136 8.484289 -1.8510188 3.2907047 0.72188824 4.454748 3.0160303 -6.3565536 -9.646796 -13.477752 -7.6448164 4.887637
909715 -8.293361 -3.3915339 7.9671917 -2.620723 -2.5344841 -8.918015 2.8476284 -5.103737 -12.878235 3.7828937 5.901455 3.6658967 -5.21532 3.9001813 -3.176549 2.5677662 -3.7741323 -1.4334719 -8.397781 3.8222148 4.0477276 -9.190178 -4.151494 2.370337 -6.664722 -2.7238462 4.96445 -3.8030233 3.2419136 14.983483 10.412522 -3.790588 -0.94927 -3.5319734 8.415719 10.055625 -1.3872187 -7.3765335 4.585673 -4.385107 2.650773 -0.18770714 -4.701301 -0.41547203 4.5370035 -14.294529 0.99586296 -4.0253663 1.3592589 -2.9630604 -11.283078 1.7114307 0.016804494 12.973225 -1.6864878 2.1342986 -0.35629395 9.326593 -0.13290341 -5.8493495 -8.893891 -13.27851 -7.2741065 0.62572277
753548 -4.5948534 -1.2947894 2.9640014 -1.3342303 -1.3905616 -4.405165 5.268636 1.4052627 -12.236946 4.6176724 -1.7057277 5.087205 -2.7525637 5.2638893 -1.1622465 4.274546 0.4065683 2.152415 -11.642571 3.7423003 -0.4526399 -6.569757 -5.0423145 1.3580639 -8.967829 0.1588157 7.979889 -3.6124218 2.9470375 14.921959 8.34049 -2.1128767 -0.17776756 -1.9759243 12.473674 8.438727 0.24643081 -4.5889916 3.3013837 -4.4814386 1.6331341 0.43237785 -6.465735 4.0984817 -2.2811618 -13.832675 -0.33809888 -3.4485877 2.178004 3.5369341 -10.042248 -1.3922206 2.0034933 5.9649835 -2.0235271 4.184507 -3.264937 2.4475527 8.855889 -8.585646 -8.454041 -15.399615 -1.5872283 1.5034987
908443 -1.1012712 -0.33585024 5.6879687 5.9972186 2.679969 0.9973526 -0.15448232 -1.2859622 -10.157269 -2.1422534 1.7553837 -1.1605335 -2.9757247 10.318623 -3.0654454 4.1875353 0.44051325 -2.2624834 -10.550304 -2.2997317 -2.2501514 -4.645203 -0.7506961 2.2816184 -7.9826045 -9.697517 4.637632 1.5157448 5.8770833 10.730306 6.4911804 -4.837346 -0.20873937 -12.0599 -1.667924 4.7479076 1.5052422 1.8151433 8.231831 -1.6540498 -1.4555941 -10.594159 -5.7471623 -0.39983898 1.3961021 -6.54883 -7.8446574 -1.6012424 -1.2114214 -3.655197 -8.75505 2.4549093 7.423338 3.2575886 -6.9908175 4.8015823 -7.158247 5.60532 3.705695 -11.857735 -0.16522168 -1.0105718 -0.98810565 5.949107
909698 -0.20098516 0.3394107 9.121805 -1.38796 -2.1050372 -9.029631 -1.0531696 2.4488 -9.734946 3.8993468 -1.1858014 1.7528647 -0.7660423 -1.4658095 -2.5578594 -1.9014907 1.6409233 5.7684035 -4.498715 7.738519 -9.351513 -8.546311 -9.347649 -3.3596675 -13.005142 5.2061543 6.6795115 -0.5023036 3.2416499 11.460012 5.250832 0.82783496 -2.835687 -8.578911 16.430761 7.3602633 -6.7885647 -0.4748634 -2.93105 4.8042927 0.7393318 4.6123247 1.6825438 1.2432672 -0.43973014 -8.358418 -3.3786013 -6.0355797 1.0080142 -2.5311134 -10.630059 5.1447926 7.4002113 6.6488705 -5.643869 4.199259 -4.7551208 -1.0036277 6.7832623 -1.8310193 -5.703451 -4.1547356 -1.2769728 0.75764936
949154 2.9389296 -4.7721395 5.597976 8.490692 1.9216462 7.608086 -1.2052126 3.4539976 0.69468045 -6.7890067 2.3583908 4.757686 0.010571211 17.87686 -0.456847 -0.72663194 -5.596559 2.5162683 -7.426023 2.418988 -11.472169 -2.9128916 -5.732413 -5.5754104 6.154097 -12.101095 4.2087245 -1.3434452 7.4415164 0.3373601 3.1417916 0.97439057 -0.48545268 -1.2910706 4.169314 8.414944 -0.7299066 6.833975 -1.3450904 -3.3773525 5.053191 0.6915987 4.3998446 -1.4189547 7.461247 -0.9067879 -10.434679 6.1710334 -1.5763379 -0.53572637 -10.288031 11.361329 10.130613 2.3799207 -9.128166 2.388144 -2.4622874 2.784671 6.7817717 -5.624955 6.6103086 -1.596425 -12.116797 3.069316
1240204 -4.0820727 -3.9817002 -1.1593739 4.364489 3.6718736 1.1467153 -1.6211207 1.5631626 -4.168454 -5.9514604 -2.1545513 3.959391 0.69942045 1.192176 -4.5551996 -3.5504408 -2.4368956 -2.089969 -9.254295 4.0153766 -8.211691 -12.189437 -1.9536365 -7.576008 -0.25590628 -9.085889 4.490708 -5.992511 4.055872 1.327007 8.108491 -2.965751 -0.81940556 -8.268429 0.76735765 6.8025184 -0.565319 2.0647295 1.5698073 7.2164817 -2.3006675 -6.17936 -1.2883408 10.992966 -6.812039 -5.3119607 -2.3274782 0.41529933 -2.0647695 -2.966787 -11.061865 2.4444718 3.8948162 10.376127 -8.299701 -5.171774 -1.7461877 -1.6185559 6.673495 -15.823459 1.7260865 5.5250497 -9.682019 8.374617
1331034 -2.556535 -1.995276 -0.16530706 1.1225945 -4.116206 -3.2709436 -0.27887473 -2.3852494 -15.531324 5.8409534 -0.5121057 7.970896 -7.27203 2.4931996 -1.724987 0.84456086 -1.1726444 -5.083982 -8.38785 -0.43353364 1.7123989 -7.6318197 -7.2991266 1.0954336 -8.446748 1.4809256 6.324798 -2.9054234 4.353562 15.802053 7.496848 -0.29648936 0.12784733 -1.9212773 10.893328 11.465102 1.7994269 -8.311469 3.1068063 -7.647479 1.3259643 -3.310037 -7.768674 3.1895769 0.19717349 -15.26215 -0.08433858 -1.5526878 3.7008464 -2.356193 -11.1157 -0.25242898 0.43028516 9.037514 -3.5467608 0.025624407 -1.992175 4.30546 3.3732204 -10.779925 -8.728773 -10.389703 -8.187425 5.4507804
1330947 -7.9209127 -2.7655313 3.9378965 -1.9436504 -2.083165 -4.7006636 2.7892761 -0.1812292 -14.139762 6.2152123 1.1502922 5.9859505 -6.446629 1.601774 -2.6000988 -1.0623719 -3.1715589 -1.370514 -10.934291 1.7087283 1.9751943 -7.7893977 -1.4567224 4.2719517 -8.574138 -2.5745726 5.811424 -3.5098057 3.2625184 15.936977 8.525788 -2.9595237 -1.8122206 -3.2496858 8.989879 12.169573 0.41563123 -9.261086 4.9912424 -4.7552185 2.2380612 -1.7997891 -4.0534687 5.775332 1.4511619 -13.772917 3.35233 -0.04844722 3.4081798 0.937975 -11.209704 -3.6603942 -2.1492834 10.511683 0.62005466 3.6810105 -4.2530065 4.535885 6.79226 -8.33805 -12.299395 -14.52596 -5.6518536 2.4907477
908442 7.22519 -3.7210114 3.128855 2.528485 1.6789541 -1.1670532 -3.8639057 5.820801 -4.988853 -2.1972578 -5.0926375 1.2513782 2.5311766 1.2786154 -5.691554 -7.3153124 2.853203 5.575502 -2.683112 6.0424595 -8.710438 -7.859266 -3.3805676 -4.567849 -7.03058 -4.511773 -1.1442715 2.590977 15.52599 11.452164 1.2473646 -2.712209 -1.0736048 -7.343585 3.3554006 5.8484583 -1.2350676 3.2989767 -0.044336777 5.7583656 -3.7180712 -8.316003 5.7955937 -1.1566014 6.80027 -2.1691897 4.096473 2.5037494 1.5871415 -5.7451215 -12.579667 3.2944202 6.5606623 4.217044 -13.312945 11.623674 -9.607326 -2.048259 8.236228 -2.2638178 -4.0742965 5.9581857 1.3401695 3.1219368
753595 -0.4531356 -0.6991054 6.1906896 8.1103115 -2.4578211 -2.345871 -6.1975365 -1.000701 -7.6050982 -0.057025358 0.90397567 0.74561167 -6.247657 4.1548615 -9.277283 -6.480774 -4.1328855 0.36954674 -13.727375 2.5014288 -4.3190994 -4.8586483 -2.063896 3.516367 -9.684544 -9.957851 5.1800776 0.7734986 5.8790913 8.430006 7.590065 -5.042409 -3.2918239 -8.3271885 5.57266 4.909707 -1.1879121 -2.0211213 5.6186824 -3.6504614 2.2882552 -4.895134 0.11749185 -4.3021092 3.1160724 -10.072654 0.93890816 0.48334953 0.4009831 -6.777378 -12.314314 2.2376058 8.521728 6.8808656 -3.9267623 4.572889 -9.053232 5.3001785 3.9062555 -6.729229 -4.5269866 -1.0713345 -5.455969 6.8887653
905952 -7.737864 -0.19099702 -4.7626214 2.489271 0.20052834 -6.6486273 0.115679756 -1.5984409 -11.344201 6.219519 -2.9986322 10.63045 -6.696842 3.545007 -3.4858208 -0.16677439 -3.6148338 -2.1541429 -12.110093 1.2843086 0.86191076 -4.264229 -7.382452 2.4522898 -8.127824 0.6425207 6.208626 -2.5175173 2.528343 11.690269 5.382512 -0.5264165 5.3344493 -2.2161493 10.49063 10.2849045 -0.8185394 -7.818287 2.9458175 -7.5832224 -0.1569547 -3.4260008 -6.0859747 5.145498 -0.1688572 -17.483826 0.24990633 -3.8674011 2.210144 -2.796848 -7.11578 2.0660315 1.2397761 4.867744 -3.469649 1.8354361 -3.9652402 4.6211467 6.4319468 -7.8821454 -6.1438994 -7.932022 -1.9241043 7.728325
906824 -3.4472995 -0.8152024 3.1594653 4.8749166 6.188122 4.7412066 0.34745058 -0.68351036 -2.7658458 -6.9924464 1.123482 8.794589 -2.818793 13.053555 2.4320302 -0.32917234 -9.6490345 -5.005112 -7.196682 1.4165422 -12.071786 0.20997466 -8.532914 -2.4836 3.5223415 -7.9141617 6.704796 -4.8240747 1.3376069 8.010381 4.25671 0.5316091 2.0764363 0.70917237 7.9733605 11.680525 -0.9263112 -1.969799 -0.16026688 -8.485047 11.71365 2.8586907 0.9442903 -0.8263083 5.461157 -9.347705 -7.6216063 2.561324 0.88238055 -3.2740088 -8.379936 7.2530074 3.601901 8.442355 -11.949456 1.1154705 -4.8958106 3.8820508 10.1747265 -5.839229 1.0884978 -5.089292 -15.213178 2.2924294
908450 -11.753421 1.7152122 -4.0275416 -4.979708 -4.1200333 6.636579 3.263374 0.4418226 2.5533535 -0.93350255 7.3847933 0.39353403 -7.7091913 2.2717197 -1.085117 -6.5665045 10.030808 -0.8497013 -5.526332 -1.8512243 -9.691045 -2.9670784 -2.3421526 0.5192 -8.677973 0.23964508 -2.012942 -4.683177 8.2008915 2.393077 6.3608294 0.89040273 2.366488 9.857712 11.673469 2.5937006 -5.050146 -4.1149135 13.628296 7.0957355 -2.1607625 5.008468 1.0883082 9.509191 3.9994447 2.9922047 -1.953858 -3.162475 -6.1398673 -4.001362 -15.421835 3.146315 3.24478 1.6043217 -2.9072092 -1.0684597 -0.5038358 -3.0382478 -5.7952414 4.4670515 5.462854 -5.154001 1.8927426 8.754482
724839 6.2232466 -4.2673407 2.6646795 7.301147 7.9370456 7.2623544 0.7236535 0.78986317 -1.6893358 -7.368277 1.624801 7.4206142 -1.4469376 12.411583 0.11893724 0.31569174 -4.9146976 -1.768408 -9.482143 1.2961007 -14.125645 -1.4030594 -9.85257 -0.31811428 3.476781 -6.9883785 2.7265527 -1.962627 2.7033875 -2.0054855 5.0775676 8.832052 -0.42308187 -2.4279728 2.9611769 11.226525 -1.1103497 0.48237425 -0.37454805 -4.767544 7.051099 5.8256626 5.56548 -2.830445 3.7449808 -4.762164 -9.838627 5.258103 -2.9455297 -3.2963984 -9.779006 10.328063 5.3927827 3.1238234 -11.433201 -2.8577468 -5.5141997 3.8118455 11.140241 -7.129988 4.9281273 3.3557348 -13.891721 0.8299818
1240189 -1.8521922 8.641468 9.165429 -2.7998588 -3.456411 -1.8381375 7.5383053 0.7991788 -7.2590127 2.0922985 2.9292479 5.0117583 -2.0853572 -0.5052007 -3.4279726 4.4751725 3.4068527 -1.6273348 -4.656107 -2.9544778 4.166697 -3.861727 -4.1677504 -4.89268 -3.8611763 -6.7580557 6.016662 -6.2810984 6.031813 8.82683 -0.60230386 -1.8913867 -2.268348 -4.2999506 5.875774 12.516079 3.9689417 -12.3918915 7.440866 -2.2984545 -1.4326751 -2.9131904 -5.8916545 2.5754793 -5.2042155 -12.526854 -7.1686187 -2.8952506 3.556539 -3.7383316 -7.1778746 3.117826 3.3102422 1.522614 -7.7526393 6.0484505 -4.100335 1.491244 -0.33387947 -9.156853 -3.9263084 -7.5035944 -3.1915317 3.3557339
908134 -4.270885 0.66256577 3.5633054 7.9081774 4.221235 -1.6945381 1.7434034 0.41622138 -18.35423 2.3657694 -1.179364 6.5402265 -5.477549 11.764109 -4.735771 -0.77313316 -3.0092006 -2.363165 -11.46049 -2.2598877 -10.229457 -7.350557 -4.453888 -0.640886 -5.499254 -8.727007 10.661349 -2.3622694 1.5677705 8.44066 7.1006885 -6.2874103 -1.5180408 -9.064705 -3.0057075 5.4189568 1.9262011 6.5105886 6.306002 -1.0803443 0.08977135 -9.329352 -6.6885586 1.6138071 2.0946681 -8.755052 -7.3724933 -2.9658668 2.0648584 -1.3420573 -6.83004 4.0153193 2.293995 0.9033269 2.6652937 8.66404 -1.1306335 7.3298573 6.066808 -7.5410147 -9.489127 -7.6463 -6.67779 7.076138
907048 -3.3197815 -4.4537873 3.5646064 5.445184 -0.8809579 2.504971 1.65411 0.16066706 -4.0957503 0.7565399 -3.124733 -3.6611218 0.26580724 8.344626 -12.6241665 5.2356315 1.5285474 -0.9216619 -14.269034 -1.4147894 -3.820493 -3.9685874 2.6789742 -6.6744347 -8.044204 -10.032663 2.5937235 0.83562535 5.8010254 3.5779912 8.392568 -7.7908077 -1.1695831 -3.6880372 -0.9511857 4.1726284 -0.40369317 3.238731 2.044415 1.6365038 -5.737837 -11.409544 -6.801571 -1.4241968 3.4290586 -5.232779 -10.735045 -2.7037983 -3.115999 1.5554204 -11.553146 8.800342 1.9378173 3.2549248 -4.5342355 9.323198 -0.96724653 4.821033 3.7541802 -7.5554442 0.9964103 -1.4616058 -4.969861 8.414328
910710 -7.087369 1.9787866 -0.9746666 4.994389 -3.7622027 -2.7892294 4.918323 0.26181936 -13.537366 9.856479 -6.721142 12.656228 -7.2139316 2.5624115 -3.245285 -4.1887283 -1.6517104 -1.5274663 -12.53357 -4.036826 -3.0052242 -9.736014 -5.8399916 2.21655 -8.436124 -0.90381676 6.6377096 -4.809591 3.9917912 9.565481 1.7421367 -0.6057033 -0.018277222 -4.7810664 8.510853 10.797114 0.2666056 -5.9326663 8.50926 -5.3570886 0.59880686 -2.497018 -5.678149 6.8411746 -4.321046 -14.236713 -0.12394803 2.800871 3.0194945 -2.0478516 -9.345108 -4.78807 1.6100808 4.4903975 -0.22689156 2.887275 -4.9365544 1.0428752 6.6667986 -8.801321 -9.61681 -10.8561535 -2.8872151 6.249635
908158 -7.087236 -1.6047506 2.2718995 0.13565728 -1.2442609 -8.157306 -1.18121 -3.8064177 -11.886693 8.645668 0.5307744 6.692637 -3.9637039 3.2148108 -3.8738558 1.6214035 -1.9942483 -2.3988042 -10.464091 4.340196 0.23556566 -7.244732 -6.183371 2.4542837 -8.314132 0.22826704 5.5525265 -4.9780498 3.3756297 15.897985 10.647172 -4.033478 0.25885463 -4.640588 8.568311 10.153481 1.2423637 -5.9997706 0.42354742 -5.821454 2.2764604 -1.8298694 -8.760852 2.5298243 1.1680535 -16.743816 1.5088688 -4.8917675 2.9755933 -2.603492 -7.70306 0.9375531 1.1940484 8.786003 -2.1779249 3.2373962 0.0076792627 6.650027 3.063142 -5.2134194 -11.033357 -15.035205 -7.231903 3.322931
909252 -7.855143 0.042499308 0.6989815 1.8179512 -0.877077 -5.2310457 0.8531399 -1.8704625 -14.65155 5.1663327 -1.4081143 9.905235 -4.902619 4.6055555 -2.9527874 3.0106275 -4.6862597 -1.7733502 -10.516347 -0.34640282 -3.0509043 -4.850243 -7.488238 2.2910783 -5.571597 -0.13257675 5.104832 -4.86823 0.9962838 15.221308 7.07972 -1.9668331 0.84994024 -4.458007 7.7910185 8.19209 1.7172029 -3.3786623 3.283782 -6.7117605 3.0173116 -2.9437404 -6.677413 4.8152947 -0.21981849 -18.662727 -0.03728985 -4.9142876 2.5859616 -5.771409 -7.292363 -0.28335497 -0.37993744 5.62891 -5.4411273 6.0057545 -4.494977 5.0903006 3.6012638 -8.322247 -7.2386866 -12.7357645 -4.3769794 4.783829
908448 -9.597348 -1.9777708 1.9797213 -2.0766706 0.18387087 -6.135555 0.5979112 -2.7420797 -14.80884 8.149271 1.6797224 8.716005 -5.1945095 2.1191638 -1.733521 1.5493349 -4.694821 -0.041005082 -10.801476 2.560438 2.8298435 -8.395487 -3.5912533 5.3437214 -5.696633 -5.32465 3.1752439 -4.7964067 0.69453967 16.540878 7.4984617 -0.7284809 0.55447245 -3.7773314 7.2880898 11.42667 1.4871473 -8.160178 2.9591584 -4.597489 0.7910395 -1.6606784 -5.1647224 3.6983445 0.33319405 -12.955994 1.3633144 -1.0204688 3.1296198 -1.8415719 -11.891838 -4.0756536 -3.3489263 8.143248 1.0733902 3.8462367 -2.4196007 6.760834 8.073352 -8.739959 -8.580588 -13.934528 -5.4252486 2.4462934
908148 -6.7323117 -0.56532204 5.901961 -5.174114 -1.8308501 -2.420795 3.478004 0.26934728 -14.157026 4.357799 2.0195582 7.1317315 -4.129663 -4.2300806 -2.6567082 4.15099 -2.7474515 3.795327 -4.4254794 2.4102452 3.2560582 -5.5562534 0.36311427 1.3763163 -9.128355 -7.6403737 4.6086926 -2.1928391 3.563577 15.734312 12.2357025 -2.1415021 -1.4983675 -5.382763 7.7613983 12.484595 2.3614938 -9.4988785 4.649276 -4.661657 0.2829334 -5.1120105 -7.664448 4.962051 0.56247026 -9.245148 -3.3792858 -3.2629414 2.9680347 -2.2715623 -12.014252 -2.3315525 -3.1622458 6.7818856 -2.24966 1.6300339 -3.3872507 4.9650483 10.126921 -9.327512 -6.600251 -7.880479 -8.9210205 2.9828174
907277 -6.581804 0.5682264 -1.1273881 0.24185333 -0.49125123 -6.7066545 -1.6068988 -5.2677093 -12.575035 7.6822476 -1.1821048 7.5339017 -5.8507257 2.5554507 -4.6523547 0.9285665 -5.0833955 -0.47947195 -12.797979 2.4699776 0.22900538 -6.876744 -5.1725626 3.9117641 -7.6442957 1.5029054 5.2530947 -1.881024 3.1507828 13.616766 5.7166424 -3.068241 0.8890347 -1.9962353 8.467438 14.483659 2.0199113 -6.745669 4.8719215 -6.0794277 -0.05076596 -2.7008326 -7.256249 6.601054 0.8169405 -18.734495 1.8100898 -2.900037 0.8940887 -2.7786887 -5.620443 2.1113822 0.9156188 8.406887 -2.2932947 -0.53308916 -1.5717582 4.6849155 5.1218896 -8.446667 -7.5246916 -12.163379 -4.002231 6.028119
1247871 -6.731694 -0.061042704 4.1465774 -0.023700316 -2.429962 -5.6054096 -0.6945986 -3.449678 -8.841263 9.542374 2.1091797 8.559834 -5.0557866 1.5871502 -2.2964234 -0.15633784 -3.1704266 -3.9079528 -11.141339 1.1888173 1.8327438 -5.4263153 -5.2851033 4.870389 -7.220566 -0.6394933 4.8259945 -3.380022 4.2809367 11.211874 6.3338904 -2.6539075 -0.12490678 -6.18575 8.040778 12.526696 1.6695784 -10.0270815 4.825216 -3.2150629 0.64026624 -0.108471654 -8.102337 4.917792 -1.9875339 -18.033175 3.1018252 -0.6622736 1.9461162 -3.4933581 -7.3356543 1.0198078 1.8458201 9.7377405 -2.0029984 0.2651365 -4.241804 3.4459321 4.2568183 -7.7202134 -8.284471 -14.509101 -6.133763 5.9360633
909718 4.2109137 -2.0314188 6.670021 2.6206834 -1.3128216 -5.985551 2.4232352 4.035125 -9.405168 2.0844653 -2.980204 1.2368735 0.37640208 -1.0020696 -4.1830616 -5.5493855 1.0622283 6.2346416 -2.0542734 4.349328 -14.471189 -13.588335 -8.4949875 -2.9870293 -6.628651 -4.8004713 2.6105857 -0.2267998 10.769537 10.896829 -0.9201313 -3.4288843 -2.9678552 -8.502003 4.471764 9.261056 -0.47838023 2.966195 1.451961 2.6503682 -1.5494283 -4.5962243 6.005505 -1.2391559 6.4003735 -2.8017569 3.9689767 -0.33278868 0.9832476 -5.5544577 -13.795073 4.3849936 3.9145603 6.368051 -11.124464 12.4935055 -6.141859 0.22109556 10.507901 -1.2522988 -3.9592993 3.9092822 -0.5378458 4.049298
1330950 -8.946967 2.560529 7.7068415 -1.43103 -3.0594268 -5.6377873 -0.97314435 -4.302657 -12.49219 6.9460044 0.947304 5.740107 -8.687661 4.6939635 -5.913374 1.0484115 -6.219493 -7.5232053 -9.697566 -1.5645413 1.4529232 -6.3409414 -3.9362097 1.2554147 -7.152155 0.3024072 5.8890095 -1.1651651 1.9818242 12.612366 6.345618 -4.21385 -1.7667478 -5.4645104 8.446805 12.794598 -2.6223876 -7.074605 4.483021 -7.0924807 2.0134108 -0.716036 -7.138635 2.3476317 2.9532967 -16.371458 0.636848 -2.4285717 3.6833763 -1.522938 -7.0654526 3.7577033 1.2640896 12.465528 -3.1690094 3.1926963 -3.5923846 4.804471 0.6388561 -4.047975 -7.393151 -10.369309 -6.4673977 5.907668
1298167 4.7444754 1.4584196 3.722044 0.42109987 2.0926476 -7.0163894 2.1406379 -3.7424796 -14.203269 6.6393657 2.6866267 -3.5646546 -2.6536844 -0.9776417 -8.121032 1.4832871 5.1644807 2.690015 -6.0535536 1.245304 -0.09832505 -8.901974 -3.478551 1.2816794 -8.901939 -5.222151 -3.6315808 -1.9658186 5.3791385 6.111028 -1.823863 3.153718 -0.48887607 -6.3326883 4.1592455 11.570865 2.1969175 -1.9698805 -0.6263422 1.9159163 -9.057878 -5.0887885 -1.2693105 3.5406396 -0.7876096 -3.486796 -6.1922817 -1.2545071 -1.680204 -7.8202186 -15.123474 4.0800242 6.8807473 4.094062 -4.696806 3.0944347 -7.512231 8.984609 -1.4590757 -12.715126 -1.4561032 3.3571136 -6.116706 5.26458
949090 5.924015 -1.6955364 3.812396 9.002082 3.216506 0.7811281 -3.457339 -0.45288318 -1.4857565 -1.4270111 -5.5928226 -2.4002473 -0.69665813 8.922488 -10.480687 -0.06025915 1.4067922 1.9623698 -13.678729 -0.2810528 -4.1372585 -5.3036485 0.057713516 -2.5283668 -6.264708 -10.728459 2.387881 1.527977 8.581761 1.9216695 2.0408459 -4.4709883 -2.4398947 -6.2001114 -2.8526087 5.469329 -0.03694771 4.2522354 6.4382715 2.59499 -6.776335 -7.9066753 -1.8754926 -5.4073715 3.5366201 -5.132429 -6.08872 0.028861249 -3.6716206 -4.317676 -7.684204 8.124005 8.112312 2.8583953 -5.4366646 7.466576 -4.3765526 3.4723353 3.196521 -9.370497 2.583249 4.3881807 -2.8585625 10.989293
910687 -0.79207736 -1.4446656 -2.0152822 7.007451 -0.9952142 -1.1141471 -0.9244594 -0.6568829 -10.731121 2.4863772 -4.052916 6.5361876 -5.211933 4.89322 -4.39073 -1.3259896 -2.9940894 -0.65991384 -13.289798 0.06840967 -2.0980551 -8.345553 -5.407001 3.4207904 -8.745428 -2.1043253 2.2295349 -0.90305585 7.2823553 11.132813 9.494095 -1.3603219 1.1889689 -8.61611 6.480435 10.843947 0.8993106 -3.9289527 8.290779 -4.447972 -0.21495378 -7.3306475 -5.9544673 1.2383817 1.1747264 -17.203045 -0.36320767 0.6105258 1.3484095 -1.9097766 -9.04313 -0.2471805 3.0516756 5.452654 -3.7160654 5.9768343 -3.1423116 4.4908304 8.74495 -8.691265 -2.471557 -5.18732 -1.8109857 9.852464
1322224 -5.929778 -6.3919387 -2.8131874 3.2667277 -5.536768 -2.9544835 5.7555842 6.3261213 -7.308025 7.495677 -4.7094088 15.205402 -3.379704 2.6569612 -1.9546312 -0.96362424 8.819689 0.27107167 -0.76088464 -3.1985528 -7.061363 -3.5687933 -4.5822945 -3.6333551 -5.8233995 3.0860388 7.4730024 -7.6713896 8.372709 0.45715693 8.45144 0.15035632 -3.0705695 -3.0553722 -2.5074947 4.2267294 1.8803992 -2.6031384 0.27211183 0.36513752 -5.7548103 -5.5264544 -5.8010106 2.567598 -6.040555 -15.258158 -2.509149 1.3452611 -4.716566 -11.513946 -8.677873 1.8553263 0.822036 7.0823693 -11.45035 6.396802 -9.288736 2.5586925 4.976447 -9.717587 -6.0538783 -4.8446035 -8.19608 1.288126
1240161 -3.1319075 -4.869772 -0.0698986 3.834695 5.94374 -2.1852245 0.064543866 -4.2487493 -4.4011345 -2.4335082 -1.0785422 2.8444185 1.9543973 -2.4634295 -1.4510602 -2.5717654 -0.63378656 -4.5605483 -6.2112994 5.815286 -3.3815937 -18.42509 -7.537729 -5.3440857 0.00335189 -11.164363 -0.19259283 -7.584974 0.32859373 3.8963103 7.32841 -0.586572 4.677862 -9.794126 2.038152 10.401386 -8.576335 -0.8180969 1.7874072 5.637264 0.0805281 -2.050759 -2.5217233 7.0186725 -0.20882434 -8.16353 -2.6976116 -3.8933663 0.67861617 -10.706172 -8.59718 1.3943708 3.175502 13.288372 -4.753669 -9.946595 -1.42451 4.7281613 6.8480387 -14.903339 -0.56552976 3.8675485 -1.3296363 6.080084
1298222 1.7826469 -3.6872454 3.805257 3.3029237 7.1770735 -3.3082654 -4.74993 -4.8683295 -5.8857884 -4.6060805 -4.2962728 -0.8051338 -0.97161984 7.837268 -8.351624 -1.2598559 5.7586646 1.1191658 -11.079726 0.3590602 -3.9212487 -5.681674 -0.04951672 -0.9755148 -7.407364 -6.8828177 5.32666 -0.063617095 7.31811 11.2008505 5.9605055 -8.524911 0.29100928 -5.12816 -1.3824227 8.965908 -4.415748 -1.8262173 -1.6751 0.78086483 -2.8514314 -12.825341 -5.8986125 -4.669571 6.6144433 -9.354992 -5.542693 -0.6382745 -1.6377301 -5.2499027 -9.86927 3.1656725 7.0922976 3.793054 -5.545961 6.3699203 -7.1125913 8.315456 0.69324416 -2.4066856 -3.852045 2.2290668 -6.974866 6.7576275
908145 -11.976847 4.675255 -6.2016106 -0.16967466 -0.24199775 1.6672938 2.6674836 0.22541323 0.3722129 6.6025224 -1.8184893 8.358709 -5.027103 4.995712 -3.7595673 -11.098567 7.5371065 -0.5709208 -5.577925 -1.7422031 -11.445649 -3.5375717 -4.9829593 1.2509346 -12.194295 -4.5709934 -1.938447 -6.658849 10.593864 7.2564616 2.219515 -0.45366985 6.9726205 5.017338 12.573854 2.7934456 -0.9572795 -0.4367148 10.564236 8.227674 -2.9862175 -4.9815316 -3.1170113 8.548379 3.2344916 -1.4772111 -5.0305243 -4.6221848 -2.2628355 -8.970877 -15.159118 5.939245 -0.19476844 2.7851727 -2.779842 7.8355947 -0.79209167 2.1592567 -1.7464067 -0.18830784 2.925506 -7.282977 -6.319868 11.155133
1330982 -6.8655777 0.4595836 -0.14661641 2.546312 -4.444437 -4.065574 2.9097533 -1.7424749 -12.371477 7.2309237 0.616186 7.618076 -5.105596 4.9661293 -4.7014422 1.9614347 -4.7972856 -4.1550694 -11.571707 -0.9984662 1.0775806 -4.54263 -7.6135535 3.2251067 -9.572012 0.3970717 5.001775 -3.9890318 3.8326664 15.383612 11.397766 -0.9939314 2.4574962 -2.9500275 8.7070265 9.686882 0.45008254 -7.678107 6.714973 -6.1254473 1.0705684 -0.39934382 -8.546808 3.3372345 -0.7994781 -16.112207 1.6870773 -3.1436012 2.483262 -2.2960098 -8.199561 0.9819781 0.47505674 8.951099 -3.543344 1.4392774 -0.6283913 4.9226656 3.6221313 -7.31602 -6.1277237 -12.217537 -4.566887 5.471542
753535 -5.5598254 -2.684745 4.2206807 -1.3563052 4.5195265 -1.9979093 -6.039136 -1.795203 -4.497775 -6.3927517 0.9136254 5.243549 2.0663595 -3.8182228 -1.0627463 -3.9757683 0.4115128 -1.4929332 -4.844542 6.7022557 -5.2037253 -13.888314 -2.245366 -7.236468 4.192407 -9.060495 0.7055791 -4.7612953 1.7327973 0.84150916 3.3704205 -4.532823 -0.13877411 -8.862195 1.5483428 8.707607 -2.8556871 -1.0156502 0.1272258 5.1038933 0.5152333 -4.0198364 -2.822539 11.602253 -5.522277 -6.7533665 -0.7659165 -0.05061478 0.13000983 -7.1891103 -10.672043 4.337262 3.651217 13.873103 -10.48138 -9.937117 -1.7604727 -1.1754961 0.90224975 -14.928525 1.1093429 3.4963114 -7.5215 5.3379626
907789 -7.3745623 -1.5400236 2.0244386 -0.047553144 -1.947972 -4.8847933 -2.9327736 -1.8236355 -10.860827 5.678232 -0.35301536 5.8176274 -6.823696 2.5002909 -5.360347 2.69884 -6.0686283 -3.975472 -10.313588 0.2076458 2.126809 -6.121451 -4.245201 3.820172 -6.835648 -0.8727711 5.452432 -0.63052326 6.2845836 13.473132 4.2425156 -4.4833894 -1.434926 -5.6565905 7.0706067 13.350702 2.9816434 -4.596102 5.356206 -7.8252892 1.0310744 -2.9471624 -7.5707026 5.4202967 1.759388 -17.69486 1.5492605 -3.0582025 -0.92056334 -3.3709972 -2.3403783 4.081397 3.1642342 8.553931 -4.283853 0.8341288 -2.5658765 1.9810379 3.3582053 -6.292569 -6.0044723 -12.51054 -4.775083 9.146779
687819 6.3896894 -6.3519087 4.930679 3.6013591 3.325888 -0.70867246 -4.0458684 -1.735092 -6.897331 -3.2004075 0.4645284 0.9201569 0.45783997 2.5472605 -4.7390866 2.1942506 5.6975994 4.5756865 -11.759703 1.9019637 -4.9609103 0.52135247 -4.337416 -4.3108053 -8.120973 -7.7332134 5.9965725 2.7790086 4.0770836 8.408667 -1.0675701 -6.1024766 -2.9503973 0.55686516 -1.5389483 1.0540607 4.4986386 -1.8459947 -2.8280141 3.668824 -3.461203 -8.90521 -4.266217 -3.2591314 1.2649472 -8.835214 -6.2392054 -4.852765 -7.030765 -6.999749 -12.417402 4.432643 8.21638 0.27161986 -5.544062 7.4533873 -7.4929886 7.697009 2.4201555 -10.670117 -2.1676157 -0.46219346 -5.5119233 4.483863
749709 -4.042775 -6.2244897 7.815138 5.942593 -3.7525134 2.5726814 -0.40760496 0.5315673 -3.4700396 0.5448032 -2.0012195 -6.8208284 2.3845866 4.306186 -5.40767 2.5591543 -1.7362367 -1.8554332 -9.76191 2.804086 -2.678642 -3.2190077 1.5792892 -11.044835 -4.583907 -11.434362 4.5346723 3.3181925 5.740572 2.099268 -0.05638225 -6.3649554 -3.9691515 -2.8864527 -3.075661 5.4304137 1.9707593 7.944394 -3.8578548 0.8465428 -9.062494 -13.08352 -6.233512 7.269681 1.4972727 -3.7120986 -8.376914 0.7392673 -6.164362 3.1058009 -8.010055 11.693671 6.419949 5.2243366 -3.2260392 6.189905 -0.750276 6.658786 9.191465 -8.838399 0.076598406 -2.942431 -6.104871 6.2027225
910936 -1.1765363 -5.957461 -1.7798392 3.0528526 5.969522 1.9723492 -3.679339 0.32896087 -3.2875872 -2.8738241 -2.9119647 9.742404 2.986811 -1.5155396 -4.2765875 -8.72633 -0.31950828 -2.6381545 -6.9355435 5.3921547 -5.9505935 -17.226362 -5.2135487 -7.483573 5.388738 -11.672899 -3.273852 -6.541832 4.975273 -0.5911169 5.3781457 -2.0138748 2.099301 -4.4797287 1.0915071 8.102218 -4.5494795 1.6735924 2.5350578 9.140567 -3.3598952 -2.7786462 1.4789855 8.348712 0.15104444 -5.7836404 3.2551324 1.775565 1.8213924 -11.006603 -12.041336 2.6420877 2.7508037 12.6075115 -7.844147 -4.2977753 0.27165857 0.9578427 3.5451434 -16.398382 -2.0782285 3.5516253 -3.21877 4.270386
907275 -2.6463158 2.6499774 2.6825054 -6.582901 3.5933242 -3.8413503 1.969832 -1.4690008 -12.05194 7.8397093 0.0008235491 8.85827 -1.3616515 1.2673708 -4.0742126 4.429699 -0.52890235 0.16581964 -6.068596 2.0132194 3.3576362 -5.996478 -6.956152 0.21451432 -2.2239075 -3.5041704 2.3829763 -4.2978215 5.0346756 17.735039 2.2488878 0.5813762 -1.0245823 -0.8763154 9.640572 12.565588 6.838743 -7.269104 1.1286446 -1.3170818 -2.6154702 0.023056902 -5.3724036 7.25822 2.0405402 -7.4392858 -1.1556162 -4.4581385 4.7171855 -5.8592854 -11.036992 0.573905 -1.770289 3.8196607 -5.7112136 5.9641566 -3.0345752 2.7992406 6.4112844 -14.845602 -9.235998 -14.829454 -5.5007076 1.2392322
946358 -3.053889 -0.28691733 -1.217907 3.1490135 -4.296611 -2.3618288 -0.6653733 -0.434367 -10.483785 5.334867 -2.9371598 5.4212155 -7.312237 6.7901683 -7.1894174 4.0956454 -5.866077 0.328705 -9.842168 -0.40835243 1.7077186 -5.701074 -3.4228754 5.561409 -7.852794 -1.4395174 1.4405733 -0.33877403 9.672588 12.278194 6.478484 -0.6164382 -0.34389406 -3.8306746 7.14452 15.0288315 2.7421062 -4.295195 6.040306 -4.808232 -4.9378986 -2.873016 -6.7238903 5.6372085 2.7381394 -13.508613 0.9425468 -0.7916209 -0.6861538 -6.130779 -6.64614 3.13584 1.4909405 9.311359 -6.9063997 1.1128854 -2.8643003 2.685018 7.896478 -9.288698 -4.8031535 -8.729872 -2.1108623 9.264903
925340 -0.21985047 -2.712457 6.5462565 -1.4262664 0.43730718 -4.264653 7.6738734 6.7571516 -2.596895 11.227818 4.121381 15.534825 6.354213 -4.367683 -1.1676328 1.2786312 11.30662 -0.29565194 0.9807276 -3.090755 -4.9382167 0.5419013 -6.1700134 -8.457825 -5.247627 1.8819406 2.3832953 -3.1275587 6.4692116 0.4400683 3.1426914 -2.005722 0.0348426 -3.1077719 -1.5572746 5.236832 0.26512825 -6.675155 3.233454 1.6102923 -6.678879 -2.2462385 -5.005795 0.47707695 -7.131711 -15.766497 -3.9040952 -1.4496212 -5.2181954 -10.200364 -6.9536767 5.955806 5.980121 2.7436666 -12.492132 5.672128 -9.1623335 -0.96203923 -2.9106119 -3.1118133 -3.525578 -4.3078856 -4.980976 -2.0292432
906870 -11.415342 -0.13644163 8.759669 -4.6602383 -5.6824512 -4.3977046 0.24838547 0.010736875 -11.854687 5.8246017 3.9911664 6.467916 -7.18345 -0.6503658 -3.515707 -0.08996537 -4.129082 0.46065798 -8.577077 4.600615 2.1250365 -4.885981 1.4369955 3.2881966 -9.315596 -6.4339185 8.070562 -2.0994105 2.299064 15.3526 11.636613 -5.3442245 -3.9033968 -5.820672 6.3121347 9.813731 2.0496585 -8.114275 6.1069098 -6.6892657 4.086345 -1.224002 -5.7076597 3.5182405 1.2923629 -11.019478 2.1507175 -1.4260378 3.162238 -0.1862022 -10.096443 -2.4366062 -0.7958001 10.722323 0.5366746 1.006808 -2.746555 5.223156 5.9471908 -7.863156 -11.355623 -14.478634 -8.214732 -0.98207706
1298533 4.0315366 -0.09818844 6.23684 7.3953447 1.2890115 1.1961476 -1.6411093 0.82847387 -6.8390074 -4.8626657 -1.0293653 -3.1258352 -4.7088976 8.749162 -5.160704 -2.9653885 0.556072 1.2299788 -11.146429 0.43888187 -7.055359 -6.6551905 -2.0039115 0.8574971 -4.7260184 -10.44367 2.4070873 3.7691329 5.0740294 4.361453 -2.3614912 -1.0135193 -3.384487 -7.9614315 -2.5497382 6.833864 -1.5597043 2.9140823 5.9591703 0.008235195 -2.4917743 -6.559469 3.7596111 -1.0169711 3.658826 -4.538532 -4.102015 1.3652667 -2.2753384 -4.568863 -10.811965 4.035951 9.558148 2.8546972 -8.168392 5.712348 -11.476747 3.0033903 6.560728 -8.520425 1.1340228 8.2275305 0.8638999 7.66632
1240153 -2.3020883 5.957326 2.7468781 -4.1602306 8.74697 1.7243131 -1.6757183 2.7470875 -12.125849 9.391452 0.070054 2.546886 1.3805771 -5.646586 -8.704788 0.9851084 3.6144774 -5.994571 -5.923107 -1.469696 -5.600284 -3.7513556 -3.9604445 2.4578469 -4.3792458 -3.17077 1.621071 -8.05158 1.5957582 8.157257 7.1664977 0.023355972 -1.6556493 0.9655523 3.9134295 14.057696 -5.228837 -12.56272 6.7801347 1.7058276 -4.641104 1.177018 0.20037313 2.2446375 -10.028348 -12.775841 -7.3451037 -3.650798 -0.07904138 -6.978277 -9.38596 9.193875 -0.31821102 -2.4594584 -3.5193186 3.8253615 -0.26560086 6.5470343 2.008605 -4.8515987 -2.631041 2.8204355 -5.241595 -4.483782
1331033 -7.667712 1.6982298 -2.3374615 -0.7974553 -1.0449051 -6.904543 -2.777203 -2.0119855 -13.621898 4.6487775 -0.27064112 6.3132567 -6.348843 5.2466364 -5.1229386 5.132449 -2.818954 -5.4615107 -10.981066 0.31859398 -0.24037257 -6.50866 -6.840536 0.05472481 -5.229821 2.1685088 5.694992 -3.584024 3.2275946 18.240368 7.207768 -0.3154834 2.449758 -2.6914108 6.32001 13.66874 2.7774193 -4.382534 1.253058 -7.4875264 0.015717646 -1.6900126 -8.536342 4.0046215 0.29470256 -13.620275 -1.4628043 -5.3413773 3.3858857 -3.6711154 -5.625866 4.981489 0.18666331 8.639315 -6.2733593 1.6785233 -1.1082425 3.2546332 2.6118853 -9.642493 -6.6768208 -11.588028 -4.4027786 7.757017
905971 2.0050216 0.5627354 8.232409 -5.3706813 -4.3695736 -4.4506974 0.9736163 8.254363 -7.882633 -2.849293 -3.782986 1.3888496 -1.806493 -2.9977853 -4.4822726 2.6271837 -0.29588342 7.234869 -1.4833741 7.054504 -7.637197 -6.1566443 -5.5982866 -6.854177 -9.1474905 0.50790876 7.9511104 0.22018012 4.9080186 7.517821 4.365902 1.9179404 -5.733731 -3.7882183 11.490364 8.189335 -5.6124773 -1.4041307 -5.5588226 5.991208 -0.7296803 3.2425127 4.731046 -1.5763345 0.22440588 -6.7782702 -2.8689299 -5.558705 1.7113378 -4.139221 -4.9056077 7.2032094 6.5058045 5.5799284 -8.451466 9.311144 -8.924091 -3.303739 7.833145 2.698679 -3.282687 -1.0949622 2.350083 1.7063644
905965 -9.146516 -0.3957923 -0.049088474 1.7754849 -2.423281 -6.7803226 -0.5531918 -4.110684 -16.8304 6.9903646 -0.5207518 7.7864246 -7.703039 3.1360013 -3.178475 -1.8038654 -2.6791315 -3.9416738 -10.25191 0.37763116 -0.42553386 -9.311699 -5.3840103 1.7302295 -8.599286 1.2118087 6.7347507 -4.8259664 3.1660302 13.111801 8.614302 -2.2161334 1.1289334 -4.653827 9.560645 10.847479 0.7882462 -7.659651 1.3701478 -6.6589584 1.6043034 -3.7181516 -8.169593 2.7838628 1.7159443 -13.403331 -0.38881055 -3.7442188 4.6736917 -1.8534621 -7.5051594 1.8884189 -2.8288498 7.6369247 -0.43399885 1.6654239 0.36617076 5.431148 3.5679235 -5.4090624 -11.648508 -13.056825 -9.434963 5.8508873
907282 -13.0774765 -0.07418643 -2.490553 -3.5369234 -3.1819553 6.439558 -0.094625115 2.6550431 4.877903 3.8886874 2.2794616 1.1014386 -7.384567 0.22171414 -4.537889 -8.581093 9.554121 -5.1203256 -1.9914471 -1.1050236 -9.227386 -1.0928601 1.3750992 -0.87922263 -9.20998 0.52511865 -3.5870147 -3.7262304 8.804828 1.6036931 5.104632 -3.0841258 3.5383103 10.922508 12.22382 -1.0461328 -7.702638 -3.1489542 15.1619425 7.5684347 -1.2246685 -0.23020028 -3.1472545 9.416951 2.415551 3.268216 -2.6182106 -2.110452 -4.6412244 -7.9034176 -14.200892 4.3049397 2.4858499 6.6329145 -1.3836823 1.6588954 1.7928302 -2.8551035 -5.415304 4.158814 2.1237316 -1.8131474 0.5119461 10.466514
905936 0.6477613 -1.2358092 4.0474386 -3.5225236 -1.1522708 -7.9103394 1.7515006 2.977525 -9.076762 1.4731058 0.718494 0.6704502 0.80862176 1.2483035 -0.6990178 1.5362526 1.0579077 3.3778186 -4.199821 6.215857 -12.262551 -10.258216 -12.093436 1.0145843 -9.123579 2.1132283 7.29604 -3.1460369 5.4903746 15.04098 7.855242 -2.0434008 -3.2840686 -10.291877 7.7901793 8.681729 -3.707188 1.2261771 -0.37561122 3.061874 4.607247 2.0471363 2.7403018 0.1696344 0.1290164 -10.210526 0.94669837 -6.142484 1.7302634 -5.9037337 -7.438683 5.57261 -0.20556979 4.7578597 -6.1911316 7.612098 -8.109101 -3.6198795 7.2084465 0.2648974 -6.9599333 -4.9282184 3.2786193 1.6728312
906863 -3.3619013 -6.276059 0.0043855277 2.3483207 3.1855826 6.481958 0.27585387 -0.21868126 -4.882246 -11.175851 -5.364795 3.7252843 -2.3681881 3.64846 -2.0351722 -4.287249 2.695325 -4.072836 -7.283894 3.8657875 -11.202771 -13.661588 -3.695202 -7.053703 4.837905 -9.952999 2.0557227 -5.9901185 0.023277825 -3.6469405 3.596579 -5.246524 1.9715629 -4.1889873 3.3148158 5.8614154 -6.1302605 3.270173 0.69135946 7.2267222 0.08310392 -3.2106984 -3.564147 11.154328 -1.7485074 -10.152749 2.7491784 -2.2603557 -2.1205301 -3.2743664 -12.131631 1.1318911 1.518048 10.886894 -7.1132536 -2.3467033 -2.7658958 -0.41431546 5.1998796 -12.386579 -1.5614959 4.8856106 -2.3720124 4.670337
907276 2.942153 -12.208057 -4.6973147 5.311146 -3.0764647 -0.95529467 -1.6032056 5.7242703 0.3980819 6.747086 -1.7679245 15.0263815 1.4665139 1.6142259 -2.8785765 -2.9994788 12.4128685 2.7024317 0.3160722 -1.0050493 -3.4034915 -2.9074912 -4.0165114 -10.145159 -4.003975 -2.2954245 4.69452 -0.14697151 13.194732 -3.5395322 11.477295 1.0197448 -2.019584 -1.3488107 -6.3837376 0.5272769 -0.21728763 -2.147202 1.1332043 -1.454939 -8.797713 -5.203954 -4.697366 -6.2288523 -1.4715376 -9.47944 -1.6138252 3.7726138 -7.8577113 -15.389542 -7.71407 7.9758306 5.5742455 4.3035607 -11.246845 4.9472365 -9.202473 -1.0197953 -1.5813078 -3.175775 -0.98066646 1.3382537 -5.500489 -0.50747883
1247873 5.0413294 3.7265513 4.8502264 2.8879416 5.3501453 1.1228836 2.6237745 -0.56042546 -5.900531 -5.233982 0.6812807 0.095258616 5.7071624 4.155211 -6.7049756 -4.7629366 5.8161798 7.6600513 -10.979509 0.82449824 -5.3207717 -6.1560326 -0.67447853 -1.7827324 1.4301132 -13.255623 3.2037716 -7.1217437 8.9193945 5.2085857 0.32937944 -5.59885 -1.1570885 2.2129285 1.2237132 5.0054674 5.273586 -6.1368976 4.498494 3.715795 -3.5033374 -5.8335705 2.9416854 -2.0289564 -0.53622746 -7.5193315 -2.8762312 -1.0302345 0.35642707 -6.950218 -9.548236 5.424808 3.2190397 -0.061362047 -10.960765 6.004432 -6.2624483 0.7538955 1.668005 -11.771059 -4.5293436 -3.9715106 -1.9848081 0.95592237
909257 -8.475918 1.796302 1.2358494 0.36858162 3.0960727 -5.499042 -0.38863418 1.3474171 -8.258404 -0.6945435 -9.41869 1.933897 -2.5937538 1.3683696 -1.9204956 6.34825 -0.91314906 2.320383 -12.576297 -3.9801743 -6.2507906 -5.2569675 -4.9159856 -3.581422 -7.282491 -0.12260338 11.930339 -3.3721948 -1.2071549 7.8513145 -2.2449086 -1.2981472 2.2469032 -2.16753 8.748066 5.4273252 -7.761285 -4.935387 -3.0214798 -4.5924034 0.8768997 1.8959535 0.6368582 0.8154432 -7.9162116 -14.120163 -7.890786 -7.4171023 -3.8551054 0.805477 -1.3196503 3.883767 7.4272513 2.8499222 -9.034365 2.444326 -11.260359 -6.691767 4.2529316 -2.016864 -4.231082 -1.9004285 2.9970703 3.7799177
1298215 -5.5128884 -5.340509 -0.6898505 0.8636718 6.3221636 -1.9907346 -4.7388906 -5.8168316 -5.226311 -2.5292823 -1.9985126 9.143735 -0.09286757 -3.5686686 -1.6334692 -5.1673217 0.19549784 -2.8521917 -9.0772295 4.9637604 -5.737998 -16.346737 -7.1168594 -6.0698867 2.2239568 -5.180492 -2.9234297 -4.425137 -2.00915 1.8000427 1.5082058 -1.3480418 4.46583 -7.004953 6.433184 10.606232 -7.062802 -2.7407124 -1.3066576 5.99554 -0.30325764 -2.0956464 -4.0605865 10.890662 -1.1977512 -8.047091 -2.4004755 -1.35439 1.7261451 -8.751348 -11.539844 0.4630087 3.3238037 12.391715 -7.788233 -9.256815 -2.0500817 1.7037809 2.557754 -15.207683 -0.1845547 1.7629914 -2.38894 5.9516516
1503366 -1.9112743 3.0790105 9.009961 -1.7984325 5.104991 0.65055645 -0.539849 2.1520698 -9.633918 -1.0278629 1.7828516 4.488309 2.3326793 -3.3400586 3.457323 1.2263308 4.245932 -4.251253 -1.6752782 0.25180823 -2.1935966 1.3377339 -0.5970575 -6.2273984 -2.8366795 -7.3907623 11.353971 -1.5845498 5.143509 8.893999 4.818582 -9.009997 -2.7439477 1.1087916 3.10095 9.539318 -0.19057193 -12.149092 3.4878688 -4.5133247 -1.9144969 -7.318756 -8.171597 4.2282333 -7.0935974 -13.353476 -4.0610414 -2.3381405 -0.4691123 -3.330925 -5.2329526 8.658299 2.0403647 0.8480602 -9.233024 4.0160227 -3.5557973 3.5045238 5.6897454 -4.614239 -7.2624855 -0.61195135 -11.42591 -2.506492
905954 2.7532005 0.39712662 2.7910154 3.6479099 2.9901946 2.6505594 -11.971497 1.8061637 -9.775803 0.039193682 -7.2237797 -1.2433817 -3.6828516 7.3558292 -15.903775 -1.7516216 4.511318 -0.9444814 -9.787811 1.3732399 -10.327877 -4.181471 -0.9777114 4.9013534 -1.5018834 -4.8870196 -0.8547145 -0.26218638 6.4955363 2.828933 5.316803 -1.6898016 -3.3257008 -2.374763 -0.5321672 9.395478 -2.5168104 -3.7595305 7.655478 3.4027796 -3.6435435 2.3791828 1.0302042 1.1215802 -5.2615523 -5.868932 -1.27068 0.5797276 -4.0590577 -6.6113048 -13.169016 6.1088543 8.826326 0.76372737 -6.3122525 8.940905 0.018488098 10.1956005 -5.262428 -5.1082444 -1.270845 8.900249 -4.4341316 -3.8912146
722066 5.946239 -3.7247303 3.6457088 4.6971292 5.1493526 -5.8979764 2.106312 -1.1642318 -6.902625 -4.904113 -1.8440974 -1.9377584 4.8013144 6.031615 -2.5043645 -2.6952653 5.894859 5.923295 -9.113614 1.7882609 -7.6976967 -5.1554728 -3.2535183 -0.57589954 -4.397623 -9.762045 8.538474 0.91050595 8.078061 5.7460976 -5.1782484 -4.4196506 -4.1326237 -4.760918 -3.2954323 -1.6528617 6.169609 5.862947 1.7721049 3.7737226 -2.3855577 -11.109386 2.9866679 -0.159202 -0.40046346 -8.879806 -1.774967 -1.2784823 -3.5198655 -3.4178643 -6.452626 3.4910026 5.8634624 -1.4114741 -5.18219 11.60627 -10.257381 1.8854152 2.918528 -9.990794 -3.474358 -2.8972733 -3.046911 5.7283597
910554 1.4948087 -0.7771516 6.0811195 0.48160765 -2.142863 -4.846493 1.96025 5.250523 0.20724782 -5.0110645 -6.210464 -2.5424278 2.4076238 -2.097259 1.6876574 5.7491684 5.3907495 5.78829 -1.1259887 6.347365 -10.34864 -2.4701095 -5.2839317 -7.6283283 -10.671576 -0.05878169 14.287789 -2.2312117 3.895148 8.546632 4.850295 1.1552441 -6.3329377 -1.879896 11.132886 1.1378402 -6.5696297 0.27641684 -0.67658395 4.721223 1.9139743 1.256371 6.3051505 1.479927 -4.185189 -8.836953 -4.40176 -9.224694 -1.941192 -0.8306826 -3.5450613 5.76393 6.3514824 1.5283203 -9.189184 8.137438 -8.691162 -4.941472 9.539947 1.6679474 -1.647419 0.9709191 4.6991305 1.6887218
909716 2.0261142 -2.3998437 4.2104096 4.337655 0.5432 1.6368104 2.6353364 3.9676538 -9.06083 0.3379603 -3.1425462 5.182427 -5.2306924 5.364932 -9.006578 -1.2501448 2.9727807 8.334406 -8.15347 3.212661 -8.208185 -6.0720344 -0.22643779 -0.732902 -3.9986064 -13.461736 1.8268821 -3.491199 9.607585 3.456829 4.8498607 -3.0664816 -3.7056935 -8.557589 -2.399404 -2.8461204 7.1362586 5.959071 7.768864 2.5386844 -5.7327743 -13.427594 -0.47092986 -1.0449959 0.41810703 -2.6938293 -2.7633276 2.3206778 -0.010809029 -0.15558217 -17.744574 0.30898112 4.287187 0.3172167 -1.7386585 14.169216 -1.0273196 1.1628295 2.3704858 -7.652546 -1.0743725 1.0999017 -5.8425274 4.597303
1298531 -6.6169224 -3.4839294 -1.9962199 1.5467348 7.809256 -1.9468193 -1.8530833 -1.5589569 -5.9848857 -2.232766 -3.4816515 7.8171115 2.4759843 0.28922677 -2.9611928 -10.5612135 -1.0968578 -4.31979 -9.189239 2.9987442 -8.756326 -16.742529 -5.5836535 -5.3556175 1.8664153 -8.326213 0.3606885 -7.4787884 1.8550938 4.176622 4.27605 -5.391871 6.5825677 -4.0562124 5.5028315 9.339925 -6.4601836 0.4178028 0.5839887 6.5663514 0.86758244 -2.2473092 -0.69600886 8.541181 0.03504871 -10.936467 2.1062903 -0.471077 1.2866708 -6.9672246 -10.569917 4.4740815 0.49677125 11.709546 -6.0974526 -4.7105713 -2.217583 1.0519444 1.0397162 -13.044561 -3.6497118 -1.9153227 -6.29275 4.4801145
907311 -6.2442207 -0.92416507 3.122292 -0.5800714 -3.9635673 -0.48433617 -1.3668782 0.01676372 -14.822584 4.450123 1.9427825 4.902876 -9.300275 2.5601046 -4.585689 1.3530133 -3.6103954 -6.917168 -10.36345 1.2878947 -2.5260408 -5.0347424 -5.771169 3.7468941 -6.1071086 -1.7531078 4.0081186 -3.908796 1.7444214 14.174065 9.615777 0.25407687 -2.2293475 -6.667738 7.4590397 13.99384 1.240605 -5.8062024 4.8355627 -7.7465477 2.2761683 1.8903584 -6.332967 5.7131763 -1.4568584 -13.754883 1.4245709 -2.3997052 1.3009166 -4.961278 -10.970557 4.0727754 2.3677273 7.4647593 -5.7346044 1.6522576 -3.1221395 6.2272635 3.117335 -8.887865 -2.525028 -7.6680455 -7.971173 4.153877
688027 -0.21335764 10.665407 7.996248 -5.92042 0.043545943 0.80836153 1.2433914 -0.85645604 -4.873559 -0.5181238 0.3395353 2.4762723 -4.2368064 -5.744496 -2.8640327 10.018223 0.7124726 2.071367 -4.276447 -1.3030022 2.6072488 0.14002559 -2.5359502 -6.5703707 -3.2872515 -7.153184 6.605699 -1.9918612 6.5901756 8.596009 -3.1037288 -2.8467977 -2.0590885 -3.4122934 4.9793096 12.011554 1.6070374 -13.584094 6.583042 1.6314183 -4.485535 -1.3388907 -10.100791 2.1111605 -7.076482 -7.399275 -10.170656 -5.5479 0.13211824 -3.8643303 -5.016243 9.183167 0.09204338 -0.15924458 -7.47672 0.5523024 -1.5548007 -3.580393 3.2180808 -5.557966 1.8362209 -2.18337 -1.5844662 6.8037457
908440 -5.224121 -2.2490735 -1.5481566 5.1394515 0.12052383 -0.38584027 -0.6781566 -0.054145467 -11.690695 7.057858 -2.2206953 6.396235 -6.2787213 4.7974257 -7.803817 -6.508517 -1.6012026 -4.1032367 -13.305339 -3.1031086 -7.4933043 -7.964829 -1.9203054 2.985825 -9.904654 -3.8436384 1.7733527 -0.07356792 7.874275 7.281659 4.4775925 -5.853 3.0219464 -6.1471887 5.1568136 8.767542 -0.4583607 1.1180258 2.2495978 -1.0733588 -4.5736604 -7.227015 -7.6789794 2.365946 2.6545632 -9.944396 0.049138363 1.6951479 -1.320438 -3.2932594 -9.98723 4.6279125 3.1902347 6.0570426 -1.2083862 2.044314 -6.786475 2.270432 4.7538714 -6.955817 -7.2881 -7.048056 -8.239006 8.974279
1327774 -1.7013922 1.1292067 -0.6018832 3.603722 -1.5049597 -2.5139632 3.522484 -5.2951846 -9.609942 9.695321 -0.64374626 8.781757 -7.8453445 -0.94673043 -6.284684 -0.87586707 -0.14510539 -2.9274166 -11.8889475 1.4463584 2.7120512 -5.7521753 -6.6086016 -1.0356085 -12.16178 -0.26621017 6.1222596 -6.14014 3.989825 14.677447 11.45605 2.2807035 2.433708 1.4891782 12.964941 9.371777 0.90978146 -12.569142 4.0165496 -2.9279113 -2.0847578 -2.6202345 -8.046224 1.2420955 1.8750145 -9.668942 -2.8704698 -2.908959 5.4358597 -1.8326892 -11.935394 -0.8096471 1.5021893 7.615955 -0.9226898 -2.0216675 1.3773712 3.6653874 6.8881836 -11.748786 -8.592709 -10.241515 -8.057889 4.9451995
908118 -6.451968 6.013095 -0.59966284 -3.812677 0.9548398 -1.650901 1.4330727 -3.7113633 -13.19382 5.885664 -1.7011293 5.480698 -8.14423 -4.6272173 -7.025692 1.6299998 1.0065013 0.5059547 -8.822106 1.0984807 -6.0498214 -7.1746907 -3.2768734 -0.62682736 -8.113144 -3.4595926 6.569763 -7.0647025 0.8346296 11.5197525 4.603379 -5.8687882 -0.27533257 -4.9583406 9.086532 12.33459 -1.2296461 -7.410287 -0.09831711 -4.120919 -2.2259455 -5.393878 -11.18203 1.1962614 -4.17781 -8.541331 -10.340441 -5.1376615 1.9972777 -2.8889165 -9.931002 6.3809724 -2.030384 2.5038524 -2.4222808 -3.9938905 -0.5368453 2.2867613 6.8264537 -7.813544 -0.2138024 -4.627931 -8.466814 4.6207566
1303900 0.59731734 3.7489502 8.712771 -3.9178693 3.914516 3.2705586 8.952509 2.4164388 -5.622337 4.812288 1.6987185 -1.3799553 2.3479872 -3.159391 -3.0738246 7.515715 4.1832867 -6.070295 -6.009866 -2.90749 4.111992 0.6268801 -7.5730286 -7.346819 -3.8578217 -5.1602826 0.39840257 -3.331001 5.7485867 4.749226 -4.3433356 -1.3730673 0.40427595 -1.4260831 3.1818712 11.556006 0.013143504 -11.648296 2.768099 3.8274777 -6.972377 -2.7334454 -6.616666 5.288299 -2.2741017 -7.1517367 -11.879026 -5.3084664 -1.4250497 -2.862157 -8.278615 11.669215 -1.3508017 3.1166172 -6.3538327 5.0771728 -1.5424088 2.1856468 5.692225 -7.086819 -3.4934878 -6.2778807 1.1460557 2.2292588
910691 -10.448476 -1.8949023 2.2083178 3.631722 7.224674 2.948673 -3.6393564 7.085578 -0.22257248 1.4997982 -0.40110356 6.738647 -0.65617734 6.2885423 3.4974341 9.283643 -1.4788785 8.725114 -11.358192 3.3544908 -4.904214 8.294979 -3.9075916 2.559087 -5.316007 -0.12806621 7.417946 -1.1922704 -0.9246157 15.067516 6.347943 -1.8934313 -0.36142585 4.243795 9.207193 3.7831519 -2.264536 2.8863037 0.7991785 -4.2443404 2.1268013 4.0582767 -4.334079 2.7891238 1.7283533 -7.237928 -7.108629 -4.205585 -8.567011 -9.281356 -1.9192928 6.5994587 8.683363 4.9687104 -6.456469 -3.7967641 -6.4707108 -0.5158956 11.305646 -4.722338 3.5589912 -14.518277 2.9366512 4.1089745
906833 -5.3566566 2.6004002 2.9472475 3.2098358 4.2115355 -6.1833324 1.9111066 -7.4552484 -6.0354195 3.1752045 0.31388408 3.9553869 -5.029217 6.986045 -5.892801 -3.916998 -0.47918224 2.092225 -17.013506 4.2169147 -8.116685 -10.082389 -7.3466177 0.66321874 -4.531459 -10.1874695 3.3333025 -8.71186 1.3214912 6.815275 2.8856108 -4.7103906 2.5302625 -7.2279963 6.86301 0.21445397 -0.66205084 0.38563094 0.8245218 -1.8737389 -1.3473487 -8.421123 -3.8290658 -4.3178706 2.477478 -11.686628 -4.3093734 -2.6776466 0.015294596 -2.8929503 -13.755772 6.2403226 2.5922198 3.0773742 -1.9848067 3.6289694 -7.1879783 3.6510751 1.040663 -5.398874 1.327435 -5.893424 -10.037218 7.4445653
1290810 -0.7810482 -0.5493711 6.4650726 5.0822144 1.5779579 1.0896105 -1.3764951 2.3999643 -7.7948914 1.3811275 -4.7183995 1.7016549 -0.62490016 9.3867445 -8.673163 -1.7645972 1.8752652 3.1259012 -11.836279 -3.1587718 -8.037393 -2.7246873 3.0088449 -4.6361246 -0.52518386 -9.086875 4.801041 2.2485006 6.6643515 0.23462702 -3.0323677 -7.2822466 -6.0822344 -2.5563302 -4.380348 1.4200854 5.9888105 10.541629 5.8894186 0.287661 -7.1685224 -9.875438 -2.2621489 3.5947456 0.4220699 -0.6907985 -4.6860695 3.1454973 -4.4825606 -1.3363051 -10.499856 8.462192 7.893978 2.4376574 -6.928277 9.042783 -5.118614 0.59023434 -0.7643941 -9.774155 -0.6966795 -1.6994914 -7.5325427 7.2143154
906793 -7.669553 3.5345662 -3.3061826 0.30808452 4.1084433 -3.9009118 -4.3130455 -1.3943609 -14.2561245 9.947842 -5.0227914 6.201265 -7.1384645 0.3049457 -8.417575 -3.8036497 -3.6118095 -1.3974147 -11.418142 2.3465679 -12.378875 -9.573484 -4.9807925 7.511889 -7.0429564 -1.0806317 0.31363827 -7.7073727 -0.053835038 4.4009104 5.6148915 0.5389869 3.4599252 -2.621605 6.0080276 14.34674 -4.165618 -8.331726 0.8312713 1.259532 -2.0777771 4.6096144 -0.8146891 3.8485954 -5.656052 -13.70161 -2.4259458 -3.257107 -1.9917183 -7.3029633 -10.530651 4.228473 1.1738399 -0.8737036 0.3486941 2.453258 -1.8727125 8.952564 4.482607 -4.8438253 -6.5352225 -2.1747994 -8.428805 -3.7411764
905961 1.7484549 1.9117761 8.343161 -4.5890913 -4.805186 -6.4526477 -1.8754903 2.7873027 -13.818882 0.07761781 -0.1556752 1.0319152 -5.5656447 -4.0953536 -4.964642 -3.11644 3.3523426 5.3050923 2.475428 9.21359 -12.332548 -10.593605 -4.3440313 0.3655138 -10.270463 0.4364996 -0.28680232 0.54175186 5.710202 12.11505 4.4134502 -0.7258227 -5.0776033 -12.758018 6.72 14.664729 -4.0185385 -1.231575 -0.84970397 3.3139508 0.48654512 -0.58397627 1.3314204 3.045863 2.1342318 -3.2443793 0.17130725 -1.2199233 4.2487254 -6.93427 -11.522689 6.4791403 2.4536989 9.184889 -12.199526 2.3087275 -6.315882 1.199759 7.218599 -3.1122825 -5.297744 5.4029527 -2.9898398 -1.5053011
1330984 -7.3709583 0.36346874 4.71734 1.081514 -1.6928182 -7.207391 -0.4573619 -4.9030113 -14.770178 6.103189 3.9014697 7.5373573 -4.848674 4.185523 -1.6770667 1.1963036 -5.6214914 -3.374083 -11.000569 0.501745 -0.00633738 -6.661647 -5.2365155 4.6799135 -7.369464 -1.5495424 4.714058 -2.115556 1.3224791 12.891589 9.614564 -2.610504 1.460603 -7.2716055 8.141458 10.368951 -0.6555003 -7.6467805 3.4693854 -5.4684005 2.6794791 -0.6144166 -7.7992992 0.76838607 -0.024166057 -17.883162 2.1059926 -3.7434897 3.390425 -3.131656 -7.091451 1.3090963 0.74628526 8.192026 -2.800632 2.7178588 -3.6283753 7.0841784 3.5554159 -4.8007364 -7.98147 -12.570665 -6.924456 4.1659575
949155 -10.023189 4.920554 4.1405783 0.8511675 -0.062506124 -1.4902738 -1.4471018 -2.2339532 -16.992878 3.1662898 1.1899079 8.911731 -8.336705 0.73905975 -2.5107985 -4.164358 -1.0880181 -4.1666045 -7.832917 -0.40082425 -5.6239634 -5.12921 -2.6713543 0.4920951 -8.290402 -5.202842 9.378661 -6.527713 2.0221596 9.214779 10.399044 -3.0444462 0.9864897 -7.6822004 5.7095575 7.8601694 -2.0107386 -8.793487 3.272762 -1.1973821 0.95790356 -4.9054484 -11.051149 4.5103364 -4.550416 -13.237796 -3.5516837 -4.453367 6.099148 -2.1802979 -7.6286697 1.2198763 -1.8129756 4.401242 -0.34804317 1.1230321 -1.937697 3.7154844 6.087654 -4.039869 -12.63883 -9.788203 -9.949489 3.9337068
1240193 -7.7990394 2.6202824 1.4247485 -2.8422308 -0.99301773 -5.289704 -0.47443613 -5.8478208 -11.802529 2.3265252 -0.25784558 3.0066838 -8.86433 5.3466954 -4.281712 2.5881493 -2.05115 -4.634385 -9.383062 -2.0292232 -0.23333286 -6.3497586 -2.9701962 4.287179 -5.994006 -1.0768754 7.616723 -3.236689 5.0859876 11.760758 1.9684815 -8.173018 -0.53956956 -5.142104 7.0073314 11.8695135 1.268486 -6.163162 0.83513397 -7.070484 1.2048982 -3.9455473 -9.855502 -0.1509088 2.2946517 -14.435398 -2.9495308 -3.0603306 -0.8301963 -3.0957193 -5.75736 5.0641923 2.1939735 7.698497 -5.0909204 0.87399006 -5.9879994 4.5796227 0.33754554 -6.3245845 -4.888205 -14.1956625 -6.441166 5.874209
1327775 -6.363983 0.18929991 5.871944 -0.12474826 -1.6471885 -2.4332526 -0.7843157 -1.964557 -10.305464 4.658547 -0.28439742 5.3097773 -7.733738 4.328172 -4.5459743 -0.5219588 -6.4390125 -6.720227 -9.016949 0.4480292 2.0871882 -5.8339887 -4.8596196 2.1531732 -9.423704 -2.1421993 6.778585 1.127259 2.3472807 12.021668 7.2509212 -4.277554 -0.4781568 -3.2328966 7.358738 13.890016 -3.8481195 -5.674821 7.543039 -8.174313 4.9182076 -3.4263096 -4.0922556 4.476262 6.012969 -20.028372 0.82281727 -2.3309274 0.6711562 -1.5711305 -5.8045907 5.2599607 3.8732224 9.230513 -1.404213 1.368657 -3.1836047 6.1033754 1.2038645 -4.921552 -6.4173784 -6.962026 -5.43725 5.6944695
753574 2.3403592 -3.595586 3.2968955 8.548144 5.3048162 0.9651643 -3.0379443 0.45099935 -5.5492496 -2.255524 -6.456936 2.7794468 0.9552363 9.110539 -2.4112396 -6.330521 4.814777 0.16000603 -6.6272483 0.66696167 -2.6424465 -5.636452 0.22972763 -5.1142473 -4.3659244 -6.2139754 6.1174335 3.8686547 9.558692 5.0961385 -0.79817885 -7.5102043 -0.18072742 -2.8781638 -1.4616913 11.84551 -2.9570746 1.2059621 -1.5168449 1.51229 -8.269763 -13.623798 -4.018909 2.2128484 4.2113523 -8.823618 -2.7124352 4.9680405 -2.9575026 -2.6614053 -7.2021055 5.6436486 12.036051 -0.2943091 -5.6097 9.0329685 -3.6865654 11.696196 1.8565825 -5.366897 -1.2060049 3.49982 -6.4773583 3.0037947
910701 -2.0309165 0.31382558 6.7733994 1.0955019 9.778047 2.4218545 2.3817277 -3.9085045 -4.990438 -5.9203253 -0.11651411 4.3559256 3.463615 -1.4726866 3.296712 -1.9998081 1.7354622 -5.3863645 -3.4418025 0.6346401 -3.3032253 -13.605237 -4.7368345 -5.697912 4.7422066 -10.902241 4.2069097 -5.4996634 4.2371116 1.1382809 0.48997512 -8.338168 1.7911229 -5.163953 3.8039691 10.776737 -8.538418 -6.364152 5.9966583 4.787443 -0.2981416 -0.755371 -4.8374443 7.9884295 -2.6749947 -8.991317 -1.3379763 -0.87580127 1.8590614 -6.0368266 -5.4138527 4.725354 2.747783 9.061616 -9.574415 -9.050488 -0.58619714 -2.1212375 4.649333 -12.9145 -5.771171 0.3838976 -2.0638955 0.30585513
907786 1.1133711 -0.12476597 7.022274 0.3239281 1.167557 -3.7405965 3.081854 -6.7831635 -13.121493 6.0208516 5.946773 3.7862248 -8.423319 -3.3528845 -6.4284754 -2.750592 1.4200104 -1.0610266 -8.002609 2.2134252 -0.013509006 -5.2569966 -0.9113408 1.5631355 -13.918273 -0.01941058 6.9839377 0.27145857 1.3284272 6.592658 9.092151 -5.171106 -4.392762 0.2882548 7.3933735 5.5659127 -3.4034276 -10.8946905 4.1925907 1.1879457 -1.56008 -5.8287106 -5.3415446 -0.20390336 3.4450767 -12.595408 -3.1495576 -2.1681242 2.3608203 -2.1075044 -12.188747 0.35048193 1.2879472 8.526468 0.83689386 -4.5099487 -7.512335 4.3229203 3.212214 -12.690848 -14.443551 -6.4289374 -7.635641 2.1617947
909260 -5.909723 1.7124319 5.959649 -1.4860814 -4.1552415 -6.89967 -0.16190124 -0.6149218 -8.30379 3.4194858 -0.3966986 5.7054234 -3.1240776 6.8243546 -4.2327065 2.6073804 -2.9913366 0.83337736 -10.962873 0.17536755 1.4337382 -2.8761492 -4.2053504 4.3571105 -6.1546354 1.2987279 7.7718563 3.0832267 4.999206 9.882852 3.60031 -5.3595095 0.52619344 -2.76655 9.47701 11.206827 1.0373166 -6.427786 7.9292235 -7.3132224 3.871705 1.8376613 -6.0768366 4.657907 0.87115055 -17.375334 5.8755784 -2.7768793 0.46606943 -0.6964133 -4.7841945 5.2294197 3.91365 10.552723 -8.17057 2.7851293 -6.378824 -0.3285144 1.522664 -8.142755 -4.7810626 -12.750692 -0.8160455 6.6083946
907061 -4.8041368 -3.6977918 -1.0925467 -0.75063074 5.2832055 0.1452543 -4.4744477 -2.4412558 -7.701784 -5.5353436 -1.480231 9.139997 1.6417457 -2.326642 1.0858129 -5.5840273 -1.612812 -5.022897 -5.7488217 3.407586 -5.7756214 -18.991665 -8.8400345 -9.064041 6.207256 -9.075536 0.5887926 -6.5169578 -0.3353231 1.3121327 1.8275673 -1.0536342 4.3004346 -6.655407 7.349995 9.72109 -7.2560234 -0.27655345 -1.4895495 2.8184962 3.4200647 -0.1770877 -1.0209695 7.346604 -1.653263 -7.723134 -2.518404 -1.3028629 1.0553759 -7.587102 -9.917832 5.264464 3.9281423 11.018919 -9.212721 -8.547843 -0.36712807 0.48035458 -0.21010768 -12.980604 1.9643033 1.1767182 -4.9585633 2.9843895
749716 -3.8745208 -9.131889 7.553454 7.296857 -2.605501 1.2945442 2.9185865 1.0638511 -4.8505616 0.4276614 -1.4554211 -6.546933 0.025108337 3.9048438 -4.227506 2.4087145 -2.4541545 -1.7198024 -12.584752 1.8140427 -1.3393269 -1.4091699 0.030952184 -6.9795837 -3.5493886 -6.6104965 3.7130578 4.182072 5.639229 0.49365735 0.14356136 -6.913987 -4.015009 0.6440608 1.565213 5.9928565 3.479693 3.7566528 -2.0660722 -1.9919435 -7.137003 -10.247217 -6.0826273 6.7265124 3.7765014 -7.0337863 -2.4494033 -0.49363366 -4.5030026 3.7057471 -10.959253 11.603913 1.799315 8.893499 -6.8845716 8.747862 0.10217544 5.046706 12.683691 -8.850891 -1.6510555 -2.8507636 -5.4930143 10.078363
909703 -8.422647 -0.29094547 1.7136868 1.996686 -4.8057933 -4.4370847 -0.32763478 -1.8040913 -11.299012 5.347057 0.695317 9.311255 -6.4895415 4.4497566 -5.0551486 1.1815892 -4.5454535 -3.629159 -9.152952 -0.7763451 -0.14358988 -3.193912 -5.028992 3.3532343 -8.3921795 0.93648106 5.215673 -0.19494009 4.803354 12.278661 10.003814 -3.9962184 0.8417381 -5.934246 6.0636196 10.469992 0.43634987 -6.9581733 3.2079666 -4.553254 0.71662307 -2.7878695 -9.35705 4.3061604 2.134964 -17.177336 3.3043938 -3.4526212 3.9876454 -3.3859854 -4.5954876 1.45022 0.64653 8.1303835 -4.431522 4.4477286 -4.2487016 4.9058294 5.0446706 -4.646685 -9.086186 -13.064066 -2.007675 8.017503
949153 -7.908797 1.7712885 -0.08837327 1.3626755 -2.6437225 -3.5313466 -1.3680674 1.7408227 -11.72967 5.0866385 -4.7217126 9.643039 -5.9596777 2.3645148 -3.9194543 0.8474569 -4.311157 -0.87095165 -11.674018 2.1007478 -1.3005214 -3.9635704 -3.4356341 1.7575725 -7.01278 0.6679606 3.3070004 -2.3996565 4.0419226 13.163059 6.447675 -1.9297684 2.9244719 -4.276968 8.478159 13.736989 2.981418 -6.2081647 3.9042227 -6.6582413 -1.079168 -2.1694868 -9.268001 8.210549 -2.489492 -15.709375 3.3253036 -2.0570765 2.2079847 -2.6592777 -7.1631327 2.0293796 1.4361575 8.366079 -5.6788306 3.351867 -1.7602746 4.667174 8.180162 -11.563746 -6.926247 -9.772353 -5.0154543 4.831949
906877 -6.6541357 2.6050856 2.4196231 1.9247077 0.20053077 -3.5282984 -2.2957766 0.1875492 -11.093487 -1.5010937 -6.4872017 3.3574092 -5.339272 7.2247267 -1.811996 4.31829 -0.7383709 -5.044775 -9.216098 -1.758061 -1.9551877 -4.894958 -6.0656867 -2.8261662 -5.50743 0.43752003 10.020078 -3.9066415 5.623674 7.8316875 2.849419 -2.946639 2.3413925 -3.879186 9.355354 7.197278 -4.337726 -6.550372 1.1407825 -3.1362288 0.10223173 -1.6798406 -7.2226095 2.2780054 -4.7208147 -14.479549 -4.1639824 -5.0948687 3.1775954 -2.4301805 -2.9185598 6.453982 2.5591352 5.9076457 -7.1922235 5.8196473 -5.772008 -0.39679375 3.2437556 -6.677606 -9.0720005 -5.589159 -1.7121124 6.2712145
907066 3.2098384 -2.4447262 0.16828203 7.7738094 -0.79721797 -0.47593275 1.3124249 -0.6837096 -4.9568143 -6.8005357 0.7556605 1.7178326 -3.8897922 9.509335 -10.624324 2.0511692 4.4869695 3.368431 -9.126994 -1.2256494 -1.7948256 -7.1173396 1.5184693 -7.4739842 -1.2414944 -9.618882 4.0044265 -2.992502 8.091298 2.364042 1.9600759 -3.489881 -2.8936992 -6.6908026 -2.6873968 2.6025047 4.736782 2.8837295 2.7522027 2.9638982 -5.300555 -12.408503 0.87790143 -6.7425885 4.3426476 2.419726 -9.112328 -1.3243854 -0.99869156 -5.5455914 -12.91998 0.47274408 8.185284 -4.616098 -7.6642084 10.996143 -4.1619773 4.64329 -4.525707 -9.727419 2.3962219 4.6250257 -2.7546558 7.7551103
1290922 -0.19454598 -3.153984 3.8469799 6.87155 3.990887 -0.4037728 2.6486504 -2.0438552 0.27046415 -1.3703754 -5.620322 -6.1594043 1.4757113 4.9699264 -11.275163 -1.4060993 4.0327373 0.014535779 -10.917396 0.9083531 -0.6362796 -6.3210435 1.6177332 -3.8845751 -4.119811 -8.165347 -0.159829 -1.4379219 7.879846 -2.166741 -0.15890461 -7.7686324 0.28880164 -3.4772103 -0.22148275 6.0144506 -1.7022692 0.71754026 0.27511933 3.1681464 -8.250328 -10.949731 -3.7097986 -0.3345221 5.811058 -2.4030755 -6.966394 -0.8384543 -1.8886921 -2.3516753 -10.7744875 8.260262 5.478422 3.7673123 -8.767226 6.1166396 -4.572851 6.9378996 4.1761045 -13.667365 -0.91042423 1.8803517 -1.136724 6.378715
908481 -3.891291 10.74765 10.697675 -7.0580897 -0.8854083 2.6526303 3.33297 1.6074184 -3.9453294 2.62026 2.2141628 0.9980817 -1.2315686 -4.0627604 -5.022712 7.9077234 2.52658 -0.276291 -1.9323126 -2.2196357 1.0202947 0.17023203 -0.46504924 -2.792672 -3.1472168 -6.76688 4.8922787 -6.1147013 6.013723 8.142272 -0.56794864 -3.837705 -4.8630657 -4.5870247 6.9612327 11.708675 1.281877 -10.71657 4.1109915 3.0186248 -4.6535163 0.02093428 -7.376504 5.2937613 -8.80101 -7.425874 -11.626667 -4.386355 1.4937512 -3.7956817 -5.2135363 6.5305977 2.1482646 1.1786715 -8.210013 0.013487826 -4.6206784 -3.125812 3.2193162 -8.168792 1.6269101 -5.342383 -2.9294755 2.1959634
1327771 0.13125935 2.6772656 1.0258467 1.7948008 1.616141 -0.30552164 3.3253314 3.4973845 -15.514467 8.689379 -2.3506887 12.079851 -1.9142702 0.02315791 -2.2353442 0.1823189 -0.32429743 -5.106101 -8.162186 -3.300954 -0.98130673 -6.3172894 -6.085411 2.2025359 -4.2879 -2.3337455 4.5141945 -3.6953683 3.190728 11.821495 2.523347 -1.6196828 -1.3497142 -4.620046 4.4723687 12.144502 2.0781548 -7.758013 8.613027 -6.892044 -2.3629045 -2.5298939 -4.7009854 4.1850905 -9.080424 -15.3344755 1.0964957 2.471715 2.0573685 -4.182542 -9.663063 -2.7276657 1.7957679 2.363645 -3.6488426 4.237047 -5.6600337 3.745113 5.3373046 -13.818646 -7.268202 -4.2965503 -3.8047097 0.091016024
909722 1.6384386 -1.3591387 1.5631552 7.278368 -0.21154886 5.0112786 2.1782646 4.9923153 -16.876665 -1.0330684 -6.527846 4.048226 -4.9166064 16.284697 -6.505903 1.2541548 3.1619112 1.5753466 -7.318765 -1.6197067 -9.706299 -6.367348 -2.3255033 -0.54649484 -5.0243363 -3.0106947 3.6060047 0.6086062 7.777492 0.009577075 8.052317 3.3110712 -1.6859629 -4.630222 0.44138 7.874124 -0.7513038 5.4361553 3.565525 4.703791 -10.172232 -7.044626 -3.587772 5.7671256 0.76310205 -3.618528 -2.6186178 -0.1282769 1.2134439 -3.9366097 -10.113261 6.745145 0.69806075 0.5552137 -3.3002064 14.060039 -1.8981322 6.9539795 6.6458316 -8.100621 -5.306342 6.0415573 -2.4377015 3.4296043
905977 -4.6328154 6.5160556 7.176472 -0.063453905 4.8934064 -1.614872 -0.8362476 5.323512 -10.8764715 8.58311 -0.42949203 2.477002 2.9173942 -2.9764104 -11.191727 -1.3887899 3.814836 -6.022236 -9.051958 -3.981658 -6.47195 -6.678824 -2.3250434 0.2496538 0.033438567 -3.245348 4.0660844 -11.589248 2.4284637 5.2642136 3.1165843 -1.1858363 -4.6126137 -0.08119104 2.4862025 13.075401 -1.8951228 -11.953445 7.984418 3.9684794 -4.198607 5.731434 2.793167 1.2667351 -13.061975 -11.230934 -4.2242336 -1.05484 1.1101267 -6.5125065 -7.4178767 6.604442 4.17586 -1.383207 -3.4398537 9.001678 0.91388416 5.7573185 -3.5718372 -6.0066347 -3.76518 -0.97576815 -4.1797996 -2.3231156
910544 -10.482876 2.1622894 -3.125241 3.5765653 -4.041558 0.9683817 0.36747625 4.5790777 -13.829412 4.58495 -6.896365 11.5266 -6.254324 0.15883236 -4.1783576 -0.22166482 -5.2720394 -0.9537878 -8.016276 -1.5046101 -6.8322473 -5.7899384 -3.524779 -0.5190936 -9.810146 1.1312153 4.987804 -4.731791 4.1040664 9.410632 8.673044 -0.048118684 3.4590232 -7.321118 10.214076 14.595241 -1.0728037 -4.7593484 3.833538 -5.2195597 -1.0165505 -3.0718527 -8.822936 10.047463 -6.327864 -15.363113 -2.469644 -2.8393788 0.26342416 -3.7207925 -5.5435576 1.567461 0.29805225 2.442518 -4.929684 0.10432179 -1.5988464 2.2645342 10.009081 -6.7137427 -3.2160707 -2.536942 -6.925613 7.3547206
908141 -9.692416 0.46145764 7.1312776 -5.2267838 1.1190792 -5.916464 4.143529 1.781922 -11.981242 6.912413 5.2164454 6.7293677 -3.9018996 1.1830399 -3.3592575 -0.4512339 -7.0031095 -2.965411 -6.89281 3.051838 4.4821997 -7.7976346 -3.4816952 4.631938 -6.007234 -4.63134 5.6202464 -5.047343 6.0973873 11.342552 6.5312967 -2.6383007 -1.6499176 -6.2731876 8.078254 11.739835 -0.6559833 -8.18264 6.28287 -1.1981465 1.1474278 -1.6206115 1.037333 2.857796 1.8480166 -16.041378 1.7678891 -2.1672308 0.48588583 -0.47805274 -9.37402 2.1444952 -0.5636592 7.00041 0.96163976 6.087942 -3.7685027 6.415377 5.5997686 -5.051104 -8.393128 -13.451905 -5.641832 0.28241608
684059 -10.307517 0.20047909 -2.4268503 1.1798713 -0.23304005 -1.392654 0.3996089 -2.1373413 -15.66509 3.667831 -2.5811727 7.469457 -6.560062 5.294276 -2.4513571 -1.0629755 -2.3910074 -5.455222 -9.734059 -0.53711146 -4.758382 -5.673398 -5.9217706 1.6945118 -5.310938 -1.7937626 7.4845505 -7.129653 2.5712218 12.661485 12.373269 -3.657088 2.355226 -2.5932767 6.418265 8.185187 0.749433 -4.328894 1.2367187 -6.421813 2.6872807 -4.8303237 -9.530028 4.182577 2.419309 -15.224367 0.58611155 -6.2916923 4.6021895 -4.8383803 -4.514903 4.5728 -5.4687033 7.695807 -1.9602275 5.164171 -2.0588806 5.8440175 7.2402153 -5.974128 -12.208434 -13.775335 -7.1843095 5.311514
1330987 -2.5752547 -2.7427042 -1.3069804 -2.0588455 -3.3604198 -4.784191 1.6066618 -4.1655674 -15.511806 6.383137 1.188953 7.8199477 -6.993461 2.9623015 -2.2334666 2.4309769 0.8175915 -2.5525198 -10.170037 -0.83775616 1.931368 -7.5141573 -6.744096 2.9097786 -8.807771 1.0929066 9.499979 -2.4922016 2.8863547 14.497214 12.669157 0.53644186 0.46230128 0.19646877 11.011532 8.510871 1.1859065 -11.20702 4.326797 -8.019466 3.2986348 -1.7459831 -8.742775 1.0063554 -0.40432933 -12.9322605 -0.1770532 -2.5171402 3.4425545 -0.48909602 -13.011184 0.39694312 -3.0807376 6.7212825 -0.6945544 -1.078034 -1.4073083 3.1044676 2.3227668 -8.26925 -7.7047334 -10.867658 -9.233053 3.911684
908457 3.256887 1.8338165 6.693534 -2.5514483 -0.8192073 -3.8301334 -0.031844378 2.9219816 -7.0693865 -0.6856885 -0.521835 0.8548938 -0.0068829786 -1.1892048 -8.14858 -9.703086 -0.54427946 1.2646674 -2.5394464 7.412101 -7.4259224 -12.093498 -5.098262 -2.2777786 -9.637262 -0.9299698 5.71433 0.50016105 10.856791 12.712338 7.338861 -6.1303396 -4.1620865 -4.335111 10.876467 13.336734 -3.7922778 -2.7214155 6.8447456 5.9604335 3.9133208 0.59269243 5.749509 0.39234397 7.7657046 -9.058294 5.728981 -0.7726067 4.7775893 -1.9134394 -8.3902025 8.079794 2.4021661 8.992563 -6.9252963 3.7264745 -3.3197505 -2.4402828 4.086639 -3.3052049 -10.293968 -6.7935348 -1.4256598 1.6358885
724873 5.9373493 -2.772527 3.8954377 4.925853 1.7200954 -0.5814507 5.8779635 3.034955 -10.096985 -1.7850356 -0.6060805 -2.0813968 0.6005745 9.458436 -4.566705 1.4159166 3.622694 4.8714876 -11.070968 1.1132966 -5.867924 -5.5279193 -1.6812274 -4.025528 -4.296702 -8.71769 3.6278086 -1.5874506 8.078382 5.905399 -3.7445128 -2.0499995 -3.3487246 -0.46347973 -4.6664896 2.6537116 9.187327 5.7282286 1.3687043 1.1613821 -5.0621367 -10.569443 3.1933248 -3.3755553 5.6340275 -2.4806068 -6.574158 0.23880555 -5.140038 -2.6340594 -11.667512 1.949313 8.7980585 0.20639098 -5.6510186 13.5407715 -4.006483 6.160778 3.1181526 -8.438176 -0.5779168 -1.6616708 -2.9021182 4.922778
908445 -3.9077952 -10.311981 0.6062904 1.0969003 -6.3838134 -2.6878781 -0.41149244 7.0469007 1.2954489 4.1393347 -4.980892 11.711763 1.4901843 0.7465665 -4.9833994 -4.8588376 12.276166 4.361763 -3.6118686 0.7092323 -8.3528595 0.5440523 -1.1494313 -9.657167 -8.863956 -3.6417756 6.1965857 0.4574523 9.157353 -3.351226 10.136362 -4.2180915 -0.43411455 -4.6476355 -6.2484913 -1.590677 -0.29599702 0.25392628 -0.07616327 -0.29656285 -3.6778824 -4.523034 -7.564456 -1.1367607 -3.060081 -8.718537 -1.2808584 0.44030446 -8.701738 -9.397784 -9.791179 5.030275 5.209239 7.9645605 -10.001944 5.393591 -11.763553 0.09983992 1.359374 -2.5856206 -1.2980492 0.45975453 -8.402298 0.18456134
906855 -3.2056386 -4.26315 4.566499 2.726004 -2.6703963 -2.539673 0.012696852 2.7685928 -11.764374 8.871115 -2.4750926 5.7488894 -4.917672 3.670276 -0.41743252 -3.7124789 1.433602 -2.4673095 -13.853531 -1.2191197 -0.7001482 -6.5984464 -3.8217423 6.4085164 -9.962921 -5.7669334 6.7984548 0.6615076 6.108988 9.255591 2.1848989 0.5395905 -2.5401847 -2.6087418 4.5505447 11.6022 0.51087123 -4.6127095 6.2671347 -6.3793426 -0.7434192 -1.5567054 -2.5712206 4.715817 -0.77683485 -13.301778 3.4925287 5.06736 -1.5841357 -2.7298746 -9.892531 -0.60943943 8.225493 7.0574 -0.8425437 5.016268 -9.333333 3.812223 9.33139 -7.5044107 -8.536488 -6.7293153 -4.380323 6.8629193
1331038 -6.012119 -1.8833268 6.136901 2.6796708 -5.3842044 -4.8080616 1.512733 -5.897433 -10.885883 5.9135375 3.7177634 3.4827304 -9.292348 3.659308 -4.8279266 2.465445 -3.191578 -5.0128746 -11.660732 1.096905 2.2114766 -6.6466475 -5.0740495 2.552239 -8.948955 0.8572014 5.928768 -0.86043847 4.89579 9.822618 8.290469 -3.1314976 -3.0775893 -3.1282926 9.494134 9.394658 0.5018001 -7.9993 8.8426695 -8.004021 0.63671225 -1.7861906 -5.6340113 0.21982706 4.4667163 -16.18423 2.6055868 -1.8337431 -0.2493935 -1.3277103 -8.110981 4.716132 3.765796 12.097169 -4.672885 0.9519877 -0.6041811 4.925648 0.8764245 -4.785251 -4.7235136 -11.070259 -5.299861 7.400211
1298357 -5.7465715 -11.194965 -0.09740018 2.493915 -3.1630275 -6.208459 0.037363183 4.801827 -8.883431 5.9322767 -0.37778908 12.242485 2.4184792 0.057442233 4.2875614 -3.0740807 13.4492035 -1.8113463 -0.15715103 -3.8063293 -7.5510163 -6.6260433 -3.014835 -5.445501 -4.8628173 2.0598533 6.1754885 -1.6705614 5.5013146 -1.1751829 5.640675 -3.6593406 1.8776809 -3.6924262 -3.4291253 8.2341175 -1.7517534 -3.0903754 -2.8232694 -3.6168778 -4.8797994 -0.5911722 -6.5372257 -1.3541809 -4.9887357 -15.713307 -0.846444 -0.61800635 -8.426734 -13.703047 -3.4960816 9.179317 5.4420795 8.40173 -12.696599 2.1378586 -10.054574 4.2074213 -2.0800443 -6.3151283 -4.545865 -5.281261 -5.8081203 -4.3272552
1503368 0.09021781 -2.9301174 3.1645546 7.123496 3.73831 -1.309204 -2.6097956 0.55703336 -7.6660423 -1.8374494 -4.80719 7.2385206 1.5121247 6.5851946 -5.136855 -3.7506125 2.811225 -0.12136228 -7.9817133 -1.3078192 -1.3708738 -2.7268255 -0.40572292 -5.2625303 -0.5632392 -8.253689 7.1196814 -1.3085898 7.914927 8.789276 5.27261 -6.0921826 -2.303871 3.860185 -0.8536424 7.1113577 4.1788383 -2.0900104 4.0061173 -5.6841345 -3.2474456 -11.397065 -4.1145205 1.2034546 2.9509928 -14.910312 2.6934671 3.9306362 -1.3694582 -5.4836416 -8.353341 1.2942102 8.228321 3.81864 -10.042045 12.606283 -5.224886 10.1109295 0.8501914 -7.86232 -6.736977 -5.6444583 -9.589417 5.312302
910546 -3.2735379 1.7173263 2.5321822 1.7298254 0.12224533 -6.1008263 -1.8318526 -3.5550659 -14.474067 8.600577 2.3799472 4.7739563 -11.700774 0.13046259 -6.193193 -6.488367 -2.3754857 -2.581605 -10.053074 5.9877152 -4.533293 -10.771976 -2.5076356 5.821965 -9.850677 -0.8075759 3.3703318 -3.3500342 2.6303225 7.1322064 3.8822591 -2.4286635 -1.8819542 -3.352585 8.897613 13.313202 -4.628835 -4.5846076 3.1161966 -2.3562171 -4.259404 -2.6758447 -1.2321283 0.33525762 2.201663 -13.409989 1.1315752 0.084614545 0.708113 -3.299717 -10.308887 4.494717 5.6549697 8.665907 -0.23987773 -1.4780874 -4.072179 8.05082 4.352948 -7.4325194 -7.515726 -3.8000088 -6.4506707 2.5521624
687505 -8.445775 -1.7194811 3.616352 1.6388423 5.298184 2.0480807 0.164491 1.5917405 -9.670661 -2.5293906 1.5645317 4.7684245 0.10903378 7.5433803 3.6312325 3.2179558 -4.3449235 -4.6123357 -8.230397 -0.7981448 -9.803104 -7.116291 -5.302177 0.3453734 -0.9443484 -3.600803 7.7177353 -5.4047604 0.57829684 5.389399 4.568761 -1.1396834 3.5920343 -3.0673702 9.917963 12.564858 -1.7388425 -5.547012 -4.8205633 -8.384178 8.663109 2.8424914 2.0140352 -0.8840201 1.7443049 -11.68511 -11.084561 -4.721996 -0.8446597 -2.3721633 -4.8156395 6.2415314 4.369309 1.2667812 -11.288548 -2.8992822 -7.1992493 2.303479 9.752816 -5.7971525 -2.937384 -5.657815 -9.953674 -1.4791632
1240151 -5.7577295 -4.096638 5.6974707 -4.4307146 -7.3785934 -1.7547829 4.960059 5.879109 -3.8492763 4.292621 1.5515004 11.414358 -1.7357588 -2.5445247 0.62938416 3.475842 12.871098 4.827664 -1.1322978 1.567023 -2.4537127 -1.6308858 -3.9061048 -4.836624 -5.065976 -5.145295 5.702643 -3.4569511 8.622976 -1.1018466 7.713475 -2.6054714 -1.2796026 -6.792796 -2.1265419 6.757584 2.6622663 -9.0817995 1.6744114 -3.5375297 -3.535501 -0.4458669 -8.95493 -0.41698685 -3.595152 -10.755696 -4.632701 -4.241116 -3.6389163 -11.602371 -6.3639727 9.297073 1.8650477 3.9602342 -13.333547 2.6272864 -8.472637 -0.99605805 4.41987 -5.880528 -5.1427236 -6.980425 -3.6013284 -2.9496632
910916 -2.9421835 -0.30290967 -0.13379174 1.4436169 7.735732 2.0144622 -2.7668536 -3.5815213 -8.603226 -4.460766 -1.9731607 8.297525 1.747036 -4.012647 2.154115 -4.564801 2.9199326 -5.8175883 -4.609055 1.55078 -4.7595663 -16.989805 -7.7397866 -8.7604885 4.1787715 -9.315151 2.2381337 -8.466976 0.5508492 3.9650393 2.762437 -1.3815066 5.4070826 -2.0087857 5.0952187 11.690333 -7.061543 -6.7372866 1.2209697 5.833217 -0.5100349 -0.42515048 -5.4167447 6.2257104 -4.8757195 -9.288924 -3.0443764 -2.2206156 3.9697425 -7.831487 -8.502997 3.9292066 1.4386232 8.605833 -7.7462487 -8.129476 2.8756347 0.7461684 3.7303782 -14.294601 -2.7257512 1.5459743 -3.207695 3.6847794
924187 -6.2146034 -1.9979631 6.5087833 4.4683404 8.811418 9.977018 -0.2833982 7.44369 0.6687941 -1.4336809 3.2366755 7.247691 -0.63416415 6.458741 4.6243567 6.193875 -0.54504645 5.0883193 -6.635331 0.06694854 -7.210935 7.440933 -4.763398 5.689438 -1.5474614 -4.847409 7.4865203 -3.5238032 3.0353212 5.633253 0.13975489 -1.5030516 -1.7054228 3.4868555 10.4737625 8.48859 -1.8876338 -2.20478 -1.4057326 -2.8450458 3.0924919 9.306712 -0.3875704 -0.34574747 3.1195447 -2.6485922 -9.979282 -1.0429387 -8.439191 -6.181172 -1.5222601 10.207724 12.758023 2.6126113 -6.832664 -7.788886 -5.9437647 -0.33931643 12.3209505 -5.4215703 3.2594888 -12.31317 -2.6255982 1.7619184
749717 2.9040463 3.8591945 9.356293 -1.3123883 6.2588778 3.324248 8.819984 2.0402675 -5.220351 6.835664 3.425182 2.40415 5.0996127 -6.5670815 -4.620345 5.1929793 -0.3323628 -9.521771 -3.410458 -6.5525694 -0.092660144 -1.4684922 -4.0828705 -9.00428 0.5232237 -5.789336 1.5334014 -5.029898 5.585479 4.575544 -6.4561567 -6.657915 -3.3415914 0.8724312 3.5097513 8.738961 1.1406001 -8.563752 2.7443407 0.9407785 -5.8525734 -6.083319 -2.3113604 4.060635 -5.239079 -9.640505 -8.644715 -1.2042267 -0.88650644 -4.015368 -7.1556125 7.879251 2.0957377 0.9190718 -9.402405 4.4534984 -5.153283 -2.9388454 1.341204 -7.030684 -3.8412707 -3.2828572 -3.2624462 3.4144657
930298 1.2003331 0.9212652 7.7450676 -0.3470183 12.550537 11.475044 4.6275454 0.50360465 -0.7830309 -3.5412269 5.3910527 10.251671 1.1432317 8.768791 0.3343149 2.135004 -5.033594 -4.81246 -1.9195371 -1.6170852 -7.2646084 0.7864679 -6.4174633 0.010786317 6.326004 -7.869225 2.267364 -5.2845783 3.8625886 -2.0178614 -0.7649212 -0.23542587 -2.0455098 2.4962032 9.706206 12.545081 -2.3830843 -7.0323105 -0.9187025 -2.7934067 7.2580495 4.847563 0.3830046 1.2632092 2.564706 -5.803494 -13.310205 3.547381 -0.6263202 -2.4952178 -5.9008856 7.251212 5.889983 -1.4863178 -11.251084 -4.037447 -5.0013657 0.5879523 8.343545 -5.1916113 1.3745667 -2.8216197 -13.003527 -4.3301535
1299050 -3.5966532 -5.970453 0.23041497 2.5333028 1.8838707 4.0900235 -3.4242873 0.92225844 -5.9664545 -7.9907885 -4.3889217 5.717157 2.108025 -4.491522 0.58088195 -2.4640944 -2.251651 -3.1152534 -5.8690233 4.2062407 -6.9131274 -16.770447 -3.6007605 -8.747049 1.9488418 -8.055004 -0.94634837 -2.442073 3.3598478 0.594174 1.8775711 -2.9240189 3.0386474 -8.10517 4.061818 8.83814 -2.7142344 1.8286132 2.0245562 5.350925 -0.6263175 -3.365119 -4.302544 12.14427 -5.083878 -7.4516854 0.5295948 0.5233412 -2.6725407 -6.184895 -9.578835 -0.43353182 4.819913 11.539515 -8.144054 -9.722059 0.6229762 -1.5523609 5.0673113 -15.483535 1.0719897 2.876023 -2.7710283 4.4644003
687561 -2.4273934 3.7066312 1.2224841 1.8834386 -0.025990084 -0.7569919 -2.7565966 3.189069 -4.56614 2.4251246 1.0414089 3.4862266 -5.0540223 0.5354382 -11.799417 -4.0989 1.109218 3.3145976 -9.004539 1.6948061 -10.445475 -1.3106704 2.375933 -3.7516203 -4.2595315 -11.06022 5.9122734 -8.353179 5.887785 6.6741652 1.5825235 -1.0372945 -6.204119 -4.0686 0.26477188 1.9109932 7.2553296 0.8576687 2.8718438 0.927905 -1.4256598 -9.251525 3.9425373 2.949032 -5.176708 -4.959646 -6.4124174 1.7286285 -0.4965528 -5.068149 -14.177986 1.3439021 6.3137007 -1.4551765 -7.915084 7.364548 -8.159429 1.0877502 0.17154996 -9.43607 1.4779786 -0.6557773 -12.482346 6.7391644
906696 1.0201441 1.0791044 -6.0170293 5.637806 3.5354216 -3.6846712 -2.2844784 2.519159 -10.6594 2.3872917 -8.690994 1.8814459 -0.98418784 7.195004 -9.273348 -9.748831 3.775974 2.2883534 -14.757304 1.0065621 -12.171627 -11.90592 -4.4935474 3.8813396 -7.004581 -5.1254544 1.0090111 -4.974095 6.375794 2.4959345 6.049537 3.283365 3.9308918 -5.210326 3.3433378 11.483451 0.97964406 0.66430926 1.5509863 1.4769263 -4.2283115 -1.7140083 3.5287154 1.6129277 -0.24814005 -6.7259054 -0.21028711 -0.9257702 -0.7141835 -7.0280824 -11.808702 8.405979 -0.72014034 -0.011347417 -3.5593603 6.2853847 -6.6341066 6.263088 4.8851657 -10.74206 -4.453498 0.043283965 -9.045225 5.387689
1240179 4.11912 1.8414395 11.208292 0.6744089 9.810231 11.662419 6.3101373 0.3488175 -1.7608886 -7.44362 5.8380995 9.397 2.1411815 6.023248 4.57513 2.0294733 -1.0272433 -0.2122197 -3.2075937 -2.7848465 -5.417205 0.8059986 -9.671646 -1.591681 6.7348876 -10.402597 1.7319403 -4.100679 4.068049 0.8647627 -2.1350126 1.8606392 0.031974915 2.7067647 7.596294 13.057507 -1.8438094 -11.925622 1.1605892 -2.8574386 4.512317 7.2366724 -1.3100328 -4.277707 3.317535 -2.4748166 -12.8982315 2.1143298 1.4707657 -7.2972307 -4.9396615 10.652327 2.7845204 -0.5045456 -11.501514 -5.534583 -2.8132522 -1.454091 7.378341 -2.7187765 1.6217561 -2.147036 -9.630575 -3.724576
753531 -3.189209 -4.3454604 3.887108 3.836595 4.9292555 -1.832066 -3.993641 -4.807251 -9.348632 -1.22281 3.6352966 8.422609 -0.15756352 -4.441665 -0.31768134 -7.8583775 0.37133065 -6.832748 -8.674865 5.582742 -5.5308695 -16.166096 -6.883918 -6.1872926 0.031410754 -5.817277 1.6694163 -5.6094937 0.589536 4.355431 5.219574 -3.509935 4.6074004 -2.8884528 11.041003 9.326004 -8.630066 -5.927429 -0.81212264 5.7658935 0.35455868 1.0081979 -5.383863 5.4566245 -1.0791537 -9.178839 0.37390402 -1.2855932 3.0563412 -7.2268786 -11.2190695 1.5572282 6.4312305 13.672996 -5.462046 -12.083544 0.69586825 1.5567465 3.0311697 -12.034912 -8.284308 -3.9620636 -6.267172 3.7927332
