981 64
1240127 -0.34763387 6.4731874 -2.9290223 -4.428383 0.643348 9.434547 6.9884334 2.1348882 -9.25332 -10.903428 13.047509 9.0167885 -0.5332081 4.357933 -7.385503 -5.1935787 2.562524 3.7648787 -3.8808823 2.070857 0.1536941 2.3100483 -0.09376256 0.37213337 1.5365522 -2.5245469 3.3434052 -8.832512 0.03663167 -2.9270058 1.3331442 6.8442345 3.6894383 -4.825663 2.2208753 4.360755 -5.5935173 -14.7402935 -5.6584973 -3.4427748 1.2279022 -14.03277 8.366193 6.6887894 -1.7335997 -0.9480733 8.720503 -7.4119015 -0.90860116 -12.6625 2.220513 -3.2968154 -8.720389 -1.6722921 3.1450922 -3.42137 -3.891846 5.1443686 -9.471703 6.246308 9.3946085 -5.240875 4.4123774 -0.87202024
906871 -7.2269077 8.138716 12.041746 -3.9125226 -1.7052436 -5.6191473 6.1490445 -0.70763695 -9.890775 -14.189809 10.188577 2.5605192 -1.2394712 -1.3194969 4.123916 -7.229925 -9.709536 -2.3601675 2.016557 2.7431498 5.1235633 7.495815 -1.1263176 -2.1500037 -0.98149335 6.5213757 6.1780734 1.4578905 3.162108 -7.8189025 -8.399966 8.305893 0.7048791 3.7247214 4.511137 7.0356703 5.965161 -9.037149 -4.409763 -11.422669 6.4735174 -4.521364 3.3850932 6.057007 -1.3749859 -3.7298124 -3.508397 -9.194211 -5.809539 -0.30647984 6.7229023 5.650462 4.1770787 6.0665164 0.5684909 -0.27510303 12.889997 2.2415564 -5.405343 5.418674 -11.916962 0.8273185 1.1376152 3.4026084
907794 -5.247233 8.03462 -0.59128064 -2.0333433 8.914398 2.6368659 10.064934 9.537909 -7.3229403 -1.5323571 14.270626 5.229307 0.34143332 -0.51143295 -14.469253 -5.6174326 2.7199469 -5.210531 0.53071743 2.948277 9.815137 9.578671 4.3949227 1.864316 4.421867 2.4450688 -4.3645015 -5.0330305 3.1993508 -5.5086403 -0.60545325 4.960569 3.8178518 -0.29770648 -6.102079 -0.31515357 -0.9490273 -5.4982333 -0.93797964 -14.95132 8.945055 -11.167523 2.5671587 0.90890515 -1.1690439 0.33014268 5.574581 -0.505734 -4.299379 -11.845545 3.9617531 -13.533187 -0.968727 -0.41845298 1.4082615 3.7806714 0.49616534 -1.470976 2.272282 5.5649753 0.36379647 7.095317 3.6970973 2.2786868
1240208 -3.7946448 8.185857 6.9692507 -1.6595591 3.4760444 0.16633728 6.3911357 -7.6025486 -8.651926 -6.448967 16.008364 -3.847213 -5.621027 -1.7835332 6.9253855 -0.9934686 -14.558578 0.55157 -1.3053399 5.2145066 -3.0360456 3.26614 2.2365139 -3.609644 -0.581469 5.4158087 0.15878107 0.03884033 -1.8595463 -7.0510616 -1.5128387 10.404959 4.3129263 1.1254827 -0.13456571 3.8705213 2.6004581 -10.794537 -1.6209444 -1.0013005 0.3916368 -7.295663 -5.3792024 10.10284 -7.7703896 -1.1250656 -3.2144308 -8.705814 -10.43842 -3.317247 3.489628 0.47510722 -3.3913212 3.4533873 4.0818605 3.223652 3.3573906 6.6405234 4.349432 5.733794 -2.608577 -10.276029 7.099079 4.053615
1659823 -3.0480163 8.602475 -2.2653818 1.940547 9.813723 -4.5918384 4.1299734 5.3945384 -4.824083 -3.4747686 14.135445 5.38172 -0.6141663 1.2504897 -13.663551 -1.7784431 1.190147 0.7731255 -1.6920962 4.560623 2.3701546 4.868017 3.6934884 6.6901574 3.0929427 -2.254861 -0.2788535 -7.4024825 0.9635268 -1.9128041 2.2881474 7.775215 5.229573 -2.4601552 -2.0791187 0.3636393 -6.6866994 -9.040003 -2.3533182 -12.557426 9.235141 -16.318924 2.5527089 2.351464 0.7060783 -2.172517 4.722287 -6.973612 -5.362321 -9.71408 4.7094555 -11.153407 -6.0680776 -3.1853058 2.5675924 3.9724789 -2.8272347 -1.3626916 3.2878385 8.686983 6.695521 -1.3569759 1.7542335 -0.15521666
905958 -7.515275 10.851088 3.6343536 2.3150892 3.5032818 1.9961879 5.2723517 5.055564 0.6716398 -8.708744 10.907637 -7.8189235 0.03655114 -4.3682547 -2.3723543 -10.685225 -3.7229404 0.7999602 8.66275 6.6877737 3.8004055 4.728809 3.2262506 -4.8182406 9.595366 -2.8810225 -2.0984406 -6.20015 5.036421 -6.9462805 -0.064154 8.70607 9.026545 -3.5692024 -2.9530952 9.399724 -2.218232 -6.644868 -6.4632635 -8.672208 10.843027 -12.633732 -2.5049925 2.6328266 3.5897162 -6.5720053 3.326452 -0.12011692 -6.886596 -4.8619246 2.8249416 0.015916532 -3.9358296 0.9239462 -2.888359 7.0780106 7.6521463 0.71513253 1.0080897 -2.1666825 -2.6664758 -5.330301 1.5905997 -0.5004046
910781 -2.1143177 9.577536 0.2522413 -6.5121336 -4.691877 13.482418 7.0311213 7.6747313 -9.145332 -10.434435 14.678679 5.898738 5.2162476 1.5919427 -11.07146 -9.874392 3.8926272 0.84125227 0.8837832 2.3699632 3.6048594 1.5567791 -1.5399244 2.175801 -2.4371316 -3.2889502 4.092784 -4.9242 0.6833226 0.7728089 3.2917786 3.4462512 4.8102756 -4.4445086 1.0503324 -4.8947535 -2.053786 -10.5932455 -5.941738 -2.05681 2.1266143 -8.643915 6.7768736 3.277859 -0.17830658 4.441292 3.3911188 -0.3022046 -4.8128076 -15.928006 -2.2945082 2.1800447 -8.947741 5.7292414 1.7532563 -3.779396 -3.1184309 6.5227833 -13.151607 2.5180516 10.082046 -0.9760857 -3.155863 -5.6852145
907051 2.116662 9.409018 -3.1135972 -3.6333473 -2.9059105 13.321263 10.593441 3.1981938 -3.8216064 -8.900264 11.716032 7.740683 2.0065463 -0.23125564 -8.889596 -8.353704 0.8743969 5.1993027 -2.701164 -2.2959642 1.8508195 0.10397192 1.8929262 -2.1313865 0.51820415 -0.98546314 5.3758016 -8.238445 3.5704286 -3.4261498 0.87528837 3.320529 0.9181867 2.2213192 0.022608824 4.2713385 -4.5642385 -9.142205 -6.025933 0.07551341 -2.516813 -9.674967 8.593128 4.1886244 1.9234155 4.169992 7.9962354 -0.033613585 2.8727338 -12.908129 -0.56767523 -0.19643356 -10.042628 1.2420098 -1.2486743 -6.359388 -7.181375 7.69463 -14.221073 -1.3461179 8.969215 -5.9396763 3.690123 0.40045887
907042 -12.06575 3.8551543 10.154125 -1.2106851 -2.0011086 -2.6497924 5.4929404 2.6917658 -2.862006 -13.824274 14.314765 -1.3971095 6.3436217 -0.13699505 -3.7317567 -6.31201 -6.6261415 -4.436391 1.9900709 5.1039724 9.057797 5.4603333 -2.570172 2.0851514 5.26388 1.6052308 6.002351 3.6324959 4.647241 0.8026447 -11.823364 7.0240955 -1.4199928 3.9650548 3.9462736 1.4915622 3.0015728 -1.4659028 -7.052571 -13.92533 5.9720855 0.14878902 10.054094 1.3256555 3.225068 1.5109327 0.9648866 -3.4262743 -1.0222164 7.024596 4.981083 12.590806 6.734585 8.468908 -2.539509 -1.2129983 12.127471 2.9975317 -7.242958 3.1684308 -9.580815 0.51558477 -2.4919617 -1.76991
908129 -4.2987494 7.566643 0.8186721 -6.663302 -4.718092 11.611637 2.3613863 4.476044 -6.7180667 -13.102774 11.23657 2.863101 5.578214 1.2565442 -4.7156887 -10.837369 1.9683233 4.103112 -0.10771178 -2.6790009 1.4422296 -3.7772396 -0.2965101 -3.0361826 -3.3509693 1.133368 7.796181 -3.1621602 0.48509073 2.6571112 1.4188629 2.3918166 5.0377884 -3.1485038 5.74125 1.6724657 -4.185841 -11.562439 -5.8618803 -0.9926392 3.429033 -10.055609 4.6737556 3.3977044 -1.2813437 3.498205 2.619409 -1.8523909 -2.866933 -15.97216 0.7538498 -0.07014763 -12.036176 1.3733175 3.5322936 -2.7240207 1.2746826 8.97483 -11.284268 2.645562 9.994524 -3.6572902 -4.5133705 -6.8194375
906800 -4.743233 7.428727 9.598915 -1.0600586 0.8606274 1.5141674 3.600524 11.057588 0.95471936 -6.9863853 7.8436537 -4.06261 2.1896458 -7.4105234 1.9453511 -13.215862 1.7181882 -0.1393794 15.267843 4.1670628 1.9684496 8.489635 -2.7540224 -7.9405704 7.8773685 -7.2260566 -3.2048233 -6.1382933 7.0879874 -8.698033 3.0219784 0.39378497 11.543044 -2.9059207 -0.88110894 6.7249875 3.781294 -4.9236193 -10.472235 -10.02717 14.830523 -8.710233 -3.0509682 3.159701 5.509955 -6.8914747 0.24347349 -0.040430527 -9.822461 -6.778336 1.826306 2.4626498 -2.160396 4.1316085 -5.889935 6.8799825 11.437876 -4.590794 -0.88666177 -4.4434886 -8.374261 4.881776 -3.3243575 1.4089918
687815 -4.3760834 8.534807 4.5711055 2.7335513 5.136562 4.963868 2.133638 -7.4155674 -7.104965 -8.783865 15.719129 -1.7805606 -4.7097197 -0.28915524 6.124923 -3.8110316 -12.282718 3.3411973 -0.69287384 5.952078 -4.237876 2.0339746 2.2741334 -0.19664851 1.9192548 5.913601 1.8020147 -0.9765082 -1.2670276 -5.023559 -0.29302073 7.547559 4.703105 4.6084423 -1.9625173 7.2885046 4.1323705 -9.993673 0.40150437 -2.6154144 -3.512351 -8.790116 -3.9706948 8.62952 -7.412717 1.7728312 -6.595717 -9.451532 -7.902024 -4.427917 3.019884 -5.3188186 -4.891118 1.4049819 1.163694 3.2359161 2.1847377 9.755158 4.149549 -0.6444432 -0.45911357 -5.7540793 5.0432906 7.1898146
909735 -2.2311063 8.2380085 3.388991 -2.960494 -2.2721784 15.411355 4.707249 6.9079647 -4.7151303 -12.510755 13.243879 4.6732693 8.349376 -4.8456926 -7.219432 -12.566851 2.8653321 1.9241147 3.6824927 2.655907 5.2687707 4.1886716 -3.720107 -1.4107543 0.4239787 -4.548527 3.1021543 -5.655633 3.5198295 -0.26661658 3.3413055 1.4916216 7.291191 -6.3403573 -0.2166926 4.1951423 -5.811277 -12.299698 -9.430123 -4.1445403 4.4274397 -10.754707 4.391815 6.114925 0.7921832 1.6795065 4.5831604 1.1546974 -3.483687 -13.110698 0.19623193 0.012890743 -3.0035295 6.2851243 0.2090077 -4.194403 0.9781163 7.1629434 -11.846643 -0.5162079 7.291486 -0.8444263 1.9359053 -5.2253747
907272 -5.514438 7.0501 4.6447678 -2.790529 2.4209776 0.85087603 7.29639 7.9204183 2.8247783 -4.065967 11.647632 -5.920726 1.6886562 -4.246339 0.6293636 -9.902569 3.4956374 0.5317364 11.413518 0.13110049 -1.0238346 6.0154037 3.6588411 -9.256933 6.748603 -3.50096 -1.5449077 -4.004484 8.123428 -7.9394736 0.55009514 11.116529 10.010254 -2.258533 0.10757418 10.435522 -2.08381 -5.5708694 -9.691855 -9.160477 9.296503 -12.950588 -3.0790553 -4.947528 7.449152 -6.293382 1.6478989 -0.18275352 -3.3774085 -5.5094347 6.4551067 -3.7084665 -5.019743 1.1672256 -2.546443 3.03739 7.1353745 -6.2512097 0.28864422 -2.6837535 -4.945692 1.5966865 0.86676705 -0.79279774
909737 1.6304102 7.849987 7.3944397 3.479845 4.615391 6.292441 4.953235 -8.057987 -8.944969 -9.558421 16.716475 -4.089311 -1.2576008 -0.39369467 1.5518129 0.5643498 -14.524695 -1.8890244 0.5738859 5.854356 -4.169553 6.6454644 -0.93248904 -1.3302491 -2.1325612 -1.7254754 -0.58358127 1.2058734 -0.4957212 -4.7123394 1.9876667 5.84639 8.570711 1.5147836 -0.843796 7.697759 0.8213287 -7.84 -2.6265194 -1.3548242 -5.8969097 -7.5964956 -8.733857 10.634817 -5.6197886 -1.9046954 -3.7562883 -9.092248 -12.656928 -6.338908 4.3813357 0.9724581 -3.425459 3.4280357 0.9745695 4.633595 3.1306098 4.333356 4.2607975 2.4720998 1.0547904 -10.39713 4.5350966 2.6336372
1298362 -7.2930155 15.049002 -1.7858324 6.9490037 0.20260389 10.941041 -2.297746 0.3762474 1.3677933 -8.63967 19.499584 -0.80871415 0.14550382 -1.0011358 4.282141 4.031928 -2.6218083 -3.0164149 3.1799076 10.660439 0.27118945 -0.08609201 3.7419956 0.6639564 1.0470914 3.4819953 3.3817434 8.937741 5.1288066 -8.140596 -2.0222619 2.4080555 4.390104 2.5313845 -6.5183034 0.124919996 7.8206735 -0.39233485 4.922509 -2.9924042 -4.2158346 -3.0534432 -5.687562 12.834842 -6.8681993 -2.2919984 -3.594648 -5.9756207 -15.4022045 2.8685088 4.0419006 -1.3423443 -0.99874675 -0.67355275 -0.50289667 -2.2177289 -1.2946708 7.007234 4.618101 3.3363633 -0.57904404 -9.800228 -3.7752972 -0.051307473
910944 -5.7323403 9.26201 7.689225 -1.3401159 0.23440728 2.1079137 2.935094 9.827571 2.1133232 -3.8002372 12.934304 -6.796815 3.4425821 -7.399944 3.4252315 -11.46933 3.6443758 -0.5082168 13.531555 0.39538583 1.047363 7.9460707 0.97939444 -6.936733 7.696856 -6.4853745 -2.0889308 -5.5104256 5.5579247 -7.3856535 -2.5933378 5.7692876 13.185009 -4.589486 -1.0863268 9.809925 3.4529157 -3.639481 -12.766329 -9.251466 10.989589 -6.5599284 -3.4718835 2.007866 6.2702866 -6.1763067 -0.1434307 4.203724 -8.879821 -6.5471797 2.36826 -2.8788426 -2.084312 3.4366837 -3.0008903 2.5305698 11.088001 -4.157833 2.224289 -7.694835 -6.9321384 5.0698414 -0.89012605 -0.4777594
1323913 -5.280788 8.4649 9.94556 0.018224891 5.8861985 4.796449 2.1609387 8.563394 2.626253 -7.095205 8.963968 -4.1690774 11.630777 -9.966021 4.033494 -7.1194715 0.18669687 0.20483203 15.606156 -1.3724061 2.8233132 5.0453386 1.9175832 -8.185834 8.7329035 0.92555195 -4.4792376 -2.7411692 5.4538293 -7.7265377 6.310191 3.529365 8.972737 -0.2528804 -2.6596236 9.125757 2.1207805 -2.0995808 -6.7883735 -9.875114 10.760918 -8.897458 -6.1902075 2.6043653 3.5791967 -4.8521757 -2.1309118 -0.43038845 -6.50446 -9.668652 1.2107457 -2.733304 -1.4540488 6.031524 -0.23934153 2.6709566 11.480422 -3.4185941 3.7706013 -5.79212 -8.866843 4.2836556 1.151522 -0.10408862
1331036 -7.790572 6.510367 4.394809 0.7954887 3.089334 7.781312 1.7516272 5.8835096 4.3842893 -7.5778427 11.491753 -7.114282 6.906444 -6.038317 0.47496104 -13.23041 -0.75242347 -0.18691947 13.618724 1.262997 1.6257392 7.8033195 -2.60966 -10.295385 8.875186 -6.136928 -0.5475397 -1.9135066 3.9567199 -9.126792 1.9254105 8.315694 15.003753 -6.963353 -2.046148 5.7867455 0.39276886 -6.5747027 -11.392825 -9.4820595 8.858987 -7.5169096 -5.525844 2.2466004 4.3881974 -2.890436 1.6053624 1.820917 -8.237928 -4.578269 2.8017707 0.58317935 -1.1664337 6.4305267 -5.911572 1.342875 10.656808 -2.0046878 -1.7436386 -7.4860463 -4.965949 0.411412 0.3168346 -4.5649805
1295740 -4.909503 9.267408 10.291535 0.18051444 3.9337616 -0.06518239 1.3028148 8.225703 1.0021676 -5.6277213 8.050106 -7.0392194 5.8247075 -2.8338823 5.4711604 -11.63855 1.9269708 -0.6152489 14.986355 0.2936771 2.5598526 7.634942 0.69958836 -7.2889543 4.0785384 -5.4365253 -1.7483678 -3.9814177 3.6505795 -3.7434328 -0.11175846 6.3507543 13.190406 -3.8147979 -1.1513472 8.695196 5.219036 -3.893091 -10.004323 -9.392118 10.365812 -9.527322 -3.8257825 3.3010993 3.514468 -6.0167603 -0.23506047 3.4193103 -9.846297 -12.036286 2.7177997 -3.9907172 -4.7162743 1.045361 -3.6824684 3.8799095 11.432749 -6.114265 0.6767919 -7.5602674 -6.2534146 4.2762957 -1.4468896 -0.9409478
1240123 -1.5306231 5.8067093 -3.029637 -3.175601 9.913547 4.632319 4.0854454 10.932365 -7.630572 -4.980423 15.207557 4.4993143 -2.380503 -0.7073113 -13.687145 -5.2373786 1.6922611 -4.749499 -0.92940384 7.096925 6.382788 7.6167283 4.741044 1.1250434 -0.018916426 -0.22820687 -5.4972806 -5.943303 2.8503966 -5.0034566 1.6206772 0.83732414 4.596868 -3.3386552 -6.3046236 3.0310102 -6.8624287 -2.8641098 -2.5364313 -9.870684 7.070368 -9.166847 -4.8299446 2.9693327 0.5282244 -3.4467318 6.7084866 -2.8071475 -5.1993327 -7.2720613 13.131937 -12.052464 -0.8677739 0.3834314 -1.6325207 -1.6584761 2.707132 2.8582695 5.457929 11.004113 2.7680206 1.3286014 2.7687156 -0.92977756
908122 2.185368 6.4766264 2.7931876 -0.60826296 0.40699074 3.281461 -3.0073617 -7.23595 -12.579806 -6.3719225 15.006515 -3.8020706 -8.322223 -4.4115276 8.051652 -3.67201 -3.310408 -5.479992 1.5735527 9.0244055 -5.5760813 0.012511887 3.0698082 -9.865747 6.8231974 4.974685 -2.1418898 -0.99139476 0.6173255 -5.9494276 3.552027 6.632226 10.453534 -1.4708352 0.92660445 7.8161955 2.4029064 -9.072988 -1.5962129 -0.045795135 1.6741077 -10.580311 -7.519841 6.631191 3.918664 -5.762528 -1.0721238 -11.685076 -9.403481 -4.554386 2.3284533 -7.384173 -2.7251523 3.634208 -0.09631832 -4.7661476 8.218957 5.7022204 3.181206 2.85471 -1.1967869 -4.5280685 4.230286 -0.4349251
908156 -4.7884083 8.068735 8.1692505 -0.02070644 2.931484 3.3483548 -0.33577064 9.660593 1.0028158 -7.823178 9.193292 -4.584085 6.122054 -8.192582 2.7698498 -12.263641 0.1528077 -1.1396693 14.049544 3.031832 1.5653594 8.182901 -2.3168557 -6.4023275 8.876961 -7.0843477 -3.3143778 -6.0496964 6.42416 -7.3762646 3.5163732 1.0592421 14.228234 -5.1138873 -1.6216475 6.678999 2.1474607 -4.335144 -9.654348 -10.392875 12.382789 -6.90721 -3.2843268 5.484331 5.644921 -4.5815887 -0.26817837 1.7193823 -11.298559 -8.365977 2.8703516 2.3692234 -0.5152655 6.6511397 -6.0649385 4.7048283 12.025942 -2.4228106 -0.57112414 -6.331937 -8.78054 5.4767747 -1.1001592 1.991367
906856 -4.303495 6.7019205 11.503903 -1.2872845 2.9585156 1.2355343 4.2448134 9.490504 2.793321 -4.7398896 9.954673 -3.0908005 4.5472207 -7.53687 3.168661 -9.722835 -3.156692 -0.6783396 16.551079 3.6059024 1.8173364 7.171565 -0.71065295 -6.891133 5.939546 -6.9339695 -3.9472485 -4.0036473 8.109373 -5.935721 3.2390878 0.8392536 8.706199 -3.5968099 -1.8607955 5.270427 0.86364937 -2.274395 -8.818626 -9.523063 12.304303 -6.062206 -5.203587 5.8472304 3.4121501 -4.5992374 1.1763818 0.35872236 -11.596249 -8.369052 6.9068065 2.3838372 -6.967346 5.5403166 -3.75806 8.893089 11.897329 -4.2238474 2.2092035 -5.6104155 -5.1627975 0.37729326 -0.17126866 -2.8020232
909750 -6.587832 5.7418585 8.974803 -1.1312262 4.116299 -0.6399351 3.7081707 -9.222433 -12.557652 -11.703444 16.387949 -5.6366367 -1.4077758 -5.278771 2.6971703 2.1222153 -12.215509 -2.3164072 -2.351685 3.664178 0.4272971 3.0532293 1.181377 -2.1120806 -0.164686 3.2777295 3.0877762 4.6227283 -1.2889179 -4.023471 -8.296249 9.056443 5.461314 1.5598316 -0.63843095 2.106435 1.7762328 -3.888043 -3.718727 -5.2387314 0.13487096 -6.4660587 2.3003113 8.549279 -2.6114213 3.2735755 -3.8809366 -8.5872755 -10.791649 -0.118076555 0.12250979 3.9703183 2.9587324 5.6230297 -0.10624899 -1.761024 6.4870048 7.238781 0.693399 8.366938 -6.442019 -11.751646 0.26977745 4.768764
909256 -0.50295484 8.3255825 5.9759865 3.5849664 -0.39189047 0.96749085 -0.9280849 -3.6566894 -7.290676 -6.593152 13.818462 -3.0776641 -1.9090948 -5.601153 3.9896877 -5.7026076 -1.0168782 -3.2621584 6.124559 13.078605 -6.367642 5.554845 -1.9118574 -7.417436 3.8427289 1.8387176 1.9308987 -2.338914 7.0058703 -8.494991 2.091252 2.975252 13.46926 -0.26274857 3.2070172 2.6301007 8.740648 -6.936563 -9.499288 -10.255646 7.054843 -10.948438 -3.6865292 6.393856 8.308121 -1.8584201 -3.8000722 -6.822124 -8.330824 -6.8195844 -1.8860443 -6.0898905 0.7066753 8.265008 -5.908294 -1.9586854 9.530466 0.8006706 -1.3625478 -1.7957654 -4.3795595 2.4548438 8.124962 -1.2825432
906763 -3.9851108 11.15109 7.616019 -3.0920663 -0.64528996 2.4270525 5.9775743 6.2396884 1.6878974 -5.040496 10.9798 -5.819996 0.052655406 -3.8011706 4.3194127 -10.154109 -0.7710343 2.862077 12.920233 2.3643322 1.3889413 6.8147173 5.064956 -6.848567 7.436427 -3.6920772 -1.5219216 -5.2791023 4.700173 -4.7129993 -0.30580476 7.4604006 8.628465 -3.3969498 -3.156311 11.9203005 1.2159743 -5.8429856 -9.728313 -7.665053 8.301755 -8.692207 -1.9973966 -0.33272332 3.6565015 -6.299953 3.8341615 6.2300253 -8.369056 -7.7209487 3.677373 -3.0118446 -5.088582 0.7964295 -3.8393657 4.8804536 9.340098 -1.9044167 0.6861061 -8.995829 -7.888239 -1.0591565 -3.057647 -0.62908196
908139 -4.264747 16.808096 -2.9062502 7.4251056 0.7310709 -9.398946 13.772258 -3.5266397 -0.30430454 -8.229422 7.6049414 -0.6583273 -2.2426636 -3.7833483 -2.6295738 1.1953964 0.97963506 -9.406496 2.985193 8.5337515 2.3108375 -0.91820574 -3.3756914 -1.8633182 -1.4785718 3.4973874 0.7402841 0.20540373 2.9149184 -0.15417445 -7.9245105 5.8219256 6.5985413 5.6775227 2.5483727 3.4159927 0.0068532927 1.0890998 -5.5361857 -2.489061 -0.43716082 -0.40587118 -4.748062 17.750937 3.7765105 2.1189582 -3.6483617 -0.7884873 -7.690064 -9.457093 5.767499 -0.69725025 -5.2016034 7.810682 5.2286983 2.8621883 -0.64485043 4.4937353 0.8832374 2.1479497 3.96921 -7.813055 11.747369 -9.993441
909702 -4.5848684 6.520359 4.26241 -2.4658833 2.2296948 5.567548 5.7001195 7.3692 3.5899959 -6.485149 9.382706 -6.8462234 3.6464088 -6.289189 -0.9534884 -9.144193 4.056116 0.95682347 13.102159 1.8666897 -0.6843958 4.753507 1.8242513 -10.904971 3.6744847 -3.1917965 -1.4218624 -3.1636066 6.0503564 -8.277742 0.35644552 8.810111 12.801431 -2.9853904 -1.5100532 11.417165 1.2569638 -5.233919 -11.799145 -9.690878 7.7008104 -10.812008 -5.1838074 -3.1315591 8.050173 -4.9646897 0.67729014 0.34026292 -5.0655084 -6.8345785 3.5023303 -3.7613065 -2.7888896 4.1318893 -4.979729 2.3317769 10.969333 -4.9281774 0.1411153 -3.5917003 -4.162986 0.48234132 0.032085735 -2.7476966
907062 -11.957912 15.068434 -0.67189425 9.272343 -2.907114 7.4606023 -6.473515 5.3378167 2.8334858 -6.1350365 18.223072 0.7792287 2.2424254 -3.603537 1.068735 -1.2787646 -1.0910614 -1.2396905 5.6609826 9.418491 -0.40891093 3.401497 5.4995337 -0.30777743 4.149464 5.279313 3.1280105 7.726597 7.7275615 -5.8906913 -3.0638175 4.4241996 4.3702574 3.7808077 -5.854936 -1.335896 8.465172 -5.2057114 2.4151115 -5.4826016 -3.3284824 -3.5818415 -4.0497155 8.615292 -4.7644916 -2.492429 -0.16943866 -2.6923308 -14.038012 2.7974665 5.605698 -0.007852838 2.2978904 0.2340123 -0.36861208 -3.5564346 3.5791886 5.847977 -2.1499574 -2.5282366 -1.8283119 -5.618492 -3.3343997 -4.8658476
1331037 -5.2544355 7.649937 6.342641 -1.9987183 1.6090504 1.5486543 5.659968 7.280154 -1.2964169 -7.2229953 6.4663157 -5.7417836 1.3465397 -5.434149 -0.9799281 -10.922698 3.3570764 -1.0504603 14.487313 0.56675863 0.38657895 7.681146 -2.8310049 -9.80599 6.2753606 -7.7439065 -1.944678 -2.8136468 7.0822124 -9.710707 -0.46021962 2.1725447 15.848653 -4.037484 0.1409685 9.236672 3.6191363 -3.7623992 -11.643479 -11.276427 9.153312 -8.742459 -4.5039167 1.7081234 4.441543 -5.5960116 -0.46777385 0.9105699 -11.517979 -10.347559 3.8257644 0.45779023 -2.30697 2.8274484 -7.0915613 3.6182067 10.488401 -4.342217 -1.9694965 -2.5574543 -9.449186 1.6947235 -4.2899714 -0.2961024
910706 -4.0649743 6.539078 9.355695 1.9464135 3.8263354 1.871168 5.01646 5.8301477 -4.297835 -8.183551 5.7292256 -1.3874819 3.418325 -5.6463566 -0.81826305 -9.599199 0.28720602 -2.4816356 15.016314 3.9060013 3.4809167 7.341231 -2.239866 -6.165417 4.1162734 -5.316221 -2.6366973 -6.660603 3.4471402 -9.609716 2.816797 5.192596 13.63667 -4.3206387 1.3164661 10.607661 1.147932 -7.2323403 -10.919627 -11.96283 9.768955 -8.147147 -4.1779575 2.6239913 3.4476893 -6.439287 -0.8645218 -1.8466822 -9.419137 -9.0727825 1.1854423 -0.8856898 -2.4654112 3.4374497 -8.355582 5.1764684 9.125398 -3.7548609 1.0366234 -3.8375301 -9.719598 3.3816483 -2.7050526 -1.9117302
907055 -8.710056 10.11226 -0.8404227 7.6707854 0.77704215 -2.6387987 2.3024464 2.5654967 1.3164747 -10.2932825 10.529025 -1.8852774 3.2594926 -7.6724687 -4.0366697 -10.090895 2.3246284 -7.539845 10.034101 9.1637945 0.78906363 1.4719939 -3.112639 -3.9721122 7.382055 0.41578802 1.5358899 -3.5806563 12.218018 -0.61452526 -3.8046515 3.0860374 13.278417 -0.32930866 4.2268686 4.8160243 0.05274175 -2.0663238 -11.081081 -6.803185 6.2256017 -2.6191418 -2.7590418 12.866368 7.746452 2.46525 -0.5422734 0.24820998 -7.545783 -9.991706 1.4034563 1.2368276 -3.524459 10.519813 1.3211731 2.5367239 3.5919833 3.3926458 -4.0538273 -3.1452696 0.30725306 -1.1088992 10.53979 -11.537194
1240174 1.6580453 8.055415 -0.16574697 -5.1344953 -3.0330505 10.321755 7.2606673 7.0508623 -5.8741984 -7.6415205 15.254334 7.440473 1.6764277 0.9272697 -10.900921 -6.4183617 4.2310286 3.5466208 -1.2577751 -0.9459563 1.5600989 1.81773 -0.16573435 2.720473 1.9351338 -2.0441275 3.6705005 -6.4338593 0.7244154 -1.436567 2.5183632 1.5827683 2.7715812 -2.5948365 1.7888196 -2.6942155 -5.900781 -10.521617 -6.207097 -1.5773364 2.9518328 -10.217885 4.563106 2.4495523 0.13911991 1.0011778 4.897361 -2.6639125 -3.3219557 -14.355623 0.2064033 -2.2907684 -9.052207 3.4568887 1.116793 -4.30028 -3.927716 7.274297 -11.169839 3.666056 10.131943 -0.9800954 0.26622364 -2.9126742
905984 -8.5417185 7.3501735 7.428433 -2.1187768 -0.6586651 -5.7126727 -2.297712 5.336226 -5.378086 -13.282859 9.223691 -0.9208022 3.911883 -0.38237703 -5.378882 -9.896698 -3.7544274 -1.3932956 0.24120522 3.0043292 7.5050473 4.714571 -0.6363626 5.130842 0.98067 -0.60422677 8.865802 5.0450783 5.2002983 -1.6854489 -9.091463 8.338593 0.40547103 -1.4176288 2.9128604 1.885651 6.396383 -4.6514006 -5.151241 -19.10781 13.047696 -2.2221336 9.161318 2.4097495 0.9882159 -0.10463456 -1.4706093 -6.3232217 -1.1353173 0.46445328 2.4261818 6.3951583 3.3892195 4.0065727 -1.897208 -0.14863725 16.621647 -0.903649 -7.60632 2.948993 -9.110013 2.2114654 -7.0069165 -3.9049046
1297446 -5.286236 6.623955 7.356658 0.72048455 2.739892 6.2724757 4.640338 4.8316083 1.3165406 -2.9127336 10.345191 -5.1326323 1.1936249 -0.7439182 1.0389876 -7.821416 3.4505699 -0.8045523 14.270381 1.7170393 5.4828997 8.106324 0.8034556 -5.716835 5.0820236 -6.425731 -2.6515603 -2.25959 2.4950671 -7.3006377 0.18536454 14.061627 10.250753 -3.9383144 -1.990957 5.5958185 1.1876867 -5.2486253 -8.745643 -8.43296 6.0317354 -11.228404 -4.366455 -2.3334305 5.046671 -7.441734 3.3197527 -1.4322616 -4.134504 -6.487301 2.420024 -5.344561 -2.6141043 2.6637592 -3.097699 -0.086429216 11.998941 -6.568265 -1.964528 -3.3244963 0.34153488 1.0072191 3.0804558 -7.4848347
909715 -3.0068245 6.366389 8.772348 2.2847764 6.1785197 5.034673 2.9056504 9.424701 -4.810799 -8.424795 5.8707476 -2.4576619 9.82899 -4.8687634 2.6856573 -2.6420004 5.384399 -4.6795135 17.121552 1.0068337 2.1217484 7.5541058 -2.180292 -12.376656 2.3613033 -2.3334439 -2.1227112 -3.731711 1.9859633 -8.614996 4.4461193 2.7887301 12.835313 -2.0683653 -2.3942387 8.743197 5.9653025 -3.5894687 -6.1643047 -10.666774 8.725608 -9.660162 -3.5808837 3.614775 4.8910108 -5.745891 -2.0895314 -3.3585627 -10.477714 -10.211856 1.1106719 -3.5937521 -1.4161549 4.3511763 -3.1509254 1.3454654 9.8473 -9.889576 -0.5788906 -1.5500668 -7.456949 7.211866 -0.87588257 0.6516626
753548 -2.2858632 8.867631 7.0982985 -2.7965927 4.8572826 0.5297378 5.1743984 9.370384 -0.054399453 -6.613567 10.540978 -0.7423241 2.8897076 -4.188089 0.3784552 -8.204312 1.8374363 0.03143914 11.729661 3.8200498 3.0869272 2.7167692 0.48390552 -5.154907 6.4350305 -7.572022 -1.480344 -9.067655 7.2174373 -8.071061 5.1458807 2.762853 9.1675 -5.192593 -0.5207843 8.694174 -1.2925851 -4.0026646 -7.281153 -8.953732 10.740371 -13.701197 -1.3840793 2.933604 4.763658 -6.033158 2.1675282 -1.533097 -7.207653 -12.0509205 4.4360685 0.030363042 -7.1465745 2.891044 -3.8192792 2.1489313 8.236646 -4.0818424 -0.61941224 -1.2787998 -7.262569 3.3996594 -1.6650292 2.8980873
908443 -7.203418 7.793167 6.402462 -3.0492842 5.457397 5.3843284 6.669672 -2.925417 -2.2413037 -5.8024344 16.731712 -1.1490103 -0.98490995 -1.4200735 6.4852653 -4.4162755 -5.8158565 4.672624 5.6866336 0.19473591 -4.983465 2.7049716 -0.6990638 -5.179144 0.29736707 1.3201534 3.796947 -3.7707798 1.1337707 -7.276103 -0.3168114 4.5162783 10.0317335 2.5162563 1.2578645 8.241477 7.961274 -9.187583 -5.053497 -4.2421727 -0.93953484 -11.432095 -6.385122 3.2294188 -4.729672 -0.6760204 -8.418569 -7.3988156 -9.2552 -8.121735 4.1142926 -6.869135 -9.159925 0.50334984 0.5907001 4.101382 2.6077847 1.6533852 3.8815582 -1.7994492 -1.8663003 -2.3778183 1.3604945 2.6655958
1330947 -2.053116 9.183877 9.670004 1.2203537 2.6986032 0.7495239 2.86876 9.4378395 -0.41297236 -6.3806314 7.5029874 -3.070566 6.8491616 -6.459097 3.2834618 -7.3969774 1.796856 -0.14510868 15.472008 0.6601283 1.5303462 5.6412315 2.9111054 -7.812898 5.87781 -4.5812054 -4.3595753 -8.134439 4.772189 -7.4447703 3.8454626 0.56811637 10.314493 -2.4645188 -2.2224278 8.470731 5.8752136 -3.7536964 -6.8706946 -11.341662 11.975274 -10.674576 -3.9421728 2.7314305 4.902591 -5.687648 1.084486 0.37991402 -9.910273 -10.800474 3.6512845 1.0917431 -4.7892976 2.6154387 -3.3077793 4.000767 14.293694 -5.931511 -0.41917932 -5.0525904 -10.765741 5.1533275 -2.7991571 2.7927492
1240204 -7.5539074 16.73613 -3.1141996 8.104714 -1.5984766 6.4801564 -5.5263286 5.163228 0.29076558 -6.852546 15.898348 -1.4435447 -4.043739 -1.8810557 4.848814 -5.470908 -1.4712107 1.5171515 3.1591568 6.6792045 -0.11794548 4.2367682 4.577708 3.0553892 5.4276233 0.38723275 7.370044 6.778668 8.330218 -9.154102 -2.5847752 4.371449 4.0759516 -1.6775757 -5.6780405 -1.332171 10.279363 -5.1745853 2.77323 -8.874157 4.8124776 -3.6320856 -2.214409 10.984817 -3.1649418 -1.783122 -5.536169 -6.940124 -13.278033 1.6817157 5.69976 -1.2576677 -3.4372652 -0.6375918 3.1769025 -0.047886886 3.6572394 4.9602637 -2.2204869 -1.5833722 1.0004493 -5.7483788 -1.9189931 -0.8762328
909698 0.2551684 6.554709 -0.28082502 0.12306685 11.3484535 3.3984122 5.098763 9.23257 -2.9443486 -6.275366 10.320339 0.7829776 6.126702 -2.1748238 -7.5919337 -8.097516 0.31746373 -3.5173633 3.814642 6.4695773 8.359489 8.651896 1.4105847 -3.0012941 4.383327 0.613729 -2.6735234 -2.462037 6.927451 -4.0168624 1.8009877 1.5607628 5.8498096 -5.0279965 -9.595215 1.0101461 -0.32175773 -4.6187744 -3.8664432 -13.386193 11.138072 -10.3118515 1.9519671 8.980255 -0.44242728 0.7844522 5.4928317 0.42095485 -7.9951186 -11.057777 6.8341475 -10.359619 -1.0084443 0.27316606 -2.634923 1.2573736 1.2147641 -0.5642798 -2.726407 4.448489 1.1859937 3.4836845 6.9855647 2.752758
1331034 -6.3626432 6.3625617 6.216419 1.1886413 2.2026205 2.5823774 2.132702 5.6303473 1.7725842 -4.7059827 7.8303185 -4.515172 3.5508618 -5.2446327 -2.2866476 -11.016977 2.203814 -2.3290458 14.119534 2.3491096 1.5874532 7.227523 -2.0099592 -7.866531 8.617283 -8.318542 -1.1006614 -3.162282 5.6571665 -7.366996 1.8588293 3.117223 14.715282 -4.897882 1.4413567 8.223805 3.0267494 -3.6774201 -8.83722 -10.938187 9.869552 -6.311463 -7.075221 4.9590745 3.9364898 -5.4046893 -0.3916966 1.9197851 -12.476013 -12.42651 3.836804 -1.3916384 -5.2148438 5.6974196 -6.2984996 4.1523595 9.801194 -3.784938 1.3855963 -5.7110662 -8.671594 2.3291035 -4.0567837 -2.2424133
908442 -4.1600018 10.393679 2.5248415 3.7559514 7.7064557 -4.1166954 3.656864 -1.1688131 -7.2000437 -2.1356585 19.114098 -0.4832829 0.21701318 -5.82745 -9.362778 2.1877968 -8.249445 -3.0486238 -5.4591384 5.5860405 2.9652877 4.233119 10.96364 -0.12827033 5.517889 6.8426404 -6.0778856 1.2807457 2.5192225 -1.1344593 -4.0414324 3.5078712 8.445794 4.174376 -4.011918 1.4104191 1.1462727 -3.2341835 0.8641739 -6.7088614 4.5637083 -7.944396 -6.4639435 9.10984 -6.2360077 2.3317244 -0.35583162 2.0973594 -10.044634 -7.5564804 3.602016 -6.263854 0.31697002 0.21742828 0.92699903 -0.80994457 -1.0329095 7.5285354 8.799279 5.224639 -4.612489 -5.9818277 5.7887692 5.9333024
905952 -8.338446 5.968668 5.6310043 -2.2001443 0.90886074 5.5826716 4.327645 5.691927 5.391795 -6.1456857 10.953238 -4.6785374 2.9883769 -6.875156 -1.6205726 -11.433896 -0.44897965 0.62152237 13.68553 3.2469769 3.0025856 5.3129826 0.3367688 -6.902615 10.725736 -4.7931433 -1.6331176 -5.367114 8.004442 -7.0152993 0.39073935 7.3927045 9.398597 -3.2209425 -1.9028773 9.490801 0.8711148 -2.5505416 -10.290708 -9.187355 9.623021 -8.425969 -1.9493825 1.4448806 7.295636 -5.6436863 1.0648023 1.4002969 -6.405338 -4.812735 0.80276906 1.4904814 -2.494376 5.8036814 -5.802982 3.4584208 8.611108 -2.9211528 -0.018271836 -5.508618 -5.3747764 -0.8517137 -0.6469739 -3.3713775
949154 -4.598072 6.257674 4.788224 -7.240246 -7.90721 11.956238 -2.869812 -1.0478431 -9.662388 -13.0790205 14.3379135 -1.2800219 -4.767344 -0.9832133 -4.5129385 -7.3300138 -1.9316117 -0.91715145 -5.2294564 12.336517 -2.3327131 -0.029912833 1.1745353 -3.5789435 -8.4468775 3.7252183 -2.428011 2.94307 1.882026 -1.5307065 3.0428598 5.4263496 5.9746776 -0.9969031 -0.71331316 3.0021749 2.364298 -11.79797 1.6165493 2.7819238 -1.4213116 -10.279183 -9.42079 7.2476864 -7.757803 -1.1186146 -5.8951516 -3.9404726 -10.255139 -5.5828943 0.77908325 2.0785136 0.2511487 4.4023075 8.503395 -0.47590536 3.8706086 10.029044 2.342145 4.8043303 8.191944 -1.1861087 -5.349462 -3.4140265
753595 -6.924393 10.105835 9.711176 0.8610297 3.1742492 2.2208784 6.6755123 1.1390655 -4.7957244 -6.3675327 13.849544 -3.8401062 -1.1526843 -1.5948257 4.16786 -5.75539 -5.2349825 -1.0082592 5.1142144 3.9845603 -0.005834276 11.537971 1.5442748 -10.0658 2.551972 -1.0447867 0.31232026 1.4092562 -2.4228315 -3.8917005 0.13563596 5.948469 9.647723 1.3531791 -6.6217117 7.1164126 6.7620077 -7.2533917 -4.3819075 -6.611706 3.5853183 -10.714622 -2.8601913 7.1040416 -3.5010617 1.996639 0.29895183 1.6387094 -16.171768 -9.480323 0.33472276 -6.3399143 -0.08462223 1.2077575 0.89507926 5.813062 3.4681914 1.3708382 3.5896523 -6.79591 -2.745081 -1.4548402 -0.6620941 2.3037014
906824 -9.818803 4.1662145 5.192834 -4.103424 -7.4092736 13.7789345 -2.907923 6.9844794 -4.1656275 -10.645699 16.090218 -3.380503 2.0830545 -6.737659 -9.0427265 -10.248439 3.288264 -0.42813843 2.1750154 10.5714 -0.43990427 1.0250506 1.735369 -6.596438 -5.765044 -2.822679 1.8915857 -0.054730654 3.0355468 0.10657809 6.16605 0.95031106 9.020186 -1.0322975 1.4595081 3.312891 7.8095765 -12.44108 -3.4044027 -2.0888138 3.650841 -11.596262 -8.628392 1.3882589 -2.1296916 0.6420056 -2.8413455 -0.52099115 -11.20565 -8.029711 -2.8432515 3.2835302 -2.6841228 6.455923 4.1090174 0.84231967 6.9700246 5.4224596 0.964652 1.7159271 6.983072 1.8022105 -9.474649 -8.032302
907048 -1.9543961 8.845239 7.1404114 2.8401556 1.8040748 0.35908478 1.1874049 -8.842296 -9.627431 -6.6246595 16.388416 -1.7986827 -7.8626585 0.09102635 9.682577 -5.7316194 -7.9313593 -3.0600054 5.2044864 4.448101 0.6166248 -0.5050539 -0.26537722 -4.917133 0.886444 4.9163857 3.603893 -4.1308966 1.5527359 -10.948893 -1.2435478 8.203668 7.780075 0.856129 3.7672255 2.8514845 2.792444 -9.660684 -2.5965981 -2.1974075 2.2082214 -10.605794 -2.3492553 3.6364048 -1.3063169 -0.56633806 -9.3392105 -11.757891 -10.200982 -2.8863456 0.5929189 -3.7993567 -2.4468772 0.9529357 -0.37651545 -0.07576668 3.7644238 6.5625176 -1.319497 -0.3107803 -2.6780076 1.544502 5.2221737 -0.9033471
908450 -9.699066 4.836577 5.4768357 -9.243467 -3.7992184 -3.2682872 7.785623 3.8579686 -7.229196 -7.2119584 10.285371 -2.3460257 2.4525726 0.061162736 -4.2880692 -0.91035223 -3.4110265 -4.5197663 -0.53272974 -0.19198336 6.7322445 3.5782914 2.5192513 1.8028457 -0.43624854 3.121926 8.695444 8.549034 3.9225063 0.12893108 -12.867303 3.9734316 -3.7659628 -2.5188887 4.7990985 2.6045327 2.63219 -2.13324 -4.832772 -14.162108 5.6908574 1.1783726 13.091222 -1.573039 -1.4051573 -0.34135064 -0.12745695 -2.7867558 -1.3124375 1.8938708 4.005811 6.424216 7.054915 2.573752 1.8158628 -2.6704345 9.839984 -0.95395756 -8.339132 11.15458 -10.233017 -1.286432 -6.784606 -3.211721
908134 -2.310321 8.440345 8.4521675 -1.7850624 4.757761 8.578973 4.787098 6.7912593 -1.9931674 -8.857096 10.401769 0.2750911 -2.7238836 -5.9564004 13.809248 -10.828692 -10.958918 1.546671 10.58896 6.4227104 -2.290288 4.2761974 -3.1247427 -1.3671759 2.1484945 0.056354377 2.4461977 -4.6736293 2.604281 -7.742476 7.29391 5.3563404 6.8661914 -1.3650527 -0.85417897 10.18025 4.8475847 -11.507901 -12.120221 -7.718949 4.3821096 -5.595625 -5.775977 5.8299565 -2.7428248 -1.6581007 -7.8589983 -6.3294196 -7.1778383 -6.5329256 4.129487 0.42666996 -2.3529665 6.0042577 -2.3951602 3.9561186 8.193659 4.5761714 8.97607 -2.5631762 1.1192642 -1.7545527 7.262582 -0.6160326
909252 -6.9536557 6.551915 5.616779 0.5794638 4.352853 5.1430016 7.3602805 9.226773 2.774595 -6.3284464 10.249618 -2.435411 6.2541165 -7.3698015 1.4471767 -8.377922 0.094085395 -0.3449625 14.3951 3.1222036 0.9845836 5.970428 -1.6419597 -8.60348 5.3513713 -6.8705654 -1.6454221 -5.780851 3.88294 -7.2936687 4.1691117 6.2872095 12.077616 -5.668161 -2.9553938 8.343997 2.1311884 -6.149967 -10.70231 -9.942106 8.4475 -10.213116 -4.8393164 2.1991153 5.9246964 -4.0982103 -0.046703912 -0.38893226 -7.917397 -6.328526 3.8094 3.7504432 -5.705761 6.5374203 -4.2435756 4.140112 8.87452 -4.6042204 2.6762736 -2.8723931 -2.666705 -1.2720889 0.45313513 -4.2086754
910710 -5.3917212 10.655184 8.351856 -3.2627861 1.1756219 2.0146754 5.353817 8.230774 7.1291175 -5.94475 9.621082 -4.9676924 0.018798428 -4.917751 4.037071 -11.117638 -4.1242485 3.403458 14.518646 5.4128137 3.4795442 3.31823 -0.89828616 -7.2405066 6.527816 -6.840582 -4.1784782 -5.617897 6.9618487 -7.5204644 -0.75687355 5.4410205 7.512998 -3.1596358 -2.6487458 4.3835564 3.5269861 -1.3237263 -11.517037 -9.100449 11.7484665 -5.0081635 -4.939038 4.69038 1.9111462 -4.6915545 6.0679684 5.28868 -10.504124 -4.965358 5.4967136 3.8290417 -5.8385906 3.2869546 -5.982525 6.742663 12.331499 -0.37066388 1.8878965 -3.8156857 -6.751804 -2.4147093 -2.107679 -1.0139265
724839 -7.1747603 4.6826 4.2978435 -6.1733704 -12.906926 16.621996 1.2311987 2.9777446 -4.9481077 -8.938918 17.64049 -7.1347947 -1.1941032 -5.0178466 -7.838137 -6.238594 0.91029805 -0.046575837 -3.2213838 9.293031 0.57547814 2.5636377 -1.1938174 -1.1269082 -2.3107812 2.5011783 0.21357758 5.192077 4.854941 2.2060285 3.2621737 -1.3953599 3.9165978 -2.351443 -0.8554562 -1.1352574 4.846788 -10.514684 2.7613373 2.3937304 2.1482835 -7.637894 -9.07904 5.864396 -4.9454727 0.38616472 -4.0427713 -1.2895621 -10.3947525 -7.9379096 -2.6550663 0.4466135 -4.602345 6.8096647 11.505244 5.627574 1.8979943 11.510325 0.14731872 4.2527003 7.6286497 -0.09660555 -7.661411 -5.1330466
1240189 -9.959657 2.4681592 5.2301846 -1.5349078 9.093633 0.9465095 -1.8249224 2.7570755 -0.3632245 -6.202653 7.8671393 -6.704003 1.5105453 2.259733 1.175246 -1.944272 -2.1786287 0.016087446 12.975988 0.63274556 -1.7339381 -1.2161437 1.0006913 -4.4384246 1.8133216 -1.2699237 -0.24005781 -0.69835466 3.095607 -7.138421 2.0377908 5.462593 10.575452 0.10800879 4.870352 -1.845907 1.655843 5.167457 -5.6370387 -10.317636 6.618673 -9.626806 -4.762443 -0.6870453 2.874699 0.60175455 1.3003808 -6.2296553 -6.185226 -11.416744 7.01099 -3.8243463 -11.903851 1.8454692 -4.593189 7.062449 11.790681 -1.3537688 0.8388113 3.1780663 -1.4829533 -2.8432052 -0.03263489 -5.9578457
908158 -3.8800607 7.483354 7.462762 1.6977389 7.568863 2.7157478 2.2101815 9.499201 0.18233791 -7.473868 8.306082 -3.070781 6.8023453 -6.058829 1.4111065 -9.23089 2.858386 -4.149533 14.598283 3.828725 0.41249046 7.5663505 -1.7597213 -7.3097396 6.6416664 -6.9986043 -3.3736248 -4.005363 6.263735 -6.3160396 5.3252935 4.3395867 16.225681 -4.3443766 -0.40134984 8.864306 2.4510999 -4.6590705 -10.408872 -9.50157 8.571431 -10.429315 -2.934281 2.1560266 6.9909244 -4.9094625 -2.1875641 -0.508127 -7.8734903 -9.3328 1.3004178 0.19935016 -0.56051356 7.238973 -5.9668083 3.999891 8.996276 -6.667042 0.67689645 -5.4231668 -5.3845825 5.086594 1.8088772 0.1892743
908148 -5.1373663 7.828547 8.465197 3.2239423 6.4572816 2.4301152 -3.9284675 4.478658 -2.072317 -7.507369 8.444519 -3.4267085 8.419021 -5.316713 3.3722394 -10.529188 2.2626917 -1.2321267 12.303387 -6.203515 3.8419774 1.4732399 0.42021555 -2.9499724 7.2185507 -4.180597 -1.634212 -7.1320534 3.2331862 -4.3228216 3.298274 3.3860126 11.583174 -3.2349045 -0.7500613 6.7653656 3.683955 0.8027134 -3.4212794 -11.356322 13.890556 -10.994896 -3.3510883 5.724589 4.4647017 -2.1043773 -2.2357883 -4.2468815 -10.074647 -12.817777 2.085615 -0.62471807 -10.169121 -0.7348984 1.0884702 2.9321706 12.565961 -1.8576689 2.6326663 -3.2420352 -5.976902 4.5200224 -5.127365 0.5494551
908448 -4.501048 8.3927 8.640339 1.5238076 3.8095875 3.9594824 0.4897976 8.065129 1.9916285 -8.686621 7.8322754 -4.5806518 11.0884695 -7.1271143 4.0898666 -7.4693785 1.6470169 -0.7519309 16.8805 0.099750504 2.1200376 3.4640634 -1.144248 -6.9988337 10.01389 -4.9114976 -4.131971 -6.6433554 3.9562964 -5.7446637 7.2843165 0.9379726 11.189544 -2.7834368 -1.7299229 8.131887 4.4291964 -4.281548 -7.699097 -8.583192 9.642388 -10.379764 -3.1571634 3.6304424 3.8301663 -5.33305 0.97518414 1.52061 -9.300935 -10.147697 1.5278486 3.5533028 -4.3563914 3.8197877 -2.7077696 3.212409 11.328797 -5.0898547 1.0486313 -4.0219173 -8.910327 3.1974323 -3.4574783 2.4716876
907277 -4.800355 7.8352404 5.9907885 1.609608 3.9210944 5.311506 3.8111658 8.958852 3.3118052 -6.998497 9.889714 -8.992911 5.767641 -6.528763 0.25652114 -9.837129 2.6604178 0.8343832 14.8812275 1.4139239 0.6478998 6.2747064 0.13283522 -7.612148 9.844595 -6.581955 -2.2328703 -3.8338075 5.2850647 -8.999407 -0.27421328 6.0604615 12.340514 -3.8867078 -1.960169 8.072032 1.2970115 -5.451614 -11.759238 -8.638658 9.101305 -8.936944 -2.8423796 0.11052401 5.7961593 -5.6276245 0.0047099506 1.636048 -6.430967 -5.840246 2.3727472 -2.0474653 -2.1151717 5.0346236 -6.655511 3.2321136 10.045551 -4.8331013 -1.1128097 -7.11313 -5.575831 1.3471501 -1.3549349 0.4380386
1330950 -4.7540374 4.854009 6.818981 -1.5518519 2.7368498 4.7765465 3.1303732 7.5292234 1.9986585 -3.5088627 6.737037 -5.445943 5.4379234 -3.8900986 2.7178602 -8.682109 1.4500949 -3.2398725 16.772968 2.7967532 0.46306735 5.0657153 2.0797112 -12.569228 1.9994076 -0.920169 -1.4446995 -2.8056908 3.7823808 -8.138756 1.5775048 6.744383 13.756608 -4.6205544 -0.5164738 7.725184 6.7338686 -6.2977014 -9.369626 -10.7234745 9.150196 -9.106446 -4.649752 -0.6537701 3.4971056 -2.62787 -1.49097 -0.2426788 -8.901421 -9.009727 2.048765 -4.7013993 -1.6980371 4.0148797 -5.748801 3.7435486 13.094802 -7.954015 -1.5160016 -6.1927886 -4.4361496 5.4644938 1.9213613 -1.7823378
909718 -3.5585587 8.383595 3.316479 2.9385006 9.890901 2.4536064 3.3954277 4.794092 -5.481906 -5.6072693 17.740055 -3.594183 2.4017828 -7.8669586 -5.602054 -0.44322765 -6.5324163 -5.4023213 -1.9866188 8.497118 8.223454 3.867963 9.807316 -2.8202217 4.6660686 4.7186003 -5.8863373 2.1079552 -2.2582498 -3.2777336 1.3083979 4.5181785 7.544907 0.030990046 -8.319782 1.0723705 -0.871308 -1.2998173 -0.96327215 -8.482581 8.771647 -7.035387 -5.8619637 9.507058 -3.208778 4.200664 1.8146704 0.596924 -11.116097 -5.968626 3.2708383 -9.325291 0.91448444 4.0681357 1.2076625 0.4499732 5.688792 9.046329 10.561625 6.634464 -0.81539536 -4.2605844 6.694613 4.3515954
1247871 -5.8122067 8.09815 6.635948 -0.91577286 0.9611619 3.6409109 3.7858155 7.476533 3.693299 -7.1398573 7.8205695 -6.8637342 4.5954127 -2.4748306 2.747145 -7.4336653 4.468822 0.11346618 16.004156 4.265574 -0.5338127 6.079992 -0.64751196 -8.48277 5.874074 -6.278082 -4.6124578 -3.3367195 5.1674104 -5.653137 0.8119701 3.9019043 13.976428 -2.161454 -1.2381483 5.109992 6.572208 -2.5170763 -10.377112 -10.148685 9.421011 -11.401876 -3.0982485 1.0726533 6.613908 -4.349522 1.5984977 2.2640133 -6.483794 -9.168423 4.147818 -0.98732597 -3.6361537 4.1658454 -5.4899306 4.2298985 12.995762 -5.942923 -2.1655831 -6.019772 -3.0667517 2.1004684 -0.7937198 -0.04467632
949090 -4.8686705 8.950263 6.3592377 1.5590657 0.43388212 6.0356236 5.472471 -8.536926 -7.0197988 -4.753918 18.067432 -4.3281436 -7.242744 1.360081 4.747203 -3.0998356 -8.121218 0.5599684 1.2098539 4.4881716 -1.3372316 3.9731905 0.7132054 -3.5596309 4.3996015 5.13403 0.37291387 1.6336757 -1.4222102 -9.32268 -3.151566 9.652612 7.1019115 6.133212 0.5298229 0.11723827 4.1241236 -8.477769 -2.653088 0.8425373 -2.3961875 -9.211078 -5.2151403 5.1408887 -7.6869273 1.6104308 -4.211726 -5.249763 -8.111912 -4.914164 -0.7567734 -7.387153 -0.44527903 -1.2082902 -0.2926117 1.8444018 0.089025825 9.639632 2.6582582 -3.1034887 0.33740357 -4.204002 4.48472 2.5535576
1322224 -6.749203 14.852237 1.8842925 5.8164573 -1.4425607 -7.209526 10.040467 3.0981748 1.4839829 -7.0655274 8.863061 -2.412335 -2.977731 -7.422266 0.12684774 -4.1351857 2.8505502 -3.4676063 7.803807 7.53905 1.7311171 -0.67609155 -2.0321212 -0.6170343 2.8263178 -2.365789 -1.7987775 -4.49849 7.6740255 -4.464072 -4.7804556 5.723501 8.596467 1.7767187 2.7779858 1.3303684 3.8659723 1.126263 -9.999178 -7.4705625 10.573192 -1.8990436 -5.702496 12.968117 8.039042 2.2327356 -1.8853104 1.4205174 -7.7108316 -7.6726 7.3259606 4.1905017 -10.107031 9.10071 4.7429876 5.477367 4.07084 3.6657326 1.6304691 -1.1536607 1.3544238 -7.232415 6.8513117 -9.872765
910687 -8.815016 11.119982 8.318635 -1.8447825 2.8939257 5.1919336 7.3873854 2.6884098 1.8165317 -3.77852 17.528543 -6.11244 0.18461616 -7.225851 -0.40083578 -9.922404 -2.5138495 1.0809693 7.185526 3.1726427 0.57208234 5.469654 -0.18416071 -6.8265724 8.073972 -4.494104 -0.3171768 -3.4110494 3.9701426 -10.09734 -0.16551654 3.4688363 12.159344 -0.062034566 -0.650066 7.6696854 6.2195134 -6.5712523 -8.729561 -6.119949 9.104262 -9.65759 -5.2980704 3.6723633 -0.7894018 -5.420088 -2.6641188 2.0757587 -8.460029 -4.7901087 -0.92462856 -2.111331 -3.2913885 0.66853654 -2.8387623 7.2998285 7.5053616 -0.4093401 6.7618713 -4.151444 -5.3757887 -2.2097676 -1.4714252 0.9278257
1298167 -6.9688587 -2.0194519 9.246759 3.9333186 5.653692 5.1491075 0.798569 -6.202797 -0.5579781 -3.2982826 11.798898 -9.855924 5.1108336 -2.367451 -2.7433662 -4.257465 -5.7486076 0.9645576 9.963023 3.21152 -0.5597227 4.2731357 -1.8373969 -2.0242646 11.256788 1.4350837 -5.176985 1.8755734 8.955539 -3.6763237 -0.38828245 6.3582535 9.21944 1.4766512 -1.3971109 -2.820465 1.557192 -3.7076316 3.382924 -3.1605053 1.4020742 -9.017268 -6.999701 11.380553 -4.125391 2.959174 -6.935912 -5.492031 -8.426207 -7.1706443 8.322059 -7.660088 -8.772548 5.5452743 1.5975744 2.6578972 2.9010751 0.9849603 -2.3328485 -3.722195 -4.569166 0.5936274 3.757874 5.7173257
908145 -10.817062 4.988105 9.354326 -4.3305793 1.855978 -3.0132568 4.932676 -2.3001096 -1.2727503 -14.362409 13.098671 -2.5482957 3.4533954 -3.4018688 -3.5010138 -8.220704 -9.419357 -1.8057007 -0.7487383 1.8185658 6.972572 4.9887033 -0.5090977 1.017534 4.54065 -0.44562978 5.185522 5.750032 6.083771 -1.0604355 -7.867899 8.163226 2.3605223 3.1877906 3.3093057 -1.263217 5.3992877 -4.9203043 -7.2808256 -14.67338 10.11586 -3.6752467 4.0956326 3.546137 0.30398354 2.98412 2.2071686 -2.4674468 -0.6636424 0.67103386 3.9409487 13.921133 7.5778923 7.9332347 -3.2092495 -4.874167 11.87707 3.3172917 -2.5606554 5.4439874 -11.097548 -5.702922 0.3213181 -1.9727671
1240161 -12.988968 12.684395 -2.2057655 5.0400944 -1.4336865 12.39004 -5.840568 7.6136847 7.016499 -4.489558 21.196306 2.382343 4.7001405 -4.6208897 2.6497145 -3.6609008 5.247296 -3.0730038 9.638222 6.803012 1.2970729 2.559823 1.9211459 3.1896868 9.575706 2.7525077 2.0968728 5.9100513 10.478678 -6.4517455 1.2224559 2.4472623 5.613937 1.3858342 -4.573286 -0.5877586 10.507444 -0.23304933 2.4513164 -6.923885 0.24417628 -3.903973 -2.863122 9.055597 -0.969748 -3.5625954 -5.0452566 -4.998108 -11.781319 1.3280947 3.383519 -5.9070935 -0.06793668 1.7691379 0.72976255 -4.6441603 2.1412263 2.5459144 -0.5381432 -0.73320264 -1.5304489 4.3249593 -2.9160018 -0.6118999
1298222 -5.9126496 5.540033 10.692579 5.8681755 6.827681 6.713572 -1.2372708 -3.7289588 -7.2258935 -5.668731 20.120605 -3.902922 0.55449283 -1.4110069 4.106518 -1.6815451 -7.792697 -5.67402 4.154356 1.8073454 -1.5678196 7.6364164 5.1209464 -5.102235 4.202796 3.1842954 4.740724 -0.09630874 3.209443 -2.4523544 -2.971962 7.8340716 10.404295 6.3073134 5.6392646 8.337345 1.6860125 -5.8539333 -5.3928237 -3.5623014 1.8742261 -4.1419773 -3.3857446 5.5853267 -1.8350693 0.23652871 -4.2393694 -4.5184383 -12.288439 -10.028291 -2.292533 -5.8341427 -0.68184775 4.3700833 -4.1925154 2.4868987 -0.779243 1.8024563 3.8758917 -3.2811015 -2.7358425 -0.72389734 8.259703 1.5147095
1330982 -6.878081 6.700587 6.329801 -2.2165284 2.7810001 2.5510836 6.7126946 6.885304 1.4186931 -6.6755314 8.688175 -3.8460875 2.3878913 -4.5370994 1.1419187 -11.153913 2.6785321 -1.5429039 16.091955 0.11367721 2.9638622 6.2415295 -2.2465227 -10.644471 7.4606996 -8.00717 -1.221841 -2.68024 5.0275235 -10.156098 2.1321607 3.0149043 12.976888 -4.930051 0.33385757 7.665487 4.66236 -4.1054306 -11.674001 -9.810971 11.738024 -8.652872 -3.2285693 -0.10108981 4.0870624 -4.0993114 -0.86938167 -0.17769091 -8.371192 -6.624731 1.1749045 0.60751987 -3.3021617 3.9646702 -3.759779 3.6548886 8.8299 -5.7331085 1.2093902 -3.8789072 -6.624472 2.901073 -2.700187 -2.4580753
753535 -9.848187 13.871282 -4.7260194 11.657913 -0.3935738 9.436086 -9.632998 7.4768534 4.2904253 -7.426859 12.167055 -2.7374094 3.553692 -0.51392466 1.6933726 -0.32767528 4.4745436 -1.0717508 5.4599204 6.738213 0.13932198 2.783334 4.52646 1.5543472 2.6885242 2.9192157 5.5563307 8.144393 8.660042 -4.98238 -3.991579 3.7902455 4.877376 0.027621657 -7.7127233 0.5823528 10.242209 -2.0311003 5.145144 -9.748157 0.23000172 -4.861308 -2.7121563 9.702097 -1.7079397 -2.865864 -3.410582 -6.0395927 -11.413618 0.4797655 8.550143 -4.3601623 -3.8602352 -0.01967058 1.7612014 -2.3954804 5.2131524 1.6331037 -3.4396896 -3.8456988 1.4563081 -2.274349 -3.336407 -2.6588473
907789 -5.169739 9.39287 4.503584 -0.64248496 3.3038516 4.4217367 2.3182917 5.5174093 1.2764313 -5.096965 10.122974 -7.954526 5.121987 -4.9885287 1.4972134 -9.277157 2.5480983 2.1104228 11.649318 0.9244047 -1.6315407 7.122647 0.95838004 -7.6062627 4.0344024 -5.899254 -1.844438 -2.4592984 2.5978012 -10.39512 0.6833792 9.584316 14.878607 -4.9029484 -1.7207603 8.334976 5.061529 -5.8879833 -11.824482 -9.602992 7.5480285 -8.765484 -4.8870544 -0.25047857 5.3769045 -5.420789 -0.080325454 0.14133777 -3.4762092 -6.2122593 1.131694 -5.1064935 -3.1545932 3.376839 -4.863771 1.0429964 11.917537 -6.2183 0.06303352 -7.112546 -4.953244 0.122074045 1.0967801 -2.402872
687819 -2.899196 5.0677204 5.3194537 8.517849 5.6716256 2.3089898 3.2903419 -5.5466113 -10.0625925 -7.81891 14.847556 -4.054639 -1.6923479 -1.4214498 0.6421344 -1.7678981 -7.1229763 -0.8447675 3.8591208 3.0965629 -4.873488 7.4033227 0.29666212 -1.7232476 4.2888737 -4.0839386 4.30832 -1.5680151 1.311883 -1.5778972 0.07282373 3.6886768 6.8778443 3.7470107 4.5110264 2.0002227 0.042507354 -8.276544 -4.599932 -1.459018 -2.7701352 -6.562053 -2.0938094 11.524607 0.16596903 -1.3264599 -0.5869006 -6.3713803 -11.101958 -11.21496 3.2294831 -7.06582 -8.396063 2.9986944 -3.1324103 1.3348342 -3.6064022 5.5917916 1.1810634 -0.19819471 1.2430433 -5.6345363 6.914738 -0.09502949
749709 2.949756 7.4321856 -2.1968374 5.7326074 -0.07024247 -0.10943309 -7.655582 -9.793367 -7.453779 -9.405954 12.720262 -2.7226481 -7.98662 -1.9713068 8.102315 -5.8440228 -4.2928886 1.445871 0.8355589 5.390934 -6.092676 -1.2537346 0.97993135 -6.2451468 2.953043 4.2931037 2.189858 -2.9292681 1.534254 -7.121164 -1.0291684 6.842663 6.2651424 -0.6096506 2.0678604 5.0178666 0.260207 -10.2564335 -1.7093563 -2.631873 3.1431522 -10.633334 -5.610061 8.045467 2.8189054 -2.459331 -5.3504705 -14.750052 -10.072392 0.99906397 3.3537667 -7.703729 -2.9476206 1.3445169 0.010931975 -3.4991515 7.262109 7.936698 -1.0626299 -0.2196032 4.3232427 1.8925173 6.616371 1.854431
910936 -10.38892 17.058216 -3.2480948 8.773394 -2.4095619 6.111558 -3.2196314 7.3098793 2.7342374 -6.8022337 17.47916 0.45293477 3.2791555 -5.431611 1.688072 -2.1654494 0.5937346 -4.530599 6.9680195 7.7126193 1.4877237 0.20085225 5.7720957 2.8852556 9.245825 5.5829864 -0.7576861 10.834892 9.437511 -6.2564754 -4.2131677 1.2368498 4.2521358 2.897142 -7.135252 -3.710483 9.344244 -0.40728083 4.4243426 -5.217384 -2.0822897 -2.5417395 -5.197784 11.275036 -3.832338 -4.171138 -4.7510047 -3.53598 -12.286118 2.6395454 6.401971 1.2502298 1.4161267 0.09433455 0.82619846 -4.595298 3.5223336 5.627133 2.212334 -1.7827942 -3.4345934 -4.425021 -4.129704 -1.2922292
946358 -6.6819987 8.41795 5.8779964 -1.3802676 0.08886456 5.186482 5.856927 1.8022478 -0.65507466 -4.8646927 12.6908455 -9.015349 0.9460846 -5.996338 1.5001619 -9.872922 1.7744702 0.5239489 11.639605 -2.7485905 1.6780593 4.8507347 1.6119138 -7.772314 11.120344 -3.8526707 -4.204658 -2.0436118 3.2223282 -11.427931 -2.499024 10.194127 14.490706 -5.754604 -2.1907713 5.9791474 2.960538 -4.9661517 -10.018622 -8.836607 8.395848 -8.492974 -6.3671227 0.47862694 4.757817 -4.151438 -0.5585609 0.6495552 -6.264502 -4.4281635 4.2768974 -3.7172601 -3.7636285 1.9997766 0.7529183 -0.3497044 8.206287 -0.5103083 3.2629285 -3.4959867 -7.179807 -0.76809394 -1.6305962 0.6202878
925340 -4.3780212 9.654461 0.97406685 3.5082145 5.2076445 -6.57386 7.590273 3.9508986 0.15057889 -5.8588457 7.154826 -4.6177382 0.095095284 -3.1680877 -4.9672403 1.4355482 3.9689186 -4.1711025 7.8304777 5.8121457 1.0468061 -4.374245 -2.7608964 -2.377327 -2.4419742 1.0415618 -2.6219108 0.899019 8.801553 -0.1001914 -8.91547 1.2476693 8.665175 5.951022 1.9965326 -5.0988455 1.7712698 8.129756 -7.7132745 -4.1446877 7.209211 -6.417754 -3.5687287 9.728072 4.530918 3.734709 -0.4598835 -4.485854 -0.031378668 -12.65438 2.5390468 -0.5150455 -13.557638 6.629489 -0.828379 3.9223826 5.870294 -1.0601879 -3.04235 2.0085022 5.001163 -9.271666 9.329234 -12.520586
907275 -4.3748717 5.7545924 4.243821 3.5405297 8.1171875 2.8265672 0.97477186 4.2948475 -0.7232833 -9.06983 6.4650674 -6.9546514 12.366608 -5.222297 -0.72525895 -8.000279 -1.3747407 0.972531 14.699569 -2.4851685 -0.026645029 1.7785263 0.36065423 -3.1527717 11.858244 -4.380181 -6.1656427 -2.1960177 5.382743 -5.7651296 7.9405084 2.635256 12.685764 -3.2660332 0.0078860475 0.4179085 -0.18526591 0.2540967 -4.7710648 -9.614968 5.3608317 -12.654143 -8.44025 3.3605113 4.9271703 -2.4277391 -0.5100404 -2.0002618 -7.1147766 -13.993891 7.9687514 3.6011322 -7.910973 3.486334 -4.8654013 -2.9083195 9.921161 -0.597781 -1.2942727 0.073325135 -8.008774 -1.5974615 -3.4540849 0.2969435
906870 -1.0668677 12.144082 8.458823 3.131266 6.5102463 -1.9662068 -0.06659739 10.726464 -2.3330646 -8.022365 4.0108786 -2.1497185 8.194315 -3.7128906 6.6943946 -7.9584413 2.0631073 -1.0028725 13.820172 -3.3043373 1.5088656 5.0249906 0.51628774 -7.29985 2.1152754 -4.6966643 -1.1508411 -6.6137896 0.6000853 -2.7541997 4.43747 3.0519564 11.914785 -3.979865 -2.4332209 10.528201 7.09966 -3.195258 -6.1718903 -11.522901 10.021444 -12.304887 -2.4034925 1.8677114 4.734644 -3.054887 -1.3349758 -0.6599162 -10.915375 -13.353305 2.464008 -0.84642136 -5.820765 0.23762274 0.018810766 5.0134854 14.158328 -6.772102 -0.73646784 -5.0750737 -6.215879 8.166223 -4.669989 2.6603987
1298533 -6.516156 4.562313 5.327325 -1.9116038 1.5569351 7.6125684 4.755709 -2.631041 -4.310554 -2.9879353 19.401718 -6.0761385 -3.1670654 -2.2514043 2.2005298 -2.0109658 -8.239074 3.19755 0.13212132 3.2806058 -2.2487268 5.4077253 5.278382 -5.4585147 2.7017026 4.9568253 1.2721653 1.1356956 -0.28676856 -4.849517 -2.6640136 6.711202 1.7319151 3.4833753 -4.6063395 5.595212 4.945638 -6.8362546 -0.976939 -1.5426221 -1.2561182 -6.269706 -4.979531 6.4044437 -7.051378 0.9027913 0.46112475 -4.0734367 -12.634325 -5.4097805 2.1374667 -10.51246 -5.4691486 0.98827654 5.182469 5.013905 0.73318976 7.830219 5.0709047 0.8013425 -0.44369215 -5.771354 2.4850857 4.26006
1240153 -5.780767 5.1349015 10.368532 1.8958702 4.24336 3.1376295 3.5354435 6.7275453 -1.1981694 -4.096488 13.041193 -0.1561508 6.739553 -2.7883067 -4.644088 -6.171754 -4.6265054 -1.7399873 15.842705 1.3056029 2.0539236 2.6116557 -5.391739 -0.80222356 10.652239 2.7974234 -0.84310275 8.342581 6.8685226 -2.2622168 -1.6485317 0.26691735 3.045152 1.0910536 1.9511156 -11.580488 -3.2377672 -1.2539116 -2.8483534 -6.766992 10.997142 -3.5282714 -0.9280223 -0.46443614 -1.0602115 1.7545863 -1.5691543 -9.004769 -1.3512664 -6.5258517 2.801416 -4.8323965 -10.249055 6.0463595 -1.4652703 11.109202 8.405296 -1.6290189 -3.3650575 -7.09304 0.73597425 2.8435547 -1.4159777 -7.652457
905971 -4.349234 6.6362605 -1.4321339 1.2592903 6.8251586 0.50716895 5.680961 3.9483774 -3.396958 -2.2014117 10.06851 2.2627194 2.1759114 -2.7100873 -10.196754 -1.610873 2.1817482 -5.876977 3.3687842 2.7753012 9.880485 4.572995 5.043217 3.061519 1.1845975 1.3875554 -3.450964 -3.7454565 4.4744024 -2.8135366 2.4052696 6.664309 4.1915636 -2.8850808 -3.9371939 -1.7849668 -4.5321503 -5.0500855 -2.378521 -11.793742 8.3351755 -9.766611 0.39212784 5.3179584 -1.346842 1.5106983 7.742572 -1.4877658 -6.430757 -12.370035 6.476717 -11.272069 -1.2688752 -1.4210836 1.8201016 2.5830038 2.4312766 3.3199902 1.456503 11.583536 2.9310417 2.1153765 10.999294 -0.08520238
906863 -11.772926 13.844487 -3.9129188 6.6530313 -5.181218 4.739696 -2.3660614 7.7184787 3.3178935 -4.8209596 17.46266 3.5054677 -1.7488366 -1.9047996 4.1870956 -5.348822 0.6822522 -4.130725 3.9564726 9.663773 1.7238041 4.781638 9.577424 0.19839792 4.9647775 3.3892732 7.341579 5.7250204 6.0082874 -4.785555 0.86078423 4.790964 -1.3716183 3.4122999 -1.9034921 1.8210543 8.098095 -6.244059 5.177017 -4.8483577 1.0763978 -1.571172 -2.6257048 11.462674 -0.54542947 -6.987856 0.56197673 -5.5078244 -11.167012 2.7414455 7.8149056 -1.0121776 -1.9596436 1.6474129 0.6020272 -4.1228867 5.4651484 4.743496 -1.0746033 -0.91427 1.1593863 -3.8667333 0.072400026 -3.1496332
722066 -1.9816339 5.3158264 6.0373816 7.6919284 8.861358 4.2536087 5.9660797 -7.845543 -6.8396215 -6.8982964 15.018819 -3.547853 -2.0482206 -2.7184682 3.0740378 3.6187725 -8.238464 4.9055295 1.2287233 8.484647 -3.64476 5.9558363 3.777398 1.0176884 2.4044814 -2.7310443 0.23160595 -1.9541256 2.5377169 -1.8064499 0.37557563 5.4368653 2.0867674 5.5939574 -3.8302457 3.1408682 0.24994959 -6.863101 -3.3080652 -5.1974907 -0.7273469 -10.6493635 -5.487811 7.9592986 -0.2596105 -1.8023489 -0.873785 -6.5635343 -4.1393185 -3.8812923 4.8295493 -4.577989 -4.82596 3.82762 -4.2675323 2.8892834 -1.4815657 3.7688956 7.9511127 3.5347064 2.248773 -11.304829 8.395182 5.2841873
907282 -7.2020216 7.3410945 8.072019 -5.8072176 -5.902384 -6.877956 7.0364227 1.313722 -5.51419 -8.578301 6.886792 3.492012 -1.1035117 1.0474759 -4.928475 -5.4200473 -3.3772626 -5.477579 -3.157015 -0.38827926 8.92283 6.2021465 -0.81901705 0.43995687 -2.6266372 4.047101 8.302089 8.112843 2.3363066 -1.3325078 -12.401728 6.285402 -3.3505712 5.554786 4.088368 0.20739177 6.0335712 -1.2716043 -3.0900486 -13.29727 6.4997773 3.0327423 8.299674 -0.9591798 2.4147825 -1.5770308 3.6722288 -5.244329 1.8998501 3.4270947 5.013428 8.099876 5.5486283 1.7174449 -1.1954972 -4.213417 13.329226 0.7513933 -8.236568 5.2256517 -10.637742 1.1096095 -3.8549693 -5.5045824
1331033 -6.729096 5.549013 1.6753908 1.0069361 5.2135515 7.0439024 3.198465 5.663096 1.4221214 -6.5341783 9.417686 -6.585372 5.747006 -5.445432 -1.1371399 -8.531761 0.8362548 -1.7633108 14.233295 0.6740632 0.14952499 5.2591896 -1.8051897 -7.404438 9.050098 -5.9982705 -0.57004327 -2.8576286 6.92954 -10.096828 2.6135395 5.594548 15.953233 -8.146259 0.08784662 8.579092 1.2009163 -6.6276417 -10.282184 -11.308271 6.2840137 -9.127337 -5.501081 -1.1557957 4.211946 -2.9028442 -2.2730198 -0.94815934 -7.4254446 -8.280511 3.3360279 0.021689637 -1.3724893 6.207926 -6.113657 0.8940949 8.417105 -4.2312284 -0.98433065 -4.0535135 -6.6255703 0.47202492 0.26098385 -4.510568
1298215 -10.894003 10.723971 -2.790075 7.0411024 -1.8028023 12.586874 -6.699261 8.448162 8.408774 -5.719584 17.999802 -2.8331127 8.465703 -3.3171334 1.4571726 -4.362321 3.1678593 -4.04173 9.673244 7.8353634 2.6581573 3.2086623 3.1394424 0.25299117 7.7832127 3.4329264 3.390143 5.2073402 12.347592 -7.0210247 -3.2383099 1.0915579 4.2624 -1.0022416 -6.537075 0.012245452 7.8925505 0.015821656 0.72180146 -6.7363553 -0.49012432 -1.5007243 -0.3817197 10.905914 -0.20084642 -5.6445036 -1.1648401 -2.2557683 -12.153661 2.376215 6.9505353 -2.0490456 -1.8089833 1.9766324 -2.0059464 -3.620023 3.3870294 1.8057237 -5.1956472 -3.0529199 -1.9669864 -1.1185563 -1.7506248 -1.6506684
907276 -5.628851 15.545119 0.49318588 7.710124 -1.2634825 -10.066502 8.169781 -4.9084034 -2.5540538 -6.3466444 10.549966 -1.6180245 -4.524984 -3.4286387 -4.11723 -1.1750543 2.5810547 -9.168402 2.6459696 5.1168566 2.9767735 -1.6116077 -5.6474013 1.6866908 2.0797932 2.8928323 -3.4703002 -1.0457962 5.6164255 3.6785722 -13.005979 6.6055117 10.776607 5.9149776 3.4773302 0.44845632 0.5527974 3.6596432 -6.5496564 0.6772545 0.53269124 -0.98428106 -7.798005 15.658807 2.078578 0.99613374 -3.8493316 1.3484886 -5.9605412 -10.117182 -0.43240726 1.1218312 -2.895675 3.1131942 7.500498 1.5283316 -2.338788 4.279992 3.0182085 1.6373179 1.0176481 -7.8011775 6.353606 -12.283917
905965 -6.4570494 5.4403033 8.080645 1.1218089 3.998926 3.5571349 0.6004893 7.403889 1.2374806 -6.9252243 5.2808423 -3.8689232 6.0690165 -8.23355 3.058667 -12.168306 0.42857072 -2.196999 15.337346 2.92455 2.5996454 8.956266 -2.3148403 -8.165873 6.305633 -5.391163 -1.9426664 -5.5876126 5.663558 -8.47773 4.1652117 2.598003 13.66091 -5.2925887 -0.32278222 9.622603 3.166047 -6.218293 -10.138323 -12.319635 11.222142 -6.5452952 -3.637149 4.34486 4.9445777 -4.387649 -1.3708129 1.4850299 -8.056662 -6.940493 2.5398746 1.5030329 0.27405998 5.648907 -7.333821 3.7800822 12.362611 -4.4373283 0.7615488 -6.250744 -8.108988 4.355673 1.5897892 -2.1720495
905936 -2.2204156 4.9919353 -0.95397174 -1.5256873 11.1608515 4.9103727 7.9509196 10.082426 -3.24346 -4.0707726 15.659869 1.0801895 3.8753173 -3.69294 -5.644548 -2.6436586 -0.3291447 -4.738073 2.2192943 6.8915033 7.7809496 7.3431587 2.4906137 1.708861 5.686213 -3.2143576 -6.645446 -3.0301194 3.67722 -1.8185883 3.3430073 3.1593776 7.087729 -6.099663 -7.842968 2.2944145 0.30141667 -4.0413446 -5.822775 -14.739249 9.824095 -10.762561 -0.62689054 2.5434692 0.68206966 1.2688681 2.736498 0.67423236 -6.3965054 -10.220865 5.9671545 -6.446821 -1.556695 5.354286 -1.5155901 -0.2812385 3.3414407 -0.17571208 6.4318423 4.857723 0.9847548 3.4300654 6.455558 0.4009144
909257 -5.983416 7.1800475 1.1909642 -2.4910874 1.3817894 8.199956 3.29772 5.844998 4.6139545 2.1798794 14.083587 4.225639 -0.267551 -4.8269234 -5.542854 -2.120792 -2.0854368 5.477707 7.4769936 6.401858 3.2389216 4.3325324 4.6763153 -4.696699 -1.3464824 -0.3850133 2.2565055 -9.542479 5.553071 -6.541828 0.9481876 10.543342 1.7296499 -5.3538647 -0.6009525 1.6198615 -5.8303914 -9.856132 -4.7179523 -10.077894 4.686544 -9.103491 1.1477587 -0.37386024 0.35539612 -0.20495787 10.753876 0.07311961 -4.965411 -6.085033 2.0941336 -6.351417 -8.682721 4.157983 -5.8878875 2.734632 2.865097 -1.0032696 -7.9114633 0.43815607 2.787715 -3.0422804 5.3331704 -7.9857264
907311 -6.2293177 5.6495986 3.8918176 -0.5278348 1.160015 4.5173426 5.6095014 6.809694 0.12902017 -5.487202 11.504925 -6.0831714 7.0821896 -4.4628534 -0.058316935 -11.564231 0.2066449 -2.4926322 14.56616 -0.9738491 1.9529816 7.1005044 -1.696471 -9.886353 5.192952 -5.238195 -0.10878965 1.6473286 4.0610538 -6.278733 1.8952329 3.7585864 11.588581 -8.802625 -3.5765407 6.7044835 4.0069065 -6.349863 -6.2548738 -9.440671 8.342617 -8.393637 -5.9815 2.8574772 2.7215312 -2.9777727 -1.1981463 -3.230987 -10.947861 -8.074632 4.2919297 -2.4136755 -5.820581 3.6024878 1.9317629 6.5303526 13.044901 -4.7011266 -0.694225 -5.1096306 -4.0387545 3.148627 -3.1208518 -4.227182
905954 -1.5508871 12.016538 10.472018 2.112906 3.0831544 2.9964905 9.625962 0.9386692 -3.4648902 -3.8511004 15.4011965 0.5147619 1.3955902 -0.48716933 -0.60230285 -1.0203085 -12.717989 -7.404542 5.219011 -0.40052763 0.36765373 8.853482 -2.4055648 -7.235699 8.057296 6.386146 0.57868946 13.514692 0.7009207 -3.209269 -1.070885 9.753654 4.1206956 4.457752 0.51809883 -3.0474424 -3.5089495 -8.512908 3.3024738 0.0018308194 -0.15369098 -0.038826514 -4.1899514 5.3023057 -7.6518044 1.4116452 1.7547932 -4.0207067 -7.6704516 -5.777669 7.432548 -2.9177372 -3.362086 3.9544933 6.809829 9.5158825 3.6788895 -1.0344532 -3.938701 -6.2820644 0.39017117 -1.8021876 4.787115 -0.19306388
909716 -4.7945786 11.199695 6.283976 2.4592257 6.934986 -1.7452984 5.798875 -4.6373067 -7.234632 -8.286745 10.567488 -0.90006006 -3.5928748 -1.0922378 6.4265337 -3.915489 -15.47624 -0.73217946 0.07912689 5.600056 0.5982102 1.0966264 3.1503541 1.2647578 2.3651242 2.765151 -1.2816014 -0.9968354 -3.9486816 -5.3078055 2.3423862 8.946735 3.88009 1.2539785 -2.0488575 4.3794184 2.260177 -5.8290296 2.884138 -5.129362 2.955874 -7.752561 -3.7295177 11.772009 -5.2114983 -0.56952274 -7.925192 -7.4874783 -9.049986 -4.2624307 3.2055297 5.1309857 -5.922465 3.0496335 2.6946096 6.805621 6.0994735 5.2410727 9.314974 0.0853331 -2.9970055 -9.168936 2.3977895 6.1654043
1247873 -9.664372 6.863137 7.4767666 5.9405193 6.3467164 2.1842291 2.3623521 1.3738954 -9.802882 -11.636973 15.245973 -4.360641 -0.025542984 -1.2232177 2.9181201 5.975364 -5.6263766 1.3847327 6.4188933 1.833231 -3.2575927 5.240695 3.7638276 -0.05892431 0.8291133 0.5680631 0.6214143 4.1255355 1.2942827 -2.5811307 -0.86408556 3.3832362 5.1758075 6.562359 -0.038015597 -3.9374962 -4.3016124 -2.363207 0.06796306 -3.7550578 0.86808246 -10.341622 -4.7457175 2.336356 -0.8061626 1.1889642 0.9025663 -5.828562 -7.4189496 -5.8551393 8.908177 -0.60875535 -5.4836392 3.4266102 -4.7064795 2.006094 0.32521242 8.180493 5.02633 2.6296022 -2.2897162 -10.3704195 -3.6866498 -1.5943222
688027 -9.876827 2.010335 1.1536175 0.9595769 5.632792 5.6168585 -5.942779 -1.28499 0.72571176 -4.9804544 6.396115 -8.354835 0.8455922 7.3786035 -2.176229 -2.9677908 -1.6056305 2.5640388 10.791816 -3.5184627 -0.009629669 -2.140758 -1.0086501 1.7839826 4.072255 -0.8770853 2.4499686 -2.5969393 -2.4942489 -6.1054974 -0.778924 10.381296 8.618977 -1.9908967 6.9683576 -6.086838 -2.1543226 2.1057255 -2.5928762 -10.031566 6.271542 -8.666974 -2.7569752 -1.6058662 1.1136472 -0.34909946 4.3567767 -7.989784 -2.9714756 -10.248885 6.6893144 -7.63823 -13.002179 -1.6769952 -4.2466645 2.3635335 11.21244 3.1286972 -2.4056365 2.9797027 2.756019 -1.1000537 -2.474597 -7.504366
1298531 -9.402896 13.741259 -0.27228567 8.870903 -2.2978077 8.511638 -3.1289887 10.725212 5.4536467 -7.7809935 17.03395 0.75984687 4.694507 -5.5497723 1.5746716 -2.3510587 0.3801401 -1.7805153 9.47082 10.5169325 2.5646799 4.06335 6.469459 0.17003486 5.0043497 1.7398597 3.3473485 7.6602507 11.032978 -5.8841724 -2.1126215 1.8180352 3.5643914 2.3193429 -5.646081 -0.49031094 7.7546005 -4.2899737 0.055923127 -8.86666 2.8575118 -4.867162 -3.9103224 8.192645 -2.0911078 -3.6247284 -3.460014 -1.7187394 -11.142108 1.0015452 5.8349323 2.0670955 2.8789833 5.87772 -4.569716 -5.860266 6.66058 2.657345 -1.0703684 -4.1697416 -3.450324 -1.472995 -1.370909 -3.3453598
908440 -5.9889116 12.483779 8.988856 0.21875478 -0.23152056 0.67173797 4.2078857 0.74554545 0.21039085 -6.1241307 13.711404 -5.522997 -0.018336153 -5.176054 5.2800274 -12.237085 -7.121367 2.0797014 8.096691 4.645084 -0.096310325 7.385157 2.3657176 -6.0060806 6.1245437 -0.31698388 1.7441335 0.29455075 5.3397117 -5.384903 -3.4165897 3.3598478 11.458902 -1.7763535 -0.45073137 5.938972 5.3456655 -7.959011 -9.210588 -7.6266723 6.3890443 -6.7891436 -5.386646 7.03418 -1.1725359 -1.217549 -3.214551 4.5130653 -7.093755 -6.7078753 1.8345201 -0.7049164 1.8530811 5.872281 -2.5022438 -0.463153 10.675386 3.190755 0.30296308 -7.4242563 -7.097348 -1.1735584 6.046465 -0.05648429
1290810 1.4077377 10.513185 4.5121374 4.7420177 1.1894779 0.9299257 4.199278 -5.547142 -7.702357 -9.154353 8.80004 -5.3536215 -6.959062 -0.6494704 8.452787 -2.383872 -11.466873 2.671173 2.720495 6.189071 -2.3215864 -0.1065126 2.8186414 -3.9298291 -1.6965328 4.633054 1.8567262 1.4232734 -0.10660184 -7.5524545 -5.9359245 9.440182 4.5291066 0.6234411 -1.7739618 4.340835 1.7966212 -9.580314 -2.636701 -1.7627755 -2.5212922 -7.8149176 -6.616726 8.261133 -5.9746447 0.24328889 -5.034525 -7.8612375 -5.890658 -3.440906 5.8340316 -1.0266616 -5.0329905 2.4712245 0.4084172 2.3612537 6.421164 8.8696785 0.7814772 -2.9214249 0.5405167 -10.9145775 7.1614966 2.066486
910554 -1.438639 5.9404426 -2.123534 0.24471705 7.235293 -0.34740928 7.034943 4.3364663 -5.502973 -2.4829404 14.360804 9.325865 -3.6567333 0.67789114 -11.185592 -3.1133587 2.737879 -0.4662245 -2.8766534 4.7124596 5.4799023 5.055017 2.622863 3.1342762 1.0025901 -2.070948 -0.4599941 -6.6083217 3.4490247 -1.3278093 0.46305665 6.670084 0.13864414 -0.31565398 -4.9854403 -2.0918462 -4.315066 -5.8100467 -3.0559444 -10.910759 8.911975 -10.230523 2.8660479 3.7670991 3.2880614 0.6255231 8.371599 -5.880657 -5.0477233 -7.0779624 5.7786593 -10.781925 -4.25545 -1.3009614 -1.0515056 2.8220036 -2.530041 1.755344 1.7690773 10.941307 5.820651 -0.7560714 5.344329 -0.44551232
1503366 -5.0000134 5.3645706 6.5746317 5.737432 5.268919 -0.94131535 -7.0322876 6.125844 -4.9343457 -6.9682364 10.230837 1.7074428 0.22255352 -1.5111759 -2.9181936 -5.711546 -1.6259108 -0.60991746 8.052212 0.309515 -3.7583396 1.8851686 2.1468573 -2.2871091 2.4467316 -0.7165586 2.2511725 0.6887133 2.6692994 5.403007 -2.1265934 1.8680365 8.575136 4.3726263 5.871699 1.8637911 -1.8667917 0.28061816 -4.295807 -7.2924757 11.322914 -8.68145 -5.558137 2.2762492 4.985462 -1.1038575 0.1697841 -11.434016 -4.26952 -10.351216 3.5207198 -5.449025 -12.848301 2.695349 -5.5864043 4.4353952 11.652444 0.43617433 2.3328726 -6.0490303 6.7381864 -2.2601974 -1.5854634 -11.186238
1303900 -4.383121 -0.15969844 0.6602427 -1.2883286 2.416814 3.5114923 -2.17323 -3.2334476 -2.5701118 -5.67266 11.020856 -6.216234 1.0558616 0.9180245 -0.5993573 -2.1145382 -2.16661 -0.16376159 11.952269 -0.23071869 -3.2166662 -3.537572 0.079802126 -2.8391232 5.4992685 5.801222 -1.3594247 -2.5992918 4.614379 -7.8985324 0.5971491 -1.2524593 5.1212587 0.8949305 8.045997 -9.755352 0.3138678 3.7433388 -2.585665 -6.778472 7.2161603 -9.918789 -5.5803394 0.31911975 6.036977 -1.8842403 3.0904572 -12.445182 -0.20321617 -9.634548 6.0354905 -6.946063 -13.763918 4.4340396 -4.9377294 -1.4891053 10.110736 3.3885272 -4.148061 4.49962 -3.3941574 0.08814582 2.8596008 -6.611264
906793 -7.226968 9.046333 12.125111 1.6718072 1.4385926 7.012083 3.718773 12.949536 5.252041 -5.673526 12.453496 -3.278695 7.7821035 -9.145259 0.1464645 -8.645603 -6.528403 -0.4269602 13.750543 4.445788 3.929712 9.384911 -3.7513921 -3.8354404 13.845832 -0.56486535 -0.15351726 5.849388 5.9734497 -2.1736312 3.5606647 4.419046 2.9870768 -2.1332989 -2.8587015 -4.4433966 -4.027456 -6.380761 -6.160655 -7.0093822 9.8899355 -2.946582 1.8529991 3.4632936 -0.08327252 1.1880581 1.7174685 1.8801259 -5.144156 -4.7001305 2.9407315 1.2717708 -0.2234352 10.155576 3.452322 7.517538 9.236859 0.23523211 -5.3758106 -7.7054167 -0.15414047 4.368904 3.2614048 -1.1920847
908118 -11.500144 5.6201034 5.83032 3.4508955 5.3053327 3.5240564 -5.191546 4.267974 3.034198 -8.738617 11.627381 -7.1103253 6.8078547 0.8874991 1.0731905 -13.909299 -3.464051 -0.34821555 12.166603 2.5901978 5.501501 2.1702158 -2.5609446 1.0943553 7.0994787 -3.7548647 6.1223526 -3.5641801 1.8979266 -5.1164474 1.4510162 6.0036826 9.1280985 -7.0583425 3.091248 0.63171667 -2.6644948 -3.4549422 -5.84896 -10.768782 10.393961 -6.3000507 0.96920437 4.3024077 1.5669799 1.4025936 -3.7151954 -2.102946 -7.665413 -7.703192 3.8922398 -4.0261583 -6.7574463 5.7963552 -5.863741 4.8769603 9.04668 4.1464715 -3.8897002 -6.7748647 -2.6332245 5.7895865 -1.1857907 -3.5780187
910691 -2.64334 10.326759 -2.285345 -6.3830695 -2.6330934 10.963303 11.196813 4.5473466 -5.92443 -12.034645 10.536722 4.9824576 3.8722718 -2.3288176 -8.314003 -9.6476965 5.936535 3.7387636 2.5923846 -4.5862517 1.4528986 -0.7681721 -1.4649266 -4.292668 1.7420166 -4.484565 4.483337 -8.472147 -0.0931893 -4.7392163 1.2716137 3.0709927 9.872119 -3.116835 1.7365303 6.519246 -0.23042661 -10.739405 -11.283739 -2.7233913 0.0923478 -11.765841 4.721875 -1.5427388 3.5033793 1.255547 3.7068372 -0.038473155 0.34089965 -11.701019 -1.1556815 2.3844826 -7.026116 1.8129097 2.3598237 -5.205657 0.24887277 4.137245 -10.212728 2.6082542 3.9430296 -4.003627 -2.5372047 -2.4305196
1327774 -9.141257 5.9846535 8.477349 -1.4805694 3.7747438 0.007537183 1.6145759 4.305633 -0.8548057 -7.369991 8.329442 -4.3054943 2.0886297 -3.132376 -1.093241 -15.266134 0.4738524 -2.1759849 17.033283 1.5088897 3.2934783 5.9097576 -3.2626789 -4.4667807 11.383232 -7.178858 -2.043111 -3.3298914 8.26632 -9.278497 1.0201234 0.10934723 14.941462 -3.0287387 2.685292 2.6086984 3.0510554 1.2352068 -9.045725 -8.747035 10.84575 -6.9600296 -1.5632224 5.028363 3.2404344 -3.7295074 -2.2541604 1.1035115 -13.338314 -10.498615 1.0568384 0.99816066 -2.6368246 1.3147461 -9.368925 3.805401 7.840914 -0.26446533 -3.3275461 -2.5649178 -9.744041 5.3165402 -6.5973954 1.6432618
906833 -12.090986 5.9372754 5.5647206 1.3898207 4.2751036 7.6733913 1.7615789 1.3582158 -1.6154768 -12.570596 16.011513 -7.0732927 3.3884254 1.1471469 6.312097 -3.485931 -7.147499 -0.058279265 7.9098396 11.633038 0.70599693 7.590228 0.4691006 -5.5493684 2.778974 -2.831955 7.0670724 0.72156465 0.17695746 -4.2215157 3.161463 6.8354855 7.102193 -3.4223733 -3.6168933 4.231153 1.7542828 -6.391569 -4.131529 -6.999981 4.3292565 -8.361695 2.5122294 6.2282395 -0.10860284 0.7490853 -4.9675236 -1.7950581 -12.293232 -5.459514 -2.8331537 0.3730388 2.0224648 10.702713 -4.873259 3.7930708 3.278916 1.8652008 -0.7012953 -0.9819236 -4.282314 -2.9907742 2.37902 2.5597942
909260 -3.3433073 7.9117374 4.8428054 -1.4712824 2.1608887 6.380162 8.579662 6.4042363 1.9140123 -5.767806 8.158253 -6.9773464 0.21838719 -1.0550914 -0.8281578 -3.8299975 6.0426908 -0.051559657 12.483153 1.4676008 2.496329 3.7510777 4.396284 -10.177953 1.7582711 -5.8918886 -2.0307817 -2.8611507 4.457465 -8.061088 -1.1079751 9.404589 12.786118 -1.8756325 -2.7306206 10.441895 2.5782835 -3.065431 -8.450329 -9.25609 4.953366 -13.568779 -4.296286 -3.9107025 6.0085793 -3.5337193 3.1533396 2.0931396 -4.363702 -10.162604 4.2335954 -5.3520737 -4.1987295 2.037627 -5.1009154 1.5869948 10.344063 -5.715203 -2.0171938 -3.9234192 -3.3155398 -0.36611342 -0.4034061 0.40970287
949153 -5.863355 11.30354 2.7260303 2.0204408 2.9239914 2.9010746 3.6278682 8.36837 4.222313 -6.888303 9.6786375 -5.3142443 2.6783864 -7.1736126 -0.41577914 -10.957754 0.46730584 1.1060684 12.660526 -0.82071406 0.9653639 3.3918037 2.215335 -9.90034 11.0602665 -6.8396006 0.34006774 -3.4351826 6.637756 -8.456479 1.6977774 4.9891815 12.133293 -4.700498 -2.313095 7.7443123 1.1542253 -3.6226788 -8.976006 -8.576195 10.600231 -9.609376 -4.755784 0.69978213 5.8610163 -3.2646918 1.0763917 0.692137 -8.097595 -6.4100957 3.283692 0.9108343 -4.846454 3.3623486 -3.0471025 4.550998 12.134081 -1.4512305 -0.7873539 -6.1593747 -4.656801 -0.4656102 -1.609678 -1.1611328
949155 -11.153303 7.736816 9.079392 1.0227271 4.697797 1.6399897 -2.2232826 10.775127 2.1044052 -7.218478 6.3922453 0.9961157 3.969635 -2.9970818 7.132844 -13.68577 -3.083125 -0.37272316 14.681993 3.7087717 -0.1287209 8.176133 0.32603037 -2.1043735 5.228699 -2.3543246 2.4559348 -3.8910444 6.0158114 -1.3967727 5.2035666 2.6210017 11.271119 -3.2892318 2.6530805 6.3212323 5.268226 -5.963169 -7.9720354 -13.885077 12.447867 -7.6717286 -0.7493953 4.363496 2.8862112 -0.38972095 -1.3817484 -0.5545741 -5.2452574 -8.128879 5.765097 2.0784123 -4.1363583 2.7210069 -3.1410406 6.116267 12.796556 -1.9446809 1.8094251 -6.2100086 -0.4491597 4.143405 1.5495058 -4.20656
909703 -6.4011555 7.603961 6.3600626 -3.1456828 3.0383048 1.7249308 5.323545 7.2308397 1.6185514 -3.800607 9.28449 -4.709241 3.0261502 -7.1928434 3.94313 -9.59393 1.9192824 -3.3385675 14.774938 0.33513793 0.010811592 5.040985 2.9634197 -8.274482 6.28498 -3.8907607 -2.1753032 -5.1454983 5.109303 -5.1958127 0.9332179 6.1154823 15.135354 -5.516654 0.071663156 10.786058 5.634842 -5.218674 -12.254265 -10.649954 8.872331 -9.566318 -2.8326495 -0.9670546 6.8388596 -3.3505805 -1.759188 3.9858258 -5.9192595 -7.8252873 4.1161647 -0.27834895 -1.7322047 2.7126036 -2.9944124 2.0121696 10.166722 -6.0669203 2.5155177 -4.2429776 -3.555175 2.2002776 2.877236 -2.8628607
905961 -5.7303877 6.5829897 0.4641461 4.562661 9.034831 0.7603941 -0.04226772 9.649946 -0.221649 -4.431294 13.54561 -4.8255277 8.670143 -4.72793 -8.420506 -4.813958 -2.217511 -6.0650716 0.29339084 -0.1888059 9.222721 6.15511 6.824098 -0.57109267 5.0989256 6.5401134 -2.2915382 1.7969079 2.5914462 -1.4019518 -0.6732316 4.214223 8.241039 -3.3838174 -7.4658313 2.363012 -0.731533 -0.47458237 1.728484 -13.53952 10.462449 -5.900049 -4.9525576 6.769365 -0.31540686 5.8838544 -1.81287 1.8279374 -11.356654 -9.444636 10.386236 -12.2935915 -2.8602626 3.4601357 6.7924004 5.158422 6.400348 4.177954 3.2657568 1.6725781 -1.1327444 6.5917826 6.287362 5.5599093
1240193 -7.292313 4.0449386 7.3484774 0.79012036 2.3002462 5.558763 2.732423 3.096542 0.75473285 -6.47884 9.255631 -8.2129965 7.1734543 -2.0325487 3.2708595 -6.493372 0.31463695 -0.6622161 13.652127 2.071229 -0.48197088 7.562916 2.1957886 -9.2692995 -0.8865216 -4.121732 3.3708441 -4.14945 1.276431 -6.9862876 1.0518752 8.399091 11.654376 -5.146191 1.4494216 8.546415 0.8196157 -6.2125072 -10.639137 -10.512829 5.1959715 -8.945245 -3.515365 -0.188158 6.509348 -2.651217 -2.256284 0.14117092 -6.9857745 -8.253556 5.068644 -4.3040857 -3.3502216 7.356151 -6.172016 -1.1288811 10.365469 -4.4381204 -0.34263363 -6.791853 -4.180406 2.2650108 2.4293165 -3.6841266
753574 0.17882027 5.4978495 7.1676626 1.337881 3.591062 2.3341458 -3.3122296 -4.968265 -4.6886415 -9.046113 18.045374 -1.2173641 -2.5588522 -5.7936335 0.11348787 -5.289716 -8.994238 -1.3133066 2.7229357 1.9437133 -5.702538 1.4241992 5.3403063 -7.2799587 4.5046425 7.001374 -1.6960869 2.5600498 5.1234336 -1.2704723 -6.5303664 7.5438466 6.9222054 9.106647 2.9984193 7.686583 -2.4875395 -6.4872 -6.014628 1.3397968 3.715627 -2.6797397 -8.102648 9.84692 -2.8385646 -2.1112692 -3.0038266 -6.2429585 -10.716455 -3.6281998 2.6965466 -2.4604187 -1.1067144 1.7441983 -5.869979 1.9539442 2.4913251 4.993379 4.64046 -4.5024886 3.0831397 -6.2552304 9.583852 -0.23025243
1327775 -2.9515595 6.249434 7.288482 -2.1526446 1.3291663 5.7550726 3.6749365 8.028291 1.5505897 -3.720935 9.204616 -4.8172755 2.7447715 -4.625057 0.0073834346 -9.792455 1.5360638 -1.4692701 12.482225 -0.028946325 -0.46850494 7.3260407 2.240387 -10.875486 3.290754 -2.1410398 0.23871988 -0.981891 3.2781963 -6.404376 -0.8240884 8.353171 10.392544 -1.6153818 0.93112236 10.522437 6.641955 -6.0915 -10.632506 -9.474375 9.35388 -7.5697336 -5.8823805 -1.2559634 3.078856 -6.1255875 -1.6864678 -2.1193202 -10.452691 -9.578382 -1.2735693 -6.91327 -1.5146118 4.1387444 -4.6507764 3.3613365 11.910693 -6.501364 1.3401794 -5.678315 -2.7603087 4.808476 -0.66666776 -1.9821959
910701 -9.725102 13.91018 -0.5454148 2.3338213 0.13090764 9.366316 -8.153781 13.905208 3.0728037 -5.7387676 15.672635 1.8353686 2.9893155 0.17465469 2.4484148 -1.4143881 2.98592 1.1254063 9.031109 3.262751 -2.601226 1.539363 5.747657 0.41026598 1.5485415 4.1212716 4.119481 6.5002713 5.7477574 -2.2665908 -1.954838 -0.035007387 4.076748 5.148167 -0.5122691 -3.6783655 5.04945 1.2431082 1.7768209 -5.985577 0.814483 -4.465829 -5.7198486 3.295095 -0.12642841 -7.4947414 0.42629272 -6.3915424 -8.379821 -3.225366 9.775686 -6.4439936 -6.4039807 0.8395872 -6.071128 -6.6870217 5.9382777 2.7219803 0.39753246 -0.55344176 1.1094342 -1.2979355 -7.2091093 -6.0028424
749716 2.2602177 8.142011 -0.5512799 5.514282 -2.132897 0.34201247 -2.6868627 -8.462056 -10.227997 -7.9108915 12.317912 -6.609752 -8.902511 -5.736308 6.57985 -5.566004 -1.6390934 -1.8738612 5.2193317 6.4249473 -2.841374 -0.018139167 5.176212 -9.127593 6.24804 4.354772 1.2647948 -4.382033 -0.80508196 -9.146945 0.29998046 2.4403205 8.556822 -1.487732 -0.12238024 5.9698358 3.6911054 -9.853517 -2.1094344 -1.9272959 5.85162 -12.061095 -5.730817 5.8031116 5.5453796 -5.0025434 -1.8003763 -10.847415 -7.79947 -0.5196894 1.3093894 -8.157495 -3.576961 0.32262138 -0.49650514 -3.0262427 7.973837 7.5196195 -2.3629444 -0.658194 -0.027868526 -2.6014733 3.770033 -0.14212506
1330984 -6.924242 5.737079 8.885219 -0.69320726 4.5236344 5.3807435 4.0970364 9.892932 2.4575574 -5.3873153 7.555496 -3.975806 6.2578397 -6.044755 4.156576 -6.980939 4.575287 -1.8356929 16.15924 2.9593174 0.94304794 8.124807 -2.1251638 -10.150868 4.301658 -5.532189 -2.6604788 -3.5308373 4.307936 -5.063745 5.0847635 3.172924 13.754171 -3.4612596 -2.5201035 8.543917 5.097255 -6.02806 -9.238585 -9.535049 9.723985 -11.721859 -2.8801358 1.7153859 4.5536327 -4.3628435 -0.48378706 0.5474045 -7.557412 -9.438388 1.8716996 -1.7537067 -2.8579276 4.849972 -3.4272525 4.438104 9.82382 -7.387952 0.93624187 -4.9438977 -2.6572475 3.7679026 0.8335188 -1.4570272
907061 -11.382178 12.140796 -4.988066 6.0866046 -1.9782902 11.674674 -7.7809067 8.4925785 8.817539 -6.5054307 13.54611 0.79905444 8.229884 -3.007215 -1.6809734 -2.7877111 3.213836 -2.4568105 6.3765597 8.903543 2.6231985 3.763994 2.3960667 -2.650356 1.1727825 3.6935096 4.668717 9.336349 9.096921 -6.6763983 -0.66517377 1.2001593 3.577689 -1.2812657 -6.1028886 -2.6985548 5.754344 -2.9862163 3.7944517 -7.687621 -0.11703433 -2.4805179 -5.8535304 12.339199 -3.9521806 -5.979235 0.41570038 -3.5909457 -13.804252 -0.27481225 6.608594 -1.0258886 0.23104599 2.7739618 -2.5526445 -4.5353374 5.7995515 -0.10842279 -4.1322117 0.024010928 -1.1883054 -2.7038078 -3.2114275 -6.4720984
909722 -3.992108 6.8556833 3.555259 -4.576141 0.63855004 5.217097 8.49615 -1.1108078 -4.7686453 -5.1319366 11.632331 2.5241232 -7.361254 -7.4517164 7.5301447 -10.136243 -10.925851 -1.8738676 3.8798566 -0.5453562 2.178662 2.354962 0.4220237 -4.542056 10.716761 9.185177 -3.8256462 -0.19739684 5.1562614 -8.114459 -0.37130028 8.2525625 2.5551403 0.9240998 -0.89932764 5.106524 -0.785538 -10.001882 1.5273006 -5.052802 7.9641886 -1.2772386 -7.8716407 12.518736 -3.0455656 -1.7205497 -4.4134793 -9.118218 -7.039288 -4.0762663 9.399294 2.0001125 -3.658035 3.465793 4.270398 3.810018 4.8917055 6.92734 5.2106495 1.5929214 -2.1551058 -4.2612 10.871384 1.9558127
908481 -8.895095 3.1293085 2.24614 -1.5256361 6.9534497 2.0440123 -5.883262 0.5050072 -1.4043701 -5.838317 9.65653 -5.384246 3.973994 7.606477 2.0722404 -4.690357 -1.2779351 1.7529867 9.056131 -2.8163788 -2.2959335 -2.4609551 1.8963128 0.324461 3.5938592 1.0245694 2.2434003 1.5997028 0.8058293 -2.8525825 0.10202755 7.932349 8.825909 -4.6954637 4.722852 -8.51537 -1.1113483 2.9179816 -2.5884004 -10.775529 7.429552 -10.572822 -0.1484628 -0.6218056 2.4876223 4.7269154 1.7662445 -5.397412 -2.1803405 -10.704162 9.652952 -6.1057034 -14.086236 -0.021133242 -3.1683013 1.6726619 8.506341 0.7685834 -4.771059 0.46572563 2.5723124 -0.55336577 -3.0157876 -6.2629557
906877 -8.43548 6.9780602 2.5128996 -0.7594096 2.1219306 7.594013 2.9022403 4.234601 2.064866 -1.651919 11.424824 3.6909964 -1.1767461 -1.60397 -0.6474467 -7.8356614 -1.7607448 -0.09637821 10.643999 4.9779973 -0.44156396 6.535306 1.6568289 -5.831768 5.6541266 -0.50094 3.1175568 -5.2496066 6.735675 -7.717128 3.090267 8.144388 8.38349 -3.5537689 2.1377819 3.735087 0.3824219 -6.941353 -6.751977 -11.878361 6.118605 -7.8362346 -3.7130525 0.48785916 5.6043553 -3.364999 4.706079 -0.84165305 -3.9710228 -8.333604 5.562019 -3.716873 -3.489629 4.4173684 -5.8330927 1.4253016 7.32578 -2.119671 0.22797245 -2.2932317 -1.1488003 -2.1206114 3.959725 -7.6724925
907066 -8.9713 4.475477 9.757421 0.08129955 4.575082 -0.21707739 4.7247252 -9.408283 -8.455013 -4.709008 14.222382 -1.6773261 -2.2641025 -1.9370683 5.4651704 1.8561854 -12.583701 -2.40337 5.196509 3.6824403 0.2892833 2.0941856 -0.018342452 1.1376182 -3.8033004 5.4878917 -1.0169272 -2.4858654 -0.38786805 -11.052447 -1.5663052 7.928737 5.469822 4.9534807 1.1474762 5.3840938 0.96978253 -2.0671003 -1.1688144 -1.9411782 -8.973742 -3.7942548 -4.273035 9.1914425 -6.8671045 0.67300737 -8.865078 -9.926347 -11.354018 -0.6866759 4.2968917 -0.9976056 -2.1614783 -1.118114 2.0288332 4.835802 -0.22781248 7.414972 3.8870144 6.9148784 1.3223737 -8.579784 5.713252 0.053304527
1290922 -4.393689 6.8936214 5.845608 3.2560837 -0.39562517 3.3134394 0.2755073 -8.858944 -6.1814456 -6.1460376 19.813738 -3.2948866 -4.922845 -2.0831769 5.823853 -0.7091316 -6.5923505 -1.5066228 4.4710116 5.2265763 -2.5414467 0.05625083 4.669102 -3.9530277 4.5501876 9.209544 2.4575782 0.11720224 3.0546012 -8.950551 -2.2484124 7.186978 5.364229 5.4398847 2.030219 0.9324846 0.25000697 -1.7417238 0.32113478 -1.4308532 -2.2073133 -8.309025 -3.3252947 4.613968 2.9460232 2.3735719 -7.5927854 -8.173514 -9.586484 0.053122267 4.742183 -6.0104194 -1.8784232 2.2193196 -2.1042523 -2.451236 0.6872832 11.2876 -1.9717582 -2.0700624 -2.2345757 -0.17992108 3.1003659 3.7614584
1327771 -4.3650227 8.230589 6.6744013 -0.600662 3.253534 2.1318548 7.0447183 8.119235 6.3090825 -3.32639 11.560515 -3.8575408 2.3470051 -4.0252733 1.0321105 -7.5412073 -3.7122436 1.8563427 16.276468 3.3124008 1.1371696 0.17393357 -0.46560702 -6.312125 8.745506 -5.362044 -3.5044067 -0.6825267 6.115406 -5.976825 0.5356546 -0.053797603 6.4175034 -1.5106634 -3.2906194 1.5293565 1.6620666 2.72762 -7.544563 -5.924665 9.7396345 -5.586286 -7.669765 4.737739 0.8129985 -3.1766863 -0.24965952 -0.96662474 -8.272821 -9.608762 4.212905 0.22231947 -13.076807 5.0337224 -3.8739135 8.965864 10.105128 -0.7955823 4.696305 -8.887597 -2.7152126 -4.2479906 -2.797214 -4.5771217
684059 -8.736052 6.3781185 6.1811943 2.4975853 2.5127313 4.045825 2.7533975 9.402435 0.7305583 -6.4141455 8.363499 0.030500911 4.9056396 -9.957026 4.474147 -12.383577 0.0489191 -2.8740833 14.68258 2.440934 0.23582104 8.541931 -1.0467962 -5.7674503 5.5713387 -5.5981984 -0.0077203573 -6.0256467 5.3107424 -3.8529935 6.0408607 3.7620418 12.500915 -4.903844 1.1902772 8.942027 2.7345636 -9.26424 -10.1542845 -10.990855 10.571556 -8.652867 -4.4099207 0.93123335 7.899586 -3.5722945 -2.1784468 -2.2831695 -5.3925986 -4.801465 3.787009 5.531583 -0.25448743 7.605389 -5.208562 0.84981525 11.643142 -1.1921139 4.9282975 -5.3088536 -4.741393 2.8615446 0.31386125 -6.06313
910544 -8.022131 10.459769 2.3107035 -1.447794 1.5214818 3.9991875 0.0067028585 7.9794464 6.3662453 -3.432447 13.03138 -2.0820122 0.075770386 -7.958612 0.7545233 -16.45202 -1.68418 1.8680995 8.650179 0.43245304 3.305038 3.8060288 0.002195142 -5.075254 8.703688 -5.073164 2.0625644 -2.0054379 8.031542 -8.182445 -0.8103707 8.555285 9.510856 -8.496505 -2.4153783 4.6926417 0.8470486 -4.1305614 -8.597005 -11.341661 16.665907 -4.10359 -2.7901945 4.681912 3.4636133 -0.16093932 1.521721 0.06810274 -7.419306 -2.039976 3.1867833 2.074706 -6.567842 2.6942983 0.2530515 5.148675 11.917469 0.7147693 0.8501828 -6.4678226 -0.7743637 -0.98559034 0.5651821 -7.768096
908141 -3.1818976 9.49797 9.192655 -1.0898144 4.1684527 2.2740073 3.625537 10.72313 -1.0119656 -7.256076 5.816798 -2.9539483 9.21928 -6.0813293 3.5890756 -2.79386 1.9701566 1.8439608 15.304336 3.4526746 -0.41787842 4.238255 2.1876683 -7.541898 4.745874 -0.39244702 -3.8198738 -1.6233106 2.2692046 -7.1667213 6.682668 1.6520944 7.8167005 -1.9006546 -1.7845083 3.0394363 7.0247316 -2.0753608 -7.033523 -12.73217 12.682256 -11.016647 -4.022285 2.1430964 3.7491002 -3.829778 -1.6270288 -0.7362124 -5.0953565 -12.447364 -0.26603696 -2.8018508 -3.4897704 5.06049 -2.3979993 3.432302 13.796204 -7.54905 1.1910298 -2.0452983 -6.328096 2.9245148 -0.32275787 -0.012117916
907786 -6.1831164 4.412508 13.434883 3.3226733 0.5262446 -1.1350148 4.18128 6.9303675 -4.46633 -5.3113136 5.6476603 -5.7255573 2.4210458 -1.5198318 3.7697525 -11.575533 1.654514 -1.1566422 16.480694 1.1115831 1.7979379 11.619012 -0.16266152 -2.5184913 6.245519 -0.84334457 1.5791785 -4.3150554 4.7186737 -2.3368118 -1.9828595 -1.7551333 6.1333447 4.1991196 0.8331645 4.2829995 6.388384 0.2815882 -6.7982044 -8.292732 8.124872 -7.302676 -0.12218613 7.6845765 4.5727687 -4.448151 -5.871302 1.9989974 -12.443307 -14.302893 4.897463 -8.5682955 -6.390996 0.49080697 -7.10316 3.3935158 4.6039233 -0.64091074 -2.6343343 -6.483115 -3.7403371 6.799346 -1.8890654 3.854045
910546 -7.4567456 4.5269575 9.522876 0.13892393 1.0281416 2.8791924 4.9149623 9.863327 0.07512796 -7.705993 8.678399 -8.107758 6.4970245 -6.3743653 -0.16455008 -10.109166 -1.3939333 -0.9348063 13.320526 4.55733 2.7835548 10.274382 1.5743173 -9.032291 9.8974495 2.6209567 -1.4085771 2.4028735 3.4539227 -6.135704 -1.8978716 1.7212186 6.2542157 -0.2961546 -5.036146 5.7928314 2.4834003 -4.2 -6.103028 -8.262741 9.012187 -6.3710628 0.14827475 7.606335 0.9420012 -2.6448135 -2.048093 2.6273568 -10.504024 -7.6990337 2.0720391 -8.301448 1.066226 5.0123844 -3.065111 6.7194076 9.87152 0.14357951 -1.9158789 -8.610309 -4.8104963 5.823416 1.7880023 4.298078
1330987 -5.020611 5.4496913 8.983258 2.4026146 2.6787536 2.3217819 3.88911 5.9202704 1.5062977 -5.699985 4.389241 -4.381317 3.1409225 -1.9159989 0.0083724 -9.848224 2.4929252 -3.5155914 15.635277 1.7047162 5.8901744 8.829188 -5.125891 -4.659922 7.125081 -10.353422 -0.8659297 -3.9613454 5.5223327 -4.919128 1.1740971 3.624709 12.262236 -6.0936766 1.8135257 9.201453 0.9028728 -2.5936136 -8.068802 -10.553996 10.940156 -7.060906 -4.0612273 4.041899 3.7606885 -8.403573 -0.7554295 -0.60188484 -11.457325 -13.06513 3.0081017 0.6989041 -5.7063413 4.761116 -5.8892107 4.9329643 9.0443945 -5.4999685 -0.20018113 -4.451854 -10.517512 4.356617 -5.358787 -2.5827181
924187 -3.9242465 9.056638 0.3017922 -12.141262 -7.8039765 11.962269 4.4451523 4.379152 -9.536396 -12.302572 10.9791 0.40814716 5.21544 -0.7818167 -6.69768 -10.966344 6.9333544 4.8075576 -2.6767318 -2.6193287 -1.7554227 -0.2452364 1.3488612 -3.874966 -4.9345145 0.797097 4.48362 -1.1181746 -0.15942669 -0.9937374 3.1927838 -1.0843496 6.3415337 -2.525845 4.88932 -1.4235739 -0.5426294 -9.377621 -6.425273 -0.5280254 -0.32431343 -9.992737 2.2698848 1.8414128 1.9145641 1.9172825 3.5930452 2.6338782 0.21015596 -16.892729 0.98830926 -3.248855 -8.358862 2.2403693 4.1699433 -4.5932484 2.615383 8.077896 -11.129744 3.745464 5.8040547 -2.2335677 -6.133103 -4.3210006
905977 -2.898489 8.043828 10.212974 -0.5948172 4.634532 3.697964 5.921801 7.994129 -3.9772458 -4.0145125 10.629469 0.04432879 2.9911342 -2.166354 -0.76851606 1.956183 -5.3418927 -3.5920773 17.085604 5.001799 0.44699502 1.1299622 -3.931589 -3.8788412 4.605841 2.2621846 -3.5673277 10.489132 6.2129564 -5.381538 -0.3067391 1.8811812 4.719315 1.1751183 -1.7454671 -13.402022 -2.7848725 -1.2356386 -1.4793612 -6.944046 8.367673 -3.4220428 0.079028696 -0.20776047 -2.8530984 4.3199363 1.4576427 -7.460023 -2.4322708 -5.101114 7.461355 -2.0404387 -7.4058375 4.6673756 -3.4229684 14.622581 11.592194 -3.0897138 -4.2752 -4.966931 1.561708 -1.4571658 1.2376219 -7.3881474
1331038 -4.541532 5.8508897 7.147425 -2.9563518 0.7270754 3.1529396 6.5075655 5.2072587 -2.1860015 -5.782329 7.141639 -8.034286 2.4971194 -4.374217 1.2881608 -6.3663573 4.6132255 -3.3798847 14.254793 2.833096 1.103802 7.796008 -1.260728 -12.135524 1.77927 -2.7651742 -1.623365 -1.5837561 0.048440114 -9.650579 -1.5714864 6.2609143 14.434892 -4.2489705 -1.3736467 9.943474 6.3011293 -4.713709 -9.261922 -9.737707 9.444667 -7.9524345 -2.828701 1.4100251 5.377053 -6.459291 -1.535693 -1.3719432 -8.417518 -7.732264 0.79725116 -7.151592 -1.9483484 2.898994 -4.6508536 4.472143 11.537314 -7.290872 -2.2294111 -2.4582775 -7.141424 3.572735 -0.7739528 0.40863773
749717 -3.4572213 1.3316712 2.5697427 -1.073718 3.1745367 -0.18526769 -3.570854 2.2238781 -3.8004198 -0.9046538 12.234207 -6.651387 -2.5120041 0.95750797 0.3578965 -0.34526208 -4.098254 1.6016444 10.454323 5.231254 -4.880807 -2.9950087 1.0587822 -2.6367676 1.2973828 2.4392664 -0.03759263 2.2719285 4.642066 -4.6237693 -4.6530786 0.5762814 5.9364395 -0.6611229 2.4272652 -12.78062 0.7909923 7.2481766 -4.292252 -5.9528875 6.4045377 -6.5016303 -5.3128457 1.8713864 5.0896125 -0.6060301 -1.1556932 -10.727681 -3.4360747 -6.513186 5.3050156 -7.2746525 -14.227462 5.260923 -8.688819 -1.1398662 8.455799 2.8771403 -1.1968373 0.24171348 1.1387875 -6.3328514 -0.8320177 -9.716006
908457 -1.3203373 11.799638 5.4554825 1.6602309 5.826537 -1.4163063 5.102749 12.371308 -6.235099 -6.0220885 12.596697 -1.6928242 3.5511882 -3.976553 -7.0567274 -2.518364 0.016930427 -4.2379165 4.102086 3.4822006 6.5658174 8.840953 8.009801 -0.34752962 0.8248048 3.113124 -4.963585 5.4001822 2.382084 -5.2214456 0.391364 2.5044892 8.542564 2.959093 -4.6291165 1.7097373 2.0036786 -1.4589314 -2.765334 -15.03927 9.5038185 -9.490747 -7.2569976 0.6996209 -2.059663 0.7404722 0.339358 4.383298 -10.452454 -10.883206 7.8828573 -9.60836 4.7192235 0.66721374 -5.737939 -0.3679486 8.5590515 2.3894718 5.296835 4.6415367 -4.8089256 4.901493 2.2548945 4.981693
1298357 -3.5967517 13.316812 1.2271621 9.448714 -0.29921988 -3.99718 6.6292334 2.9351797 2.9278908 -6.5250664 9.947944 0.31778958 3.2863297 -11.157182 -3.3793945 1.123423 8.440897 -6.355254 8.052471 5.4171886 2.1542084 -0.45193052 -3.8205242 -5.9047923 -1.4284513 1.8334805 -0.45239645 -0.16112213 9.6462965 1.7869666 -8.481417 0.38693172 9.554734 5.0124493 0.55522966 4.507423 -1.1357543 -1.7476703 -8.2636595 -3.0073068 3.371573 -3.6085372 -8.340178 13.470212 5.672073 1.6857483 -0.07900077 0.97235155 -4.521878 -9.600498 6.7613044 -3.2586389 -5.4792104 8.349767 2.9260006 1.3595263 7.4579415 1.2915721 -1.6216986 -4.0293818 3.6575665 -4.181392 10.7885275 -15.226723
1503368 -4.294322 8.444061 10.1901045 6.502406 3.3520017 0.52423763 2.3709102 0.18302497 -8.716616 -8.675581 13.247745 -2.661806 -2.1900814 -8.915477 0.21828507 -1.8801757 -4.6251936 -4.046173 8.90649 3.1256535 -4.6637187 2.2848544 4.620761 -9.021799 2.4428194 -0.902581 -1.8693104 1.7378393 3.408971 -3.0265708 -2.2218688 7.5849433 12.668515 7.851043 3.6501975 9.96989 1.3224874 -5.322257 -7.0883627 -1.1657065 3.4562795 -8.060318 -9.321205 5.6223454 0.7482851 -2.6619327 -3.2121913 -5.6294184 -10.482768 -4.7044854 1.2631569 3.5740087 -4.446066 2.3603258 -5.132886 5.4359946 5.9120607 0.5039904 6.8850155 -3.345948 1.0386823 -9.642121 3.1420493 -3.7611563
724873 -1.703494 3.2588644 6.37039 2.5116699 8.487048 2.1430538 4.8784533 -6.2818975 -11.620837 -8.080615 13.001493 -6.801222 -2.6669106 -6.4209504 2.2877932 1.1875544 -11.805385 1.5885601 2.2423322 3.6713545 -2.9852068 2.9016843 1.7942711 -2.224712 0.32903826 1.4052176 0.3882777 -2.144593 -0.8917388 -8.521956 1.9195657 3.7974184 3.8426788 1.7264879 -0.0925118 2.8684368 0.23261708 -7.9914427 -4.1728435 0.72598946 -2.349983 -7.1521797 -5.463646 9.314823 -4.219592 -0.8437638 -4.3444266 -10.4914255 -7.9225 -7.257897 1.1206747 -4.0191226 -4.792243 3.699473 0.4682594 2.5228472 -0.61710835 7.4164505 5.319158 7.8339324 -3.846158 -9.145449 6.8502474 5.1022654
906855 -1.8416891 9.633251 8.172336 -0.7423438 0.18447118 1.31234 6.412369 0.18800165 -0.2763198 -6.6207557 11.887311 -6.0350313 0.3837104 -4.9302278 0.6168624 -9.660623 -2.7510333 2.266413 9.696192 2.52062 0.40820134 6.4880075 2.7858458 -8.517206 8.807461 -3.6915476 -6.975812 -2.4942272 6.6931615 -2.2215066 -2.0661142 3.6029916 8.758638 0.7455166 -3.65438 6.804558 4.614333 -5.77156 -7.931223 -4.704141 7.298248 -9.734151 -7.771056 5.6719 1.289909 -6.2184567 7.840788 2.3794458 -9.417156 -12.140935 1.004276 -3.9526396 -5.2337794 1.7738711 -1.087682 5.9597735 12.693657 -1.6791507 0.81435865 -6.4667563 -7.876345 -1.6279457 0.18868664 3.3942888
930298 -7.549214 3.538855 7.2703996 -11.370289 -8.762843 10.486533 -6.355174 8.985805 -4.952142 -8.954986 12.990786 -4.881592 4.1228757 -1.3430208 -5.9301515 -7.643137 1.4654708 3.833155 -0.6515594 7.2531023 -4.782184 -1.820229 0.35727406 -0.15126802 -9.531378 4.7236485 -0.5125476 6.082516 5.82644 2.7756286 4.703658 -1.7040508 3.6131327 0.42060772 4.799377 -7.2599974 0.95113105 -2.6940153 0.9021373 1.2368736 1.9720505 -7.8735814 -6.300609 2.676519 -0.8235935 -0.5547172 -2.7153442 -0.80841786 -4.090246 -11.398521 1.5491176 0.25636205 -11.458142 6.840216 3.1596994 0.094280496 5.1507506 5.949045 -4.4508505 2.4097755 7.310374 0.40200782 -9.474097 -9.485728
687505 -8.309285 4.778685 6.841308 -5.875719 -4.445918 11.98303 -3.2622812 9.743546 -0.6248448 -4.361634 15.693408 1.2053806 5.6802135 -10.751218 -4.306697 -6.786183 3.841647 3.3652272 3.400467 7.062944 -2.5469716 3.9917004 -0.67153275 -3.0674953 -7.873236 -0.019674137 1.0826744 -2.277499 8.654539 -0.011726716 5.9690003 1.3849226 6.937079 -4.9351087 -0.8123715 3.225211 -2.3374221 -9.581755 -4.0437303 -7.5782638 4.932245 -10.7713585 -4.4270244 1.4848202 3.373976 -0.0094081145 0.012182613 -1.6647574 -7.517871 -9.320654 2.0058787 -2.586598 -5.326235 10.074943 1.9730263 2.8119483 7.001327 4.518064 -1.7110405 -0.18310241 3.023449 3.048926 -3.8630188 -9.727841
1240151 -9.492855 14.933902 -1.3441148 6.183932 3.6339052 -6.4143667 3.632972 2.5957568 -0.67009974 -9.860306 6.973028 -4.3561153 1.5639921 -3.6159034 0.77223986 -1.2125839 5.1988926 -3.306461 7.3733287 -0.40793467 2.0260644 -2.510996 -1.3201009 -0.22838272 -2.2029226 1.7214763 -0.10430016 -3.7179103 4.8349175 1.8800178 -2.153993 2.903618 10.636941 2.130875 4.9233484 2.631854 -0.6201481 5.192681 -5.384923 -7.735858 5.202943 -9.309383 -4.7352386 5.6719894 9.721602 2.27103 1.2468866 -1.7834585 -2.1699073 -13.704096 5.924556 -3.5709867 -10.789146 4.704675 7.583803 4.511281 7.715279 5.5279193 -1.1251898 3.6731021 1.1233845 -1.9301583 5.5834465 -11.977128
687561 -8.368658 5.043293 7.7216234 6.001744 4.1182666 -3.1009843 2.4935865 -1.3475626 -6.7925777 -8.702033 12.540907 -7.1354847 -0.81570023 -0.46117756 0.77926016 -3.5869164 -11.595054 2.786689 3.192907 6.8722525 -1.5568721 3.9401662 0.41795337 1.436569 -2.2943962 -2.0355484 0.56262714 1.8339286 1.5241584 -3.1919928 -3.9564314 10.260314 4.6532044 -2.1956544 -4.776034 -1.2066916 2.5040755 -5.318082 -0.93752813 -8.257418 3.3141751 -9.093378 -1.7500308 7.668376 -3.149611 7.1857677 -5.906349 -7.0695014 -12.44285 -1.2983956 5.6011114 5.2131586 -6.8728695 3.1580086 3.261206 9.961507 5.3432856 3.8341062 -0.060017597 -0.7958911 2.4534562 -8.152455 0.41696504 -0.88394415
906696 -5.8423448 7.7348123 8.706917 5.631973 -0.35951424 7.286306 8.046707 1.2803411 -1.0553137 -7.1785865 17.204515 -5.1320667 -0.7823633 -7.5278053 1.505329 -4.3908324 -8.962403 1.1647435 4.419653 5.783399 3.4032705 8.680969 -0.49101505 -1.5415405 11.610628 -0.19564608 -1.5117726 4.7552114 10.004282 -4.0005207 0.068594165 4.532004 2.9172626 -0.19009529 -5.3499 -0.79462135 -1.4535844 -7.987628 -1.3818449 -5.7570953 7.4164343 -5.852281 -6.44538 6.9282947 -3.4926498 3.2381911 -1.5661398 -0.6425759 -9.597166 -2.960221 4.50276 2.9040332 3.3809295 9.306257 3.8328202 6.1832633 5.3341913 10.050572 1.3084435 -4.0430584 -7.547188 -3.7779574 4.4049354 1.006628
753531 -11.030977 13.079414 0.78154117 4.6201205 0.44484743 7.564766 -6.5509 13.613873 1.7288933 -7.530361 12.297862 -0.30590993 6.9864545 -3.6386752 1.5202357 -7.787815 5.589085 -4.393253 11.293153 7.26884 1.2188045 9.105469 1.3173932 -4.6616473 4.6695623 1.0787826 4.3931823 8.765984 10.366958 -4.4561296 -0.14053449 -4.787183 7.777162 2.163874 -5.0256577 -0.1994054 7.82358 -0.5533311 -0.7485024 -8.453704 1.6929523 -3.1097233 -0.86691564 11.461495 -0.75184923 -6.002977 2.1431248 0.5603498 -14.409403 -4.243899 6.8658996 -4.183448 1.6690673 -0.06764839 -7.8990088 -4.572647 5.5144734 0.31698364 -5.6680155 -1.7540264 -2.6539469 1.3501487 -4.4894958 -4.289473
908445 -1.5265285 19.13407 0.20452629 12.450568 1.0445069 -10.598195 7.002622 -3.5201175 -1.8384786 -7.784523 9.740346 -1.4426512 -5.452806 -0.903099 0.32932562 -2.8883042 0.5966513 -6.9203386 0.36037853 5.7137394 3.8670363 -1.7799265 0.5837826 -0.59201854 -0.9106414 -0.7797229 3.4864695 -2.693918 6.6133575 4.0274463 -9.753911 5.95033 7.2812414 5.145062 2.9718843 3.8039532 4.6878 -1.1743901 -5.958234 -2.2500246 4.2836413 -5.0324774 -3.4107108 11.952936 1.8962686 4.1800027 -0.05479485 0.47657186 -8.392549 -10.612488 -0.26312548 0.054798484 -3.7444003 3.0253153 7.258351 2.7331183 1.6162726 5.447848 -1.2936618 -0.16947135 1.6657029 -5.3454156 9.025218 -8.299118
1240179 -11.209825 1.0354156 3.3921561 -9.923805 -6.2807117 13.889583 -8.346184 5.766763 -8.191333 -9.69438 12.942702 -6.170477 5.4094257 -1.3617944 -6.986379 -4.392881 3.036499 0.7680213 2.7520869 -0.84836936 -1.4439135 -0.85132426 0.014701469 -0.5634471 -8.374655 3.6930277 -0.5294768 4.9826055 1.0505253 4.9957204 3.2149882 -4.453378 5.327061 1.5021131 4.849995 -7.6532683 -0.8790873 -0.00074075116 1.889616 0.9726934 1.3130479 -6.3390374 -6.011695 1.1610838 -0.93412244 -1.246718 2.2798097 -2.7181342 -2.555502 -12.138954 2.2752576 -1.7124661 -11.04857 3.794988 2.9306867 -0.6931418 5.0715284 9.476914 -0.5531495 5.5311046 5.401709 0.24989447 -11.281624 -12.439516
908130 -1.9427912 9.178964 0.053238627 -8.832735 -6.1513166 11.857106 6.823679 5.0738983 -6.4111676 -10.6826 13.023938 4.675124 3.921782 -0.65708095 -8.847971 -10.660546 2.4848514 1.0847845 -0.7565673 -0.24154475 3.8067832 -0.34711993 -3.1735811 -0.2820526 -0.059034448 -4.1120048 1.7344685 -6.5520997 1.0687951 0.81021667 2.2518349 0.7781023 7.4700875 -4.392609 -0.21913084 -0.24141094 -1.7538533 -9.793626 -9.011972 -0.07628823 0.8192817 -7.3781853 7.3763394 4.3762083 0.75211143 3.7892563 5.0379653 2.4419038 -3.0770094 -13.462126 -2.3348145 3.7869728 -6.558582 4.574239 3.32027 -5.777654 -3.9006526 7.1990004 -12.932536 1.0537937 7.9268475 -2.7421396 -1.7032982 -4.087783
910916 -13.613525 9.816699 -2.587756 5.34883 -0.56489605 12.022803 -8.280167 10.380706 6.8236313 -6.2196937 14.457693 2.5192099 5.2838283 -2.2060616 -1.3005823 -4.0403867 2.3168726 -2.7342093 11.23644 6.190932 1.277029 2.7752173 1.7587392 0.5811752 7.1618667 1.6660187 2.920683 8.202994 9.193272 -5.7606893 -0.67112744 -1.5001482 4.9037747 2.8032646 -0.56290525 -5.1142035 3.7867212 -0.36950818 1.9903579 -7.888535 2.2637687 -1.7852739 -2.8080282 8.88535 -3.2897086 -6.3012447 0.32631955 -4.2795053 -11.592942 -1.1299417 8.899945 -1.1261742 -2.580875 0.8303651 -6.860344 -2.5872216 6.6062746 3.9966753 -0.28327915 -2.4104717 -0.13969462 -1.2056599 -6.7675347 -7.6478024
1299050 -7.949082 18.46891 -7.4424815 8.138867 -1.9614898 7.1397357 -6.8767023 7.917463 6.5032635 -3.0015006 16.267328 -0.10341095 2.122524 -4.249722 1.5215632 -3.825535 2.9767907 0.76186043 3.3502147 4.266805 -0.8642876 1.257444 3.694366 1.1516026 4.0632377 0.56869954 6.0262065 6.59719 7.5648556 -6.601447 -4.156847 2.3346114 4.1834297 -1.4366341 -6.221881 -0.5159192 7.9878025 -4.457753 2.902888 -6.962518 0.29721394 -1.3808271 -4.462125 10.941242 -3.885772 -7.0929475 -0.77456987 -4.866331 -11.970563 2.9579422 8.366361 -3.4574928 -5.973778 -2.0489082 -0.40471792 -4.8131843 4.8181667 3.1027625 -0.65596384 -0.787157 -1.835628 -3.6477919 -3.1989417 -3.6172945
