962 64
907268 69.26196509953505 24.425170112663107 -44.373522324467366 -0.7943890893815163 28.31125383555307 0.9576205554939046 -10.886894076041145 -25.148286655453987 -5.863517420975642 -1.294256491236395 -2.577349118871105 -2.854264804566282 -0.9484592206731356 6.84100689169547 12.418352782857072 -7.397130229246753 8.85026021768149 4.488032425185114 3.9642348339957696 -6.408014770368987 -4.501064519841354 -9.364763145541803 9.805726885381524 -2.660776056666241 2.292555817073037e-05 -4.03460482248504 -7.0038530689076275 -3.6238598657819914 5.381795019783828 6.435302193749112 -6.573112825729418 -5.031030840503807 -1.3881832723049299 -0.847773911714065 0.05525011489951791 -5.383951421984727 -2.247076124925623 -3.3283697518181468 0.010638953157578379 -2.1315960696057146 0.45277856915957393 2.1120701055595363 2.366678545398665 7.02792996092016 1.5742938200243686 -4.50489723350625 3.4606739376241475 4.086894544455963 -3.6456351380301313 -7.535276804056879 -2.42871735936511 0.7527498437884713 -3.5499861544025735 -7.07216980473376 -1.0749395819266043 -3.1917518538772214 4.356592320099954 0.54909394502005 0.7520278229381127 1.9548387703267678 -4.57788111757947 -3.0569936342132613 -1.384147407852013 6.225555456908739
907269 66.46408480722226 23.300023113923775 -51.297479357095135 -6.821565464670619 6.412336541796379 -6.433390741864365 -27.085979740002912 -13.211348729001342 -8.531973208816366 6.110121726460955 -3.5620081176069003 2.5361112734087503 2.6013453570911347 24.162459074416397 20.7305410572949 -19.598794055419983 -5.671662617064346 -3.7307295448335065 0.6184554413154821 -6.288536231591413 -1.762973148536217 -5.009332086210816 20.14919269940008 4.600330850176986 19.12015645872028 -2.4824332438803847 4.659911106577414 -2.3595465835007863 -3.0592589628540856 2.2757891656565916 -10.100724276131393 8.651030150273275 -7.77654546348416 -1.3650704388932564 -1.1718325308650372 3.6119634729596455 5.427720638007744 3.4161305730770066 3.4876510103704246 -2.5803437186138964 3.0122616809818137 -2.212027020189532 1.3590004445480097 -3.361337973842163 -0.8637802299905969 -8.865545193668435 0.3707531737560425 4.2157317168317885 6.2856069294118155 -4.859417858096194 -3.493040386114154 0.3589726989372551 -4.512321743199045 -3.431306782251225 -2.191983687083057 -4.708178393698193 0.5698630330304998 0.5792494523151128 -3.2988565986936798 -1.4994173743905612 -0.36423869693484606 -5.346032998796074 2.0992939269251445 1.1042630389893304
907270 61.19980990642351 24.65157535727592 -56.753912244944 4.392924466747283 32.868885780794336 -3.147489430625564 -9.434032938533113 -15.91360008938214 -13.649550690768141 9.448179396820386 -7.01843831264782 -2.792099831698128 1.4784072074779824 20.295646702825046 22.233470506767553 -19.985076054945615 -7.383252238016277 5.235416791995983 -2.3668842188957857 -6.2087199255571335 3.2071873760170084 -2.6354810762209055 21.528981793767038 4.916382105924725 14.818401148739524 8.132400118864766 -0.3000087356343518 4.659546405685287 -1.664167042529633 9.708083428012959 -11.05179840604891 8.302170552326231 -1.5294731929313472 -4.406158745285163 -3.630789178676292 -4.433562149510738 2.741603278865982 6.100580960551524 3.9083579000566364 -0.7051575906544504 4.6101579287977 -2.351974635583352 0.30166554443074833 1.315900556253266 -1.803119717321371 -6.878968577405876 2.430184034252706 5.664713115525386 -0.7737545871036295 -2.6068599305505353 -0.560469123387495 -8.485831600853768 -2.0260032164991566 -1.0578040235922737 -0.13005869330685677 4.91860059236166 0.5715044542159805 -0.3766023095725703 2.0058456680238486 -2.6279158666070717 -1.4774187341534106 -3.874591806379256 3.097806750692546 3.008736150181756
907271 -20.408343753445447 -45.9433516289561 -13.555651797043152 -18.213254712410738 7.1275747007605865 -7.097071628996125 -13.553794909209754 8.443679760804066 20.48672444496417 -15.024388758930588 -1.5206845491051781 -0.5960906918094103 1.6025490623568088 4.730134184053753 9.908941153659399 -12.385492631186752 4.45857620979791 6.847549737461883 -1.3889066548609847 0.3495283925060063 7.410240769871624 1.9660558600973927 -0.3283143355554579 3.4958960965499934 -11.258753245180987 6.136979851564541 3.8540486500072144 -1.1123176684624199 3.70414289457873 -4.700621109061476 -1.4514177650522906 0.12209412002049651 -7.0960064220545656 4.431324450696865 -1.2382591211338245 -5.499309712960781 0.37335499489353313 11.99582065699742 13.788249178878337 9.131680166919333 -1.3490465152763051 0.6480651489317814 -11.40118901364293 -3.4485579687086085 1.8870306380706496 -0.8194900693517976 0.45937463894704994 -9.370144179351978 2.3443451873478205 8.053026893077273 1.6913125072903974 -4.980369815434512 -0.3462096219299657 -0.9120282204563609 11.468985987652387 -3.8171810731145213 5.841203960121297 7.292760277897193 1.1194492013840485 0.03132830944241704 4.087654826472775 1.201277116583921 -4.185712394026495 -3.1334437127222268
907272 68.98126110559133 7.306997690456763 -6.625138524967933 -16.156668188253462 -23.875105013525253 1.5540299378375388 1.5971804572217827 10.405617378731602 14.819976439079738 -9.177192949817208 4.65507179867413 -4.0522249482825625 -1.037324217879058 -8.191245954224735 4.177242073558771 3.9023946825640325 7.327545466396009 -15.769710927237261 9.070048942853113 34.3411069761452 -3.46762932222569 1.306551703647919 5.325555044904516 7.991805210242351 -11.620123936196022 1.6250114936300235 -3.5894992928903102 12.088643068824261 9.150429521568517 -8.238250840929984 -3.4722255100702246 3.8112124302132346 -3.837925775978512 5.6878547115233635 1.5746473266909065 -4.422499051320063 6.7574944287989664 1.1748623755817231 2.8280383698153377 -3.9385989606620644 4.541559737360178 -6.506470388038818 -3.3487602370480425 -0.020256314977419965 2.1148940501234943 3.8191866718506473 2.0816531695337113 8.280125783858907 -7.836445660275781 -5.033853628535079 -2.5454548472722336 4.8577598879570765 -4.328680749211759 4.166207460701454 -1.756388043319322 2.0712026630643785 6.3053587775081175 -9.65337373622859 -1.379254389772595 1.7991470291854545 -1.276211635966422 -2.377891457279335 -1.5858910710623384 2.650614018797768
907273 43.5385257000692 14.29957041843263 -36.95356205486284 -1.777513878953376 -11.426777871102683 -3.471024175957631 -11.928436946190699 8.061121991567074 0.8441110057761805 14.65218080017035 -19.053465701634597 -1.5821695752145797 -3.785394805503115 13.039215484896364 12.655681102634679 -13.0821635819006 3.1367824423289528 -15.008016623504954 17.820087196343366 3.2338848774078532 7.370573512713423 -3.3081652326428035 -10.152322890084426 19.38377442610351 3.2693439543791696 0.9532692475300018 -8.151314702633465 -1.4078855982166911 -4.046983700579449 -16.371124572673356 34.74460514813279 -10.306556369850732 13.136634910548226 6.527460445094034 10.485237590426008 13.528573077998635 -12.046701553492328 -2.6887410711898028 -10.236466224675715 1.427350738578935 -7.068581163564227 -1.2828532024382993 -4.777624714523506 -15.56162434119206 8.506396318492895 0.6046060049745169 -9.468898421825006 4.22375348949453 -8.58203382908054 -9.529227592214989 4.087755095047531 -2.436754984940199 -4.557321278368259 -3.62714072108495 -0.07633959019487632 -7.676928595230432 -5.315342086429857 5.319471067464447 -5.017425337714845 -9.858392627265669 4.5417753551825815 -1.7595803859225727 14.050566953177443 2.274733601583263
907274 80.74727050042685 21.728207634671833 -27.220227090857456 -10.76629244407194 13.294679700590056 1.2663392338410102 -7.617401652525444 -25.665212338778485 -6.998884561644106 -13.770117895681976 0.7417186361364482 4.516885231905902 14.197419260719396 -6.804218499404202 -18.021299509297833 -0.16925588965879734 8.929041382349002 0.5449982224334691 -15.59856216963847 -5.170909031165418 -1.4525801302832977 -8.255262422755202 1.3120327147924544 5.273536877591323 -19.83360238103865 3.142085979780349 -0.5847430845524635 -6.477354494284192 1.912201131267464 -6.185378553398014 0.4417247213415104 -17.98623251400395 -0.014838931301153121 -0.7518100432547498 7.0308309640857605 6.30163283280938 3.6792272938201904 -4.829988333760715 0.1469710717902331 -6.665343168387296 9.694533267842685 3.9534143353536133 8.157900744286332 5.880809778667497 7.259382300107333 -1.1694927763436873 -1.9950069484446136 -1.5805188574922682 2.6320074509741125 6.387353676948483 4.014404838398571 0.7592680850140113 3.3532463354811446 10.817389695268782 -6.056613523133734 -2.85883218553701 -7.341683184523773 12.618680909937533 8.545005741411941 2.1674068210555526 13.505033008996568 -2.7076974067141113 0.9819418066207718 -2.2503068754014564
907275 56.096657136186025 14.964658045361725 -18.436252989003496 7.894801023196499 -24.068919545578925 3.720027592685683 22.58655742512481 32.97013912509751 13.546994692976565 21.20465673574881 -0.9676875776242371 -6.207157111182477 -12.070402381660095 1.596175699303914 -5.852063196986379 5.685486465140551 -7.994094468459171 8.888360310714033 -9.634768119362557 -9.013754103978416 -12.49852002377825 3.135748413335564 -1.8494482906620473 -0.8679679231832889 -0.3699023547836192 -5.176845261226344 2.770537975694522 8.986700196072155 3.296794112220239 -3.0726528804823094 2.106457534395021 9.570318744227341 -5.697408780087679 6.272820547858676 1.8666545814782918 -1.5770754971742695 6.1487070114060245 -0.3815977383739245 4.660160570885409 3.324293912590562 0.40399660451927594 -5.469233830065182 -2.9495832193783666 0.6339239936923068 0.6362384219145747 3.119149824698767 0.3418304300899725 -4.472627127007982 -1.4612085865300675 1.6303150960004948 6.437552087687877 7.911595071078473 6.518132690021261 2.5007703655753426 -2.515059247912766 -1.5122636316061826 -4.037365164982425 -0.46844120361051006 -2.3157305736272424 2.5760232572187847 5.434676949352767 -0.6205160237037498 -5.124819611310267 -0.2648555374614991
907276 -9.925005013633612 52.87726137084257 11.446037405990069 25.111749521178247 -6.8513124067898445 -11.052615815215033 -3.6200481874066024 12.608905958402447 -3.537660891534559 -26.025858534716807 -13.649987667226299 -1.7375762897177782 -2.8668361077545628 -10.039812531625392 8.811588929072775 -3.2527142124116613 2.1079977063544897 -1.831060381376593 -8.152018347221224 4.7434706520467165 14.29606528983961 7.617573194138883 -3.9766573013289355 9.62171950384525 -4.657068335652116 1.699303252557661 2.819492350997539 -8.379236797820635 -2.9038708026235893 6.420964815334275 -11.311847003413297 -8.511544444342816 1.7988849527055142 -6.339554063257248 5.406566564004678 -2.963244338557638 -6.206953592477853 0.49743749255637526 -7.074773604748906 3.708519822890873 2.003658664338389 -6.672342533770382 1.5372090876785243 5.515208359918876 0.04470946354845201 5.175028806928426 0.14820698249517097 6.153132853178013 -1.5999590407388242 -1.0817724756620644 -4.124615669846795 -2.93224133157461 2.3188988828489903 5.687257766340931 -3.368573023937026 9.217449000521022 -7.719677544184614 14.104122490620963 0.29313594439220414 -7.05369699742963 3.644645248047573 3.9023720993521005 -5.777001690491638 6.966074343196511
907277 76.49861933195935 12.16702506514892 -18.818057340338957 -13.361920856957083 -17.701427929471148 3.284248007225981 -2.147259679462636 20.97055508145729 14.583472960297707 0.9898266395800573 6.39811344290648 -2.5242527576101867 1.812176561124378 -6.331951470857327 11.858983829409608 8.073549449407986 7.976588606484906 -18.843360272693015 12.59355961502106 36.93021922347148 -0.7885821034800868 4.519275010176808 15.502197325812578 0.6660593355804076 -11.64124308786561 -7.401936282990903 -18.249192059182548 7.4461301598749445 12.315943105086811 -10.7947533932135 -2.0688962008692684 2.007339607162968 -8.516320042321208 1.87375569355932 -4.1461825427598855 -8.585432649883673 11.203739127630627 -1.1764869461991159 -1.4390339397864644 -8.58338001993163 3.1221008711811047 4.533106338292948 -4.885996789628119 0.8455765648416245 3.5809777004871024 6.58090476529728 7.6220145747126224 4.972745038256148 -5.261566213781648 2.0984877238880983 -0.05815406330048019 1.3306139628130802 -8.107815159629348 2.4501148876111145 0.5277402223620195 3.3993181620311614 -1.4020432974469728 1.3395498867667024 -2.3091117517166744 -1.2034102544156096 -4.25780594145392 4.641774271013203 2.2729954808623765 -2.8742172381311804
907278 66.3686684497292 20.315826307973545 -40.42406772310625 -4.609525322415723 -17.663352708349027 0.2707300456632324 9.020369285430455 36.8287971263899 18.142260641266354 23.64990180356945 2.608802557649813 -0.6786575857500553 0.9111397061823119 8.308845674306685 -1.4980178158689388 -1.3850301711837167 -0.25004337609061156 2.8456301279476195 -2.8516776625523237 4.205915907785711 -8.01527877841541 -1.9224223745264992 3.49066346773255 4.32324878213982 -10.837932017499716 -5.780513334683215 8.315649831615483 2.305776952520407 -5.251871243291853 -0.5011835104334532 6.327244240603331 11.20219228321724 -2.429005684092279 1.8066209710437076 -5.062800021602967 -2.3924034082147028 -1.1513863554197927 -0.6425583945748303 -1.5124351721762828 3.9953445316127554 -1.6948909497879492 4.962595430935025 -3.7331693364725886 -4.507232637712964 6.83201981346886 3.1281073131067045 2.5320473417012757 -3.4223825016487255 3.295956238558981 -3.1018213132248937 -2.1225007259180932 2.789153648155861 4.053873193586425 3.4728008938140493 2.323498053463634 4.601898751980466 -8.268579494883873 2.860365837077158 6.555365596255869 -10.331717511131659 -6.0591671711658925 12.037019397613149 8.067812629379961 5.958438446713197
907279 -20.197998958606952 -58.04881689446477 -12.754733441484257 -1.9731504706785987 -0.6345876200279075 -3.621158775246954 -15.686137131258153 15.453041601842454 11.975294050941818 -20.43539678027333 -9.417874399675883 7.576571813523185 0.8523409830657175 3.1141445114206343 -2.063651935401676 7.031330785660947 10.507382273094796 -5.817009282434521 3.457477774193005 -3.999944607344158 -11.24302212608291 6.56146298641875 -4.574523277079866 12.990376869333637 0.27843991852981226 -5.231623396755232 -0.6159092072836607 -8.2420639559365 -5.7734899275069465 0.9518984784806174 -5.157860034134843 8.290113667360197 -2.9122176276966654 1.4245181009745234 4.202586301661351 -6.65829915521224 -10.006889249508749 7.3367449159253235 8.82377462221363 1.455191978982344 1.3450703683832559 2.503033323786636 -8.894801645793361 -8.685254558354423 -0.8183236943053913 -5.620713559274635 15.297741465614015 5.600089836794081 2.4004259306663975 3.5025690282278594 2.008734324008947 -0.715317985207815 -5.435251185571661 4.364185068712419 3.6281465015145793 -0.9708261758344088 -11.450687156274205 3.7995807055128648 0.20257858104178406 -10.216757118131564 6.241101810672639 7.804872219643728 -1.3133176518780607 -0.7569488748704067
907280 51.825606371765545 7.315134804942231 -17.23845004608707 2.845939962000436 -26.127586058697176 1.8860728785619798 15.316434626717246 23.828002830491194 6.681845515353498 16.979743452652116 -0.013791969151402907 -8.573775431949922 -3.4802382525682853 11.962593194858927 9.122929410117415 -0.03880194838024193 -5.691174941170749 10.519193926136701 -5.457662111814361 10.477417135940177 -10.089269710825306 5.3810645085155935 5.733889041734243 -5.11042369761077 -20.087761424228773 -6.733178793843826 26.27450574093756 -3.5524349046979817 -6.65909537093846 11.533088687956809 7.078369454698994 16.022526874223217 8.50402567028945 -2.4168631900389754 1.4636852575437493 -4.753592179912153 -0.7545277585890843 -1.1147372473190769 9.412858816674865 -2.644887391321548 1.703562966170451 -3.04472344608226 0.9911703940546073 -0.45497749637523666 -0.6236054552980895 4.9960905105968445 4.6163481104931305 -8.429505077931656 7.641410790191462 2.9873573611970015 13.35986086363516 2.393833563807121 2.5993033289453655 1.63509727751997 1.7127207823658697 2.199843000495504 -2.9752680193969114 13.626162074176122 -3.59017727343389 -2.965764065868707 -4.802496419829602 0.9991191732191017 -10.632026665401483 -3.18975060909728
687448 -4.453509149581031 -34.43153138322327 -10.452924016387326 43.86940664622753 -13.646036008397328 29.651777601004618 -28.34014364921778 7.91004700287769 -12.245615871832573 -2.794829389822108 10.031839481231515 4.27121076880647 11.62486876283343 -0.31823382194646166 -6.054748986855792 -2.614174985165837 -4.931296057257043 -0.5544943926051434 3.6753510172801795 -3.470532111843836 -0.45674651113154086 -0.41597183228511153 -3.302320881384264 -2.579014525544374 4.357207775421789 -1.5042950183116577 11.411125150481991 4.3547406826312836 1.1441629648709564 -5.029324108072065 1.515556307488377 1.9240231974606716 -4.280089780728352 1.8250367962976093 4.239491803222483 -2.6497600826112877 2.9675649494659173 9.53706469318347 -1.5905247798521294 -2.6452875271466687 1.2272008661812435 -0.38144478574553786 -3.841145443035662 4.667382189429234 7.455349939757779 -2.025063759362412 -5.6133863070356185 -1.6464868745873147 -0.5951879698066683 4.5491298837256515 -5.093058285132676 -4.318282300646363 -0.9020701935915741 3.9986874458293413 -7.629216059236344 0.025651925322418508 0.691482660654008 6.147825454594077 7.977383595118149 0.6235631258178619 -0.9687394431631513 -1.3282373314861933 2.083887411231235 0.1465481992252795
907282 1.4609023011611058 -35.815647573139444 9.87975494153271 -2.8846657467970545 4.243055597758897 -3.4425743852340833 -8.085925512013723 -3.131451167746575 6.033996133087664 -9.740411198623287 2.8593437861363205 13.619133940954443 1.1084982150380172 8.657387866448216 -1.3855428516538333 -10.931592580074666 17.685075319525023 -9.084942985052969 -2.4968394402035345 -8.557196589307907 -7.061623076146106 9.44975765387258 -10.019189173880699 3.7422962840996865 -6.012719611383708 3.124246034577286 -5.047899400249019 0.5752663413302935 3.343573340077592 3.440368928644912 0.23255311508440438 7.684794928991548 -5.112263797282258 5.937058894120375 12.738446770719172 -8.492247223199263 -16.159626368367118 6.515533817120561 5.855159630516858 12.304928714671165 -0.14033421302723895 -2.7455652108895614 4.9252257277559055 -6.039649222034349 -1.5659758842549367 -2.3913968521893967 13.628250178101338 -0.9487156056146638 3.108267772347348 8.351101481315697 13.11492165147534 4.583515074073449 -6.479958779481273 6.112700652136351 1.8697644300479108 0.5942150258735733 -3.5911280472782248 -4.1284518542671504 8.37492056050828 -11.893587949058366 5.520645252896932 7.429628029637224 -3.520851287266575 5.093406138484639
684052 24.685419180457643 -31.82246844912924 20.620712229158485 -5.249345207156965 -12.664728888445737 8.58118053419696 30.07990195223794 -3.1657833287025063 2.243064435896617 -8.741659480074478 1.7801476125296298 19.919302238395804 33.939116034900714 -6.394293580097609 41.407250598242136 19.790590046806322 -17.267177243390332 -8.806127463004998 -5.051272346136119 -3.0717033915772136 -8.276965061554199 -8.84151050673454 -4.213665925521847 2.437601816995796 11.013370033684476 -7.234541223996072 3.019813674007588 -10.440708919957807 -7.063550539657923 1.5578873747152464 -5.874890340757754 -10.57640084089972 3.7651772591726087 1.9927212260954024 2.1533797533614463 0.42345195103071764 -1.3662472753564554 -1.6047729595421618 -1.2867854752594776 4.675485712251539 4.592112521279875 -5.179199372972116 1.958883080780341 0.20636432816874659 2.2499926136160266 -5.11056218258453 -1.1005478265702224 -5.303560827928135 -0.956141087743295 0.07367810063090477 0.28867915456342796 3.5861926789104794 -5.97834025111932 0.8696740038938248 -1.4761322050634949 -6.622693891831291 5.870758144486006 -2.8611933758202017 -2.808366495698338 -5.232650286685169 8.423774332925616 5.749778040870342 -0.8184025032093097 -1.200117836455801
907285 -39.76928835499792 36.166532871312796 -3.186941687317007 -2.4883424962691887 -3.888480555981032 -9.172869329872729 0.13715204442039836 5.397499786601287 -7.822420766608515 -2.3637020917937974 6.041860229219166 -21.918425695171525 -0.173768693213581 5.793706145569293 8.517224234689527 14.298680581405664 2.7201163836307765 -0.7299558165745051 3.5393495524244623 -6.524312260343571 1.5512566418287068 1.4276455740615317 -3.9984856640792557 -3.727128361286003 -5.18398406347398 -2.054515875295344 -7.583819032767251 3.0868219165510733 3.3683491927378375 10.242068277370198 5.062938226708172 -6.900965892221491 -3.40910211420126 1.8953584242151416 7.479476254481298 2.4026538108539506 4.546473030558882 -4.192698587171194 -2.2998264888442255 0.7194433867151541 -8.328886304431965 8.757810069356388 -2.3132811046827215 -1.6736934680614337 -5.125034439206512 -5.478422765621471 5.640949436648808 9.010926640057113 0.9241959764801086 -6.401048325544756 -9.512771439539032 -6.070880810246718 2.80909508735232 4.1811332308067435 -2.501771275318314 -5.6631150508367645 -0.841832872346782 -9.305585323119375 4.332342253478451 0.7052916625421214 -5.507649006671152 -6.51752013725366 13.088126386198013 -0.40783693143143845
907286 -27.867681442693883 52.84045150608716 5.733205009689885 5.954600144508867 4.547816516972957 -12.856553081223694 0.21411255068469545 12.06871588541874 0.47094296220220216 -12.00593150307472 11.997878687191948 -4.829064975898011 11.841052374725903 14.39941228450555 -2.302467578651025 -6.030513437443234 -0.05311106748965413 -4.758738541636248 -2.887676224395302 -1.90803037613192 -3.023482007946147 -1.1157049535186088 -5.2202543528537495 -9.719507844931982 -3.704838544238599 0.14811790781028042 -0.9262575615701705 3.251696989688634 8.195210676451405 12.998118263389822 3.8817874029039343 -0.25957097614977004 -2.0712185333381496 -0.07884818452104833 10.843844131909616 8.140840598426536 -2.52269135126822 -5.8361908358461685 4.125287658860755 0.8491537620826209 -3.797637416465615 2.8148479684177112 7.700826207796837 -8.063201036804598 -14.683827245049452 1.7994020223702742 5.436687696641157 3.669374713620898 -8.58735393321018 -3.0995696032398286 7.288230329322152 0.21563461038771578 3.7962056250821985 7.262369312579363 -4.260470059027819 2.613632074541486 1.8976257941979617 -5.027370759859151 3.540808164589419 -13.049229625015425 7.974396974559308 -10.49414666151817 -3.5515630812926022 0.568487320242004
684055 33.36876039464924 -37.328874308150006 29.88873821045089 5.190800099218514 3.0048609009429756 12.840203446178696 43.79876928454281 -14.71765208410316 -0.42788921167678845 -9.894721045699335 3.9825929388119587 9.819789885533435 33.88833066932321 -8.55857444787221 34.239982767390686 12.456929548953777 -26.294975249466905 -14.53625361365704 -16.61005837249922 0.4074167343106869 -3.5153532031261028 1.9261925454609992 -3.537044718272306 10.384866943838887 1.515468834547385 1.911378874453003 -2.1894688995290097 -2.121849094009015 0.7985097512696973 -1.7032179108757097 -3.4034563825418305 -0.7131957008799067 -0.6651835058786632 -0.09318497335246466 -2.3742235886144902 5.855823580171815 1.26963142082429 2.0434361069305114 -4.921246263505013 6.979311571599724 2.5326691810473174 -1.5885927050008037 0.5328680641935608 -1.7061569878736587 1.7237270840385694 -4.997810798829276 5.354746603582408 0.07138356483717602 -2.1754360762063425 4.998675445384829 1.434725211829854 -3.930731345229113 0.9809298425300857 1.1456677362764152 -0.20183688791926058 1.4864543839298783 0.5564540959891552 2.078819501038199 -3.886081121366812 4.429734156825097 -0.15569351934598508 -2.862424142672063 -4.63630875750409 0.3552800423703092
684057 33.26758214188437 -28.459621554488468 29.245427590176728 -0.19401779472461872 -1.2265744657838524 14.727046730066396 33.01817172573565 -6.273965828610601 5.01101418664314 -7.478670304479534 12.447033276993599 10.368154513859478 24.52619700371165 -10.103735963000524 32.781998966435 13.352525709939064 -14.156002439733724 -2.273018220540256 5.97722035582124 -2.3455617326558973 -3.3453124041496527 -4.716342837365132 -11.150011257155494 -6.185137320356494 3.5990107250997663 0.992367932969811 -3.3092149121973637 -11.237283824433845 8.038184738718835 -1.728939050726546 2.7804895634941365 4.98362695919969 0.05769509720888003 -0.04316507732191236 5.27542905643459 -0.5379766580946841 -6.252256459525862 -1.09768218077383 9.259079688737108 -2.640219840257062 -4.1704617846739716 4.47690615231937 1.8268998108795393 4.318977076537406 -6.093045672663907 -4.602940877940518 3.7944110899782872 -1.3163568332151228 2.283772298337458 -1.6259885619068142 -6.0696834932462 -4.331357630812341 3.6163992653853616 -1.1637376127525956 2.6446780813904525 5.377237458297915 -5.124293713775952 4.705469691437287 5.6352581285789745 -0.9381592931762538 -4.990467078573268 -0.3240694038666788 4.4124845892502105 10.818106587714048
907290 12.702887860162454 -23.52203398310392 8.743307145879614 19.956609546096406 4.763829645261674 2.4846000836533526 34.671356160099165 -24.643836915752363 2.566242670594657 -7.042104059662029 1.6995609522770854 -12.3570207037262 2.983303971410334 -6.146217838803058 -8.541940389931755 -19.969709969478465 19.51517093695007 -0.33430143010967817 -10.485572407608787 1.251104791924824 -13.838374572193645 -4.157189664018378 -3.8074290107623696 4.998233343507877 2.1438775202390308 6.580878849090178 10.882605311714785 7.944930341266824 -3.5144476146303942 5.580022211335325 -1.845561148904012 -1.8123731812801238 -6.651901344264308 10.350449437967 3.959324811200606 1.4589888875395585 6.957329713601494 7.730822729403757 -11.790846642997218 -1.4779463597603142 12.093517898649361 3.179194317199775 3.4846084165258797 -11.659960289571638 9.029621912900877 7.3320796842214655 -6.809947558383251 5.889464742133107 -3.0396427915273154 7.138280533432586 -2.087805127927029 -9.31800802011947 7.4309411420833085 -1.8731652840979764 -1.9993969236224882 -6.648957661617092 -3.352051293795189 4.317993724330665 -2.8614696374808 -5.860891428448078 -1.1619890861122713 -4.686830435385814 1.0968593691612163 -5.51103096005424
684059 15.746743401882801 -38.61431294663736 15.782391599212692 5.662709331119252 8.951813546311104 10.140588248718043 38.39595632534383 -8.612681300112309 2.2554678484767887 -6.922493503585763 1.2954321793410244 16.810979784525642 31.871200753105935 -3.500511869379438 34.826762977863886 12.293177490944421 -16.415095307485476 -6.645684297112214 -9.626634064821058 -2.8760634603747763 -0.4794382348655876 -0.21808767549774968 -2.512319165562189 2.585352676331407 3.4475550686445544 3.5637152474145384 2.7087209060473034 2.865911213221479 -3.1799152737067886 -0.727832486624277 -4.540682604022991 -7.823752457482068 1.826214247763963 -3.336120757887938 0.7877749784605844 0.17302054437277922 -4.243445898145637 6.439115104445747 0.1705839030778822 7.086190031667364 3.29641527717223 1.150902342835891 0.881407140015938 1.2589345264660319 4.028989925001293 -0.9137441469033114 7.1622568837500316 -6.556668639215124 -0.6796177453301848 -2.3170008162352325 -0.5617821442882047 -0.6372277159466633 -0.20195636761441157 6.875929362347462 -4.311225311741025 -1.840181758319132 4.995177574739034 3.2343783213958983 -2.971016526297981 -7.35097596399056 0.29190523457763323 0.59416079431017 -1.530904260843047 -1.1755597584150042
684062 39.090424980607246 -33.310991337184646 32.63042910167165 -7.015129062790271 -17.735984603996016 12.40686552878909 24.51822487094157 -7.730528353243069 4.989769320114719 -11.816790977548196 8.518022943844988 15.63913161992343 30.548281460203786 -4.760909727324075 37.07523357574107 15.347121041919099 -25.098220207522274 -15.002080307646281 -10.746872558074653 1.7294452657900345 -5.907590768810131 -3.6164481874704966 -7.754107865196282 5.171892898120178 3.897308918721709 3.415304405289302 -0.6070905177912423 -7.0820936900345695 7.926806613206098 -2.5822952520197373 -2.436888011067351 5.671082902203541 -3.6737135489990003 2.6411241515457298 2.209678009851691 4.683838607513653 -4.330404536868698 0.32723294290347044 2.921768216847539 2.636278420396946 -4.1234818308405154 3.980165854589008 5.3882713722925635 -1.789887193088214 -3.7977811630549807 -5.353056528879328 -2.740467205381593 -0.8160531439782279 2.831730062781355 0.8982311473329272 -0.11029934351966707 3.295248279320621 3.6616965380147297 0.991031343434855 0.08056140390911659 -3.3813142165971604 -1.3376420470069759 4.662292382072633 -3.4802407644376614 -0.8927984314120916 0.25959959579040803 2.240060287593979 -0.14771195487154953 8.689599915953588
907295 -1.5499846993070465 5.451210883552291 38.31279279749582 10.789808662915743 26.09064970391036 -25.50247218636729 -24.047645954267615 4.043072759535064 -10.163519181952138 25.853551473789466 -13.244957594359471 7.0854352152549485 12.578960492555044 -5.83804008561574 4.073193812441414 9.332101371325471 -5.777661914643861 14.285226367259602 -2.4072668786083007 6.905860811430798 -8.96323583652159 8.871829426218765 6.119043481728215 -8.991895823064118 2.0972795539928772 -6.8272040335085435 -5.3264317127626235 -11.979807103363019 -10.351799103833828 -17.85626518854636 -8.735405524901562 3.3619175814547115 16.257545011671144 12.628198520527905 -10.12144033394209 -12.791097440388205 5.303777755525581 -6.268894118654124 0.5872357053489028 0.9556919734007315 0.16680556334541427 17.01664587696423 1.9249868363716327 -15.711185905415729 -6.965204600856421 3.856047169393439 -2.1038067677867223 -12.657787214973437 3.931475230834608 0.4456390242623966 1.6372131765797835 0.8081593887353489 3.105320991574665 -0.6912780737864259 -4.532422365953074 -3.4203485818532733 -7.610866790207418 -14.704941970895932 0.0030187380275559345 4.257162018910372 9.410822747370437 -3.812510695070552 -6.008421874042292 6.514393437450791
907298 11.127838176352467 -20.11991943739876 4.392783117585044 5.8583975432895565 -29.861694931975403 2.0593445626991618 14.76489496971061 -22.424674932319583 3.5773635956948504 -11.465776716105644 -5.821272625163412 -7.469847079731019 -8.859329391266446 0.1001436949418139 -3.2030991909948225 -13.71980347503884 18.328484848429515 -6.7498327697528575 -3.1239441206595795 -5.649644317868742 -13.09360484976229 -3.276272843578806 -7.49471304396242 9.635165813524818 0.2617665662695932 -1.4287309570716247 9.683691164476176 -5.31697191329673 2.2908712262904483 1.37034374555878 0.6554409914841048 2.1673355040459703 5.881337321009087 10.145909771314441 1.4619145055575857 2.1060180291646575 14.131055562874426 0.9095085393505186 2.651263826209759 3.8012139308342277 8.0979481942422 12.115067559095934 6.4438262688296915 -6.327434734648409 -1.620450539196499 0.05714680223821822 -8.860182459231568 0.9510088313321329 6.352663327098632 5.6135882114393025 -10.583435640774065 -5.867728864637854 3.4705153005387404 -10.945707340597908 2.4691463917008933 -7.793991559037979 -4.58256266753643 1.8802293638053924 -3.5512062957605712 -8.994457113006371 3.53777435164511 1.0273005066623107 -0.09793301551019157 -8.202345452643431
907299 12.701797067545012 -18.367978469847216 14.252462001363636 13.900157589290872 -20.198342763191874 7.144896536795665 29.89833053364434 -21.748923253365998 3.4774416719066923 -7.4188225038212305 9.472436403153976 -16.600695955768618 -15.254267727773227 -9.18467568198309 5.557374008724925 -11.007146643790398 24.358755179512613 11.90499219693431 0.929767635446367 1.2890620510578248 -11.021574356925687 -6.989052232840317 2.8071352124658384 4.395966644748236 -3.1501721580258284 -9.575683642827 -0.8102659207110281 -14.4985236585506 -2.921789265169273 7.796351073750141 -1.3459104244103008 2.401264401783462 0.30599458278432273 9.739796645158261 2.371274363306751 3.738322946617951 5.3188565322402965 8.351149375421686 -2.45375056029414 -5.107352285093432 0.5630229160976137 1.4178456229034488 -0.22825966039850706 4.430062613884582 2.4102203268319635 11.50173372813682 -9.425625822952618 7.8274481106958556 6.292780348694211 -2.4681045112816538 -5.468383794379829 -9.181005921437318 -0.9742673878321542 -8.709863338590791 2.3590717810924415 -7.409584961838066 -2.129735090533229 -13.176098492596536 -9.304975948629023 -4.964031181343872 -2.246132745489599 -4.417372542663971 -0.1514437317872024 -5.385372294649868
907300 66.24692966738377 26.234537542803373 -32.49813516255319 9.024394287559868 -27.384450534067916 1.635429702638141 17.122300727743237 39.78825708754143 14.696317408565355 28.788644995454003 -7.71130015931421 1.0568471723942274 -8.383324562903693 3.4905594654942305 -10.589895775584537 -0.7637795974651397 -11.667385283074042 3.2924690688010245 -13.743815488159553 -12.447383429948118 -6.322649893894921 0.4484965479108918 -11.075965022670012 3.5157689302837873 -1.0915161841625511 1.1268034239701892 -7.084485936995383 -4.169931029825458 12.193239720432633 -2.8606747225657787 -11.813010145428327 0.7602456164228565 0.03834433007227682 2.5907507277454314 7.937054392431071 -5.476288045804195 10.741338636419195 -1.9827515942025675 2.2877486371278355 -0.1878385243627434 -1.0699190093659054 -4.058346493205493 1.6211576923653879 0.7564961202275673 -2.245936749827087 -0.6231639322831943 -5.687565651203178 -6.28966434906919 1.0106014930686757 2.991751172516767 6.116407444922753 -1.008871979595685 -1.0503459193720177 2.675527052389403 1.0741575899712223 -0.14293408598888413 -2.923531466038562 -0.35877938925439085 -1.5204902566982879 -5.028556992029223 1.4945411834775624 3.6873026198846977 -4.464008182617859 2.1408999738497374
684072 37.6998550324822 -32.66982843150159 31.140528183817633 -2.656101714121076 -5.839085020778676 12.06658363769725 38.601564498068214 -10.854498991907073 -0.04798861497147847 -8.281338464631665 6.305711940483068 15.90285673208408 33.728897407827375 -7.185545569279111 39.99982467125918 15.813768979220379 -19.358203713317987 -6.552764712970383 2.005339803274953 -7.105125394298758 -7.552335079567016 -11.327917756469546 -7.561689813807637 -7.506063110852985 2.011704029642177 -0.9659975807473945 -2.5352440929348568 -4.550429670212093 1.8568869344343797 -3.1848290501371173 2.360512111241216 0.9341061400779315 -2.3580606049716706 2.7135426640033153 -1.9259828073933771 -0.3337003909577492 0.6996957807174554 2.822799182915501 3.645408988521004 3.5421622171935234 -0.516857682653362 1.9903482962528698 6.508579486598583 6.880927276262842 -3.028890470586848 -6.954318533002337 3.2712563238171626 0.26980961935971326 -2.9304115129951365 -4.08267383914166 3.5124021989281187 -2.825708422947957 -1.7435835991351512 1.2344303924911675 -0.7771017392205737 -2.2960727458098944 0.20904224707806124 -6.390174286176087 -0.7970037192692029 -0.2521616185195294 -2.3694342533082082 -1.6044373662201044 0.03657486986517362 -1.8723589266985863
1303900 -2.0442680761322456 21.570044220474326 29.639742896325096 24.621472914251296 23.65641674948356 2.5768909425944133 7.0925083577081836 -24.833185632610228 38.24418516486458 4.314978613396317 -15.915815322467642 -18.279030707431218 2.707621542930217 -1.9963665867198048 -14.08029165203575 -3.6298901180232455 -12.589060173471864 -21.394775957083347 -13.773890078641701 5.8366244171631045 -4.641354897641846 6.190714010055314 11.633378506609478 9.21264273097096 -4.560324682648487 9.208910247834082 12.341052718122342 5.030177485922527 -7.907427957757113 -7.732941242576416 0.9324323500620313 -7.9253918207702405 -5.515402098798296 -6.740821088131189 -2.915870652512841 -0.22326900573035857 -1.3598694458628404 -0.02685291906109719 6.411633183528592 2.5112282736109366 -8.26397715812813 -0.12752957881310745 -5.9600490600889415 1.3363482518969116 -7.083859100440128 -3.9611247053834298 -3.972921424168403 0.3953461053710337 -0.158293746354096 -2.8019215129156123 9.125645880454455 -10.038175392823815 5.790720681036884 10.375245731341249 2.645673404980099 -6.786753053350197 -8.063000744114103 -1.4414056749419446 -1.8945035325268902 0.8020763353986444 -0.17914147813697046 2.699878548711484 4.903194484978788 -6.394021938084937
1298475 -43.41041467144985 38.83157027693422 -6.864433737830935 -6.965735918865175 -2.501814139086482 -4.7079342592592255 -3.919817504160023 9.41331545037959 -7.686888166768467 -5.04709464595205 10.301889394108938 -24.53173867575201 2.0760389572868525 10.75831905206268 11.273169353582386 12.88091779587388 8.180256986308486 -8.345556662046201 -2.331182188608206 -0.9811209234367958 -6.0841275362692935 1.8572149472402464 -11.912872004959663 2.3732727416322574 -3.850891868885725 -10.432023890551266 0.13738086771986419 -1.5282434383200854 -5.7106228594986 3.7678327533577445 1.0122204396618162 -2.4812927479489355 0.5133247450688053 -10.047981782777622 13.176515029895304 2.76904072093392 8.747909470813815 -0.783611624373395 6.61533923394119 -3.3318505565802212 3.1973354800118203 0.8262288116921888 -4.308924270511933 -7.245551263538647 -3.022361596264362 1.929099673037748 7.437058682027886 13.658630007206568 3.1840819742431736 -4.239064607809947 1.338195120341136 -0.618818204822372 10.259917286308946 0.8753253706533948 -0.018934130685352806 -9.687335246038614 4.367542967551109 2.6471004575236985 -3.3239631775142193 1.1651510874987347 -0.6239349304374815 -2.377799757673717 -3.379689503635656 -4.81329902002875
1298476 -47.64483347516727 44.84481450299383 -3.430218646162921 -1.3851163019484896 1.8894507088871835 -13.999187204631154 -6.86167951991084 14.279522350852268 -1.6892980083398943 -7.428727944808643 17.860959111512997 -19.586600420223295 5.1804257789435075 12.771275485477734 8.770772124462864 9.237618580307592 5.5594344793578045 -7.183241753243372 4.726312946736042 -5.798187783650603 -9.235015025345369 -6.8740856777699575 -16.326327308668713 -3.704339191510087 -0.5708544061453433 -11.911479467568821 2.0453413230509625 3.6320308929235474 -8.553549949880265 1.8671366579658306 2.3541136237996563 -6.316821515769831 -4.4795719579408475 -5.655353587753038 5.599240264897444 -0.5050845815722869 7.180249991405928 -12.466312687464779 6.775875283320347 3.9269240720674907 7.96165198923823 0.19636093077807465 -0.5544951573309496 2.978605291844093 -1.9044458686209957 4.319538993782442 0.2500028844845734 15.625584455842981 -0.8292049206522728 -1.7043302892622942 4.040385431080003 -4.245943806374516 7.151281678102017 1.6461059501817685 0.6506986188311735 -1.8796324229787968 0.6520132346003404 5.841739519166047 -1.8942595173547008 4.277345187449347 -2.526691705002007 -5.180150139874084 -9.720699405137957 2.5625705356835713
907311 46.962415604340265 13.929447759529536 -20.63004828243314 2.8659311789072595 -16.310655168225228 -2.6072384996342555 15.009199492273957 29.687991894263085 9.676963284803774 29.043271124772556 -3.1326130573408535 3.4347201093442936 16.323841935720516 8.875433920203234 -6.031887911060649 -14.098190159747647 -6.579965147164217 12.020847264228182 -3.588487906406083 12.132202582163693 -2.623453313920343 2.3375386687034148 1.3494167221550442 -5.139881329306503 -32.2198060690144 -17.647308227558945 25.960540848698475 -15.875785276022754 -7.906604793942242 24.806649699634765 22.284848818369614 0.7725727540586519 -8.976705881074128 -6.190161713833194 -14.60781196917269 3.694628362927913 -23.54559597895342 -7.183711334222463 1.6967995551369583 -2.0694794705141546 1.1831361125870183 6.087384694990707 0.7388241660220942 3.458119224670906 1.0250312452495476 -5.523342293657126 -0.8098377475887332 -2.007122722534692 3.5518150024469164 -4.414373705398652 -13.512617302481576 4.608481533756316 -3.1402462333598438 -6.398937526598787 2.8785401586693258 -0.9993588499200996 3.4154335160917824 -4.025148627253026 0.4037175824279478 7.145442032051398 0.23371558150905783 4.775260875530608 -0.6094955744391573 2.1760231758119395
907312 -31.801853410980424 9.303781446822882 -2.3200234111952116 -7.780733089445151 7.166193874541716 9.635150571675 8.081586425834526 -2.2375385647357455 -20.0869901451024 3.0477134392886236 -3.165650156371218 -3.193135877096008 16.141278637988847 -0.13212955421914652 -12.661504803810734 0.0010313470354502963 -4.663301976832398 1.3550982967442933 6.9549382241134365 -1.155919559226627 -19.72010534979339 0.23690282217713637 3.810766019439091 2.595498901803862 4.825517246168064 -13.027690084929606 -4.625293487679369 -6.2063421680272715 -1.4025515841493064 -11.27298784052106 -0.010963199399344774 -0.12693182589942015 -4.034608183317083 -4.267085230197204 -4.9571948268914445 9.908827654001337 0.12576033992294577 6.272800981119091 3.755850920574071 -5.381452060227177 -1.2779193419148682 -0.5582631180571495 -2.6554371936858954 -8.782417558311861 -8.097636713469402 -5.486846364124158 6.428084591805884 11.31193645154196 -10.314802359028764 1.4260896828061926 2.815695170383508 -0.20101773172735588 8.750406744367403 -0.8912543213046762 6.347674609959803 0.8308914601911356 4.467728711094983 8.168384278706117 -0.1776297683509165 1.2475811894738662 -6.187045467408192 -0.03565769883145877 -2.2350021142460714 -3.438898680119538
907313 -14.578644247409597 -46.78314422126214 -14.735893921893132 5.088829507312861 -1.2898469717879062 3.5912326815562836 1.2603622234697915 1.670535332675098 16.40712136173507 -15.80765088215159 1.3290844219723512 0.2657855011538848 -3.008984547616184 1.2242084330162901 -4.389161654401183 -5.301383528978526 11.013376425208456 -3.747781737363526 -1.770705990971929 -10.603944479800921 -12.465227174493872 2.37857423638557 0.9061503332915404 -1.887194714439202 6.775020213645297 -7.888352058632804 -4.505115305087365 -4.0542245616447214 -3.0340844546184447 4.123017614360398 6.819832182657133 -2.0541947843985637 6.049951351054336 2.387418218544968 5.54322978582079 -3.387538978373873 3.1290245072489413 -5.982905434887023 -3.800133590089653 -0.5546560614939301 7.216602873247532 -4.999466595233966 -1.433376074373113 5.278523299421643 -9.621965945537616 2.2195796684142843 9.183636597261277 7.352484879042625 9.585218351395618 4.858103558638639 -10.22035455227578 2.790388615017062 -5.428897496202259 2.776562094651718 0.6083976830215324 -7.712706940393299 -5.055922871671867 2.4365143906126767 -4.7035581077092115 1.5663949240026298 3.5172605027626154 -2.1554380065421292 0.6513594137613041 3.7730372586449628
907314 53.04433209053424 -45.1077148665734 58.406257724111036 -18.08774540811844 10.493204274238147 0.09839754418987988 8.665712128438807 14.798203310411205 -16.83531260681555 -10.859022283140197 15.590828312388199 -3.294317843608682 -19.73337682941613 37.30176483656555 -20.296793345139985 -2.3550978686504744 -15.043324062538986 -17.849987175957352 7.11587564789363 2.8734457952615977 10.289531931141081 -12.31692508797468 -3.503221355862435 2.1650718436544536 0.5269170827040754 -1.8781290837198714 4.437126763495592 2.4136550205324014 -4.441739690743436 -1.5672767145695676 -8.189728121486551 -6.263448758211418 -6.5939316352051485 5.9995891657424645 3.403903091719594 4.9789764858353305 -5.211607192799993 -1.7687832442784817 -8.728176073119705 -4.643303137481351 10.209629674837082 -0.8694432994157163 -6.2600078993700565 0.4557878079251549 5.266027960521776 -6.392935338125829 -3.2191015097536693 -3.194487303443808 -4.53999410280458 0.052689086360240264 -6.360405844613482 -2.3422116602668788 -1.6358704746134825 -2.7372479781888615 1.3505467140169318 2.4226330755610275 -2.5912083174757035 -3.8082263853574445 -0.5091602571474927 -1.1232556741952238 -4.398459300251752 2.737990298279599 3.6518903661843423 2.686016514369751
907317 -23.592140474892286 22.491491558853408 -5.377956963787872 -5.285739440269435 -2.4102847277245876 20.28111808859401 10.358490246364541 -16.017945014458835 -17.086339094758884 2.729991407940311 -12.584080991311097 -3.6914347399251533 -0.13235952959040886 -12.406045731058253 -13.36863260869165 -15.60675226049951 -4.2407491001727875 -14.748897597083124 -6.778953150029046 4.199613956063569 -4.487057442578297 8.403191029635442 -1.6790665009459629 -0.30593435240341454 -7.559578328351252 6.040241259499904 -6.089954928466778 -12.910753965050464 1.5199831951749283 -1.9579128079939108 -5.766820498995218 -3.392996830807316 12.948870917206765 0.13558866290449034 -2.4947195979591936 -6.101861977910951 2.7596841582715355 1.219278177745042 -1.6182175789962003 16.650556491181202 5.38694442120464 -7.662004771197235 -3.1485355407510185 6.447535482331498 1.1962104599391106 -3.9091040098297603 7.67758878562968 5.370563599763969 3.1254028901628366 -3.2290044738099843 -0.2715382069279547 10.579787242831335 5.591791979127073 -3.840329410379602 -2.0332789335305286 -1.8165758104138325 -4.313352890368699 6.738903409582896 -4.28582682318234 -3.3774245900382196 -6.414560958324143 -3.9975662361643605 -4.156069381032493 -0.1506857108726393
907318 -23.036867076169322 22.786964648852447 11.181175680770611 -13.142462023228061 -3.0824292152734287 31.055898321062976 6.060019534533911 -9.455714505665133 -5.160771047178177 7.792880792762052 -18.38466271524566 18.592512344810796 -11.847551839910047 -7.903688052888861 2.9196160880794424 0.836237937313056 10.654821987034946 6.819994252397658 6.460914195142915 0.9697489773195126 -13.870335594028644 2.97987647059444 5.619758798244164 -15.674475370661254 -4.746933423793606 -18.184950582832077 -3.257815640515295 1.365330730751396 -5.5228179077347725 -5.941107960681267 -2.696331403614131 -1.5234413888266758 -2.165511409759538 -4.8769661134652145 16.338362654660077 0.9455313404905467 -5.707104607179557 4.666869962253196 0.3890196957424089 3.6941812922254607 -1.085898531980987 -11.773147517064999 -6.9001730811931985 9.215812600300449 -1.856531001780311 -4.557961505332857 -5.597780017370794 0.8128152588997377 -5.003624045202073 -4.883150322212489 0.4687193326349058 15.991652575441373 1.6766919296888692 -5.22201395166105 0.7126749212770912 -0.9640482451276982 0.014765674405742116 2.950358429330281 4.484939944429358 -1.9155081894190895 2.783411397609704 -7.1850369077281355 3.7097143888816806 1.6639413672543506
907319 -31.67593504028721 8.824364045804254 13.628912905859991 -8.486404774087447 15.172102993914562 23.790601294626523 9.790358324423705 3.8800026552180693 -8.291629481507941 10.756926609062406 -3.195991268441674 7.067710350260312 -6.93212126015589 -15.603662837432136 6.595817861695005 1.1938406570017848 -1.278442105831381 22.557566333757098 15.233746996014965 -6.307685088455202 17.587148547240897 5.137333437474384 8.141498823556296 -0.2913498336597107 6.067406779908659 -15.297568662771885 -4.226533449494096 -1.4936014326371927 4.396091442097948 -7.006229236740196 5.97644674552739 8.02119330447792 -11.619332030771188 1.024312731828279 1.4991065759911508 -0.6252145439626804 -2.4270259155728513 0.5783467398511611 -0.11239983737249694 -7.072757251633787 -16.464101748859637 5.908143285814202 -18.010773631742204 -11.027632545607272 0.15175600117278643 -1.370404783581098 -1.6661987681788164 4.862457865870225 -9.226654661567025 -0.6319640710163305 -1.415848243207383 -2.9082093760933088 0.7019142006288179 13.313292227416817 -10.53391318153906 8.313362039890526 -6.900184666943082 2.6220990435573515 4.646899129863423 -3.4420996476192514 -5.216706515311136 1.5279294977348004 1.3628695579378527 11.928198768909398
907320 -21.38148261293229 18.08153788103342 18.692613381150306 -1.328168372598036 -7.937928656977956 34.36652771055997 11.830587221966818 -9.445723110982051 -5.152338089018572 0.011149144618635773 -15.726160025767324 5.077279768570259 -22.045041520089793 -15.772883923402116 4.117604742065192 -2.2586230854485847 1.5561924936358809 -1.4777154557621388 -17.102366810430702 0.7542449204538496 3.527298815973378 23.265584430572805 11.47457474833247 12.621259597002101 -2.629059738687972 -6.013247857854014 -12.984856031312072 -1.1324367525801828 -8.781069562070572 3.1773454008024324 -1.8880603512934777 6.9646308747790595 -5.74777342749707 -0.25645651682549764 5.564889480105178 7.434007657866531 -0.16626779653935303 -8.261279829821381 -5.767099555142876 2.652985532003737 1.7218571863057013 -5.340221384539893 -9.81976305457511 -3.4522535517098176 7.178818212982391 -1.815137473232289 7.709635247880973 -3.10445911036871 -7.44822251154346 3.454873818262783 11.674819135492061 6.464404785549883 3.585967840919409 8.690324321339547 -2.2585381351322673 -5.615404687417099 -0.9769398681133847 -0.9561237082875856 -1.5948760566780549 -5.0011334966325345 -5.767564280143816 -3.6822555115393625 -1.588427515886019 9.453421498473181
907321 -30.828467865816986 31.514296002821066 5.338221128317908 -14.653673841584572 2.091597797460522 24.505823322194374 11.874466179235567 -6.702723757293005 -6.1578416490028 5.009295848847727 -7.009836015123963 14.934912290527901 2.4659901671518147 -7.303596762547769 -9.006465562225067 -3.0410982830518667 -2.69886210436701 -2.901840111571878 -0.7319747554440187 -1.3561215930526789 13.150230227148038 4.939689971955975 8.637262416826756 5.4362161535248426 2.950183480306008 6.759971681975401 -0.42672567568950714 -3.172925123208351 1.1954334581814745 5.701096850837486 4.144467005728952 2.129372032263914 7.777163547268178 -2.000200715934 6.8491191601567785 3.7059120672923993 6.663044919256047 2.535511047082414 -9.838534261613617 1.7399939975124032 2.7737254780357348 -3.3380100348369943 -2.4079176620567724 -2.131911889253223 0.1707446539458236 6.253305107257983 4.047734426497693 -1.895734841106856 4.49400581187175 -0.9058728757253272 -9.24623109111464 -1.2378406521744933 -0.5374409368460444 4.439831896542516 -6.114628017410221 2.9047120602780274 5.172270869833242 3.4874163447493887 -7.841131374315721 0.6146332518471541 -3.6548828133717 4.6115748319840915 -9.21961631818241 -6.194169307954838
907322 52.9299851346231 9.584552665596679 -24.273888692749725 -7.322395580615638 -12.217452850786202 -6.04084624203506 -21.899654621431544 -10.71178548884811 -10.061748508865827 3.5281849357082162 -15.62948096092274 -1.1600025435411037 3.393395334808575 17.042065605926116 13.528015244506484 -17.486325490279132 2.6183304463250554 -11.870353467484597 13.255357246554606 -2.8516553849863464 -5.70700014907326 -7.606777261529889 -0.4343331761295523 12.810563853756664 7.2837316509413155 2.0407658871203256 -0.92839137519001 5.544168608355712 -0.14779302536762468 -6.454704409655316 12.933781977100809 -2.646603305298017 7.158196630242048 -0.5697622003180653 8.772402056859754 5.641681802217315 -6.021679775192122 -3.312831208657586 -6.820282362819216 8.547122259051465 -4.393311833182147 -1.174729614379132 5.962416073373353 -1.9692542251350058 -4.944148424077444 8.188466476984061 2.019556008846213 -11.714454859653863 -6.2646916757718865 6.493844357360067 -9.36029355610152 -2.1157882056923483 20.142435697493987 15.578288930272969 -8.036868271120948 -3.8912263292833003 -8.489364073438288 -1.2470393273859435 11.052439944236149 16.484233085044636 0.4181583127831966 19.723669668583998 -6.5642812487318 0.11707515471565179
687455 -22.748635389106358 37.61700445749789 10.180536756033959 5.13495232498399 17.482913093849202 7.0501394308874294 7.324261850101222 0.007499101797362027 2.4389537536357966 -3.5753479378559936 10.225239795786601 9.56263264725794 12.667097904504272 8.090487078616645 -19.949238731619502 -8.172723613134982 -9.058094583619253 -10.053240348453198 -6.177142911764333 7.635626007272921 -14.026401689349676 -0.023984036645735517 12.732691513929913 8.083887482732152 7.193239446486063 6.32460095848909 -9.044896643167307 0.01841096779010918 10.533793987173038 27.318508079065946 5.122735071197061 -2.2484260773627502 -2.2659578074136775 -4.579147268685751 -0.1914001367920385 14.686070531884546 2.1940079110256008 5.637301212533387 -6.6193852529401065 -4.3162757035842185 -6.401795395957936 9.581024623361897 -8.892651778027405 -10.431867922919572 0.314588520212207 2.522571116541269 -8.401213715746284 -6.021588595057868 -3.514993876220701 14.548670477000128 1.5470108560967006 -1.693759292558833 4.784570030053454 -6.2311588779022316 -6.421560472987495 18.939486225309984 18.141306744602613 -11.092240275637968 8.433801501340419 0.09394488525358118 6.699369315698371 -5.98991449950884 -2.134760815267967 -2.9285218336580954
1480374 -26.121030007806823 14.96759382606834 6.8567441731893375 -17.59221734699231 -13.889263261792571 -1.80392671147575 -3.5261383979533405 -7.883048117424511 -2.6060115028695976 4.185214961523372 21.535756849484386 -9.571556257111645 11.328137581826404 0.9426638557736247 5.6852231984543495 -1.6857698447915146 -21.7530919038389 25.274915646814733 7.689255078954093 -8.898769310213838 7.866572158492247 19.686729349712643 6.175262989086186 10.259580202797784 -9.920378573360912 -11.096934244239884 5.7028242408101715 10.772413532078309 -2.8513731859382254 -12.599708938141424 -7.6807004683490065 0.26144552647081354 5.562389253242444 4.726929401524303 10.379158228859543 -2.5879979825656707 2.228264813108188 -7.257482790040965 -13.251041651152534 2.517131833767721 7.037463840232158 -6.5939065788740825 8.6000875055865 -1.2957526996028335 5.45995032783291 -6.178648850321384 1.8974493136268809 -0.8891251122741277 -3.889227750925959 -2.20513285100067 7.082902605629937 -4.0754094568734125 6.117441023157736 -5.235736713082216 3.1694228644677915 0.09270969284552227 -4.357370217147063 -7.638485139667029 8.204569675724304 0.273992904728989 3.336402292771195 8.4036959310069 3.9472638451825075 -1.742697154751747
687457 -32.06792999362314 36.186793418616986 5.137952636587318 -2.971830111967672 14.510190452232958 15.780196515145034 8.517207051810622 -0.366838500154822 1.9814278788278663 -3.0679215618042086 6.984289790980758 2.8288496930816955 7.084600910304817 9.97363820173443 -12.301835223600403 -1.0145811450252284 1.1838061274686493 -9.35457134850586 -11.853627465338985 12.99060332375595 -16.644447014271446 5.530768928427329 4.291129497701251 6.97719891403876 6.242423097857512 3.3171903535801373 -9.306495037662229 -9.548421811803053 12.162874166121158 19.77446595848744 -1.0590431716537216 -0.32920333140773383 6.5253923351349625 -10.175646479789718 -2.823703258532448 11.830531746920755 1.398031124530851 6.417431366893032 -2.5682307692497313 -3.874280542620937 -5.160733893727729 4.38129884197323 -5.147885907353979 -15.023015651000707 -6.1892298314426615 -1.7817194965376124 -10.730556019193585 -6.521704760260771 -0.41849609119378683 8.074120024688 6.237061124753682 1.3857388296873538 1.6247515906837346 -6.403371794330303 -5.56123944161265 12.398405152481827 16.97753450160591 1.7029862463275633 5.828693791038234 4.989361795780689 7.162956524064283 -1.0817924006264805 -4.311203499136433 -2.371829298372351
687459 -35.477720838132996 -26.830917536096422 -18.401629066282663 -19.349846346799712 -1.255048068603099 -11.7679246317904 -13.274751345066354 7.640952545562555 10.963984244938779 -4.399965622432556 -6.77930664646756 4.00953158913775 0.5135874218083485 15.602022363267572 7.724973691825416 0.008160476437070989 8.102524893509397 4.730464859998906 -10.52421878809639 4.425100560378239 10.785851848275318 -4.220128161532713 2.5625551618024685 -9.26979563271642 -5.545061755381817 8.786630706282104 4.442615161415622 -1.2188248162918136 2.66563570049449 1.3503970062493658 -0.6833977716460764 -2.862791740680911 2.2692115805713287 -5.9109657957411095 -0.6628817610257836 -0.11108819384885756 2.0351022998244463 14.56499846003899 3.6304268080460633 8.303819164587818 5.44796582305783 4.139819076272752 -2.7938470066161196 5.453927064531049 -2.4347940783779114 7.09347849417656 -4.896238655056196 -3.3843985229233855 -1.6236623711687028 2.2827659037930403 11.173595316700979 -3.3350560784010583 -3.8429863175069165 4.263561263092565 -0.11155801258926955 -3.471961133079774 3.6954696631815294 3.682376539947119 2.7339403456820084 2.5749991842313444 -7.773546541084884 -1.9895735916957693 -4.4242196823955044 -2.3902938824371125
1298526 -25.24444007275092 39.86439718437446 -4.305933701688647 -13.488012775334774 -20.395949587944525 -8.15847791795156 -6.632406659677823 12.731792915261426 -12.679657545341007 -10.832292739146997 9.755613502016054 -24.92405690738306 0.2723387816612136 3.7050440473110013 8.943349421406452 3.4003067467712316 3.8543967377229293 -7.3123708503559905 -2.2723011588783057 -3.7909021197904016 -3.933996716933817 1.9108298692623165 -7.950474738239741 1.1076762211339737 2.933470673229936 -3.4380397534835603 10.153442263392167 -6.65415775084329 -5.489726840190404 4.811941543832012 1.7897732804734106 0.6359069369243995 8.006965936565768 -6.674129237237387 17.734285354661573 -9.726851840997492 3.0165577689855483 0.8260022177963796 -1.5306951617381084 -0.2582775765958002 9.418574636510536 -3.285228670596673 -4.267667928678731 2.0819485332846823 4.509561846078781 3.4880776592112994 3.919808793395775 8.766872190580784 -4.298136677325507 -13.404393807148637 3.849714462914233 4.042433136842655 3.7497559152226048 5.658255732038168 2.597926496708281 0.3754517532506775 -0.945878578163787 1.0002268041796845 -4.487544041736008 -4.710327398767331 0.5285198114322508 11.217544987269081 5.754515293953394 6.306105583421151
1298529 -31.14896821611064 -32.61196995269966 -21.9137234393006 -12.428537368789486 0.7101765573237933 -4.210549196155184 -6.2908493964051555 1.7317761464379948 5.946900037169537 -5.854736244194726 -11.32595031166014 -2.2551137938287287 -10.902161087047602 -3.887987414042586 1.4447108672832565 -1.9269103643665062 -0.9823083292481128 -0.37912635061249766 -7.271551763291902 4.280728519045149 -9.223819110084841 -11.616969234520768 -3.4451225530674368 -16.008810940474827 -2.23882943590982 -1.7487227533718617 -5.642832847726611 20.308316422651547 -5.633965787079065 2.3865466627094882 7.094543183965785 -2.824565561322431 2.950501010023199 0.7859534210811423 5.09715268153179 3.567158869143339 2.6390578781427956 5.3244485836492 5.68289811621317 5.327581822685551 3.5787109037699563 3.9678274406460807 5.378141611121003 -1.528068163749623 -6.459592951320905 -3.741625235208296 8.177333505683668 2.195029193494407 0.08688430784466429 9.83868934717578 4.683870198872882 -5.360314371821198 5.939285160848846 -1.0942147745112532 -2.367981863539549 -1.851142160698447 3.7526666740648644 3.237913609752979 3.7930608206184915 10.706562300554838 -9.495854435944565 -0.7884063436681539 -0.3976797125579094 -0.6764866889373438
1298531 -54.84603497156921 27.523886875866804 -15.494597117012143 -30.36624240074582 16.092725307432094 30.02364128018951 -0.8769600752851996 9.280021931694634 -1.8913533779907572 0.76328936966713 2.594024778196892 5.519824832501525 -8.80387753078381 -7.270838242608419 2.581354763830387 -9.216003757839003 -5.748558018557246 -3.045948246698878 2.70067493726278 3.555709145212994 -4.446157499759747 -9.457399818460186 -6.191326812399078 -3.3910845432245313 1.6165689899883404 2.655674082126436 4.08382338568373 -9.655296433637458 -0.9348805090860398 0.41913435988966175 0.6813925611451229 -5.231524269030399 2.766884882438193 9.659889007679832 -4.444221921330719 -8.512274176587509 2.1458680654019706 -1.886669309890786 -0.6937772592601765 -0.21674302974972373 0.9904248980208109 -1.3631215359233424 -1.2749875664724917 -2.6056986141018634 6.325151559718106 0.8632471464625651 4.505225286514879 -0.4589638962720069 3.201277141692197 -2.491932230990794 -1.6395865664542018 2.7982948723717995 -5.506842287683246 -7.132952957798569 0.004928649991527203 -0.02575198153464099 -1.9533610888515278 -2.2369364026217884 -2.7114141515892567 5.720978343951385 2.048191010613922 1.359245855191724 1.2438799105404286 3.2606050188762636
1298533 -35.12525831837456 39.58038590809611 -0.33109509886230115 -3.3523475715971474 13.141196145904587 -6.124888726203208 8.43423902055003 17.40482656392141 -12.185687937879509 -6.114810349523019 16.700871324316573 -12.887923067214793 15.340661332579876 16.083127670040913 -2.3775494927160903 4.620806053898635 0.7912357226962876 4.584432518335205 3.948195363666647 0.011593719128927297 0.22797718267430553 8.95387652367332 -2.6230762875849427 6.562471348813192 6.238156654315912 1.9830730010991655 6.396582479487248 -7.196617398281825 2.0980723458083186 2.716961476136833 0.7657425194067908 3.4149565163703355 -0.9175653450926635 -1.6880934203901197 7.092510127240117 -1.1582869813566823 8.944138078884896 2.8418925838659836 7.040552900497514 -9.083292564324598 3.849520462535969 0.20696885826995018 -0.8518564862072396 -6.319721912534792 5.633223792667485 7.916934399483878 -15.967950122165343 -3.71550349964295 -5.615815229756598 -1.8031146411814412 3.6411597911395486 2.1444338967126195 1.472122791341423 0.7676207698877969 12.987549777094685 -5.380272560585333 10.50547161072945 4.754381743218067 0.12400817068805718 -5.722492364672559 2.6375613739112986 -0.6156110925513449 5.930990869500241 5.364182437141215
1298534 -9.000521949589597 6.326935091086505 36.105480401188125 20.444766642107307 41.52583459511336 -14.618095796464136 -2.7033167775934106 -0.9139104916647988 -14.654000928196423 23.112507991587698 -14.858160162666497 0.8637193787911627 11.857433115262797 -8.942134826940867 -12.374578097513583 10.122118856937442 4.343962123934738 4.000589806476521 17.05581382976515 1.4187328010622346 -2.67890686997987 -0.7756932384261388 -0.552133673731675 -2.0834829793124148 2.7144180848536545 -16.47295265775409 -10.096514706689769 -9.940683233216408 -9.521845457914825 -10.358982499625865 -5.665385550047993 8.26944778673494 4.365500039553534 12.88823429099609 -10.268327788351746 -16.15581091887603 1.1005587046906657 5.679769301076191 -0.5036204343345411 2.084973129373436 -8.484460824293391 13.695025011913245 -2.6052338825934633 -3.6693476032227874 -1.55669647300963 -3.7318515868140434 -2.0336952995855335 -13.088086022867467 2.4548984907004776 1.664582797848404 14.595268970318138 5.206452517122715 6.706562870731022 -2.703484464820538 -10.189103313755373 -5.135093515401029 7.037453468994355 3.4103665457899135 1.7157227298257505 -0.5046138888730057 7.623754555104383 -4.76511606412799 -4.694026342922929 6.393389441964328
907281 62.224741925988965 24.328942936431144 -16.98830615050187 6.972332874262362 -19.640316406437087 1.8683569755119391 -7.326824422021621 -4.024008556017828 4.405383111104186 -4.1770202202912685 -17.14544614655207 -14.835849520925093 -26.015908176718696 0.3895762055502638 15.665243141913649 10.97884143411305 -4.156576320824914 10.821895352708077 -7.182539146705672 5.269915214619211 -7.821385271322581 20.73356893830204 -16.724996059045935 -1.819150347361631 11.826524399001265 -5.4268111871344376 0.14334919457511647 -0.42391513064642594 8.830849260012085 2.86455744303386 2.7242519581509836 2.943746488844732 -5.491029997000936 1.538312230686359 -4.31149460408641 6.421876927563219 -2.9632148709571022 4.932898855546725 -6.455620841088953 2.450337003504455 12.691978484265126 -8.071854547430684 0.08540192715720094 5.922912278429919 -1.9861388126195731 6.674053697561642 -4.962221711912532 -5.332050790141195 -2.0696132932930538 -0.9393509802738971 -1.7410930629592283 1.5942669567778165 -3.754785273809225 3.483356023863876 -1.3817540450935348 6.7924276898042155 -7.202687073364312 -1.0448666367971213 8.600622637972108 -2.7580864431472456 4.2416442858432495 1.8990721917911366 6.332123064923563 -1.657214840258248
1298537 -36.29866126763452 38.26495948682363 10.615197074647126 11.159708157878894 6.728944125239584 -5.883407032666171 -4.295657874539275 -14.840689462868951 18.91993310454591 12.767840235087709 -6.651696088418856 2.716085315794064 26.224284282694757 12.98664869200129 -24.013585294963484 10.789953603285232 -5.494137456686814 -3.9090916926345325 4.5102884028713826 5.159431791740233 3.567914581294644 -17.879219281665375 -9.028643061141722 2.245556521167384 7.213273994527947 -1.0059737992423177 -1.35076607928414 -0.9519229590284768 11.69313103953938 6.996043203644947 0.2412116695446653 6.509071884103636 5.481123926273438 16.102951204418176 -15.33667243496513 -2.3157359138857703 7.162233762973218 -6.136430273492162 0.2111064436701426 -2.697960323901923 9.03413916059617 -19.144789218588794 -2.0217103609795664 -1.4305556820240528 2.7582930189555848 -0.6222523110683605 19.151666169661947 1.9109781540266997 7.561753328311185 -6.883618852524806 -1.2569780948620648 3.5941275935763852 4.482757763254602 -3.916113819899555 3.4902787811436258 -0.19174637519484689 1.835012811811149 -5.005901816234431 4.35504386497415 -6.563244954388792 6.832408817648513 8.942310289188379 -3.3988614415231067 9.29222796036113
1298538 -25.660740317470292 22.607629994071416 11.984962328968537 0.26030422199917874 23.372853315377327 25.87483072853327 18.45967020929347 -10.12532933750215 -16.832544316430123 8.930585323572533 -19.15652360218644 24.830438596139224 1.3780232164085 -15.95569043703145 -15.752473192403343 -4.390300270314974 -5.1474018524717655 -3.8734431359054557 1.1754109444419039 2.963495106103255 7.774094301621785 12.342928804199714 1.0561295427925794 10.269603205645152 -4.98919326669028 -7.414282216758503 -8.002334943262465 10.54152539516868 -13.346175957983984 0.5834439710055717 -9.327289327281207 8.276941948106563 -4.915578209876884 -10.919416933323065 11.928924933587638 -3.809547554801411 -8.612417461173296 4.954029675378814 -3.1389907247708617 4.1893567825015525 -0.7083456435811568 -0.3884157763215397 0.11067582970375309 -8.299319785974705 1.9742470187055443 -1.7054749631043309 -2.942984262436312 -0.27448997535150876 0.3116374835845363 4.589706024625403 -0.00415782168830146 6.697576546560713 -0.9131960405996156 0.22393874081950277 6.228593345419434 5.8033429534513035 0.7581524595577885 8.080300010765596 -0.539452953409537 -3.814069368210925 -1.028626017038646 2.6998052979840157 -0.9788868452424644 -4.5076495874878155
1298539 -23.618039916576603 -31.164650857662494 -24.295817297722646 -9.833034866594817 -6.27557686028855 -9.012680760547623 0.816491097134808 4.491663900818812 -14.680232196569765 -0.6697908515615967 -1.2461250761964333 -12.499542993724472 5.285409941370261 -8.726968470715407 -10.660512525460332 5.189705415537096 -3.509367109410624 -6.980771615980793 -1.2047427128006425 -2.821895244153911 -10.066835442054122 -0.09792307117625505 9.923309807278818 4.174469666419569 6.343795335974449 -0.18565585778201837 -0.6676605009674507 4.191352492785085 5.973399278534811 -6.961546269005006 -6.288938554873135 -12.810065063550168 5.546536059100813 -9.78522312871998 -2.727439067020585 0.1967742380040471 -9.62495863529518 -4.541759272531942 4.94820037504598 -12.649354963282493 -1.0626614329808544 -0.403204083570243 14.032322936716708 -6.700375348319748 -1.3292354076052955 -0.020117968139451187 2.676708391548659 0.480895722630522 1.3922681607907728 0.17404948857589753 -1.641632330284336 10.275399144181128 5.497099026948968 -8.497399430341899 5.084316429551507 -5.0332928010358655 2.2675715794019573 -0.8250618822784898 6.718342868192818 -3.325975239452158 -6.332912739577822 7.006676999851297 -5.182837596928529 -8.176551070972804
905983 -15.839992634434845 -44.53895816333966 -3.0478336753910527 -8.927569815097929 10.303974233748184 -3.076234631382809 -2.4025319254566013 6.646013712504395 4.714691923905099 -13.222275302719833 0.10226044683895412 10.197305820394286 5.862614688316087 -2.2851213922847955 -5.905478129327308 -1.690064287962367 9.240657965541024 -2.6604099872273315 12.208695573289079 -10.244624756371714 6.359928939101853 10.942727752022776 0.04972718033646467 3.2139199938239105 -6.874570447905666 3.6949206399352934 -12.03238066049632 -6.200021802950097 -1.459779203626463 10.982995620951264 -1.3468815121699989 2.5553977073011067 -0.7128203504901653 -0.05097497169656846 7.6875593291430855 -20.05869234064 -9.857111845172817 7.313401412363431 16.489906818537595 4.23404397346899 -6.767720605962875 -3.3920728858995863 -3.9481112926760704 -7.896399404352891 8.295210424655 1.9330374623622528 14.863744281364754 -1.519397197072531 -1.6688995168062744 6.696859997234395 -1.0384921515231658 -3.926512731390021 -4.230034622766897 2.1020264481899127 6.358848454782345 1.2313906869127518 -3.7064728211352502 -0.12621793239677895 1.2468203427104843 -6.749108156484103 6.876622138181397 0.7932101093998725 -1.9847630848253788 -3.6169761531713895
1503361 -3.0501225329554273 -9.892176994630272 -6.782920805762259 -2.7761455637651404 -33.72149094722679 -2.8040612877840196 2.4400594600985444 -17.32245869392077 -7.776622199819939 -0.40091082866148375 -7.27793969595674 -14.083866885089613 -5.033459480945658 -13.058572018759701 2.1395601635161787 -14.700137293490451 11.680525220172585 3.6556968486962913 -1.6981441080710287 -3.023547082281369 7.970927829952289 -15.110829415345618 -10.515301462632657 8.567799521270532 9.22002868880841 3.1172177947234463 18.646204901773938 -3.692041673183908 -3.517536666844948 -13.786868003206703 -7.451945854672143 7.572547420595926 0.16509312688929956 -6.916483586209486 -4.571847977467119 -1.6730146830968593 5.3667991503498795 0.9739770634324468 -3.262556449608387 1.416948487273795 -3.455017302001218 -7.958269361351842 2.186450193340801 -0.6879386317144114 6.222145641445227 7.057732391855059 5.067765508468901 -11.411453104785183 -12.145586274857514 -2.4112413364999523 -14.540611287720695 3.3487420888843054 2.1943213893990263 0.8710175574285889 8.911713394077045 6.192561863614759 9.187443991149708 -7.653775123982814 -3.2082502584472037 -7.871372724160067 0.8766537491522569 2.8885335701990313 -2.7923495246950303 0.06152414766420559
1503362 -35.450280329803896 28.449552723922434 9.280066900829631 -5.38290487554075 -9.67458252464546 -4.8256410092223945 -4.728296224262756 -2.2166993090605263 -1.1773702150240588 6.184293380172771 -3.9615206859615486 13.00497118102457 5.234270123694141 12.994061962211134 -10.197909628592967 11.310756587586386 1.2744105585660228 -3.270387756143673 -3.172657840277172 -5.404583717279662 13.651547409152206 -9.883525998237252 -3.331174634776597 -2.216826905458853 6.505459040511975 -2.7992894484515634 -5.277908471895286 7.6354309668925335 21.64131107319207 3.4416224625518224 5.403913249855446 5.739807283932281 2.499724818384345 -1.8050947299398048 -14.827058867306734 -3.501374883075307 -1.715169653152041 7.666261314124293 -1.3011631453835673 1.429696071472921 7.872030202078602 10.091551678958032 -6.921652564705508 -4.020828732180543 -8.314161106258306 1.460584661338286 2.901896919074692 -6.771398222615404 7.408974672739486 -3.0067191018103077 7.63740732556628 -9.254292044251688 11.442705889142815 1.1137657866400241 -4.419862201574627 -3.2661992543901355 -4.277912080743178 -4.855927554653449 7.799963882225612 -2.5462322330290132 0.05905945592786723 0.7578402356477486 -2.4693121079972857 2.3256613444898586
1503363 10.026620021838518 -9.226010033797314 8.127289544829734 2.1151765793743222 -21.190412644607076 -0.04240938903809971 5.876518625443656 -18.498945391291887 -0.10153699108878024 -0.24843467038095637 -13.566686899273675 1.1146551160825309 4.812490246363475 -1.2462052244715087 -8.582128346311885 -8.111486428278345 12.191349480424464 -4.584078770164832 4.687313983530695 -6.015916934847849 -2.6239438228983603 -3.630488370021195 -11.991168612815212 -2.7290822026043724 -4.96547916866917 -0.04724138415398939 11.736142530592655 2.6617002168420996 5.711561504946794 0.9358618129755649 -0.3293204642586259 0.9933360813698742 -8.344506177696978 -0.5497751687403319 7.6228816281042295 -4.118389559502985 3.5578428215350657 -1.395145035718267 4.557023113787835 0.8417909053667576 3.5935435755175495 14.294140085732256 -2.1603428309693924 -2.836156808235967 -4.766930965239175 -10.05159201006401 -8.864465373747414 -4.382567731525129 -8.560841555081858 -2.1654492421292377 -7.427069842125483 4.26154482552102 -0.5808571523267784 -8.475052272480092 0.0696943640453586 -8.825084397072715 -6.7779013529302405 6.145239478869934 1.36739411452783 -3.6261862562670117 3.1375357989456014 -1.7302969398747505 -1.537213978756592 -5.5692911897121276
1503364 -28.65148093043678 34.713203272264046 3.298345366286212 -2.1399647457739146 -8.866544230284529 -8.765770085227858 -4.711596872894882 4.909374583624746 -28.57674644117025 -7.916167865760297 -5.508999236981276 -13.516233414242077 15.91311539879708 -1.168337385452038 -12.443394591619855 2.16957857588447 -8.148952744211199 3.261652287813033 -2.2274177646602453 -3.9971066038025946 5.850523772738023 9.67521484928032 -2.496401195606919 16.037108339455084 0.7368452171804784 7.891916508309949 8.0837689491852 -2.1687970289691934 -4.1498624649120455 -4.231468098440517 1.0225673845426637 -1.7701126507190403 -15.816745723917508 -2.671283403774647 -4.182556330367617 -7.909920476544108 5.348970407328981 4.185255194007081 -5.886655087907895 13.668788288236401 12.613723422433823 -10.379362078657817 -10.011169897205765 2.370696828394972 3.650174638740865 3.1742545124998855 -4.198258993313714 0.21363924953285063 -7.462328448984132 -6.808994189594855 3.4861830105514864 -0.5775630831852572 -4.73324450525301 4.547064424145286 -2.622765085040014 -5.9835818436960775 -5.24909369225177 -0.1266147749617015 9.39446598066258 1.1633624595011445 7.16076107663872 -1.7877249693425996 -5.7988867466104645 5.65737119519473
1503365 -44.14579167132902 20.872944032051223 4.466829039718398 -14.289080266154103 0.5950688261712177 0.9071351876484728 -3.276633587790857 7.0045255348469055 -7.3683809758806476 -0.7885748696121089 4.465160239376437 11.9238241409472 10.494871982407728 15.047847822821373 -9.282360747812286 8.055902750062572 9.978067171048318 -5.860899683628558 -4.924287519345633 -2.8110122563497892 -7.952676481038709 8.666412740366585 4.078408912337585 7.878611492066895 2.750589717003074 -8.921424364302768 1.2868488290085685 -3.4404111336128507 -1.9165154901743715 -1.738781549790555 7.620256828657848 -1.495402986268058 -10.635201016901684 -5.564804145691241 -0.527218761574978 8.588829082760384 5.724989249522971 3.132428226325936 -5.207901316727328 1.6105913445208069 1.3369448433011069 -0.5575529560244198 -2.112867161779907 9.474469476080987 -6.983520418846225 3.8337728292128337 1.4101359019716997 2.914405502839307 -8.564637587922027 -9.557166449989417 1.973319502107332 -0.09259368542725548 9.116152666839108 -2.2148660822501833 -0.48836292342956106 -5.0938948823764045 6.7194591418819885 5.531943495598912 9.946768192698702 -6.744773600267321 -1.280005223214894 2.182775031700086 3.4911226348115054 -1.0827016928896211
1503366 -28.574162991183638 53.556094929599645 10.197903038675141 18.84005752275011 15.02143088292421 -17.90420004507211 5.367465616154148 15.477131664139447 -3.1853582839423296 -17.81749032962356 0.06192215786293705 4.563687806825958 -1.3249074131692333 -15.308860395941696 9.861734639470734 -6.345900027159648 -5.427652446276355 12.965800288226509 22.079927116640174 0.8088535604801523 14.58732280109891 -19.639645782522507 -10.97129203908221 -3.439468173132506 -10.264684363467623 0.465147265098837 3.4215239751089204 2.643184987013188 -12.277613961750806 -1.3036538960640092 -8.997395106288579 9.191833762715506 -2.1650376970049763 0.6186510533955086 9.972777596224146 1.1497814667567705 -1.4703505557523824 2.1325873240082625 6.585002278408978 -8.97519764624461 -6.636442128893736 3.8571261619201795 7.242190031569547 -6.3301909987569145 -8.914727696632845 5.313049478381253 -0.7433376617760041 6.048848381520481 0.24830463214574539 -4.730768021548709 -3.76456270519379 -2.0260071053320807 -4.25427343410619 -1.8642747050480553 -6.362607881995353 6.534464159423501 -9.151423538916363 0.46523003006620367 8.219030069150785 2.1123450538027653 -1.162345917451308 0.5148361791040666 4.098368386272116 3.6283117712426627
1503367 -31.139514897861112 26.968538367167962 -7.837268632686432 14.37995898929198 8.818234578944566 -18.477348385142914 16.2498614595756 8.43104138860266 -8.391221585507056 -12.373663671577702 -12.689723165465695 -0.7559810809871789 -0.5333395880658105 -10.267201846962234 4.162673829917423 3.9199735292798534 11.061699783445471 5.166598922467758 14.438922498294824 3.4275342640030173 13.452254381474663 -14.810444681899536 -13.997595899041848 5.792596737608606 -0.9126359732067288 -15.155416719146732 20.806938942232247 5.826497046710703 -9.95365713139865 -4.950224163554778 6.43951528699874 -3.5278505924327166 -11.23118322249555 -9.875683384984473 5.808296189293718 5.562688904944085 11.101084542362075 8.90294569707354 10.887976943953058 -5.149692025940186 -15.498085047031811 -0.19670775630014212 0.44693643974088537 3.430378246991762 -17.774863148361604 -4.651998772796862 0.5851390467560181 1.0715382116999983 0.938273234962635 -3.081458329405863 2.426118363681679 -2.0348219323414716 -0.41176861313809215 5.3984279442254435 -6.440239649066764 7.6383562695124505 6.776137067293855 1.3489672919920905 10.683282454110698 -0.2707393953476697 3.358460746614364 -6.101299371988384 -8.413584406669191 0.3275274079090011
1503368 -31.600176489667227 58.08753874634517 7.4107044905734405 24.876155672305543 -0.9091145547375161 -21.99086407272765 -4.041165182350162 11.132800839924904 -8.161198145214849 -17.79483848778865 -3.529989369933432 3.882334576486396 5.890042135247442 9.894911868030823 7.353287225016138 -6.406291149355178 0.24173870571001738 5.1273794723243595 -0.0648985402806909 5.482416046802675 2.5207380605863374 -9.929136565626957 -5.082299988972973 -8.53402823141819 -1.3520276631413572 5.00591079868378 12.96733936953616 -4.902493083241232 0.8168307141474666 -13.21606623150547 -5.428413934485895 5.540453862463532 -3.9473197348987537 -4.277199830947108 3.6467024347899675 8.55754382173903 -0.5037546856853866 0.4338489322397193 -5.30751718683795 1.1758345153375238 -8.956544395369637 -7.203671525394481 -2.6588722943718017 3.31096942642205 12.275536986606888 7.731236961499968 -4.268980189666401 -3.760805237872717 -1.5141462707937412 -6.602518936773919 -4.274421397731193 4.302720094918965 -3.8246286583721765 -0.14227144236632133 -3.34894240526804 -1.063714319950271 -11.173418399803628 7.533522075018346 8.975537600588215 3.354491010373249 2.5808924103874564 -5.071063623793392 -9.37391307509325 6.926935256804123
1503369 -46.77970507412973 25.39589786515051 -10.751499469276403 -21.415443048510358 5.9178599351765255 -6.035779370473494 -11.231004374147542 10.395761335483323 6.7767113934622785 -3.2523393506574116 21.630117723249437 -6.930989229502227 7.908533232064845 19.09883017270447 6.397660686366839 0.11022299076600517 2.5159100897148856 -2.510897070256495 -3.224556656641884 5.477892500582383 -1.0114374579241765 -7.738119933491492 -7.484253297379252 -2.8941727844214684 0.6072106881353084 4.790063459775247 -6.672174941313362 4.269841089286854 0.8470541806856089 8.9636425648418 3.2656621603985956 -0.3747711648933602 5.779145217514544 0.8934621973819659 -2.70999225845441 -6.115710227058877 -6.859263681717316 -7.425962734858684 13.835203365230793 0.35686155009901377 3.507470634607734 0.7427829588591054 2.2943854485797184 -6.041019817002662 2.5068169633503583 6.182196357763784 -5.005327915537699 4.944343125348372 -2.221895287572091 -1.855048444007546 0.5401684366874874 -6.780280913888901 4.6110618657101075 4.471883174994686 -0.41260726828498434 4.770827997888825 -5.969571181812247 -1.2432660963740598 -6.197412828761617 -0.4433898054370587 -0.27439516527378666 -0.31197575012237977 -2.6591835755802564 1.9484552128161121
1503370 -31.120888946762303 8.192597354971136 -0.2913946044326106 7.674647929708075 -3.472611785726666 -12.760506940974784 8.843412683752813 -14.110986167451857 3.8595998099513986 13.360764207980857 8.436585334514497 12.561562107568813 4.799489758887863 11.51273746343854 -8.922755068414887 3.855684018305867 14.55985183571563 -11.1606374495586 -9.216049825056 3.848615817576363 5.5024540469714305 -6.03452463280953 -1.0752920503303003 6.31381996490043 6.233681870438028 -8.509494328532888 4.920724145266283 11.307803341973575 21.754513385000987 14.145865084208664 1.9558567644359086 -3.2070815810524675 0.2278640234680277 6.556822154936084 -5.723090201691949 2.1995991495604437 -3.8618459104283773 -3.1955462688078655 11.217350346769908 0.48210795120460004 -0.7171120648607001 3.271417347827566 0.12532011694498077 0.6388817365052558 -3.5625251055282923 1.9023854860870022 4.076292943181099 -1.9481386623209491 6.040718992480291 -6.531883416997214 0.9141425864190117 -6.647057687585288 -2.6294704063196184 8.078714534594639 5.317613454544327 -6.041761124104231 1.4775921031065764 0.8187858949275616 2.1153038632052747 -11.85420363675483 2.456024974523132 0.508827667686774 4.65769851001516 -0.476378601289568
907287 -9.067619919602638 57.672779645058775 23.31127516208072 28.2121942760841 -1.0973601306878529 -21.899548223569706 5.582015035421159 19.010517617873276 -0.6432984792440617 -32.04761098830001 -0.69056728598261 15.258405966346466 -6.440708142440532 -7.806741152786026 1.0377994062333777 -20.57881203773001 -5.739532975756506 1.3610895434221373 -2.4378863013630028 -5.738059389478223 2.1333439732877175 -3.4937079967102203 0.9270692363841837 -7.4896677246214844 2.607161276109489 6.821651847366362 -12.38302431275085 3.293132012123805 0.6379593757806179 -7.760848086303833 -0.10545057494022451 9.0023477339809 5.506896804819859 -5.481985177662163 -5.279540593552182 5.8086171400751105 -11.909443406252533 -1.1772536485020328 2.3394239608350236 -7.310001392986417 3.7073305331183417 -3.9356495109208733 5.963159490369692 -4.449373540318563 6.079799116349912 -4.5700635564746355 1.5236803440126712 -9.364939094410047 8.637874274348125 3.6045402848078854 -2.0352828541380292 -4.984385291314124 -10.374709565615362 -5.261199700503085 -2.1494742307742287 -5.969627756887851 4.261132749103792 -5.077015169876109 4.97856774924302 -0.29373938946297223 -10.51420833225242 6.826345596481087 5.587854342827393 -7.133306349895815
749709 -34.786771937784515 37.185368076019735 3.584827027837392 0.15389939437995273 5.702178268270939 17.322179021869548 3.978549102556789 -11.428860876100202 15.793778892750666 2.2638619626554215 -8.779468212228332 1.1618125372121424 8.433256455790644 4.118383168481262 -13.39823349902033 5.215845525273246 -7.721595675711344 -7.7139328351579195 9.44479217735378 -3.138616923144566 13.942060502998054 1.477379974846087 2.672686221035027 9.830602210468568 -5.910244172974216 14.634131640267835 8.682292917268674 -0.2225684195745154 1.0535745712063282 2.1233708212478306 -6.80737144487068 3.437185112721444 -5.0086816517773345 -4.595032640226931 4.527266963758796 -3.736944514480884 -1.6716245893092234 6.08234400761439 -9.24780903915438 11.450853985515094 -3.8570868502445954 14.762502791861408 -1.310323597996571 3.960949021992376 9.723928452581001 7.361458659680516 4.9151451256282295 -3.217674641649091 1.6622788083560875 0.7929926860179503 -4.5764201067346155 2.813981060117453 -3.97023618581622 -4.428906485780913 -4.092015146728551 0.587883208840933 7.948994312033206 7.806386078128415 -4.524251899909419 -5.483980255220966 -6.880057307536579 4.825824690965823 1.5469299877807916 -3.026970818159635
749710 -34.07256908809221 24.55410081927498 0.17998675287159324 -25.53030074080927 -20.45821722852519 18.922506433060406 -2.1141263986588825 5.518202388933205 -16.20169879083067 3.8434328423038537 -1.6605121854082912 0.8468379312761233 -1.0657879544248678 2.4830664885021227 5.421263831982513 8.708715798377213 -4.419066199935321 8.609849495312488 3.0478131043757877 1.2205734812207212 -7.643770672561647 -1.8220599704013853 7.480039328832177 -7.576364798055128 5.419964605750562 -10.015819632572093 6.776148819407367 -4.817761474888857 -3.0491786769752824 0.6531875913906198 -2.6965193457211196 6.131229358104445 0.08329581525434046 -1.4878786369948716 9.30483522841841 0.5989366592631608 -2.1907275707707057 -0.893037075703028 -7.885796421630683 4.509323218503595 3.8425315807866975 -1.3085512448839975 -0.5517753117729469 -6.095912869729137 -2.1225952183340118 -0.660181127199066 -5.201815123140426 8.071393569754788 -5.116765309127888 -3.8806057717561266 5.618159669207457 -0.6473163505684787 -1.5124477625035126 3.3665977683215997 -6.166755066084516 7.544644917515366 5.841949538254804 -2.8654241022076974 0.945323967617755 1.9516814969748149 10.343592782742647 -0.07443717570763607 8.451308598295402 2.4211606158561616
749711 0.7519825957026645 15.11147914671579 15.527667116681979 -9.167414529711662 3.3413350034480236 10.18045395669632 1.864836631525999 -2.8675847158359056 27.847295345184563 -0.1797502808392195 4.385540057767642 -4.013003931396787 2.4088620727451087 3.595783798697292 15.377871620034357 1.6013220115743754 -4.041409828937675 7.181980143946712 7.985732377547473 -5.842679049371214 19.6096164132013 4.856862547037732 8.2941072650681 -5.055735806765587 -8.302518289337304 21.22823679129133 16.92974060899733 6.863102670013075 3.695083141111067 -3.814054781125063 0.8143040385259829 13.56066664852437 -3.146798062276212 6.8286568220034 8.075894302826322 5.166445667237431 -6.942622986778914 2.5544300982441928 -2.1679450763616974 -4.226761682470299 4.6621558146468844 20.48847678305217 2.061529828583993 10.979863304303493 -7.317349042143984 6.186932811475883 -4.836561520458707 1.2424217377318703 -1.4441399205705832 2.9614179247119594 11.578227206525122 4.941971667110342 6.8765228318371285 -2.6969152585217384 0.5946478193005343 -2.9756026665757362 5.320845783189311 -3.697777656169775 -2.9910988867764217 -2.744407078393269 14.595209535613202 -5.733333529543419 3.362205815453536 5.087623916052048
749712 -15.158991030993192 -28.16223369289484 -11.457897520216639 -4.326009935815668 -5.469336188133459 4.6635729786625575 -5.959370055722239 1.1669995745522512 15.046254218111669 -7.0416075026906295 -21.127500149153697 7.633215113793256 -11.01913335807895 4.179481907075282 7.9012247947567085 13.987783850536465 5.990509956630926 -0.4852163770490624 5.510966823579443 -5.601556184278018 8.84530356964878 -0.22851887992983733 1.229716474957093 7.497739309873407 -5.532561028213792 -1.3624613509346133 13.591258049243661 10.972665339638061 0.6631908835205985 -8.44503782776888 -3.34033012913683 4.999405877672037 2.2726446207785247 -7.8917383490518915 4.411248415678397 4.122247055454912 5.793584737645034 0.6687757017413002 -14.455049603531855 -5.944125575601644 8.625552036264724 8.014563421436275 -1.9248804205112746 9.806760250318957 5.517298260712912 -4.010252188904962 -4.764884187069528 0.5836997225740423 -8.72631879693078 -1.9882046062317855 -3.705798119035835 -1.6231832208011285 8.10754743159976 -2.0104431255582136 7.486328434558449 -7.3771715623651115 -1.0577263059760533 -3.3937246885645678 -4.672193013860721 3.299715486176005 -6.301826096783027 -5.411872912896471 -0.4009296465341364 3.9629326038914807
749713 -3.406792452993121 16.486395645183606 29.055143423634775 -7.4854824287390835 -14.229508662803143 14.075766547146104 -2.915512633950746 -7.8601401212449415 15.00727544489459 1.3107328487866834 5.26386195010163 0.6315275987997109 2.6175561587472 -1.659827006631094 -11.897680251602885 -5.812228232910505 -16.92666434186587 2.103690788564246 14.64623726416575 -18.07899127326881 17.753048300824457 11.194655305105375 3.944755401995846 4.076757769986976 -1.2536700854613718 0.23055441797292633 8.595415423206324 13.064508953207088 1.3796466674407017 -14.991636230071485 2.3198886838757153 16.61089949964851 -8.7885667909719 -3.8518111193043043 7.725812367516247 0.6293199094386337 -4.749811090353842 -12.146825297860728 -0.4500568942559945 -2.593576050987924 0.2915600725049453 19.16309823435362 -14.000133702487274 3.4952059049146187 0.9352806780508465 11.31280110570661 9.720923831147944 -4.357657762331288 -4.465006620425779 3.031349276380038 -8.134073992790098 0.09934347464839292 -0.7532626673874145 -11.312052689532317 1.670481121693213 3.2138893779051037 -4.317354256693919 -0.7299917908964898 -0.345015135169411 -5.300320785704065 -3.667534279612919 -6.080620826662611 -0.2066193176037753 9.798637164666335
749714 -38.12207025021641 41.94117400959507 5.951791736510089 -19.346480441505097 -2.5850939575124285 22.52439959037198 -7.781411129275258 -3.979731118737532 20.077036261536392 1.1838756169788798 0.9264155493317091 0.5242327698072321 1.9913275731009754 9.297722758484907 8.225876377887689 -0.14752163156677356 7.437483654587833 -0.42056262723391624 -3.4312084933881484 -0.5980639544818748 12.030781047357333 -4.12485957549738 1.0071650691937037 -6.621387050045746 -5.623845363753612 3.6973447322060626 7.8529952296761305 -1.4514568089430142 4.926368130052972 1.4300128162796755 -3.895804352076652 -8.646428251023698 2.833181441217971 -11.570305061909442 9.845365871386534 4.676148730275123 4.90081803658148 5.941608951071437 -13.376763499067902 -2.5112565956013397 0.6936624388648842 10.670087717257825 -10.700837955974974 -3.1064434765693782 -1.2840508661837167 -2.049370392619806 3.491526050827411 1.2222500716447597 3.303940324840161 2.6699049904413927 -8.806202311398197 4.933622150449615 1.456473101313419 -1.2048115409839422 -2.1975533361007438 -3.660937890982192 1.9955207063492573 0.06977713981363899 0.8139124021860537 -6.86653662845379 -7.492911358082035 2.343475283962796 4.13739096225462 0.30222585747871533
749715 -0.49983719622558126 17.052459641475934 23.876762143463232 12.700703894481673 -23.10988222211174 17.628761313164237 -4.250615437560557 -6.793231836502484 23.930206062318284 -1.3819375774471636 -7.714108989196165 -20.113141739489556 -17.864199878373082 -7.530065852960642 9.752271298107726 12.67526760815094 -10.123106191831367 4.37266328988944 10.880746262187492 -18.967501711672853 11.933580488864546 2.275270445767368 3.5126320674330342 2.3746779579144417 -0.8665100881246737 4.527240860850575 4.9090754908759795 7.745080286910267 6.900337058248399 -10.680274836080612 3.6028279149113804 14.413527392164339 -9.136938713840602 -4.466657488771516 2.786143128054092 -4.766617454324667 -2.3291446538859772 -5.955255737766827 -6.830963134367746 2.617286207134009 2.3918885315589247 30.63976507090036 0.13323769404283553 1.938553257077213 -4.459184858221925 3.1595356415348577 10.118588959858878 1.6219988263295297 -4.607428906849903 7.043746245261629 1.83950418952131 -0.07230243890353819 -5.39165162716847 -7.666518160357928 -7.6195889112421336 -2.8576750549185754 -5.649317978298985 -3.9762442330784014 6.0589139692937 -3.122078259321389 -1.690847215110148 -2.770783108867572 -10.129552392451243 2.939946164277674
749716 -11.623052736664134 37.71254664039298 24.317058894721004 28.739586419161117 6.042016417492752 7.690600406819122 7.556413813336615 -15.248853700129866 40.04053579632485 -0.3923169108577713 -17.123365465186048 -20.726718179243814 -12.790160063558499 7.00501741305522 -8.329314869371169 11.51219157761492 -17.446794716676603 -14.21713954015952 2.923411835914452 -7.032657894195884 -4.732282160238671 -7.574998635330963 10.522015036776372 2.2826732666307947 2.564989657621866 2.543234681989412 8.853727209175801 13.19000293619848 1.4530787921987316 -0.7468744444738352 7.7734952136421365 0.3638536770547203 -3.422502105528717 2.291269370281716 -8.188143565891393 -9.798641774411166 -4.960512884848319 3.1877209956682235 8.374915036633833 -0.5927438822341788 -8.270178807489549 3.0824064662542754 2.4936633142382076 -0.12058437406391415 2.8849136661038717 9.239140873291563 -6.339462999130168 -2.8626987512978177 -1.2799231338087942 1.7830192819158597 -0.521767280712838 -7.661839934607652 -3.993607184520696 -2.4654009868967313 0.8872913994289972 -1.727758277964441 2.9523697285191863 1.5007558472225302 -0.3607475529507619 -2.962910659632999 2.5312251708326166 -0.7035092679858137 0.4415408176643163 -3.97052498545024
749717 -29.539708326346595 4.300006482291718 9.9748580029299 -19.420542696368063 -13.875098457358577 6.617786885550083 -14.781484758486545 -7.304760317865394 11.162258871728303 1.5364090535173036 3.377977265654741 0.041772301075479225 12.961768257215791 11.368467829767388 -3.7310026972731123 -3.656221598976063 -5.108067700856244 4.132219650422096 -2.8346863040141392 -1.4586666701649056 4.111729355792804 5.043866642052234 1.8559058946936513 4.473368444282107 -3.52780520409436 -4.27096648941283 2.8529625203533744 8.26052784100094 -5.616430376745609 -13.037756590070023 0.13481981069226806 8.299981425795512 -8.576557288946745 -8.192083180284936 4.236818635273153 6.548913480259679 -2.201157745614017 -9.92407493707135 2.2091256638264287 0.649482727511215 7.845656647440414 4.179013830881281 -14.40101024442958 -8.702402476031773 -3.1925807922672043 -4.969899220948674 -9.146002545954365 0.2874685758906854 1.830529837380072 3.7249507837864066 -9.556164070088782 -10.216218495069253 4.7633378667155615 4.109778303866214 0.35439503754693097 -3.5866146612074905 -5.568123008458126 -2.4415663674207075 2.444123799259898 -6.210174836843257 4.170551956606878 -2.3657048668352707 7.857465463260998 -2.4663322187890944
907289 -20.860922408265058 56.77956235211061 11.473864390087938 26.021529016859628 -14.295203767770023 -27.744291052653256 0.6055765976086934 17.00843252725984 -16.282736443013977 -23.582717273100055 -12.935686788803983 11.72484403665773 -3.1137591814228434 -1.8567947153068611 9.11701460595081 -8.107985257601083 -6.872556558856441 1.7218485895555453 0.08835298628156922 -5.558914773278476 2.0398026506445084 -7.514332470992064 3.4829958975454898 -9.706441904585276 -11.66118899745335 3.9235283950393782 -0.5219263496603251 11.499456310573883 4.634288601530715 -1.6938117808894497 -4.618663849040655 1.0274706533983775 3.472420399289041 7.1642064420327 -4.630981975862704 -0.4697121912251279 -8.034031056266693 1.8533361936606976 -7.943336702424432 1.1114610289398565 -5.445128859132512 -5.960330323154594 0.5172029574752889 4.245703419059239 -3.376803881528402 0.48566326849448205 7.752315465195767 -5.283316657659993 2.4771621266879174 -4.200010884979694 -3.06811004942126 -2.4184707812884807 0.9722672242267663 3.652557587337626 -5.150182403800127 1.9435026309955514 -2.5165480716217883 -1.9236718890556317 -1.3480567502682477 -4.847732857499605 -3.467669545379631 -7.133955408259464 0.13737704646604226 -4.931094059094064
907291 -8.777961556416932 46.83547116361333 25.226352117418823 27.87148220529298 -10.58346326949101 -13.618184682169348 8.392994598582314 5.4999393927782325 6.521518059630523 -18.25068151227998 -5.821670963310741 5.559710890979152 -5.401898211036795 -14.883277050678085 3.6164312508887533 -15.45408386078156 1.3072310026872276 0.9979508967461251 3.4239760661146574 -9.199960690764668 5.845661861591109 1.890369558402813 16.048388299619038 -11.322081243720966 1.881554794747065 -3.0271162263814175 -7.172497349716429 -8.719802233690135 9.804644240596467 -2.5211277909434178 -3.01272308922554 0.19504963898231434 -2.640566720477131 8.705836745926495 -5.34571120061557 11.736098732215043 -8.333195730781602 -0.7805193229805504 -2.1802850891631596 -0.8847848933204808 2.5482239966743676 3.3287826584970013 0.12065710939456833 -2.013790677288056 -2.83325207346835 -6.498127420087934 2.3689488898127298 -0.4104086128357532 -6.192635965401929 3.8025506959275397 -6.652676070926246 7.652649300762362 0.6282388797623261 0.2299318593645007 -1.8456228183891645 -4.350058050223557 5.458269846403069 -2.951102867161972 -8.723310187207739 3.3230670517167633 2.2611159498979427 4.6692213248800885 3.932381429669602 -0.6305007934640979
946353 -31.608904609749587 24.03444160324681 -1.0427738157807533 -28.86991346671565 -16.10495473200169 30.448750189782732 -1.7932716583632093 4.0429859467788924 -19.962684773591917 1.4468899848470356 -17.10402539032266 21.293773880395065 -15.939510056727704 -4.673723085520398 -1.0952740622040043 4.59453534894827 0.38802485708373907 -2.712366973134553 6.8911112465245505 0.35157986906623206 -7.69406312469202 -2.629941602474988 4.343005795026874 -5.243463282196942 -0.10864766842802888 -8.059528186042593 -2.044806393162832 5.488693244294573 -4.062074752791862 3.4990445849943086 0.2042239546707118 -6.602996811413228 -1.1709262469979327 -2.863833242901494 5.985807235200214 -5.151791916132927 0.19432884975053516 8.578299997154023 4.882454468714291 4.403161048542936 -5.007619163865436 -1.1344049411781185 3.398379434745976 1.596798781409877 -0.7487832401898913 -3.6212159845727494 -7.003380329850783 0.5545362653301146 -4.036620332709078 -1.4570765501489626 -5.12721251290907 -2.6008933140479713 -2.3626228391488757 -0.9556524675397297 0.7027280684669398 -3.257643002423642 6.809593271381633 -2.299015573470382 -3.0752077701419123 6.187916718738278 0.9387070402663725 0.701540528768467 -1.2214608383326175 -3.1283286961702297
946354 -37.778376913067646 37.746583809165685 4.658580273234567 -20.48892170700115 8.288330589275489 25.29525926444391 4.326682628491251 3.6269489511643593 -3.722350044427457 5.3905070122779755 -6.721365631113807 17.73121055441765 -10.976650312848081 -3.2877744968074607 -2.0682452834308584 9.991422672000342 6.930343679537847 -2.831070709333527 16.19298030544067 -2.0054392524711924 -6.422251827056492 -5.1338934875973035 0.41362314263718913 -13.081231090047622 -0.336895335226982 -10.077178833265023 -2.880661340204278 5.884273713779002 -7.0179560362775835 12.034002509843686 1.337602768204603 1.2163257371267413 2.182587038855565 -7.093803610354172 16.390725126303526 0.7227195465484562 4.535884249242125 5.326431025761774 4.276600815729395 1.3624801591790525 -8.43888624032961 -4.125834579978937 4.831550636648576 0.11523492821832848 -0.40232890616432576 -1.2818176608474068 1.4869935815904924 -9.786571880179403 -2.6764203949027925 1.931947950325392 -0.676785426668605 -0.3451256211855294 -2.958434719559156 -0.9616221642573116 -2.81417040456231 6.522159897236115 -0.7538078859406786 -4.577554674822037 -3.0543121359055605 1.5339109532993231 -1.0707540083334988 -6.716242374260925 -6.676973591451998 -6.226252657908656
946355 -16.24187981446777 20.280380539524995 19.41300824463534 -9.540644441455418 6.108325982216525 24.77462545316257 10.183668695378778 -8.793265899597252 -5.233460412223982 6.956209100932832 -8.681682287596674 23.719022197450467 5.830083753170337 -1.761117466291405 -5.40199504537988 -5.566403985470497 11.219307508885972 1.5087155655316993 -1.5759726400916854 -1.778162326251555 2.473789392641991 15.08978907722451 12.83369469588034 -6.11496256012964 -6.2147725086176875 -1.3519214577041794 -2.075482895254455 14.325035133662066 -4.977700164908206 7.941730022564575 1.1004960919236282 -2.4461889862762605 1.9880252217119565 -7.487242744131579 13.16216103690272 4.112627458333793 0.639546150127929 -0.5998212409799083 4.451282528033655 0.7663792574002134 -2.484630870678743 -6.101536559496501 -1.8837773794992134 7.599114054659256 9.08630678568156 -2.733392270471129 -9.04582978719281 -12.211377770514964 -3.8776221835196907 6.647902171310238 -4.871349129857641 6.620685624544379 6.444924195406648 -1.166216804782428 11.730048133938665 7.952723627949661 5.219930029971088 10.947910326902706 1.742048830980285 -4.185537175623174 3.6680308397734325 -2.11395535564914 2.9309338636590647 -2.799595022009493
946356 -28.910166630906247 31.20541364361013 10.33388469273748 -24.12009528800938 -16.10357926135242 30.241623293145206 1.1311910299208798 4.197025956594708 -2.8347960556576854 -5.725236196836774 -3.9346262779941177 16.013339994057368 -15.913855573336132 -2.15651422090352 5.26709340745521 1.8868013147355172 15.89530251750445 -6.541508203380868 -5.649106124983748 -5.402660051948331 -10.306367920850318 -2.361517697869793 -0.5433659357100852 -5.841931665334349 0.9876345575458201 -6.992179176131186 -7.974456076427884 -2.244702119491752 -5.758715714596711 6.409853353826572 4.051955629682321 -7.17089547492094 -1.5038735318261365 -5.029423396178419 0.11530799973696731 -1.2968334582440098 1.8555372915918331 -0.4445773614825609 -2.00098648665186 -1.8321935914154848 8.334640686311879 -3.501857175283219 2.8126884035616713 -0.5114376376559157 -8.026102361825716 -1.7524375678420208 -4.4279456774460035 1.0410813330083288 2.208667934876188 0.14420634453101402 -0.20473581653598827 2.540618193726128 -0.052456894722983156 0.7174369388176475 2.53531761950384 2.542543776508996 -6.104607328952716 -1.6747389718141672 10.623984591613599 -1.1340157396616852 -4.06594293871466 -0.32428633535064105 1.2000247885613515 -0.5962735440150199
